export const distilledTurnArtifact = {"enabled":true,"passed":true,"version":"distill-turn-v3-multisize","trainedAt":"2026-06-29T04:48:13Z","policyKind":"softmax-distill","blend":1.0,"appliesTo":"turn","featureNames":["equity","range_eq_0_10","range_eq_10_20","range_eq_20_30","range_eq_30_40","range_eq_40_50","range_eq_50_60","range_eq_60_70","range_eq_70_80","range_eq_80_90","range_eq_90_100","pot_odds","spr_norm","street_flop","street_turn","street_river","position_signal","to_call_flag","made_strength","draw_strength","wetness","paired","monotone","connected","range_advantage","blockers","range_percentile","range_weight","range_coverage","context_aggressor","three_bet","facing_bet","free_check","flush_blocker","nut_flush_blocker","top_blocker","board_pair_blocker"],"actionSets":{"open":["check","bet-small","bet-mid","bet-big","bet-over"],"facing":["fold","call","jam"]},"validation":{"val_kl":0.078678,"rows":128000},"model":{"type":"mlp-softmax","activation":"relu","layers":[{"weights":[[0.360861,-0.027729,-0.516846,-0.301187,0.004993,0.225093,-0.228166,0.041426,0.376209,-0.116015,-0.896138,0.138372,-0.80965,-0.052151,-0.008326,0.1127,-0.055222,-0.297244,-0.300988,1.088107,0.056321,0.13248,0.265545,0.070327,-0.054074,-2.053712,0.042641,0.1702,-0.055562,0.149634,0.137869,-0.251182,0.053422,-0.612695,0.324119,-0.20904,-0.053918],[0.390109,-0.491319,-0.218956,-0.116752,-0.089329,-0.260296,-0.014592,-0.15883,-0.405408,-0.119576,-0.066755,0.626945,-0.873768,-0.100625,-0.027545,0.091169,-0.016775,-0.10921,0.156867,-0.230303,-0.045811,0.031074,0.047525,0.036641,-0.308222,0.314582,0.480406,0.216603,-0.036851,-0.1829,-0.116695,-0.225779,-0.02482,-0.061634,-0.085941,0.041722,0.197554],[-0.255516,-0.332494,-0.142479,-0.211551,0.050518,0.196804,0.228957,0.018679,0.047745,0.022615,-0.269421,0.331013,-0.344316,-0.003466,-0.05315,0.008448,-0.069969,-0.120307,-0.214108,-0.197765,0.129223,0.139359,-0.099358,0.016895,0.122546,-0.258427,0.265263,-0.012006,0.062976,-0.012765,-0.112096,0.114393,-0.074865,0.045995,0.197118,-0.004359,-0.116911],[0.332429,0.300891,-0.214589,-0.111851,0.050912,-0.102295,-0.077297,-0.008324,0.023856,-0.028624,-0.080548,-0.545822,-0.247877,0.017688,-0.010182,0.159041,-0.040098,0.056748,-0.163971,0.156416,-0.003115,0.03338,0.031031,0.014575,-0.032068,0.010771,0.158651,-0.019087,0.016756,-0.010463,0.065479,0.119062,-0.272773,0.056126,-0.277343,0.023372,-0.114714],[0.241971,0.233892,0.243533,-0.114446,-0.036835,0.055343,-0.134549,0.039916,0.304282,0.05976,-0.090595,-0.434957,0.187002,0.044998,0.136582,-0.141858,-0.100096,0.053837,-0.484085,0.696574,0.075727,0.130885,0.140104,-0.029137,-0.143022,-0.920691,0.003586,-0.205023,0.09459,-0.401024,-0.072337,-0.009717,-0.344828,0.103964,-0.533452,-0.567111,0.205781],[-0.363274,0.435277,-0.814914,0.18221,-0.337321,0.47952,-0.61148,-0.220626,-0.148725,0.465512,0.713929,0.182336,0.305768,-0.10437,-0.170846,0.048243,0.0763,-0.122525,0.460998,1.1883,0.063225,-0.300548,0.218586,-0.031958,-0.153272,0.759603,-0.124005,-0.215365,-0.116881,-0.034667,0.162896,0.091701,-0.112928,0.028672,-0.05071,-0.251103,0.001301],[-0.116724,0.0834,0.242666,0.132041,0.094368,-0.031509,0.099093,0.154335,-0.095584,0.240324,0.122414,0.546804,0.219888,-0.100222,0.05756,-0.0988,-0.029751,0.02531,-0.128922,-0.115465,-0.076675,0.18683,0.073896,-0.130918,0.049722,-0.068609,-0.142233,-0.076685,0.029384,-0.148419,0.049914,0.160462,-0.166265,0.068696,-0.106588,-0.053885,0.024255],[0.011229,0.692331,0.024867,0.130423,-0.259698,0.100493,-0.303774,-0.424462,0.268768,0.37253,-0.317019,-0.222292,-0.344356,-0.014601,0.059714,-0.059811,-0.229176,-0.077654,0.135218,0.524616,0.061213,0.071433,0.091484,0.037266,0.111959,-0.146526,0.073223,0.072467,-0.197736,-0.267512,-0.028628,0.120071,-0.328445,-0.162206,0.043189,0.178843,-0.09939],[0.105006,0.006475,0.069015,0.02173,0.065457,-0.151205,0.095117,0.009045,0.113848,0.056144,0.107223,-0.097677,-0.020498,-0.011169,-0.077702,-0.083981,0.133773,-0.167159,-0.127008,-0.016045,0.018426,0.059555,-0.138856,-0.165229,-0.028261,0.097945,-0.10307,-0.109299,-0.120769,0.104889,-0.152986,0.098345,-0.095027,0.124864,-0.108375,-0.032951,0.026457],[-0.109077,-0.226767,0.191173,-0.238388,0.124317,0.101047,0.065104,-0.137554,0.110674,-0.060785,-0.057496,0.518445,-0.119724,0.062715,-0.06242,-0.156006,0.125176,-0.064611,-0.039609,-0.451249,0.139176,-0.022884,-0.17445,0.135481,-0.099872,0.050935,-0.092649,0.029235,0.094562,0.0393,0.067792,-0.100294,-0.1068,0.13497,0.069633,0.026436,0.17418],[-0.069199,0.711986,0.209202,0.122822,-0.435117,0.077834,0.174387,-0.268515,0.752519,0.228469,-0.589456,-0.213701,0.027969,0.12812,0.106075,-0.107247,-0.040355,0.031863,0.147968,-0.769657,0.157601,0.136336,0.195435,-0.12167,0.046807,-0.250182,0.191446,-0.085017,-0.139816,0.026049,0.119115,-0.051349,-0.015858,-0.067316,-0.156479,-0.073694,-0.236541],[0.031857,-0.052753,-0.180479,-0.108836,-0.105785,0.045241,-0.041073,0.072529,-0.007392,-0.17953,-0.007749,0.094543,0.026552,-0.122679,0.027545,-0.009961,-0.152285,-0.123599,0.004706,0.011848,-0.111387,-0.053427,-0.020933,-0.103634,-0.064077,-0.137888,0.101797,0.009175,-0.113634,0.065009,-0.00563,-0.026558,-0.100221,0.033441,-0.032544,0.002563,-0.100465],[-0.242319,0.797098,0.443468,0.022227,-0.203433,-0.197444,0.190117,0.276464,0.034842,0.420895,-0.215672,0.067444,0.209229,-0.008424,0.151973,-0.161611,0.097585,0.135004,0.205871,-0.440189,-0.05688,-0.212752,-0.014012,-0.008959,0.076638,0.556767,-0.434428,0.028392,0.130692,-0.048926,0.141785,0.083882,-0.041261,0.028524,0.000606,-0.04919,-0.097339],[-0.100497,-0.134327,-0.042214,0.047322,-0.095753,0.012269,-0.106288,-0.01589,-0.111734,0.053247,0.083253,-0.00208,-0.168172,-0.137049,-0.042748,-0.107285,-0.171454,-0.152118,-0.041513,-0.136899,-0.05121,-0.126694,0.121442,0.032618,-0.085273,-0.154166,-0.08743,-0.151796,-0.054057,-0.035158,-0.126759,0.135897,-0.105437,0.105891,0.099312,0.074953,-0.03034],[-0.037498,0.34384,0.362979,-0.069683,-0.031589,-0.149575,-0.278256,-0.068677,-0.361964,0.514698,-0.106593,0.491687,-0.09747,-0.083425,0.076055,-0.082403,-0.035955,-0.140984,-0.220688,1.516169,0.025005,0.003098,0.210986,0.067084,0.015745,0.178662,-0.11888,-0.008242,0.217548,0.059268,-0.077073,-0.077433,0.16944,-0.388534,0.046414,0.117084,0.003506],[-0.050917,-0.396407,0.313648,0.038161,0.29384,0.079014,-0.276633,0.254779,-0.378886,0.218496,0.829255,0.05769,0.179968,0.135289,0.16609,-0.157696,-0.141736,0.210867,-0.479215,-0.328328,0.085694,-0.049178,-0.194405,0.013502,0.194661,1.506518,0.060564,-0.057867,-0.011214,-0.060828,-0.07396,-0.038589,0.135972,0.110437,-0.135778,-0.274891,-0.214038],[0.071305,0.11431,-0.09751,-0.134073,-0.106698,0.071187,-0.1046,-0.050452,-0.045065,0.118201,-0.161152,-0.108861,-0.021359,-0.103153,-0.103996,0.073806,-0.162867,-0.117613,-0.038478,-0.014963,0.032495,0.056544,-0.081216,-0.11323,-0.096653,-0.161937,-0.079365,-0.02644,0.138469,-0.016295,-0.084668,0.071564,-0.02558,-0.086177,-0.162291,-0.102003,0.105952],[-0.155991,0.151613,-0.009959,-0.009303,-0.065042,-0.151461,-0.12713,-0.014519,-0.045437,-0.013459,0.046872,0.131604,-0.135452,0.117259,-0.139388,-0.055024,-0.063691,-0.017158,-0.136374,-0.149325,0.155774,-0.153314,-0.12505,-0.155952,-0.122785,0.086946,0.109841,-0.133142,0.106355,-0.008573,0.11781,-0.160586,-0.116778,0.040808,-0.118669,-0.043605,-0.042208],[0.454511,-0.845033,-0.092071,-0.256289,-0.388282,-0.131061,0.166726,0.503229,0.337085,0.180451,-1.006903,-0.507576,-0.67999,0.045503,-0.015094,0.053318,0.012582,-0.507819,-0.030165,0.49512,-0.089911,-0.08313,-0.252462,-0.07433,0.028539,-0.670672,0.398985,0.305602,-0.059785,0.154626,-0.000337,-0.506304,0.001121,-0.069483,-0.164032,0.097226,0.281286],[0.151892,-0.130426,0.177961,0.036509,-0.052094,0.003841,-0.09055,-0.001208,0.101308,-0.080354,0.199478,-0.268307,0.2528,0.105199,-0.012302,0.114273,0.050476,0.080378,0.001525,0.210856,-0.099168,-0.039398,-0.102059,0.156147,0.007914,-0.045265,0.009795,-0.169737,-0.180113,0.073536,-0.05537,0.175025,-0.000885,-0.106596,-0.2884,-0.011176,-0.004654],[-0.245286,0.225755,-0.069589,0.105495,0.021708,0.177112,0.059585,0.068547,-0.01241,-0.075564,-0.246846,0.538794,0.092428,-0.079788,0.115357,-0.036951,-0.144183,0.039742,0.050515,-0.354789,-0.052253,-0.039133,-0.146408,-0.087052,0.077967,0.808914,0.022112,-0.06897,0.077737,0.033031,0.037179,0.024562,-0.005127,0.138689,-0.129145,0.012261,-0.231056],[0.540086,-0.352878,-0.16055,-0.104449,-0.176141,-0.068342,-0.179465,-0.052196,0.051331,-0.047533,-0.640049,-0.042005,-0.943178,-0.008941,-0.146616,0.130135,-0.045829,-0.160303,0.294569,-0.828756,-0.041431,-0.014391,0.00475,-0.009428,-0.160389,0.104184,0.429597,0.329939,-0.142355,0.195257,0.099307,-0.416333,0.015937,0.070149,-0.04019,0.008417,-0.084825],[0.022616,1.414815,-0.250366,-0.005965,0.155707,0.160875,-0.186441,0.194582,0.274984,-0.075783,0.100033,-0.336412,0.402688,-0.047712,0.217145,0.047539,-0.210216,-0.073078,0.439911,-1.455044,0.150606,0.128387,0.073973,-0.057041,0.231625,-1.215853,-0.358721,-0.236261,0.097881,0.10237,0.081436,0.226641,0.147431,0.283877,-0.025482,0.144244,-0.072565],[0.292339,0.026916,0.165141,0.031495,0.120977,0.121319,-0.057348,0.007897,0.197315,0.120784,-0.079778,-0.34851,0.122826,0.035441,-0.065081,-0.018003,0.041735,-0.019281,0.048622,0.321377,-0.024316,-0.110213,0.016466,0.042103,0.173319,-0.694332,0.014405,-0.040908,0.012554,-0.174476,-0.09338,0.157223,-0.101926,-0.015574,0.332874,-0.017724,0.024001],[0.043414,-1.64906,0.545128,-0.406933,0.280799,-0.300866,0.16,0.077505,0.052619,-0.140979,0.240477,0.365554,-0.368024,-0.060885,0.115468,-0.018844,-0.118901,-0.164862,0.190463,-0.841978,0.216116,-0.027161,-0.093332,-0.084311,0.109196,-0.135208,-0.038258,-0.093294,0.131172,-0.091438,0.094056,-0.011502,0.059502,-0.046628,0.122162,-0.255472,-0.171909],[0.158813,1.099153,0.219352,0.213956,-0.000575,-0.382414,-0.383515,-0.237977,-0.134245,0.502385,0.430311,0.508443,-1.068285,-0.160074,0.180596,0.025128,0.035345,0.104657,-0.33259,0.274563,-0.190854,0.054131,0.043555,-0.037716,0.113362,1.293721,-0.165539,-0.172133,-0.044947,0.041541,0.020636,0.060489,-0.125893,-0.255888,-0.035072,0.217874,-0.130126],[0.239451,-0.841947,0.027401,0.108808,0.305849,-0.162697,0.353947,-0.169158,0.224096,0.109992,-0.009211,-0.057819,-0.949676,-0.015252,0.069087,0.009224,-0.028932,0.109406,0.375288,-0.743813,0.131709,-0.152783,-0.095773,-0.177669,0.16134,-0.0203,-0.030305,0.001013,-0.152357,0.03235,0.08525,0.047781,0.10422,-0.644202,0.211382,-0.208291,0.104439],[0.107804,-0.954749,-0.412714,0.206094,0.17091,0.198358,0.084474,0.132074,0.258166,-0.115946,-0.578003,-0.418389,-0.185169,-0.09014,-0.02766,0.102484,-0.001027,0.073716,-0.224604,0.672374,0.065452,-0.084956,0.073657,-0.042215,0.067803,-0.386858,0.139045,0.07983,-0.05232,-0.061724,0.132548,0.013825,-0.137138,-0.019546,0.345674,0.281927,0.025967],[-0.013524,-0.384541,0.218442,0.293082,-0.522346,-0.01414,0.230016,-0.089128,-0.148371,0.415088,0.023862,-0.230009,-0.46486,-0.13082,0.047594,-0.042043,0.284811,0.110312,0.439003,-0.701148,-0.052946,-0.4371,-0.132176,-0.078464,0.09414,0.243624,-0.118314,-0.207623,-0.0461,0.077923,0.135778,0.103222,0.137001,0.08808,0.089492,-0.0867,-0.263494],[0.080561,-2.617833,-0.435675,0.178432,0.025033,0.50772,-0.014427,-0.115587,0.001418,-0.248173,-0.191775,0.328255,-0.3854,0.073917,-0.033783,0.060922,0.024546,-0.037486,-0.169903,0.814292,-0.031117,-0.044366,0.21497,-0.257194,0.038611,-0.270776,0.387479,0.152311,-0.027831,-0.063266,0.017847,-0.024558,-0.055837,-0.106823,-0.180998,-0.019616,-0.203545],[-0.131162,0.529945,0.081803,-0.107511,0.096442,-0.084385,-0.38901,0.081977,0.119532,0.326064,0.220377,-0.460024,0.349272,-0.146663,-0.049191,0.102802,0.157218,0.111553,0.04999,0.258378,-0.094267,0.062149,-0.111614,-0.027411,0.049956,-0.434656,0.095812,-0.088954,0.166252,-0.291349,-0.140649,0.081764,-0.223973,-0.158699,0.317091,0.088412,-0.131875],[-0.086209,-0.038033,0.257983,-0.215567,0.200664,-0.209014,0.187752,-0.181168,-0.14159,0.123808,0.411541,0.413413,0.211736,-0.009665,-0.078242,0.10448,-0.061513,0.119834,-0.013619,-0.420874,0.052404,0.157634,-0.115647,0.059882,0.118517,0.032382,-0.162309,-0.030823,-0.122969,-0.016801,0.145695,0.150004,-0.049497,0.006342,-0.337824,0.156574,-0.060479],[0.232794,0.434096,0.025915,0.12767,-0.047583,-0.185162,-0.115219,-0.075056,0.086866,-0.044587,-0.197555,-0.153113,0.142205,0.148945,0.036233,-0.099482,0.132661,0.098119,0.116746,0.264584,0.044712,-0.001665,0.039792,0.117056,0.031839,0.161807,-0.11764,-0.093399,-0.191105,0.076887,-0.008371,-0.057451,-0.153683,-0.058626,0.22678,-0.107975,-0.023691],[-0.188409,-0.078486,-0.061971,-0.122592,-0.085429,0.001545,-0.131035,0.068749,0.04367,0.027036,-0.041493,0.307541,-0.081013,0.136127,-0.060928,-0.114499,-0.037119,-0.026581,-0.122991,-0.641989,0.174809,0.121862,-0.087799,0.142671,-0.089825,0.667043,0.119582,0.122045,0.166989,0.142924,-0.006202,0.160353,0.100378,-0.022142,0.073539,-0.012483,-0.238404],[0.298788,0.618796,0.193616,-0.122005,0.147481,-0.139757,0.103729,0.082608,-0.047899,-0.161869,0.084036,-0.547094,0.299728,-0.126988,0.104966,0.051282,-0.179923,0.116093,0.120479,-0.179747,-0.052871,0.054588,-1.9e-05,-0.124778,0.077888,-0.038935,0.056797,-0.046263,0.002891,-0.028715,-0.004278,0.029351,-0.173573,-0.102254,0.240282,-0.080075,0.234843],[-0.060979,0.321977,-0.058693,-0.082413,0.073358,-0.149433,0.043889,-0.057824,-0.139655,0.091745,0.177765,0.493589,0.046217,-0.027767,-0.086193,-0.058696,-0.070771,0.069358,0.131753,-0.155165,0.119999,0.152281,0.126111,0.086462,-0.071107,-0.105785,-0.064964,0.041256,-0.108695,-0.236108,-0.079619,0.043946,-0.3785,-0.074805,-0.196384,0.029523,0.430363],[-0.070745,-0.693146,0.202205,0.092894,0.214134,0.069725,-0.019722,-0.020986,0.150034,0.480994,0.128326,-0.337878,-0.080731,0.050802,-0.039465,0.074351,-0.231017,0.021455,0.160963,0.430031,-0.09816,-0.099248,-0.0648,0.067425,0.155046,0.306216,0.054715,0.013187,-0.022501,-0.000791,-0.061597,0.138435,0.153,-0.10012,0.052684,-0.082174,0.085691],[0.15881,-0.794804,0.540672,-0.082086,-0.23748,-0.255666,-0.116003,-0.13457,-0.4837,0.146765,0.834553,0.371391,-1.194422,0.110829,0.090923,0.068283,0.248127,0.0886,-0.339228,0.746487,0.128716,0.02223,-0.0638,-0.142941,-0.181713,1.258007,0.192691,0.132863,-0.177768,0.07078,-0.162127,0.043645,-0.123588,0.139877,-0.062768,-0.188957,0.102103],[-0.097969,0.125702,0.088777,-0.103437,0.087795,-0.027906,-0.004827,-0.143594,0.06222,0.032539,-0.150511,0.107156,-0.128059,0.145641,-0.152784,0.100768,-0.07225,-0.073024,0.075197,0.064352,-0.118411,0.010362,0.110278,-0.119959,0.068951,0.106537,-0.146597,-0.004024,-0.106174,0.04183,-0.056085,0.122089,-0.089742,0.045511,0.013731,-0.041421,-0.116182],[-0.11755,-0.538795,0.101111,-0.125076,0.069057,0.09665,-0.045581,-0.200126,-0.024601,-0.196749,-0.123834,0.490299,0.04896,0.062677,0.060183,0.085238,0.049283,0.014272,-0.375729,-0.743341,-0.1157,-0.026527,0.06995,-0.14416,0.137156,0.241219,0.150317,0.147422,0.015494,0.044476,0.007904,0.093696,0.018378,-0.221428,-0.299587,0.111642,0.144911],[-0.147653,0.127201,0.110806,0.088765,-0.126391,0.001761,0.155389,0.037652,0.075015,-0.02024,-0.149133,0.007074,-0.054395,0.103989,-0.010865,-0.036051,-0.146146,-0.09176,0.034986,-0.030829,-0.138554,-0.006475,-0.00875,0.000672,-0.076839,0.044671,-0.101996,0.080754,-0.099314,-0.163293,0.03255,0.091489,-0.074645,-0.08419,-0.044399,-0.08714,0.026931],[-0.112886,-2.463648,-0.058694,0.330112,-0.220691,0.050932,-0.125354,-0.264035,0.620373,-0.236138,-0.397441,-0.017131,-1.749722,-0.121782,0.103804,-0.153495,0.037841,0.005793,0.191198,-0.36539,0.310634,0.18534,0.031208,0.177072,-0.157112,0.077719,0.069217,-0.03248,0.098998,0.013209,-0.063538,-0.062612,-0.074429,0.104456,-0.133419,0.213369,-0.075685],[0.10296,0.645477,0.223311,-0.073812,0.261758,-0.139446,-0.00767,0.238791,-0.26841,0.262523,0.336972,-0.500772,0.519147,-0.129491,0.001622,0.15754,0.075038,0.068526,0.157115,0.16434,0.090781,0.038715,-0.042226,-0.057684,0.149641,0.354539,0.079351,-0.039652,0.070626,0.052429,-0.080756,-0.133542,0.215991,0.11706,-0.197749,-0.008418,-0.129982],[-0.239716,-1.201573,0.194219,0.049348,-0.175398,-0.053619,0.322104,-0.199443,-0.313425,0.112257,0.55445,-0.180955,0.581473,-0.096173,0.020452,-0.069079,-0.004522,0.058255,0.231194,-0.846014,0.095521,-0.206899,0.422229,-0.003025,0.090926,1.268789,0.089703,-0.045853,-0.067425,0.04199,-0.040997,0.087031,0.06138,-0.142357,-0.547781,-0.082059,-0.597031],[-0.088055,0.019267,-0.017627,0.106581,0.123447,0.078864,0.013882,-0.041582,0.029077,-0.012791,-0.176741,0.457323,-0.128802,-0.042764,-0.128686,0.118451,-0.150444,0.156473,-0.071988,-0.051135,0.108639,-0.066303,0.040666,-0.003706,0.092665,0.465,0.104443,-0.026849,0.127383,-0.25187,-0.108653,-0.13247,-0.269127,-0.078656,-0.065815,0.208721,0.139958],[-0.363063,1.315687,-0.500848,-0.18739,-0.056435,-0.055813,-0.005152,-0.06706,1.036508,0.380292,-1.568145,-0.51715,0.372195,0.07369,-0.016969,-0.098269,0.176621,0.153828,0.795256,-0.519146,0.028707,0.148251,0.172703,-0.205405,0.122644,2.460877,-0.219067,-0.06454,0.14892,-0.020351,-0.124363,0.113332,-0.134524,-0.112134,0.559476,0.058249,-0.164783],[0.248638,-1.861143,-0.482376,0.157461,-0.126855,0.101546,0.670376,-0.071224,-0.31704,-0.479472,-0.30244,-0.234058,-0.113125,0.06412,-0.093231,-0.137689,0.154285,0.094861,-0.272706,0.375367,-0.025963,-0.108867,0.024047,0.047653,0.076768,-0.120024,0.235955,0.082771,0.007916,-0.174634,0.03795,-0.060932,0.076379,-0.007494,-0.041917,-0.090343,-0.028711],[0.182281,-2.251362,-0.504118,0.100809,0.355027,0.130841,0.300141,0.080467,-0.448632,-0.239631,-0.53687,0.089716,-0.313292,-0.141532,-0.05592,0.028907,0.060207,-0.018837,-0.17747,0.287397,0.23476,0.079815,0.080762,0.007327,-0.132549,0.480108,0.074304,-0.114152,0.021689,-0.236366,-0.090609,0.108098,-0.275952,0.180021,0.249991,-0.021933,0.142383],[-0.080025,-0.12322,0.033725,-0.080865,-0.013768,0.024951,0.107546,-0.157007,0.160958,-0.12854,-0.120373,-0.118822,-0.066135,-0.160893,-0.132992,0.022317,0.031295,-0.030541,-0.040097,-0.088389,-0.060911,0.115282,-0.050184,-0.020396,0.03684,-0.051254,0.049769,-0.050118,-0.057392,-0.007677,-0.150555,0.139064,0.096109,-0.026134,-0.1141,0.029696,-0.161738],[-0.02459,0.046256,0.021448,0.090987,0.037322,-0.3595,-0.311012,-0.220366,0.10146,-0.118188,0.307993,1.038727,-0.517025,0.089115,0.067512,0.043442,0.057982,0.012005,0.012259,1.506577,-0.212601,-0.018714,0.075823,-0.014552,-0.087403,-1.428333,-0.000294,-0.08766,-0.099415,0.157157,-0.104165,0.008604,0.162644,-0.176097,-0.030899,-0.029082,0.110499],[0.092605,-0.040518,0.054194,-0.012841,0.009255,0.065721,-0.070834,0.067724,-0.007669,-0.077483,-0.132247,0.104846,-0.159327,-0.128089,-0.089293,0.139309,-0.052167,-0.000751,0.0853,0.050837,0.026984,0.119027,-0.068333,-0.07136,-0.142898,-0.141811,0.066748,-0.092808,-0.117324,0.116129,0.000548,0.063472,-0.153342,-0.028431,0.004755,-0.038256,-0.11736],[-0.147369,0.258855,0.025227,-0.078578,0.153287,0.017697,0.036337,-0.009943,-0.125764,-0.110509,0.209889,0.521713,0.048542,0.142896,0.019967,-0.13226,-0.08512,-0.100547,0.102607,-0.366695,-0.082895,0.052868,-0.023683,0.066226,0.168049,0.7633,0.02403,0.068113,-0.005523,0.02063,0.094079,-0.101346,-0.067607,0.103305,0.062275,-0.065325,0.075686],[0.083551,0.360799,-0.460912,0.171869,0.103188,0.095767,-0.08732,0.264034,0.379073,-0.204079,-0.2326,0.248144,-0.024081,-0.136244,0.048216,0.003523,0.090288,-0.074713,-0.237442,-1.489774,0.047914,0.179877,0.009912,-0.170861,-0.016174,0.107272,0.115425,0.166331,0.137949,-0.080647,-0.005758,-0.080518,0.000704,0.007296,0.092018,0.113373,-0.06452],[-0.155003,0.076594,0.159289,0.071936,0.066171,-0.060518,0.082471,0.029971,-0.033172,0.086211,0.153681,-0.522964,0.435153,0.124949,0.22425,-0.092493,0.040878,0.019334,0.083762,0.396102,-0.210607,-0.177843,0.063442,-0.08905,-0.007482,0.22993,0.074325,0.058256,0.149169,0.062377,0.077821,0.09868,0.07994,0.023628,-0.36018,-0.103185,0.108445],[-0.26527,-0.046737,0.242,-0.119526,-0.165613,0.079348,-0.171818,-0.013236,0.421742,0.383312,-0.021581,0.345123,-0.174381,0.115158,0.126755,-0.046359,-0.044752,-0.066277,-0.555845,-0.28527,0.022216,0.059224,0.242782,-0.004526,0.204064,0.002364,-0.474952,-0.011453,0.162176,0.204273,-0.09424,-0.019672,0.062562,-0.172551,-0.041509,0.000916,-0.419584],[0.218986,-0.038955,0.244607,0.147834,-0.221669,-0.14307,-0.109608,0.132363,0.29834,-0.030241,-0.024853,-0.261316,0.204665,-0.049102,0.184072,0.018593,0.043448,-0.089542,0.079938,0.058199,-0.087505,0.074399,0.094404,0.005473,-0.069707,-0.23117,-0.13618,-0.173701,0.174266,-0.156571,0.117311,0.141901,-0.045437,-0.222432,0.218507,-0.068552,-0.059751],[-0.310001,0.091952,-0.260775,0.630508,0.024917,0.080618,-0.286805,-0.473034,0.183513,0.547979,-0.682457,0.444401,0.498393,-0.012248,-0.093709,0.055903,0.03289,0.098092,-0.738866,2.010521,0.168238,-0.00232,0.2352,-0.09931,0.037376,0.725873,0.12898,0.200384,-0.146347,-0.239974,0.069758,0.037052,-0.049444,-0.13027,-0.025524,-0.384789,-0.439805],[0.10944,0.188614,-0.127924,0.037308,0.044257,-0.229923,0.658032,-7e-06,-0.339586,0.161444,-0.056912,-0.197982,-1.203088,-0.009619,0.037795,-0.159494,-0.133313,0.081799,0.368705,-1.736709,0.125486,0.029307,-0.423012,0.015284,0.152812,-0.20497,0.12819,-0.008651,0.208455,-0.029728,0.077477,-0.024831,0.207878,0.27905,-0.645933,0.278944,-0.200328],[-0.105699,-0.264657,0.126571,0.215842,-0.07734,0.131194,0.186956,0.229282,-0.138082,-0.127282,0.002523,-0.487854,0.508065,-0.1625,-0.054921,0.001982,0.105362,0.026418,-0.0533,0.165097,-0.260144,0.170747,0.04161,0.005392,-0.067621,-0.196315,0.094261,0.183789,0.117158,-0.063951,0.038518,0.097347,0.031184,0.358533,0.155447,-0.387824,-0.304367],[-0.055818,-1.767761,-0.489921,0.951853,-0.594875,0.042387,0.263891,0.367798,-0.498291,-0.321728,0.136453,0.099106,0.450689,-0.078391,-0.078739,-0.022537,0.278409,-0.048268,0.118324,-0.494608,-0.173025,0.066502,-0.0213,0.156804,0.044987,0.321274,-0.098268,-0.021293,0.146807,0.081082,0.06645,0.189792,-0.08136,-0.237433,-0.315948,0.112161,-0.14959],[-0.252105,-0.081074,0.188752,0.117813,0.191506,0.189741,0.189954,0.046267,-0.196321,-0.038339,0.242082,0.729136,-0.815985,-0.098101,0.117392,-0.118855,-0.010526,0.266531,0.075461,-0.162619,0.063471,-0.011304,-0.041344,-0.023615,0.284282,-0.08393,-0.518601,-0.297435,0.044458,0.251496,-0.012937,0.081882,0.01576,0.077836,0.038475,-0.006825,-0.01199],[-0.432283,-0.424721,-0.146022,0.042288,0.098065,-0.047275,0.12724,0.080226,0.054305,0.045263,-0.335939,0.128787,0.102351,0.048543,0.153187,-0.013207,-0.081596,0.20789,0.500597,-0.861126,0.139989,-0.193389,-0.017226,0.022107,0.118179,0.300934,-0.142842,-0.153,0.064351,-0.037092,0.102187,-0.072929,0.07202,-0.07227,0.281396,0.099702,0.112898],[0.030513,0.118295,-0.015314,0.074101,0.133125,-0.027664,-0.027274,-0.041048,0.105418,0.145219,-0.020069,-0.008891,-0.139865,-0.161746,-0.120505,-0.138178,0.066088,-0.130801,-0.15375,-0.075785,-0.059666,-0.1053,-0.099733,-0.052788,-0.117266,-0.14473,0.071703,-0.062225,-0.061325,-0.114626,0.054222,-0.061262,-0.020125,0.055274,-0.15033,0.018009,-0.144943],[0.268064,-0.218674,0.222633,-0.058115,-0.06913,-0.01758,0.1921,0.072295,0.118288,0.041852,-0.365575,-0.237596,-0.20031,0.06078,-0.154554,0.088279,-0.146903,0.17099,-0.128773,0.506234,0.084053,-0.166399,-0.005224,-0.022629,0.009027,-0.774213,0.073547,0.008446,-0.177726,-0.148212,0.067449,0.120557,0.0261,-0.025313,-0.04415,-0.220451,0.078012],[0.43207,-0.87424,0.260683,-0.099982,0.159019,0.08171,0.09166,-0.237304,0.193957,-0.038932,-0.103145,-0.273825,0.206352,-0.051991,-0.15013,0.046562,0.118325,0.017481,0.414854,0.324717,0.092355,-0.527889,-0.009813,-0.07122,-0.062621,0.248655,0.321934,0.004183,-0.130933,-0.106158,-0.056071,0.067493,-0.146606,0.015546,-0.057024,0.256458,0.287722],[0.048473,0.073536,0.041177,0.079002,0.011682,0.017137,0.133471,-0.099731,-0.107365,0.017596,0.150617,-0.785083,0.062219,-0.056895,0.001225,-0.135864,0.003263,0.12315,-0.109059,-1.126844,-0.076529,0.006918,0.216047,0.039606,-0.148199,0.925202,0.136123,0.184906,0.044766,0.048119,-0.157777,-0.070914,-0.130557,-0.048462,0.132385,0.011495,-0.030087],[-0.318919,1.472956,-0.043018,-0.563335,0.012484,0.042313,0.400514,0.393683,0.17198,-0.43702,-0.173234,0.056841,0.153055,-0.078459,0.084528,0.110038,-0.077331,0.112507,-0.022787,0.246118,0.055887,-0.023397,-0.113229,0.092259,0.109817,0.478644,-0.137659,-0.090732,0.124254,-0.130179,0.130765,0.129863,-0.075592,0.063478,-0.262091,-0.011889,-0.324634],[0.154411,0.430077,0.015611,0.159181,0.008622,0.023586,-0.01938,0.183744,0.044737,0.00561,-0.119041,0.533723,-0.220026,-0.066859,-0.059203,-0.131086,-0.051854,-0.066237,0.183114,0.039202,-0.043349,-0.035431,-0.006704,0.196929,0.03523,-0.079248,0.328555,0.104259,0.126102,-0.046947,0.151262,-0.152895,0.037263,0.103084,-0.157698,-0.131721,0.027312],[0.094173,0.07735,-0.05347,0.012051,0.044886,0.004446,-0.105772,-0.045757,-0.023156,0.02906,0.055903,0.013486,-0.154127,-0.117618,-0.070653,-0.117986,-0.08239,0.08904,-0.140947,0.040798,-0.076866,-0.121539,-0.077495,-0.13291,-0.152906,-0.142457,-0.100587,-0.051287,0.008198,-0.074412,0.113277,-0.108928,0.036049,-0.075383,-0.100313,0.062528,0.072106],[0.182362,0.172037,0.956754,-0.131467,-0.307185,-0.808141,-0.268942,-0.213072,-0.0535,0.499323,1.096752,-0.365105,0.252996,0.042625,0.011103,0.042813,-0.076123,-0.267148,0.321474,0.101261,-0.103691,-0.094691,0.121162,0.061564,-0.131645,-0.628841,-0.003482,-0.07776,0.054219,-0.094714,0.05189,-0.268826,0.061198,0.417379,0.160568,0.001699,-0.161305],[0.361043,0.655746,0.399771,-0.501349,0.560808,-0.168659,-0.418134,-0.144264,-0.090095,0.356696,0.288364,0.27268,-0.678406,-0.157749,0.000867,-0.141683,-0.019627,-0.025228,-0.234451,-0.20733,0.323544,0.228329,0.032418,-0.175012,0.097481,0.822377,-0.287016,0.033148,-0.02685,0.03995,-0.162493,0.091033,0.062725,-0.019055,-0.250384,-0.046236,-0.061502],[-0.31058,0.304912,0.027392,0.031053,0.111768,0.162386,0.022483,0.018788,0.040731,0.055574,-0.266247,0.548866,-0.082491,0.155067,0.117397,-0.157699,0.174945,-0.011152,0.029212,-0.116649,0.004305,0.112367,-7.9e-05,0.067639,0.136739,0.407237,-0.038434,0.028509,-0.126673,-0.137713,0.092007,-0.024866,-0.055236,0.095424,-0.296731,0.008979,-0.113874],[0.112715,-0.264781,-0.64258,0.313655,0.254634,0.320368,-0.382998,0.304772,-0.594012,0.647033,-1.012747,0.374718,-0.606749,0.008516,0.106831,0.053476,-0.072742,0.06904,0.346891,0.470942,0.153236,0.18497,0.074475,0.011869,-0.211372,0.205183,-0.266915,-0.08095,0.1578,-0.002206,-0.156038,-0.116024,0.055061,0.050794,-0.021126,0.201511,-0.289559],[0.310828,1.328371,0.135789,-0.003729,0.229351,-0.190362,-0.385504,-0.165836,-0.281025,0.465144,0.124033,-0.168122,0.280666,0.001006,0.129203,0.030463,-0.053821,0.16795,-0.21055,-0.121036,-0.062282,0.091384,0.041075,-0.085746,0.00283,-0.446358,-0.097544,-0.023981,-0.143839,-0.137953,-0.130266,0.061252,0.113805,-0.157556,-0.159936,-0.041894,-0.428503],[-0.142111,-2.024089,-0.18884,0.179142,0.136292,0.505024,0.24558,-0.013975,0.162877,-0.414124,0.025347,-0.250388,0.107722,-0.087988,-0.008849,-0.072837,-0.093823,-0.040284,0.191855,0.393583,-0.054248,0.042816,-0.031122,-0.067618,-0.075801,0.433603,0.275816,0.259817,0.154267,-0.044951,-0.059818,-0.05145,-0.000582,0.020339,-0.154486,0.067453,-0.212719],[0.256379,0.289333,0.008757,0.021221,0.096684,-0.205786,0.176618,0.00012,-0.061516,0.044844,0.376515,-0.235268,0.276335,0.120793,-0.144145,-0.038369,-0.058687,-0.003698,0.081765,-0.176939,-0.003991,-0.12605,-0.065474,0.175845,0.125373,-0.08731,0.04164,0.187723,-0.018038,-0.045031,-0.020762,0.133656,0.124566,-0.013581,-0.403423,-0.051191,-0.090281],[-0.27321,0.498965,0.121812,-0.014607,-0.039253,-0.339025,0.193174,-0.020778,0.523419,-0.975721,0.710511,0.097679,-0.214463,0.014935,-0.068661,0.031357,0.046211,0.057271,0.633688,0.879807,0.025338,-0.301482,-0.103552,0.024539,0.048498,-0.301323,-0.144863,-0.020757,-0.161614,-0.281227,-0.148138,0.089842,-0.296019,0.040908,-0.227296,0.42365,-0.167122],[0.038626,0.177987,0.048731,0.102013,0.218044,0.146983,-0.123046,-0.055825,-0.082501,-0.093531,-0.050879,-0.560712,0.103333,0.030187,-0.06062,-0.021087,0.089093,0.131956,0.2384,0.351201,0.126296,-0.013683,-0.014556,-0.058897,-0.012848,-0.53752,-0.093414,0.074121,0.102347,0.131512,-0.02458,0.008498,-0.005948,0.056546,0.217416,0.047087,0.171178],[0.097819,-0.732289,0.151574,0.050569,0.267314,-0.346725,-0.174664,0.017932,0.012338,0.252486,-0.250902,-0.259894,0.26325,-0.024128,0.130119,0.011202,0.109996,0.053976,-0.184609,0.174363,-0.147759,0.070957,-0.057025,0.118903,-0.11339,-0.105454,0.049182,-0.017569,0.044357,-0.05078,0.051288,-0.074214,-0.05212,0.04358,-0.409249,0.195655,-0.219968],[0.080289,0.047772,0.010108,-0.085231,0.047125,-0.316229,-0.126045,-0.256915,-0.119435,0.126262,0.168856,0.499818,-0.514826,0.056357,-0.084958,0.027239,0.029367,-0.06427,0.716118,0.99637,0.041481,-0.128375,0.050384,-0.055852,-0.175288,-1.492044,0.103319,0.163576,-0.062973,0.027279,0.13108,0.011008,0.046857,0.131448,0.036158,0.094365,0.142568],[0.264468,-0.091462,0.127636,-0.377643,0.374723,0.29061,-0.277937,0.378234,-0.259375,0.051212,-0.157951,-0.434264,-0.183775,0.140527,-0.024772,-0.010768,0.021592,-0.0756,0.172875,-0.565446,0.150717,0.004147,-0.139246,-0.049207,0.092089,0.767862,0.151223,0.212517,-0.043737,-0.190449,0.006967,0.022889,0.018718,0.165212,-0.231577,0.117603,-0.249724],[0.138379,-0.010037,0.188085,-0.041364,-0.090415,0.033554,-0.154121,-0.011596,0.03138,-0.017818,0.103838,-0.48418,0.189152,-0.011387,0.042167,0.086156,-0.029611,-0.065365,0.168138,0.068113,0.146548,0.10128,-0.041262,-0.104398,0.085096,-0.244391,0.027144,0.020737,-0.134884,-0.099874,0.044643,-0.07237,-0.069218,0.224597,-0.135932,-0.008332,0.150332],[-0.173283,-0.300316,0.016474,0.15622,-0.064713,0.051894,-0.008828,-0.171638,0.151623,0.091537,0.133556,-0.565297,0.155795,-0.079095,0.064905,-0.045921,9.6e-05,0.006491,0.125844,0.448814,-0.095235,-0.020366,0.016207,0.091691,-0.007775,-0.170608,0.07562,0.149632,0.022898,-0.067013,0.104767,0.053334,0.066104,-0.044066,-0.055744,0.13517,0.238324],[0.244351,0.359746,0.133192,-0.179458,0.02397,-0.298916,-0.016342,0.177995,0.058619,-0.150025,0.209407,0.041923,-0.205986,0.126903,0.090894,0.033928,-0.11421,0.154095,-0.648322,0.366529,-0.142885,0.145014,0.114609,-0.063616,-0.169541,-0.254801,0.269607,0.187646,-0.216939,0.058284,-0.090347,0.106596,-0.183143,-0.126288,0.217595,-0.026836,-0.049708],[-0.100777,0.714459,-0.465055,-0.033153,-0.254417,0.411528,0.262477,0.052985,-0.2079,-0.366763,-0.119159,0.484538,-0.485073,0.059489,-0.032668,0.117473,-0.059224,0.031796,-0.377967,-0.12495,0.110582,0.053256,-0.014686,0.116477,-0.040503,-0.244844,0.110589,0.074104,0.170467,0.07943,-0.087152,-0.084089,-0.13661,0.053161,-0.034918,-0.00488,-0.110734],[-0.338116,-0.350665,0.034471,-0.199151,0.000536,-0.079013,0.254167,0.150196,-0.147435,-0.137431,-0.010359,0.357389,-0.058474,0.11129,0.000339,-0.12999,0.17437,0.023072,-0.158669,-0.661334,0.065907,0.063092,0.08394,0.083967,0.005251,-0.26386,0.009288,0.019486,0.077634,-0.077884,-0.002413,0.115374,-0.028285,0.007273,-0.149599,0.225059,-0.040815],[0.635064,-0.110168,-0.002491,-0.425486,-0.235935,-0.164066,-0.482351,-0.315482,-0.005273,0.127345,0.079554,-0.350956,0.026963,0.096532,-0.265521,-0.118404,0.029835,-0.590574,0.500707,-0.768314,-0.133741,-0.058083,0.083326,0.060413,-0.142304,0.450906,0.425195,0.103494,-0.16479,0.015339,-0.15323,-0.402334,-0.053034,-0.094465,-0.05655,0.039683,-0.01191],[0.315827,0.747565,-0.086271,-0.133942,0.174428,-0.218558,0.138433,-0.06467,0.002381,-0.167209,-0.036388,-0.440302,0.065435,-0.160908,-0.153006,-0.07444,0.015657,0.043849,-0.118359,0.676483,-0.046781,0.072102,0.193622,-0.101253,0.106769,-0.007286,0.01999,0.156305,0.023679,-0.151322,-0.060713,0.178058,-0.322876,0.006494,0.066464,0.117155,-0.215615],[-0.210736,0.241788,0.260035,-0.169722,-0.116214,0.033813,0.269241,0.090183,0.088031,-0.027772,-0.110468,0.465028,-0.104586,0.086868,0.000419,0.073993,0.038182,0.004988,0.206871,-0.742861,-0.055094,-0.095302,0.029652,0.06116,-0.130237,0.23227,-0.047513,-0.063818,0.100148,-0.00432,0.131366,0.059303,0.041383,-0.035725,0.042552,0.030773,-0.01013],[0.431293,0.957506,0.214722,0.199104,-0.561616,0.006319,0.167038,-0.085785,-0.140043,-0.028805,0.115068,0.523857,-0.361379,0.099798,0.109403,0.074305,0.010153,0.098872,-0.000378,-0.63532,-0.124454,0.16735,-0.028135,0.08973,-0.087272,-1.230407,-0.162981,-0.162604,0.0027,-0.023499,0.132615,-0.154885,-0.02596,0.084924,0.572665,-0.165875,-0.138235],[-0.020003,0.120487,0.085106,-0.06615,0.112127,-0.066875,-0.19226,0.066679,0.092367,0.017353,0.424647,0.56325,0.091594,-0.121322,-0.126196,-0.011365,-0.006572,0.015735,-0.073693,-0.656283,0.21934,0.170439,0.112902,-0.042765,-0.02146,0.812257,-0.079542,-0.190771,0.068124,0.07944,0.026336,-0.009037,-0.05074,0.118192,0.045384,-0.059613,-0.041242],[0.257034,-1.074698,-0.316245,-0.064368,-0.147038,0.052373,0.126691,0.00248,0.093362,-0.277563,-0.33391,-0.670363,0.546052,0.082568,-0.02795,0.147414,0.099622,-0.096244,0.136787,-0.729541,0.060761,0.130775,-0.018059,-0.025404,-0.033503,0.291877,0.145647,-0.036249,0.052882,0.046827,-0.087529,0.114264,-0.124856,0.10191,-0.616061,0.161645,0.083881],[-0.219654,0.091834,-0.227687,-0.157141,0.28457,0.123731,0.455812,-0.026623,-0.196894,0.084293,-0.228421,0.242034,-0.285692,0.011437,0.154031,-0.02831,0.012273,0.045591,-0.03482,-0.180689,0.060362,-0.064063,-0.073794,0.004332,0.200199,0.340453,-0.165739,-0.125039,0.226353,0.018458,0.112905,0.13085,-0.092197,0.134212,0.005001,-0.168302,0.238079],[0.056458,-0.066878,0.016236,0.015421,-0.044984,-0.121131,-0.104456,0.004968,-0.088529,0.007455,-0.00224,0.051861,0.111885,0.040921,-0.022124,-0.006064,0.013961,-0.125121,-0.052522,-0.07552,-0.051042,0.151916,-0.031935,-0.046131,0.017156,0.063446,-0.111575,-0.077365,0.027468,-0.047912,-0.026295,-0.155325,-0.149814,0.022084,-0.034427,-0.143622,0.057829],[0.511431,-0.662293,-0.477833,-0.054031,-0.088169,0.000147,0.200799,0.004798,-0.260559,-0.340418,-0.576042,-0.052872,-0.311805,-0.152856,-0.137525,0.152068,0.006779,-0.276813,0.245539,-0.690502,-0.126715,-0.064491,0.042183,0.091777,-0.30229,0.440033,0.607337,0.454952,-0.300393,0.033747,-0.129912,-0.21619,-0.066234,-0.071927,-0.032917,-0.040334,-0.089109],[-0.21863,0.372913,-0.083293,0.103958,-0.148483,0.089514,0.062717,0.373508,-0.048757,-0.107468,-0.034979,0.507114,0.033039,0.152599,-0.071908,0.045679,0.049699,-0.090372,0.055814,-0.672227,0.187909,0.157742,-0.10757,0.024369,0.079994,0.630881,-0.215591,-0.010311,-0.101272,0.00532,-0.116428,-0.104114,0.244229,0.103508,0.076921,0.213052,0.165807],[-0.211178,-0.043452,0.277026,0.050704,0.023287,0.023388,-0.159301,-0.032995,-0.075294,0.473337,0.145309,0.179318,0.033321,-0.071761,-0.049076,0.143571,0.002928,0.260434,-0.882994,-0.734746,0.07776,0.161408,-0.08527,-0.157354,-0.032312,-0.88972,-0.154178,0.021212,0.01751,-0.032999,-0.112654,0.259289,0.074594,-0.106224,-0.250596,0.064204,-0.210586],[0.04628,-0.11116,0.278155,-0.079264,-0.291443,-0.147192,0.086462,0.167507,-0.39654,0.062332,0.824307,0.356837,-0.274408,0.004957,0.098396,-0.088785,0.137266,-0.07636,-0.586947,-0.383733,0.21018,-0.074962,0.103408,-0.063161,0.066468,0.1169,0.056291,0.138505,0.039097,0.099825,0.045375,-0.174739,0.123052,0.057966,0.182731,0.130023,-0.063401],[-0.026751,0.611503,-0.033523,0.227807,0.159171,0.050463,0.128412,-0.016311,0.044436,0.256981,-0.30137,-0.456383,0.064481,-0.11789,0.188339,0.035678,0.179138,0.027937,0.007327,0.273944,0.089875,-0.104479,-0.10988,-0.055547,0.0603,-0.200146,-0.137771,0.036349,0.02323,-0.037546,0.138756,-0.004066,-0.059776,-0.101898,0.005852,0.085556,-0.134216],[-0.169297,-0.232443,0.026704,0.058439,0.174634,0.073683,-0.002875,0.061285,-0.021505,-0.254979,0.635666,-0.261552,0.184959,0.071519,0.050201,0.095441,-0.010119,-0.207527,-0.333517,-1.738388,-0.003643,0.034339,0.092975,0.062695,-0.04726,1.612096,-0.815226,-0.309105,0.167456,0.203108,-0.09267,-0.22284,0.071859,-0.038026,-0.111199,0.144602,0.323107],[-0.210483,-0.575154,0.134205,0.002065,-0.066514,0.342753,0.085096,0.063224,0.018838,-0.184897,0.151579,-0.023921,0.584495,-0.099662,0.089491,0.116636,-0.128541,0.130324,-0.552953,-0.866983,0.107741,-0.266155,-0.0193,-0.043582,0.091992,1.288924,-0.087478,-0.176354,-0.053734,0.039046,0.163757,0.040917,-0.086302,0.387264,-0.097974,0.00549,-0.168027],[0.005478,0.814877,0.363778,-0.179303,0.200099,-0.356589,-0.29678,0.011013,0.418344,-0.276186,0.080241,-0.571836,-0.457454,0.012977,-0.180794,0.102355,-0.615272,-0.132984,-2.479399,0.872698,-0.101822,-0.008887,0.077616,0.05726,-0.099045,0.206372,-0.264486,0.004548,-0.07288,0.16133,0.02178,-0.039781,0.025715,0.183374,0.654698,-0.239842,0.143081],[-0.115886,0.146487,-0.078185,-0.134911,-0.156622,0.12855,-0.080654,-0.168022,-0.124518,-0.019991,-0.106367,0.062961,0.046771,-0.047799,-0.025577,-0.072213,-0.018591,-0.147836,-0.055069,-0.062782,-0.10222,0.009077,0.059211,-0.037679,0.144871,0.094368,-0.062587,-0.037785,0.072206,0.046146,-0.086466,-0.142753,-0.077085,0.051122,-0.056626,-0.090791,0.048178],[0.342596,0.300822,-0.271684,0.11988,0.12013,0.210373,0.140083,-0.149015,0.093911,-0.220784,0.037808,-0.522069,-0.087682,-0.03033,-0.126264,0.068635,0.068834,0.010598,0.163409,0.193801,0.113943,0.051096,-0.150493,0.000243,-0.033526,-0.090852,-0.1102,-0.06437,0.149644,-0.186094,-0.124776,0.214293,-0.115045,-0.015651,0.236925,0.031632,0.207871],[0.234548,0.531588,0.368777,0.120982,-0.127842,-0.124393,-0.062149,-0.390369,-0.187974,0.135611,0.086935,-0.270007,0.536758,0.030567,0.044195,0.094973,-0.103561,0.100291,-0.152568,0.376707,0.016997,0.04642,-0.150137,0.04732,-0.129863,0.605902,0.076831,-0.153659,0.135514,0.043149,0.000427,0.080248,-0.166582,-0.149626,0.218067,0.040312,-0.247601],[0.011933,-0.045761,-0.065228,0.042397,0.038564,-0.089492,-0.182267,-0.032078,-0.161456,0.054043,-0.077568,0.04769,-0.175883,0.080701,0.065857,-0.06436,-0.021896,-0.058456,-0.184769,-0.197331,-0.16187,-0.04935,0.05229,-0.107258,-0.055731,0.043409,-0.095151,-0.008614,0.034551,0.100686,0.103154,0.010378,0.048823,0.043513,-0.157292,0.071205,-0.110058],[-0.106973,-0.154495,0.137567,0.050272,-0.000253,-0.021864,0.009401,-0.067064,-0.038509,0.094053,-0.090988,0.114198,0.096728,0.028581,-0.127291,-0.091209,0.111584,-0.16137,-0.138356,0.019422,-0.004776,-0.10174,0.151273,-0.037827,-0.14331,0.03171,-0.095328,0.016531,-0.063984,-0.113861,-0.06584,0.04605,0.144255,-0.058716,0.120256,-0.108206,0.107895],[0.225629,0.618526,0.270474,0.24779,-0.256698,-0.118187,-0.264464,-0.034296,-0.193986,-0.37347,0.843342,0.398996,0.028018,0.108174,0.0845,0.138128,0.099317,0.178723,-0.293339,-0.67336,-0.241859,0.079308,-0.17319,0.085399,0.066384,1.276385,-0.396756,-0.12027,0.01488,-0.027645,0.039517,0.072587,-0.037531,0.365333,-0.247947,-0.011885,-0.265355],[-0.083712,-0.159195,0.051597,0.083082,-0.029335,0.098865,-0.070778,-0.069789,-0.078763,0.150116,0.026697,0.124106,0.137914,0.101545,0.075554,0.15891,-0.078034,-0.109588,-0.024799,-0.035337,0.023053,-0.075817,0.019937,-0.136336,-0.158784,0.146681,-0.115704,-0.082327,-0.152678,-0.115739,-0.105671,-0.13797,0.09435,0.124368,-0.073123,-0.157379,-0.007018],[0.125398,-0.020342,-0.038954,0.123306,0.08528,0.094281,0.031723,0.079468,0.143352,0.035993,0.108763,0.08026,-0.026579,0.093815,-0.098524,0.060335,-0.039457,-0.039122,-0.175604,-0.016608,0.12917,-0.096006,-0.064065,0.145541,0.000523,-0.046702,0.075209,-0.11154,-0.080305,-0.022168,0.029198,-0.125108,-0.158088,-0.027077,-0.038074,-0.076256,0.040749],[-0.845594,-1.090097,-0.41902,0.007351,0.134583,0.605409,0.571992,0.375255,-0.022012,-0.21094,-0.418999,0.859612,-0.733737,0.099223,0.082247,0.078875,-0.02112,0.230261,-0.221912,1.814965,-0.063108,-0.060976,-0.057806,-0.005167,0.219366,-1.189584,-0.531879,-0.208733,0.020374,-0.063657,-0.046644,0.206812,0.174911,0.061413,0.138715,0.271368,-0.093321],[-0.113474,-0.210904,0.178469,0.146274,0.118599,0.13358,-0.207925,0.239346,-0.101126,0.177752,0.127832,0.325879,0.249947,-0.124568,0.024054,-0.098499,0.034812,0.206033,-0.044554,0.109395,0.190851,0.016712,0.157869,-0.122182,0.00205,0.423403,-0.204001,-0.139034,0.228313,-0.041304,-0.018086,-0.024732,-0.086757,-0.043872,-0.055646,-0.052095,0.070561],[0.001409,-0.371162,-0.106507,0.244259,0.024734,-0.119616,0.022202,0.129362,0.00799,-0.010141,-0.190055,-0.529104,-0.002341,-0.077383,0.146142,-0.160572,0.00752,-0.093051,0.10843,0.103069,0.021315,-0.053518,0.041503,0.112818,-0.005653,-0.400377,0.063614,0.086865,0.058711,-0.153793,-0.083599,0.139931,-0.046454,-0.083005,0.209955,-0.044695,-0.380226],[-0.076518,0.256885,0.454419,-0.365364,0.038331,-0.045609,-0.182522,0.299393,0.121792,-0.094001,-0.207839,0.077575,0.608704,0.018897,0.01582,-0.034052,-0.126467,0.074287,-0.52425,-0.885478,0.090547,-0.316707,-0.099702,0.075543,-0.021323,0.220462,0.249473,0.023134,0.065383,-0.16441,0.056433,-0.008846,-0.116061,-0.386509,-0.107583,-0.199611,-0.207803],[-0.25091,-0.963395,-0.00898,0.270966,0.296813,0.213254,-0.180829,-0.758692,-0.449258,0.485512,0.213029,-0.067022,0.052867,-0.084973,-0.082624,-0.011099,-0.039029,0.110487,0.505524,1.589085,-0.001063,-0.102089,-0.011272,-0.037904,0.120959,1.105672,-0.132997,0.070117,-0.316724,0.091543,0.107773,-0.01804,-0.021226,-0.156363,-0.001054,0.324256,0.111504],[-0.34036,0.499735,-0.092558,-0.069027,-0.115861,0.073156,0.005428,-0.10287,0.280617,0.324499,-0.064077,0.313595,-0.176612,-0.062751,-0.005584,0.125289,0.103677,-0.03831,0.218511,-0.532974,0.099592,-0.114681,0.041991,0.091176,0.212078,-0.183354,-0.038884,0.084757,0.136471,0.105359,0.109076,-0.066844,0.156139,0.026537,0.203775,-0.116982,0.209249],[-0.130509,0.094098,-0.071996,-0.044656,-0.040477,-0.111547,-0.030782,-0.031153,-0.044699,0.073363,-0.147036,0.087042,0.106815,-0.16348,-0.125621,0.108761,0.13754,0.113969,0.029162,-0.056872,-0.019984,-0.001398,0.062718,-0.089455,0.041283,0.132413,-0.128417,-0.090277,-0.0827,-0.092444,-0.126429,-0.00157,-0.035933,0.048745,-0.066428,-0.003948,0.107628],[-0.050277,0.148051,-0.104903,0.1295,0.203017,-0.067914,0.008991,-0.023915,0.053475,0.105594,-0.251603,-0.556951,0.30981,-0.123448,-0.05666,0.080545,-0.208799,0.175857,-0.167055,0.222549,-0.01028,0.05283,0.05745,0.160169,0.062568,0.110313,-0.133376,-0.060304,0.008649,-0.196755,-0.14184,0.140542,-0.045983,0.096476,-0.544855,0.074066,0.157381],[0.026893,-0.025445,-0.250977,0.13212,0.105139,0.136507,-0.001162,0.080682,0.028234,0.237638,-0.281286,-0.156624,-0.287472,0.15821,-0.132501,0.101345,0.178675,0.137583,-0.208075,0.428444,0.005614,-0.092397,-0.132589,-0.060596,0.11257,0.230936,0.178328,-0.026882,-0.103841,-0.105843,-0.075187,0.045685,-0.257692,-0.031572,-0.03495,0.091496,0.314771],[0.074461,-0.033279,-0.106543,0.148148,-0.073101,-0.149258,0.056485,-0.068832,-0.145741,-0.094482,-0.003868,0.072056,0.143052,0.050268,-0.151764,0.008551,-0.133809,0.122797,-0.140188,0.015034,-0.133243,-0.147277,-0.070061,-0.1022,0.047458,0.077213,0.081087,0.035281,-0.151923,0.074046,-0.131312,-0.073421,-0.115551,-0.145361,-0.09147,0.007455,0.125036],[-0.225427,-0.240146,0.347886,0.404948,0.061447,-0.197558,-0.081295,-0.182459,-0.229694,-0.040734,0.873178,-0.40044,0.073434,0.150321,0.163159,-0.050604,-0.091485,0.197763,0.047758,-0.515158,-0.098377,-0.288424,0.01425,0.154759,0.10648,0.967281,-0.20292,0.017998,-0.084039,0.140851,-0.019013,0.091742,-0.141932,-0.055898,-0.424054,0.232255,0.065672],[0.214135,0.993034,0.163628,-0.097564,0.046031,0.057999,0.034729,0.13257,0.161729,0.14385,0.138701,-0.317901,0.420166,0.031671,0.163235,-0.021537,-0.079567,-0.003895,-0.253625,0.389197,0.014778,-0.182428,0.152164,-0.233152,0.160206,0.050423,-0.180175,0.080464,0.132654,-0.161534,-0.147135,-0.104946,-0.161174,-0.261823,-0.28038,0.092115,0.013213],[0.095742,1.364672,-0.067149,0.081463,-0.632954,0.098587,0.209027,0.078458,0.180547,-0.410102,0.809211,0.377199,0.214488,-0.026136,0.044204,0.065434,-0.229739,0.095093,-0.099632,-0.31465,0.005803,-0.075477,0.075754,-0.040414,0.000329,0.463096,-0.056152,-0.123499,-0.213661,0.16399,0.068858,-0.013468,0.177035,0.032713,0.006107,-0.032197,0.103311],[-0.041203,0.064223,-0.109011,-0.1542,0.122396,-0.018652,-0.140868,0.004412,-0.079301,-0.104467,-0.021165,-0.021683,0.018611,-0.051628,-0.015005,-0.031572,0.014712,0.136583,-0.079844,0.019792,-0.140179,0.134925,-0.04574,0.005907,-0.160085,-0.001025,-0.122019,-0.086986,-0.121861,-0.102374,-0.090198,0.039954,-0.124002,-0.032647,-0.043643,0.165625,0.069508],[0.069106,0.066499,-0.114003,0.044859,-0.106288,-0.159266,-0.157255,-0.13223,-0.103258,-0.042271,0.097419,-0.037469,-0.193552,-0.099421,0.096905,0.153309,0.07729,-0.182405,-0.187744,0.133095,-0.096224,0.067052,-0.065305,0.111027,-0.079721,-0.242808,-0.090071,0.042599,0.009878,-0.096917,-0.149163,0.05629,-0.184322,-0.009437,-0.025926,0.095161,-0.139567],[-0.134462,0.0449,0.129854,-0.096051,-0.140566,0.048422,-0.007065,-0.037018,-0.054323,-0.047826,-0.172686,-0.022572,0.131885,0.163558,-0.009913,-0.036855,-0.127441,-0.119208,0.037299,0.145224,-0.036878,0.064697,0.068014,-0.175759,0.113177,-0.091805,0.112191,-0.027346,-0.0718,-0.063078,-0.046364,-0.153195,-0.112566,0.011912,0.032843,-0.050468,-0.029761],[0.112698,0.184603,0.041759,-0.034242,0.152637,-0.087459,0.053091,0.050491,0.236318,-0.220749,0.094225,-0.244221,0.234369,0.100713,0.035548,-0.024092,0.141254,0.054055,0.173879,0.170082,0.058359,-0.093491,0.041625,0.143328,0.037624,-0.113762,-0.13082,0.081475,-0.118396,-0.029982,0.03999,-0.095063,-0.107355,-0.122107,0.105043,-0.004787,0.038547],[0.00107,0.072429,-0.190979,0.019463,0.036638,0.166249,0.073001,-0.041457,0.19889,0.090629,-0.30069,-0.559872,-0.238701,-0.020907,-0.132013,-0.117081,-0.009811,0.190095,-0.132653,0.01277,0.044841,-0.017738,-0.068489,0.067348,0.083313,0.044896,0.112367,-0.037301,0.150675,-0.025559,-0.1169,0.168441,-0.050052,-0.012202,-0.008714,-0.026792,0.230485],[0.091346,-0.801272,-0.100352,-0.04498,-0.178713,-0.226426,-0.163075,-0.059337,-0.343645,0.218707,0.147223,-0.128675,0.080491,0.069202,-0.028969,0.007237,0.28933,-0.151726,0.313968,0.128226,-0.127276,0.163124,-0.16301,0.129391,-0.014326,0.179233,-0.02374,0.05211,-0.098228,-0.132245,-0.095297,0.120359,-0.029848,-0.120062,-0.250654,0.033219,-0.315153],[-0.298339,0.476045,-0.003029,0.38507,-0.37757,-0.22815,-0.031201,0.290399,0.10987,0.262954,0.090002,0.236792,-0.20128,0.044491,0.06094,-0.123596,0.107743,0.157118,0.169219,0.541578,-0.113679,-0.018986,-0.396891,-0.036075,0.104933,-0.455186,-0.267718,-0.12855,-0.00078,0.123502,-0.0465,0.122436,-0.174262,-0.249542,-0.061231,-0.106771,-0.200784],[0.05934,-0.366302,-0.115925,0.308641,0.184706,-0.087263,-0.238444,-0.151913,-0.021765,0.197778,0.196611,-0.394895,0.386103,0.00608,-0.063737,-0.045685,0.152273,-0.092699,-0.054889,0.378143,-0.036043,-0.067423,-0.024447,-0.043127,0.112644,-0.159631,0.142275,0.032802,0.109748,0.072529,-0.126274,0.160458,-0.12923,0.046117,0.100606,0.027785,-0.078502],[-0.249104,-0.344794,-0.114917,0.138218,0.125525,0.217662,0.015313,-0.131307,-0.295994,0.106124,0.286204,0.425722,-0.088307,-0.011313,0.131651,-0.12133,0.010277,-0.032287,0.262354,-0.455113,0.024326,-0.130641,-0.044124,-0.049549,0.100723,0.319403,-0.090432,-0.101603,0.035553,0.008548,-0.008055,0.086307,-0.131636,-0.096946,0.137058,-0.103161,0.090882],[0.167345,-0.008723,0.225169,0.003875,0.132263,-0.020749,-0.091002,-0.031301,0.010763,0.030987,0.210231,0.45146,-2.21074,0.092219,0.052555,-0.140244,0.032117,-0.110016,0.01669,0.306872,-0.187323,-0.020541,0.018073,0.010568,-0.07618,0.029774,0.079206,0.091816,-0.029161,0.121442,0.008694,-0.01625,0.189376,0.001912,-0.043869,0.010942,-0.019912],[-0.071905,-0.430089,0.249461,0.083834,-0.218414,-0.413415,-0.118728,-0.297005,0.395224,0.10874,-0.367678,0.027846,-0.046984,0.132541,0.030327,0.121187,-0.015309,0.034862,0.125394,1.35949,0.276606,0.177836,0.049243,-0.303573,-0.097553,-0.383153,0.3096,0.056169,0.031706,-0.050061,0.096265,0.008566,-0.036763,0.009669,-0.073991,0.00387,-0.203501],[-0.046644,-0.71224,0.012214,0.566829,0.086273,0.114573,0.138826,0.097639,0.068799,0.204953,-0.116011,-0.113113,0.126849,0.088678,0.188166,0.10795,0.040622,0.127992,-0.361927,0.317598,0.097637,-0.199288,0.018875,0.086738,0.014238,0.230749,-0.340267,-0.334045,0.011613,-0.509729,-0.002995,0.199096,-0.369654,-0.074875,0.196529,-0.24638,-0.105775],[-0.183633,-0.761906,0.170677,0.04334,-0.220636,0.278539,0.178066,-0.218258,-0.15277,0.526149,0.006293,0.100491,0.223765,-0.091502,0.146226,-0.084997,0.105558,-0.002564,-0.00906,-0.116493,0.155135,0.041298,0.150394,0.064367,0.163078,0.047229,-0.275621,-0.143243,-0.049555,0.013464,0.15223,-0.056612,0.075296,-0.46425,0.076063,0.012032,-0.298299],[0.125645,-0.058335,0.021516,-0.173014,0.103283,0.037232,0.064417,-0.140921,0.056737,0.083832,-0.161058,-0.085526,-0.105375,0.143064,-0.00662,-0.060684,-0.068042,-0.013508,-0.1522,-0.012872,-0.134877,-0.077409,0.133781,-0.150389,0.012183,-0.07913,-0.108,0.020458,0.048852,0.001122,-0.110707,-0.151837,-0.026182,-0.022845,-0.084735,-0.159505,0.055256],[-0.007845,0.044945,-0.071595,-0.163604,-0.001782,0.023053,-0.085537,-0.10471,0.130262,-0.112365,-0.037631,-0.117328,-0.147477,-0.081397,0.058499,-0.16135,0.100832,0.118689,0.0974,-0.178856,0.08656,-0.06258,0.044047,-0.14006,-0.047719,-0.096323,-0.075127,0.020642,-0.145104,0.062558,0.080709,-0.12906,-0.147409,-0.02281,0.007596,-0.066099,-0.003406],[-0.66563,0.390823,0.536629,-0.008988,0.034877,-0.127823,0.006575,0.061449,-0.184276,0.318671,0.444635,0.231741,0.260435,-0.158734,-0.03583,0.005862,-0.000108,-0.020156,-1.077946,1.124657,0.099699,0.108503,-0.028777,0.005634,0.13636,-0.655936,-0.388894,-0.117092,0.06634,0.017186,-0.163667,0.027201,0.153698,0.053354,0.009488,-0.028857,-0.061547],[0.234521,-1.736521,0.089243,0.049387,0.121087,0.122133,0.257806,-0.060044,-0.43782,-0.270445,0.616183,0.131427,-0.616456,-0.046956,0.055395,-0.091546,-0.013136,-0.153507,0.194689,-0.361658,-0.005607,-0.076289,-0.103734,-0.011542,0.073154,1.528278,-0.260241,0.025887,0.183958,-0.049602,-0.084217,0.030929,-0.053049,0.099501,0.013762,-0.065574,-0.07688],[0.031323,0.521296,-0.092161,-0.066833,0.179095,0.085103,-0.003335,0.13881,0.104504,0.362735,-0.819711,0.119971,0.021006,0.055921,0.139501,-0.147835,-0.05085,0.008376,-1.020215,-1.62302,-0.003995,0.048329,-0.026191,-0.063234,-0.025905,0.56449,-0.161174,-0.208432,0.122514,-0.011243,-0.158909,0.054029,0.092085,0.153309,-0.260848,0.45684,0.080269],[-0.051985,0.33413,-0.016327,0.533457,-0.288753,0.18354,-0.410021,0.250709,-0.148267,0.222251,0.368587,-0.091016,-0.200542,0.160636,0.189858,-0.108116,0.007245,0.044646,0.123489,-2.029016,-0.026119,-0.124152,-0.088583,-0.193718,0.180137,-0.926801,-0.045718,-0.062978,-0.103295,0.128435,-0.03232,0.043845,-0.065842,0.497219,-0.336665,0.074531,0.113172],[0.139014,-0.05269,0.06348,-0.278602,0.220063,-0.129351,-0.325245,-0.116757,-0.050644,0.209544,0.311073,-0.49993,-0.067846,0.130876,0.10239,-0.118992,-0.082812,0.028513,0.020434,0.40483,0.229874,-0.178856,0.023754,0.026561,-0.162731,-0.929866,0.213381,0.113703,-0.105115,-0.258376,-0.04808,0.166073,-0.146668,0.029857,0.13617,0.021762,-0.047251],[0.050337,0.861163,0.12955,0.063524,-0.045516,-0.091842,0.083053,0.015531,-0.254994,0.293226,0.326558,-0.324421,0.567798,-0.023205,0.090457,0.00186,-0.186474,-0.041874,0.207871,0.163264,-0.044643,0.078976,-0.326999,0.073197,0.032455,0.193263,0.166765,0.134511,-0.175883,0.097482,0.108817,-0.106959,-0.012931,-0.031826,-0.162412,-0.265702,0.091091],[-0.324159,0.067671,0.145073,-0.066846,-0.065895,-0.018193,0.10072,-0.032518,0.121733,-0.084974,0.217943,0.398881,-0.015032,-0.131976,-0.112883,-0.13466,-0.034141,0.045244,0.15644,-0.141584,0.058776,-0.074002,-0.022395,0.071158,0.089395,0.129721,0.00675,-0.041436,0.013746,0.135348,0.093537,0.05378,-0.19173,0.051374,0.069512,-0.03827,-0.01097],[-0.094553,-0.078156,-0.104576,-0.148144,-0.139349,-0.151017,0.072424,-0.150063,-0.068825,0.086305,-0.121796,0.050574,0.104137,0.052552,0.128592,-0.117243,-0.021835,0.039905,-0.103982,0.140323,0.083841,0.088267,-0.164784,-0.042768,-0.054146,0.096741,0.084851,-0.106345,-0.016254,-0.054843,0.080466,-0.08051,0.018732,0.000202,0.005763,0.107022,0.040435],[0.104491,0.824739,0.302608,-0.140477,-0.220627,-0.191982,-0.090972,-0.191293,-0.142465,0.456485,0.380582,-0.327538,0.822352,0.151903,-0.102334,-0.115047,-0.013762,0.10878,0.194409,0.058929,-0.074726,-0.031346,0.025015,0.011557,-0.102724,-0.653736,0.063247,-0.16673,0.115971,-0.419823,0.056542,-0.045642,-0.358852,0.015434,0.255021,0.083738,-0.027875],[-0.038117,-0.033704,0.002423,-0.083431,-0.140366,0.0485,-0.097392,0.056685,0.119655,0.027448,0.116949,-0.062795,-0.146162,0.130922,0.079038,-0.113388,-0.131634,0.127806,0.149176,0.159286,-0.05242,-0.01601,-0.085253,-0.036199,-0.085022,0.128777,-0.145464,-0.151729,-0.099297,-0.154627,0.04996,-0.147488,0.0672,-0.06539,-0.121576,-0.112334,0.08681],[0.008619,-1.291907,0.008886,0.460804,0.124589,0.043439,-0.11792,-0.551067,-0.323197,0.909659,0.127647,0.26238,-0.518921,-0.123477,0.109017,0.141674,-0.14021,0.041238,0.3852,0.603278,0.191537,-0.08364,-0.16065,0.008474,-0.100771,-0.485781,-0.202299,-0.094837,0.171372,-0.037046,0.135448,-0.018985,-0.086978,-0.154695,0.325051,0.171082,0.158552],[-0.22942,0.488315,-0.191429,0.006767,-0.196062,0.196362,0.10327,0.054455,-0.360992,0.098611,-0.467509,-0.416231,-0.017288,-0.122045,0.099947,0.048387,0.07712,-0.039609,0.440474,0.490252,0.140053,-0.010822,0.28439,0.114775,-0.025901,0.931887,0.257253,0.199924,-0.02583,-0.026137,0.108436,0.127113,-0.096911,-0.244509,-0.095791,-0.366332,0.239251],[-0.332024,-0.561331,-0.112077,0.10011,-0.077004,0.025947,0.295981,0.092358,0.516265,0.342907,-1.083226,0.055759,0.608305,0.121461,0.132365,-0.032684,-0.025399,-0.018448,-0.3595,-0.895784,0.180098,0.14999,0.031406,-0.022746,0.060533,-1.001932,-0.384984,-0.131297,0.257064,0.026151,0.122706,0.230125,-0.177322,0.051839,-0.405835,-0.011647,0.01664],[0.199084,0.744761,-0.124065,0.062338,-0.042952,0.07358,-0.220605,-0.099111,0.305434,-0.5258,0.32539,0.532467,-0.6604,0.161729,0.145704,-0.070866,0.135835,-0.083712,-0.334711,-0.45433,-0.165459,-0.02369,0.120977,-0.081924,-0.187164,-0.743472,0.034583,-0.00105,0.018796,0.033183,0.105786,0.14649,0.154087,0.149365,0.118997,0.077192,-0.109567],[0.216187,0.090694,0.049974,0.031127,0.352878,0.338325,-0.611007,0.220446,-0.148094,0.022134,-0.047311,-0.016177,-0.221251,0.147679,0.024621,-0.038513,-0.181437,0.088538,0.097542,-0.299206,-0.016552,-0.011317,-0.273497,-0.094096,-0.046206,-1.250015,0.217442,0.247238,-0.103549,-0.29676,-0.084772,0.13298,-0.113584,-0.049635,0.576862,-0.273713,-0.69583],[0.217716,0.39721,-0.339236,-0.079054,-0.204018,0.005353,-0.22707,0.142427,0.426881,-0.418132,0.092783,0.237553,-0.047845,0.002581,-0.041472,-0.030711,0.13424,-0.061517,0.191252,-0.717507,0.011347,-0.093259,-0.14264,-0.085123,0.046254,0.538928,0.227285,0.263721,0.034586,0.057109,-0.047983,-0.090056,-0.162984,-0.107001,-0.043535,-0.251698,-0.245889],[-0.433024,0.427704,-0.252331,-0.172709,-0.03377,0.079311,0.224678,0.303112,0.318508,-0.226748,-0.281224,-0.055768,-0.523367,-0.161816,0.084765,-0.015621,0.02787,-0.074981,0.142543,0.334925,0.085007,-0.011206,-0.06423,0.27457,0.026987,0.18123,-0.313869,-0.311212,0.10521,-0.124583,-0.146564,-0.010439,0.104815,-0.256908,0.045478,-0.175736,-0.093142],[-0.140452,-0.954908,0.606434,0.30527,0.026527,-0.342006,-0.350682,-0.504542,-0.2237,0.32871,1.187696,-0.290662,1.275127,0.093498,-0.058905,-0.126619,0.074375,-0.013659,0.174106,-0.163551,-0.108101,0.149843,0.199592,0.109938,0.041255,-0.065453,-0.045106,0.034561,-0.06601,0.118832,-0.109081,-0.15829,0.245904,-0.058214,0.040423,0.242109,-0.025826],[-0.126627,0.392394,0.472282,-0.296106,0.227244,-0.314827,-0.650287,-0.536425,1.129811,-0.140879,0.009642,0.413316,-0.347166,-0.145795,-0.171584,0.004469,-0.218057,-0.146319,-0.23236,0.053001,-0.033553,0.049422,0.148714,-0.032118,0.117375,0.036219,0.161775,0.189981,0.15777,0.062471,0.022726,0.1056,-0.063041,-0.114982,0.152115,-0.118713,0.129171],[0.134087,0.273846,-0.026085,0.005509,-0.251174,-0.161079,-0.109376,-0.162861,-0.071147,-0.133491,0.309597,0.440914,0.076954,-0.017839,-0.040578,-0.122567,-0.044852,0.075947,-0.040861,-0.109589,0.061592,0.063843,-0.036542,0.044846,0.097375,1.037579,-0.100967,-0.225066,0.013189,0.078141,0.042813,0.011023,0.094656,0.005404,-0.058014,0.045717,-0.147368],[0.181583,-0.097604,0.511715,-0.250736,-0.221225,-5e-06,-0.022771,0.041064,0.358326,0.03704,0.100293,-0.378199,-0.16306,0.045993,0.026514,0.097028,0.119676,0.1791,-0.086523,0.328785,-0.118532,0.059125,0.047051,-0.039714,-0.053021,0.107214,-0.103428,-0.126112,-0.003103,0.029399,0.09522,0.151982,0.179041,0.003507,0.174106,-0.162478,0.001586],[-0.074376,-0.53413,-0.032765,-0.119839,0.191814,0.058138,0.140324,0.207731,0.149248,-0.130361,-0.156268,0.460799,-0.002374,-0.150437,0.10245,0.081583,-0.069603,0.088243,-0.153761,-0.052817,0.001995,0.000894,-0.084272,-0.15942,-0.121543,-0.063851,-0.199219,-0.184445,0.198892,0.092495,-0.043629,0.17434,-0.205254,0.045154,-0.505826,0.073092,-0.156624]],"bias":[0.045078,-0.004668,0.112627,-0.061637,0.027478,0.096403,0.034042,0.088065,-0.031835,0.178998,0.128775,0.020626,-0.022406,0.027102,-0.128782,-0.032942,-0.163174,0.064613,-0.104863,0.089639,-0.025809,0.028745,0.004584,-0.081331,0.109468,0.093319,0.111992,0.012047,0.163852,0.107036,-0.005643,-0.006074,-0.002237,-0.094803,-0.064936,0.067626,0.008287,-0.040328,-0.027748,-0.007475,-0.037376,0.123427,-0.128841,0.016011,0.032001,0.100133,-0.105601,0.032591,-0.144717,-0.051168,-0.152731,0.070253,-0.032323,-0.043917,0.10284,0.044166,-0.180218,0.026661,-0.048079,-0.039358,0.105627,0.086637,0.002748,0.13409,-0.159746,0.037962,0.026144,-0.096976,0.113188,-0.04772,-0.05487,-0.13707,-0.057644,-0.015749,-0.098314,-0.12595,-0.00321,-0.054148,-0.051262,0.079317,-0.073247,0.180741,-0.025239,-0.12564,0.026167,0.072228,-0.099336,-0.102246,0.114033,0.061335,0.06128,-0.100833,-0.120027,-0.135292,-0.093645,0.166717,0.00819,-0.136739,0.043629,0.181696,0.076148,0.118305,-0.156421,-0.019983,-0.048012,-0.186849,-0.122189,0.058012,-0.102377,-0.174171,-0.029167,-0.099534,-0.056407,0.094218,-0.008353,0.084304,-0.126164,0.093515,0.114933,-0.000804,0.073885,0.097746,0.133763,-0.116324,-0.11627,-0.009711,-0.011898,-0.082554,0.075531,0.128714,-0.105263,0.128303,-0.008949,-0.021519,0.232599,0.227288,-0.134599,-0.05787,0.073069,0.142889,-0.030466,0.167198,-0.005065,0.184731,0.150816,-0.142156,0.094211,0.028721,0.056119,-0.177796,0.035768,-0.028696,-0.102151,0.064475,0.191954,-0.079353,0.127501,0.05259,-0.069569,0.156885]},{"weights":[[-0.057698,-0.016416,0.036139,0.051172,-0.059155,-0.061491,0.040053,0.032538,-0.016784,-0.045603,-0.014373,0.007519,-0.013846,0.053695,-0.017948,-0.043941,0.016241,-0.005289,-0.02035,-0.07446,-0.059271,-0.011224,-0.09064,0.030788,-0.084406,0.031068,-0.022226,-0.08497,-0.026446,0.024349,-0.049692,0.019239,-0.013219,-0.01024,0.045841,-0.007612,0.023283,-0.039867,-0.02652,-0.018183,-0.004512,0.024554,0.03458,-0.063525,0.032987,0.043695,-0.036228,-0.079705,0.038606,0.006331,0.042791,-0.082547,-0.056396,0.016029,0.029754,0.005543,-0.078017,0.063885,-0.08011,-0.025533,0.068313,-0.026811,0.042479,0.016877,0.016068,0.033512,-0.075747,-0.067919,0.063826,0.009091,-0.051101,-0.009034,-0.027827,-0.037779,-0.009799,-0.035644,-0.067427,-0.12523,0.037525,-0.101901,-0.008704,-0.047103,-0.08518,-0.037384,0.059422,-0.035114,0.037039,-0.003408,0.040133,-0.024018,-0.044822,-0.05175,-0.024835,0.037785,-0.068978,-0.069609,-0.020968,-0.02797,-0.028649,-0.034812,-0.001712,-0.011067,0.01859,0.055339,0.039536,-0.058584,-0.013355,-0.085276,0.005407,0.001524,0.000771,-0.092078,0.010102,-0.088007,0.038839,-0.08065,-0.000613,0.047131,-0.011667,-0.038978,0.051155,0.024972,0.025094,-0.014998,-0.05166,-0.024873,-0.03084,-0.01101,-0.033672,-0.043386,0.003609,-0.078526,0.058522,0.00682,0.004746,-0.002371,-0.010484,0.057298,0.061519,-0.055601,0.047081,-0.081134,0.039339,0.053331,0.038135,0.021226,-0.035241,-0.042055,0.058249,-0.076392,-0.061348,-0.075447,-0.042036,0.008233,0.031495,-0.027571,0.020845,-0.07389,-0.067901,0.002516],[0.26738,0.556112,0.337508,0.111724,-0.76467,1.480216,-0.159903,0.19711,-0.018469,-0.216402,0.130374,0.049695,-1.094471,-0.075057,-0.237377,-0.372769,0.05531,0.07745,0.159817,-0.012121,0.599667,-0.495526,-0.448256,-0.072137,-0.101997,-0.482665,-0.011635,0.224796,-0.242652,0.286765,-0.119,-0.388151,-0.055376,0.087215,-0.059316,-0.093593,0.151384,0.195741,0.011368,0.225318,0.076112,0.004966,0.093889,0.024393,0.123125,0.002387,0.346639,0.159139,0.042908,-0.078046,0.001701,0.00326,0.527444,-0.114904,-0.334041,-0.258021,-0.055457,0.25197,-0.029304,0.117257,2.317481,-1.236046,0.054275,0.034521,0.370146,0.503618,-0.373958,0.310316,-0.038312,0.577876,-0.302439,0.390094,0.134726,-0.124733,0.288185,0.139632,-0.070219,0.020129,-0.008148,-0.506167,0.468867,0.110805,0.132727,0.25341,0.510304,-0.007399,0.898508,0.168868,-0.24854,-0.127554,-0.514821,-0.189462,-0.323792,-0.01406,0.730865,-0.10289,-0.659514,0.115392,-0.219384,0.799962,-1.495518,1.351873,-0.026419,0.000167,-0.07403,0.067136,0.028052,-0.780677,0.031354,0.064582,0.956219,-0.427066,0.18345,0.39054,-0.551107,-0.098035,-0.061935,-0.261368,0.184838,0.008147,-0.391859,-0.223287,-0.097965,-0.061461,0.306041,-0.005587,-0.009175,0.12171,0.083644,-0.093161,0.151489,-0.361696,-0.007998,0.229948,-1.153451,-0.755294,0.007739,0.020875,0.612814,-0.125249,0.058999,-0.003055,0.06731,-0.009153,-0.116911,0.021925,-0.378596,0.048616,0.02656,0.132125,-4.4788,0.111371,0.18202,0.166585,-0.607662,-0.480907,0.767215,-0.162646,-0.043957,-0.699712],[0.00672,-0.186206,-0.04174,0.111726,0.043903,0.154442,-0.098138,0.04874,0.001579,-0.01071,0.130818,0.036597,-0.026122,0.091559,-0.022477,0.123553,-0.061617,-0.006383,-0.344582,-0.011168,-0.106381,0.079698,0.128935,0.144765,0.09258,0.131824,-0.048008,0.094628,-0.007641,-0.091407,-0.007634,0.112759,0.015083,0.086998,0.226433,0.003118,0.083768,-0.073813,-0.04994,0.013176,0.041731,0.062434,0.022799,-0.012634,0.007962,0.03955,0.088315,0.031656,-0.029394,0.010236,0.061573,-0.028988,0.003406,0.0032,-0.128172,0.101606,0.001113,0.049358,0.049392,0.00716,-0.010919,-0.125858,-0.054184,0.035035,-0.023526,0.019498,0.074158,-0.10535,0.003595,-0.24315,0.114939,-0.054693,-0.011018,0.086704,-0.150048,-0.004132,0.107454,-0.04114,0.019109,-0.159116,0.028838,0.088754,0.115097,0.049531,0.007822,0.053404,-0.339569,0.013803,-0.000728,-0.005946,-0.0408,0.034631,0.031709,0.06498,0.137557,-0.038314,-0.015283,-0.181476,-0.025548,-0.364555,0.027429,-0.289572,0.000107,0.156978,0.067159,-0.001495,-0.047298,0.145263,-0.03189,-0.016136,-0.349982,-0.095281,0.006636,-0.08398,-0.100476,0.086174,-0.087214,0.056696,0.005299,0.063807,0.017917,-0.086189,0.115731,0.034699,0.022234,-0.02028,0.103827,0.130293,-0.050538,-0.097022,0.003921,0.078556,0.358732,-0.009366,0.130488,0.108576,-0.014948,0.036962,0.212977,0.084882,0.178871,0.112989,0.218562,0.012568,-0.058505,0.055834,-0.095327,0.058279,0.093805,-0.013155,0.010693,0.118809,0.066568,0.030491,-0.292224,0.087114,-0.114698,0.064823,0.010249,-0.031831],[0.036209,-0.289294,-0.330078,0.240607,0.507957,1.656306,-0.055217,0.015339,-0.068297,-0.014844,-0.214345,-0.048164,0.098029,0.022936,0.033083,0.196093,-0.054606,-0.036133,0.028901,0.182845,-0.334862,0.901143,0.097116,0.018467,-0.116506,0.012871,0.053555,-0.058492,0.060988,-0.076191,0.038116,0.164152,0.000823,-0.082864,0.121706,0.085057,-0.079252,-0.21927,0.059844,-0.092462,0.050132,-0.454772,0.053272,-0.139973,0.02093,0.047582,-0.158337,0.326613,-0.050898,-0.043797,0.074895,0.119996,-0.000329,0.079816,-0.103313,0.125759,-0.747215,-0.288553,0.123381,-0.004929,-0.554639,0.261298,-0.038208,-0.009626,-0.087929,0.42846,0.09267,-0.038726,-0.033338,-0.496305,0.048619,-0.379374,0.274304,0.113474,0.004889,0.182074,0.379907,0.204483,0.052447,0.638586,-0.016596,0.118718,0.030567,-0.028115,-0.685153,-0.209709,-0.355498,-0.078279,-0.235881,-0.131807,-0.171481,0.220878,0.089448,0.039695,-0.078007,-0.134059,0.028308,-0.278748,0.110649,-0.634632,0.38327,-0.058767,0.001976,0.319683,0.022872,0.019072,0.016999,0.130346,0.024476,-0.009557,-1.785517,0.078263,0.062506,-0.375836,0.870349,-0.153263,0.069617,0.158592,0.037475,0.046204,0.132964,0.013317,0.012991,-0.039757,-0.416441,-0.013699,0.137569,0.18374,0.073892,-0.258641,0.105369,0.066003,0.307327,-0.30476,0.559504,0.150633,0.060047,0.059908,-4.027002,0.131667,0.399035,-0.117274,0.049037,-0.070135,-0.326707,-0.068536,0.095847,-0.039238,0.032959,0.025555,0.621584,-0.028525,0.057419,0.099782,0.982857,0.264733,0.121686,-0.056131,-0.030045,0.002826],[0.06869,-0.042496,-0.101913,-0.113529,-0.092297,0.080494,-0.089028,-0.079858,-0.064205,-0.014802,-0.077097,-0.046564,-0.065417,0.072181,-0.071644,-0.073447,-0.06604,0.078508,-0.057746,-0.112316,0.023637,-0.036553,-0.013067,0.018283,0.033458,0.026623,-0.00883,-0.029935,-0.062323,-0.104723,0.017843,0.011721,-0.002675,-0.074728,-0.047128,0.02063,-0.035474,-0.053947,-0.075008,-0.094806,0.071069,-0.063482,0.011647,-0.05964,-0.002988,-0.110291,-0.023039,-0.050062,0.071151,0.02085,0.003117,-0.012691,-0.054448,0.028585,-0.047471,-0.040783,-0.014287,-0.108348,-0.096108,0.006495,0.020346,-0.109605,0.062324,0.000137,-0.026285,-0.011492,0.026417,-0.038913,0.037335,0.006735,-0.024828,0.036038,-0.026228,0.017231,-0.0862,-0.089807,0.050371,-0.03452,-0.092312,0.010925,0.006512,-0.096736,0.003173,-0.049907,0.020375,-0.085035,-0.020449,-0.001334,-0.114542,0.03896,-0.075826,-0.117128,0.021942,-0.036544,-0.057779,-0.078985,0.035127,-0.043118,-0.099229,-0.063586,-0.01368,0.044784,0.048328,-0.005015,-0.100497,-0.018219,0.001832,0.025552,-0.059136,-0.004798,-0.071885,-0.076886,-0.110132,0.036481,-0.109378,-0.066564,0.040182,-0.070073,-0.047325,-0.029032,-0.029304,-0.05429,-0.113911,-0.056139,0.020129,0.052504,-0.070286,-0.069529,-0.107967,-0.037663,-0.031047,0.009895,0.012916,-0.06493,0.026517,-0.03561,0.049799,0.015985,-0.011262,-0.116151,-0.029264,-0.103302,-0.096118,0.039304,0.008057,-0.052244,0.035825,-0.05202,-0.000847,-0.038384,-0.026276,0.008509,-0.03847,-0.088602,0.09687,-0.068819,-0.054409,-0.081536,-0.066302,-0.025751],[-0.065055,-0.00464,0.017088,-0.040299,0.02054,-0.044354,-0.067223,-0.034131,-0.095811,0.023649,0.040885,0.010511,-0.009019,-0.070548,0.002773,-0.07941,-0.004973,0.003231,0.048706,-0.002079,-0.073631,-0.024847,0.022308,0.001061,-0.06821,-0.083266,-0.03133,-0.041117,-0.010143,0.034627,-0.014208,-0.022748,-0.083295,-0.054865,-0.024548,0.046448,0.028161,0.033232,-0.057678,-0.098286,0.07264,0.007094,0.007062,-0.035669,-0.073349,-0.036383,-0.095806,0.028997,0.052359,-0.07077,0.073239,-0.032708,0.003879,-0.091409,-0.005406,-0.080178,-0.007951,-0.07702,-0.009254,-0.003843,-0.088592,-0.070969,0.014372,-0.060764,0.021436,0.050505,-0.000715,-0.023505,-0.084705,-0.058125,-0.049239,-0.027145,0.007264,-0.07853,-0.061057,0.032928,-0.041318,-0.054965,-0.010914,0.015192,-0.096169,-0.020088,0.046439,0.041774,-0.052929,0.017405,-0.044353,-0.026491,-0.023769,-0.001459,-0.056468,0.041801,-0.028671,0.056843,-0.087797,0.022394,-0.032867,-0.059837,-0.058537,-0.056905,-0.069666,0.05801,-0.090799,0.003294,-0.024551,0.0359,0.073825,0.049529,0.026738,-0.040278,-0.023046,-0.084622,-0.053371,0.033372,-0.081082,-0.057177,0.029561,-0.043396,0.028972,0.022586,0.007853,0.051742,-0.07218,0.021534,-0.050252,-0.065968,-0.036753,-0.086586,0.004262,-0.077463,-0.040458,0.031402,0.02637,0.026028,-0.024585,-0.057097,-0.089409,-0.004176,0.042228,-0.048321,-0.055745,0.007553,0.024976,0.03732,0.011428,-0.090691,0.006567,-0.052305,-0.059665,0.050679,-0.094332,-0.003266,-0.009072,-0.052576,-0.087829,-0.041482,0.004732,-0.03249,0.041685,-0.034896],[-0.080039,0.00039,-0.036583,0.190864,0.132876,-0.180316,-0.054368,0.080864,-0.0093,-0.087043,0.038135,0.005458,-0.03308,0.024976,-0.116535,0.091778,-0.002058,0.059006,-0.490874,0.037816,-0.101569,0.221678,-0.007384,0.127203,0.065484,0.059159,-0.022459,0.204274,-0.090297,0.095307,-0.008249,-0.021673,-0.027393,0.008272,0.19889,-0.087292,0.028248,-0.005467,0.066186,0.025602,0.022011,0.090584,0.072418,-0.080149,-0.135418,-0.013869,0.098758,0.047014,-0.07118,0.082501,-0.045284,-0.05107,-0.089627,0.173475,-0.204861,0.093612,0.073954,0.031767,0.122201,0.119628,0.042787,-0.011784,-0.073598,0.004269,0.039377,0.120732,0.001854,-0.241014,0.079361,-0.068381,-0.035424,-0.143236,0.101846,0.050394,-0.041855,0.002335,-0.025013,0.050504,0.069019,-0.299943,-0.022848,0.078349,0.040208,0.143191,-0.091885,0.031897,-0.729771,0.172603,-0.092273,0.096041,-0.065567,-0.233258,-0.068934,-0.030211,0.520488,-0.104793,-0.137741,-0.201507,-0.054445,-0.490425,-0.153183,-0.434109,0.034854,0.275128,0.025565,-0.051922,-0.044088,0.144322,0.018915,0.026737,-0.229122,0.039468,-0.030969,-0.193199,0.14937,-0.066145,0.060359,0.020902,0.085999,0.033747,-0.011554,0.083692,0.129442,0.039515,0.096828,-0.026679,0.06367,0.001462,0.075738,0.172781,0.076066,-0.001842,0.184936,0.034417,0.145845,-0.010323,0.031857,0.068799,0.729744,0.131545,-0.587313,0.230692,0.168212,0.075296,-0.065334,0.03716,0.022669,-0.027985,-0.02446,0.003034,-0.024658,-0.016622,0.068432,0.055959,-0.666578,-0.020389,-0.135092,0.064983,0.170098,-0.026364],[-0.050647,0.070254,-0.002896,-0.011009,-0.01235,-0.049658,-0.027462,-0.011315,-0.084177,-0.088241,-0.051551,-0.002493,0.002654,-0.041327,-0.056353,0.038325,0.016599,0.055375,-0.07621,0.036252,-0.044338,0.078139,0.018308,-0.011451,0.037868,-0.095263,-0.06343,0.035441,0.005374,-0.010446,-0.032077,-0.062796,-0.08742,-0.024225,0.040355,0.040582,-0.106052,-0.053881,-0.000412,-0.068532,-0.01516,-0.071191,0.02553,-0.040699,-0.085605,-0.056045,-0.062177,-0.033517,-0.059195,0.04931,0.016303,-0.002062,-0.079581,-0.006614,-0.067346,0.001723,0.022343,-0.038334,-0.026319,-0.050336,-0.0118,0.035156,-0.074774,-0.084544,-0.011153,-0.051838,0.011669,-0.056891,0.047831,-0.067336,-0.004832,0.040245,-0.051553,0.007812,-0.025219,-0.004604,-0.08508,-0.063707,-0.04944,-0.095898,-0.043481,-0.093389,0.023808,-0.093584,0.047733,-0.017246,-0.046105,0.032959,0.024772,-0.0711,0.004451,-0.046721,-0.071123,-0.000711,0.024753,0.019613,0.062611,-0.004636,-0.070596,-0.03464,0.017183,-0.031314,-0.032299,0.007494,-0.090136,0.020785,0.051284,-0.004404,0.012168,0.076349,0.032253,-0.05793,-0.035228,0.033184,0.008727,-0.008422,0.047887,-0.067458,-0.005147,-0.046968,0.023948,-0.024203,0.043951,0.074761,0.048585,-0.062003,-0.107778,-0.064906,-0.081942,0.057873,0.025825,-0.047663,0.016417,0.016399,-0.09148,-0.052949,-0.027016,-0.042685,-0.024595,-0.035332,-0.016634,-0.082079,-0.01577,-0.007444,-0.080885,-0.033829,-0.050108,0.021316,-0.0596,-0.009338,-0.033647,0.034455,0.006581,0.022421,-0.032259,0.027775,0.038984,-0.033138,-0.014542,0.038642],[-0.040665,-0.278643,0.004057,0.115361,-0.012675,0.482823,-0.046898,0.115497,-0.006102,0.023242,0.014827,-0.048901,0.096488,-0.048071,-0.099621,0.018282,0.048831,-0.070376,-0.270825,-0.04532,-0.030629,0.427323,0.107526,0.096733,0.150197,0.040696,0.081124,-0.050563,0.086309,-0.035025,0.040665,0.084104,0.122161,0.015295,0.162593,0.120712,0.046831,-0.041425,0.057065,0.03373,-0.005682,-0.161363,0.061746,-0.005917,0.022405,-0.045517,-0.001351,0.00503,-0.058308,0.003885,-0.042101,0.132822,-0.001032,-0.047076,-0.105857,0.136471,-0.04422,0.042333,-0.034822,0.080786,-0.110995,0.207785,-0.020372,0.034695,0.064674,0.144419,-0.098619,-0.070217,-0.052101,0.207751,0.030648,-0.121144,-0.018113,0.006967,-0.246201,-0.041101,0.047636,-0.041483,-0.037756,0.010289,-0.042545,-0.057004,0.024453,0.0171,-0.037736,0.037629,-0.363043,0.004693,-0.025669,0.118433,0.13004,-0.026399,-0.046945,-0.036057,-0.105302,-0.006366,0.008513,-0.038612,-0.032931,-0.201057,0.09966,-0.943042,-0.036109,0.178485,-0.106067,-0.004934,0.018911,0.101762,0.028436,-0.071569,-0.473739,-0.032809,-0.072225,-0.11589,-0.217974,0.078322,-0.042519,-0.071455,-0.054712,0.073356,0.143478,0.038236,0.189037,0.050621,-0.037654,-0.043473,0.007288,-0.010075,0.015341,-0.186718,-0.073818,0.099953,-0.011945,0.010404,0.119546,0.149016,0.051111,-0.04338,0.11055,-0.020095,0.060827,0.213136,0.038296,0.02924,-0.097238,-0.018335,0.047026,0.076273,-0.01286,0.030097,0.056828,0.082591,0.031296,0.108611,-0.102039,0.127667,-0.044947,0.043951,-0.048192,0.040853],[-0.161841,-0.338702,0.072044,-0.118119,-0.214692,0.51032,0.157276,0.006756,0.021039,0.095854,0.104564,-0.064655,-0.047329,-0.050639,0.089017,0.140435,0.060216,0.036762,0.157724,-0.014961,0.037118,0.718171,-0.215996,-0.106315,0.0455,0.16092,0.040396,0.010035,-0.049738,0.113235,0.052055,0.071338,-0.029457,0.096641,-0.147171,0.061981,-0.053134,0.196754,-0.069871,0.073031,-0.030002,0.057086,-0.094063,-0.016885,0.043524,-0.107234,0.163968,0.041573,0.045965,0.020671,0.034063,0.106132,0.114649,-0.113354,0.141079,-0.045406,-0.009271,0.036759,-0.042722,-0.035614,-0.183358,-0.098308,-0.07859,0.090944,-0.25378,-0.377173,0.032235,0.190719,0.066581,0.453022,0.210175,0.050904,0.211132,0.130143,-0.036909,-0.050293,0.660225,-0.160552,-0.033827,0.567661,-0.247996,-0.148604,-0.110147,0.05499,0.159427,0.02103,0.281125,-0.087941,0.016566,-0.035378,0.081936,-0.292008,0.016623,0.03445,-0.555478,0.070335,-0.125748,0.194951,-0.120754,0.7418,0.022372,-0.048307,-0.036939,-0.23669,0.036764,0.030825,-0.07758,0.044439,-0.017075,0.074457,0.464133,-0.006511,5.2e-05,0.199017,0.566125,0.00937,0.040339,-0.168877,0.026778,-0.068543,-0.002237,0.019366,-0.025247,0.036758,-0.056178,-0.090169,-0.016406,-0.155144,-0.067751,-0.261537,-0.040507,0.066459,0.130953,0.038433,0.135562,-0.056225,0.083804,0.0667,-0.497533,0.082543,-0.068149,-0.003857,-0.140785,-0.118017,0.124645,0.038456,0.291978,0.014975,-0.035991,-0.006755,-0.037083,0.077012,0.139611,0.110362,0.427422,0.093634,0.312877,-0.000242,0.153434,0.062357],[1.599835,0.338815,-0.009057,0.316718,0.225629,-2.316096,-0.062317,0.285526,0.042634,-0.22893,0.19551,0.033129,0.065162,-0.024407,-0.607626,0.06536,0.023384,0.026772,-0.411238,0.095061,0.10633,-2.152783,0.093381,0.098115,0.014398,0.023615,-0.138632,0.058681,0.030529,0.004254,0.076153,0.003709,0.022553,0.03692,0.096357,-0.093691,0.12568,0.131234,-0.023402,0.079445,0.042137,0.17603,-0.111617,0.034682,-0.0316,-0.041511,-0.027322,0.108627,-0.027341,0.216902,-0.052024,-0.20884,0.003167,0.066288,-0.533343,0.078149,-0.040392,-0.001631,0.100691,0.183047,0.167537,-0.009127,0.044293,0.096993,0.230383,0.512565,0.09,-0.19713,-0.03558,0.001603,0.105723,-0.097183,-0.131824,0.064356,-0.077214,-0.036019,-0.496223,0.042982,-0.088468,-0.454801,0.303483,-0.002711,0.076054,0.222223,-0.01434,0.070424,-0.086485,0.185975,0.01764,0.22378,0.006127,0.216614,-0.027364,0.0775,0.442389,-0.208288,0.072057,-0.436248,0.008675,-0.770245,-0.395841,1.027035,0.050417,0.231493,0.087201,-0.019028,0.051697,0.06916,-0.051441,-0.066561,-0.27288,0.087282,0.121579,-0.124054,-0.427893,-0.04333,-0.00987,-0.050939,0.059865,0.074014,0.04781,-0.049161,0.082142,0.023958,0.002006,-0.001229,0.165789,0.080467,0.004665,0.210374,0.02905,0.002142,0.246195,0.02019,0.106488,0.035264,-0.060056,-0.028188,-1.419311,0.062235,-0.096916,0.320139,0.250848,0.078895,-0.000833,0.069429,-0.011352,0.0113,0.067563,0.019651,-0.021862,0.044143,0.029024,-0.117758,-0.103657,-0.798897,-0.416747,0.076439,0.197283,-0.078115],[-0.083218,0.044543,-0.091619,0.026962,0.017246,-0.024932,-0.024128,0.039444,0.016908,-0.066422,-0.081855,0.019984,0.021511,-0.050051,-0.09058,-0.081467,-0.001117,0.055617,0.019088,-0.070024,-0.083389,-0.068617,-0.074472,-0.030098,0.004323,0.057716,-0.087145,-0.048834,-0.026977,-0.057322,-0.004225,-0.011995,-0.089346,0.003611,0.047422,-0.028179,0.046688,0.020157,-0.062817,-0.08079,-0.006258,0.03373,0.017032,0.060452,0.048516,0.057622,0.063052,0.04709,-0.040534,-0.013805,-0.04819,-0.00806,-0.005108,0.00839,-0.024193,0.033282,0.018168,-0.0515,0.060208,0.035804,-0.088537,0.044398,0.058768,-0.069205,-0.023351,-0.022509,0.043584,0.058847,0.016382,0.056553,-0.05168,0.033031,-0.009866,-0.084344,0.071501,-0.074898,0.018858,-0.078683,-0.018374,0.026296,0.014153,-0.02556,-0.0653,-0.063191,0.008502,-0.031459,0.029692,-0.092766,-0.089794,-0.005183,0.06427,-0.040429,-0.028461,0.038804,0.058249,-0.087155,0.067873,-0.087197,-0.090192,-0.072494,-0.039813,-0.064172,0.00731,-0.04708,-0.01188,-0.020596,0.00157,0.047097,-0.025069,0.022037,-0.083965,-0.051234,0.043979,0.054777,0.039262,-0.048132,0.045941,-0.073405,-0.018297,-0.067669,-0.067083,-0.071093,0.010942,-0.037361,0.013729,-0.057577,0.010048,-0.004722,-0.037707,0.057226,0.023366,-0.046005,0.010451,0.002616,-0.024695,0.045649,-0.013118,0.04121,0.050722,-0.066627,-0.044674,-0.039864,0.001417,-0.036764,-0.00793,-0.00322,-0.066765,-0.060614,0.035414,0.018618,-0.063442,0.033113,-0.086205,0.022605,0.018935,-0.045751,0.041019,0.017054,0.062337,-0.022863],[0.01304,-0.355542,-0.014521,0.03481,-0.052805,0.217856,0.070447,-0.122746,-0.00498,0.065402,-0.014229,-0.057121,-0.043922,-0.012609,-0.223914,0.114054,-0.027637,-0.059186,-0.563605,0.055209,-0.090313,0.606024,0.076123,0.148712,0.042578,0.01904,0.033978,-0.087206,0.061333,-0.016233,0.116381,0.116253,0.081674,0.095463,0.056869,-0.104784,0.02425,0.007017,0.045569,0.009335,-0.050236,-0.174104,0.050123,-0.034654,-0.076007,0.027286,0.02834,0.040396,0.065034,-0.026584,-0.012239,0.150498,-0.110219,0.016578,-0.116779,0.014448,-0.010519,0.122951,-0.063968,0.138436,-0.070997,0.151594,0.032684,0.026896,-0.003518,0.003286,-0.070452,-0.118496,-0.02602,0.188903,0.08886,-0.093937,0.011817,-0.010418,-0.174356,0.093345,-0.210704,-0.062755,-0.007385,0.091575,-0.001672,-0.008354,-0.131709,-0.017093,-0.196981,0.056751,-0.238147,-0.000477,0.001652,0.001107,0.058213,-0.020538,-0.010526,-0.028936,-0.166539,0.079736,-0.144875,-0.049454,-0.071861,0.146861,0.252111,-1.041402,-0.049722,0.01826,-0.05105,0.018999,-0.036521,0.187773,0.035497,0.06065,-0.387939,-0.084816,0.039661,-0.198044,0.227923,0.030658,-0.080106,-0.040913,0.058658,-0.041114,0.153576,-0.030177,0.094103,0.022455,-0.034444,0.070884,0.046509,-0.091248,0.007738,-0.105628,-0.006957,0.115946,0.187807,0.017906,0.015983,0.0708,-0.019135,-0.038711,0.180632,0.111193,-0.18136,0.305396,0.067334,-0.033865,-0.073681,0.076699,0.217562,-0.048792,-0.046068,-0.105901,-0.054395,0.102251,0.095279,0.172833,-0.239492,0.071029,0.005943,0.082171,0.055347,0.115101],[-0.034551,0.066519,0.083331,-0.175095,-0.257646,0.580404,0.123733,0.002306,0.084144,0.136472,-0.040979,-0.008633,0.023151,-0.047502,0.151893,0.052813,-0.030524,-0.054684,0.248132,-0.060075,0.041998,0.356546,-0.052014,-0.194772,-0.062678,0.040788,0.145203,-0.036285,0.030994,0.051659,0.063052,0.029066,-0.002291,0.05065,-0.230776,0.089144,-0.004659,0.090817,-0.002743,0.02141,-0.047243,0.046968,-0.08229,-0.01472,0.229932,0.09912,0.073995,0.004296,-0.059201,-0.003046,-0.061465,0.113554,0.214049,-0.077055,0.161453,-0.106324,0.089443,0.014936,-0.245449,0.076721,-0.122387,-0.007359,-0.005061,-0.032524,-0.110648,-0.212412,0.033746,0.141534,0.058063,0.218153,0.147316,0.111972,0.269503,0.002025,0.073559,0.102194,0.712179,0.001824,-0.00378,0.442679,-0.176762,-0.141287,0.026828,-0.066835,0.03968,0.10639,0.34628,-0.229701,0.118613,0.044494,0.037751,0.008153,0.029423,0.057681,-0.094855,0.087056,-0.088507,0.098017,-0.020048,0.708064,0.084509,0.045887,0.057952,-0.214199,0.045391,0.015592,-0.00021,0.066432,0.050041,-0.061038,0.588299,0.033597,-0.065168,0.204514,0.566839,-0.036435,0.0335,-0.069145,0.075084,0.028027,0.076863,-0.053094,-0.004608,0.013195,0.007873,-0.074179,0.021957,-0.00135,0.015943,-0.22969,-0.005853,-0.045625,0.342639,0.071199,-0.000154,-0.097066,-0.039842,0.080977,-0.598807,0.034364,-0.12619,-0.201906,-0.249066,-0.100061,0.179874,0.021581,0.160764,-0.009847,-0.059614,0.017888,0.105102,0.032285,0.003694,0.133631,0.332614,0.039994,0.103918,0.061741,-0.032485,0.116143],[0.342748,-0.266041,0.209848,0.260066,-0.161484,0.602284,0.039275,0.067572,0.07875,0.042472,0.191128,-0.023019,-0.057548,0.075017,0.068594,0.124145,-0.0129,0.06116,-0.507938,0.079808,0.000392,0.53567,-0.004773,-0.006766,0.20066,0.198627,0.23101,-0.063179,0.037003,0.043972,-0.080915,-0.020601,-0.050658,0.171328,-0.123236,-0.057767,-0.058543,0.148715,-0.010387,0.116973,-0.057756,-0.051604,-0.043,-0.232169,0.180809,0.029285,0.075892,0.204965,0.025892,0.185576,0.003757,-0.009235,0.205537,-0.101806,0.252586,0.037934,-0.023978,0.098688,-0.069985,-0.125517,-0.243646,-0.216931,0.057445,0.110547,-0.339251,-0.225706,0.00156,0.001871,-0.049208,0.18331,0.162276,-0.071017,0.070578,0.095237,-0.212127,-0.090122,0.081542,-0.175883,0.049365,0.037878,-0.124242,-0.184973,-0.082541,0.207406,0.029807,0.031264,0.658448,-0.00565,0.109292,0.003162,0.063403,-0.436343,0.077391,-0.075034,-0.625265,0.075569,-0.010273,-0.050832,0.083222,0.112719,0.141704,0.239307,0.074264,-0.188631,0.04868,0.000164,-0.006924,-0.002168,0.070892,-0.03026,0.221863,0.075112,0.030514,0.159197,0.100064,0.078282,-0.023285,-0.103758,0.161636,-0.039709,-0.068602,-0.024832,-0.000914,-0.002092,0.086173,0.029166,-0.092401,-0.044296,0.007643,-0.220794,-0.185187,0.005375,0.060778,0.126398,-0.0462,0.026074,0.046981,-0.014059,-0.24738,0.160993,0.138761,-0.078556,0.027238,-0.046231,0.074835,-0.010725,-0.051755,-0.011949,-0.028167,0.142704,-0.060811,0.176539,0.063676,0.1585,0.420035,-0.014419,0.218037,0.072534,0.04586,-0.026051],[0.039651,0.040489,-0.016397,-0.014964,-0.031924,0.024648,-0.008759,0.022868,0.00592,0.050733,0.05585,0.063023,0.046717,-0.021808,-0.021989,0.048567,0.053477,-0.07269,0.062445,-0.079723,0.049052,-0.057829,-0.084059,0.060239,0.037246,0.036764,0.013598,0.001084,-0.051955,-0.02051,-0.020133,-0.089149,-0.029808,-0.043014,0.060429,-0.051027,-0.037164,0.006076,0.024099,-0.054035,-0.033892,-0.057417,0.006131,0.054433,0.019155,0.024299,-0.07816,0.060679,-0.016031,0.050851,0.035494,-0.063454,-0.03668,-0.020752,-0.088388,-0.008552,-0.047054,0.047744,-0.055512,0.055451,-0.080551,-0.054502,-0.039346,0.005539,-0.069629,-0.077518,-0.032807,-0.036702,0.062413,0.036904,-0.066873,0.002383,0.033695,-0.088326,0.064668,0.050872,0.028164,-0.052305,-0.084257,-0.031256,-0.066869,-0.000577,0.036529,-0.077154,0.018136,0.044167,0.044869,-0.089864,0.03161,0.007378,0.027446,-0.014325,-0.086076,-0.010687,-0.052133,-0.071718,-0.032378,-0.034533,0.0441,-0.030407,-0.0733,-0.05047,0.028107,0.019294,0.029772,-0.046576,-0.054802,-0.05184,-0.05335,0.011591,0.038221,-0.041467,0.026794,0.021556,-0.062796,0.037826,-0.009357,0.004541,0.053716,0.023867,-0.051992,0.025829,0.04858,-0.02246,-0.007483,0.060586,-0.044003,0.051582,-0.006569,-0.067359,-0.009318,-0.077315,-0.028848,0.008547,0.043335,0.047274,-0.029771,-0.084478,-0.031192,-0.027805,-0.010005,0.004275,-0.001155,0.031787,-0.003444,-0.011818,-0.011685,0.06359,-0.074071,-0.078164,0.024244,-0.041272,-0.046959,0.010393,-0.047648,0.043411,0.064103,-0.056221,-0.086782,0.044915],[0.128602,-0.151935,-0.003443,0.025332,-0.09491,0.421516,0.103948,0.079619,-0.023009,0.146719,0.151977,-0.051997,0.183306,0.027337,-0.011097,0.16232,-0.06785,0.07588,0.157235,0.061848,-0.106359,0.641201,0.106754,0.086828,0.06968,0.003627,-0.129228,-0.059506,-0.07739,0.079806,0.040686,0.051109,-0.090119,0.025565,-0.135496,0.165141,0.044961,0.023049,0.032353,0.113521,0.052062,0.137053,-0.025126,0.115622,0.129848,0.053821,-0.096669,0.047771,0.063895,0.098319,0.01252,-0.007151,-0.178788,-0.073196,-0.282163,0.021536,0.005982,0.034528,0.019082,-0.047414,-0.110361,0.240561,0.024934,0.03624,0.213585,0.051725,0.051174,-0.056279,0.008212,-0.225732,-0.005448,0.065123,0.106238,-0.00059,-0.103194,0.092411,0.207107,-0.107768,-0.053268,0.132513,0.035711,-0.061222,0.009128,0.075971,0.009376,0.066267,-0.561284,-0.03442,0.080827,-0.001872,0.054025,-0.139293,0.020449,-0.032696,-0.106408,-0.355962,0.016647,-0.306791,0.063793,-1.235396,-0.292047,-2.024666,-0.052084,0.223824,0.007814,0.036979,0.06348,0.050371,0.083347,0.003007,-0.288433,0.22121,0.066415,-0.121617,0.293866,0.030939,0.021359,-0.095403,-0.024368,0.076014,-0.055577,0.045161,-0.001869,0.032225,-0.028926,-0.047442,0.110188,0.122711,-0.033525,-0.220349,-0.062522,0.076429,-0.27385,-0.044365,0.056091,-0.046691,-0.040538,-0.043617,-0.334811,-0.022053,-0.684493,0.174272,-0.004555,-0.117186,0.007068,-0.054107,0.115929,-0.000662,0.082566,-0.068807,0.067823,0.163593,0.099057,0.075805,-0.371831,-0.252637,-0.124593,0.052342,0.11549,0.061409],[1.169933,-0.091119,-0.191498,0.689337,0.391308,-1.398772,-0.289743,0.339385,0.001546,-0.371428,-0.01516,0.003905,-0.102009,0.007744,-1.037504,-0.162491,0.051929,0.05854,-1.994607,0.134626,-0.083915,-1.6602,0.057896,0.359613,0.142248,-0.026468,-0.143122,0.351956,0.082955,0.054948,0.271206,-0.235404,0.088598,-0.034197,0.354183,-0.239378,0.146118,0.078907,0.009409,-0.124944,-0.012549,0.000875,0.323057,-0.007197,0.001681,0.006703,-0.017361,0.158458,-0.026039,0.645934,-0.074459,-0.334981,-0.542749,0.186523,-0.323764,0.094502,-0.170038,-0.035011,-0.000258,-0.084089,0.078377,-0.311781,0.001046,0.179955,-0.00056,1.268932,-0.109587,-0.239003,0.026841,-0.732983,0.145503,-0.208891,0.051284,0.141242,0.343463,0.072011,-0.85428,0.330148,0.189605,-0.434079,0.55949,0.120548,0.109263,0.043506,-0.124592,-0.086865,-2.763894,0.424712,-0.148356,0.012101,-0.448941,0.756654,-0.337664,-0.003053,0.265729,-0.601673,-0.100494,-0.23326,0.419076,0.848808,-0.282702,1.024714,0.012807,0.413304,0.308123,0.011926,0.030981,-0.252239,0.020429,0.025345,0.741742,-0.122991,0.221658,-0.368518,-0.999079,-0.322511,-0.050516,0.169662,0.199028,-0.03006,0.069658,0.13614,-0.233807,0.060068,0.050997,-0.035285,0.18115,0.31789,0.164195,0.324119,0.261261,-0.208588,-0.72994,0.181999,-0.005311,-0.264105,0.066881,-0.028781,0.622426,0.004305,-0.86874,-0.063358,0.30249,0.175423,-0.181521,0.087038,0.272946,-0.020883,0.081701,0.290939,-0.273536,-0.12212,0.224312,-0.324975,-0.387562,0.006978,-0.362307,-0.079937,0.079826,-0.134675],[0.10122,-0.027926,0.310606,0.07423,-0.280954,1.561495,0.095605,0.182774,0.091491,0.255334,0.191086,-0.038311,-0.08041,0.044309,0.153093,0.199083,-0.020026,0.044705,0.126061,0.025545,0.159679,1.002633,-0.235595,-0.107457,0.090444,0.191337,0.044704,-0.053443,-0.07668,0.187345,-0.052032,0.02722,-0.128665,0.105129,-0.170169,0.074554,0.138346,0.284598,-0.070566,0.077851,-0.002379,0.303791,-0.056423,-0.440468,0.083277,-0.083498,0.084314,0.089362,-0.022689,0.545433,0.037848,0.088619,0.209878,-0.234758,0.274823,-0.068959,-0.029416,0.139761,-0.256847,-0.291211,-0.149459,-0.153037,-0.034097,0.09583,-0.327391,-0.526911,-0.022846,0.141358,-0.091906,-0.055639,0.227249,0.103505,4.7e-05,0.003421,-0.108069,-0.065355,-0.015444,-0.251404,0.016874,0.266769,-0.114428,-0.065311,-0.182278,0.238445,0.227703,-0.043608,0.126676,-0.085559,0.041013,0.090927,0.177922,-0.544769,-0.137854,-0.01958,-0.27548,-0.009616,-0.166166,0.224623,-0.025821,0.546795,-0.078454,0.105953,0.072292,-0.117451,-0.071265,0.090491,-0.033902,0.0799,0.067351,0.026938,-0.005798,0.093909,-0.056032,0.288147,0.278779,0.179502,0.058554,-0.294129,0.033013,-0.0615,-0.13896,0.027123,0.034049,-0.030424,0.079424,0.01556,-0.091316,-0.194307,-0.043237,0.124095,-0.202004,0.03893,0.336878,0.252999,-0.010031,0.092618,0.048323,0.025238,-0.113052,0.016403,0.122978,-0.085964,-0.087832,-0.082262,0.13175,0.038027,-0.106019,0.060724,0.161634,-0.181864,0.004196,0.167275,0.169471,0.063393,0.193381,-0.237298,0.236756,0.080499,0.219969,0.091615],[0.294332,0.069586,-0.072505,-0.559709,-0.272297,1.428191,-0.048065,-0.182384,0.040153,0.081325,0.177498,0.049105,0.111546,-0.045255,0.222476,0.036351,-0.000992,-0.069187,0.378015,0.042549,0.066405,0.532803,-0.024033,-0.142632,-0.093742,-0.048446,0.081308,-0.207574,0.044475,0.217256,-0.053,-0.085835,0.034439,-0.023932,-0.226266,-0.084497,0.005064,-0.110111,-0.067404,0.115656,-0.023788,-0.004339,0.11886,-0.007994,-0.026927,0.119448,-0.091958,-0.310357,-0.045388,0.03575,0.039746,0.022899,0.112702,0.054471,0.416954,0.078654,0.026196,-0.297528,-0.03663,0.020876,-0.240274,0.121354,0.050242,0.086523,-0.155258,-0.560854,-0.025189,0.303144,0.00899,0.172844,-0.076753,0.121025,0.041149,0.092928,0.041033,0.134509,0.838346,-0.127851,0.081904,0.500613,-0.148923,-0.105291,-0.081552,-0.020923,0.141501,-0.050166,0.290282,-0.366265,0.099805,0.153868,0.105718,-0.064385,-0.07141,0.056916,-0.322926,-0.149278,0.165039,0.129244,-0.017592,0.413706,0.045368,-0.836115,0.024703,-0.373339,0.002123,0.058898,0.069655,-0.054575,-0.018672,-0.049732,-0.037412,0.095221,0.097087,0.402139,0.742033,0.086266,-0.028546,-0.130209,-0.033677,-0.048242,-0.042942,0.028986,-0.079523,0.036477,-0.031726,0.066119,0.027196,-0.226536,-0.024864,-0.2729,0.03722,0.109978,0.347706,0.095313,-0.070978,0.058374,0.083018,-0.048118,-0.969325,-0.077277,0.351601,-0.346951,-0.21139,0.030889,0.060957,0.006997,0.156696,-0.049638,-0.016729,0.038172,0.138531,0.030012,0.18548,0.332682,0.313622,0.381836,0.111772,0.006194,-0.104151,0.012774],[0.202049,0.234599,0.201596,-0.378157,-0.001222,0.182465,0.102552,-0.137033,-0.026252,-0.046349,-0.062514,0.02206,0.130341,-0.015619,0.141688,0.091268,0.061885,0.014701,0.618212,0.042654,0.183299,-0.590439,-0.13844,-0.139355,-0.0421,0.07625,0.066972,-0.072821,0.08068,0.140935,-0.057188,0.243574,0.038823,-0.119673,-0.240971,0.244451,0.02516,0.012744,0.003449,0.100148,-0.011558,-0.186737,-0.135682,-0.115733,0.167617,0.169324,-0.086412,0.059976,-0.032987,-0.073412,-0.072478,-0.014751,0.390125,0.01877,0.12408,0.015168,0.13136,-0.206935,0.03093,-0.005031,0.03338,-0.042131,0.057672,0.122553,-0.176378,-0.995757,0.014487,0.023615,-0.051228,-1.782859,0.1172,0.227139,0.117028,0.072101,0.055219,-0.049979,0.167493,-0.131103,0.101655,0.704272,-0.377861,-0.047783,-0.149966,0.104125,0.041318,0.076177,-0.368644,-0.182028,0.057683,-0.008427,0.01378,-0.446406,0.194884,0.064622,-1.012308,0.107961,0.084502,-0.094396,0.05466,0.461659,0.223424,0.441479,-0.015802,-0.263013,-0.019093,0.010617,0.062185,0.101728,-0.076794,0.046228,0.692224,0.146205,0.04818,0.164711,0.535071,-0.216935,0.035373,0.122614,0.097375,-0.07563,-0.042691,0.062227,-0.062281,-0.037773,-0.034931,-0.07085,-0.050008,-0.07527,-0.062544,0.015382,-0.087199,0.071814,0.889689,0.04374,0.100012,-0.117421,-0.046088,-0.033956,-0.089562,-0.028574,0.393594,-0.28985,-0.104769,0.000548,0.039234,-0.069043,0.00824,0.072059,0.087627,0.051842,0.126555,0.077219,-0.026731,0.034593,0.255591,-0.040446,0.286439,0.004594,-0.081479,0.215108],[-0.182575,-0.238083,-0.037455,0.104903,-0.016321,1.137065,-0.049701,0.250012,-0.045697,0.06566,-0.014493,-0.010198,-0.069162,0.076125,-0.062284,-0.044609,0.032109,0.074617,-0.312901,-0.038895,-0.144732,1.300091,0.096585,0.006738,0.077548,0.366905,-0.140184,-0.21527,0.015571,0.028321,0.095034,0.047348,0.05332,-0.138,-0.209337,-0.031476,-0.310307,0.317901,0.053535,-0.084657,-0.065395,-0.072857,0.197307,-0.462561,0.023099,-0.245713,-0.037159,-0.057571,-0.015567,0.580077,-0.037524,0.104696,-0.177476,-0.122222,0.50871,-0.003031,0.367809,-0.072522,-0.313726,-0.255274,-0.200984,-0.16074,-0.030978,0.053802,-0.078577,-0.348588,-0.100869,0.037738,-0.005606,0.096305,0.174894,-0.156947,-0.25125,0.142292,-0.063997,-0.025101,-0.541388,0.009571,-0.083978,0.625365,-0.103396,-0.044116,-0.177504,0.159526,-0.300479,-0.200866,0.151708,0.183595,-0.200197,0.145123,0.029592,0.198555,-0.019769,0.046593,0.148568,0.034668,0.195109,0.077249,-0.086557,0.629666,-0.048523,0.067285,0.054694,-0.070226,0.054708,0.064859,-0.004162,0.156752,-0.002963,0.019555,0.649959,-0.18293,-0.077135,0.115324,-0.933735,0.165954,0.022603,-0.420936,0.206103,0.0161,-0.058314,0.205066,0.144271,-0.087056,-0.005806,-0.036878,-0.201851,-0.366299,0.049864,0.583615,0.016548,0.031806,0.283783,0.312821,-0.140935,0.026001,0.081203,0.102026,-0.2728,-0.024246,-0.59805,-0.280524,-0.076173,-0.222429,-0.1794,0.019016,0.615731,0.060219,0.262717,-0.110989,0.163079,0.126129,0.29495,0.029621,-0.183877,-0.09697,-0.287339,0.01858,0.095335,0.034969],[-0.015781,0.555158,0.048548,-0.300972,-0.556861,-0.274272,0.238683,-0.123882,-0.008445,0.081816,0.057862,0.026737,0.205898,-0.025289,-0.044596,-0.077807,0.042248,0.049153,0.166713,-0.07544,0.189907,0.42106,-0.010341,-0.236286,0.125296,0.101994,0.050192,-0.197509,-0.069499,-0.024064,-0.092864,0.280244,-0.031464,0.116925,-0.228306,0.065041,-0.219686,-0.009197,0.060472,0.170953,0.066639,-0.151416,-0.124001,0.073141,0.163185,0.136026,0.162605,-0.088362,-0.058207,-0.157746,-0.040712,0.153335,0.120562,-0.283428,0.000832,-0.032796,-0.185242,-0.072567,0.019465,0.025196,-0.085279,0.113238,-0.022047,-0.172787,-0.368125,-0.524788,0.049228,0.205363,0.078301,0.550225,0.11788,0.229618,0.239985,-0.036442,-0.18411,0.03624,1.739581,-0.266311,-0.117415,0.723447,-0.187842,-0.084044,-0.14433,0.005754,0.183089,0.223768,0.249451,-0.116243,0.241686,0.119084,0.275299,-0.570077,0.237541,-0.068758,0.210783,0.032436,0.135403,0.110748,-0.093229,-0.082918,0.430706,0.313044,-0.005246,-0.362746,-0.097504,0.010414,0.048788,0.23543,-0.014407,0.055423,-0.381929,0.152879,-0.067288,0.046192,0.238822,-0.050364,-0.062365,-0.14243,-0.107813,0.014484,-0.0465,-0.097228,-0.041103,0.013723,-0.008508,0.044943,-0.112301,-0.177006,-0.015415,-0.306825,-0.168409,0.063627,1.059863,-0.197408,-0.033148,0.09486,0.048041,-0.022439,-0.704265,0.080709,0.64557,0.023014,-0.580946,-0.14929,0.04243,-0.036366,-0.067973,-0.001666,-0.000707,-0.022114,0.217025,0.049454,-0.284572,0.049345,0.582505,-0.155575,0.051926,0.127168,0.0405,0.159599],[0.010891,-0.064145,0.034675,0.014565,-0.072919,0.025338,0.025717,0.05795,-0.008428,0.004307,-0.02353,0.000842,-0.063615,-0.073813,0.015842,-0.060787,-0.06222,0.049633,-0.048245,-0.050037,-0.077241,-0.024547,-0.047662,0.029763,0.048029,-0.062565,0.050805,-0.075938,-0.099205,-0.007365,-0.064839,-0.040426,-0.090022,-0.058047,-0.080196,-0.017858,0.024916,-0.004657,0.033575,-0.037153,-0.024944,-0.078702,-0.060108,-0.102025,0.003973,0.046439,-0.051031,0.022883,0.037476,-0.089674,-0.003219,0.002151,-0.105657,-0.039219,-0.063759,-0.012483,0.045661,-0.039595,-0.034224,-0.046874,-0.012746,-0.078191,-0.023157,0.03688,-0.050366,-0.043071,-0.07747,0.025349,-0.061534,0.002819,-0.08923,-0.049465,0.069317,-0.029908,0.014963,-0.104163,-0.025355,-0.10995,-0.04024,-0.022841,0.04305,-0.121147,0.024372,0.043173,-0.07408,0.056102,-0.022174,-0.051636,-0.007348,0.033446,-0.070697,-0.077212,-0.089554,-0.078281,-0.054459,-0.00055,0.025027,-0.120074,-0.097125,-0.037737,0.053705,0.053863,0.009662,0.051605,-0.056957,0.044275,-0.01959,-0.035532,0.057391,0.033269,-0.014856,0.015997,-0.054577,0.060643,0.054787,-0.079558,0.008242,-0.057239,-0.065794,0.020439,-0.01983,-0.007159,0.025755,0.014835,-0.079805,0.036483,0.025801,0.030946,-0.091829,-0.080703,0.016402,-0.023811,-0.006374,-0.008817,0.005308,0.01359,0.034069,-0.060917,-0.050816,-0.053957,-0.054954,-0.043415,-0.002068,-0.102119,0.054369,0.059347,0.070252,-0.008033,-0.011826,-0.029284,-0.061021,-0.10348,-0.019946,-0.034138,0.014318,-0.141568,-0.094057,-0.014917,-0.017062,-0.089135],[0.712226,0.288245,-0.007627,0.244728,0.233179,-2.486701,-0.046288,0.222998,-0.002797,-0.094605,0.149107,0.08079,-0.013799,-0.038074,-0.539129,0.161643,-0.071784,0.07393,-0.428083,0.070549,-0.083216,-0.694179,-0.329454,0.261361,-0.078079,0.131904,0.123461,0.37899,0.081984,0.355432,0.075718,-0.13755,0.067769,-0.043275,0.214514,-0.233108,0.004087,0.200553,-0.011079,0.06977,0.047506,0.139341,-0.042497,0.036345,0.139814,-0.049192,0.140921,0.142593,-0.078492,0.263903,-0.025102,-0.273132,-0.478546,0.113438,-0.831305,0.134057,0.126364,0.831493,-0.020491,0.016004,0.019194,-0.300414,-0.076841,0.219413,0.210458,0.658541,-0.01912,-0.200313,0.002302,-3.875053,0.090703,-0.2177,0.156263,0.127962,0.204543,-0.061023,0.675509,-0.147821,0.090026,-0.348334,0.250203,0.016886,-0.011059,0.095587,0.190149,0.12269,-0.947366,0.190021,0.025247,0.019516,-0.249444,-0.592452,-0.071897,0.002702,-0.026784,-1.487547,0.00835,-0.263749,0.174843,-0.128831,0.020327,0.484974,0.006167,0.131816,0.156191,-0.042599,0.06937,-0.012448,0.014037,0.041605,-0.33174,-0.046561,0.070378,0.045027,-0.314248,-0.144459,0.057013,0.009083,0.244505,0.047,0.040531,0.31221,-0.031343,0.084515,0.08414,-0.074599,0.097028,0.125453,-0.060912,-0.088147,0.010808,-0.140399,0.935371,0.001977,0.057747,-0.115309,-0.064978,-0.029074,0.323582,0.03239,0.007392,0.114355,0.130531,0.048603,-0.084549,0.100962,0.080383,0.05347,0.003374,-0.00703,-0.085425,0.041426,0.05122,-0.031633,-1.96772,-0.96088,-0.044701,-0.016035,0.251721,-0.039769],[-0.316881,0.300346,0.037262,-0.461645,-0.312761,1.93757,0.171398,-0.261147,0.070425,0.103128,-0.047197,-0.059221,0.13348,0.009604,-0.198614,0.220485,-0.035784,-0.003685,-0.356971,-0.102098,0.244358,0.52626,-0.017899,-0.1412,0.163786,0.117279,0.156468,-0.110811,-0.019697,0.039986,-0.097865,0.102049,-0.067829,0.147817,-0.278757,0.070112,-0.198325,0.1178,-0.061696,0.183149,-0.005339,-0.274765,-0.265289,0.170633,0.100581,0.138344,-0.191573,-0.096034,-0.02901,-0.351217,0.064973,0.109628,0.500102,-0.218983,0.237537,0.02315,0.041316,0.133823,-0.163755,0.073808,-0.080324,0.160385,-0.057588,0.007354,-0.542193,-0.519592,0.092499,0.194194,-0.026386,0.244522,0.023361,0.127238,0.068378,0.089963,-0.205748,-0.036765,1.067383,-0.371556,-0.048485,0.397107,-0.25582,-0.197097,-0.262852,-0.036809,0.127588,0.0154,-0.611097,-0.223362,0.073173,0.125895,0.111892,-0.311062,0.143033,0.076792,-0.508493,0.307189,0.111257,0.086784,-0.083365,0.547337,0.308552,0.4256,-0.085465,-0.278648,0.017241,-0.026504,-0.014513,0.177342,0.026041,-0.088471,-0.146209,0.134746,-0.077889,0.27145,0.675887,0.082866,0.087677,-0.178205,0.050419,-0.027612,0.012369,0.070637,0.192295,0.050028,0.037888,-0.053591,-0.131293,-0.210477,-0.046808,-0.313785,-0.035842,0.081115,0.858844,-0.242292,0.042878,-0.007185,-0.032711,-0.091151,-0.769516,0.210235,0.104983,-0.084934,-0.346436,-0.246748,-0.013487,-0.104501,-0.057281,-0.010159,0.025846,0.026778,0.059481,0.117406,-0.058903,0.299579,0.692093,0.33358,0.322601,0.057412,-0.086038,0.194015],[0.087441,-0.676362,0.016546,-0.098495,-0.06533,0.073238,0.147036,0.046988,-0.003953,-0.030078,0.057698,-0.048021,0.063454,0.048427,0.187073,-0.004124,0.000897,-0.030089,0.230428,0.038128,0.119092,-0.156727,-0.006148,-0.111776,0.208383,0.110093,0.240892,-0.15514,0.230822,-0.045101,0.057566,0.033042,-0.037119,0.027669,-0.184351,0.157481,0.131621,0.019416,-0.072169,0.08409,0.076702,-0.259041,-0.010364,0.093443,0.249008,-0.042753,-0.104432,0.047548,-0.078739,-0.071955,0.006811,-0.020194,0.332432,-0.078359,0.071193,0.046419,0.078759,0.290942,-0.041839,0.053587,-0.058214,0.0028,0.037566,0.058411,-0.390145,-0.291558,0.069289,0.098824,0.002453,0.308824,0.167545,0.146806,-0.070426,0.09613,-0.107586,0.168865,0.24676,-0.086949,0.217912,0.018653,-0.152099,-0.084892,-0.059487,0.045158,0.031434,-0.02354,-0.011719,-0.013636,0.148202,-0.007809,-0.152736,-0.41805,0.099158,0.014047,-1.039843,0.026061,0.060703,0.060389,0.099354,-0.559995,0.030909,0.130717,0.048986,-0.238389,0.052533,0.050996,0.028015,-0.108494,0.050148,0.023582,0.319975,0.038519,0.00481,0.181619,-1.395013,-0.180888,0.022551,0.100987,-0.010432,0.073998,-0.016549,0.073878,-0.042497,-0.056727,-0.031656,0.012404,-0.109017,-0.12107,0.090728,0.000129,-0.003328,-0.123101,-0.145065,0.136275,0.029083,0.084296,0.035278,0.020523,-1.046949,0.015279,0.644517,-0.098707,-0.132715,0.262678,0.100081,0.023767,0.019752,-0.020297,0.041496,0.035153,0.085078,-0.119947,0.072982,0.049345,-0.407015,0.277272,0.409085,0.010841,0.036972,0.100744],[-0.101485,-0.058456,-0.021472,-0.031021,-0.02574,-0.010787,0.025095,-0.021906,-0.069965,-0.097284,-0.043342,-0.066212,0.039428,-0.003683,-0.017175,-0.031054,0.022477,-0.019732,-0.075601,-0.049418,0.03944,-0.000174,-0.084643,-0.08631,-0.005357,0.028752,-0.067978,-0.075556,-0.103533,-0.04917,-0.059941,-0.08077,-0.066053,-0.131012,-0.004865,0.012146,-0.133687,-0.035624,-3e-06,-0.009907,0.03974,-0.005681,-0.137219,-0.045776,-0.029868,-0.055028,-0.065894,0.078394,0.059751,-0.083369,-0.07037,-0.077721,-0.013542,-0.034556,0.001312,-0.031865,0.017372,-0.07843,-0.062054,-0.044054,-0.075741,-0.003554,-0.055837,0.033949,0.06516,-0.052717,0.043481,-0.012795,-0.016286,-0.013424,-0.083859,-0.058411,0.012047,0.026841,0.057872,-0.043986,-0.049914,-0.062622,0.049307,-0.054796,0.0249,-0.059139,-0.10559,-0.071087,-0.078472,0.008442,-0.071368,0.013108,-0.110432,-0.054368,-0.043018,0.033101,0.033358,0.017261,-0.010867,-0.084186,-0.044955,-0.020398,0.000409,-0.054688,-0.081055,0.056426,0.054152,-0.037437,