export const distilledPolicyArtifact = {"enabled":true,"passed":true,"version":"distill-river-v3","trainedAt":"2026-06-26T05:57:29Z","policyKind":"softmax-distill","blend":1.0,"appliesTo":"open","featureNames":["equity","range_eq_0_10","range_eq_10_20","range_eq_20_30","range_eq_30_40","range_eq_40_50","range_eq_50_60","range_eq_60_70","range_eq_70_80","range_eq_80_90","range_eq_90_100","pot_odds","spr_norm","street_flop","street_turn","street_river","position_signal","to_call_flag","made_strength","draw_strength","wetness","paired","monotone","connected","range_advantage","blockers","range_percentile","range_weight","range_coverage","context_aggressor","three_bet","facing_bet","free_check","flush_blocker","nut_flush_blocker","top_blocker","board_pair_blocker"],"actionSets":{"open":["check","bet-small","bet-mid","bet-big","bet-over"],"facing":["fold","call","raise-small","raise-big","jam"]},"validation":{"val_kl":0.072276,"rows":475640},"model":{"type":"mlp-softmax","activation":"relu","layers":[{"weights":[[-0.219975,-0.122672,0.569092,-0.927585,0.603791,0.390208,0.208515,-1.386783,0.092964,-1.835229,1.438901,-0.076187,-0.0546,-0.051873,0.029629,0.127732,0.038919,-0.07408,0.277858,0.159551,-0.122982,0.070885,0.24152,-0.121721,-0.01925,0.839736,0.002449,0.16935,-0.305961,0.077745,0.13685,-0.028399,-0.017941,-0.0538,-0.051388,-0.198341,0.229075],[0.588718,-0.152243,-0.399351,0.257568,-0.109056,0.085866,0.026746,-0.001527,0.019525,-0.037768,-0.078857,0.042428,-0.188594,-0.100116,0.113477,0.077742,0.00408,-0.051652,0.295673,-0.034189,0.053446,-0.107476,-0.003213,-0.020924,-0.153538,-0.096829,0.177836,0.043633,-0.009868,-0.132469,-0.11593,-0.167581,0.02449,0.000302,-0.161237,-0.142266,-0.218741],[-0.746223,0.745978,-0.285356,-0.619958,0.470985,-0.069088,0.369718,-0.436266,-0.376239,0.49479,0.26985,0.137387,-0.073841,-0.003442,-0.026163,0.071214,0.055876,0.006611,0.134952,0.028213,-0.026435,-0.095188,-0.076088,-0.053865,0.202496,-0.378978,0.188125,-0.010595,-0.093945,-0.095068,-0.111332,0.239781,-0.1569,-0.001824,0.22521,-0.041609,0.128187],[0.385913,0.069547,-0.122875,0.037929,-0.094776,-0.051291,-0.361341,-0.015084,0.067166,-0.093573,0.181701,-0.114841,0.009724,0.01756,-0.01396,0.156659,0.063158,-0.031444,-0.912146,-0.130753,-0.15028,0.320071,0.03927,-0.095268,-0.019756,-1.265407,0.073701,-0.071337,-0.050669,0.220588,0.064969,0.030439,-0.040146,0.006572,-0.193892,-0.575408,0.078899],[0.145417,0.057409,0.026104,-0.131308,-0.02584,0.07315,0.020097,0.072983,-0.022485,0.039828,-0.085969,-0.094278,0.020053,0.044743,0.119418,-0.15711,-0.155294,0.001529,-0.124159,0.036367,0.034372,0.107635,0.083896,-0.036971,-0.169209,-0.041447,0.083839,-0.177613,0.069466,-0.09171,-0.071827,-0.061655,-0.035795,-0.002866,0.02598,-0.075557,0.03332],[0.595536,-0.026279,-0.401005,-0.027879,0.442386,-0.505463,-5.4e-05,0.692761,0.24966,-0.039824,-0.184438,0.087252,-0.063466,-0.103792,-0.122684,0.090133,-0.009658,-0.012244,-0.718884,-0.025313,0.079989,-0.115878,0.141213,0.0015,-0.087219,-2.226962,-0.45073,-0.32996,-0.29317,-0.056136,0.161877,0.20089,-0.133787,-0.210129,-0.189896,-0.051094,0.35259],[-0.220519,-0.419597,0.554761,0.54127,0.299164,-0.233395,0.177347,0.172033,0.425894,0.617684,-0.735787,0.235433,0.176723,-0.099713,0.006513,-0.025336,-0.130213,0.053772,0.057029,0.017123,-0.059863,0.303996,0.206187,-0.060578,0.057947,-1.925219,-0.049898,0.00381,-0.19881,-0.34722,0.049659,0.188118,-0.365067,-0.194219,-0.222341,-0.037159,-0.134976],[0.382952,-0.291476,-0.175707,-0.71015,-0.207672,-0.280739,-0.044421,0.216865,0.260262,1.692331,-1.702895,0.061036,-0.032535,-0.014506,0.079205,-0.179974,-0.014831,-0.050374,-0.123877,-0.109956,0.032774,0.06977,0.038481,0.202246,0.062501,0.421071,0.566413,0.311691,-0.17485,-0.462885,-0.028437,0.146083,-0.523225,0.004265,-0.086045,0.000154,-0.068966],[0.677316,-0.329534,-0.685193,-0.008369,-0.245637,-0.508643,-0.146149,0.010623,-0.0156,0.025411,0.581917,-0.310841,-0.209295,-0.011106,-0.049888,-0.286407,0.000268,-0.380159,-1.277425,0.020591,0.010996,0.295107,-0.034245,-0.008196,-0.111043,-0.019097,0.617319,0.279037,-0.140759,-0.03574,-0.151966,-0.116349,-0.234378,-0.050156,0.218221,0.001644,0.465424],[-0.562029,0.304972,0.842485,-0.484084,0.085436,-0.15209,0.008183,0.271603,0.222644,-0.879945,0.411719,0.244996,0.141659,0.062279,-0.108008,-0.043422,-0.006267,-0.013541,0.329712,-0.13837,0.222788,-0.101118,0.080237,0.225478,-0.072836,0.563879,-0.196322,-0.004994,0.064547,0.194418,0.067282,-0.048989,0.049001,0.006596,-0.174361,0.058142,0.398242],[-0.083462,0.252338,-0.086401,0.160502,0.155375,-0.079194,0.118551,-0.069537,0.002119,0.430228,-0.384964,-0.01567,-0.1756,0.1271,0.123999,-0.121037,0.01401,-0.029487,-0.523612,-0.0887,0.211831,0.223569,0.131765,0.109698,0.03669,1.490723,0.374897,0.002687,-0.410187,0.129455,0.118351,-0.112179,0.088071,-0.094722,-0.149205,-0.384111,0.341654],[0.041248,-0.04702,-0.173225,-0.102177,-0.098084,0.051729,-0.035396,0.078311,0.000764,-0.170903,-0.004193,0.095146,0.030765,-0.121915,0.053987,-0.030143,-0.144798,-0.122222,0.01112,0.033773,-0.103758,-0.051499,-0.024227,-0.093527,-0.056963,-0.118607,0.110775,0.017604,-0.106317,0.075227,-0.005598,-0.025842,-0.088984,0.027386,-0.034986,0.026039,-0.089193],[-0.076389,0.007128,-0.138631,0.083523,0.067035,0.03966,-0.156079,0.15655,-0.124799,0.091644,-0.142188,-0.065747,0.024799,-0.00836,0.059406,-0.160592,-0.05808,0.037484,0.110333,0.128337,-0.050057,0.022614,-0.106745,-0.034147,-0.017213,-0.081968,-0.156622,0.136438,-0.017102,-0.059113,0.140765,-0.013272,-0.051618,0.05288,-0.011775,-0.020004,0.062936],[0.731728,-0.318475,-0.538826,0.720273,-0.467542,0.206283,0.255048,-0.018095,-0.492973,0.616857,-0.214129,0.074289,-0.140004,-0.136029,-0.023882,-0.126398,0.019801,-0.06968,-0.08576,-0.102075,0.083899,-0.247808,0.193065,0.22118,-0.079968,0.484778,0.070694,-0.026315,-0.286266,-0.442235,-0.12574,0.216306,-0.512058,0.059628,0.237686,0.21896,-0.276756],[-0.190306,1.538419,-0.073398,-2.090707,-0.032781,0.054454,-0.33226,-0.404371,0.235748,0.277711,-0.113287,-0.247865,-0.067569,-0.082915,0.071066,-0.116843,-0.079666,-0.234731,0.076649,0.065539,0.028091,0.208876,0.279954,0.296866,-0.044649,0.702744,0.143325,0.12433,0.177438,-0.002845,-0.076563,-0.171901,0.106613,-0.279488,-0.124962,0.228703,-0.035404],[-0.103977,0.089405,0.082322,0.066903,0.094915,0.057689,-0.157703,0.052608,-0.053652,0.149245,0.046947,-0.006474,0.029871,0.13427,0.096537,-0.156677,-0.143418,0.160696,-0.125016,-0.137613,0.08905,-0.060793,0.065404,0.004437,0.109785,0.12959,0.137493,-0.045751,-0.04369,-0.140069,-0.07345,-0.087205,0.055317,-0.00021,-0.102862,-0.100004,0.019872],[0.070795,0.113546,-0.097001,-0.133054,-0.105933,0.070678,-0.103946,-0.050197,-0.04481,0.117437,-0.160132,-0.108097,-0.021232,-0.102643,-0.103486,0.073296,-0.161848,-0.116849,-0.038223,-0.014868,0.03224,0.056162,-0.080706,-0.112465,-0.096144,-0.160918,-0.078855,-0.026249,0.13745,-0.016167,-0.084158,0.071055,-0.025453,-0.085668,-0.161272,-0.101494,0.105188],[-0.154972,0.150594,-0.009895,-0.00924,-0.064532,-0.150442,-0.126111,-0.014423,-0.045182,-0.013364,0.046617,0.130585,-0.134433,0.116494,-0.138369,-0.054642,-0.063182,-0.01703,-0.135355,-0.148305,0.154755,-0.152295,-0.124273,-0.154932,-0.12202,0.086436,0.109076,-0.132123,0.10559,-0.008509,0.117046,-0.159567,-0.116013,0.040553,-0.117905,-0.04335,-0.041954],[0.027223,-0.499036,-0.005446,-0.864679,0.105872,0.742878,-0.464455,-0.373094,0.470151,0.119352,-1.244152,-0.459799,-0.296144,0.045248,0.015264,-0.1069,-0.013008,-0.42825,0.535227,0.117797,-0.103894,-0.266837,-0.052406,-0.156224,-0.150924,2.438614,0.519849,0.356051,-0.053213,0.034203,-0.000335,-0.426738,-0.118314,-0.059013,-0.586781,0.362763,0.631438],[0.450305,-0.325477,0.302489,0.013707,0.14092,0.513397,-0.435535,-0.593865,0.815132,-0.925468,0.693561,-0.067245,0.151746,0.104434,-0.026624,0.145847,-0.003946,0.035326,0.401124,0.130652,-0.083189,-0.177656,-0.228043,0.057429,0.035345,0.201927,-0.425082,-0.385267,-0.24529,0.169747,-0.054987,0.129267,0.09566,0.103349,-0.066901,0.077949,0.140523],[-1.064956,0.228445,0.282374,0.375417,0.013388,0.096117,0.231596,0.232012,0.099796,0.055049,0.043144,0.091826,0.087116,-0.079278,0.102271,0.116347,-0.004971,-0.009623,-0.914451,-0.055195,-0.004461,0.092619,-0.024844,0.025375,0.22722,2.566962,-0.427227,-0.233553,0.426558,0.370049,0.036924,-0.024712,0.332133,-0.002086,0.05638,0.309706,0.203957],[0.245231,-0.322628,-0.697389,0.119427,0.44178,0.484922,-0.720555,0.219523,-0.262337,-0.645356,0.229119,-0.108669,0.073921,-0.008877,-0.080368,0.087462,-0.112937,0.127426,0.441683,-0.131345,0.017968,-0.122898,0.012454,0.059035,-0.134578,2.813716,0.106511,0.143809,0.171161,0.018857,0.098798,-0.126423,-0.159192,-0.370583,-0.023127,0.014033,-0.107599],[-0.074326,-0.061727,0.20145,0.105342,0.069269,0.323433,0.074422,0.10291,-0.11862,-0.409525,0.330861,-0.065836,0.068036,-0.047457,0.108688,0.153014,-0.007345,-0.102771,0.38003,-0.029805,0.037926,0.027815,0.066975,-0.005983,0.212309,-1.007876,-0.520433,-0.32494,0.233078,0.115515,0.080926,0.195381,0.160316,0.338814,-0.205102,0.216128,0.557422],[0.019694,-0.03506,-0.202755,-0.118403,0.607549,0.530754,0.086101,0.121263,0.310914,0.512271,-0.844064,0.035553,0.154052,0.035187,-0.084933,0.01703,0.007267,-0.005872,-0.643393,0.12477,-0.047292,0.116056,-0.110801,0.001075,0.186637,-3.167269,-0.214457,-0.145407,-0.03751,-0.223662,-0.09287,0.169464,-0.151689,0.207565,-0.064722,-0.231355,-0.298899],[-0.493425,0.489163,0.356353,-0.983638,0.704812,0.203779,0.131002,-0.262596,0.184922,-0.883869,0.292101,0.024453,0.032779,-0.060503,0.112717,0.030422,-0.236634,-0.119483,0.835154,-0.051148,-0.019205,0.098453,-0.364703,-0.119117,0.09678,0.943508,0.019328,-0.042671,0.039637,0.002614,0.093546,0.032905,0.152587,0.329597,-0.214846,0.001527,-0.286666],[0.050452,-0.715588,0.13082,0.289399,-0.196396,0.07503,0.555614,-0.044054,-1.180401,1.869908,-1.246268,0.019041,-0.076228,-0.159055,0.149293,0.005972,-0.066649,0.104176,0.146986,0.002935,-0.049877,-0.285987,0.186608,0.059582,0.047018,-1.043874,0.551969,0.210581,-0.31841,-0.406116,0.020509,0.060153,-0.571254,-0.34418,0.224916,-0.232958,-0.136763],[0.407116,-0.170606,0.598119,0.095097,0.078328,0.432335,0.275005,-0.18148,0.561184,0.593874,-1.668998,0.057837,-0.027126,-0.015156,0.064647,-0.000593,0.022608,0.115797,0.850893,-0.060548,0.06594,-0.370429,0.113639,-0.10753,0.037457,-2.74537,-0.377707,-0.217438,0.052157,-0.017102,0.08474,0.054573,0.054283,-0.180711,0.128848,-0.397027,0.042485],[0.394112,-0.166941,-0.137621,-0.018201,0.008111,0.066314,0.269763,-0.100006,-0.565117,0.028846,0.067863,0.00149,0.130973,-0.08963,-0.054166,0.065653,-0.020908,0.024978,0.112951,-0.04371,0.010322,-0.003165,0.076267,-0.088355,0.004444,-1.70011,0.163164,0.071677,0.042128,-0.16606,0.131529,-0.034565,-0.240784,-0.13443,0.023893,0.210253,-0.088357],[-0.419858,-0.200647,0.315212,-0.556581,1.015853,-0.152385,-0.034014,0.50474,0.091,0.286457,-0.248139,0.024844,0.032784,-0.129801,0.034596,0.063565,0.217204,0.165788,0.991436,-0.156728,-0.197716,-0.267988,-0.382727,-0.41517,0.180486,-1.449374,0.012974,-0.099117,-0.380137,0.141451,0.134758,0.158696,0.200297,-0.111056,0.002546,0.316312,0.072674],[-0.140105,-0.128995,-0.335295,-0.158819,0.362196,0.765864,0.20694,-0.534595,-0.67525,0.132422,0.501006,0.107871,-0.073766,0.073407,0.005409,0.073076,-0.00147,-0.002193,-0.286253,-0.069377,-0.061729,-0.028305,-0.203395,-0.200094,0.113164,0.068005,0.400107,0.189423,-0.505097,0.050194,0.017719,0.010638,0.05756,0.17928,0.254889,-0.041562,0.117599],[-0.364983,-1.02863,1.074557,-0.066559,0.120563,-0.195678,-0.319203,-0.156043,0.247458,0.804699,-0.546842,-0.15641,0.069582,-0.145644,-0.088612,0.111393,0.043716,0.01927,-0.223569,-0.019841,-0.064963,0.099334,0.13903,0.022275,0.015453,1.382559,0.219295,-0.0246,0.278328,-0.084683,-0.13963,-0.010357,-0.017651,0.056063,-0.068073,0.190383,0.16238],[-0.255484,-0.300441,0.337115,0.278134,-0.105959,0.010566,0.157576,0.03824,-0.213833,0.383348,-0.033549,-0.002748,0.114922,-0.009601,-0.101005,0.154432,-0.381099,0.043713,0.306121,-0.13938,0.037746,0.250009,-0.160292,0.018107,0.150987,0.162647,-0.045442,0.057193,-0.673504,0.151832,0.144676,0.073689,0.119406,-0.201387,0.194827,0.188676,0.114327],[0.662232,-0.224379,-0.119291,0.570923,-0.076257,0.696833,1.219939,-1.360793,0.301923,0.115493,-0.872465,0.009112,0.140836,0.147926,0.067942,-0.080234,0.15387,0.116944,-0.658032,0.126829,0.026379,0.121556,-0.071967,0.075695,0.047262,1.439637,-0.139952,-0.094734,-0.5984,0.133636,-0.008307,-0.037617,-0.095335,0.293896,-0.080866,0.001804,0.273769],[-0.650139,-0.120675,-1.035269,1.120072,0.169024,-0.163975,-0.044831,0.162217,0.206107,-0.453908,0.614985,0.202347,0.098742,0.135108,-0.076236,-0.032438,-0.00015,0.085147,-0.307725,-0.162864,0.077051,0.161367,-0.328951,0.056039,0.033016,-1.052337,0.333741,0.286299,0.124822,0.045022,-0.00617,0.270469,0.002696,-0.305337,0.065506,0.242732,-0.044436],[0.482732,0.067053,-0.003814,0.516616,0.020411,-0.859355,-0.392225,-0.426969,0.847242,0.101465,-0.58786,-0.1207,0.009551,-0.125969,0.095378,-0.02788,0.03479,0.034898,0.145554,-0.098316,0.038246,0.005904,-0.04093,0.003015,-0.044054,0.775279,0.317861,0.060788,0.235319,-0.186408,-0.004246,-0.051301,-0.330185,0.060305,-0.080214,-0.027432,-0.024139],[-0.486517,0.174146,-0.22746,-0.225249,-0.342146,-0.949429,0.072962,0.596112,1.353186,0.444774,-1.082413,0.104486,-0.059741,-0.027576,-0.110509,-0.073443,0.000723,0.035859,0.113199,-0.013005,0.160188,0.177262,0.328376,0.149694,-0.087278,-2.451545,0.165795,0.169172,-0.393127,-0.131259,-0.079109,0.010559,-0.272602,-0.004684,0.039115,-0.168151,0.672231],[-0.01206,0.450753,0.054325,-0.857945,0.12938,0.674308,0.018062,-0.323982,0.482335,0.127204,0.057395,-0.01695,-0.139578,0.050547,-0.061467,0.080924,-0.031798,0.01578,1.087427,0.032867,-0.032385,0.006108,-0.266318,0.094917,0.118564,2.866877,-0.278227,-0.16977,-0.341515,-0.042385,-0.061215,0.131927,0.11041,-0.145877,0.59477,-0.070836,0.15893],[-0.20017,0.036538,-0.150519,-0.134748,1.03364,0.144241,0.170977,-0.663195,0.264797,-0.807903,0.640996,0.002111,-0.140309,0.110064,0.135155,0.126409,-0.017964,0.066332,1.426467,0.02212,0.069253,-0.401477,-0.01817,-0.136354,-0.086279,0.604711,-0.096594,0.027444,-0.365814,0.269416,-0.161108,0.021737,0.076569,0.045903,-0.772787,0.011566,-0.676393],[-0.478074,0.60181,0.381777,-0.234479,0.348978,-0.018939,-0.332278,-0.922187,0.933841,0.251603,-0.042807,0.225828,-0.009405,0.144622,-0.151765,0.212727,0.024784,0.046808,0.098069,0.063843,-0.005398,0.031323,0.097739,0.016773,0.160487,0.135251,-0.255405,-0.016331,0.0014,0.082196,-0.055703,0.240362,-0.048473,0.127099,-0.017921,-0.145959,-0.101233],[0.110917,-0.937335,2.066395,-0.952769,0.133784,1.348559,-0.851835,-0.823207,0.119653,0.900652,-0.804306,0.204747,0.217462,0.06225,0.063095,0.164175,-0.268359,0.060947,0.00174,-0.128734,-0.032879,-0.487975,0.356993,-0.181667,0.189833,-0.162255,-0.172641,-0.00739,-0.239528,0.087914,0.00784,0.139802,0.06193,0.036271,-0.448081,0.048432,0.078497],[-0.146634,0.126181,0.110042,0.088255,-0.125372,0.001749,0.15437,0.037397,0.074506,-0.020112,-0.148114,0.007026,-0.054013,0.103479,-0.010801,-0.035796,-0.145127,-0.09125,0.034731,-0.030638,-0.137535,-0.006443,-0.008687,0.000668,-0.07633,0.044416,-0.101486,0.080245,-0.098805,-0.162274,0.032295,0.090979,-0.074135,-0.08368,-0.044144,-0.086631,0.02674],[-0.10582,-0.084984,-0.328729,0.25505,-0.015426,0.541864,-0.341021,0.35204,0.012833,-0.122412,-0.493565,0.022981,-0.122723,-0.121018,0.138248,-0.179242,-0.016629,0.047674,-0.556454,0.120793,0.030787,0.307017,0.253566,-0.018309,-0.170222,0.389631,0.484564,0.166201,-0.186191,0.003068,-0.063029,-0.020324,-0.084053,0.005239,-0.037755,-0.66693,0.267063],[-0.20031,-0.078078,0.393038,-0.025662,0.025316,-0.17375,0.223563,0.696902,-0.918755,-1.416519,1.213129,-0.141451,-0.005994,-0.128472,-0.012535,0.10078,0.101724,-0.004201,0.647453,0.064518,0.01908,0.175658,0.051568,-0.236319,0.053811,-0.401202,0.349398,0.06152,0.073631,-0.008518,-0.080247,-0.205332,0.154022,0.359727,0.136973,0.200445,-0.69048],[0.402594,0.463571,-0.595786,-0.02995,0.21176,0.02074,0.109008,0.410461,-0.176025,0.139141,-0.25374,-0.065977,0.124658,-0.095664,-0.000743,-0.026998,-0.012031,-0.022163,-1.229481,-0.103,0.044639,0.396227,0.299929,-0.054689,0.084191,-1.145931,0.019408,-0.079685,-0.133874,0.229263,-0.040742,0.006433,0.248392,-0.359682,0.016129,-0.13159,-0.247701],[-0.501306,0.594783,0.232733,0.014833,0.2896,0.123031,-0.136367,0.351274,0.658397,-0.329443,0.066223,0.267832,0.155536,-0.042509,-0.133878,0.276756,-0.007759,0.335808,-0.85839,0.001813,0.022734,-0.039618,-0.068858,-0.078112,0.234891,0.239203,-0.103613,-0.082909,0.020968,-0.13292,-0.107889,0.048774,-0.150049,0.040343,-0.169639,0.409894,0.109759],[-0.117032,-0.06914,-0.44384,0.39829,-1.099876,0.071669,0.407687,-1.225437,0.720101,0.627088,0.235705,-0.092168,0.084728,0.073181,0.007831,-0.0992,-0.232595,0.133326,0.494169,0.0969,-0.094678,0.046157,0.192869,-0.144038,0.222237,0.81371,-0.365809,-0.112536,0.193888,0.185914,-0.123599,0.093371,0.072223,0.189598,-0.219751,0.191179,0.338491],[0.574041,-0.111271,-0.073281,0.007502,-0.221936,-0.7112,0.593738,-1.023637,0.0403,-0.215168,0.221809,0.067608,-0.206721,0.063611,-0.087347,-0.242877,0.013757,0.04951,-0.431347,-0.058342,0.208412,-0.02237,0.206986,0.211079,-0.019981,2.778672,0.621479,0.241968,-0.149801,-0.380321,0.037696,-0.10533,-0.130871,-0.463919,-0.179251,-0.197649,0.23767],[0.87721,-0.074724,-0.255379,-0.188864,-0.274566,-0.475606,0.148352,0.070308,-0.210248,-0.352306,0.042557,0.075933,0.005083,-0.140512,-0.054837,-0.080995,0.004721,-0.07568,0.130722,-0.151374,-0.006633,0.199098,-0.307656,-0.103776,-0.210333,-0.099762,0.443818,0.059665,0.106074,-0.676584,-0.090099,0.050403,-0.716249,0.121496,0.252696,-0.083027,0.251173],[-0.09389,-0.137546,0.01827,-0.095831,-0.028966,0.009543,0.091428,-0.170764,0.144429,-0.142914,-0.134685,-0.130385,-0.080558,-0.159874,-0.131973,0.006878,0.015682,-0.042942,-0.054658,-0.08788,-0.075382,0.099448,-0.049929,-0.033508,0.021283,-0.066326,0.035123,-0.064578,-0.07227,-0.023683,-0.149536,0.125364,0.079435,-0.025976,-0.113336,0.017221,-0.160718],[-0.374168,0.344755,-0.519072,-0.769303,0.444371,0.243992,0.590714,-0.601309,-0.218696,0.269063,-0.090552,0.141877,-0.021479,0.088605,0.093399,0.064241,0.091342,0.066584,0.028517,0.144221,-0.074695,-0.008083,0.07257,0.123993,-0.020619,2.890977,0.19698,0.039712,-0.435777,0.115333,-0.103655,0.06318,0.120779,-0.041854,-0.343838,0.071174,-0.111491],[0.648151,-0.151078,-0.145936,0.301315,-0.502572,-0.200787,-0.074951,-0.171423,-0.356557,0.1758,-0.046864,0.118304,-0.211811,-0.12707,-0.088784,0.035443,-0.032437,0.013405,-0.530377,0.050582,0.053887,0.367865,0.083181,0.039183,-0.23336,0.134336,0.566674,0.166757,-0.163286,-0.172543,0.000544,0.07725,-0.440438,-0.194326,0.083823,0.044092,-0.217198],[-0.695095,0.327233,0.033669,-0.052376,0.658838,0.261947,-0.257213,-0.056466,0.07127,0.153701,0.048944,0.165511,0.243214,0.141877,0.004065,-0.001064,0.002794,-0.104366,0.134479,-0.040832,-0.116789,0.328848,-0.012654,0.037238,0.272822,2.012073,-0.45136,-0.106985,0.151084,0.348311,0.093569,-0.105185,0.260673,-0.348913,-0.103276,0.732141,0.082365],[-0.056689,-0.436451,0.16793,0.627778,0.160114,-0.204521,-0.217164,0.188961,0.012809,0.389927,-0.232862,0.114796,0.064902,-0.135225,0.022972,0.027869,-0.008345,-0.122846,-1.109061,-0.040591,-0.034017,0.362497,0.06632,-0.008587,-0.007656,1.696837,0.289176,0.267286,0.192827,0.058895,-0.005726,-0.12851,0.139644,-0.496343,0.179534,-0.034542,-0.757286],[-0.173084,-0.010968,-0.054857,-0.059491,-0.009164,-0.061947,0.097765,-0.042719,-0.107093,-0.094806,0.061875,-0.175034,0.059367,0.124184,0.146077,-0.102262,0.062334,-0.110788,0.09232,0.129053,-0.160373,-0.172858,0.052585,-0.126632,-0.091494,0.099937,0.133658,0.046596,0.085621,0.00125,0.077311,-0.031994,0.018697,0.084917,-0.017836,-0.091946,0.106756],[-0.051706,-0.087661,0.313299,0.437773,-0.325977,-0.348026,0.247152,0.286478,0.358252,0.093902,-0.16004,0.014405,-0.024395,0.114393,0.067773,0.031961,0.250548,-0.089615,0.12774,0.025582,-0.094294,0.077394,0.210316,-0.166727,0.20688,-2.244437,-0.49704,-0.036262,0.252754,0.295288,-0.09373,-0.043232,0.154608,-0.350674,0.175383,-0.290361,0.371112],[-0.019913,-0.225573,-0.663007,-0.28306,-0.762029,0.738628,0.822498,2.319857,0.63267,-1.530465,-0.93361,-0.066386,0.011986,-0.048847,0.143415,-0.024455,0.062931,-0.093538,0.802774,0.10755,-0.314005,0.51036,-0.40755,-0.151227,-0.159564,1.003432,-0.095597,-0.197708,0.077374,-0.253182,0.116547,0.136368,-0.142595,-0.235681,0.218195,-0.202777,0.238084],[-0.334194,-0.437102,0.837406,0.065966,-0.302318,0.019039,-0.680896,0.797761,0.10235,-0.648501,0.451851,0.068812,0.043346,-0.012184,-0.064339,0.046689,0.132163,0.050307,0.763099,0.075325,0.102252,-0.376111,0.222313,-0.223595,0.088019,-0.320326,0.14128,0.214862,-0.150451,-0.039287,0.069248,-0.010317,0.150024,-0.066448,-0.046053,0.034006,0.115784],[-0.009102,0.183683,-0.147409,0.303755,0.35495,0.220889,0.127008,0.078566,-0.636876,1.076599,-0.591981,-0.142954,-0.039322,-0.009556,-0.006834,-0.057783,-0.013598,-0.082257,-0.13437,-0.098641,0.169808,0.354844,-0.357692,0.024239,0.195255,-1.815095,0.128798,0.013209,-0.128166,0.193713,0.076967,-0.188442,0.429614,-0.000733,0.414888,0.474915,-0.570743],[-0.800025,0.401523,0.213684,-0.246638,-0.031715,0.1783,0.15999,-0.176431,-0.253918,-0.050872,-0.189972,0.024571,0.139644,-0.161481,-0.116706,0.026344,0.037853,0.029661,-0.088272,-0.147266,-0.099603,0.064567,0.03239,0.126204,-0.160674,0.876423,0.399998,0.312261,0.110753,-0.122071,0.038263,0.10009,-0.02763,0.060074,-0.052307,-0.189854,-0.105641],[-0.150612,-0.452851,0.181186,0.938226,0.092229,-0.053798,0.246657,-0.345585,-0.078238,0.217446,-0.214103,0.161385,0.069575,-0.077881,-0.087825,0.059017,-0.033175,-0.001406,-0.302967,-0.086211,0.094586,0.034786,0.096208,0.173123,0.088821,-0.398333,-0.509462,-0.205994,0.172971,0.175147,0.06594,0.235079,0.013713,0.469433,0.077563,0.27977,-0.438811],[0.883392,-0.085928,-0.169558,-0.169003,0.038472,-0.025098,-0.004519,-0.209179,-0.054778,0.149028,-0.244362,-0.047242,-0.163616,-0.097591,-0.01643,-0.174386,-0.001768,0.155436,-0.197226,0.145511,0.073401,0.031079,-0.108354,-0.043244,0.109505,-2.320694,0.245878,0.06307,-0.326184,-0.351448,-0.012873,-0.028191,-0.585339,0.116768,-0.012524,0.274533,0.021546],[-0.145429,-0.057355,-0.10315,0.103519,-0.108526,-0.090991,-0.079611,-0.119775,-0.059289,-0.052581,0.087146,0.013062,-0.040828,0.048288,0.107123,-0.032253,-0.132501,0.128815,0.106346,0.021132,0.083537,-0.099008,-0.015124,-0.060404,0.052858,-0.107534,-0.041553,-0.12969,-0.032766,-0.027863,0.101678,-0.149797,0.080571,-0.020491,-0.078112,-0.027732,0.11294],[0.030322,0.117531,-0.015218,0.073592,0.132106,-0.027473,-0.027083,-0.040793,0.104654,0.1442,-0.019942,-0.008828,-0.138846,-0.160727,-0.119741,-0.137159,0.065578,-0.129782,-0.152731,-0.075275,-0.059284,-0.104535,-0.099224,-0.052406,-0.116502,-0.143711,0.071193,-0.061843,-0.060943,-0.113862,0.05384,-0.06088,-0.019998,0.054892,-0.149311,0.017882,-0.143924],[0.727796,0.367847,0.297006,0.14684,-1.077391,0.287088,0.328119,-0.665441,1.119711,0.765129,-1.083292,-0.05244,-0.069177,0.060397,-0.134167,0.086968,-0.153858,0.103226,0.035753,-0.111716,0.046462,-0.230698,-0.365186,-0.065959,0.020267,-2.543396,-0.249875,-0.165096,-0.05784,-0.090709,0.06694,0.053223,0.082507,0.187686,0.214592,-0.419396,-0.217823],[0.545356,0.040069,0.011801,0.468609,0.186407,-0.180652,0.148179,-0.595045,-0.261368,0.158431,0.117996,0.081348,0.101321,-0.051736,-0.109288,0.006484,0.083566,0.029996,0.314268,0.042995,0.057144,-0.15309,-0.088874,-0.021844,-0.076616,0.206317,0.23424,-0.04418,0.043365,-0.15255,-0.055689,0.079761,-0.193113,-0.035725,-0.137301,0.043228,0.090932],[-0.48438,0.281768,-0.875516,1.150418,-0.929229,-0.027121,-0.216337,0.197398,-0.505533,0.925333,-0.088051,-0.227563,0.068068,-0.056513,-0.023712,-0.145773,-0.052539,-0.094098,0.144694,0.006235,0.147949,-0.287009,0.327198,0.274378,-0.16129,0.725744,0.426594,0.352014,-0.238188,0.153661,-0.156758,-0.286523,-0.023923,-0.0075,0.055218,0.298806,0.382203],[0.212639,0.204379,-0.721363,0.290541,-0.141656,0.376959,-0.029147,-0.148095,-0.031602,-0.455652,0.077124,-0.06545,0.092266,-0.077949,0.049633,0.077578,0.033657,0.026002,-0.18398,-0.09167,0.043691,0.231069,0.051624,0.016194,0.035563,1.731554,-0.044665,-0.069224,-0.254321,-0.09563,0.129745,0.043248,-0.04139,-0.257038,-0.33336,-0.107874,-0.102766],[1.057797,-0.436094,-0.428762,-0.480124,-0.261341,-0.192561,-0.164431,-0.286682,0.269239,-0.247003,-0.305268,-0.157697,-0.258066,-0.06635,-0.11136,-0.389221,0.002126,-0.329691,0.027325,-0.105834,-0.229716,-0.033788,0.056726,0.074066,-0.221736,0.008628,0.804647,0.328898,0.085587,-0.274753,0.150243,-0.41637,-0.191293,-0.027755,-0.017265,-0.615069,0.042169],[0.104251,0.090103,-0.036814,0.028041,0.063028,0.021034,-0.09015,-0.027419,-0.00677,0.045352,0.072275,0.030812,-0.139544,-0.116853,-0.053454,-0.117221,-0.067457,0.10501,-0.135774,0.06234,-0.060277,-0.120774,-0.076985,-0.131891,-0.135005,-0.125209,-0.090431,-0.038011,0.025087,-0.056381,0.112513,-0.091684,0.053315,-0.074874,-0.099803,0.067231,0.071597],[1.433509,0.002309,0.036034,-0.26965,-0.214802,-0.327314,-0.223861,-0.058678,0.003271,-0.587957,-0.583564,-0.227594,-0.119311,0.04237,0.014583,-0.190945,0.00222,-0.441717,0.150722,0.059071,-0.13155,0.001065,-0.00937,0.011738,-0.45065,-0.249499,0.653628,0.219878,-0.450757,-0.246812,0.051635,-0.443385,-0.091931,-0.020599,0.008645,0.017997,-0.032504],[-0.165865,-0.713745,1.333887,-0.22401,0.345622,0.23802,0.075117,-0.609346,0.030509,0.378534,-0.167385,0.1076,0.125888,-0.15673,0.025019,-0.103808,0.327749,0.041993,0.021496,0.155991,0.065865,0.205347,-0.346358,-0.146004,0.147592,-0.684976,-0.344264,0.010351,0.093157,0.038366,-0.161473,0.157448,0.061007,0.48251,-0.652489,0.110206,0.327663],[-0.098096,-0.071667,0.126455,0.094772,0.031723,0.048895,-0.000683,-0.044537,0.111109,-0.048993,-0.138972,0.161854,-0.137472,0.154048,0.099583,-0.15668,0.11546,-0.033096,-0.033833,0.011461,-0.04744,0.032529,-0.026276,0.060526,0.11929,0.102896,-0.031659,0.035877,-0.156742,-0.148754,0.091497,-0.046842,-0.066777,0.152862,0.000891,-0.028512,0.012477],[-0.136005,-0.085905,-0.206368,0.51127,-0.00293,-0.009066,-0.328708,0.08549,0.183505,0.480804,-0.337008,0.125553,-0.134567,0.008452,0.145223,0.05848,0.015424,0.119077,0.448985,0.102482,0.073342,0.221519,0.176012,0.03294,-0.142513,3.140474,-0.164373,-0.006124,-0.00822,-0.07673,-0.155019,-0.064842,-0.019839,-0.449675,-0.351411,0.379822,-0.334187],[-0.05613,0.507021,-0.256146,0.250346,0.685101,0.225107,0.153777,0.33871,-0.150979,0.326567,0.18569,0.042457,0.253843,0.000998,0.144364,0.252357,0.110768,0.203528,-0.641172,0.11388,-0.088008,-0.276499,-0.000658,-0.390656,0.257259,0.59319,-0.252466,-0.018606,-0.275015,0.227195,-0.129246,0.097382,0.477368,-0.532274,-0.17777,0.203773,0.305508],[0.164695,-0.089168,0.025933,0.135963,-0.43614,0.164243,0.078966,0.500082,-0.18941,0.118794,-0.128279,0.115983,-0.079171,-0.087478,-0.032049,-0.103349,-0.017478,-0.025823,0.246955,-0.058645,-0.04533,-0.07365,0.041061,0.002949,-0.132888,0.70125,0.471127,0.358354,0.327554,-0.295952,-0.059436,-0.036924,-0.25173,0.048754,-0.079817,0.078914,-0.050259],[0.332308,0.443995,-0.220799,-0.46674,0.686284,0.206633,-1.134758,0.846728,0.599924,-0.819766,0.510546,0.198238,0.198657,0.120029,-0.161625,0.006547,-0.082813,0.054104,0.1038,-0.157417,-0.098318,-0.399857,-0.061028,-0.266296,0.149799,4.847805,-0.158429,0.08002,-0.151679,-0.036277,-0.020635,0.190654,0.132052,0.201008,0.171342,0.013025,-0.400614],[-0.537293,-0.113145,1.276698,0.090464,0.133182,-0.320811,-0.194295,-0.545744,-0.220403,0.386859,0.456014,0.04298,0.013876,0.01484,-0.057366,0.11641,0.074084,0.123989,0.149747,-0.089301,-0.04839,-0.038773,0.033946,0.012313,0.121638,-0.500026,-0.394427,-0.121138,-0.220356,-0.063818,-0.147119,0.15655,-0.078563,0.020371,-0.004296,0.629056,-0.145542],[-1.459123,-0.357845,-0.080685,0.213369,0.603576,0.385035,-0.110865,-0.193714,-0.15652,-0.195873,0.284104,-0.441532,-0.001129,0.029996,-0.099381,0.116009,0.02418,-0.182742,0.36343,0.113841,0.205618,-0.000645,-0.062911,-0.041036,0.11285,0.543741,-0.176876,-0.141127,0.597131,0.296273,-0.024453,-0.305212,0.159852,-0.004803,-0.140775,-0.017322,-0.081576],[0.527073,0.164572,-0.573503,-0.215605,0.729502,-0.13108,0.934682,-0.461795,-0.174631,-0.004646,-0.214179,0.065391,0.15573,-0.024001,0.137184,0.015544,-0.008074,0.070179,-0.829808,-0.099079,0.029408,0.00153,-0.177796,0.137547,-0.106492,-0.747043,0.260334,0.103875,-0.063985,-0.062068,0.051033,-0.057103,-0.06339,-0.292782,0.223944,0.204829,-0.731437],[-0.325817,0.01087,0.451488,-0.28863,0.242251,-0.091792,-0.213072,0.05691,0.318391,-0.823106,0.113916,-0.159401,0.028964,0.055975,-0.025427,0.012518,0.023574,-0.034822,0.784874,0.085929,0.075689,0.063268,-0.3999,-0.151256,-0.175418,-0.375035,0.381028,0.318533,-0.021312,0.096194,0.13006,0.040025,0.115648,-0.045212,-0.283293,-0.402709,0.4139],[0.040432,-1.051115,-0.704435,0.72074,0.751976,0.158429,0.26259,0.176381,-0.445969,-1.019222,-0.285289,-0.147123,-0.229722,0.139507,-0.017595,-0.192351,-0.002284,-0.259836,1.19328,-0.162675,0.007592,0.285619,-0.01806,-0.0762,-0.082426,-1.067211,0.23666,0.209332,-0.13274,-0.226179,0.006919,-0.162411,-0.018287,-0.164954,-0.177594,0.648599,-0.592147],[0.229546,0.203619,-0.163898,0.408343,-0.521177,-0.844517,0.091807,-0.336118,0.239438,-0.432634,-0.197672,-0.099516,-0.058842,-0.011323,-0.019154,-0.02065,-0.037454,-0.09688,1.302352,-0.015594,0.089464,0.208767,0.050893,-0.131868,-0.118288,-0.921143,-0.268964,-0.244852,-0.245275,-0.21877,0.044388,-0.103827,-0.188577,0.184814,-0.029269,0.232859,0.418343],[1.462133,-0.452814,-0.332217,-0.235259,-0.152776,0.193497,0.035809,-0.619689,-0.633121,0.145679,0.345887,-0.287059,-0.169063,-0.078585,0.022789,-0.207503,-0.007619,-0.158227,0.049493,0.062475,-0.148913,-0.005815,0.035448,0.03785,-0.169115,-0.959977,0.099602,0.105931,-0.042804,-0.206207,0.104057,-0.111691,-0.073487,-0.073191,0.092987,0.04452,0.026094],[0.354707,-0.649296,-0.227526,0.554085,0.246772,-0.542074,0.095555,-0.698323,0.524717,0.367859,0.029337,0.14909,0.00514,0.125883,0.120622,-0.012008,-0.036701,0.173178,-1.168203,-0.060039,-0.072103,0.270601,0.110958,-0.027988,-0.129642,-3.108919,0.423788,0.286041,-0.33863,-0.073734,-0.089838,0.125928,-0.313383,-2.8e-05,-0.078643,-0.243714,-0.251488],[-0.342612,0.098873,0.192082,-0.775149,0.293528,0.827428,-0.352522,-0.224404,-0.62076,-0.646529,0.995375,0.19372,-0.051359,0.059106,-0.019632,0.159839,-0.341088,0.051967,-0.024575,0.155516,0.098021,0.004383,0.018696,0.100457,0.035982,-2.948071,0.082139,0.103113,-0.156017,0.141393,-0.086642,-0.063137,-0.073237,0.008071,0.116399,-0.027675,0.184525],[-0.729604,-0.388161,0.648743,0.515673,-0.257588,-0.738074,0.218965,-0.577244,0.497315,1.157502,-0.329945,0.183877,0.129858,0.110525,0.023275,-0.049612,0.018625,0.198599,-0.251158,-0.105989,0.064007,0.009641,0.005779,0.052732,0.134161,0.030082,-0.061559,0.036087,-0.109552,-0.194062,-0.002398,0.289849,-0.144371,0.017277,-0.057346,0.492867,-0.341385],[0.124368,-0.177658,-0.085048,-0.021769,-0.116785,-0.045788,-0.144667,-0.033743,0.01926,-0.101278,-0.138062,0.053959,-0.031651,0.096022,-0.11416,-0.145036,0.05798,-0.141944,0.039869,-0.06339,-0.050201,-0.099103,-0.071119,-0.033643,-0.046806,0.069421,-0.004162,-0.120127,-0.19032,0.10275,-0.152211,0.045083,0.034571,-0.141141,-0.138907,0.099176,0.041419],[0.510576,0.249765,-0.165428,-0.337573,0.549307,0.224281,-0.296181,0.471194,0.82856,-1.583133,-0.010369,-0.14821,-0.013846,-0.159889,-0.140047,-0.080675,-0.04065,0.02069,-0.180359,0.089921,0.013711,0.099927,0.1802,-0.071809,0.065417,2.162554,-0.191653,0.032257,-0.211677,0.125337,-0.060331,0.153964,-0.045202,-0.235387,0.487543,-0.023401,-0.155798],[-0.442926,0.140709,0.973805,0.335091,0.100592,0.285303,-0.059718,0.074409,0.348988,-0.397271,0.074305,0.309903,0.145906,0.086358,-0.009726,0.241046,0.00513,0.170317,0.3114,-0.036841,-0.110139,-0.141698,-0.102437,0.013003,-0.035416,-0.214533,-0.357338,-0.169743,0.121352,-0.005324,0.130347,0.224553,0.040081,-0.383578,0.284341,0.088127,-0.165089],[0.737918,-0.955395,-0.1226,0.611363,0.821391,0.201912,0.975577,-0.26067,0.276148,-1.348433,0.35716,0.113068,0.00173,0.099289,0.154954,0.098863,-0.048423,0.167373,-0.585776,0.061054,0.10206,0.169599,-0.010374,0.017216,-0.003397,2.094724,-0.198943,-0.150884,-1.195923,0.037564,0.131596,-0.084857,0.035129,-0.013229,-0.522624,0.107752,0.041521],[-0.232038,0.235078,0.272738,-0.013979,0.242172,0.299111,-0.203592,0.074031,0.043478,-0.128733,0.474477,0.165808,0.059379,-0.120558,-0.12284,0.073916,0.00678,-0.001035,0.31437,-0.160493,0.183474,-0.040264,0.040241,0.031744,0.056503,-0.33401,-0.47491,-0.345825,0.113419,0.26416,0.026145,-0.025643,0.134833,0.30511,-0.048051,0.050083,0.218006],[0.597449,-0.432832,-0.39993,0.000661,-0.065982,0.362246,-0.18551,-0.445196,-0.00618,-0.343925,0.359476,-0.048632,0.025474,0.082059,-0.005306,0.079605,0.014762,-0.174849,0.33344,-0.072371,-0.01358,0.276407,-0.246568,0.073296,-0.036256,-0.94805,-0.196355,-0.234999,0.219657,0.041156,-0.08702,0.034331,-0.12939,-0.315583,0.468127,-0.329858,0.109472],[-0.440072,-0.035012,-0.228312,-0.08049,0.113571,0.526319,0.359355,-0.290173,-0.114777,0.272029,-0.063463,0.054215,-0.073976,0.011373,0.117361,0.020944,0.034277,0.075454,0.62342,-0.041618,0.05516,0.132346,-0.019947,0.058764,0.227183,-1.454475,-0.091724,-0.099857,-0.003891,-0.150228,0.112141,0.160451,-0.259975,0.092128,0.062183,-0.103392,-0.072808],[0.056076,-0.066369,0.016108,0.015325,-0.04473,-0.120367,-0.10385,0.004936,-0.088019,0.007407,-0.002224,0.051606,0.11112,0.040666,-0.021996,-0.006032,0.013866,-0.124326,-0.05214,-0.07501,-0.050787,0.150896,-0.03168,-0.045877,0.017029,0.062937,-0.110811,-0.076856,0.027277,-0.047657,-0.026104,-0.154306,-0.148794,0.021956,-0.034172,-0.142603,0.057447],[0.500356,0.254435,0.000631,-0.387352,0.209282,0.101815,-0.268657,0.212931,-0.077992,-0.048116,-0.166969,0.126242,-0.108874,-0.151836,0.031083,0.119551,-0.031042,-0.096354,0.127706,0.082573,-0.10112,0.027895,-0.023237,-0.058342,-0.184773,1.412314,-0.005931,0.121206,-0.15449,-0.04517,-0.128892,-0.035977,-0.144536,0.111261,-0.27071,-0.065315,-0.328989],[-0.451319,-0.434888,-0.041879,0.847782,-0.163909,0.73905,0.045712,0.419583,-0.664346,-0.562458,0.296415,0.171884,0.203564,0.151579,-0.112918,0.105834,0.276401,-0.072018,0.290398,-0.075345,0.051503,-0.023794,-0.12618,-0.091046,0.081819,-1.847516,0.053734,0.145915,-0.504444,-0.155052,-0.115664,-0.085758,0.082284,-0.14804,0.231367,0.154856,0.002059],[-0.347055,0.674604,0.334783,-0.182343,0.206737,-0.056802,-0.260043,-0.277773,0.422906,0.406345,-0.0369,0.030848,-0.006982,-0.071251,-0.115719,0.282285,0.024713,0.300587,-0.275678,-0.036489,0.177905,0.081895,-0.003004,-0.049436,-0.002136,0.190538,-0.439807,-0.106125,-0.239748,0.135414,-0.111889,0.299443,0.242562,-0.080666,0.030807,-0.073864,-0.086058],[0.096275,-0.214875,-0.1444,-0.196842,1.255124,-0.319962,-0.65251,-0.872217,-0.055,1.124044,-0.1676,-0.82313,-0.117445,0.004926,0.097463,-0.08023,0.109605,-0.766603,0.051976,-0.069859,-0.003916,0.019239,0.137524,-0.344763,0.077731,4.901391,-0.155153,0.028911,0.518825,0.157874,0.045121,-0.864321,0.181173,0.101099,-0.298136,-0.405931,0.649624],[0.320071,-0.015013,-0.302688,0.416893,-0.268317,-0.233552,0.111264,0.202484,0.268086,1.044587,-0.879005,-0.184026,-0.060244,-0.117125,0.137868,0.041966,0.058709,-0.094835,-0.43834,-0.151088,0.189186,-0.02388,-0.551286,0.105117,0.041704,-2.997468,0.130092,0.158688,-0.182092,0.054656,0.137737,-0.126519,0.032567,-0.541603,-0.386981,0.132472,0.559308],[-0.564574,0.199284,0.351842,-0.181489,-0.040012,0.634737,-0.263668,-0.14759,0.286969,-0.992409,0.554858,-0.751722,0.034661,0.071009,-0.015316,0.151478,0.013961,-0.715096,1.124056,-0.07323,0.068794,-0.231169,-0.083419,-0.049066,-0.098424,0.285326,-0.355013,-0.235363,0.33525,0.197272,-0.09216,-0.730434,0.066857,-0.575138,-0.279496,0.070293,0.27806],[-0.397788,0.418773,0.04238,0.049103,0.231579,0.382081,0.139719,0.095679,-0.24288,0.828179,-0.147499,0.20261,0.345019,-0.099152,0.04511,0.27968,-0.025332,0.226734,-0.159207,0.00729,0.069382,0.094125,-0.03965,-0.048804,0.214744,1.198813,-0.486959,-0.342007,-0.112048,0.171831,0.162738,0.137839,0.047279,-0.006628,0.206139,0.000709,0.17538],[-0.014551,0.239883,-0.353297,-0.086493,0.217457,0.300759,-0.362526,0.019092,0.252675,-0.172471,0.299195,-0.536312,-0.0603,0.012913,-0.152855,0.143519,-0.139931,-0.676087,-0.123618,0.098952,-0.004418,-0.381564,-0.217971,0.247779,-0.009109,0.025971,-0.156102,0.109394,0.246421,0.175412,0.021652,-0.583147,0.040631,0.562093,0.197473,0.087217,0.395559],[-0.110758,0.147416,-0.073502,-0.129064,-0.150811,0.131849,-0.075769,-0.162355,-0.11876,-0.015782,-0.102183,0.062464,0.051325,-0.047544,-0.008868,-0.084176,-0.015161,-0.146817,-0.05242,-0.046003,-0.097214,0.011111,0.062849,-0.037424,0.14808,0.098849,-0.058498,-0.033491,0.075922,0.050088,-0.085957,-0.141734,-0.072378,0.054686,-0.056244,-0.090281,0.047923],[-0.040149,-0.266787,-1.116704,0.285718,1.084485,0.576471,-0.165957,0.203161,-1.116723,0.829918,0.177095,-0.003193,0.036414,-0.030139,-0.156386,0.107009,0.005839,0.096387,0.571078,-0.0463,-0.144746,0.603942,-0.58232,-0.176519,0.049428,0.893395,-0.160547,-0.103673,-0.839163,-0.158521,-0.124012,0.29865,-0.087994,0.382802,0.483688,-0.456689,0.735945],[0.333821,-0.211328,0.26285,-0.07294,-0.043091,-0.262197,-0.139203,-0.675551,0.663355,-1.230333,0.897451,0.046494,0.088073,0.030376,0.027174,0.065762,0.097341,0.025087,-0.698712,0.151683,0.085581,-0.090389,-0.011304,-0.000846,-0.139298,0.311394,0.264133,-0.066162,0.280946,0.104039,0.000424,0.005219,-0.104364,0.036999,0.05007,0.036801,-0.060332],[0.00129,-0.080043,-0.048397,0.069949,0.066015,-0.058969,-0.150429,-0.009081,-0.15311,0.066086,-0.042131,0.044697,-0.134323,0.080191,0.095193,-0.068981,0.007553,-0.056921,-0.163217,-0.135103,-0.155368,-0.008267,0.055445,-0.097999,-0.030744,0.063733,-0.118717,-8.7e-05,0.06046,0.124356,0.102644,0.011468,0.072885,0.055347,-0.158051,0.043282,-0.079248],[-0.106208,-0.153476,0.136547,0.050018,-0.000251,-0.021736,0.009337,-0.066555,-0.038254,0.093544,-0.090479,0.113433,0.096218,0.02839,-0.126271,-0.090699,0.11082,-0.160351,-0.137337,0.019294,-0.004744,-0.10123,0.150254,-0.037573,-0.142291,0.031456,-0.094818,0.016404,-0.063475,-0.113097,-0.06533,0.045796,0.143235,-0.058334,0.119491,-0.107441,0.107131],[0.043582,0.503397,-0.238288,0.122719,-0.186376,-0.10227,-0.099646,-0.222961,0.306408,-0.066272,0.215082,0.073887,0.107691,0.10741,0.077275,0.194504,0.090589,0.173116,-0.203672,-0.083353,-0.213206,-0.034636,0.027899,-0.163376,0.141918,-1.710385,-0.526305,-0.149657,-0.051246,0.281153,0.039263,0.067632,0.27138,-0.009712,0.127276,-0.046355,0.102238],[-0.046814,-0.170819,0.044879,0.07711,-0.035953,0.090031,-0.076375,-0.07619,-0.082396,0.141915,0.017952,0.123342,0.129555,0.101035,0.089536,0.137457,-0.085991,-0.108824,-0.040558,-0.021526,0.018138,-0.101037,0.013911,-0.145855,-0.163672,0.132297,-0.081903,-0.078571,-0.157681,-0.120916,-0.104907,-0.13695,0.087898,0.117661,-0.072614,-0.156359,-0.00697],[0.151226,0.288646,-0.262117,0.124029,0.037793,0.022837,0.076448,0.041974,0.496183,-0.536207,0.788631,0.118553,0.025029,0.093306,-0.084835,0.102183,0.043585,-0.000212,-1.13912,-0.004298,0.137106,-0.313243,-0.075883,0.119499,0.083467,0.865445,0.433854,0.10547,-0.024995,0.018173,0.029007,-0.085828,-0.116836,-0.515903,-0.273687,-0.79356,0.051527],[-0.60015,-0.049002,-0.06975,0.115528,-0.058606,0.011073,0.391192,-0.264169,0.434219,-1.332383,0.944913,0.121929,-0.003226,0.098713,-0.018987,0.100569,0.04655,0.17701,0.048617,-0.015613,-0.029333,-0.523699,-0.061894,0.190585,0.134965,-0.222534,0.377341,0.197675,-0.269502,-0.315635,-0.046389,0.153493,-0.078888,0.306708,0.044417,-0.346473,0.12917],[-0.249307,-0.077404,0.047575,-0.071376,0.405342,-0.04952,0.543291,0.274697,0.00856,-0.155451,0.265089,0.052567,0.021476,-0.123804,-0.039535,-0.008135,0.107498,0.233349,0.03483,-0.120384,0.155269,0.370438,0.197395,0.013376,0.057721,-0.438514,-0.259982,-0.147806,0.084853,-0.304995,-0.017958,0.004274,-0.350552,0.071469,0.209901,0.028225,-0.20976],[0.248323,-0.092156,0.121083,-0.167372,-0.131526,0.164232,0.080881,0.053582,0.049234,0.074602,-0.407505,-0.123364,-0.173706,-0.076874,0.160383,-0.202227,0.015859,-0.116562,-0.069368,-0.138305,0.112455,0.06213,0.135482,0.118585,-0.038398,1.127631,0.310468,0.201324,0.015396,-0.034788,-0.083089,0.11487,0.071851,-0.120387,0.00075,-0.02372,-0.284554],[0.372194,-0.266771,-0.200807,0.021494,0.578751,0.800021,-0.308332,-0.022443,-0.160991,0.028873,-0.004943,-0.006067,0.028942,0.018769,0.048232,0.002775,-0.129898,0.009095,-0.237488,0.060615,-0.134791,-0.132094,-0.114884,-0.108113,0.074588,-0.117915,0.223283,0.051648,0.064465,0.016127,0.05605,-0.073517,0.064206,0.092164,-0.904564,0.038821,-1.032653],[-0.629879,0.262155,-0.194494,0.556575,0.01417,0.260214,0.13921,0.078161,-0.02202,0.101399,-0.027615,0.153488,0.202193,-0.084463,-0.083435,0.09533,-0.004159,0.356534,-0.098516,0.065671,-0.125991,0.009783,-0.018546,-0.016536,0.231487,0.42551,-0.195429,0.071539,-0.191579,-0.050761,0.107009,0.228729,-0.162736,-0.005972,0.000577,0.549946,-0.146806],[-0.470978,0.01567,0.425786,0.064888,-0.234037,-0.672871,-0.018823,-0.868539,1.105426,0.686091,-0.587841,-0.030953,-0.089855,-0.062306,-0.051524,0.128893,0.020331,-0.019057,0.234075,-0.013585,-0.032487,-0.16254,-0.029842,-0.080882,0.145989,-1.549458,0.096261,0.185155,-0.020086,-0.034031,0.108311,-0.047422,0.016441,0.298816,0.01428,0.067993,0.193939],[-0.448806,0.340812,-0.425291,0.785545,-0.331111,0.359106,-0.230755,0.068365,0.355343,0.09003,-0.166587,0.209784,0.223766,-0.16246,-0.115499,0.211647,-0.086473,0.236363,0.322522,-0.054088,0.050299,-0.014408,0.045045,-0.052062,0.143399,0.104245,-0.211734,-0.121314,-0.156869,-0.135231,-0.12541,0.121522,-0.079328,0.106568,-0.449419,-0.026248,0.093362],[-0.403657,0.564731,-0.512491,-0.197408,-0.141068,0.142145,-0.757355,1.398871,-0.340636,-0.811755,0.627917,-0.16771,0.16001,-0.122683,-0.068973,0.097954,0.038541,0.127226,1.00901,0.062748,-0.005299,-0.257945,0.284142,-0.056748,0.081394,-1.820031,-0.214951,-0.123682,-0.117117,-0.088754,-0.14082,0.092257,0.061068,0.071494,0.221027,0.139962,0.368835],[-0.47461,0.283627,-0.530283,-0.95707,0.158751,-0.306388,0.051623,-0.218041,1.23268,0.204712,0.028937,-0.026772,-0.212081,0.157191,-0.116423,0.069552,-0.066343,0.036842,0.256437,0.069389,0.0008,-0.241359,-0.260789,-0.007161,0.181681,-0.686859,0.621053,0.231584,-0.288464,-0.020222,-0.074677,-0.054532,-0.171273,-0.111976,0.111663,-0.423408,0.342951],[0.449997,0.073173,0.085509,-0.146128,-0.286091,0.200613,-0.045785,-0.076222,0.066474,-0.178211,-0.180422,0.097365,0.150274,0.050013,-0.150745,0.00633,-0.032543,0.147536,0.025881,0.014939,-0.118968,0.053046,0.116247,-0.087461,0.027437,0.188902,-0.013503,-0.003186,-0.179499,0.035842,-0.130293,-0.047356,-0.15261,-0.106572,-0.014746,0.096027,-0.086117],[-0.89559,0.400079,0.163154,-0.00205,0.11696,-0.337595,-0.162813,-0.15462,-0.174911,0.021544,0.263071,-0.099339,0.059194,0.149302,0.096789,-0.016175,-0.018397,0.151317,0.400815,-0.015594,-0.092577,-0.091085,-0.012137,0.011111,0.063352,0.560643,0.340977,0.324393,-0.162123,0.155247,-0.018886,0.045945,-0.125691,-0.077149,-0.010156,-0.145626,0.023181],[0.236883,0.176485,-0.691278,0.125743,0.068414,1.179886,0.123165,0.042463,0.301706,-0.576108,0.455483,-0.013174,0.103951,0.031417,0.15165,0.024908,-0.1616,-0.028618,-0.067191,0.067504,0.092891,-0.238606,0.07031,-0.212908,0.214206,0.952849,-0.081397,0.148043,-0.090874,0.051468,-0.146116,-0.128883,0.051824,0.17881,-0.383724,0.799998,-1.836129],[-0.307992,-0.491581,-0.025878,0.056757,0.173227,0.239683,0.897711,0.129695,-0.714482,-0.331875,0.639874,0.128625,0.042589,-0.025977,0.047297,0.099861,-0.102557,0.127416,0.149686,0.032625,0.032563,-0.037483,-0.103578,0.023963,0.055877,-0.050028,0.14994,0.02353,-1.022776,0.170428,0.068349,0.019574,0.183401,0.00805,0.014369,0.09031,-0.013006],[-0.749075,0.083018,-0.00932,-0.331269,0.174395,0.497473,-0.139959,0.137562,0.150467,0.321593,-0.616102,0.050562,0.082776,-0.051374,0.000894,0.021629,-0.023373,0.206346,0.361288,0.034954,-0.135474,0.339816,-0.004857,0.016692,-0.104477,0.053026,-0.358306,-0.178868,-0.08842,-0.048563,-0.089689,0.110052,-0.070043,0.006352,-0.004898,0.874387,0.363871],[-0.298641,-0.123372,-0.013661,0.809155,-0.248436,-0.560006,-0.00123,-0.147913,-0.496245,-0.140657,0.865185,0.073505,-0.122885,-0.098912,0.1421,0.168572,0.011591,-0.089914,-1.239878,0.093407,-0.115563,0.130712,-0.005347,0.036908,0.008865,-2.044225,-0.032404,0.112391,0.082341,-0.154398,-0.148144,0.1471,-0.241294,-0.009637,-0.043299,-0.013314,-0.209871],[-1.22201,0.328584,0.332413,0.188965,-0.014311,0.108125,0.152995,0.333707,0.140694,0.079204,-0.024388,0.267316,0.42146,0.162539,0.008511,0.150483,-0.015076,0.163695,0.020119,0.159929,0.150998,0.009383,-0.037469,0.006326,0.291295,0.377199,-0.239652,-0.330884,0.120992,-0.196895,-0.046109,0.129896,-0.245826,0.017405,-0.053892,-0.061698,-0.14004],[0.421436,0.618899,-0.268387,-0.089062,-0.015608,-0.043529,-0.059855,0.225798,-0.042726,-0.43552,-0.00792,-0.019476,0.020451,0.100204,0.024947,-0.06556,-0.002817,0.035319,0.095476,0.045333,0.065935,0.014126,-0.146309,0.245863,-0.061373,-3.164039,0.007862,0.122988,-0.091866,-0.129956,0.039735,-0.112806,-0.206852,0.031857,-0.097734,0.000317,-0.044618],[0.932783,-0.157258,0.245976,-0.201167,0.122013,0.536081,-0.548726,-0.700484,1.079322,0.533756,-2.013081,-0.246203,-0.267171,-0.02078,-0.160745,-0.261334,-0.019938,0.054256,0.22454,-0.122828,-0.095952,-0.336222,-0.293986,-0.07644,-0.219597,-0.110056,0.027116,-0.167733,0.696433,-0.323172,-0.116136,0.032857,-0.347672,0.151426,0.216165,0.001412,0.453789],[0.358798,-0.410613,0.683109,-0.089963,-0.05797,-1.130219,0.473227,-1.22175,0.745933,1.455863,-1.907085,0.045726,-0.032744,0.068692,0.003431,-0.082572,0.106804,-0.18252,0.219115,0.111003,-0.010234,0.125852,0.022652,0.2029,-0.13994,1.541776,0.016558,0.037918,-0.186507,-0.208096,-0.094787,0.087966,-0.106293,0.222192,-0.257463,0.239992,-0.395815],[-0.192338,0.190377,0.35829,-0.375841,-0.202614,-0.535318,0.160722,0.21578,-0.14423,0.764995,0.106548,-0.002668,-0.092053,0.044236,0.033428,-0.091713,0.044362,0.211935,0.031551,0.149401,-0.20934,0.246979,-0.044446,-0.170615,0.128392,-0.14836,-0.069013,-0.032459,0.045686,-0.099754,-0.046245,0.1772,-0.395896,0.201734,-0.041478,0.30139,-0.835473],[0.417349,-0.135869,0.04126,-0.098576,-0.363961,0.281935,-0.265363,-0.374021,0.15433,0.495187,-0.205387,-0.015206,0.142753,0.006048,-0.10971,-0.061972,0.047369,-0.11725,0.05457,-0.108023,0.050705,-0.010882,0.050666,-0.008406,0.05253,1.321169,0.117069,-0.011113,0.213345,0.028154,-0.125255,0.134102,-0.172477,-0.190649,-0.200089,0.15178,-0.209642],[-0.330173,-0.14658,0.161871,0.533236,-0.281815,-0.43613,0.247807,-0.99368,0.270659,1.137254,-0.266766,0.154136,-0.018442,-0.011249,0.110937,-0.098429,-0.02359,-0.047842,0.6463,-0.138412,0.067235,-0.026856,-0.223575,0.146846,0.111654,-1.156316,-0.032123,-0.044821,-0.1067,0.067748,-0.007991,0.069924,-0.071594,0.006356,-0.088517,0.01062,-0.284338],[-0.039488,0.12574,0.096167,-0.054778,0.058365,-0.008166,0.003524,0.133598,-0.035555,0.133755,0.129851,0.089933,-0.114041,0.091709,0.078927,-0.164454,-0.155668,-0.089758,0.094849,-0.067,-0.185201,0.070783,-0.005522,0.039864,-0.058405,0.091028,-0.081883,0.006487,-0.126014,-0.011113,0.008631,0.003506,0.056371,0.124396,0.02318,0.059554,-0.00897],[-0.245948,1.422509,-2.182717,0.0776,0.972514,-0.478582,0.930503,-0.98446,1.864229,-1.088295,-1.061643,0.085633,-0.091444,0.131521,0.07565,0.129593,-0.14953,0.037243,0.4941,0.11627,0.200168,-0.037518,-0.073871,-0.070449,-0.117389,-0.100454,-0.039317,-0.117632,0.067755,0.082804,0.095755,0.011121,0.096076,-0.003027,0.145312,0.209599,0.171997],[-0.023583,-0.328746,0.388536,0.920324,-0.106089,0.127644,-0.128667,0.124255,0.357389,-0.453225,0.473857,0.009791,0.126568,0.088168,0.089769,0.219551,-0.04492,0.154957,-0.440967,0.110577,0.102619,0.005228,-0.161242,-0.045016,0.034863,-0.73696,-0.220235,-0.254447,-0.267626,-0.262627,-0.002979,0.225423,-0.123585,0.100819,-0.055732,0.01385,-0.243151],[-0.424248,-0.09191,0.221232,0.897092,0.061107,-0.606025,0.3739,-0.212635,-0.119922,-0.592056,0.17732,-0.060283,0.001985,-0.090992,0.068533,-0.051239,0.331439,-0.026505,0.500457,-0.123524,0.119108,-0.118001,0.11328,-0.017178,0.042715,-1.997355,0.050492,0.027433,-0.361805,-0.01012,0.151211,-0.080235,0.051367,-0.105068,0.282044,0.090825,-0.030393],[0.222866,0.431812,0.209386,-0.073216,-0.167231,-0.402613,-0.490301,0.353507,0.599652,1.043504,-1.510298,-0.086395,-0.071935,0.142044,0.023026,-0.077243,0.034431,-0.014681,-0.836096,0.027646,-0.024661,0.099332,0.404792,-0.054296,-0.032054,-1.007458,0.237247,0.235478,-0.345096,0.001586,-0.109943,-0.152157,-0.025539,0.174534,0.045471,0.019367,0.569515],[0.011121,0.061453,-0.053434,-0.14442,0.016225,0.040698,-0.067144,-0.086088,0.147424,-0.094408,-0.019344,-0.099068,-0.128485,-0.080887,0.075955,-0.160331,0.117467,0.135651,0.117403,-0.161425,0.104061,-0.04568,0.063135,-0.123178,-0.029551,-0.079215,-0.055528,0.038939,-0.126105,0.077918,0.080199,-0.110314,-0.13052,-0.003606,0.024939,-0.069048,0.012499],[-0.415622,0.347333,-0.005842,0.387236,-0.554172,0.478555,-0.087001,0.323819,0.180943,-0.361335,0.472056,-0.019479,0.194569,-0.157715,-0.107442,0.114054,-0.14205,-0.006674,0.507517,0.114204,0.121065,-0.102563,0.01557,-0.2194,0.165904,-0.131126,-0.119557,-0.023301,-0.089794,0.008243,-0.162648,0.040398,0.143828,0.066949,-0.147669,0.156584,0.125204],[0.252049,-0.493827,-0.97007,1.105702,-0.429072,0.462517,-0.337794,0.867499,-0.208506,0.08584,0.498691,0.011385,-0.014471,-0.046701,0.043746,-0.043867,0.007457,-0.050518,0.304236,-0.140502,-0.022467,0.133625,-0.022531,0.105809,0.19705,-3.088379,-0.518213,-0.087574,-0.31173,-0.048473,-0.083707,0.13262,-0.051879,0.021487,0.048893,0.256921,-0.411728],[1.159904,-0.008973,0.10415,-0.129711,0.260633,0.124574,-0.19033,-0.260439,-0.33846,-0.199439,0.443456,-0.029812,0.05531,0.055539,0.139419,-0.194163,-0.000199,-0.061207,-0.261337,-0.145221,0.076123,0.115532,-0.081337,-0.032017,-0.058567,0.588976,-0.208106,-0.196453,-0.050147,0.019507,-0.15789,-0.015832,0.122146,0.028395,0.028897,-0.205669,0.046238],[-0.248823,-0.055704,0.300347,0.130174,0.557066,-0.180775,0.398149,-0.224882,0.428917,-0.748979,0.475886,-0.062284,0.058584,0.159617,0.15417,-0.029,-0.117434,0.009801,0.024446,0.009525,0.246484,-0.193338,-0.050645,0.050094,0.203667,0.673393,0.069763,0.008086,-0.508163,0.259377,-0.032066,0.009004,0.066645,0.312181,-0.348261,-0.511735,0.705356],[0.580522,-0.369692,-0.297627,-0.026254,-0.300939,-0.296744,-0.039581,-0.170721,-0.045179,0.254599,-0.097933,-0.132635,-0.051455,0.129857,0.120339,-0.232177,0.009371,-0.030123,-0.550788,-0.130639,0.124174,-0.087041,0.012259,-0.04594,-0.22865,0.116726,0.717525,0.368026,-0.282483,-0.514306,-0.047825,0.106431,-0.403617,0.301825,-0.000921,0.447614,0.109156],[0.404575,-0.120776,-0.081729,0.413795,-0.283006,-0.149352,0.072262,0.42575,0.15596,-0.852322,0.472705,0.070024,0.0522,-0.023078,0.054705,-0.020029,-0.021007,-0.142764,0.43018,0.034702,-0.120228,0.281019,-0.414051,-0.123652,-0.00635,0.824442,0.099277,0.08277,-0.215674,0.121986,0.108052,-0.207774,0.012361,0.185426,0.001439,0.05883,-0.219768],[0.163578,-0.034081,-0.038155,0.215281,-0.304034,-0.262183,0.292925,-0.03356,-0.066175,0.430726,-0.181595,0.122196,-0.061818,-0.130957,-0.133616,-0.121178,-0.002163,0.075377,-0.457533,0.047977,0.150034,0.116787,-0.093943,0.278926,0.077468,-1.450595,-0.425565,-0.250759,-0.166407,0.044632,0.093027,0.083959,-0.280104,0.033029,-0.035936,-0.009393,0.47628],[1.249856,-0.069693,-0.238196,-0.03613,-0.340686,-0.50567,-0.301627,-0.293612,-0.323622,-0.006665,0.258425,-0.027572,-0.003206,0.052169,0.15288,-0.24483,0.002637,-0.043949,-0.150847,0.135391,0.094703,0.012657,0.003165,-0.026985,-0.14316,-0.13967,0.373892,0.061335,-0.229387,-0.134529,0.079956,-0.163496,-0.061429,0.031996,-0.418284,0.170239,-0.280014],[0.505301,0.08499,-0.015973,-0.553911,-0.139825,-0.097128,-0.088037,-0.538172,0.580123,-0.212454,-0.254056,-0.041516,0.130655,0.150883,-0.134656,-0.187139,0.006154,0.120292,0.103202,0.131622,0.010497,0.042054,-0.013769,0.054254,-0.233912,0.039796,0.514664,0.076557,0.452549,-0.339803,0.05616,-0.033132,-0.278683,-0.066276,0.138078,0.036671,-0.039116],[-0.037862,-0.033449,0.002407,-0.082922,-0.139347,0.048245,-0.096882,0.056303,0.118891,0.027257,0.116185,-0.062339,-0.145143,0.129903,0.078528,-0.112623,-0.130615,0.126786,0.148156,0.158267,-0.052053,-0.015882,-0.084743,-0.035944,-0.084512,0.127758,-0.144445,-0.15071,-0.098787,-0.153608,0.049705,-0.146469,0.06669,-0.064881,-0.120812,-0.11157,0.086301],[-0.106615,0.907612,-0.326744,-0.30403,0.062836,-0.526028,-0.076366,-0.963217,1.345057,-0.160237,0.621984,0.227654,0.085916,-0.122712,0.070825,0.200339,-0.01342,0.156926,-0.609309,0.140013,0.00937,-0.139213,0.049812,0.049655,-0.052049,-1.432095,-0.375504,-0.179795,0.115195,-0.140301,0.134429,0.097112,-0.190272,-0.05383,-0.114003,0.597753,0.147615],[-0.282147,-0.052682,1.156113,-0.238134,-0.647951,-0.409994,-0.331968,0.542501,-0.245204,-0.932754,0.294906,-0.02357,-0.003511,-0.121281,0.113676,-0.00201,-0.145698,-0.048593,0.732317,-0.031109,0.200661,-0.207052,0.24363,0.188122,-0.105966,0.159107,0.457775,0.290042,0.010821,-0.077246,0.107671,0.117046,-0.147481,-0.279472,0.295809,-0.542619,-0.464904],[-0.451087,-0.138471,0.325265,0.028954,-0.118928,0.15184,-0.021751,0.36767,0.226679,0.10867,0.173224,0.123604,0.123273,0.120696,0.068533,0.084292,-0.001639,0.047338,-0.219891,0.037425,0.219417,0.060534,-0.022169,-0.052526,0.130878,-0.316906,-0.304301,-0.077516,0.259668,0.163121,0.121942,0.294069,-0.039015,0.143502,-0.088908,-0.015844,-0.004514],[0.008536,-0.103661,-0.068321,-0.105497,0.009307,0.07573,-0.123723,-0.030256,0.080521,-0.13096,0.053172,0.145952,-0.081652,0.16071,0.159991,-0.090116,0.111869,-0.08267,-0.099812,0.053696,-0.133448,-0.027251,0.052226,0.004266,-0.178498,-0.118247,-0.067237,-0.05332,0.032731,-0.029031,0.105022,0.14598,0.091219,0.063884,-0.090196,0.035435,-0.162803],[-0.104529,-0.07583,0.135428,-0.157238,0.089327,0.071229,-0.107441,0.104732,0.011448,-0.127011,0.002865,0.08822,0.057329,0.14666,-0.010529,-0.038258,-0.161906,0.014183,-0.045048,-0.089068,-0.103617,0.067927,-0.066644,-0.106018,-0.0568,0.082614,0.052208,0.131654,-0.110241,-0.078801,-0.084263,0.058371,0.103394,0.153004,-0.117141,-0.109682,0.002979],[0.201362,-0.361496,-0.06444,0.48348,-0.326102,-0.13015,0.244042,-0.12558,-0.45981,0.109176,0.422028,0.180524,0.156622,0.002565,-0.016089,-0.027808,-0.026498,-0.036906,-1.065863,-0.081711,0.024926,-0.134689,-0.045366,-0.142058,0.090985,0.125373,0.344832,0.350496,0.001779,0.095604,-0.047729,-0.065219,-0.123085,0.004667,0.017291,-0.466497,-0.130002],[0.287162,0.447686,-0.652792,-0.390483,0.876882,-0.200323,0.390793,-1.09048,-0.375302,0.181056,0.33734,-0.7678,-0.210112,-0.160797,0.037144,-0.023192,0.113865,-0.882689,0.386118,-0.082207,0.350905,-0.130388,-0.164241,0.448887,-0.045893,-0.615093,0.082003,-0.161532,0.340757,-0.108548,-0.145545,-0.818361,0.11932,-1.01825,-0.401346,-0.874746,-1.127334],[-0.088278,-0.638147,-0.151587,-0.129672,0.339335,0.421575,-0.054059,-0.332696,-0.816239,0.116222,0.407153,-0.356141,-0.011804,0.092988,-0.112424,-0.18476,0.11663,-0.274762,-0.501564,0.15582,-0.058769,0.248768,-0.023128,0.009226,-0.04788,2.643419,0.445243,0.289815,0.200399,0.006531,-0.108317,-0.418509,0.132627,0.003456,0.091431,-0.537749,0.229974],[0.137441,-1.087054,-0.179691,0.47945,1.124353,-0.35914,-1.32684,-0.349478,0.3159,0.441505,-0.018797,0.0718,-0.19256,-0.144776,-0.153857,-0.075171,0.056898,-0.196902,-0.172901,0.067271,0.107779,0.007822,-0.023193,0.055661,0.107619,2.821387,0.174914,0.167237,0.017776,-0.018018,0.022598,0.053691,-0.142679,-0.096026,0.178321,-0.278048,0.08504],[0.046207,0.517219,-1.605896,0.25225,0.826875,-0.448064,0.721524,0.505764,-0.527658,-0.332957,0.442934,0.163003,-0.023329,-0.017711,0.017651,-0.073292,0.023304,0.136451,-0.046621,0.130993,0.109536,-0.016841,-0.073273,0.083872,0.236568,0.135164,-0.387163,-0.338203,-0.187227,0.198936,0.042558,0.072026,0.215301,0.16419,-0.3023,-0.143684,0.311271],[0.553819,-0.212682,0.223559,0.309115,-0.524659,0.303212,0.787811,0.020435,-0.007182,-1.049679,0.553281,-0.165082,-0.132321,0.045738,0.019584,0.105771,-0.043075,0.159626,-0.710303,0.0939,-0.122623,0.080835,-0.004475,-0.096072,-0.071211,-0.167145,-0.048838,-0.104022,-0.152076,0.02906,0.09471,0.132477,0.177997,0.04863,0.183623,0.15919,0.080819],[0.071882,0.232601,-0.085065,-0.480452,0.353466,0.203019,0.45696,-0.12855,-0.381563,-0.368042,0.401993,0.120177,0.03566,-0.149418,0.088898,0.096834,-0.014894,0.016932,-0.256254,0.069231,0.014252,0.097155,-0.160009,-0.028101,-0.115025,0.389149,-0.187837,-0.141492,-0.066681,0.228156,-0.043374,0.102513,-0.067586,0.023435,-0.241052,0.129334,0.070401]],"bias":[0.098367,0.123253,0.201796,-0.066355,-0.005164,0.185178,0.055922,-0.013238,-0.207571,0.24339,0.131913,0.026887,-0.113866,0.025695,-0.167422,-0.101594,-0.162155,0.064104,-0.233763,0.107122,0.114867,0.051917,0.003477,-0.066102,0.155894,0.043722,0.097787,-0.050819,0.255503,0.157854,-0.035881,0.021581,0.048451,-0.028566,-0.152306,0.02707,-0.006994,0.063467,0.085281,0.075601,-0.037121,0.131178,-0.198088,0.036498,0.185105,0.122695,-0.205646,-0.076645,-0.159119,-0.003534,-0.254701,0.184515,-0.032671,-0.130249,0.12213,-0.038315,-0.159151,0.08288,-0.08551,0.032788,-0.08438,0.021901,0.002732,0.151719,-0.158668,0.001953,-0.040234,-0.407976,0.128937,-0.276872,0.00655,-0.153465,-0.012686,0.22253,-0.151665,-0.098775,0.092911,0.044134,-0.038457,0.123096,-0.247274,0.012211,-0.228276,-0.140019,0.081886,0.174325,0.023572,-0.096322,0.270471,0.132096,0.148595,-0.144502,-0.105907,-0.134272,0.043356,0.18483,0.08104,-0.12815,0.000799,0.172041,0.196154,0.186563,-0.151205,-0.012058,-0.09298,-0.161115,-0.121424,0.108025,-0.107458,-0.117825,-0.107566,-0.072561,-0.083245,0.162652,0.096753,0.042229,-0.0126,0.098048,0.0982,-0.002968,0.041981,0.132803,0.171121,-0.046741,-0.053225,0.196235,-0.063882,-0.256612,0.017474,0.131824,-0.167663,0.129882,-0.007185,0.033436,0.245934,0.182436,-0.120929,-0.039649,0.108898,0.17792,-0.076472,0.210114,-0.100483,0.126301,0.140526,-0.244535,-0.01238,0.02853,0.077482,-0.212444,0.089456,-0.03288,-0.1363,0.091915,0.135758,-0.191722,0.063663,0.158643,-0.066406,0.158815]},{"weights":[[-0.049439,-0.036635,0.028187,0.050915,-0.056668,-0.062741,0.038423,0.009694,-0.018543,-0.054023,-0.014324,0.002738,0.031355,0.020266,-0.009082,-0.020072,0.016114,-0.005257,0.015351,-0.077293,-0.070211,0.013629,-0.098114,0.031184,-0.088516,0.008934,-0.024157,-0.09914,-0.029677,0.009402,-0.064252,0.015742,-0.031133,-0.022429,0.019222,-0.015475,0.012959,-0.044113,-0.057893,-0.024053,-0.00448,0.021214,0.022968,-0.064516,-0.00155,0.040444,-0.046025,-0.096527,0.025976,0.00428,0.00801,-0.082786,-0.056341,0.041895,0.030735,0.007391,-0.083436,0.03738,-0.065298,-0.051402,0.072072,-0.021657,0.042224,0.013844,-0.007237,0.016555,-0.077614,0.021971,0.051417,0.001775,-0.051913,0.008162,-0.03682,-0.040228,-0.022073,-0.059744,-0.083893,-0.076239,0.018474,-0.095419,-0.012784,-0.016342,-0.093699,-0.050123,0.05766,-0.054184,0.037024,-0.027918,0.035107,-0.026245,-0.050256,-0.056141,-0.028583,0.03753,-0.116699,-0.082817,0.003363,-0.019005,-0.028863,-0.034775,-0.014888,-0.021087,0.025616,0.04725,0.018036,-0.054504,-0.01326,-0.086194,0.001812,-0.031153,-0.013177,-0.094298,-0.008579,-0.089418,0.027542,-0.077534,-0.005642,0.030262,-0.013174,-0.044964,0.047554,-0.004915,0.013742,-0.016269,-0.053867,-0.024318,-0.041379,-0.005609,-0.042708,-0.056941,0.012368,-0.081123,0.05864,-0.00143,-0.010141,-0.005882,-0.023313,0.072547,0.033241,-0.063445,0.04372,-0.084864,0.009698,0.054294,0.038013,0.022123,-0.020857,-0.0418,0.040469,-0.080734,-0.065483,-0.074031,-0.013452,0.006985,0.030232,-0.011386,0.010808,-0.074204,-0.08445,0.000172],[0.182733,-0.008202,-3.341244,0.40048,-0.007313,0.253093,-0.0918,-17.696957,-1.566264,0.552643,0.255051,0.049392,-0.077957,-3.128454,0.185257,-0.065748,0.054928,0.07694,-0.055873,0.312546,-0.721809,0.012242,-0.193254,-0.126523,-0.096667,-4.786985,0.018346,-0.668997,0.579104,0.121754,0.099848,0.046718,0.082139,-0.259625,-0.635562,0.612759,0.258375,0.400373,0.060721,-0.317892,0.075603,0.382898,0.177769,0.094747,-1.208549,0.043117,-0.367458,-0.349668,0.058687,0.350422,-2.06606,-0.068788,0.31066,0.005916,0.2373,-0.755694,-0.011281,0.524055,-2.322365,0.26016,-20.021317,-0.053683,0.053893,-0.082776,-1.284663,0.20133,-0.110379,-2.782985,-0.038057,-0.859712,0.30134,0.003745,-0.646606,0.527293,-0.763627,0.38889,-2.04685,-1.181775,0.279152,-0.056278,-0.026227,0.340502,-0.520727,2.087971,0.16111,1.199522,0.096067,0.114886,-0.627271,-0.020088,0.006679,0.057587,-2.468621,-0.013964,-0.125301,0.289177,-0.644735,0.237391,0.32163,0.090401,-0.215075,0.060089,-0.035612,-0.063418,-0.346917,0.07866,0.027861,0.035324,0.058151,0.496655,0.971531,-0.962312,0.223663,0.23775,-3.076231,0.450709,-2.983246,-0.461669,0.929194,-0.54523,-1.517489,0.324462,0.214705,-1.986241,-0.105266,-6.464054,-0.237734,2.214361,0.152216,3.370017,-0.266202,-0.104179,-0.049844,0.15429,11.990932,0.159889,-0.053513,0.020748,0.183524,0.444753,-0.042081,0.294535,0.708181,0.275724,0.223762,-0.699936,-1.139213,0.048362,-0.630024,0.100784,-0.082898,0.003337,0.016524,-0.067514,-0.237863,-0.122651,0.114852,0.190082,0.129061,-0.07499],[0.57403,-0.56206,0.093779,0.239667,0.023572,0.073789,0.050828,-0.108212,0.228345,0.416038,0.154526,0.017069,-0.074474,-0.083317,0.953699,0.03749,-0.061235,-0.006351,0.784164,0.36926,-0.462111,-0.000645,-0.00401,0.551892,0.217191,0.157845,-0.028989,-0.038192,0.125394,-0.299172,0.040459,0.226921,-0.464239,0.214885,-0.045562,0.287877,-0.007215,0.504846,-0.005962,-0.047105,0.041476,0.037999,0.071021,-0.462041,0.230448,0.08918,0.001821,0.189531,-0.043333,0.213608,-0.105131,-0.718025,0.236683,-0.062684,0.007631,-0.134611,-0.180829,-0.176929,-0.026936,0.034575,-0.738759,-0.093267,-0.053802,-0.162577,-0.147574,-0.436536,0.110074,0.567115,-0.021729,0.014757,0.105056,0.050241,-0.114004,0.381474,-0.068817,-0.085099,0.093182,1.736396,-0.117684,-0.085643,-0.618494,0.763872,0.456876,0.026729,0.187293,0.204255,-0.006702,-0.184535,0.205022,-0.077738,-0.341338,0.309989,0.077244,0.06447,-0.133497,0.18431,0.107787,-1.29078,-0.135736,-3.804154,0.083019,-1.32271,-0.009727,-0.179974,0.034773,0.062536,-0.047043,0.059419,-0.051553,0.163926,0.352054,0.079503,-0.101401,-0.454151,0.059175,0.191788,-0.033994,0.121819,-0.089605,-0.105628,-0.00305,-0.01753,0.002539,1.004446,0.45424,0.080942,-0.076578,-2.184535,-0.211776,0.082281,-0.102349,-0.024764,0.054998,-0.83514,0.189268,0.364992,0.317348,0.016831,-0.06413,0.025452,0.510743,0.133521,0.46509,0.546254,-0.09716,0.115373,-0.153537,0.057897,0.163252,-0.013896,0.142559,0.040254,0.051224,-0.045335,-1.971792,-0.237093,-0.068954,-0.049851,0.000798,0.115967],[0.032076,-0.026319,-0.066082,-0.000224,0.070753,0.07034,0.02422,-0.075019,-0.05523,-0.106503,-0.084571,-0.04791,-0.067425,0.022809,0.024056,0.009042,-0.054224,-0.035878,0.033808,0.008555,-0.021458,0.006655,-0.09116,-0.066034,-0.005894,-0.035517,0.006637,-0.062637,0.025303,0.017005,-0.071165,-0.025148,-0.071782,0.060649,-0.039266,0.028602,-0.058247,-0.026537,0.041928,-0.040346,0.049877,0.008507,-0.029221,-0.082026,0.047548,-0.052423,-0.010608,0.072919,-0.050643,0.006111,0.074386,0.029014,-0.067995,0.055748,0.042518,-0.013932,-0.021415,-0.077642,-0.046539,-0.041674,-0.078294,0.053321,-0.037953,-0.024749,-0.040524,-0.004697,-0.054748,-0.03948,-0.033083,-0.030315,-0.060882,-0.061227,-0.034674,0.055924,-0.023966,0.034173,0.055459,0.005105,-0.048202,0.027736,-0.021413,0.068893,-0.0632,0.077809,-0.038671,-0.057368,0.016398,-0.086926,0.025875,-0.034866,-0.00093,-0.063592,0.02244,0.03944,-0.012177,-0.036792,-0.050144,-0.072847,-0.013829,-0.075675,-0.027655,0.035319,0.00196,-0.049875,-0.079022,0.018945,0.016872,-0.002179,0.024348,-0.009493,0.00022,0.004181,0.009868,-0.056748,-0.062659,-0.06323,0.069107,-0.081049,0.065286,0.045916,0.04825,-0.063064,-0.009124,-0.039502,0.021608,-0.013603,-0.00436,0.042001,0.024415,0.039316,-0.010481,0.030801,0.041149,-0.029522,-0.035751,-0.10198,0.059214,0.059526,-0.077271,0.033351,0.001254,-0.001768,0.048313,-0.021486,-0.04393,-0.068027,0.064747,-0.038983,-0.039821,-0.043929,0.056807,0.062723,0.066459,0.037722,0.042644,0.043896,-0.098706,-0.066502,-0.067712,0.022001],[0.055426,-0.002675,-0.077713,-0.070979,-0.049764,0.028403,-0.062772,-0.055033,-0.063695,0.008095,-0.039268,-0.04631,-0.027868,0.058892,-0.043636,-0.035419,-0.065531,0.077998,-0.057364,-0.087201,0.061898,-0.016349,0.012641,0.040922,0.05805,0.050684,0.015583,-0.006548,-0.037298,-0.079653,0.041868,0.036329,0.020372,-0.050063,-0.023294,0.045063,-0.012351,-0.029858,-0.087573,-0.069369,0.070559,-0.033944,0.035379,-0.017172,0.021404,-0.085107,-0.000271,-0.026034,0.070641,0.044344,-0.009729,0.024093,-0.012183,0.065774,-0.021464,-0.002487,0.008759,-0.065556,-0.069581,0.029796,0.043264,-0.071532,0.061941,0.023785,-0.004023,0.027874,0.050555,-0.002517,0.03708,0.038298,-0.000325,0.073096,-0.002043,0.041978,-0.060975,-0.065918,-0.019762,-0.011433,-0.067633,0.046334,0.048223,-0.059444,0.027331,-0.012666,0.043811,-0.059569,-0.020322,0.022793,-0.089678,0.062719,-0.052059,-0.088775,0.045723,-0.03629,-0.035376,-0.054681,0.060323,-0.01013,-0.069264,-0.063076,0.008905,0.003762,0.048073,0.017569,-0.075538,-0.018092,0.00182,0.050084,-0.058754,-0.017517,-0.078826,-0.05241,-0.086397,0.067618,-0.080268,-0.042376,0.026975,-0.04639,-0.023079,-0.041711,-0.005007,-0.030163,-0.089695,-0.055757,0.021114,0.052122,-0.047033,-0.044835,-0.083362,0.004631,-0.007621,0.033827,0.047925,-0.039797,0.049167,-0.011053,0.049545,0.015858,0.012664,-0.090126,-0.081387,-0.065022,-0.073801,0.076503,0.031729,-0.051935,0.057882,-0.051765,0.022464,-0.014351,0.002971,0.045545,0.000609,-0.049519,0.047029,-0.026706,-0.025052,-0.057217,-0.041637,-0.000297],[-0.066204,-0.004813,0.018524,-0.041011,0.028314,-0.045104,-0.065368,-0.031165,-0.096273,0.026072,0.041411,0.013494,0.006604,-0.065537,-0.000899,-0.051292,-0.004941,0.003215,0.052017,-0.001077,-0.080628,-0.02603,0.023282,0.000677,-0.069311,-0.078757,-0.030287,-0.037385,-0.009725,0.035279,-0.010992,-0.020594,-0.082127,-0.054536,-0.012988,0.046987,0.029199,0.034143,-0.08551,-0.096971,0.07213,0.007551,0.008117,-0.035368,-0.07007,-0.035245,-0.093064,0.030695,0.037831,-0.069551,0.055764,-0.034905,0.004009,-0.094331,-0.008238,-0.078212,-0.006126,-0.080218,-0.006319,-0.00288,-0.029579,-0.060234,0.014276,-0.058292,0.024216,0.049881,-4.3e-05,-0.0413,-0.059466,-0.059718,-0.047634,-0.006971,0.007988,-0.078358,-0.024608,0.034412,-0.040582,-0.042375,-0.010472,0.013983,-0.095274,-0.020165,0.051829,0.044959,-0.049692,0.018479,-0.044568,-0.024035,-0.020393,-0.000813,-0.058781,0.04101,-0.027684,0.056461,-0.083494,0.021214,-0.035961,-0.059033,-0.059759,-0.058185,-0.06898,0.053166,-0.082715,0.005003,-0.023854,0.043968,0.073315,0.049039,0.021191,-0.055472,-0.02251,-0.078573,-0.051819,0.031575,-0.08179,-0.056238,0.021938,-0.043073,0.030169,0.03268,0.007341,0.050891,-0.071207,0.024108,-0.048934,-0.061304,-0.034964,-0.055081,0.005358,-0.07482,-0.037144,0.031648,0.031656,0.026773,-0.023856,-0.058507,-0.102811,0.012677,0.042212,-0.048083,-0.051651,0.006106,0.029773,0.038763,0.011515,-0.06433,0.044488,-0.051976,-0.056502,0.051122,-0.094919,0.002011,0.018226,-0.048546,-0.091399,-0.042442,0.005651,-0.031787,0.042487,-0.035397],[0.083724,0.15407,-0.009806,0.443534,0.070988,-0.196881,-0.048658,-0.026652,-0.217757,0.034584,0.286042,-0.024065,-0.041204,-0.069938,0.269691,-0.000456,-0.002042,0.058624,0.128217,0.229123,-0.547887,0.314741,-0.05151,0.604041,0.065704,0.188117,0.304623,0.057251,-0.022719,0.146796,-0.035959,-0.002497,0.194557,-0.003952,0.126273,0.072007,0.184398,0.248878,-0.040116,0.044608,0.021884,0.144199,-0.033236,0.102408,-0.027478,-0.132164,0.308802,0.273738,-0.083454,0.299955,0.01119,-0.254054,0.230935,0.025319,-0.006755,-0.181258,0.052032,0.302221,-0.068397,0.117494,-0.647252,0.015214,-0.073088,0.152936,0.009206,0.021535,0.075177,-0.425703,0.052972,-0.048347,0.080973,-0.065701,0.11299,0.179861,-0.060179,0.346468,0.014288,-1.011937,0.36564,-0.07326,0.265929,-0.27656,0.05522,0.045829,0.041845,0.137208,-0.072411,0.258766,-0.104727,0.333701,-0.106693,0.24796,-0.026344,-0.03002,0.079859,-0.043212,-0.138685,0.083224,0.32651,-0.381581,-0.132145,0.080146,0.025742,0.149258,0.083308,0.005231,-0.043833,0.010705,0.021097,0.504706,0.133019,0.040323,0.199041,0.12071,-0.080394,-0.088758,0.048733,0.05295,0.175024,0.095748,-0.131949,0.216514,0.190278,0.363461,0.594985,-0.2818,0.148471,-0.301377,0.108918,-0.068128,0.227358,-0.143955,0.054052,0.382393,0.095054,0.091324,0.039867,0.048453,-0.211097,0.075264,0.411525,0.141704,0.302956,0.099518,-0.072053,0.012948,0.08241,-0.027794,0.023714,0.09379,-0.145316,-0.011034,0.051307,0.187436,0.376218,-0.152903,0.273109,0.110026,0.177731,-0.024776],[0.029703,0.239152,0.040308,-0.134778,-0.011606,0.252774,0.137298,0.041445,-2.013759,-0.030461,-0.16381,0.011643,0.038214,0.185493,0.347707,0.073766,0.016472,0.054992,2.02874,-0.125331,0.439509,0.121612,0.105274,-0.672366,0.091388,-0.122079,-0.277523,0.151161,-0.051587,0.003579,0.066849,-0.069834,-0.12716,0.036411,0.013429,0.196799,-0.212912,-0.271386,0.114252,-0.057812,-0.015064,0.140396,0.124694,0.264792,-0.029085,0.146062,-0.048371,-0.164539,-0.045705,0.131987,0.038525,0.45303,-0.091861,0.059309,0.086725,-0.050325,-0.127342,0.0596,0.167716,-0.061688,0.522581,0.047005,-0.074264,-0.490774,-0.125318,0.106429,0.115384,-8.669985,0.047576,-1.285973,-0.102433,0.058055,0.178623,0.093667,-0.017035,-0.01239,-0.062306,-0.515108,0.105152,-0.130705,0.099195,-3.256839,-0.377762,-0.028718,0.241241,0.104142,-0.007604,0.184452,0.111784,0.011388,0.245259,-0.609358,0.038283,-0.000707,0.041447,-0.023272,0.09963,0.226151,-0.006203,-0.354859,0.064235,0.249772,-0.032044,-0.235106,-0.101183,0.008338,0.05103,0.080564,0.006817,-0.25528,0.066158,0.155269,0.170456,0.238951,0.054919,-0.060984,0.049821,-0.129369,-0.053706,-0.013673,0.199204,0.086866,0.110774,-0.501943,-0.470711,-0.554492,0.009866,-0.550115,-0.230239,0.132411,0.128239,-0.114294,0.016303,-0.189507,0.022193,-0.047494,-0.935531,-0.031661,-0.087244,0.12484,-0.221037,-0.120169,-0.267272,-0.359211,0.370961,-0.683303,0.072268,0.021189,0.082459,0.264306,-0.024813,0.06971,0.04199,-0.365458,-0.360201,0.03473,0.098667,0.081105,-0.003562,0.015852],[-0.031808,-0.123005,0.004561,-0.068167,0.034786,-0.006707,0.072478,0.153229,-0.736899,0.108847,0.062534,-0.053883,-0.011672,-0.060731,-0.010161,-0.072912,0.048576,-0.069866,-1.048169,0.055448,0.080066,0.11614,0.02753,0.500317,0.28818,0.227204,0.365793,-0.13408,0.357094,0.147146,0.093289,0.17094,0.21724,0.030749,-0.048429,0.278437,0.186985,0.430963,0.235732,0.130649,-0.00565,0.010367,0.000173,0.15827,0.107147,0.092263,-0.099682,0.106813,-0.067002,0.184348,-0.124287,-0.009499,0.258227,-0.051989,0.158436,0.057482,0.244472,0.282914,-0.098874,0.236508,-0.370503,0.066937,-0.020244,0.170604,-0.040664,0.093239,-0.040853,-5.680366,-0.071073,-2.639129,0.130611,-0.012722,-0.006205,0.263917,-0.330215,0.217369,0.122451,0.01908,0.09348,0.044057,0.078715,0.681051,-1.216681,-0.024359,0.129017,0.063369,-0.073479,-0.059944,0.079012,0.102418,0.076257,-0.358308,0.085024,-0.035803,-0.050005,0.090429,0.254455,0.151878,0.464654,-0.718801,0.17418,-0.093237,-0.045225,0.115528,-0.091807,0.02604,0.018783,0.134376,0.021745,0.260118,0.100758,0.184716,-0.119473,0.127311,0.190209,0.008949,0.14838,0.145985,0.156032,-0.028788,0.115093,0.198629,0.127649,0.244327,0.292153,-0.05021,-0.14408,0.122603,0.132374,0.07873,-0.132947,0.017967,-0.037363,0.252623,0.189337,0.08527,-0.051091,-0.0654,0.214916,0.021148,-0.43175,0.247089,0.33878,-0.038347,-0.29305,-0.90432,-0.266859,0.075763,0.010442,-0.093671,0.067686,0.015396,0.016821,0.106523,-0.408373,0.102615,0.21429,0.117384,-0.081856,0.175417],[-0.118632,-0.124266,-0.072469,-0.143682,0.003711,-0.129954,-0.010981,-0.051823,-0.033094,-0.070105,-0.063377,-0.032438,0.051773,-0.09783,-0.055104,0.025513,0.059834,0.036507,-0.078667,-0.055073,-0.033717,-0.021301,-0.139184,-0.050351,-0.039438,-0.027826,-0.110806,-0.034463,-0.093828,-0.054514,-0.015945,-0.030286,-0.089874,-0.043665,0.04205,-0.008348,-0.094781,-0.079271,-0.164982,-0.051582,-0.02981,-0.015863,-0.159846,-0.039056,-0.126936,-0.133356,-0.005847,-0.020619,0.04571,-0.132947,-0.028125,-0.075687,-0.10673,0.02166,-0.133953,-0.062042,-0.087912,-0.056843,-0.026327,-0.08314,-0.000365,-0.0078,-0.07808,-0.055646,-0.083954,-0.104544,-0.09618,-0.050513,0.066923,-0.044153,-0.060552,-0.005092,-0.029303,-0.055085,-0.09837,-0.156652,-0.076179,-0.051983,-0.113731,0.012908,-0.115653,-0.079678,-0.063209,-0.124907,-0.060934,-0.082135,-0.014895,-0.073407,-0.105582,-0.120667,-0.070337,-0.088726,-0.077834,0.034196,-0.065416,-0.042471,-0.17013,0.119502,-0.089388,0.02969,-0.01394,-0.022927,-0.036684,-0.090525,-0.075163,-0.034945,-0.07707,-0.107848,-0.016948,0.013531,-0.051137,-0.072149,-0.092404,-0.087351,-0.045359,-0.109017,-0.064583,-0.126945,-0.095295,-0.144211,-0.086178,-0.093605,-0.132452,-0.034416,-0.084845,-0.128803,-0.015633,-0.109675,-0.122145,-0.05266,-0.017076,-0.031071,-0.073941,-0.08404,-0.010999,-0.132852,0.009219,0.046635,-0.019124,-0.030044,-0.081347,-0.038322,0.000606,-0.128454,-0.019552,0.008724,0.014675,0.01488,-0.118911,-0.147325,-0.169206,-0.049244,0.040356,-0.143369,-0.050143,0.110813,-0.007555,-0.092022,0.009851,-0.091929],[-0.080162,0.049648,-0.033915,-0.003535,0.002388,-0.036718,-0.054593,0.00674,0.048264,-0.06493,0.054281,0.000153,0.016111,-0.072545,-0.008297,0.006159,0.023257,0.026581,-0.078326,-0.010323,0.021616,-0.067953,-0.06586,-0.084452,-0.084921,-0.045189,-0.014089,-0.05699,-0.076813,-0.016113,-0.033778,0.002725,-0.02225,-0.097252,-0.089998,-0.053408,-0.003078,0.034007,-0.045892,0.049132,0.041882,-0.056663,-0.058834,0.005748,-0.055875,-0.087003,0.005673,0.060972,-0.041326,-0.027821,-0.049802,-0.094845,0.038949,0.030316,0.035732,-0.07845,0.053587,-0.069335,-0.040938,0.053279,-0.070962,0.035542,0.044039,-0.036393,0.006267,-0.037735,0.013582,-0.039147,-0.062168,0.045451,0.054416,-0.057094,0.053191,-0.037363,-0.001512,-0.070939,-0.013034,0.055936,-0.069963,0.041665,0.009472,-0.09166,0.012042,0.045888,-0.024028,-0.000666,0.020184,-0.049178,-0.023713,0.004347,0.033095,-0.077553,-0.012061,0.07699,0.062629,-0.037854,-0.019997,-0.049668,-0.089556,-0.093541,-0.100702,-0.004778,0.069377,-0.038385,-0.028005,0.04771,0.051442,0.030298,-0.054673,-0.105105,-0.022132,0.048277,0.040444,-0.01068,-0.07419,-0.037792,-0.014618,-0.100403,-0.012072,0.080483,-0.02674,-0.019677,-0.049593,0.008352,-0.042565,-0.001687,0.048359,-0.082603,-0.062793,0.019804,0.020155,0.000142,-0.001599,0.045755,0.0487,0.051546,-0.058934,-0.015206,-0.057997,-0.070272,-0.051783,-0.003681,-0.028203,0.048001,-0.013266,0.0288,0.05361,0.011236,0.030817,-0.062855,-0.015318,0.006643,-0.074668,-0.064211,0.011714,-0.101394,-0.089988,0.004089,0.026049,-0.082626],[-0.083045,0.043776,-0.09365,0.026284,0.017727,-0.027684,-0.02667,0.036601,0.017203,-0.064968,-0.083118,0.01978,0.033011,-0.054805,-0.091804,-0.067263,-0.001109,0.055235,0.013668,-0.071837,-0.070888,-0.070929,-0.076806,-0.031213,0.003301,0.054446,-0.089166,-0.049267,-0.029325,-0.05888,-0.006652,-0.015569,-0.091679,0.000718,0.046121,-0.032421,0.044332,0.01754,-0.081313,-0.083056,-0.006226,0.029841,0.015309,0.058154,0.032542,0.054767,0.060101,0.04508,-0.052413,-0.016879,-0.059801,-0.008653,-0.006039,0.010143,-0.025163,0.030648,0.015186,-0.05429,0.057167,0.032523,-0.082112,0.044815,0.058386,-0.07133,-0.025484,-0.02388,0.03993,0.049558,0.016255,0.055833,-0.053404,0.047103,-0.012164,-0.085787,0.060312,-0.07628,0.015691,-0.075128,-0.020333,0.024366,0.012024,-0.026531,-0.065163,-0.064489,0.007078,-0.034116,0.029229,-0.094824,-0.091758,-0.007545,0.061301,-0.042783,-0.034523,0.038549,0.034388,-0.089239,0.052567,-0.084855,-0.091321,-0.073386,-0.042044,-0.067089,0.010561,-0.048103,-0.01353,-0.019114,0.001562,0.044384,-0.037052,0.007016,-0.086245,-0.040595,0.04143,0.055598,0.033485,-0.048219,0.041684,-0.07585,-0.020803,-0.06716,-0.070448,-0.072592,0.008062,-0.039638,0.011078,-0.054956,0.007105,-0.006052,-0.039756,0.054766,0.020565,-0.033272,0.008019,0.000638,-0.02752,0.044385,-0.016762,0.053907,0.044342,-0.06899,-0.044781,-0.042807,-0.000887,-0.037106,-0.010227,0.00879,-0.068439,-0.060232,0.03176,0.015138,-0.065701,0.029707,-0.073296,0.022546,0.016541,-0.045944,0.038339,0.014653,0.059647,-0.025429],[0.030349,-0.087631,0.034501,-0.068207,-0.04172,-0.026242,-0.002349,0.056985,-1.945083,0.252621,0.298014,-0.066455,-0.075964,-0.037735,-0.018277,-0.040156,-0.027446,-0.058804,-0.613092,0.306084,0.020526,0.081856,0.107891,0.593891,0.124232,0.161253,-0.062057,-0.193868,0.222626,0.027845,0.101613,0.21596,0.086593,0.136046,-0.12351,0.084873,0.336972,0.351628,0.165941,-0.000703,-0.049982,0.089163,0.170357,0.324542,0.036853,0.131182,0.091805,0.096247,0.05075,0.152751,-0.119872,-0.010984,0.288647,-0.03304,0.178336,-0.092468,0.146128,0.247857,-0.109158,0.215166,-0.55465,-0.014825,0.032429,0.091102,-0.111688,-0.008294,0.054334,-13.413815,-0.036924,-2.432089,0.097879,0.010265,-0.030564,0.186591,-0.221249,0.149387,0.09129,0.419703,-0.060245,0.080878,-0.256511,0.58296,-1.367586,-0.152709,0.188256,0.07989,0.019022,-0.102021,0.19177,0.145915,-0.00949,-0.194582,0.11692,-0.028744,-0.130713,0.27597,0.16143,-0.010868,0.438173,-0.358958,0.187445,0.0105,-0.060256,-0.003748,-0.060564,0.041368,-0.036267,0.220049,0.000466,0.371807,0.278719,0.07548,0.110833,-0.006248,0.067352,0.067066,-0.027388,0.270862,0.261545,-0.154747,0.155365,0.159038,0.220006,-0.065053,0.327572,0.133814,0.08942,-6.648438,-0.313955,0.050004,-0.136774,0.05217,-0.037249,0.064909,0.053376,0.348162,-0.416813,-0.058346,0.272763,0.241079,-0.435494,0.319345,0.324429,0.179124,-0.10983,-1.131784,-0.205123,-0.048537,0.038844,0.218693,-0.059478,0.051824,0.012122,-0.009917,-0.188941,0.242014,0.197657,0.220199,-0.070576,0.205948],[0.156094,0.012967,0.150178,-0.086228,-0.03025,0.693271,0.262043,0.070282,-1.28311,0.037895,-0.281275,-0.007664,0.039962,0.131671,0.104815,-0.020191,-0.030333,-0.054302,-1.399189,-0.129139,0.471233,-0.152265,0.084067,-0.679733,0.113475,0.182762,0.249491,-0.203181,-0.081039,0.119293,0.232487,0.060623,0.097428,0.035888,-0.139169,-0.134395,0.166193,-0.272598,0.167596,0.198867,-0.046988,-0.127633,0.002873,0.081281,0.18727,0.136866,-0.185944,-0.197467,-0.040847,0.041443,-0.274521,0.56739,-0.13194,0.028938,-0.092507,0.051626,-0.081879,-0.027495,-0.060056,0.157485,0.630216,0.019566,-0.005029,0.064478,-0.220972,-0.288642,0.019521,-1.383809,0.055906,-3.057202,0.142449,0.031028,0.189875,0.000259,-0.268655,0.130372,-0.014698,-0.382596,0.075298,0.138033,1.400255,0.131661,-5.071233,-0.049854,0.106426,0.181416,-0.035591,-0.228317,0.202483,0.030943,0.262573,0.14226,0.050142,0.057299,-0.163461,-0.032218,0.1201,-0.16309,0.193177,-0.095595,0.243477,0.269991,0.063124,-0.03875,0.208299,-0.064931,-0.000208,0.123664,0.016908,-0.178257,0.129963,0.18724,-0.128991,0.187007,0.002066,-0.051072,0.122149,-0.14373,0.252009,-0.13552,0.136058,0.053569,-0.029274,0.125442,-0.809023,-0.583471,0.057862,0.296484,0.330752,0.164458,-0.122438,0.131612,-0.014386,0.255221,0.038563,-0.011703,-0.071162,0.061738,-0.035113,-0.043761,-1.031915,-0.018667,-0.735254,0.0521,0.418492,-3.371708,-0.100194,-0.009783,0.028877,-0.038803,0.088012,0.026342,0.000311,0.266849,-0.383313,0.021495,0.040082,0.080181,0.086901,0.126893],[0.006916,-0.01421,0.146687,0.109826,-0.049058,-0.184819,0.346934,-0.058163,0.545898,-0.34427,-0.129614,-0.019087,0.04678,-0.594916,0.39673,0.051869,-0.012836,0.060778,-0.158522,-0.082019,-0.054088,0.205768,0.094846,-0.402556,0.526284,0.43429,0.562666,-0.071233,0.200806,-0.010476,0.171056,-0.159432,0.017042,-0.064616,0.200118,-0.584848,-0.276696,-0.420005,0.257145,0.318717,-0.057373,-0.352014,-0.248187,-0.091206,-0.13337,0.411352,-0.216502,-0.169729,0.040483,-0.032764,-0.023911,-0.00633,0.420178,0.052668,0.161996,-0.240989,-0.128965,0.291441,0.234934,0.230198,-0.482188,0.035901,0.057062,-0.021726,0.048512,0.345528,-0.34377,1.184365,-0.066355,0.527097,-0.250907,-0.077962,0.373375,-0.069825,0.220702,-0.35868,0.147001,0.113171,0.089874,0.024537,0.116036,-0.589849,0.470308,-0.062168,-0.475905,0.328657,-0.032826,0.031181,0.134948,-0.189695,-0.231276,-0.231743,0.024381,-0.074525,-0.045586,-0.41171,0.026282,-0.104356,-0.071832,-0.306351,-0.180586,0.248963,0.065751,0.424888,0.352044,-0.012666,-0.006876,-0.006048,0.067837,0.563919,-0.200036,0.278834,-0.008782,0.036087,-0.03099,0.141977,-0.03474,-0.68573,-0.141984,-0.178554,-0.252515,-0.114353,-0.224098,-0.269781,1.826441,0.082074,-0.344971,1.730787,-0.360104,0.23895,0.191658,-0.20054,-0.039446,0.512327,-0.111282,-0.081809,0.300735,-0.037417,-0.304507,-0.01498,-0.231557,-0.484876,0.048377,-0.523699,-0.116179,0.337494,0.297468,-0.011886,0.02398,-0.282741,0.462293,0.039694,0.032593,0.291941,0.131527,0.659356,0.369147,-0.085505,-0.234795,-0.024411],[0.233431,0.094954,-0.062277,-0.365852,-0.03979,0.39586,0.036414,0.210385,0.861393,-0.073782,0.013192,0.080576,0.046462,0.306444,0.049941,0.060122,0.053095,-0.07218,-0.05423,-0.151465,-0.129509,-0.21779,0.036392,-0.711229,0.179176,-0.377799,-0.348103,0.217123,0.174125,0.376347,0.237547,0.055907,0.009594,0.459641,0.067174,-0.676069,-0.202368,-0.15438,0.074624,0.071205,-0.033637,-0.067187,0.162989,0.116645,0.206487,-0.156066,-0.037261,-0.391968,-0.015903,-0.176234,0.077329,0.128666,0.095107,-0.031357,-0.134301,0.603714,0.063585,-0.026957,-0.239022,0.190581,0.012166,-0.05176,-0.039091,0.093831,0.110672,0.267678,-0.069981,0.028998,0.073578,0.476657,-0.048372,0.013096,-0.144054,-0.401191,0.368828,-0.309071,-0.051033,-0.714332,-0.224189,-0.184285,-0.05343,0.335759,0.366884,0.144348,0.233002,-0.031158,0.035016,-0.28378,-0.037484,0.174704,0.220076,-0.375173,-0.086353,-0.010624,-0.16036,-0.008513,-0.097072,0.084705,-0.173704,0.233524,-0.249521,0.071443,0.027916,0.302383,0.242692,-0.057434,-0.05442,0.031252,-0.062247,0.077047,-0.122154,0.098327,0.111735,-0.042353,0.174471,0.086514,-0.070675,-0.075621,0.181029,0.088529,-0.128474,0.013748,0.249984,-0.7742,-0.966896,-0.418774,0.006107,-0.079142,-0.547756,0.430759,-0.012249,-0.104315,-0.027252,-0.133331,0.226224,0.156831,0.089284,-0.072158,-0.103895,-0.019511,-0.386002,0.100135,-0.085244,0.088135,0.214985,0.267316,0.201566,0.06308,0.150228,-0.012784,0.141519,-0.008092,-0.046704,0.530462,-0.17324,0.392196,0.125943,-0.166285,0.105927,-0.155628],[0.136647,-0.125972,0.042288,0.212751,0.019173,0.074218,0.149229,0.223998,-1.224044,0.262284,0.225006,-0.068431,0.064654,-0.115564,-0.030418,0.050401,-0.067341,0.07537,-1.003905,0.111565,0.328358,0.085386,0.109907,0.451682,0.3463,0.192014,0.058595,-0.149425,0.042283,0.074642,0.080784,0.18517,0.148248,0.185307,-0.166766,0.069939,0.060877,0.129366,0.237368,0.114329,0.051807,0.201832,0.15697,0.335682,0.17273,0.099859,0.051078,0.118992,0.070248,0.129253,0.130967,0.096059,0.271224,-0.044127,0.256793,-0.057836,0.246264,0.279296,0.036788,0.193179,-0.348297,0.083433,0.024807,-0.000318,0.030717,-0.263471,0.173113,-1.998345,-0.007963,-2.5628,0.28483,0.020772,0.01828,0.14573,-0.212706,0.233789,0.180263,0.13952,0.060736,0.133098,-0.375453,0.665116,-1.089826,0.200879,0.200516,0.048632,0.049831,0.081594,0.238401,0.312286,0.047604,0.054308,0.041657,-0.032442,-0.09956,0.182336,0.282262,-0.392174,0.023815,-0.959568,0.137519,-0.077258,-0.06872,0.005765,0.193128,0.058334,0.06297,0.132773,0.071424,0.29413,-0.030069,0.288079,-0.004868,0.088534,0.091498,-0.04386,0.113668,-0.151458,0.184022,0.009229,0.027824,0.165701,0.124525,0.109576,0.267016,-0.08844,-0.034389,-1.686526,-0.181216,0.098561,-0.143324,-0.161573,0.076052,0.272078,0.142082,0.108912,-0.331992,-0.066976,0.092143,0.169314,-0.485181,0.208577,0.239366,0.023136,-0.173755,-0.776658,-0.176571,-0.000658,0.017162,0.038342,0.154544,0.072871,0.047493,0.301082,-0.20293,-0.036158,0.049748,0.211608,0.153168,0.223798],[0.063937,0.227819,-0.051291,0.520608,0.038406,-0.345258,-0.137137,0.04268,-0.39659,0.008481,0.282748,-0.028966,0.010485,-0.068031,0.073427,-0.034951,0.051674,0.058158,0.108331,0.28478,-0.469517,0.168389,0.125169,0.655926,-0.006758,0.19489,0.445552,0.056652,-0.049589,-0.036243,0.169005,0.102593,0.28502,-0.140056,0.027565,0.057754,0.19718,0.214784,-0.102838,0.154476,-0.012485,-0.019442,-0.027672,0.075345,0.021031,0.162294,0.160593,0.368346,-0.025912,0.275313,0.017621,-0.414331,0.216436,-0.043919,0.103427,-0.181563,0.148771,0.313346,-0.105177,0.069815,-0.384575,-0.031491,0.001038,0.279859,-0.013794,0.182582,0.010008,-0.300766,0.001414,-0.128558,0.259551,-0.019436,0.129223,0.229501,-0.100727,0.185874,-0.024158,-4.881526,0.188269,0.025721,-0.030915,-0.325796,-0.109566,-0.121896,-0.052835,0.025633,0.08626,0.246433,-0.078584,0.21771,-0.029688,0.40471,-0.054794,-0.003037,0.207404,-0.172772,-0.07863,-0.157072,0.404385,-0.532069,-0.066701,0.153874,0.012744,0.089052,0.044881,0.073983,0.030789,0.019573,0.014873,0.336781,0.049968,-0.030881,0.238321,0.20118,-0.080404,-0.108409,-0.082563,0.010973,0.057709,0.028212,-0.192741,0.203954,0.0534,0.535691,0.479743,-0.150836,0.145013,-0.357337,0.169116,-0.238427,0.205147,-0.026396,0.103795,0.174819,-0.020868,-0.102256,0.460339,-0.049986,-0.117666,0.070536,0.58048,0.096801,0.263695,0.15657,-0.08088,-0.019684,0.013162,-0.020755,-0.008399,0.09256,-0.164186,0.040798,-0.013306,0.126531,0.170935,-0.446011,0.13613,-0.003676,0.127581,0.037439],[0.163548,-0.050664,0.1317,0.164145,-0.033503,0.435817,0.083411,0.223282,0.266731,-0.468184,-0.204277,0.018896,-0.065684,0.536022,0.25122,0.059234,-0.019899,0.044451,0.371503,-0.131387,-0.599174,-0.04171,-0.170226,1.154383,-0.116703,-0.061043,-0.342995,0.171307,-0.064011,0.194495,-0.004088,0.280246,0.171701,0.152261,-0.024522,-0.327666,-0.011035,0.292134,-0.04237,-0.107348,-0.002364,-0.034611,0.141237,0.07593,0.013534,-0.152369,0.247465,-0.829642,-0.007801,0.132216,0.142512,0.130652,0.03233,-0.024362,-0.159774,-0.216982,0.113537,0.098558,-0.03405,0.009374,0.214057,0.043813,-0.033843,0.092817,0.188231,0.418186,0.085491,-0.009938,-0.06552,0.269382,0.077882,-0.007145,-0.156181,-0.003239,0.011305,0.096936,0.022523,-3.037059,0.201441,-0.179683,0.158608,0.391585,0.249577,0.400571,0.123577,0.017599,0.023126,-0.033484,-0.079335,0.208727,0.135885,-0.126298,-0.037046,-0.019453,0.097657,-0.11589,-0.077856,0.047109,-0.263497,0.441299,-0.05364,-0.002624,0.059956,0.502025,0.158052,0.054955,-0.033647,0.140141,0.060351,0.022468,-0.041322,0.189842,0.083618,-0.021552,0.221063,-0.303769,0.048102,-0.224965,0.048492,0.115145,-0.106447,0.042148,0.145258,-1.528102,-0.45632,-0.703633,0.16639,-0.00937,-0.055735,0.046577,0.000864,-0.172864,0.050627,-0.180164,0.215372,0.008908,0.033305,0.003973,-0.273063,0.0679,-0.309969,-0.065363,-0.458532,-0.239686,0.199097,0.326167,0.031667,0.060342,0.11425,-0.017696,0.00123,0.021116,-0.022442,0.373459,-0.264227,0.310099,-0.156384,-0.066475,0.197925,-0.03044],[0.103754,-0.054459,-0.018396,0.26217,-0.050513,-0.241795,-0.013361,0.210699,0.222606,-0.360223,0.44281,0.05516,0.000627,0.071306,-0.302736,0.070923,-0.000984,-0.068677,-0.135776,0.03055,0.625749,0.056913,0.142463,0.863582,-0.085985,-0.154002,-0.444551,0.047155,-0.120716,0.195577,-0.014979,-0.055137,-0.109809,0.188235,-0.100964,-0.283838,-0.074676,-0.074495,-0.214856,-0.175367,-0.023661,0.163,-0.088494,0.023633,-0.092207,0.055509,-0.005435,0.437161,-0.030092,-0.41698,0.504735,-0.047272,0.326221,0.066326,-0.152501,-0.291295,-0.259021,0.052787,0.047078,-0.008517,0.306252,-0.034677,0.049987,0.267428,0.041934,0.270739,0.147991,0.551031,0.004235,0.010445,0.109092,0.075568,-0.022195,0.047039,0.03388,-0.28363,-0.051717,-2.917322,0.175013,-0.035857,9.1e-05,0.642574,-0.222563,0.363725,0.279211,0.071415,-0.034902,0.090372,-0.051486,0.227827,0.445994,0.283479,-0.075444,0.056534,0.002468,0.187577,0.019536,0.305049,0.041051,0.396637,-0.052318,-0.055805,0.022886,0.264311,0.090177,0.017197,0.069145,-0.16581,-0.023081,0.34322,-0.696789,0.031807,0.097581,0.028046,0.087876,0.027147,-0.120964,0.161711,0.172534,-0.04741,-0.099459,-0.317928,0.1077,-0.318017,0.229726,-1.130522,-0.100564,-2.115855,-0.15065,0.086412,-0.004703,0.23661,0.001933,-0.159752,0.100465,-0.174509,0.596304,-0.022975,-0.054646,0.025572,-0.343257,-0.00878,0.461581,0.095407,0.135189,-0.77021,-0.023333,-0.049383,-0.084744,-0.06866,-0.073237,0.037726,0.053506,0.432543,0.073696,0.138151,0.141141,-0.062877,-0.142609,0.007351],[0.002102,0.275251,0.22646,-0.14302,0.044893,0.44595,0.080016,-0.114614,-1.229654,-0.006656,-0.109959,0.076013,0.041222,-0.142752,-0.060448,0.068132,0.061502,0.014605,-1.090915,0.077889,0.072531,0.047691,0.076007,-0.495928,-0.012229,-0.249241,0.061702,-0.064219,-0.029428,0.127616,-0.035662,0.243191,0.095037,-0.059372,-0.102366,-0.09958,0.19911,-0.097419,0.140312,-0.074234,-0.011494,-0.057566,0.137757,0.043663,-0.018583,-0.056713,0.015097,-0.222091,-0.017921,0.115323,-0.166605,0.518571,-0.183582,0.040281,-0.199187,-0.007309,0.160359,-0.10399,0.155199,-0.073795,0.3999,-0.054898,0.05729,0.157403,-0.150001,-0.060868,-0.022284,-0.187574,-0.062027,-3.114861,0.148703,0.04974,0.062523,0.025592,-0.022854,0.19048,0.020354,-1.30518,0.032918,0.089978,0.97477,1.114595,-2.483343,0.082457,0.207784,-0.033009,0.008302,0.015974,0.028984,-0.111498,0.280682,-0.1728,0.165348,0.064113,-0.079086,-0.017222,0.060751,-0.442771,0.378304,-1.425695,0.136409,0.228167,-0.015675,0.136627,0.261087,-0.007237,0.061803,0.068745,-0.071802,0.27231,0.267282,0.203226,0.020895,0.10792,-0.088438,-0.077411,0.046021,0.391725,0.149069,-0.089182,0.156696,-0.204712,-0.084275,-0.649863,-0.65025,-0.692188,0.234019,-7.434363,0.054777,0.176095,-0.126739,0.182495,0.054769,0.164191,0.065606,0.116939,-0.446453,-0.054435,-0.12973,-0.021446,-0.802496,0.127615,-1.236925,0.130193,-0.071952,-1.813377,0.095834,0.071549,0.087583,0.31274,0.04319,0.032802,-0.074467,0.180829,0.197318,0.00471,-0.117248,0.180112,-0.072009,0.127832],[0.255406,-0.061834,0.022341,0.085545,-0.045459,0.036695,-0.17985,0.045552,-4.42874,0.175926,0.176704,0.009679,0.007367,0.00717,0.223946,0.067508,0.031854,0.074108,-1.22693,0.126134,0.305945,0.241682,0.144186,-0.094891,0.218796,0.532311,-0.263,-0.397108,0.441586,0.226821,-0.106273,0.316181,0.272568,0.292026,-0.299914,-0.106765,-0.114684,-0.148404,0.161336,0.23234,-0.064885,0.079294,0.048328,0.140168,0.048408,0.141011,0.026187,0.015194,-0.00074,0.013802,0.182542,0.397236,0.101008,-0.043557,0.13329,0.868764,0.192256,0.025461,-0.019932,0.084196,0.024891,-0.009613,-0.030786,-0.018334,-0.000226,-0.310928,0.108206,-3.526696,0.016503,-1.979919,0.213009,-0.058261,-0.072343,0.195768,-0.297898,-0.079533,0.148875,-0.791958,0.324943,0.357964,-0.319155,0.227969,-0.748488,0.11001,0.242,-0.159966,0.028865,0.032506,0.282877,0.396805,0.110309,-0.155167,0.061312,0.046338,-0.089136,0.487978,0.334428,0.250051,-0.124489,0.110701,0.179022,0.153971,0.043561,-0.776647,0.603359,0.03955,-0.00413,0.219422,-0.023047,0.37974,-0.173595,0.028551,0.056208,0.145061,0.313626,0.222231,-0.314354,-0.106604,0.36974,-0.342749,-0.027376,-0.009404,0.235865,-0.51934,-0.208369,-0.628772,-0.055859,0.950586,-0.114863,-0.056721,-0.14367,0.154606,-0.035772,0.027875,-0.064061,0.189101,-0.122579,0.07822,0.176093,0.441297,-0.284544,0.110186,0.141071,-0.00865,-0.579783,-0.880546,-0.094492,0.059837,-0.449304,-0.314852,-0.231935,0.065397,-0.034214,0.300578,-0.102573,-0.130755,0.388936,0.266892,0.196663,0.276468],[0.360588,0.283768,0.033449,-0.129187,-0.033349,0.532574,0.171862,-0.050785,-0.149684,0.008408,0.108851,0.058974,0.049688,-0.030302,0.179372,-0.059844,0.041994,0.048898,0.274413,0.204424,0.103672,-0.170124,0.115674,-0.357706,0.150263,-0.051409,0.073827,-0.138338,0.070605,0.115624,0.024891,0.208511,-0.122895,0.047132,-0.323928,-0.158165,0.088591,-0.15474,0.063313,0.147753,0.066129,-0.186072,0.142642,0.15882,0.13803,0.190447,-0.121548,-0.416283,-0.038846,0.067719,-0.30665,0.165797,0.076534,-0.043086,0.400562,0.53097,-0.270609,0.072167,-0.016721,0.05873,0.668245,-0.021942,-0.021919,-0.069765,-0.177114,0.238833,0.09444,-1.764165,0.061649,-0.324156,0.048868,0.042455,0.043026,0.112347,-0.307176,0.093858,-0.011471,-0.507756,0.175805,-0.053716,-0.646597,1.224265,-0.481175,0.07626,0.257814,0.095178,0.022738,-0.049146,0.052545,0.217652,0.136452,-0.11528,0.04454,-0.068249,0.015499,0.226957,0.10985,-0.150371,0.378342,-0.306982,0.079032,0.327377,-0.005215,-0.115445,0.18791,0.002975,0.048533,0.195231,-0.014073,0.056978,-0.236073,0.022942,0.052367,0.191094,0.005653,0.182207,-0.040067,-0.213425,-0.027108,-0.033704,0.025353,0.220246,0.096997,0.014187,-0.51946,-0.441614,0.019235,-0.911773,-0.240877,0.295636,-0.149262,-0.276743,0.081842,0.20522,0.060746,-0.032892,-0.117044,-0.046734,0.064201,-0.145925,-0.418548,0.179658,-0.206185,0.160182,0.049782,-0.603179,-0.261427,-0.001654,0.252459,0.011006,-0.011017,0.037835,0.042959,0.158963,-0.120092,-0.029918,-0.056899,0.168957,0.081931,0.118618],[0.024927,-0.067554,0.032689,0.011871,-0.071933,0.020822,0.02091,0.054696,-0.011534,-0.02135,-0.008153,-0.001033,-0.037777,-0.075574,0.045353,-0.005286,-0.061838,0.049379,-0.025597,-0.030123,-0.054343,-0.010257,0.001498,0.020907,0.04985,-0.07151,0.058613,-0.079107,-0.072614,0.011222,-0.067944,-0.042302,-0.094225,-0.046182,-0.070717,-0.022925,0.048972,0.003381,0.016079,-0.016809,-0.024816,-0.083156,-0.019406,-0.090351,-0.003962,0.040873,-0.036754,0.011252,0.02377,-0.067422,-0.015126,0.022907,-0.079428,-0.002253,-0.0289,0.028158,0.027823,-0.069637,0.015649,-0.043622,0.016735,-0.083326,-0.023029,0.032481,-0.05353,-0.053532,-0.078808,0.046709,-0.049535,0.001902,-0.085534,-0.040215,0.059887,-0.018242,0.034377,-0.082742,-0.027679,-0.077511,-0.020024,-0.01831,0.048375,-0.084353,0.057392,0.041204,-0.091582,0.052956,-0.02457,-0.056618,-0.01124,0.029474,-0.078278,-0.069212,-0.091028,-0.077771,-0.053848,0.048506,0.016999,-0.081588,-0.062117,-0.045659,0.046535,0.051107,-0.001005,0.044517,-0.035496,0.044549,-0.019463,-0.039522,0.041632,0.017811,-0.014977,0.012691,-0.059313,0.055669,0.053484,-0.042469,0.004157,-0.060263,-0.068301,0.005818,-0.025209,0.017792,0.047829,0.014434,-0.08131,0.033889,0.035043,0.030034,-0.090161,-0.072271,0.050143,-0.032309,0.017288,0.014588,-0.000675,0.052665,0.023329,-0.047465,-0.023222,-0.046272,-0.057003,-0.041376,-0.005526,-0.060789,0.046479,0.070826,0.065307,-0.007969,-0.025406,-0.030572,-0.061632,-0.091947,-0.026632,-0.000736,-0.023151,-0.087003,-0.088683,-0.017496,0.011842,-0.089609],[0.047801,0.036225,-0.074004,-0.098149,0.029118,0.054462,0.040193,-0.043899,0.005382,0.009545,0.028451,0.038486,0.005926,-0.098993,-0.075342,0.075116,-0.071274,0.07342,0.050956,-0.02547,-0.054254,-0.065465,-0.073941,0.047069,-0.078052,-0.082198,-0.018128,0.079286,-0.04079,0.020317,0.025988,-0.078241,0.055269,-0.066567,-0.049546,0.012127,-0.031237,0.047055,-0.036926,-0.0567,0.047252,-0.079238,0.007102,-0.067638,0.02215,0.045923,-0.066666,-0.088381,-0.092389,0.013936,-0.008315,0.050777,-0.089995,-0.033585,0.007346,0.046636,0.044367,-0.029155,-0.102685,-0.007111,-0.020644,-0.048843,-0.076332,0.019042,-0.063891,-0.000344,-0.05104,-0.077335,-0.024645,-0.039984,-0.010132,-0.056418,-0.046683,0.009153,0.017141,-0.095153,-0.013987,-0.049993,0.00434,-0.001496,-0.079329,0.024728,-0.002816,-0.05651,0.018095,0.047265,0.043359,-0.027291,0.035939,-0.048859,-0.085433,-0.016708,0.015098,0.002686,-0.056248,-0.016788,0.046879,-0.018556,0.020922,-0.093618,0.016026,0.00777,0.02344,-0.077476,-0.087367,0.021255,0.06886,-0.044257,0.011043,0.003603,-0.055988,-0.041969,-0.039424,-0.072066,-0.083862,0.041677,0.049888,-0.018485,0.043386,0.070115,-0.056539,0.049236,-0.04952,0.061493,0.027116,-0.086507,-0.004465,-0.060611,-0.048247,0.032557,-0.039362,-0.089944,-0.009191,-0.006384,-0.051815,-0.0529,-0.067197,-0.028587,0.036179,-0.099968,-0.004031,-0.008186,-0.042469,0.005401,-0.003911,0.040362,-0.019538,0.053088,0.02936,-0.004405,0.047236,-0.033765,0.061122,-0.042566,-0.039718,-0.066662,-0.052302,-0.023359,0.000185,-0.048039],[-0.139526,-0.012337,-0.081012,0.339757,-0.001989,0.924539,0.050785,0.049953,-2.176197,-0.133531,0.070712,-0.012616,0.018862,0.340885,0.070908,0.057625,-0.035529,-0.003661,-1.652622,0.053527,-1.049953,0.086082,0.04408,1.351483,0.373576,-0.154536,0.167239,0.158253,0.102963,-0.117486,0.024178,-0.030663,0.19628,-0.198303,-0.035939,0.227513,-0.134369,0.224976,-0.066715,0.084208,-0.005307,0.152601,-0.110628,0.243664,-0.029333,-0.076794,0.328398,-0.18002,-0.014121,0.020521,0.208956,0.271562,0.107274,-0.032895,0.103637,0.704195,-0.047449,0.355668,-0.467516,0.151819,0.388802,0.050278,-0.057205,0.231842,-0.037384,0.144951,0.124092,-0.50672,-0.003599,-1.217824,0.076153,0.039441,0.011865,0.294247,-0.04815,0.155277,-0.05343,-0.799704,0.110571,0.138626,-0.262477,-1.597564,-0.849396,0.119903,-0.167783,-0.098729,0.006795,0.453427,-0.025116,0.371543,0.265654,0.083362,-0.158891,0.076283,0.115431,-0.217354,0.027373,-0.619386,0.221305,-0.339688,-0.038704,0.137503,-0.078744,0.501141,0.073319,-0.061401,-0.014417,0.30511,0.025693,0.051804,-0.310454,0.016431,0.096753,0.102152,0.038572,0.248328,0.014906,-0.058257,-0.088566,0.266125,-0.380869,0.315089,0.234062,-1.400676,-0.679199,-1.171243,-0.130683,-1.363209,-0.153345,-0.066567,0.257822,-0.184488,0.024215,-0.359137,0.068499,-0.044169,0.575859,-0.076601,-0.072332,0.211519,-0.787158,-0.080526,-1.101735,0.021503,0.31916,-0.682935,0.046616,-0.010096,0.080751,-0.281414,-0.046706,0.068479,-0.067839,0.318666,0.221307,-0.119888,-0.01234,0.100708,0.308439,0.092728],[0.117012,0.163075,-0.197904,-0.149367,0.039007,0.920081,0.413244,0.243957,0.827794,-0.185988,-0.420698,-0.028675,0.003038,0.905899,0.237121,-0.048139,0.000891,-0.029898,-0.224259,0.03943,-1.090122,-0.240058,-0.186009,-0.101403,0.221994,0.734203,0.40368,0.111146,0.028598,0.010872,0.181172,-0.264075,-0.165856,0.109415,0.138515,0.474697,-0.313748,-0.045157,0.121187,0.096592,0.076193,0.025287,0.125266,0.171478,-0.167573,0.141967,0.163297,-1.290257,-0.063298,-0.173826,-0.157563,0.40571,-0.139476,0.032964,0.057004,0.434856,-0.312691,-0.011241,-0.287476,0.071109,-0.351649,0.071811,0.037312,0.22831,0.081629,0.059939,0.073815,0.126108,-0.013297,0.85243,0.042529,0.065889,-0.035748,-0.354585,0.14922,-0.202104,-0.142734,-5.889039,-0.241317,-0.12329,0.041285,0.680136,-0.0856,-0.249995,-0.286513,0.027509,-0.046497,0.052343,0.194731,0.265765,-0.088685,-0.210082,0.406504,0.013951,-0.182379,0.085413,0.017868,-0.24602,-0.141637,0.38481,-0.054215,0.24249,0.044171,0.292763,0.179831,0.038179,0.027823,0.200331,0.050352,0.01294,-0.719097,0.365831,0.050238,-0.03529,0.06521,-0.106081,0.341878,-0.264286,-0.539372,0.060967,-0.277297,-0.088568,0.113797,-0.578729,-0.411496,-0.677177,0.023999,-0.669817,0.303351,0.253502,0.017669,0.148694,0.058268,0.434488,0.114365,-0.302124,0.107306,9.1e-05,-0.218193,0.019196,-0.57536,-0.221178,-1.229902,0.033387,0.849136,-0.811091,0.079991,-0.02017,-0.301554,-0.145289,0.166079,-0.010448,0.056229,0.2434,0.239519,0.796155,-0.148506,-0.036192,-0.025074,-0.1905],[-0.095558,-0.111861,-0.050081,-0.07819,-0.025613,-0.000697,-0.02013,-0.064829,-0.079979,-0.102344,-0.027435,-0.065703,0.039174,-0.018417,0.04223,0.031902,0.02235,-0.019605,-0.102967,-0.037678,0.048116,-0.014798,-0.069526,-0.078216,-0.001565,-0.01636,-0.063915,-0.130482,-0.12777,-0.049546,-0.100166,-0.125843,-0.048256,-0.087331,-0.052715,-0.044072,-0.12724,-0.073432,-0.050513,-0.03127,0.039485,0.002848,-0.070651,0.024152,-0.041425,-0.100621,-0.076391,0.021705,0.059369,-0.022604,-0.123886,-0.031517,-0.013446,0.023045,0.02116,-0.033124,-0.025487,-0.071561,-0.061672,-0.008269,-0.074306,0.053953,-0.055455,-0.007523,0.008587,0.000737,0.013489,0.008241,-0.013608,-0.049119,-0.093573,-0.058028,0.021644,0.008958,0.001521,-0.037043,-0.039162,-0.008177,0.054419,-0.07724,0.024773,-0.062938,-0.105535,-0.112294,-0.083499,0.063652,-0.070859,-0.031613,-0.124192,-0.085722,-0.044937,-0.022462,-0.00724,0.017134,-0.065259,-0.077431,-0.05842,0.03883,0.015145,0.000568,-0.100856,