export const distilledTurnArtifact = {"enabled":true,"passed":true,"version":"distill-turn-v4-fullrange","trainedAt":"2026-06-30T07:54:52Z","policyKind":"softmax-distill","blend":1.0,"appliesTo":"turn","featureNames":["equity","range_eq_0_10","range_eq_10_20","range_eq_20_30","range_eq_30_40","range_eq_40_50","range_eq_50_60","range_eq_60_70","range_eq_70_80","range_eq_80_90","range_eq_90_100","pot_odds","spr_norm","street_flop","street_turn","street_river","position_signal","to_call_flag","made_strength","draw_strength","wetness","paired","monotone","connected","range_advantage","blockers","range_percentile","range_weight","range_coverage","context_aggressor","three_bet","facing_bet","free_check","flush_blocker","nut_flush_blocker","top_blocker","board_pair_blocker"],"actionSets":{"open":["check","bet-small","bet-mid","bet-big","bet-over"],"facing":["fold","call","raise-small","raise-big","jam"]},"validation":{"val_kl":0.048878,"rows":338400},"model":{"type":"mlp-softmax","activation":"relu","layers":[{"weights":[[0.131187,2.458712,-0.735332,-0.31623,-0.051985,0.036127,-0.277783,0.257355,0.251784,0.07768,-0.46863,-0.389863,0.063831,-0.052002,0.019057,0.112321,-0.013027,-0.279247,1.040636,0.533442,0.050503,-0.304707,0.432044,-0.013444,-0.007618,1.168461,-0.116932,0.09867,-0.067645,0.161637,0.137364,-0.233538,0.065743,0.291132,0.044862,0.203086,0.072124],[0.612774,-0.361393,-0.294184,-0.288635,0.063936,-0.214152,0.492446,-0.541407,0.039607,-0.268941,-0.05572,0.342831,-1.659114,-0.100373,0.034623,0.090916,-0.121113,-0.161428,0.338585,0.005731,0.143442,-0.142558,-0.041218,-0.072453,-0.233376,0.10547,0.261602,0.082559,-0.11713,0.149188,-0.116316,-0.277499,0.306615,-0.032505,0.397224,-0.127342,0.150798],[-0.221856,-0.90049,-0.302254,-0.053455,0.556164,0.20993,-0.025663,0.251639,0.449985,-0.913986,-0.34153,0.861151,-1.983688,-0.003454,-0.028387,0.008417,-0.035469,-0.103244,0.09712,0.957621,-0.237328,-0.03959,-0.259716,0.159054,0.118707,-0.374903,0.215031,-0.033338,0.178393,0.049427,-0.111717,0.130713,-0.01248,-0.120316,0.102395,0.057854,0.022674],[0.144466,-0.487911,0.081548,0.114878,-0.047872,-0.204066,-0.179044,-0.274128,0.026892,0.342036,0.346374,-0.545703,0.106191,0.017625,0.030648,0.158536,0.023949,0.055786,-0.152105,0.084684,-0.13142,0.097738,0.033832,-0.004535,0.023172,-1.084302,0.059038,-0.063575,0.044062,0.117666,0.065226,0.117947,-0.143852,-0.013372,-0.396557,-0.01222,0.127661],[0.160665,0.392083,0.196223,-0.078899,0.005393,0.147416,-0.078335,0.223855,-0.133018,0.108251,0.224876,-0.410762,0.231542,0.044872,0.162827,-0.141353,-0.207466,0.065818,-0.613341,0.40877,0.050665,0.109193,0.239286,0.008429,-0.112044,-0.874652,0.045269,-0.168197,0.072652,-0.081416,-0.072084,0.002479,-0.025455,-0.070523,0.101445,-0.006433,0.21665],[-0.022693,-1.09818,-0.693008,0.389685,-0.286533,-0.077203,0.829438,0.245311,-0.294531,0.182841,-0.436946,-0.064148,-0.600629,-0.10405,-0.089022,0.048116,0.472159,-0.050339,0.69967,-0.846293,-0.052824,-0.631603,0.086889,0.030047,-0.079398,0.592597,-0.544747,-0.307494,0.122599,0.097051,0.162391,0.163147,0.019021,-0.137745,-0.123717,0.021051,0.005003],[-0.164642,-0.274559,0.128582,0.299377,0.020603,0.058298,-0.08789,0.029646,-0.066029,0.42468,-0.028274,0.724235,-0.255425,-0.09997,0.03935,-0.098547,-0.011506,0.00176,-0.040633,0.151294,-0.100128,0.195696,0.187421,-0.108803,0.03302,-0.238981,-0.12384,-0.063454,0.037866,-0.123632,0.049787,0.136434,-0.141395,-0.09176,-0.000913,0.097965,-0.13746],[0.16269,-0.39886,-0.220605,0.118829,0.01004,0.01229,0.004763,-0.440689,0.103173,0.0374,-0.257054,-0.431331,0.059979,-0.014554,0.040991,-0.059621,0.011615,-0.104265,0.002988,0.662489,0.02156,0.04875,-0.200872,0.023378,0.091971,-0.688757,0.259935,0.159997,-0.247437,-0.345075,-0.028533,0.092907,-0.405965,-0.115045,-0.377716,0.068715,-0.325667],[-0.030312,1.031067,0.303497,0.186266,0.019563,-0.189669,0.188696,0.205885,-0.008115,0.438776,0.382083,-0.32499,0.595366,-0.011138,0.038384,-0.083728,0.204021,-0.041957,-0.028859,0.004455,0.042665,0.011267,-0.000737,-0.127842,0.09081,0.184852,-0.294195,-0.165377,-0.079218,0.086877,-0.152481,0.222566,-0.112393,0.104909,0.453471,0.049805,-0.086983],[-0.117612,-0.156534,0.095059,-0.154939,0.227873,0.110967,-0.030569,-0.080242,0.121534,-0.075121,-0.318907,0.530729,0.082546,0.062472,-0.064702,-0.155501,0.23106,-0.082603,0.04568,-0.58594,0.080333,-0.044077,0.014829,0.07604,-0.11095,1.013052,-0.086535,0.031403,0.093998,0.150909,0.067539,-0.118092,0.005352,0.156274,-0.031951,-0.199213,0.229854],[0.552407,-0.231581,-1.077358,0.137447,-0.047144,0.705915,0.791051,0.458187,0.412825,-1.281132,-0.993468,0.017555,-0.619274,0.127614,0.082967,-0.106868,-0.003712,-0.022828,-0.418322,-1.933486,0.501761,0.187354,-0.270431,-0.18634,0.001264,0.438031,0.232414,-0.071001,-0.101653,0.101049,0.118737,-0.105842,0.059264,-0.153833,0.300257,-0.182178,-0.201348],[1.130019,-0.074405,-0.191603,-0.312706,-0.212111,-0.174459,-0.280015,-0.120211,-0.218358,0.006777,0.217629,-0.262882,0.215909,-0.1223,-0.090431,-0.00993,-0.040209,-0.611006,0.02802,-1.001202,-0.020086,-0.05125,-0.167519,-0.000866,-0.156762,-0.096069,0.533564,0.199497,-0.223397,0.117001,-0.005614,-0.514418,-0.04766,0.088651,-0.021434,-0.016618,-0.002084],[-0.088638,0.007152,-0.150905,0.071854,0.055518,0.027921,-0.168317,0.145175,-0.136696,0.080068,-0.154514,-0.077936,0.012998,-0.008392,0.047716,-0.161106,-0.070139,0.02573,0.098952,0.117566,-0.061825,0.01074,-0.107131,-0.034276,-0.029198,-0.09361,-0.169128,0.124971,-0.029089,-0.059306,0.141279,-0.025287,-0.051746,0.053073,-0.011807,-0.020068,0.051423],[0.073408,-0.007741,-0.104903,0.438024,0.048281,-0.166548,0.166437,-0.328697,-0.072552,0.076115,0.676305,-0.037245,-0.34741,-0.136543,0.027069,-0.106906,-0.050891,-0.083432,0.770026,-1.614117,0.046683,-0.290342,0.401784,0.119146,-0.022074,-0.355924,-0.234038,-0.173399,-0.020874,-0.03738,-0.126254,0.203923,-0.107482,0.019705,0.008315,0.042281,-0.678464],[-0.036838,2.192303,0.456303,-0.878671,-0.607821,0.09697,0.586584,-0.057466,-0.353616,0.26921,0.236084,0.247237,0.640031,-0.083172,0.05717,-0.08215,-0.370464,-0.291153,-0.054187,0.963111,-0.018257,0.258014,0.440156,0.31502,0.048893,-2.554351,-0.203417,-0.055039,0.086245,0.1824,-0.07682,-0.227934,0.292022,-0.169906,-0.300731,0.097855,0.041996],[0.029119,1.597748,0.178966,-0.365806,0.015769,0.087397,0.058359,-0.08859,0.333855,0.294839,-0.270407,-0.001235,0.705913,0.134784,0.105779,-0.157191,-0.213109,0.154696,-0.52409,-0.590964,0.072556,-0.240276,0.059095,0.003984,0.138098,0.863286,0.286801,0.032648,-0.013489,-0.049067,-0.073707,-0.093977,0.147115,0.048582,0.00552,-0.582252,-0.306225],[0.071052,0.113931,-0.097258,-0.133568,-0.106319,0.070935,-0.104222,-0.050325,-0.044939,0.117822,-0.160647,-0.108482,-0.021296,-0.1029,-0.103743,0.073553,-0.162362,-0.117234,-0.038351,-0.014916,0.032369,0.056355,-0.080963,-0.112851,-0.096401,-0.161432,-0.079112,-0.026345,0.137964,-0.016232,-0.084415,0.071312,-0.025517,-0.085925,-0.161786,-0.101751,0.105573],[-0.155486,0.151108,-0.009928,-0.009272,-0.064789,-0.150956,-0.126625,-0.014471,-0.04531,-0.013412,0.046746,0.131099,-0.134947,0.11688,-0.138883,-0.054834,-0.063439,-0.017095,-0.135869,-0.148819,0.155269,-0.152809,-0.124659,-0.155447,-0.122406,0.086694,0.109462,-0.132637,0.105976,-0.008541,0.117431,-0.160081,-0.116399,0.040681,-0.11829,-0.043479,-0.042082],[0.237321,1.094672,0.515213,0.065172,-0.231881,0.000588,-0.18677,0.379053,-0.189885,0.4983,0.249941,-1.091729,0.248061,0.045376,0.140998,0.053128,0.065999,-0.163659,0.287529,-1.784032,0.106237,-0.028328,-0.021064,-0.061117,0.158066,1.191263,0.0263,0.183774,-0.047073,0.18802,-0.000336,-0.16213,0.034856,0.334884,-0.179372,0.131575,-0.002204],[0.164124,-1.316942,0.4586,-0.086218,-0.327107,-0.029678,-0.106288,-0.320448,0.232867,0.136055,0.269826,-0.238407,0.41863,0.10482,-0.05683,0.113894,0.04857,0.024854,-0.042019,0.364687,-0.193282,-0.086998,0.022416,0.164956,-0.018397,-0.823636,0.224945,-0.07797,-0.187627,0.082127,-0.05518,0.119096,0.007957,-0.35756,0.050658,0.01297,0.099616],[-0.219132,0.429122,0.075166,0.107544,-0.011544,0.241044,0.029406,-0.041758,-0.035055,0.03472,-0.347779,0.513546,-0.05176,-0.079535,0.12322,-0.036825,-0.175745,-0.013225,0.234812,-0.259282,-0.105034,0.002535,-0.030912,0.047038,0.081809,0.372139,-0.001309,-0.072956,0.108002,0.111678,0.037053,-0.028336,0.073562,0.351866,-0.163552,0.066891,-0.102249],[0.169045,-0.699198,-0.335312,-0.01164,-0.050769,0.047022,0.142898,-0.179922,0.16081,0.054972,-0.557767,-0.9834,0.989785,-0.008909,-0.066624,0.129629,0.086129,0.085882,0.309904,-0.711576,0.062206,-0.066231,-0.097582,0.041737,-0.073104,0.275192,0.257847,0.257147,0.112511,0.055492,0.099055,-0.169149,-0.123094,0.010128,-0.081036,0.194969,-0.029765],[-0.032157,0.713868,-0.157362,-0.24959,0.590724,0.430281,-0.753055,0.222107,0.157244,0.341477,0.104579,-1.598354,-0.350305,-0.047585,0.245783,0.047412,-0.01727,0.013696,0.207021,0.307064,0.137238,-0.013298,-0.16841,0.029673,0.263766,-0.166953,-0.256347,-0.167248,0.341771,-0.038398,0.081183,0.31241,0.006531,0.046468,0.073924,-0.05749,-0.072307],[0.359832,0.08251,0.087702,0.055274,0.046919,0.044352,0.006846,-0.021537,0.143836,0.008389,0.203972,-0.539666,0.345596,0.035315,-0.086863,-0.01794,-0.032201,-0.028209,0.050021,0.775654,-0.04779,-0.02682,-0.020915,0.01362,0.158295,-0.725573,-0.030921,-0.070766,-0.046351,-0.137337,-0.093128,0.147662,-0.065118,-0.041687,0.175046,0.003361,-0.062945],[-0.237545,0.259445,-0.278642,-0.113522,0.244654,0.50342,0.364419,-0.24764,-0.240816,0.049689,-0.427635,0.427616,-0.214173,-0.060695,0.144583,-0.018781,0.142192,-0.135417,0.378549,-0.772083,0.189215,-0.006916,0.046388,-0.190848,0.11402,1.608443,-0.257857,-0.194953,0.200712,-0.042035,0.093803,0.01741,0.108446,0.075388,0.09978,0.023614,0.091775],[-0.246659,-0.003184,0.203783,0.442997,-0.359918,-0.144497,0.101621,0.02122,-0.516733,0.038804,0.698055,0.215678,-0.132753,-0.159569,0.190525,0.025065,-0.288102,0.119572,0.134737,0.265517,-0.042282,-0.310899,0.104956,-0.168717,0.109761,-1.411975,-0.094022,-0.117959,-0.047117,0.029523,0.020573,0.075514,-0.137331,-0.343772,0.456672,0.426753,0.102888],[0.168084,-1.093567,-1.034642,0.551464,0.397483,0.168531,0.760105,0.046535,0.098372,-0.702411,-0.217458,0.33104,0.305602,-0.015204,0.062192,0.009193,-0.41253,0.047844,0.851594,0.509385,-0.076494,-0.061225,-0.051022,-0.066456,0.151824,0.351602,-0.48932,-0.232412,-0.019073,0.193677,0.084998,-0.013591,0.265108,-0.084922,-0.223767,0.118041,-0.226573],[0.406358,-0.657994,-0.384899,-0.076175,0.176482,0.416737,-0.026791,-0.146648,-0.296108,0.010473,-0.377501,-0.38365,0.024173,-0.089887,-0.100246,0.102232,-0.002824,0.007674,-0.049091,0.474476,0.168286,-0.147877,0.143637,-0.077958,-0.019876,0.441801,0.372105,0.17544,-0.139247,-0.087691,0.132043,-0.052048,-0.16287,-0.132009,0.250424,0.002897,-0.237681],[-0.30043,-2.079009,0.552509,0.549342,0.280985,-0.323591,-0.331519,0.039254,-0.266079,0.673578,-0.607789,-0.171462,-0.128128,-0.130315,0.095053,-0.041917,0.409246,0.141146,0.652347,-0.317446,-0.045863,-0.099505,-0.358688,-0.334026,0.082618,-1.382269,-0.043146,-0.147343,0.073578,0.137819,0.135272,0.134074,0.196965,0.105489,0.158463,-0.014912,-0.831534],[0.132468,-2.103441,-0.21961,0.296258,-0.32622,0.469669,0.338139,-0.160558,-0.176842,-0.387922,0.152359,0.352846,-0.687935,0.073664,-0.004634,0.060732,0.076438,-0.035275,-0.786277,1.013914,-0.109044,0.090304,0.023973,-0.177921,0.059923,0.029695,0.298359,0.120116,0.028877,0.033632,0.017783,-0.022393,0.041042,0.064387,-0.421432,0.1589,0.807596],[-0.290588,0.942944,0.379568,-0.450788,-0.393476,0.566351,-0.065526,0.175322,-0.456606,0.052553,0.796139,-0.974581,0.776351,-0.146158,-0.040417,0.10255,0.245009,0.121722,0.430781,0.475918,-0.023428,-0.079536,-0.070658,-0.019336,0.057945,-1.051289,0.12228,-0.069699,0.232158,-0.391952,-0.140144,0.091944,-0.324382,0.152177,-0.503666,-0.061777,-0.047377],[-0.161486,1.185381,0.207197,-0.134791,0.185884,-0.182239,0.143979,-0.256366,0.179221,0.202892,0.139706,0.465029,-0.080958,-0.009633,-0.052293,0.104123,-0.331643,0.128925,0.067769,-0.682799,0.070732,0.220263,-0.243733,0.025971,0.139881,-1.099513,-0.172284,-0.017408,-0.050866,0.148288,0.14519,0.158978,0.115725,0.176262,0.054761,0.293702,0.370626],[0.087893,0.229665,0.034645,0.007284,-0.132109,-0.030395,-0.1198,-0.3719,0.448666,-0.097399,0.112285,-0.246195,0.517286,0.14844,0.040435,-0.099229,0.195262,0.092247,-0.146668,0.670258,0.04235,0.171613,0.157423,0.148942,0.058995,-2.000149,-0.081115,-0.068733,-0.259758,0.133119,-0.008339,-0.062806,-0.096638,-0.221928,0.083935,-0.255758,-0.022956],[-0.199038,-0.472043,0.253265,-0.289623,-0.26864,0.278573,-0.230137,0.22367,-0.098724,0.077145,-0.410297,0.456872,0.002785,0.135622,-0.063045,-0.11412,0.053217,-0.033413,-0.123328,-1.013955,0.19263,0.19667,-0.072385,0.190995,-0.109082,-0.798437,0.095456,0.108305,0.20235,0.11738,-0.006186,0.152911,0.074869,-0.09322,-0.31726,-0.175941,-0.138543],[0.359324,-0.515166,0.088875,0.135815,0.146916,-0.153908,-0.263948,0.338221,-0.345905,-0.162153,0.346012,-0.469261,0.042723,-0.126483,0.081244,0.051156,-0.196048,0.103138,0.337823,0.227268,-0.024683,0.178114,-0.135292,-0.106468,0.053635,-0.556826,0.156462,-0.000443,-0.050329,-0.119928,-0.004262,0.016523,-0.264218,0.405198,0.314728,0.009874,0.095035],[-0.175096,0.214675,-0.059151,-0.073501,0.070074,0.019783,-0.143151,-0.000552,-0.057948,0.099767,-0.239935,0.562604,-0.360063,-0.027672,-0.092292,-0.058506,-0.067571,0.061125,0.30298,-0.262166,0.076208,0.199285,0.065554,0.08161,-0.089107,0.662227,0.005819,0.083445,-0.054618,-0.135251,-0.079366,0.035828,-0.277107,-0.04119,-0.2595,-0.093251,0.005773],[-0.014329,-2.295731,0.513385,-0.609345,0.270583,0.019489,0.317824,0.311082,-0.504931,0.811989,0.533385,-0.281367,-0.546064,0.050676,-0.037821,0.074099,-0.25962,-0.033762,0.009387,0.885047,0.167249,-0.298586,-0.518436,0.244353,0.190268,-0.209235,0.243676,0.123261,-0.06225,0.136935,-0.061408,0.08296,0.290188,-0.045774,-0.400369,-0.000144,0.007642],[-0.140821,-0.173905,-0.266181,0.392708,0.177693,-0.473038,-0.040961,0.30534,-0.807816,0.585681,0.316602,-0.014813,-0.649704,0.11045,0.146922,0.06803,0.000949,0.110596,0.070434,1.038273,0.117957,-0.012983,-0.136976,-0.163768,-0.116955,1.279728,0.009372,0.055859,-0.068752,0.209974,-0.161622,0.065775,0.016126,0.129347,-0.203264,0.061026,-0.008654],[-0.097717,0.125197,0.088524,-0.103184,0.087543,-0.027811,-0.004811,-0.143089,0.062031,0.032413,-0.150006,0.106777,-0.127554,0.145136,-0.152279,0.100516,-0.071997,-0.072771,0.074945,0.0641,-0.118032,0.010331,0.109899,-0.11958,0.068699,0.106159,-0.146092,-0.004008,-0.105795,0.041704,-0.055896,0.12171,-0.08949,0.045384,0.013683,-0.041294,-0.115803],[-0.222284,-2.815733,-0.009608,0.239818,0.032873,-0.120038,-0.032874,-0.19162,0.209197,-0.17165,-0.64624,0.803865,0.101032,0.062443,0.040177,0.084985,-0.060374,-0.018198,-0.099424,-0.828518,-0.067043,0.022907,0.350165,-0.24051,0.109775,-0.911464,0.319989,0.225443,-0.075731,0.022797,0.007872,0.06096,-0.00322,-0.403099,0.369291,-0.097224,-0.354763],[-0.147148,0.126695,0.110428,0.088512,-0.125886,0.001755,0.154884,0.037525,0.074763,-0.020177,-0.148628,0.00705,-0.054205,0.103736,-0.010833,-0.035924,-0.145641,-0.091507,0.034859,-0.030734,-0.138049,-0.006459,-0.008719,0.00067,-0.076587,0.044545,-0.101743,0.080502,-0.099062,-0.162788,0.032423,0.091236,-0.074392,-0.083937,-0.044272,-0.086888,0.026836],[0.253642,-1.170375,0.087491,0.834394,0.127104,-0.76047,-0.276271,-0.222282,-0.459888,0.392595,0.974788,-0.197501,-1.39746,-0.121403,0.151466,-0.15299,-0.107612,0.123079,-0.271729,1.075185,0.150556,0.093655,0.120646,-0.036731,-0.114609,2.375896,-0.055652,-0.080342,0.012421,-0.00731,-0.063286,0.054863,-0.09469,0.206855,-0.358167,-0.121999,0.167392],[0.129868,-2.189694,0.450933,0.293041,-0.312256,0.275806,-0.360457,0.532325,-0.970893,0.693834,0.271129,-0.202768,0.201666,-0.128986,-0.022185,0.157035,-0.004726,0.068978,-0.429452,1.152085,0.281979,0.207252,0.136852,-0.178601,0.11463,0.878595,0.060971,-0.05545,0.069838,-0.046887,-0.080504,-0.132375,0.116117,0.218271,0.691845,0.273621,-0.049272],[0.105434,-0.155118,-0.584166,0.105028,0.066808,0.04353,0.269823,0.15612,-0.290801,0.125665,-0.422047,0.004786,0.043407,-0.095921,-0.008484,-0.068826,0.127898,0.01013,-0.583731,-1.723061,-0.035524,0.245765,0.148791,-0.074313,0.060207,-0.431642,0.23345,0.01039,0.003642,0.018522,-0.040871,0.038802,0.03787,-0.229513,0.059639,-0.104969,-0.614843],[0.102737,0.458025,0.107673,0.031376,0.042608,0.004215,0.011954,-0.275988,-0.013741,-0.056037,0.023457,0.724217,-0.743855,-0.042638,-0.167026,0.118072,0.047868,0.114111,0.058661,0.745564,0.217151,-0.001131,-0.035805,-0.060624,0.044867,-0.024683,0.310258,0.071571,0.059798,-0.182354,-0.108274,-0.173933,-0.199611,-0.16923,0.031072,0.177562,0.17985],[-0.224955,-1.444027,-0.879581,-0.121233,0.07955,0.181454,0.302098,0.32161,0.18571,0.148728,-0.480193,-0.474456,0.104773,0.073438,0.02317,-0.098017,-0.602676,0.190381,0.16802,0.022579,-0.103439,0.019869,0.217213,-0.245091,0.212626,2.135745,0.017374,0.098366,0.237858,0.003318,-0.123984,0.14986,-0.110484,-0.029999,-0.164175,0.245494,0.251688],[0.49384,-1.44627,-0.402558,0.267054,-0.02464,-0.026502,0.169661,-0.230547,-0.21122,-0.264725,0.138715,0.038595,-0.285666,0.063868,-0.098885,-0.137183,0.047487,0.106056,0.085255,-0.483476,0.241779,-0.149726,0.156124,0.16388,0.062089,-0.804001,0.207798,0.073701,-0.043624,-0.339759,0.037824,-0.049232,-0.089647,0.037203,-0.674319,-0.455698,0.739387],[0.199075,-0.624971,-0.007432,-0.091033,-0.138466,-0.289886,0.425585,0.035553,-0.221914,-0.387111,0.163992,0.416227,-0.65637,-0.141026,-0.078757,0.028812,-0.086901,-0.029036,0.125682,-0.006551,0.143124,-0.002619,0.279072,-0.11437,-0.137176,0.004014,0.403506,0.080221,-0.042919,-0.24321,-0.090356,0.097617,-0.282586,0.291354,-0.107157,0.265101,0.202218],[-0.079773,-0.122841,0.033598,-0.080612,-0.013721,0.024888,0.107168,-0.156502,0.160452,-0.128035,-0.119994,-0.118443,-0.065882,-0.160388,-0.132487,0.022254,0.031189,-0.030446,-0.039971,-0.088137,-0.060722,0.114903,-0.050058,-0.020333,0.036713,-0.051128,0.049643,-0.049992,-0.057203,-0.007653,-0.15005,0.138559,0.095856,-0.02604,-0.113722,0.029602,-0.161233],[-0.057813,-1.267095,0.514813,-0.352687,0.21883,-0.516787,-0.598082,-0.273379,0.365644,-0.343397,1.065131,0.9793,-0.36943,0.088862,0.046557,0.043316,0.157296,-0.004541,0.293768,2.660738,-0.152954,-0.121475,0.061418,0.104013,-0.095594,-0.49939,-0.091903,-0.139505,-0.120657,0.163927,-0.103912,-0.007934,0.169391,-0.490519,0.017784,0.077736,0.029974],[0.092352,-0.040391,0.054004,-0.012809,0.009223,0.065468,-0.070581,0.067471,-0.007645,-0.077231,-0.131742,0.104467,-0.158822,-0.127584,-0.089041,0.138804,-0.052013,-0.000749,0.085047,0.050711,0.02689,0.118648,-0.06808,-0.071107,-0.142392,-0.141306,0.066496,-0.092555,-0.116945,0.11575,0.000546,0.06322,-0.152837,-0.028336,0.004739,-0.038129,-0.116981],[-0.313825,-1.073559,-0.019223,0.18836,0.387675,-0.084035,-0.10181,0.120546,0.001839,-0.089808,0.054747,0.598704,0.062324,0.142391,0.056774,-0.131755,-0.21987,-0.095699,0.231879,-0.790226,-0.195596,0.042237,-0.015744,0.188237,0.20511,0.70188,-0.039009,0.048135,0.07601,0.055124,0.093826,-0.096512,-0.032806,0.157368,0.482041,0.036616,0.305107],[0.169232,-0.122197,0.125139,0.025933,-0.0305,-0.01621,0.132329,-0.2791,-0.04738,0.393857,-0.303205,0.659512,-0.109206,-0.135739,0.031341,0.003511,0.102094,-0.099062,-0.079625,-0.856494,-0.021088,0.206006,-0.123262,-0.07409,-0.046558,-1.806443,0.133991,0.165315,0.141132,-0.043913,-0.005742,-0.104854,0.037196,0.098377,0.240557,-0.501949,-0.058095],[-0.381187,1.039424,0.111426,0.088806,-0.379568,-0.093085,-0.420807,0.025677,0.244753,0.13753,0.120929,-0.020258,1.613478,0.12457,0.124042,-0.09224,-0.078322,-0.069602,0.539883,0.42967,0.059542,-0.241948,-0.064412,-0.066579,-0.09736,0.85724,0.048318,0.00092,-0.005457,0.055973,0.077568,0.009406,0.073468,-0.004226,0.03809,0.051775,0.151417],[-0.15801,-0.345268,0.061191,-0.126813,-0.298016,-0.16977,-0.154478,-0.429608,1.258404,0.242898,-0.221747,0.545912,0.420131,0.114779,0.06501,-0.046233,0.062046,-0.111938,-0.058365,-1.312726,0.115182,-0.022978,0.176379,0.053667,0.160429,1.697455,-0.216668,0.059109,0.103468,0.05279,-0.093988,-0.065464,-0.088473,-0.052437,0.14224,0.008127,0.05012],[0.204197,0.102556,0.055298,0.203244,-0.177857,-0.152201,-0.296924,0.179601,0.222864,-0.090345,0.29037,-0.37503,0.523492,-0.048975,0.161971,0.01853,0.188646,-0.100988,0.151311,-0.640698,-0.058121,0.095105,0.170103,0.043186,-0.082704,-0.1642,-0.153555,-0.199829,0.127119,-0.406062,0.116933,0.129696,-0.295157,-0.346747,0.079283,0.022571,0.13582],[0.038094,0.906056,0.08874,0.362812,0.001793,0.323565,-0.433217,-0.21664,-0.610142,-0.085153,1.22762,0.792798,0.117134,-0.012216,-0.086717,0.055713,0.024705,0.048806,-0.224008,0.735677,0.027699,-0.1239,0.249079,0.005765,0.057298,-2.48549,0.006301,0.136139,-0.124192,-0.069019,0.069505,-0.011991,0.120941,0.135544,0.096472,0.10187,0.200845],[-0.015927,-1.39559,0.162597,-0.358879,0.06107,-0.104431,0.465636,0.024684,-0.246532,0.569808,-0.309064,0.024232,-0.481769,-0.009588,0.038455,-0.158989,-0.138617,0.050821,-0.616273,-1.027526,0.306461,0.062545,-0.255933,-0.173045,0.172852,0.069941,0.095287,-0.02579,0.178335,0.106927,0.077224,-0.055464,0.343791,0.084629,-0.342033,0.01149,-0.465426],[-0.298878,-2.695879,-0.118833,0.223198,0.005232,-0.054527,0.338397,0.681386,-0.054721,-0.461315,-0.203661,-0.911526,0.37347,-0.161995,-0.077665,0.001975,0.202118,0.026988,-0.091605,0.305953,-0.264987,0.310156,0.003911,0.275094,-0.07382,1.727338,0.102709,0.181277,0.065839,-0.288325,0.038392,0.097724,-0.193744,0.178649,-0.898119,0.184327,-0.063297],[0.176746,-2.687939,-0.215144,1.206926,0.41155,-0.818791,0.097803,0.080658,-1.630157,0.920671,-1.237807,0.732938,-0.422986,-0.078138,-0.106763,-0.022474,0.306803,-0.166858,-0.480145,-1.032189,-0.136656,0.006079,-0.010783,0.092824,-0.059154,-0.146935,0.050257,0.043886,0.203354,0.207888,0.066198,0.070415,0.045881,0.211331,0.298913,0.070431,0.080429],[0.144758,-0.297729,0.521908,-0.101994,0.177227,-0.230627,-0.074522,-0.079345,-0.334101,0.024306,-0.004447,0.603626,-1.571604,-0.097848,-0.008966,-0.118476,-0.134186,0.165654,-0.086531,1.748655,-0.026215,0.004628,0.189153,-0.085006,0.135361,-0.356885,0.090714,-0.037673,-0.009268,0.191884,-0.012905,-0.018519,-0.043267,-0.014266,0.038759,0.022812,0.041275],[-0.392526,0.026646,-0.561529,0.570427,0.163546,-0.379295,0.42617,-0.092374,0.220754,-0.394287,0.310012,-0.057701,0.652698,0.048417,0.184758,-0.01316,-0.159317,0.217237,0.176408,-0.624398,0.075451,-0.161846,0.001963,-0.068637,0.152671,-0.703732,-0.147814,-0.175772,0.021373,0.041011,0.101935,-0.062664,0.149759,0.272923,-0.145706,0.06734,0.218545],[0.030419,0.117916,-0.015266,0.073849,0.13262,-0.02757,-0.027179,-0.040921,0.105039,0.144714,-0.020006,-0.00886,-0.13936,-0.161241,-0.120126,-0.137673,0.065835,-0.130296,-0.153245,-0.075532,-0.059477,-0.104921,-0.099481,-0.052598,-0.116887,-0.144225,0.07145,-0.062035,-0.061135,-0.114247,0.054032,-0.061073,-0.020062,0.055085,-0.149825,0.017946,-0.144438],[0.322424,1.055045,0.196991,0.029219,-0.000789,-0.000348,0.105826,0.119127,-0.14422,0.087494,0.155547,-0.463087,0.27925,0.06059,-0.120045,0.088026,-0.051308,0.18091,-0.254083,0.15713,-0.065974,-0.281219,-0.293671,-0.175922,0.049195,-0.026875,0.103494,0.045821,-0.146146,-0.41675,0.067197,0.130438,-0.243064,-0.025653,-0.016887,-0.289271,-0.07366],[0.392953,-0.940328,-0.403035,0.130497,0.199899,0.27077,0.025875,-0.234812,0.216155,0.12089,-0.613238,-0.181914,0.297831,-0.051864,-0.158658,0.046436,0.106765,0.015503,0.262589,0.19766,0.152663,-0.152036,-0.076538,0.259118,-0.063482,0.736546,0.195359,-0.065342,-0.167004,-0.140652,-0.055881,0.065328,-0.181168,-0.178002,-0.011928,0.406988,-0.171531],[0.626805,-0.456167,-0.435366,0.165638,-0.136533,0.514571,0.536209,-0.4908,-1.135629,-0.482642,-0.363855,-0.551862,0.714621,-0.056706,-0.158885,-0.135359,-0.049291,-0.488605,-0.550067,-0.325992,0.07154,0.01855,0.079274,-0.019853,-0.356392,2.011319,0.650388,0.409475,-0.210208,0.063819,-0.157272,-0.681811,-0.114331,-0.316686,-0.182687,0.130799,-0.423958],[-0.168461,-0.880334,-0.493787,-0.500118,0.361952,0.291987,0.640158,-0.464794,0.591134,-0.239392,-0.206814,-0.086511,0.697704,-0.078206,0.10879,0.109659,-0.178303,0.127516,-0.223058,-2.13267,-0.057259,-0.051251,-0.092154,0.082971,0.166782,0.761945,-0.244308,-0.141667,0.136525,-0.054492,0.13026,0.144887,-0.000107,0.157615,0.167957,-0.09439,-0.237815],[0.093681,0.064127,-0.002411,0.112143,0.044079,-0.095163,-0.169539,0.122168,0.071267,-0.171463,-0.058781,0.098313,-0.003135,-0.066607,-0.122132,-0.130581,-0.162381,-0.074141,0.105162,-0.10622,-0.10965,0.071193,0.086798,0.13008,-0.030268,-0.070089,0.068645,-0.064755,0.021811,-0.105053,0.150757,-0.160552,-0.021207,-0.085885,-0.091217,-0.158296,-0.031564],[0.473408,0.14435,0.090319,0.154708,0.04495,-0.047026,-0.747737,-0.005163,-0.016752,0.193781,0.849458,-0.125251,-0.552366,-0.117239,-0.062523,-0.117607,0.007937,0.135053,-0.57579,1.128498,0.182396,0.066493,-0.081707,-0.02187,-0.138494,-0.305744,-0.054518,0.011117,-0.09604,-0.164656,0.112898,-0.062217,-0.054578,-0.213988,0.072753,0.144891,0.056194],[0.721557,0.176274,-0.031878,-0.326124,-0.41962,0.178901,0.08308,0.340126,0.19973,0.165048,-0.410257,-0.366988,0.706841,0.042498,-0.001639,0.042686,0.058483,-0.806266,0.682172,-1.234117,-0.088194,0.195849,0.023499,0.041262,-0.133133,1.003288,0.03755,-0.035303,0.092293,-0.095248,0.051763,-0.807948,0.060175,0.12175,0.800744,0.113518,-0.246398],[0.182348,1.895097,0.690712,-0.362301,-0.25556,-0.481965,0.138541,-0.085429,0.435937,0.476513,0.394826,0.045503,0.381439,-0.157244,0.038973,-0.141177,-0.141764,0.008021,-0.21149,1.106565,0.031941,0.371361,-0.121675,-0.117228,0.178262,0.438478,-0.401598,-0.012896,-0.062221,0.053783,-0.161988,0.123923,0.076466,-0.01237,-0.224569,-0.121425,0.209284],[-0.187353,0.353387,0.033488,0.160666,0.108403,0.092095,0.053596,0.028515,0.111694,-0.091645,-0.248935,0.631397,-0.540644,0.154562,0.123949,-0.157194,0.164509,-0.004511,-0.120649,-0.157684,-0.081292,0.115171,-0.204116,0.048986,0.137841,0.802799,0.047792,0.087058,-0.056444,-0.21459,0.091754,-0.018182,-0.132253,0.256227,-0.073453,0.161062,-0.032837],[-0.048918,0.969597,-0.476821,0.167541,0.358031,0.209795,-0.176484,-0.243128,-0.053352,-0.063575,-0.16164,0.811308,-0.956415,0.008485,0.122468,0.053287,-0.028129,0.080905,0.187968,0.447759,0.051993,0.083832,0.244904,0.058519,-0.192037,0.865473,-0.146746,-0.011418,0.169279,-0.023024,-0.155533,-0.103616,0.034044,0.121071,-0.334712,0.235429,-0.04577],[0.160286,0.042535,0.181305,0.107738,-0.123397,-0.059995,-0.313542,0.214657,0.055108,-0.125275,0.401857,-0.28737,0.540672,0.001002,0.142811,0.030368,-0.008742,0.177603,-0.303349,0.160547,-0.051921,0.221467,0.066311,-0.182795,0.033772,-0.13321,-0.216307,-0.078079,-0.104857,-0.280306,-0.12976,0.071124,-0.029511,-0.13345,-0.535444,0.168682,0.090322],[0.357862,-0.480397,0.503407,0.060717,-0.001325,-0.08991,-0.25033,0.46537,-0.219856,-0.673935,-0.31564,1.277282,-1.286575,-0.087735,-0.125796,-0.072584,-0.047308,-0.192206,0.25289,-0.271003,-0.1494,0.002925,-0.01663,0.075632,-0.25624,0.057859,0.371895,0.281997,0.102817,0.056311,-0.059629,-0.203357,0.100557,0.08943,-0.04184,0.091352,-0.001172],[0.509003,-1.391198,-0.346384,0.195565,0.014665,-0.022797,0.29701,-0.050215,-0.078398,-0.063116,-0.012684,-0.050066,0.325433,0.120414,-0.185233,-0.038243,-0.124226,-0.037312,0.246908,0.003512,0.10322,-0.181404,0.12782,0.158261,0.080582,0.177419,0.108687,0.203584,-0.00932,-0.103601,-0.020699,0.099642,0.065461,-0.132413,-0.162755,-0.224811,-0.481099],[0.003323,0.111123,0.022442,-0.062149,0.117074,-0.03084,0.05242,-0.058357,0.090915,-0.165201,-0.061496,-0.042749,-0.093326,0.014888,-0.088852,0.031235,0.035677,0.036702,0.113975,-0.122321,-0.063112,-0.045249,0.03918,0.053293,0.015079,-0.142405,-0.130386,-0.027049,-0.135307,-0.146986,-0.147633,0.069133,-0.161821,-0.09684,0.081956,0.030363,-0.152447],[-0.027308,-0.024909,0.017064,-0.0493,0.087409,0.093397,-0.065312,-0.117215,-0.083344,-0.178745,-0.050507,-0.146029,-0.117858,0.030092,-0.118626,-0.021023,0.0039,0.113225,0.138802,0.095143,0.077538,-0.028027,-0.047169,-0.138214,-0.062354,0.029548,-0.127206,0.020274,0.080809,0.10199,-0.024517,-0.009856,-0.035167,-0.008764,0.152794,0.001065,0.057031],[0.129931,1.024133,0.480726,-0.308403,0.063805,-0.220679,-0.265225,0.180938,0.250949,0.104473,-0.229072,-0.239551,0.628445,-0.024065,0.139957,0.011171,0.165306,0.052044,-0.427149,0.137088,-0.035677,-0.063008,-0.174527,0.109191,-0.105602,-0.378771,0.045074,-0.016455,0.040429,-0.063461,0.051162,-0.075743,-0.064808,-0.020943,0.013841,0.04295,0.090657],[-0.184173,-1.761971,-0.627759,-0.176739,0.161497,0.056036,0.380014,0.231558,-0.483093,-0.354453,-0.256016,-1.024966,0.671661,0.056168,-0.089732,0.027144,-0.150931,-0.059199,0.334283,1.481677,-0.118345,-0.076171,-0.102093,-0.033744,-0.168716,-0.51925,0.113764,0.187792,-0.175911,-0.052459,0.130574,0.015854,-0.032941,-0.176302,-0.009743,0.519842,0.474221],[0.534557,-0.10546,-0.223957,-0.172125,0.632488,0.013765,0.128843,0.070838,-0.340684,0.049423,-0.612878,-0.206956,-0.46107,0.140021,-0.047672,-0.010736,0.049036,-0.100983,0.300522,-1.220389,-0.011766,0.017663,-0.066554,0.044645,0.052246,0.949747,0.322929,0.283291,-0.0656,-0.187878,0.006943,-0.0027,0.020697,0.081923,-0.079021,-0.238888,0.302954],[0.500401,-0.171489,0.15873,-0.384561,-0.312046,0.213698,0.310512,-0.179197,0.188143,-0.312335,-0.167361,-0.488032,-0.069046,-0.011355,-0.003506,0.085903,-0.104906,-0.156594,0.595758,-0.815578,0.275773,0.033237,0.135982,-0.037562,0.044804,1.322301,0.291988,0.156207,-0.219061,-0.023127,0.044517,-0.163577,0.007402,0.093405,-0.0277,-0.060129,0.167548],[-0.298653,0.614133,0.126114,0.095059,-0.497483,0.070571,0.372984,-0.496633,0.49518,-0.020015,0.596331,-0.693558,-0.044245,-0.078842,0.07482,-0.045794,-0.113692,0.016241,0.076218,0.645121,-0.066401,0.064969,0.143424,0.074363,0.025075,0.349667,0.121808,0.176788,0.051797,-0.081986,0.104388,0.062896,0.050775,-0.053823,0.205759,-0.008555,0.367971],[0.196711,0.946241,-0.07953,0.165259,0.057261,-0.477093,-0.104519,0.119859,0.1281,-0.167096,0.356439,-0.021953,-0.273027,0.126398,0.092577,0.033802,-0.172207,0.134772,-0.585076,0.533774,-0.078967,0.157613,0.094973,-0.150196,-0.170358,-0.880664,0.383836,0.248336,-0.231049,0.146107,-0.090095,0.087622,-0.094557,0.182784,0.019912,0.100784,-0.360215],[-0.091832,0.518771,0.008511,-0.491754,-0.188648,0.458409,0.094385,-0.124859,0.155343,-0.198171,-0.286949,0.622083,-0.043205,0.059299,-0.028121,0.117095,-0.147052,0.054313,-0.118502,-0.292903,0.060151,-0.207053,-0.166451,0.197783,-0.028467,-0.853883,0.169821,0.094764,0.159118,-0.074252,-0.086899,-0.061134,-0.289524,0.256168,-0.060802,-0.264048,0.382863],[-0.380202,0.449768,0.390439,-0.535067,-0.064289,-0.040753,0.266631,0.168834,0.028575,0.156873,-0.346796,0.358342,-0.32583,0.110911,0.027775,-0.129485,0.043159,0.05615,-0.054651,-0.317883,0.110896,0.005112,0.024645,0.022808,0.032894,-0.397576,-0.045284,0.007254,0.095055,-0.06357,-0.002406,0.148108,-0.01413,-0.207426,-0.277333,0.120355,-0.269791],[0.388194,-0.720984,-0.024267,-0.033143,-0.120215,0.25352,0.114908,-0.139107,0.019987,-0.0146,-0.338349,0.173351,0.049291,0.096279,-0.082076,-0.118026,-0.011605,-0.140839,0.054529,-0.493445,0.088793,-0.135817,-0.055835,-0.064989,0.004186,0.372312,0.33249,0.080622,-0.078228,0.047784,-0.152725,0.046832,-0.020357,0.061515,-0.212988,0.171743,-0.085733],[0.337821,1.168124,0.051312,-0.286503,0.016032,-0.125614,-0.235122,0.158553,0.178051,-0.283992,0.348101,-0.572251,0.253966,-0.160403,-0.159831,-0.074188,0.218034,0.03731,-0.235186,0.524791,0.088951,-0.056682,0.184262,-0.190986,0.11381,-0.795923,-0.070355,0.113672,-0.048346,-0.017561,-0.060524,0.171122,-0.188636,0.043453,-0.010105,0.136298,-0.056231],[-0.230885,0.684959,0.340264,-0.235887,0.127167,0.027292,0.29154,0.013031,0.438746,-0.21115,-0.166662,0.47897,0.094954,0.086615,0.049429,0.07374,0.019373,0.071749,-0.148416,-0.432904,-0.154916,-0.062267,0.045882,0.029962,-0.088757,0.141002,-0.082847,-0.061097,0.128887,-0.078711,0.130861,0.125913,-0.033168,-0.042866,0.168771,-0.188042,-0.257761],[0.219027,-1.175647,-0.51951,0.602183,0.260324,0.321392,-0.218668,-0.114932,-1.000636,0.180205,0.171141,0.6343,-0.676241,0.099546,0.112966,0.074053,0.004185,0.082245,0.67406,0.151794,-0.020647,0.144215,0.137905,-0.055136,-0.101218,-1.560025,-0.051313,-0.099038,-0.053781,0.07008,0.13211,-0.170791,0.067623,-0.389125,0.161476,-0.000774,-0.42517],[-0.062191,-0.621545,0.34738,-0.041759,0.11836,-0.172458,-0.200638,0.046139,0.51342,0.357378,0.050562,0.63426,-0.078914,-0.120943,-0.069562,-0.011333,-0.047115,0.023217,-0.121915,-0.48777,0.19672,0.070584,0.072199,0.047,0.044772,0.48085,-0.166224,-0.204354,0.141302,0.147164,0.026242,-0.001478,0.017448,0.101881,-0.014786,-0.114303,-0.153789],[0.128982,-1.639663,-0.198447,0.173059,-0.101731,-0.246432,-0.75087,-0.364683,-0.014211,0.296796,0.099818,0.542542,0.729606,0.082316,-0.108876,0.146909,-0.041741,-0.190809,0.567854,0.840794,0.046731,0.344706,-0.008403,0.049984,-0.104635,0.463143,-0.026426,-0.167696,0.152688,0.046336,-0.087277,0.019152,-0.124718,-0.1777,-0.001959,-0.040576,-0.091109],[-0.356495,-0.394854,-0.0236,-0.022906,0.193253,0.336263,0.059041,0.019449,0.277098,-0.109987,-0.228896,0.061322,-0.199068,0.011406,0.191959,-0.028215,-0.006277,0.09566,0.336086,-0.64163,-0.053257,-0.209842,-0.119751,0.017901,0.233029,0.601703,-0.164088,-0.107334,0.305962,0.013745,0.112526,0.180736,-0.096602,0.185401,-0.452201,-0.188904,0.194915],[0.056269,-0.066626,0.016173,0.015373,-0.044858,-0.120752,-0.104107,0.004952,-0.088276,0.007431,-0.002232,0.051735,0.111506,0.040795,-0.022061,-0.006048,0.013914,-0.124712,-0.052333,-0.075268,-0.050916,0.151411,-0.031809,-0.046005,0.017093,0.063194,-0.111196,-0.077113,0.027374,-0.047786,-0.026201,-0.15482,-0.149308,0.02202,-0.034301,-0.143117,0.05764],[0.132385,-0.686941,0.327398,0.073631,0.109077,-0.16029,-0.066207,-0.302666,-0.312613,0.388364,0.119328,0.264599,0.079314,-0.152351,0.009256,0.151563,0.251196,-0.114018,-0.077277,0.857889,-0.109132,-0.033941,0.176141,-0.000235,-0.163295,-1.335957,0.007806,0.106764,-0.165855,0.016052,-0.129407,-0.053474,-0.083652,-0.361937,0.235776,-0.03081,-0.021763],[-0.08992,-0.712262,-0.251907,0.187466,0.156383,0.309102,-0.078517,0.052661,-0.340968,0.140618,-0.170074,0.582569,0.282015,0.152093,-0.083269,0.045553,0.055604,-0.092942,0.041587,-0.414316,0.127507,0.081354,-0.048787,-0.025348,0.055253,1.110644,-0.090616,0.042259,-0.132945,-0.11581,-0.116049,-0.10652,0.122215,-0.100176,0.009149,0.137029,0.086174],[-0.245204,0.551531,0.148307,0.475772,-0.099519,0.014425,0.275966,-0.180577,-0.240566,0.781281,-0.294472,-0.090077,-0.315514,-0.071508,0.006872,0.143066,0.113614,0.327933,-0.440801,-1.130519,0.348224,0.17437,-0.114851,-0.147293,-0.004875,0.012187,-0.237305,-0.019943,0.007195,-0.084684,-0.112275,0.326787,0.0226,-0.523528,-0.023618,-3.3e-05,-0.252478],[-0.081495,0.07811,-0.441555,0.239794,0.2112,-0.245612,0.510938,0.142805,-0.294656,0.115576,-0.141602,0.006855,0.133155,0.004942,0.139895,-0.088533,0.357735,-0.034541,0.378027,0.011418,0.239867,-0.15595,-0.044412,-0.092685,0.09176,-0.341373,-0.162087,0.037487,0.062189,-0.029386,0.045249,-0.132458,-0.006196,-0.122279,0.679774,0.018422,0.140352],[-0.101133,0.232997,-0.120905,0.341975,0.223889,0.036752,0.113843,0.043509,0.115559,0.070545,-0.054946,-0.658178,0.069792,-0.117511,0.202154,0.035552,0.265721,0.056489,-0.632336,-0.126209,0.039874,0.071344,-0.187665,-0.041362,0.080283,-0.424506,-0.104779,0.063525,0.029694,-0.114653,0.138251,0.024602,-0.136722,0.077326,-0.056072,-0.059419,0.349708],[0.029184,1.122666,0.582895,-0.255676,-1.123644,0.365703,-0.146269,0.449804,0.311593,-0.153017,0.147725,-1.1384,0.491664,0.071266,-0.023999,0.095188,0.074871,-0.051119,0.6031,-0.973994,0.098057,0.278856,0.063148,-0.197449,-0.114421,0.930705,0.115316,0.015579,-0.055392,0.069697,-0.092417,-0.066357,-0.061004,0.16208,0.106716,0.281747,-0.146909],[-0.425471,-0.40795,-0.130817,0.066751,0.028256,-0.087414,0.495796,0.179981,0.304063,-0.00882,0.084548,0.12973,0.781898,-0.099409,0.141574,0.116258,-0.037851,0.128462,0.136552,-0.401641,0.084456,-0.050427,-0.019199,-0.076333,0.17877,0.161973,-0.292803,-0.274097,-0.106151,0.206209,0.163252,0.039341,0.081096,0.195554,0.06464,0.138132,-0.228474],[-0.080006,-0.10319,-0.093616,-0.075388,-0.034833,0.086837,-0.164434,0.096861,0.034493,0.000188,0.026113,-0.015261,-0.11567,0.012945,-0.177651,0.102103,-0.178765,-0.154549,-0.182775,0.042734,-0.179919,-0.169203,-0.033769,-0.004566,-0.070785,-0.121899,-0.186174,0.052085,0.122484,0.104107,0.021717,-0.061688,-0.031047,0.046515,0.121319,0.06982,0.141957],[-0.111172,0.152671,-0.072819,-0.129002,-0.150383,0.133256,-0.075136,-0.161693,-0.118616,-0.014639,-0.100396,0.062709,0.05204,-0.047673,-0.020725,-0.071961,-0.014498,-0.147331,-0.051776,-0.05722,-0.096676,0.011728,0.063698,-0.037553,0.149241,0.103246,-0.058332,-0.032992,0.076854,0.050808,-0.086214,-0.142248,-0.072043,0.055471,-0.056437,-0.090538,0.048052],[0.181013,-0.427678,-0.460365,0.225459,0.237233,0.252625,0.13257,-0.315644,0.041106,-0.053252,0.436354,-0.580179,0.082049,-0.030235,-0.100051,0.068383,0.062812,0.01313,0.098002,0.460482,0.195045,0.102534,-0.038097,-0.089875,0.012651,-0.779517,-0.148722,-0.082616,0.163931,-0.055348,-0.124397,0.216102,0.015476,0.246026,0.373413,-0.043048,-0.036362],[0.345508,-0.289563,0.34587,-0.050411,-0.163539,-0.102918,-0.075279,-0.051119,-0.37043,-0.115963,0.470134,-0.074528,0.418421,0.030472,0.020695,0.09472,-0.149876,0.055953,-0.426151,0.44891,0.03358,0.179413,-0.221345,0.043287,-0.131967,0.416333,0.196435,-0.10304,0.077261,0.109658,0.000425,0.036046,-0.099474,-0.024945,0.133776,0.037779,-0.337263],[-0.006698,-0.089163,-0.061282,0.055536,0.053234,-0.071251,-0.163228,-0.023042,-0.165824,0.051683,-0.055939,0.044826,-0.146398,0.080448,0.077131,-0.064107,-0.005932,-0.057113,-0.174395,-0.178666,-0.167978,-0.021735,0.041415,-0.109991,-0.044013,0.047106,-0.127033,-0.011676,0.047579,0.111691,0.102901,0.0115,0.060065,0.021996,-0.158565,0.039747,-0.079505],[-0.106594,-0.15399,0.137061,0.050146,-0.000252,-0.0218,0.009369,-0.066812,-0.038382,0.093801,-0.090736,0.113819,0.096475,0.028487,-0.126785,-0.090956,0.111206,-0.160865,-0.137851,0.019359,-0.00476,-0.101487,0.150768,-0.037701,-0.142805,0.031584,-0.095075,0.016468,-0.063732,-0.113482,-0.065587,0.045924,0.143749,-0.058527,0.119877,-0.107827,0.107516],[0.059694,1.357384,0.467859,-0.183131,-0.206425,0.17756,-0.161929,-0.274095,-0.403285,0.45763,-0.113697,0.196676,0.356227,0.107795,0.091044,0.137623,0.25572,0.103091,0.310039,-1.187531,-0.076077,-0.073379,-0.116235,-0.151539,0.070592,0.090101,-0.459176,-0.149649,-0.014049,0.259321,0.039391,-0.002583,0.249493,0.196449,-0.07518,0.254253,-0.960879],[-0.082491,-0.154251,0.053822,0.084684,-0.027399,0.100528,-0.069896,-0.067028,-0.076368,0.15219,0.029414,0.123727,0.13678,0.101292,0.075414,0.158405,-0.077082,-0.109209,-0.024736,-0.034115,0.02378,-0.075564,0.019986,-0.135831,-0.157878,0.151665,-0.114613,-0.081485,-0.151593,-0.115247,-0.105293,-0.137464,0.09421,0.124101,-0.072871,-0.156874,-0.006994],[0.128211,-0.017511,-0.036738,0.127012,0.087691,0.097397,0.035198,0.082188,0.145472,0.039521,0.110961,0.084252,-0.023662,0.093563,-0.095118,0.060146,-0.036847,-0.035841,-0.171637,-0.015325,0.131821,-0.095753,-0.063812,0.14819,0.003633,-0.047082,0.07829,-0.107896,-0.076833,-0.022105,0.029104,-0.121672,-0.157583,-0.026983,-0.037947,-0.076003,0.040623],[-0.049361,-0.634787,-0.263608,-0.348279,0.031136,0.283939,0.581533,-0.006199,-0.274879,-0.522496,-0.241422,0.388745,-0.781582,0.09897,-0.060003,0.078623,-0.484932,0.112227,-1.286602,0.47042,-0.076387,-0.052886,0.158627,0.080977,0.057352,-2.602805,0.31097,0.110201,-0.133172,-0.23708,-0.046518,0.088924,0.000687,0.50973,-0.050352,0.091839,0.357403],[0.023287,-0.506209,0.188247,0.145123,0.076926,0.113512,-0.236619,0.259133,-0.197372,0.202983,0.068701,0.242301,-0.176614,-0.124189,0.001744,-0.098246,0.050546,0.186371,-0.068863,0.013997,0.110704,-0.030434,0.254516,-0.029588,-0.019959,-1.002325,-0.128933,-0.091073,0.265532,-0.152172,-0.018023,-0.043765,-0.197688,0.155694,0.086043,0.240392,0.104989],[0.355497,-1.271564,-0.440068,0.421698,0.28366,-0.656681,0.428833,0.492365,-0.144013,-0.333396,-0.352967,-0.82585,-0.619017,-0.077131,0.13274,-0.160067,0.03761,-0.112481,-0.674826,-0.025213,0.043366,0.033946,0.169777,0.086013,-0.019955,0.515377,0.137732,0.119005,0.071142,-0.035146,-0.083346,0.119722,0.071827,0.045302,-0.27713,0.066019,-0.315061],[0.096251,1.9925,0.187207,0.109651,0.067676,-0.014572,-0.209191,0.264305,-0.04915,0.121705,0.25736,-0.032658,0.467559,0.018834,0.093817,-0.033926,-0.218955,0.091434,-0.42195,1.286345,-0.187691,-0.246649,-0.31803,-0.083355,0.072056,0.405989,-0.062048,-0.10957,0.033431,0.004484,0.056243,0.008545,0.052659,-0.109796,0.186961,-0.142607,-0.233421],[-0.298944,-0.064712,-0.141228,-0.415584,0.375535,0.430018,-0.475889,0.247706,0.232262,-0.214462,-0.05126,-0.084575,0.489366,-0.08472,-0.057191,-0.011067,-0.278463,0.150875,0.118832,-1.385848,-0.193711,-0.035024,0.290678,0.056796,0.186032,0.615865,-0.051311,0.118126,-0.040362,-0.05283,0.107394,0.022821,-0.165324,0.238956,-0.072511,0.156997,-0.161348],[-0.42934,-0.327088,-0.415881,0.171161,0.077102,-0.065439,-0.040639,0.451707,0.53419,-0.060654,-0.462187,0.067516,0.033854,-0.062499,0.019094,0.124838,0.24708,-0.000534,0.144574,-1.284845,0.031573,-0.165361,-0.068187,0.04995,0.237397,-0.023223,-0.209916,0.017922,0.264217,0.099822,0.108697,-0.028976,0.150323,0.078529,0.032536,0.071065,-0.008594],[-0.133415,0.092958,-0.074046,-0.046859,-0.041358,-0.113381,-0.032574,-0.0323,-0.046928,0.07141,-0.14837,0.084727,0.104567,-0.162974,-0.126976,0.108382,0.135166,0.11173,0.027122,-0.070433,-0.021943,-0.003328,0.060416,-0.089203,0.039297,0.130959,-0.132652,-0.09232,-0.084333,-0.092192,-0.125924,-0.003412,-0.035807,0.033348,-0.066175,-0.003932,0.107249],[-0.01763,-0.369679,-0.272702,0.29972,0.253219,0.064179,-0.03599,-0.253522,0.209591,-0.070127,0.257118,-0.69764,0.610372,-0.123069,-0.038257,0.080293,-0.329959,0.176774,0.035252,0.059516,-0.03016,0.054498,0.152648,0.068596,0.095228,-0.272736,-0.070743,-0.018487,-0.028692,-0.362399,-0.141335,0.141463,-0.212136,-0.006219,0.179285,0.038785,0.005987],[-0.366056,0.143188,-0.635475,0.488465,0.252297,0.213307,0.251531,0.058255,-0.231399,0.213101,0.536388,0.057834,-0.843565,0.157705,-0.04405,0.101092,0.258025,0.21927,-0.14538,1.875592,0.052449,-0.340619,-0.337467,-0.109327,0.219486,-0.449185,-0.029587,-0.106666,-0.151006,-0.092005,-0.074935,0.127627,-0.243512,-0.321762,0.726305,0.026507,0.447167],[0.074208,-0.033153,-0.106164,0.147643,-0.072848,-0.148753,0.056296,-0.06858,-0.145236,-0.09423,-0.003856,0.071804,0.142547,0.050142,-0.151259,0.00852,-0.133304,0.122419,-0.139683,0.014987,-0.132738,-0.146771,-0.069808,-0.101947,0.047332,0.076961,0.080834,0.035155,-0.151417,0.073793,-0.130807,-0.073168,-0.115172,-0.144855,-0.091217,0.007431,0.124648],[-0.845933,-0.464531,0.180264,0.138331,0.28912,0.402011,0.175277,-0.288251,0.612657,0.406919,-0.639477,-0.963862,0.097045,0.149816,0.28662,-0.050477,-0.095956,0.349041,0.116888,-0.897139,0.128399,-0.018734,-0.126856,0.049918,0.230538,1.165954,-0.290886,0.002206,0.130325,0.093848,-0.01895,0.243437,-0.188216,-0.006739,0.007355,0.040296,-0.184183],[0.15023,-0.692728,0.268175,-0.056296,-0.108139,-0.299741,0.627025,-0.016399,-0.067963,0.520708,0.760115,-0.203035,0.257438,0.031545,0.190989,-0.021474,-0.014765,-0.000663,-0.330252,1.065912,-0.184903,-0.288894,0.174878,-0.261672,0.244246,0.127071,-0.262461,0.044463,0.207595,-0.049516,-0.14663,-0.101422,-0.049158,-0.190754,0.498342,0.085017,0.205429],[0.069924,1.862151,-0.089925,0.100564,-0.01692,-0.034319,0.806767,-0.408222,-1.123715,0.644228,-0.112881,0.545052,0.383304,-0.026041,0.056541,0.065182,-0.317053,0.132114,0.018184,-1.44319,-0.03302,-0.1715,0.197903,0.290151,-0.039882,1.340207,-0.138854,-0.173347,-0.155083,0.110567,0.068606,0.023968,0.12355,-0.243396,-0.462286,0.157195,-0.164132],[-0.051696,0.059942,-0.10537,-0.155408,0.125028,-0.014325,-0.138706,0.005694,-0.076397,-0.102878,-0.019765,-0.01625,0.014986,-0.051502,-0.012988,-0.031445,0.017629,0.138063,-0.093785,0.018796,-0.133656,0.136405,-0.038089,0.011131,-0.157658,0.003939,-0.135526,-0.090428,-0.119766,-0.102122,-0.089946,0.041813,-0.123623,-0.046845,-0.043517,0.151223,0.046655],[0.172482,0.262336,0.084105,0.261497,-0.05683,-0.252553,-0.076591,-0.034082,-0.219848,-0.019066,0.434682,-0.211638,-0.240194,-0.099169,0.169606,0.152803,0.092389,-0.100027,-0.326849,0.727625,-0.118024,0.226993,-0.013055,0.198401,-0.015242,-0.794708,-0.156455,0.046296,0.059277,-0.100135,-0.148658,0.137737,-0.187276,-0.189182,-0.026911,-0.03122,-0.26429],[-0.046919,0.17923,0.319953,-0.193087,-0.352491,0.333409,0.115404,0.099697,-0.326749,0.484624,-0.313043,-0.666684,0.854331,0.163053,0.058745,-0.036729,0.03649,-0.146698,0.256306,-0.400478,0.124777,0.133152,0.096543,-0.048798,0.190387,-1.566866,0.413377,0.135096,0.014983,-0.160781,-0.046237,-0.180759,-0.210048,-0.06113,-0.078116,-0.199989,-0.045069],[0.241757,-0.083406,0.248295,-0.379359,0.008972,-0.062439,0.069863,0.235134,0.168844,-0.233447,0.131946,-0.292056,0.255344,0.100461,0.010929,-0.024029,0.212449,0.043625,0.054233,0.652284,0.052269,-0.058927,-0.012152,0.12201,0.026134,-0.948287,-0.103508,0.08612,-0.137196,-0.148536,0.039864,-0.105132,-0.225692,-0.042243,0.16115,-0.105908,-0.08112],[0.160334,-0.440285,0.012337,0.014416,0.193674,-0.127139,-0.048351,-0.013656,0.186902,0.210214,-0.169086,-0.850361,-0.548339,-0.020844,-0.131874,-0.116702,-0.068062,0.199935,0.011874,0.551795,-0.062979,-0.009487,-0.118343,-0.04137,0.086245,0.081951,0.321359,0.082305,0.149823,-0.026313,-0.116522,0.17828,-0.050714,0.074264,0.112246,0.01654,0.191786],[0.09703,-0.259361,0.329803,-0.263098,-0.702365,0.099948,-0.164842,-0.742798,0.217861,0.475482,-0.162876,0.502805,0.382913,0.068949,-0.060713,0.007213,0.432701,-0.178844,0.274027,0.212135,-0.265572,0.119517,-0.176755,0.112368,-0.040064,-0.743702,-0.031604,0.032303,0.013881,-0.139422,-0.095044,0.092429,-0.037394,0.153094,0.173903,-0.031059,-0.4678],[-0.493899,0.740238,0.200028,0.419457,-0.322186,-0.468813,-0.186093,0.478209,-0.166745,0.411462,0.198036,0.03283,0.23495,0.044365,0.050627,-0.123217,0.112062,0.106637,0.23201,0.683577,-0.045835,0.071737,-0.019304,-0.067243,0.089104,-1.33625,-0.334617,-0.156944,-0.072823,0.351566,-0.046374,0.071915,0.054633,0.015146,0.086579,0.032815,-0.022739],[0.605775,0.386183,-0.290789,-0.135305,0.308427,0.087407,0.23788,-0.44396,0.159088,-0.512245,0.118529,-0.35021,-0.047436,0.006064,-0.112366,-0.045559,-0.055827,-0.110121,-0.191248,-0.563997,0.06877,0.011035,-0.024204,-0.079028,0.044548,0.523798,0.34269,0.140743,0.025776,0.037988,-0.125769,0.142057,-0.163221,-0.028419,0.423877,0.015234,0.000613],[-0.27736,-0.023757,0.030641,-0.018326,0.163401,0.277521,-0.130941,-0.118444,0.01907,0.142429,-0.180252,0.47372,0.012438,-0.011282,0.135957,-0.120951,-0.044378,-0.038381,0.442261,-0.377024,0.018799,-0.189516,-0.143409,0.15015,0.097361,-0.146698,-0.028175,-0.07051,0.07645,0.020318,-0.008024,0.079826,-0.119483,-0.071698,0.291097,-0.125603,0.055536],[0.336526,0.35827,-0.023639,0.570713,-0.26869,-0.465487,-0.957207,0.293426,0.472023,-0.404685,1.131886,0.114564,0.162174,0.091966,-0.028035,-0.139739,0.012496,-0.176842,0.517837,-0.459173,-0.265152,0.088223,-0.036278,0.028703,-0.123881,2.079683,-0.01878,0.009214,-0.152661,-0.058721,0.008663,-0.083334,0.009004,0.679779,-0.109149,0.138646,-0.208462],[0.016566,2.149691,0.56857,-0.462291,-0.543143,-0.221393,-0.149698,-0.190631,0.550627,0.107553,0.184283,4.1e-05,-0.173213,0.132036,0.048099,0.120808,-0.05145,0.037447,-0.240676,1.793245,0.016224,0.023065,-0.054896,-0.182116,-0.041111,-0.929807,0.290418,0.064549,0.01303,0.01811,0.096013,0.011237,0.031343,0.04476,-0.437901,-0.100413,-0.001514],[-0.382874,0.4335,0.900313,0.025484,0.005761,-0.002979,0.000141,0.11573,-0.009639,0.190764,0.589543,-0.008739,0.847267,0.088425,0.199192,0.107571,0.040334,0.146681,-0.168677,0.046186,0.174993,-0.501252,0.028716,-0.049611,0.014017,0.211804,-0.472794,-0.39523,-0.100206,-0.354214,-0.002987,0.217599,-0.214606,-0.06399,-0.038562,0.009444,-0.120387],[-0.338883,1.793554,-0.894641,0.102738,0.361775,0.507645,0.110623,-0.029092,-0.305488,0.138138,-0.341159,-0.225183,0.428953,-0.091249,0.14309,-0.084744,0.090439,-0.054163,0.151632,-1.714215,0.267477,0.050816,-0.019478,0.178968,0.138744,1.632037,-0.202825,-0.115997,-0.136454,0.163356,0.151725,-0.108006,0.2249,-0.090556,0.179159,0.237037,-0.057182],[0.28132,1.651564,-0.273392,-0.271208,-0.089983,0.227302,0.379231,-0.132843,0.176079,0.330042,-0.426748,-0.113153,0.578479,0.142559,0.03277,-0.060495,0.146163,-0.074083,-0.70019,-0.486082,-0.326435,-0.149584,0.254628,-0.047879,0.081357,-1.211118,0.129129,0.172047,0.099503,0.095152,-0.110329,-0.212157,0.067924,0.006844,0.361319,0.045628,0.174459],[-0.004701,0.045395,-0.069834,-0.1612,0.000243,0.024734,-0.083811,-0.102504,0.131623,-0.110739,-0.035506,-0.115357,-0.145381,-0.081144,0.060062,-0.160845,0.10188,0.120103,0.102235,-0.175558,0.088501,-0.061893,0.047119,-0.13888,-0.045856,-0.095397,-0.071481,0.023088,-0.142895,0.064094,0.080457,-0.126762,-0.145116,-0.017824,0.011661,-0.081276,0.001974],[-0.139193,-0.331366,-0.060965,0.41247,0.053246,0.142777,-0.097657,0.198266,0.132258,0.181877,0.58922,-0.592371,0.45108,-0.158229,0.017297,0.005846,0.112705,-0.025239,0.145727,0.634976,0.135869,0.0208,-0.202716,-0.016958,0.21928,-0.559406,-0.297016,-0.084656,0.130844,0.044622,-0.163162,0.021946,0.180855,0.193181,0.253963,0.116216,0.089516],[-0.139129,-1.154046,-0.42672,0.298925,0.093975,0.034344,0.495526,0.088309,0.192953,-0.101319,-0.606302,-0.035894,-0.190104,-0.04683,0.088378,-0.091294,-0.018797,-0.094081,0.5951,-1.470289,0.009801,0.120069,-0.15331,0.131185,0.104512,0.012112,-0.45785,-0.063486,0.291712,0.045596,-0.083964,0.089849,0.042146,0.28692,-0.256759,0.067677,-0.138215],[-0.030566,0.863642,0.124467,-0.43576,0.189221,0.46527,-0.335991,0.427702,0.15398,-0.02996,-0.539169,0.009283,-0.014697,0.055732,0.148354,-0.147329,-0.052571,0.009409,-0.460709,-1.577801,-0.01766,0.286558,0.323379,-0.077694,-0.020194,0.610597,-0.166935,-0.210694,0.230935,-0.015831,-0.158404,0.054927,0.08714,0.206399,0.183025,0.094791,-0.00787],[0.051811,3.617084,0.388005,-0.3951,-0.218017,-0.092084,-0.139728,0.106981,0.844266,0.73497,-0.083429,-0.84784,0.326942,0.160131,0.251228,-0.107737,-0.191872,0.105575,-0.239971,-0.280822,0.432082,-0.445717,-0.495686,-0.150369,0.268954,-0.240797,-0.202964,-0.153038,-0.196201,0.169747,-0.032194,0.104779,-0.024067,0.220982,0.124037,-0.274473,0.408301],[-0.001415,0.378325,-0.831859,-0.386193,0.623787,0.182501,0.149031,0.416256,-0.16319,-0.399063,-0.252249,-0.451285,0.145337,0.130371,0.137157,-0.118613,-0.080221,0.070764,-0.893943,-0.339466,0.174998,-0.15496,-0.006474,-0.080068,-0.127562,-0.098674,0.342326,0.218583,-0.009481,-0.227016,-0.047954,0.208059,-0.11568,-0.001239,0.083026,-0.011256,0.058877],[-0.05859,-1.032431,0.72698,0.067946,-0.244558,0.085298,0.496387,-0.047879,-0.463213,-0.398034,0.625746,0.948869,-0.039524,-0.023142,0.095017,0.001854,-0.026834,-0.091907,-0.227645,0.475095,0.025302,0.099972,-0.269678,-0.101415,-0.003089,-2.209784,-0.031371,0.035344,-0.196574,0.264305,0.108438,-0.156779,0.154478,0.14485,0.037982,-0.137916,-0.104851],[-0.298643,-0.424565,0.277402,-0.094201,-0.007006,0.056728,0.179308,-0.096409,0.004692,0.382709,-0.332142,0.43764,-0.140541,-0.131471,-0.084961,-0.134155,-0.102001,0.077149,-0.255099,-0.111646,0.112136,-0.049042,-0.004708,0.102732,0.106516,0.877664,-0.123884,-0.09693,0.044698,0.117011,0.093284,0.085692,-0.209061,0.025427,-0.02306,0.331307,0.007168],[-0.090834,-0.076282,-0.103733,-0.149376,-0.138989,-0.149417,0.07107,-0.151782,-0.065328,0.087112,-0.124853,0.052016,0.094487,0.052362,0.127856,-0.116864,-0.022324,0.036128,-0.108033,0.130056,0.083576,0.081577,-0.169086,-0.044667,-0.053898,0.095641,0.088725,-0.104255,-0.016263,-0.051719,0.080213,-0.083907,0.021716,-0.012955,-0.029978,0.134292,0.049733],[0.000309,-2.665178,0.379692,0.0709,-0.198115,-0.002146,0.797065,-0.872684,-1.041758,1.150258,-1.16237,0.147355,-0.523884,0.151398,-0.129079,-0.114668,0.015697,0.067299,0.593095,0.966064,0.024135,-0.685171,0.22214,0.173573,-0.179382,-1.177696,-0.03963,-0.22364,0.219786,-0.010004,0.056353,-0.086623,0.051004,-0.096284,0.063156,0.1354,-0.212461],[-0.03799,-0.033578,0.002415,-0.083179,-0.139861,0.048374,-0.097139,0.056496,0.119276,0.027353,0.11657,-0.062542,-0.145657,0.130417,0.078785,-0.113009,-0.131129,0.127301,0.148671,0.158781,-0.05223,-0.015947,-0.085,-0.036072,-0.084769,0.128272,-0.144959,-0.151224,-0.099044,-0.154122,0.049834,-0.146983,0.066947,-0.065138,-0.121197,-0.111956,0.086558],[0.132014,0.127087,-0.192916,0.171263,-0.047477,-0.142281,0.044234,-0.250255,0.02948,0.72501,0.100935,-0.278223,0.435551,-0.123098,0.079982,0.141169,-0.100317,0.085537,0.662319,0.611061,-0.006521,-0.039366,-0.073444,0.058903,-0.096533,1.54101,-0.328648,-0.160822,0.050798,-0.270002,0.134943,0.025519,-0.319812,0.037614,0.009641,0.553938,0.36698],[-0.324449,1.498248,0.72906,-0.73425,0.023096,-0.060103,0.162178,0.382113,-0.259734,0.002879,-0.321941,-0.782654,0.135816,-0.121666,0.162195,0.048261,-0.201701,0.02231,0.608932,0.3075,0.368619,-0.084685,0.256923,0.03684,0.023439,-0.660007,0.141179,0.162334,0.062176,0.05897,0.108057,0.188642,-0.011525,-0.439615,-0.219069,0.044899,0.114672],[-0.373258,0.262897,0.292845,-0.181654,-0.326077,0.137409,-0.137985,0.271001,0.762454,0.24783,0.057992,0.049243,0.196181,0.121082,0.163007,-0.032558,0.019254,-0.012238,0.084684,0.310864,0.215459,0.082019,-0.010137,-0.055048,0.132448,-1.658597,-0.376096,-0.118932,0.270415,0.133089,0.122328,0.235507,-0.06964,-0.032193,0.135678,0.071271,-0.073806],[-0.136868,1.290614,0.249292,-0.405975,-0.232628,0.239305,-0.086115,0.291295,-0.145749,-0.461077,0.591223,0.819893,-0.46806,0.161224,0.151961,-0.070613,-0.084978,-0.051268,0.295536,-0.763489,-0.227924,-0.235323,0.108474,-0.019382,-0.169494,-0.579574,0.029025,0.004622,0.155403,-0.15796,0.105408,0.178309,-0.037481,0.047517,0.334196,0.083563,-0.147655],[-0.104915,-0.076087,0.135942,-0.157752,0.089584,0.071486,-0.107827,0.105118,0.01148,-0.127525,0.002873,0.088477,0.057522,0.147174,-0.010561,-0.038387,-0.162421,0.014232,-0.045177,-0.089325,-0.103874,0.068184,-0.066901,-0.106403,-0.056992,0.082871,0.052401,0.132168,-0.110627,-0.079058,-0.08452,0.058564,0.103651,0.153518,-0.117527,-0.110067,0.002987],[0.136602,-0.529773,-0.219269,-0.282736,0.144614,-0.235751,-0.113442,-0.075197,0.213744,-0.584317,0.343993,0.86581,-0.28177,0.002573,-0.081155,-0.030616,-0.036445,-0.077963,0.174933,0.840882,0.17068,-0.005359,-0.067573,-0.102373,-0.010126,-0.426214,0.175673,0.2329,-0.009826,0.074379,-0.047857,-0.106424,-0.144951,-0.015124,0.225813,-0.097644,0.18762],[-0.023466,1.117034,0.040923,-0.199624,-0.129244,-0.166656,0.250562,0.082957,0.315798,0.166036,-0.473437,0.184421,0.127208,-0.161311,0.068565,-0.015573,0.185812,-0.156729,-0.741413,-0.668411,0.278064,-0.140794,-0.158863,0.265865,0.008721,0.820245,0.09746,-0.155001,-0.017656,-0.079427,-0.146059,-0.092475,0.149214,-0.442511,-0.255906,-0.06022,0.174877],[0.415039,-0.212148,-0.924158,0.357389,0.362358,-0.205584,-0.452932,-0.190284,-0.79784,0.603364,0.743546,-0.915612,0.963671,0.093245,-0.184874,-0.126114,-0.088955,-0.09085,0.205379,0.932992,-0.168703,0.04789,-0.112823,0.018062,-0.045483,0.13041,0.554999,0.353147,-0.184751,0.046048,-0.108702,-0.234968,0.172773,0.139095,-0.067766,-0.631797,0.521938],[0.001554,1.226438,0.510248,-0.157757,0.100516,-0.105263,-0.643101,-0.298023,-0.165071,0.237262,0.736921,0.982753,-0.676596,-0.14529,-0.16335,0.004453,0.025488,-0.113578,-0.020946,0.54861,0.059903,0.005368,-0.093631,-0.137539,0.11451,-0.429205,0.042959,0.126902,0.204392,0.001957,0.022663,0.137452,-0.123159,-0.431113,0.032141,-0.179202,0.063033],[0.395825,1.689338,-0.41748,0.397525,0.258582,-0.283293,-0.748248,-0.301201,-0.309465,0.264358,0.446396,0.986445,0.055644,-0.017776,-0.038547,-0.122188,-0.07623,0.004997,0.196457,0.848931,0.113591,0.045145,-0.015576,-0.135899,0.085741,1.467286,-0.17766,-0.272889,-0.021066,0.185218,0.042687,-0.059733,0.201767,-0.38034,-0.133558,-0.092321,-0.364635],[0.135022,0.452881,0.404588,-0.141512,-0.256214,0.0168,0.08869,0.001515,0.062609,0.04717,0.51785,-0.315292,-0.199971,0.045867,0.036356,0.096775,0.108442,0.196313,-0.437697,0.476803,-0.103228,0.305711,-0.07021,-0.004413,-0.041544,-1.066032,-0.116564,-0.131208,0.036829,-0.036036,0.094968,0.169161,0.113135,0.236748,0.2056,0.153916,0.025535],[-0.116203,-0.790499,-0.215917,-0.340189,0.043916,0.390774,0.467765,0.079425,0.21122,-0.31743,-0.092681,0.759619,-0.155207,-0.149932,0.103554,0.08133,-0.147286,0.076147,-0.320436,-0.53592,0.081085,-0.004765,-0.029965,-0.121829,-0.103598,0.613277,-0.206432,-0.174007,0.181371,0.126478,-0.043502,0.161991,-0.170362,0.059077,0.052261,-0.133558,0.154804]],"bias":[0.07231,0.057412,0.136765,-0.020679,0.054064,0.177436,0.015888,0.069191,0.084116,0.175982,0.105544,-0.097357,-0.126022,0.096802,-0.14695,-0.092642,-0.162669,0.064361,0.051706,0.044766,-0.017391,0.108139,0.034122,-0.103055,0.138613,0.1035,0.104974,-0.060638,0.211002,0.135671,0.002968,0.019637,0.002095,-0.0969,-0.088179,0.061023,0.009779,0.01619,-0.027654,-0.027298,-0.03725,0.171154,-0.152198,-0.012918,-0.006814,0.139824,-0.111176,0.009466,-0.144212,-0.07173,-0.152226,0.106975,-0.048946,-0.143246,0.041151,0.022528,-0.172969,0.027363,-0.070794,-0.067469,-0.020725,0.118319,0.00274,0.167794,-0.168274,-0.122323,0.050609,-0.159736,0.120654,-0.060271,-0.016584,-0.129647,-0.041502,-0.001663,-0.214998,-0.167,-0.023574,-0.112136,-0.04084,0.074037,-0.096068,0.134469,-0.015019,-0.123331,0.030522,0.099514,0.083742,-0.109207,0.162682,0.065004,0.117376,-0.181613,-0.081419,-0.134787,0.053048,0.154596,0.063928,-0.094527,0.057739,0.107133,0.128325,0.120644,-0.151127,0.006039,-0.071159,-0.174817,-0.12181,0.064616,-0.102012,-0.170511,-0.171127,-0.121386,-0.069072,0.171926,0.016806,0.108757,-0.127519,0.111495,0.20269,-0.000802,0.197878,0.125585,0.145769,-0.11396,-0.042935,0.058946,-0.036349,-0.082708,0.043449,0.118172,-0.153734,0.132609,-0.089338,-0.00359,0.243354,0.22395,-0.0949,-0.055928,0.125857,0.175604,-0.020999,0.228673,0.030123,0.189039,0.17801,-0.141883,0.066553,0.028627,0.02725,-0.114611,0.066756,-0.02188,-0.136814,0.024474,0.175505,-0.205164,0.134743,0.054316,-0.059436,0.157736]},{"weights":[[-0.047125,-0.02372,0.02457,0.042984,-0.06655,-0.061485,0.02812,0.013396,-0.029138,-0.04185,-0.022136,0.002341,0.020156,0.048681,-0.008542,-0.040037,0.016178,-0.005274,-0.014646,-0.081014,-0.083612,-0.007802,-0.104183,0.022156,-0.084779,0.004949,-0.022958,-0.104441,-0.039427,0.007483,-0.047788,0.002737,-0.01404,-0.012617,0.017017,-0.012894,0.007981,-0.049451,-0.026426,-0.030366,-0.004496,0.014317,0.022109,-0.069445,-0.004228,0.027821,-0.036982,-0.111143,0.038479,0.005781,0.042665,-0.082492,-0.054225,0.042559,0.030003,-0.001662,-0.085175,0.040008,-0.075479,-0.031316,0.024441,-0.022641,0.042352,-0.002274,-0.018597,0.034056,-0.0762,0.031438,0.009304,0.008757,-0.052057,-0.028045,-0.034322,-0.050904,-0.005376,-0.049824,-0.068103,-0.07635,0.025158,-0.100554,-0.032512,-0.033103,-0.078789,-0.064827,0.060108,-0.042113,0.002041,-0.029553,0.033628,-0.027833,-0.04603,-0.054712,-0.024884,0.037659,-0.107482,-0.077359,-0.011503,-0.022536,-0.037363,-0.046976,-0.003,-0.010389,0.025944,0.067082,0.019688,-0.057721,-0.013308,-0.090161,0.008442,-0.020989,-0.000579,-0.109702,9e-05,-0.102638,0.043509,-0.074638,0.00115,0.040339,-0.021027,-0.038851,0.03838,0.01008,0.014535,-0.015703,-0.056047,-0.043878,-0.032231,-0.026769,-0.037422,-0.044526,0.002802,-0.085966,0.058773,-0.001737,0.004629,0.001,-0.030282,0.059349,0.042979,-0.056779,0.045779,-0.08633,0.014438,0.056756,0.018348,0.01651,0.037621,-0.041929,0.030631,-0.089944,-0.063164,-0.083975,-0.013501,-0.002335,0.030045,-0.012834,0.010043,-0.074918,-0.078036,-0.0015],[0.175104,-0.616244,-1.471971,0.118629,0.048965,-1.733731,-0.46775,0.173111,-0.268029,-0.018866,0.020595,-0.170409,-0.078214,0.241178,0.122128,-0.475985,0.055121,0.077197,-0.065645,0.200201,0.066326,0.346772,-0.422787,0.266159,0.331799,-0.725505,0.248918,0.279295,-0.032658,0.265252,-0.494658,-0.260381,-0.4607,-0.201646,0.061892,-0.601231,0.192301,-0.459635,0.011336,0.056706,0.07586,-0.053888,0.238879,0.396068,0.005647,0.112501,0.159972,0.242901,0.042781,-0.072498,0.001695,0.206954,-0.3408,-0.707775,0.106814,-0.108787,-0.124093,0.019518,-0.034598,-0.272923,-0.914066,-0.638075,0.054086,0.229765,0.470043,-0.623689,-0.844354,-0.002686,-0.121536,-0.224841,0.211831,-0.515681,-0.020319,-0.168709,0.111999,0.299442,-0.030886,-0.022814,-0.102661,0.2343,0.287517,0.266383,-0.053583,0.312371,-0.191627,0.389078,0.218538,0.024577,-0.202844,0.244637,0.955612,0.804959,-1.428716,-0.014013,0.072356,0.035647,-1.791113,0.00493,-0.046136,0.298849,-0.240421,0.017965,-0.026324,-0.186507,-0.026114,0.078401,0.027958,-0.704143,0.031233,0.064329,-1.136692,-0.215008,0.129762,0.183616,-0.434382,0.187984,-0.061746,-0.373881,0.299375,0.008115,-0.501524,0.122565,-0.247705,-0.060629,-1.252759,0.09871,-0.00336,0.208543,0.351238,1.799149,0.315786,-0.041263,-0.840038,0.662389,-3.396022,-0.175412,0.603553,0.020812,0.063137,0.273358,-1.214461,0.540251,0.749466,-0.033566,0.032165,0.041601,-0.382847,0.04849,-0.205251,-0.098164,-0.275656,-0.725872,0.016588,0.106733,0.580173,0.027663,-0.430746,-0.355221,0.455176,-0.909661],[0.04021,0.517914,-0.312006,-0.175033,-0.07295,0.908122,-0.022176,-0.083662,0.052537,0.142608,0.171704,-0.614545,-0.063813,0.153451,-0.014635,-0.22559,-0.061427,-0.006367,0.161766,-0.093663,-0.002443,-0.156626,0.113136,0.259532,0.30329,0.142279,0.37347,0.479121,-0.000143,0.031777,0.055691,0.174476,-0.021567,0.028289,0.023203,0.078488,-0.072041,-0.245659,-0.049814,-0.086194,0.041605,-0.106764,-0.36254,-0.338017,-0.247044,0.131952,0.174657,-0.317505,-0.0293,0.028538,0.061384,0.013257,0.016382,-0.679511,0.152782,0.09907,-0.05602,-1.011522,-0.122749,-0.385017,-0.435788,0.105885,-0.053994,0.071108,0.21261,-2.14321,0.28825,0.062325,-0.275265,-0.213578,0.233145,-0.093177,-0.013263,0.032593,0.398001,0.265961,0.030951,-0.073196,-0.047718,-0.960307,0.238898,0.207977,-0.057264,-0.073373,0.049691,-0.024976,-0.018742,-0.146937,0.06603,0.401432,-0.023314,-0.071118,0.113002,0.064728,-0.044136,0.216099,0.040759,0.08101,-0.010964,0.129708,0.255888,-0.065061,-0.014488,0.095995,0.134085,0.036189,-0.047172,0.295036,-0.030282,-0.017098,0.214861,-0.051797,-0.409803,-0.013955,-0.217327,0.295848,-0.087371,0.15344,-0.133455,0.063555,-0.033691,-0.245542,-0.062426,-0.022542,-0.213027,-0.088596,0.328693,0.003184,0.007917,0.293222,0.230303,0.075745,-0.981615,-0.052886,0.420044,0.219828,-0.628036,0.033643,0.209304,0.144236,-0.036232,-0.076979,0.07075,-0.098846,0.039189,0.052937,0.400894,0.058089,0.091776,-0.127865,0.01056,0.105617,0.051353,-0.16817,-0.231291,0.721673,-0.028243,0.256704,-0.042204,0.01303],[-0.082543,-1.294786,-0.381855,-0.025754,0.25853,0.674458,-0.030878,-0.298643,0.35291,-0.335162,-0.609424,0.82293,-0.067682,-0.187708,0.082265,0.401446,-0.054417,-0.036006,0.250963,0.241049,-0.601059,0.538957,-0.013182,-0.158273,-0.478114,0.109104,-0.436105,0.203703,-0.02526,-0.361178,-0.215194,-0.75602,0.081514,-0.099076,0.18923,-0.120789,-0.10992,0.356019,0.059654,-0.515098,0.050006,-0.389976,-0.24435,0.376576,0.195501,0.678705,-0.542594,0.174908,-0.050771,-0.196654,0.074643,-0.096353,-0.094659,0.791542,-0.158815,0.295103,-0.552127,-0.383798,0.725761,-0.458398,-0.453714,0.195355,-0.038081,-0.665555,0.056461,-0.406983,-0.794328,-0.039609,0.11151,0.545955,0.144037,-0.094062,-0.269908,0.628381,-0.383662,0.3336,0.054176,0.034606,0.386257,-0.058813,0.203728,-0.042419,0.057044,0.236296,0.074197,-0.31525,-0.092554,-0.612622,-0.441503,-0.269336,-0.620513,-0.137691,-0.687226,0.039569,0.1987,0.046673,0.063906,0.131875,0.29916,0.111941,0.657275,0.065453,0.001968,0.031961,0.040566,0.019009,0.016936,0.364736,0.024413,-0.009526,-0.566327,0.197739,0.286548,-0.161402,0.032077,0.337008,0.069364,0.127757,0.132534,0.046078,0.591639,0.134656,-0.003538,-0.039631,-0.173063,0.439732,0.383167,0.226786,-0.077747,0.933445,0.046583,-0.312299,-0.300009,0.202765,-0.66129,0.016991,0.285104,0.059719,0.120827,-0.070768,-0.514023,0.372533,0.443927,-0.046621,0.087946,-0.068284,-1.009729,-0.039111,0.012714,0.254687,0.240058,0.13312,0.066716,0.11292,-0.176532,0.519655,-0.927109,-0.638522,-0.308643,-0.119727],[0.100719,0.033463,-0.098118,-0.106108,-0.095818,0.060228,-0.085436,-0.086732,-0.108528,-0.017951,-0.073244,-0.049675,-0.027964,0.068176,-0.034184,-0.087283,-0.065788,0.078255,-0.029109,-0.108453,0.018455,-0.054852,-0.020505,0.019571,0.03683,0.029424,-0.005336,0.044373,-0.058387,-0.100681,0.019161,0.014819,-0.009132,-0.071284,-0.047803,0.021192,-0.041227,-0.051242,-0.074755,-0.091098,0.070816,-0.067822,0.012499,-0.063403,0.088496,-0.107367,-0.026425,0.022283,0.070898,0.01555,0.003109,-0.01148,-0.04772,0.093274,-0.04411,-0.041811,-0.022855,-0.117742,-0.103114,0.004833,0.02155,-0.120076,0.062134,0.002209,-0.018979,0.037137,0.017995,-0.002525,0.006175,0.020328,-0.022335,0.038782,-0.02223,0.020528,-0.006287,-0.098337,-0.006907,0.001526,-0.088883,0.046463,0.078921,-0.025389,-0.00149,-0.04714,0.013813,-0.087708,-0.051966,-0.00144,-0.120649,0.042223,-0.083306,-0.102744,0.018406,-0.036418,-0.052323,-0.084234,0.031437,-0.055733,-0.091493,-0.102216,-0.025688,0.003775,0.048201,-0.00523,-0.097198,-0.018156,0.001826,0.018746,-0.058947,-0.004782,-0.063178,-0.084479,-0.115701,0.039942,-0.122863,-0.074375,0.040055,-0.08072,-0.043049,-0.028937,-0.037887,-0.061984,-0.123094,-0.05595,-0.012952,0.00218,-0.07647,-0.065813,-0.103927,-0.040164,0.042799,0.00877,0.080924,-0.060996,0.014627,-0.044172,0.058991,0.015922,-0.020559,-0.111464,-0.118135,-0.109375,-0.106171,0.043092,0.00033,-0.052064,0.065993,-0.051894,-0.007637,-0.046265,-0.028223,0.0113,0.000611,-0.081048,0.01483,-0.004132,-0.042599,-0.08061,-0.063666,-0.026012],[-0.064966,-0.002747,0.018391,-0.037646,0.021047,-0.043575,-0.065945,-0.032199,-0.095835,0.024004,0.041978,0.011674,-0.004763,-0.070793,0.001394,-0.07774,-0.004957,0.003223,0.051539,-0.000679,-0.07538,-0.027725,0.023643,0.002922,-0.066861,-0.0814,-0.029924,-0.036017,-0.008777,0.036001,-0.012668,-0.021012,-0.081877,-0.053187,-0.020712,0.046636,0.029375,0.034582,-0.057489,-0.096567,0.072387,0.008459,0.008394,-0.034246,-0.065595,-0.035168,-0.094119,0.029711,0.05217,-0.068899,0.072986,-0.030534,0.006316,-0.090351,-0.005779,-0.07826,-0.006459,-0.075024,-0.007585,-0.002324,-0.086381,-0.063231,0.014324,-0.058483,0.023944,0.050837,0.000489,-0.024513,-0.045799,-0.058731,-0.047838,-0.0271,0.008535,-0.076805,-0.01351,0.034488,-0.040085,-0.041144,-0.009114,0.015565,-0.094423,-0.020724,0.048854,0.043576,-0.047221,0.018564,-0.044826,-0.024493,-0.022298,-9.9e-05,-0.058904,0.04293,-0.027887,0.056654,-0.08033,0.02095,-0.032411,-0.059801,-0.057372,-0.05638,-0.070536,0.058816,-0.082581,0.002123,-0.022938,0.037541,0.073572,0.050547,0.029119,-0.036927,-0.022251,-0.082375,-0.051912,0.034348,-0.07993,-0.055497,0.028992,-0.042072,0.030418,0.022523,0.008994,0.052491,-0.070725,0.022376,-0.048648,-0.072083,-0.034966,-0.085928,0.005815,-0.076118,-0.039828,0.031815,0.029655,0.027441,-0.023955,-0.056977,-0.098276,-0.002277,0.041699,-0.046857,-0.054593,0.008617,0.026538,0.038654,0.011497,-0.088459,0.006606,-0.052116,-0.057625,0.051595,-0.093823,-0.001482,0.01829,-0.047624,-0.08969,-0.041085,0.005788,-0.031363,0.042975,-0.034185],[-0.286966,0.627311,-0.023431,-0.05236,0.141708,-2.936056,0.055885,0.05526,0.074796,0.05023,-0.361011,0.743597,-0.031454,0.788366,0.266683,0.036597,-0.00205,0.058816,-0.073395,0.126126,-0.105718,-0.408877,-0.19475,-0.012971,-0.057951,-0.173782,0.35391,0.124308,0.074067,0.192094,-0.116057,-0.075531,0.051839,-0.039258,0.126088,0.034991,0.247851,-0.530589,0.065933,0.17721,0.021948,0.172384,-0.28431,-0.683177,-0.188059,-0.059603,0.14401,-0.080262,-0.070928,-0.277269,-0.045157,0.071458,-0.152115,-0.793567,0.08865,0.109975,0.28477,-0.84014,0.087415,0.050407,-0.172024,-0.017696,-0.073346,0.085548,0.245378,-1.739375,-0.065956,-0.064325,0.215852,-1.066679,0.381113,-0.091155,0.087705,0.049472,-0.327022,0.21084,0.008174,-0.003209,0.110658,0.492068,-0.137079,0.101829,-0.03427,0.338973,-0.077627,0.080077,-0.059941,0.159357,-0.043827,0.093549,0.000475,-0.66013,-0.04272,-0.030117,0.059667,0.082355,-0.161486,0.132507,-0.155929,0.25438,0.07694,-0.033657,0.007245,0.181285,0.089879,-0.014577,-0.043961,-0.180645,0.030612,0.025881,0.008843,0.103973,-0.580428,0.296665,-0.56365,-0.397944,0.059887,0.011101,0.287978,0.03362,-0.138167,0.20873,0.14187,0.00998,0.154838,-0.46397,0.0972,-0.014461,0.203725,-0.021836,-0.19059,-0.017013,0.406248,0.425577,0.060164,-0.063058,-0.002041,0.065694,0.121011,-0.091429,-1.008283,-0.056794,-0.089966,0.05327,0.053499,0.048062,-1.045852,-0.027891,0.218667,-0.04168,0.046504,-0.085319,0.051435,0.075478,-0.076474,-0.047131,0.058423,0.089053,0.134651,-0.010172],[-0.089077,0.058643,-0.040622,-0.080562,-0.067392,-0.007331,-0.056643,-0.073871,-0.144306,-0.115237,-0.109038,-0.004028,0.038343,-0.076286,-0.117985,0.026092,0.016536,0.055185,-0.065622,-0.026045,-0.077822,0.021172,-0.02517,-0.01816,-0.006168,-0.10896,-0.120987,0.020373,-0.053656,-0.055582,-0.075853,-0.128411,-0.118033,-0.061686,-0.001826,0.010636,-0.116213,-0.101089,-0.000411,-0.125807,-0.015112,-0.127529,-0.012295,-0.080039,-0.129884,-0.115989,-0.091711,-0.048207,-0.059006,-0.010463,0.01624,-0.02795,-0.130944,-0.015739,-0.113501,-0.046879,-0.004648,-0.099798,-0.049178,-0.106895,-0.029754,0.002018,-0.074521,-0.101408,-0.054774,-0.051712,-0.030183,-0.020119,-0.006514,-0.014257,-0.058309,-0.01029,-0.093052,-0.045487,-0.079404,-0.027086,-0.084419,-0.028643,-0.066827,-0.142219,-0.098618,-0.107024,-0.016008,-0.126838,0.007911,-0.067718,-0.103132,-0.008896,-0.008643,-0.12049,-0.027313,-0.112787,-0.110967,-0.000709,-0.03113,-0.014404,-0.007586,-0.029795,-0.120594,0.007834,0.000902,-0.031203,-0.032173,-0.029615,-0.113457,0.020722,0.051158,-0.057987,0.012137,0.076097,0.003011,-0.079585,-0.074352,-0.006045,-0.042562,-0.047997,0.068776,-0.115001,-0.032849,-0.046842,-0.041279,-0.080687,-0.014105,0.079788,-0.009465,-0.120101,-0.105288,-0.109335,-0.126019,-0.00518,0.016005,-0.079089,-0.024014,-0.020022,-0.10707,-0.094764,-0.075156,-0.042831,-0.071234,-0.090014,-0.069777,-0.141318,-0.056509,-0.067467,-0.112627,-0.033702,-0.077593,0.021253,-0.06461,-0.0576,-0.095075,-0.010369,0.042119,-0.023519,-0.099333,0.019869,-0.007384,-0.082867,-0.064099,-0.024443],[-0.151354,0.753431,-0.109408,0.006938,0.176829,0.652754,-0.014256,-0.070224,0.092179,0.025692,0.025502,-0.171642,-0.000256,-0.101748,0.068459,-0.083815,0.048704,-0.070123,0.395832,-0.052047,0.09446,-0.010168,-0.016858,0.10531,0.13394,0.299013,-0.073757,0.060178,0.034221,0.1254,0.029251,0.052631,0.082145,0.043401,0.125213,0.058039,0.098834,-0.119896,0.056876,-0.079382,-0.005666,-0.059772,0.00034,-0.098905,-0.246401,-0.159072,0.05207,-0.221214,-0.058119,-0.024083,-0.041975,0.083463,0.162535,-0.256758,0.05072,0.118516,0.043283,0.151764,-0.114841,0.021868,0.026167,0.139828,-0.020309,0.137968,0.045253,-0.007767,0.133373,0.048879,-0.077971,-0.185606,-0.03122,-0.105224,-0.022347,0.012382,-0.158679,0.04934,-0.015559,0.046956,-0.038178,0.140835,-0.0952,-0.043985,-0.079574,0.013418,-0.010027,-0.041396,-0.059431,0.055308,-0.007087,0.209435,0.070768,0.004324,-0.008228,-0.035931,-0.00344,0.05066,0.154715,0.116486,0.076171,0.009026,0.041613,-0.062878,-0.046667,-0.107651,-0.036205,-0.00079,0.018847,0.204196,0.02635,-0.071317,0.399537,-0.016706,-0.033558,-0.157151,0.072628,0.003331,-0.043365,-0.04205,-0.158576,0.073103,0.099878,0.007916,0.159917,0.031013,-0.036399,0.065089,0.139889,-0.062723,0.049082,-0.070133,-0.073384,-0.009811,0.023476,-0.0667,0.291666,0.194877,-0.111134,-0.046135,0.213076,-0.011665,0.243532,-0.034569,-0.038806,0.09682,0.033785,-0.032048,0.550656,0.07602,0.072609,0.058716,-0.056126,0.009465,0.016886,-0.199682,0.006011,-0.110232,-0.093985,-0.068237,-0.00027,0.002128],[0.144156,1.16078,0.604128,-0.179401,-0.098789,0.473734,0.156631,0.002826,-0.058643,0.143224,-0.32,-0.630616,0.051901,-0.409815,0.00616,0.772856,0.060027,0.036636,-0.709944,-0.027715,0.023149,-0.240829,-0.32781,-0.257213,-0.037143,0.152962,-0.04578,-0.458087,0.062662,0.192369,-0.127066,0.123053,0.14282,0.00213,-0.328026,0.013669,0.033514,0.239324,-0.069618,0.316861,-0.029907,-0.143483,-0.247912,0.050203,0.549183,-0.072045,-0.26272,0.206683,0.045839,0.247129,0.033937,0.015651,0.279701,0.788511,0.07265,-0.061098,0.15427,0.669342,0.033797,0.193665,0.499746,0.060071,-0.078337,-0.189291,-0.274264,-1.047096,0.117159,0.014309,0.016905,0.3506,0.080427,0.370877,0.155061,0.068067,0.719118,-0.189794,0.021353,-0.048828,0.004503,-1.099114,-0.512588,-0.716719,0.0219,-0.089213,0.390433,0.142002,0.002287,-0.279538,0.238967,-0.000905,-0.01227,0.053199,0.143469,0.034324,0.066873,0.250628,-0.133095,0.098514,-0.109186,0.133686,0.192743,0.073479,-0.036813,-0.17118,-0.046465,-0.008858,-0.077327,-0.19644,-0.017012,0.074205,0.386803,-0.024939,-0.27862,0.111748,0.190441,0.070369,0.03478,-0.338056,0.134276,-0.068291,0.021993,0.015341,0.019968,0.030788,-0.013142,-0.363822,-0.017234,-0.297627,-0.015913,-0.002597,-0.459741,0.019506,0.659619,-0.086292,0.476741,0.361842,-0.454187,0.05074,-0.190674,0.061754,0.172591,-0.046132,0.010696,0.290048,0.277312,0.03118,0.214832,0.014928,0.193023,-0.346746,0.005914,0.271597,0.040485,0.753298,0.081835,-0.281429,0.310821,0.178442,0.010223,0.061925],[-1.399832,0.251869,-0.150836,0.034144,-0.451295,-1.42771,0.068999,0.266837,-0.407583,0.411292,0.111487,-8.402387,0.020034,0.32824,-0.041399,-0.372324,0.023321,0.026677,-0.472746,-0.109122,0.188561,-0.997537,0.331218,0.069031,0.843274,-0.206066,-0.246946,-0.045848,-0.174031,0.061304,-0.105057,0.314246,0.100375,0.06286,0.006499,0.638668,-0.257625,0.224999,-0.023339,0.251431,0.042011,0.054136,0.244897,-0.669493,-0.077855,0.024877,0.372336,0.098376,-0.027247,1.088635,-0.051898,0.19831,0.63668,0.836561,-0.212359,-0.249231,0.585602,-1.221889,-0.263196,0.14984,-0.467473,0.024837,0.044167,0.046742,0.260483,-0.02783,-0.12492,-0.031608,0.287059,-0.473445,-0.388224,0.52134,0.757957,-0.20334,0.610221,-0.053183,-0.00413,0.054345,-0.414957,-0.449297,0.760525,0.114651,0.345857,0.268916,0.001233,-0.058831,-0.092583,0.647041,0.29667,0.580213,0.092333,-0.850492,0.183536,0.077247,0.075958,0.276147,0.171534,-0.309632,-0.536483,-0.414247,0.21769,-0.000309,0.055147,0.35124,-0.208421,0.034691,0.051571,0.388847,-0.048754,-0.065884,-0.156949,0.397242,-0.123685,0.711526,-0.656951,-0.521685,-0.010348,-0.315899,-0.10976,0.073762,-0.211169,-0.011919,0.182984,0.006964,0.07045,-0.645804,-0.086599,0.119444,0.514431,0.609177,0.258707,0.363986,-0.16149,0.439393,-0.098761,-0.44633,0.379963,-0.027757,-0.520559,-0.601745,-1.117893,-0.094907,-0.208955,0.351853,0.395122,0.036215,-2.242444,0.011268,0.41487,-0.000351,-0.122273,0.601861,-0.074925,-0.800236,0.483247,-0.591648,0.111372,0.163359,0.222641,0.050141],[-0.083422,0.044739,-0.093307,0.026351,0.015757,-0.025357,-0.026028,0.037535,0.01499,-0.064109,-0.083181,0.019822,0.03314,-0.050924,-0.09058,-0.083173,-0.001113,0.055428,0.021252,-0.071332,-0.08311,-0.067752,-0.076126,-0.030011,0.00203,0.057546,-0.088744,-0.04878,-0.029039,-0.058728,-0.006519,-0.015492,-0.090903,-0.000326,0.046405,-0.032308,0.04477,0.018384,-0.062565,-0.082511,-0.006242,0.031772,0.015597,0.058832,0.048389,0.055607,0.061846,0.045752,-0.040407,-0.01535,-0.048064,-0.007725,-0.005083,0.007863,-0.024741,0.031162,0.01668,-0.051193,0.057813,0.033868,-0.087547,0.046154,0.058579,-0.069283,-0.022874,-0.022283,0.040587,0.058657,0.016319,0.056394,-0.053201,0.030443,-0.011776,-0.086435,0.050478,-0.075213,0.016701,-0.050874,-0.020187,0.025794,0.012451,-0.02568,-0.064846,-0.064831,0.009393,-0.033425,0.029634,-0.093873,-0.089948,-0.007065,0.062181,-0.041757,-0.030781,0.038678,0.034612,-0.086749,0.06762,-0.086351,-0.091848,-0.071899,-0.040796,-0.068547,0.011056,-0.048161,-0.013419,-0.022308,0.001566,0.045399,-0.035097,0.021974,-0.085025,-0.055477,0.042358,0.054505,0.038454,-0.047116,0.04509,-0.074819,-0.019517,-0.067417,-0.068811,-0.071927,0.009375,-0.037419,0.011177,-0.058387,0.008339,0.020233,-0.039913,0.054812,0.02148,-0.045464,0.009147,0.000451,-0.025734,0.045007,-0.015304,0.042101,0.0522,-0.068856,-0.046093,-0.041125,0.000143,-0.037991,-0.008403,-0.003498,-0.067798,-0.060425,0.03405,0.016815,-0.065431,0.0314,-0.073553,0.02256,0.017502,-0.046369,0.038815,0.015107,0.060142,-0.025163],[-0.297492,-0.252912,0.039513,-0.182967,-0.169172,-1.185406,0.137114,-0.068383,-0.064761,0.155078,0.036028,-3.441817,-0.064961,0.79466,-0.239933,-0.043428,-0.027542,-0.058997,0.249721,-0.005595,0.0303,-0.603895,-0.009832,-0.175282,-0.230667,-0.021591,-0.168101,0.028547,0.08426,0.055728,0.041844,0.277825,-0.012148,0.273797,0.265763,0.247514,0.247218,-0.579485,0.045442,0.195088,-0.05011,-0.116505,-0.14931,-0.084596,0.010447,-0.150014,0.205469,-0.051759,0.064781,0.016518,-0.012208,0.191012,0.337347,-0.00703,0.060382,-0.03427,0.005233,-0.200562,-0.081637,0.135748,-0.006796,0.028287,0.032557,0.095973,0.12694,2.40667,0.040845,-0.01801,0.112084,-0.454925,0.137459,0.156292,0.210435,-0.114175,-0.074482,0.096767,-0.027441,-0.02175,0.096806,-0.057096,0.101875,0.103188,-0.341646,0.081514,0.252176,0.24899,0.183833,-0.06185,0.105366,0.273414,0.105907,0.287002,0.119198,-0.028841,-0.168273,0.205807,0.108185,0.099933,-0.103759,-0.422789,0.066811,-0.063616,-0.079716,-0.091816,0.013724,0.014045,-0.036395,0.178249,0.032951,0.059448,-0.347969,0.08308,-0.160498,0.052559,-0.161979,-0.3494,-0.080496,-0.203757,0.046811,-0.040988,0.082467,-0.050374,-0.042339,0.028833,0.025385,-0.135909,0.045246,-0.082645,0.090304,-0.416088,-0.104711,0.121067,-0.98997,-0.125245,-0.027838,-0.094161,0.156133,-0.042781,-0.333882,0.155344,0.325447,0.386289,-0.09081,0.074035,0.220885,0.086119,0.749914,-0.048666,-0.107584,-0.20312,-0.004247,0.26793,0.012155,0.098545,-0.291337,0.475532,0.137423,0.226878,0.12322,0.165923],[-0.161402,-0.745694,-0.241408,-0.242542,-0.412652,0.77982,0.096656,0.043676,0.086931,0.158435,-0.012818,-0.250849,0.029791,0.080197,0.031013,0.174421,-0.030429,-0.054494,-0.294412,-0.11511,-0.037886,0.184316,-0.190747,-0.586016,-0.051552,-0.189364,0.335387,-0.184509,0.13728,-0.061478,-0.014443,-0.114612,0.087786,0.146166,-0.05169,0.157232,-0.330146,0.213579,-0.002735,0.056546,-0.047116,-0.31075,0.034654,0.141313,0.573382,0.019005,-0.199953,0.369814,-0.059012,-0.010974,-0.061276,0.119593,0.056238,0.874358,0.099081,-0.306618,0.00417,-0.04618,0.136374,0.324386,0.246524,0.084789,-0.005045,-0.237771,0.009498,-0.151796,0.117833,-0.050183,-0.089051,0.271533,0.32568,0.311365,0.058949,-0.046575,0.621322,0.156972,-0.039741,0.062307,0.006549,-0.95089,-0.273174,-0.642881,-0.194458,-0.188595,0.127112,0.195931,0.136968,-0.442959,0.042569,-0.035703,0.216382,0.716736,-0.241453,0.057492,0.035987,0.167226,-0.00823,0.069499,-0.153727,-0.01726,0.230589,0.012563,0.064856,-0.16253,0.064349,-0.018146,-0.000209,0.312201,0.042252,-0.060848,-0.549016,0.238021,-0.059617,-0.118257,0.00126,0.273193,0.03313,-0.422684,-0.169806,0.027933,0.161411,-0.204646,0.166425,0.027329,-0.198247,0.097633,-0.089465,-0.21339,0.049988,-0.379262,-0.190253,-0.103057,0.636172,-0.024174,-0.022599,-0.086113,0.155773,0.043593,-0.447467,0.145874,0.525007,0.09103,-0.239114,-0.101752,0.225658,0.031296,-0.863485,-0.009815,0.00478,-0.054732,0.067542,-0.04231,0.000312,0.560006,0.184934,0.223581,-0.189009,0.184641,-0.145636,0.033755],[0.436805,0.932682,0.344928,0.026794,-0.088173,-0.192849,-0.082476,-0.021829,0.181861,0.101716,-0.042801,0.047216,0.058454,-0.28577,0.018787,0.35679,-0.012868,0.06097,-0.290869,-0.046268,0.12164,0.382015,0.11031,0.378944,0.002805,-0.224125,0.305746,-0.358802,0.117091,-0.010816,0.285362,0.255886,0.294336,0.018095,-0.01724,-0.018802,0.080353,0.087864,-0.010356,-0.302538,-0.057566,-0.282295,-0.119752,-0.20065,0.343005,-0.236025,-0.087853,0.382088,0.025829,0.192588,0.003745,-0.170908,0.145726,-1.470314,-0.144144,-0.196367,0.231954,0.344869,0.11827,0.134442,0.058261,-0.128864,0.057255,0.087282,-0.421619,0.16484,0.221437,-0.050042,-0.163625,0.208975,0.249094,-0.086675,0.306552,0.079514,-0.581041,-0.205665,0.063753,-0.031083,-0.205245,0.483839,-0.462943,-0.296327,-0.010421,0.018874,0.472734,0.354124,-0.09702,0.08821,0.255869,-0.182307,0.597268,-0.365343,0.117963,-0.074782,-0.104605,-0.095725,0.20515,-0.044832,-0.248524,-0.332079,0.371008,0.033049,0.066015,0.15674,-0.0611,0.000286,-0.0069,0.095972,0.067352,-0.030165,-0.214824,0.180627,0.335292,-0.188891,0.633542,-0.028132,-0.023201,0.15581,0.095976,-0.039583,-0.06091,0.056885,-0.017781,0.002712,-0.2572,-0.025757,0.119761,-0.043177,-0.129366,0.119329,-0.420965,-0.097385,-1.17013,0.283903,0.196161,0.122245,0.192566,-0.020364,0.111816,0.002447,0.426671,0.270656,-0.350675,-0.033263,0.403522,-0.019296,-0.399871,-0.011918,0.121844,0.069086,0.299275,-0.078549,0.032721,0.206388,-0.025858,-0.158933,0.00375,-0.011846,0.114252,-0.053677],[-0.3407,-0.103616,-0.292619,0.162598,-0.130234,0.560999,-0.469202,0.102247,0.311349,-0.045279,0.167521,0.039133,0.046591,0.147326,-0.000472,0.261296,0.053288,-0.072437,-0.046007,-0.08119,0.062843,0.290941,-0.008126,0.177062,-0.299992,-0.190137,0.09431,0.428346,-0.640074,0.171172,-0.142978,-0.206113,-0.279675,-0.037199,0.198133,-0.194182,-0.149701,-0.515831,0.024036,-0.155097,-0.033766,-0.314977,-0.295501,-0.68628,0.223826,0.031627,0.046565,0.451979,-0.015967,0.377916,0.035368,-0.079644,0.567288,-0.755,-1.200058,-0.29675,0.097922,-0.461616,-0.620422,-0.132094,-0.025826,-0.815556,-0.039219,0.55984,0.370294,0.053006,0.04129,-0.036575,0.327281,0.081165,-0.274439,0.005755,0.220574,-0.503572,0.59926,0.156722,0.028078,-0.038137,-0.042082,-0.052626,0.46043,0.480059,0.091959,-7.7e-05,-0.251152,-0.467266,0.366686,0.201906,-0.970914,-0.251018,-0.109197,-0.293819,-0.926676,-0.010656,0.077787,-0.25044,0.266808,-0.055208,0.136806,0.158156,-0.63731,-0.028704,0.028012,0.153825,0.112988,-0.046132,-0.054613,0.141357,-0.05316,0.011559,-0.80011,-0.094478,0.209596,0.108576,-0.885971,-2.281412,-0.009326,-0.182452,0.029098,0.023804,-1.621977,0.06922,0.272768,-0.022397,0.781418,0.136763,0.044561,0.113878,0.247862,-1.05088,0.60077,-0.408906,0.783489,-0.175346,1.857242,0.250893,-0.506989,-0.084168,-1.096379,-0.571021,0.272734,-1.197767,-0.371522,-0.645151,0.529731,-0.011186,0.176864,0.063337,0.028595,-0.1531,-0.874922,-0.168481,-0.046832,0.194089,-0.969698,0.103427,0.057936,-0.429382,-0.293762,-1.108522],[-0.106477,0.655326,-0.021802,-0.033345,0.071769,0.645513,0.067819,-0.079792,0.025016,0.156028,0.077057,-0.100551,0.076609,-0.141274,0.076516,0.030661,-0.067598,0.075628,0.419992,0.037944,0.029876,0.027309,0.085207,0.215339,0.07067,0.216722,-0.200158,-0.003513,-0.038619,0.100754,0.089219,-0.040548,-0.062976,0.105357,-0.088797,0.037274,-0.032332,-0.167498,0.032227,0.075786,0.051936,0.018174,-0.023915,-0.064334,-0.042718,-0.138546,-0.027548,-0.251071,0.063642,-0.067587,0.012488,0.062413,0.159363,0.11193,0.037635,0.153992,0.154688,0.173422,0.006844,0.011695,0.083669,0.202848,0.024871,0.118864,0.018436,0.103239,0.229279,0.003899,-0.037684,-0.246475,0.037045,-0.027794,-0.007706,-0.049099,-0.244958,0.096566,0.00895,0.004313,-0.048749,0.193983,-0.15406,-0.062072,-0.063715,0.030872,0.096085,-0.02117,0.136634,0.157959,0.095552,0.170833,0.024799,0.028942,-0.017332,-0.03257,0.029461,0.096444,0.096969,0.082838,0.08279,-0.080109,0.098841,-0.034079,-0.068977,-0.082988,0.060947,0.077335,0.063227,0.120534,0.073001,-0.006056,-0.127553,0.163689,0.006978,-0.21874,-0.027391,0.035076,0.020433,-0.067899,-0.175474,0.075762,-0.075817,-0.028472,0.025525,0.029509,-0.076705,0.131565,0.115632,-0.10062,-0.074515,-0.113457,-0.214359,-0.012992,0.125093,-0.192996,0.209171,0.144354,-0.089732,-0.049358,0.038414,-0.031743,0.14799,-0.007563,-0.164055,-0.039614,0.070324,-0.069266,0.405898,-0.00066,0.088042,0.076792,-0.008227,0.1363,0.047621,-0.092112,-0.152151,-0.003489,-0.049314,0.001219,0.014305,-0.023937],[0.104844,1.990844,0.322541,0.140859,0.404331,-0.327298,-0.077968,0.256121,0.102971,-0.185659,0.170366,-0.03308,0.010518,1.048949,-0.773058,-0.416385,0.051802,0.058351,-0.254006,0.171133,-0.112623,-0.934356,0.100676,-0.099594,-0.001818,0.599216,-0.682783,-0.518321,-0.014467,-0.148351,0.237281,-0.447772,0.21684,0.017471,-0.24259,-0.048448,0.601672,-0.049367,0.009378,0.019322,-0.012518,-0.132861,0.567809,-0.400329,-0.028604,0.407463,0.311414,-0.699653,-0.025976,-0.561147,-0.074206,-0.169391,-0.910786,-0.393571,-0.027423,-0.075646,0.055583,-1.502614,-0.026327,0.455364,0.335973,-0.17351,0.001042,0.057711,0.254229,0.62235,0.035572,-0.027444,-0.101983,0.877685,-0.073781,-0.108068,0.195279,0.150841,0.626968,-0.137755,-0.073301,0.00693,0.08496,1.154083,1.193296,-0.241483,0.072218,0.548628,-0.669227,0.089594,-0.95568,-0.091938,-0.053691,0.126273,-0.038521,-0.46482,-0.081183,-0.003045,0.052329,-0.054015,-0.061338,-0.138375,0.24504,-1.887972,-0.11484,0.006202,0.012776,0.44297,0.188978,0.043972,0.030886,0.1781,0.020366,0.025282,0.467814,-0.014112,-0.115694,0.226977,-0.960936,-0.568645,-0.050389,0.191245,0.259826,-0.029966,0.164232,0.13215,-0.157345,0.035954,0.114032,-0.810109,-0.021021,0.233856,0.2218,0.523676,-0.36481,-0.100008,-1.320486,0.207976,-0.001846,-0.228541,-1.215777,-0.03608,0.228293,0.014747,-0.31359,-0.100314,0.289047,0.104996,-0.093085,0.088271,-1.274333,-0.020819,-0.014476,0.413152,0.049992,-0.39592,-0.013354,0.115004,-0.370727,-0.832634,-0.266617,-0.211042,0.119931,0.027945],[0.008422,-0.075727,0.178085,-0.03917,-0.08167,-0.021881,0.158183,-0.105923,0.140527,0.035763,-0.271432,0.538789,-0.055052,0.08818,0.082498,0.029303,-0.019963,0.044579,0.125079,-0.026894,0.098154,0.554083,0.068806,0.012523,-0.14844,0.034188,-0.10543,-0.397501,0.147216,-0.006149,0.171738,0.15468,-0.034776,0.016734,-0.121865,0.026784,-0.015125,0.329107,-0.070313,0.075954,-0.002372,0.050659,-0.040413,0.080762,-0.196655,0.125906,-0.163388,-0.167311,-0.022626,-0.135038,0.037721,0.069731,-0.035127,-0.035615,0.02321,0.174593,-0.03778,0.301567,0.137152,0.131116,-0.028622,0.44304,-0.033971,-0.040638,-0.152111,0.145551,0.311438,-0.067469,-0.266964,0.038441,0.429826,0.050968,-0.12215,0.161586,-0.384852,0.001393,0.061351,0.028119,0.065349,0.055039,-0.249715,-0.411422,0.0121,0.018517,0.072903,0.120885,0.044216,-0.390446,0.225661,0.331642,0.073689,0.19487,0.381183,-0.019517,-0.130761,0.076354,0.246474,0.021936,0.094605,-0.003549,0.186068,0.004623,0.055866,0.010777,-0.004082,0.07038,-0.033776,-0.043334,0.056795,0.026765,-0.243468,0.111843,0.039604,-0.311851,0.531613,0.091081,0.058904,0.022251,-0.017459,-0.061311,0.072734,0.072189,-0.067073,-0.018395,0.042486,0.123012,-0.267853,-0.181605,-0.046435,-0.125923,-0.416722,0.134543,0.095784,-0.023659,0.310141,0.073771,0.054726,0.017889,-0.031083,0.207783,0.387612,-0.100118,-0.240257,-0.175393,0.334809,0.049432,1.3203,0.060535,0.155671,0.05886,0.090965,0.077811,-0.022506,0.115801,-0.011591,0.234129,0.078394,-0.051729,0.012634,0.16445],[-0.008061,-0.045646,-0.555864,0.086052,-0.116196,1.643555,-0.062205,0.020986,-0.038449,0.02665,0.284756,0.578756,-0.007452,-0.864457,0.180814,0.059219,-0.000988,-0.068934,-0.144859,0.079612,0.078322,0.367628,0.458075,-0.412051,-0.112964,-0.325195,0.10158,0.012413,-0.107778,-0.29476,-0.217196,-0.032055,-0.071143,0.202997,-0.451869,-0.080034,-0.106909,0.188084,-0.067152,0.084031,-0.023725,-0.08062,0.088242,0.7629,0.1501,0.297579,-0.180418,0.234722,-0.045262,-0.032731,0.039619,0.059722,0.065616,0.39402,0.016225,-0.026718,-0.283514,-0.051907,0.250394,0.23126,-0.964241,-0.063385,0.050116,-0.096903,0.200727,0.300623,0.016021,0.063288,-0.008765,0.614472,-0.082349,0.067977,0.200261,-0.090898,-0.250701,-0.021892,-0.10845,-0.024956,-0.023446,0.764325,-0.303662,-0.447291,0.059636,-0.453202,0.034086,0.07683,0.082996,-0.162166,-0.039839,-0.132418,0.221665,-0.393809,-0.045217,0.056727,-0.164026,0.145579,0.167712,-0.103753,-0.084349,-0.327867,0.146565,-0.051549,0.040739,-0.028007,-0.273192,0.034672,0.069402,0.147051,-0.036798,-0.049605,0.312278,0.168576,-0.061018,-0.063521,0.533431,0.092337,-0.02011,0.142104,-0.110991,-0.048116,0.146884,0.021468,0.031988,0.028823,-0.147625,0.241455,-0.104152,-0.221598,-0.162015,-0.236424,-0.31677,0.218502,0.349067,-0.261928,-0.210224,0.277136,0.418558,-0.046095,0.042007,-0.038788,0.523292,0.000696,0.155331,-0.465454,0.169703,0.007241,0.011129,-0.049512,-0.310272,0.042318,0.117171,-0.021025,0.053698,0.104748,0.168732,0.268818,0.262312,0.114203,-0.235979,-0.085935],[0.043393,1.313182,0.288827,-0.009586,0.005804,-0.391693,0.17561,0.062801,-0.032604,0.018421,0.013953,-0.013352,0.030165,-0.22413,-0.786068,0.106413,0.061695,0.014654,-0.438396,0.189032,0.059341,0.385345,-0.07288,-0.122603,0.199903,0.102777,0.186661,-0.629547,0.204052,0.046032,0.059055,0.05663,0.122901,0.092316,-0.347808,0.19827,0.220887,0.17736,0.003437,0.098893,-0.011526,0.004585,-0.034074,-0.355942,0.493462,0.237957,-0.154341,0.350489,-0.032861,-0.081179,-0.072225,-0.07524,0.548121,0.421133,-0.056316,0.078866,0.116114,0.117188,0.297552,-0.145859,0.448985,-0.147393,0.057483,-0.167475,-0.503887,-0.160584,0.115281,-0.066744,0.146784,0.391685,0.324046,0.389006,0.215158,0.205303,-0.724289,-0.031277,0.027532,-0.067753,0.327471,-0.182429,-0.59868,-0.718733,-0.056534,-0.356143,-0.047547,0.047405,0.077061,-0.447261,0.001157,-0.169873,-0.011475,1.863009,0.033607,0.06437,-0.009733,0.242818,0.00829,-0.084427,0.171589,-0.437315,0.043233,0.066861,-0.015739,-0.144944,-0.063304,0.02251,0.061995,-0.254621,-0.076541,0.046963,-0.242186,0.219699,0.122092,0.175065,0.125724,0.117228,0.031205,0.039434,0.294041,-0.075377,-0.038785,0.089757,0.222281,-0.02829,0.042099,-0.024737,-0.209188,-0.249188,0.078254,-0.159708,-0.67301,0.096449,0.81525,0.11017,0.20562,0.042031,0.063488,-0.048061,-0.034993,-0.089987,-0.278974,0.21525,0.10654,0.154412,0.057307,-0.074528,-0.01201,0.071806,0.10737,0.007032,0.104017,0.055963,-0.074724,0.38209,0.473747,-0.53134,0.411797,0.196201,-0.066725,0.230199],[-0.065407,0.10758,0.13322,-0.054823,-0.375839,-0.019345,-0.12239,-0.185344,-0.296143,-0.028938,-0.057435,0.271867,0.007391,0.42216,-0.193408,0.034192,0.031983,0.074365,-0.087086,0.090015,-0.219996,0.096728,0.112231,0.055776,-0.172443,-0.389228,0.203302,0.000685,0.025738,0.148572,0.098068,0.295705,0.105401,0.079543,-0.409717,0.225073,-0.002169,-0.200356,0.053346,-0.122255,-0.065142,-0.047427,0.141688,0.168142,0.548653,-0.133686,0.052702,0.198753,-0.015519,-0.212738,-0.037398,0.044108,0.327047,0.515212,0.024097,0.454366,0.203839,0.595722,-0.208235,-0.197675,0.356391,0.148491,-0.030883,-0.196073,0.042356,0.785864,0.240811,-0.031122,0.018367,0.213109,0.053445,0.147146,0.196867,-0.065474,-0.188873,-0.084096,0.006658,0.044495,0.027171,0.199673,-0.172007,-0.174527,0.141676,-0.092455,0.38178,0.007029,0.107909,-0.01788,0.068912,0.499227,-0.274445,-0.970206,0.317246,0.046467,0.106367,-0.001526,0.092539,0.136339,-0.039965,-0.521105,0.248012,-0.014216,0.043063,-0.087178,-0.15136,0.056176,-0.004146,0.160414,-0.01284,0.019492,1.053439,0.22025,0.152696,0.090218,0.132358,0.033157,0.018911,-0.162299,-0.037857,0.016037,0.089681,0.105459,0.080645,-0.06325,-0.10032,-0.097697,-0.186503,-0.413997,-0.275368,0.024731,-0.210344,0.15636,-0.467699,-0.219566,0.354312,0.158066,0.283771,0.093493,-0.240868,0.11393,0.145659,0.084755,-0.300447,-0.012014,0.288367,0.027273,0.718696,0.06003,0.192432,0.1159,0.139449,0.112073,-0.034343,0.098278,-0.204018,-0.350603,0.094163,-0.119286,0.140408,-0.074648],[-0.759036,1.135015,0.3191,-0.084565,-0.174467,0.327089,0.15238,-0.06437,-0.063453,-0.001153,0.492136,0.733004,0.038263,-1.138361,0.410381,0.506578,0.042122,0.049027,-0.869202,-0.089685,-0.063661,0.188463,-0.131941,-0.443006,0.275157,-0.044548,-0.029629,-0.523937,-0.143205,-0.091921,-0.181631,-0.034656,0.038721,0.021547,-0.371455,0.05388,0.129562,0.514357,0.060282,0.034077,0.066387,0.089438,-0.260074,0.114239,0.463589,0.013669,0.164515,0.266931,-0.058018,-0.042641,-0.040586,-0.104961,0.175537,-0.343167,0.120151,-0.064741,0.080754,0.732105,-0.590247,0.112117,0.311779,0.186122,-0.021984,-0.1961,-0.180913,-1.84362,0.353841,-0.046212,0.05549,1.312739,-0.111002,0.179737,0.280959,-0.112286,0.050599,0.123152,-0.018459,-0.042843,-0.158059,0.20339,-0.301924,-0.498096,-0.235995,-0.115488,0.30361,0.101408,0.05359,-0.156924,0.138594,0.164637,0.125144,0.780713,0.232511,-0.068506,0.041456,0.067029,0.137092,0.171325,0.071827,-0.462603,0.106708,0.039809,-0.005231,-0.181162,-0.161772,0.037307,0.048661,0.226205,-0.01436,0.055402,-0.870139,0.079826,0.219974,-0.22172,0.257334,-0.111445,-0.054146,-0.181692,0.035695,0.014436,-0.06179,0.01347,0.054333,0.060656,-0.091211,-0.078387,-0.051674,-0.20659,-0.10094,-0.750138,-0.292658,0.078911,0.6091,0.001842,0.018785,-0.221956,0.140266,-0.057322,-0.350979,-0.134608,0.611388,0.160419,-0.122693,-0.11161,0.190791,-0.036163,-0.755392,-0.00166,0.143744,0.041345,-0.096544,-0.159846,0.043087,0.558627,0.137289,-0.813666,0.127493,0.112299,-0.0987,-0.016112],[0.030394,-0.063973,0.035705,0.014517,-0.072857,0.02461,0.022903,0.057017,-0.008399,-0.017146,-0.004498,0.000706,-0.037905,-0.074542,0.051377,-0.018257,-0.062031,0.049507,-0.020533,-0.026136,-0.045414,-0.004663,0.005078,0.022513,0.054583,-0.064358,0.062444,-0.078103,-0.069291,0.01493,-0.066449,-0.039323,-0.090699,-0.043927,-0.070039,-0.019651,0.053097,0.006975,0.033449,-0.012965,-0.02488,-0.0802,-0.015323,-0.085807,0.018954,0.044273,-0.032147,0.012716,0.03735,-0.06345,-0.003211,0.027894,-0.076382,0.002601,-0.024285,0.030687,0.031539,-0.063817,0.018367,-0.039768,0.013357,-0.078995,-0.023094,0.035339,-0.05178,-0.04896,-0.076162,0.046837,-0.039361,0.003803,-0.082877,-0.050589,0.063385,-0.015108,0.045397,-0.078823,-0.025528,-0.074945,-0.016706,-0.01552,0.051734,-0.082454,0.059877,0.0428,-0.088367,0.055692,-0.022132,-0.053484,-0.008433,0.03345,-0.074335,-0.06629,-0.088133,-0.078028,-0.051987,0.054198,0.022973,-0.075509,-0.058453,-0.041065,0.050772,0.055748,0.00771,0.046043,-0.033887,0.044428,-0.019527,-0.035528,0.047113,0.033142,-0.012362,0.011981,-0.055651,0.060898,0.057379,-0.037813,0.01909,-0.057193,-0.065937,0.020376,-0.020458,0.022453,0.052082,0.014722,-0.079518,0.035268,0.038891,0.030538,-0.087267,-0.070362,0.052932,-0.023896,0.018929,0.0183,0.001989,0.058179,0.033995,-0.061509,-0.01896,-0.043145,-0.054886,-0.035933,-0.003695,-0.057243,0.050246,0.059136,0.064942,-0.008001,-0.02248,-0.026734,-0.057187,-0.090588,-0.026729,0.002409,-0.018545,-0.083119,-0.085276,-0.013706,0.015407,-0.08663],[0.046548,0.035354,-0.0744,-0.054795,-0.000165,0.055248,0.040523,-0.040745,0.003695,0.00932,0.027336,0.032647,-0.001668,-0.047914,-0.076994,0.051111,-0.071531,0.073678,0.048914,-0.02598,-0.057025,-0.067327,-0.075459,0.090523,-0.079212,-0.080963,-0.01839,0.079873,-0.040968,0.020128,0.028834,-0.079862,0.055563,-0.067282,-0.009605,0.011477,-0.030912,0.047137,-0.011047,-0.05702,0.04738,-0.077807,0.006485,-0.068981,0.052388,0.045682,-0.058722,-0.04602,-0.07824,0.014208,-0.025038,0.050365,-0.091449,-0.03115,0.006429,0.045302,0.044961,-0.033706,-0.055071,-0.007501,-0.056163,-0.051959,-0.076589,0.024377,-0.023417,-7.9e-05,-0.051073,-0.077621,-0.010343,-0.042172,-0.011031,-0.041379,-0.048035,0.009189,0.021309,-0.093138,-0.013575,-0.049811,0.005025,4.9e-05,-0.079528,0.024473,0.030943,-0.042193,0.01972,0.047348,0.041671,0.019169,0.035308,-0.049672,-0.086404,-0.013828,0.017664,0.002694,-0.055921,-0.016688,0.045376,-0.019443,0.021768,-0.094505,0.014753,0.010826,0.005402,-0.027276,-0.057945,0.008415,0.069117,-0.044567,0.018373,0.041248,-0.051397,-0.045186,-0.040303,-0.073036,-0.064465,0.040918,0.056466,-0.015906,0.044417,0.046874,-0.055719,0.049299,-0.049835,0.058993,0.027848,-0.089794,-0.000655,-0.055261,-0.048664,0.031156,0.012048,-0.090666,-0.01185,-0.00725,-0.050523,-0.054207,-0.067215,-0.029555,0.038164,-0.100622,-0.011163,-0.00769,-0.070144,0.004102,-0.003803,0.037482,-0.019146,0.053281,0.030122,-0.002349,0.046344,-0.036064,0.061315,-0.044466,-0.038765,-0.068265,-0.053164,-0.024115,-0.000249,-0.048094],[-0.200922,-1.073971,-0.220283,-0.210512,-0.018291,-1.013415,0.171806,0.064051,-0.030329,0.049023,0.232231,0.716664,0.029013,-0.735281,-0.320829,0.076138,-0.035657,-0.003673,-0.064628,-0.066921,0.206381,0.367915,-0.044474,-0.011779,0.065679,0.260783,-0.105404,-0.042804,0.056086,-0.450023,-0.120426,-0.145757,0.043661,-0.015424,-0.490693,0.196371,-0.085737,0.119519,-0.061507,0.110068,-0.005323,0.375191,-0.322729,0.30048,0.266341,0.136299,-0.407259,0.211754,-0.028916,0.003485,0.064721,0.053987,0.120592,0.436493,0.134646,-0.020543,-0.249933,1.060258,0.014633,0.123795,-0.218235,0.128014,-0.057398,-0.263461,-0.123258,-0.506749,0.038025,0.053965,0.039025,0.580354,0.206391,0.358036,0.102542,0.048202,0.328641,-0.163723,0.099711,-0.047489,0.141241,-1.195448,-0.139591,-0.195418,-0.06124,-0.180008,-0.249583,0.096353,0.015696,-0.007849,0.155474,0.032804,0.019866,1.411981,0.101375,0.07654,-0.191412,-0.046663,0.114034,-0.071908,0.035303,-0.156086,0.114026,0.094777,-0.060448,-0.15107,-0.09303,-0.044683,-0.014465,0.244801,0.010263,-0.08718,-0.933134,0.21683,0.04166,-0.144327,0.307615,-0.03873,0.087531,0.057036,-0.04957,-0.027518,0.121998,0.015258,0.054141,0.045674,0.018132,-0.032132,0.15889,-0.179164,-0.118851,0.194895,0.212117,0.012929,1.247709,0.02762,0.075149,-0.204219,-0.2615,-0.092746,-0.296749,0.046144,-0.293675,-0.080779,0.056266,-0.106317,0.202037,-0.091896,1.945135,-0.010128,0.181144,0.07005,0.046266,0.176083,-0.068096,-0.126444,0.093735,-0.888251,0.142731,-0.018087,-0.106179,0.177941],[0.003781,-0.700679,0.101316,-0.040326,-0.042073,-1.102033,0.214963,-0.191186,0.044128,0.146228,-0.57077,0.418503,0.014243,-0.58989,-0.329036,0.041409,0.000894,-0.029995,0.125914,-0.031011,0.193173,0.384129,0.040046,-0.348891,-0.130706,0.240925,0.295866,0.010097,0.284873,-0.153739,0.038584,0.047384,-0.108256,0.149961,-0.352024,0.137131,-0.297527,0.106102,-0.071916,0.007864,0.07645,-0.328432,0.174802,-0.380682,0.434306,-0.367505,0.012423,0.215412,-0.078487,0.250868,0.006788,0.049534,0.005756,0.569015,-0.436408,0.039885,0.268956,-0.798973,-0.33389,0.331088,0.40861,0.440466,0.03744,-0.234017,0.080276,0.392187,0.290996,-0.000647,0.18647,0.778673,0.021431,0.251072,0.078276,-0.345793,0.459505,-0.108084,0.056413,0.072921,0.034405,-0.335119,0.050309,-0.068125,-0.287539,-0.200869,0.43096,0.467346,0.170991,0.337451,0.134384,-0.039016,-0.028783,0.609465,0.197334,0.013999,0.025926,0.197996,0.083045,0.13913,-0.14121,0.25318,-0.028423,0.069123,0.046212,-0.169939,-0.04749,0.052901,0.02792,0.014141,0.041519,0.023921,0.309418,0.367483,0.435153,0.072121,-0.11814,-0.279218,0.022589,0.067975,-0.161815,0.073745,-0.184219,-0.052702,0.02614,-0.05106,-0.27208,0.13059,0.00599,-0.16361,-0.143267,-0.03244,-0.257959,0.059107,-0.008755,-0.154741,0.760665,0.158382,0.263758,0.013836,-0.01558,-0.198499,0.211441,-0.382987,-0.394016,0.113352,0.304715,0.020656,-0.68626,-0.020234,-0.12908,-0.108604,0.020622,0.213796,0.056422,0.063456,0.195958,0.095881,0.187801,-0.286976,-0.209256,0.078506],[0.600494,-1.845813,0.234652,0.211274,0.016062,0.472934,-0.038126,-0.279297,-0.042349,0.104693,0.153935,0.792758,0.039302,-0.456478,0.322005,0.485569,0.022414,-0.019669,-1.022138,0.52977,0.231457,-0.339798,0.100521,-2.677517,-0.191437,-0.613967,0.643935,-0.146008,-0.001062,0.473956,-0.0379,-0.190964,0.052008,0.173392,-0.252356,-0.126093,-0.334299,0.148785,-3e-06,0.12243,0.039614,-0.280934,-0.049444,-0.171828,0.669313,-0.334371,-0.781461,0.507037,0.059561,-2.082222,-0.070117,-0.046252,0.311862,-0.086619,-0.133071,-0.056246,-0.716548,0.619236,0.208224,-0.37109,-0.907792,-0.233248,-0.055648,0.085694,-0.448934,0.578857,0.085254,0.044381,-0.907479,1.682499,0.054454,0.132037,0.107301,-0.014671,-6.478754,-0.593485,0.037254,-0.00821,0.147088,-0.713148,-0.588628,-1.276168,-0.130365,0.268231,0.782184,0.264482,0.204451,-0.867825,0.163025,-0.346259,0.056608,1.27785,0.095787,0.017198,0.761232,0.054648,-0.032293,0.222875,0.267814,0.27352,0.009544,0.024247,