export const distilledFlopArtifact = {"enabled":true,"passed":true,"version":"distill-flop-v3-deep","trainedAt":"2026-06-29T12:03:48Z","policyKind":"softmax-distill","blend":1.0,"appliesTo":"flop","featureNames":["equity","range_eq_0_10","range_eq_10_20","range_eq_20_30","range_eq_30_40","range_eq_40_50","range_eq_50_60","range_eq_60_70","range_eq_70_80","range_eq_80_90","range_eq_90_100","pot_odds","spr_norm","street_flop","street_turn","street_river","position_signal","to_call_flag","made_strength","draw_strength","wetness","paired","monotone","connected","range_advantage","blockers","range_percentile","range_weight","range_coverage","context_aggressor","three_bet","facing_bet","free_check","flush_blocker","nut_flush_blocker","top_blocker","board_pair_blocker"],"actionSets":{"open":["check","bet-mid"],"facing":["fold","call","jam"]},"validation":{"val_kl":0.078715,"rows":42000},"model":{"type":"mlp-softmax","activation":"relu","layers":[{"weights":[[0.084494,-1.558152,0.101048,-0.029051,-0.018919,-0.149975,-0.07422,-0.124687,-0.116695,0.150029,-0.106357,-0.097104,-0.363484,-0.051629,0.029867,0.112891,0.139977,-0.095037,-0.008621,0.96473,-0.006109,0.042665,0.109414,0.161516,-0.027929,-0.785604,-0.128737,0.084409,-0.061453,0.117783,0.138124,-0.048897,0.021367,0.179694,0.087232,-0.039592,-0.018551],[0.076072,-0.004143,-0.165077,-0.118996,-0.172404,0.010308,0.110022,-0.112972,0.067822,-0.010967,-0.124905,0.121884,-0.180426,-0.122148,0.114433,0.091296,-0.114364,0.027222,0.137368,-0.055003,0.01532,-0.071094,-0.064667,-0.05943,-0.172959,-0.040559,-0.004264,-0.070007,-0.020891,-0.078951,-0.116886,-0.08957,0.079318,-0.074166,-0.135786,0.068518,0.086876],[-0.294013,0.398532,-0.103734,0.025523,0.08403,0.041197,0.099789,-0.067553,-0.214779,0.48996,-0.18773,0.071809,-0.17273,-0.014333,-0.026402,0.008464,-0.038273,-0.060162,0.293043,0.83437,-0.081366,-0.063737,0.094103,0.058545,0.13205,0.229662,-0.0609,-0.164505,0.043464,-0.088535,-0.112287,0.174954,-0.150739,-0.245571,0.239519,-0.015755,0.109072],[0.072807,-0.69123,-0.04165,-0.026232,-0.034527,-0.107697,-0.126656,-0.090503,-0.207211,0.140759,0.038346,-0.073482,0.126848,0.024495,-0.01408,0.159296,0.061478,0.010619,-0.200884,0.102896,-0.068937,0.11278,-0.006167,0.009785,-0.031501,-0.120981,0.134968,-0.02125,0.040648,0.141928,0.065606,0.073037,-0.120877,0.063732,-0.200574,0.01838,0.072833],[0.361931,0.208482,0.027815,-0.072041,-0.233397,0.213291,0.053445,-0.364159,-0.091721,0.180309,-0.172126,-0.137967,0.146095,-0.025553,0.120374,-0.142113,-0.035615,-0.041534,0.243234,-0.602214,0.177586,0.004424,0.129807,0.117723,-0.233331,0.458487,0.491112,0.029856,0.020264,-0.112832,-0.072464,-0.105209,-0.056617,0.109938,0.0024,-0.19386,0.128646],[0.238099,-0.524042,-0.081946,-0.364535,0.449827,-0.664548,-0.255923,0.510586,-0.397611,1.066599,-2.102567,-0.040164,-0.038081,-0.170958,-0.123639,0.048306,0.38961,-0.140436,-0.069587,0.875369,0.198569,-0.157449,-0.098077,0.050548,-0.222065,0.281123,-0.073058,-0.225459,-0.107435,-0.120074,0.163151,0.074101,-0.198403,-0.022251,-0.061787,-0.046282,0.017469],[-0.053425,-0.707598,0.113707,0.184192,0.037108,-0.014669,-0.055504,0.198676,0.181403,0.133007,0.09923,0.186405,0.257434,-0.065162,0.006573,-0.098927,-0.051629,0.003016,-0.567598,-0.426141,-0.158187,0.206895,0.241849,-0.091282,0.042973,0.502445,0.019262,0.017928,0.01126,-0.112697,0.049977,0.138354,-0.130513,0.267705,0.038863,0.024728,-0.074268],[0.239234,-0.011921,0.495318,-0.282663,-0.159515,0.210408,-0.195169,-0.603392,0.089818,0.04811,-0.466985,-0.007017,0.076916,-0.102636,0.079842,-0.059906,-0.012896,-0.119332,0.079906,0.122403,-0.098602,0.043265,0.025691,0.066238,0.029135,-0.808495,0.408225,0.249832,-0.210883,-0.208008,-0.028676,0.07873,-0.268999,0.106322,0.138153,0.0326,-0.15125],[0.105845,2.111502,0.085035,-0.122757,-0.175436,-0.276051,0.662634,0.110864,0.000518,-0.636391,-0.055408,-0.078977,-0.044459,-0.069035,-0.050206,-0.084108,0.347414,-0.148545,-0.363142,0.22793,0.481487,0.190919,-0.155049,-0.2603,-0.0678,-0.108598,-0.126246,-0.140485,-0.120838,0.072997,-0.15324,0.117294,-0.127235,0.08994,-0.105842,-0.097538,-0.103294],[-0.021991,-0.320427,0.24255,-0.284795,0.029136,0.047817,0.138699,0.024234,0.20957,-0.160988,-0.848518,0.200023,0.055737,0.087652,-0.108964,-0.156261,0.147435,-0.060753,0.107432,-0.336375,0.214848,-0.099986,-0.049713,0.130269,-0.127075,-0.053142,-0.160627,-0.004637,0.040057,0.126044,0.067919,-0.096437,-0.020282,0.197469,-0.084956,-0.021388,-0.110097],[0.098309,-0.710295,0.164625,0.059906,0.041797,0.026424,0.108825,0.108566,0.136289,0.001914,-0.134339,0.020477,-0.152982,0.124055,0.124954,-0.107438,-0.049701,0.006551,-0.048657,-0.576449,0.200012,0.106048,0.01336,-0.034212,0.054747,0.054798,0.051836,-0.160945,-0.110564,0.059302,0.119307,-0.076813,0.017333,0.051733,0.103176,-0.143066,-0.048015],[0.219478,-0.789606,0.093505,-0.200969,-0.191575,0.131164,-0.054447,0.031109,0.079859,0.065575,-0.431587,-0.092696,0.080499,-0.144034,0.054465,-0.009977,-0.107615,-0.311673,0.289315,0.414212,-0.135769,-0.061779,0.147975,-0.023155,-0.05248,-1.34867,0.189398,0.068017,-0.131399,0.09926,-0.005638,-0.214545,-0.066214,0.102145,0.038816,-0.018801,-0.38027],[-0.077026,0.007188,-0.139905,0.08416,0.067672,0.039978,-0.157353,0.157824,-0.126006,0.092281,-0.143462,-0.066384,0.024958,-0.00844,0.059884,-0.161866,-0.058558,0.037803,0.111288,0.129611,-0.050376,0.022773,-0.107701,-0.034466,-0.017372,-0.082605,-0.157896,0.137712,-0.017261,-0.059591,0.142039,-0.013392,-0.051936,0.053358,-0.011855,-0.020163,0.063573],[-0.072726,-0.133224,-0.042539,0.051398,-0.095354,0.015746,-0.101375,-0.013398,-0.112094,0.051389,0.084948,-0.005605,-0.178108,-0.154864,-0.024041,-0.107476,-0.163524,-0.150981,-0.009991,-0.119969,-0.051102,-0.098476,0.12286,0.049064,-0.084072,-0.137334,-0.059379,-0.129296,-0.052029,-0.051487,-0.127014,0.137543,-0.121894,0.128597,0.128012,0.114047,-0.030387],[0.080267,-1.666996,0.009395,0.004471,-0.060571,-0.029952,-0.06978,-0.215163,0.022463,0.33163,-0.197867,-0.158163,-0.032665,-0.07156,0.071703,-0.08253,-0.11314,-0.144917,0.139799,0.566022,-0.053298,0.189414,0.276934,0.238261,0.047531,-0.643663,-0.09889,0.000806,0.159053,0.06666,-0.0772,-0.081232,0.176991,-0.018754,-0.053669,0.182254,0.231233],[-0.065207,0.979273,0.370032,0.169426,0.080949,0.035813,-0.214554,0.031566,-0.166345,0.253057,0.307983,0.014777,0.085462,0.149479,0.097174,-0.157951,-0.132548,0.183283,-0.39218,0.142352,0.053542,-0.071309,0.026103,0.013857,0.118878,0.377917,0.196639,-0.009237,-0.039963,-0.121642,-0.074087,-0.066532,0.075518,-0.112979,-0.198338,-0.112987,-0.061774],[0.071432,0.114501,-0.097638,-0.134328,-0.106889,0.071315,-0.104792,-0.050515,-0.045129,0.118392,-0.161407,-0.109052,-0.021391,-0.10328,-0.104123,0.073933,-0.163122,-0.117804,-0.038541,-0.014987,0.032559,0.05664,-0.081343,-0.113421,-0.096781,-0.162192,-0.079492,-0.026488,0.138724,-0.016327,-0.084795,0.071692,-0.025612,-0.086305,-0.162546,-0.102131,0.106143],[-0.156246,0.151868,-0.009975,-0.009319,-0.065169,-0.151716,-0.127385,-0.014543,-0.0455,-0.013483,0.046936,0.131859,-0.135707,0.11745,-0.139643,-0.055119,-0.063819,-0.01719,-0.136629,-0.149579,0.156029,-0.153569,-0.125305,-0.156207,-0.122976,0.087073,0.110032,-0.133397,0.106546,-0.008589,0.118001,-0.160841,-0.116969,0.040871,-0.11886,-0.043669,-0.042272],[-0.033285,-0.728775,0.006428,-0.062077,-0.115221,-0.048687,0.02461,0.050909,0.290972,-0.031488,-0.648562,-0.260033,-0.118432,0.039818,0.015383,0.053413,0.156525,-0.227853,0.21163,0.634696,0.038632,-0.107502,-0.040537,-0.095579,0.02476,-0.614323,0.001926,0.095665,-0.158991,0.158213,-0.000338,-0.226323,0.004464,-0.104486,-0.100017,0.182924,0.132345],[0.146932,0.223022,0.34952,0.150527,-0.225082,0.062164,-0.094815,-0.055681,0.043801,0.067674,0.220619,-0.038596,0.180535,0.114104,-0.026863,0.114464,-0.017121,0.064831,-0.144142,0.292488,-0.082064,-0.162995,-0.203226,0.159937,-0.000805,-0.489042,-0.034825,-0.208015,-0.157846,0.052283,-0.055465,0.159595,-0.022259,-0.005708,-0.146098,0.028665,-0.055715],[0.009583,0.623597,0.451432,0.44734,-0.110941,0.030393,-0.210333,-0.10027,-0.212392,0.481432,0.518715,0.078413,0.327766,-0.035443,0.102908,-0.037015,-0.164345,-0.023852,0.072711,-0.53154,-0.390279,-0.045747,-0.245687,0.059493,0.118696,-1.041093,0.096859,0.015633,0.092275,-0.013176,0.037243,-0.039038,-0.051402,0.283331,0.081714,0.114519,-0.042403],[0.003723,-5.739295,-0.16734,-0.349882,0.099298,0.156418,-0.020308,0.156484,-0.791168,0.277561,-0.732321,-0.172036,0.111655,-0.010599,-0.081005,0.130389,0.044816,0.066263,-0.551399,0.908772,-0.085861,-0.298193,-0.309865,-0.315228,-0.09781,-1.416005,-0.100145,0.028266,0.055445,0.15783,0.099435,-0.189956,-0.021709,-0.069517,-0.020862,0.073025,-0.024583],[0.058737,1.058846,-0.261768,-0.054807,0.120499,0.135444,-0.054726,0.001363,-0.212059,0.089329,0.489522,-0.152946,0.404873,0.020689,0.109644,0.047602,0.090172,-0.19007,0.054397,-0.565208,0.007059,0.101651,0.209222,-0.03669,0.199828,0.515226,-0.139726,-0.14684,0.194318,-0.000951,0.081563,0.110156,0.044203,0.154605,-0.029897,0.159724,0.039763],[-0.00333,2.073563,-0.269665,-0.015295,0.253318,0.177343,0.042565,-0.210978,-0.503492,0.486463,-0.152753,-0.002468,0.110719,0.015093,-0.08557,-0.018035,-0.039675,-0.044239,-0.141168,1.283817,-0.562136,0.033511,0.03716,0.135034,0.12974,-0.003058,-0.161755,-0.161503,0.005997,-0.153114,-0.093507,0.132523,-0.080505,-0.054863,0.251311,-0.086842,-0.193739],[0.028427,-1.11244,-0.302506,-0.360422,0.308944,0.192695,0.2335,0.147186,-0.01753,-0.416401,-0.207887,-0.01465,0.090309,-0.040723,0.113673,-0.018876,-0.032909,-0.159745,0.092344,-0.68687,-0.016481,0.110012,0.064895,-0.054648,0.118846,-0.198315,-0.030791,-0.089445,0.163175,-0.153162,0.094183,-0.006098,-0.001987,0.112353,0.116513,0.003481,-0.127124],[-0.066086,-0.106659,-0.082967,0.132528,-0.048271,-0.141002,0.053294,-0.144344,-0.096931,0.079086,-0.057059,-0.00901,-0.081261,-0.160329,0.150567,0.02516,-0.128359,0.076691,0.021442,0.002955,-0.160365,-0.149966,0.077276,-0.080935,0.081124,-0.01467,0.019697,-0.076773,-0.029137,0.013168,0.020668,0.032433,-0.154553,-0.150498,-0.019017,0.082921,0.047958],[-0.035845,2.263639,-0.059013,-0.015984,0.360304,0.035057,0.286609,-0.109942,0.229764,-0.07921,0.388512,0.049396,-0.073158,0.024503,0.065284,0.00924,-0.225636,0.107842,0.088136,-0.920214,0.077994,-0.088002,-0.022962,-0.236766,0.196725,0.393718,-0.158985,-0.061688,-0.055857,0.027653,0.085377,0.046122,0.099632,0.045674,0.085402,-0.126764,-0.050718],[0.125832,-1.620992,-0.085776,0.197285,0.020966,0.024179,-0.010827,0.13051,0.005006,-0.247593,0.10112,0.031483,0.230483,-0.09139,-0.054644,0.102612,0.035868,0.055156,0.028517,0.437959,0.083245,-0.229554,-0.141334,-0.270468,0.028516,-0.862918,0.211215,0.100029,-0.096749,-0.133656,0.132803,-0.004853,-0.209266,-0.255916,0.292357,0.035723,0.137358],[-0.216499,1.735243,-0.015452,0.107961,-0.096959,-0.233778,0.098373,0.151389,0.133856,0.227286,-0.0479,-0.007866,-0.134886,-0.118073,0.034915,-0.042107,-0.063156,0.134307,0.115095,-1.861794,-0.179729,-0.07231,0.030872,-0.105663,0.1011,0.952786,0.115852,-0.07979,0.077563,0.031901,0.136032,0.127187,0.091079,0.558279,0.299481,0.006498,0.044273],[-0.001738,-0.307939,0.162652,0.149438,-0.163597,0.082458,-0.103512,-0.013486,-0.05364,0.04159,0.072987,0.086644,-0.10075,0.061847,0.005449,0.061017,0.164052,-0.024272,-0.05857,-0.613838,0.082301,0.085747,0.373516,-0.195009,0.048433,0.331488,0.100929,0.009065,-0.029033,-0.068102,0.017878,-0.011332,-0.060661,0.145149,0.006008,-0.114102,0.107918],[-0.154787,-0.054677,0.344817,-0.091081,-0.01268,-0.021211,-0.367963,0.473463,0.043436,-0.114822,0.155415,-0.097421,0.227059,-0.128742,-0.089249,0.10293,0.229068,0.079749,0.048684,0.917722,-0.314699,0.054444,0.008178,-0.030503,0.020813,-0.70979,0.01466,-0.119281,0.161301,-0.080803,-0.140904,0.049879,-0.013287,-0.032751,0.013771,-0.280508,-0.352543],[-0.000574,-2.900374,-0.530048,-0.201325,0.272572,-0.128661,0.276877,-0.053747,-0.276126,-0.066387,0.026519,0.01709,0.276333,-0.015359,-0.101642,0.104671,0.034847,0.063933,0.259293,-0.45528,0.15131,0.052216,-0.345546,-0.018619,0.085299,0.329788,-0.106017,0.016191,-0.167335,0.025292,0.14595,0.094169,-0.007455,-0.051837,-0.178583,0.055438,0.222226],[0.157438,0.957972,0.372828,0.263334,-0.180472,-0.105549,-0.020671,-0.129878,0.027977,0.086814,0.166891,0.043365,0.198722,0.156742,0.068579,-0.099609,0.107425,0.152076,-0.067691,0.074166,0.002169,0.019645,-0.045403,-0.001429,0.074544,-0.066632,-0.182688,-0.110191,-0.151339,0.093207,-0.008387,-0.003752,-0.137696,0.228654,-0.13804,-0.179996,-0.253029],[-0.199671,0.100589,0.196459,-0.162249,-0.070346,-0.065581,-0.170947,0.187048,-0.019074,-0.031485,0.193854,0.063515,0.001285,0.16028,-0.076873,-0.11469,-0.107931,-0.054316,-0.260011,-0.745156,0.174159,0.100886,-0.077727,0.172702,-0.089339,0.353094,0.093239,0.105714,0.171578,0.022827,-0.00621,0.132881,-0.019856,-0.316181,0.19904,-0.014264,-0.085944],[0.12424,-2.814775,-0.129485,0.129931,0.199456,-0.075431,0.153686,0.170603,-0.321691,-0.315093,0.322435,-0.051429,0.278682,-0.103559,0.096015,0.051346,0.006178,0.10543,0.268714,-0.043493,0.007046,0.059612,-0.006501,-0.277901,0.089107,-0.039182,0.143786,-0.001506,0.028999,0.008544,-0.004286,0.01853,-0.13651,0.064988,0.178904,0.011005,0.174382],[-0.231632,-0.375138,0.228901,-0.008321,-0.017018,-0.039975,-0.028743,-0.102893,0.352219,0.211315,0.042441,0.184297,-0.239674,0.059919,-0.111464,-0.058791,-0.039204,0.115033,-0.113914,-0.488842,0.006791,0.175838,-0.036113,0.084569,0.000703,0.604809,-0.224207,0.017952,-0.049187,0.090403,-0.079746,0.089574,-0.05223,-0.260471,-0.14066,-0.28445,-0.050062],[-0.053211,-2.467774,-0.180467,0.124029,-0.070496,0.172028,0.285019,0.2805,-0.0218,0.180907,-0.012771,-0.051447,-0.11156,0.062226,-0.061945,0.074479,-0.156038,-0.01844,-0.134541,0.291916,0.214873,0.025038,-0.283258,-0.010734,0.138585,0.405325,0.015678,-0.024869,-0.029407,-0.080657,-0.061693,0.09879,0.073415,0.226538,-0.081285,-0.082347,-0.13295],[-0.219312,-2.817777,0.865626,0.269589,-0.31518,-0.416665,-0.113147,0.860831,-1.008847,0.497358,0.699992,0.02241,-0.164479,0.119484,0.136429,0.06841,0.130731,0.087225,-0.141912,-0.303961,0.083456,0.102141,0.169679,-0.024703,-0.127255,0.462331,0.086553,0.095209,-0.105295,0.149571,-0.162382,0.042202,-0.045092,-0.11188,-0.073848,0.087348,-0.3485],[-0.296984,0.46304,0.127021,-0.212381,0.11574,0.146196,0.012737,0.038038,0.128634,0.074094,-0.227255,0.186077,-0.109714,0.200032,-0.153039,0.100896,-0.045193,0.00555,-0.368014,-0.322374,-0.026907,-0.059899,0.233365,-0.100722,0.127535,-0.082063,-0.213529,-0.04571,-0.046789,0.005259,-0.056181,0.20101,-0.126493,0.005669,0.0392,-0.162575,-0.163304],[-0.152797,1.066161,0.421309,-0.113477,0.030199,0.082102,-0.1226,-0.176141,-0.12592,-0.153261,0.278531,0.147357,0.209358,0.074236,0.063732,0.085365,0.022174,0.002481,-0.137577,-0.60621,-0.149788,-0.060044,0.114644,-0.047095,0.148729,0.27882,0.03142,0.091827,-0.004744,0.039404,0.00792,0.08204,0.013263,-0.243347,-0.121287,-0.080958,0.138172],[-0.147908,0.127455,0.110998,0.088892,-0.126646,0.001764,0.155644,0.037715,0.075143,-0.020272,-0.149388,0.007086,-0.05449,0.104116,-0.01088,-0.036114,-0.146401,-0.091887,0.035049,-0.030877,-0.138809,-0.006483,-0.008766,0.000673,-0.076967,0.044735,-0.102123,0.080882,-0.099442,-0.163548,0.032613,0.091616,-0.074772,-0.084317,-0.044462,-0.087268,0.026979],[0.077585,1.179886,0.319786,0.213494,-0.261566,0.002466,-0.255623,-0.380614,0.263284,0.254888,-0.268178,0.043248,-0.031869,-0.154972,0.139522,-0.15375,-0.164308,0.068125,-0.136888,1.043849,0.150401,0.098429,0.112665,0.077907,-0.159833,0.612159,0.036295,-0.033703,0.055001,0.090936,-0.063666,-0.000401,0.003157,-0.106526,-0.114356,-0.03888,-0.142181],[0.18292,2.578111,0.197437,-0.118767,0.237279,0.055408,-0.048521,-0.108677,0.01295,0.341354,0.149589,-0.098946,0.050943,-0.14485,-0.012615,0.157795,0.067447,0.039534,-0.150099,1.014023,0.233441,0.260215,0.0603,-0.16973,0.1201,1.338662,0.002022,-0.099459,0.108917,-0.012048,-0.080884,-0.162929,0.151773,0.059889,0.07921,0.15784,-0.366954],[0.085293,-0.70311,0.260224,0.081093,-0.00585,0.059875,-0.007476,-0.267258,-0.188845,0.123563,0.265653,-0.053871,0.24265,-0.083455,-0.000748,-0.069206,-0.071786,-0.009579,-0.339707,-0.950235,0.252912,0.206903,0.232766,-0.081043,0.053565,-0.942892,0.135297,-0.03878,-0.021302,0.011295,-0.041061,0.019243,0.03073,-0.257028,0.15879,-0.209443,-0.083833],[0.147741,1.364015,0.230726,0.394086,-0.08171,-0.159712,-0.045727,-0.262497,0.085631,0.236769,-0.458847,0.058797,0.002019,-0.061571,-0.135152,0.118642,-0.02908,0.127157,0.204231,1.295244,0.040565,-0.351775,-0.021799,0.067299,0.056936,0.601369,-0.144117,-0.135762,0.067962,-0.118501,-0.108844,-0.162215,-0.135739,-0.025844,0.262191,0.366911,-0.041985],[-0.139734,1.710454,-0.12189,-0.180736,0.016094,0.113598,0.031963,0.050536,-0.097155,-0.235197,0.489625,-0.101694,0.054002,0.069325,0.007911,-0.098397,-0.085869,0.125668,-0.084138,-0.022201,-0.247693,-0.01066,-0.00151,-0.096992,0.149384,0.517007,-0.167685,-0.01926,0.145933,0.096147,-0.124554,0.085199,-0.01823,0.013423,0.004205,-0.061808,-0.014145],[0.117202,-1.208047,0.058251,0.03955,-0.187456,-0.085499,0.154092,-0.086766,-0.336754,0.129431,-0.136507,0.114085,0.109446,0.071035,-0.087984,-0.137943,0.133128,0.095871,-0.31153,0.287531,0.07321,0.002833,0.130927,-0.0494,0.085899,-0.737741,0.02096,-0.025719,-0.0257,-0.14959,0.038014,-0.06019,0.101776,-0.023754,-0.101529,-0.087593,0.316452],[0.178897,0.158202,-0.228748,0.052757,-0.029462,-0.145496,0.17331,-0.014293,-0.283361,0.023402,-0.211687,0.138548,0.155891,-0.138719,-0.055315,0.028954,0.017281,-0.014283,0.565381,-0.099817,0.140396,-0.079187,-0.029101,0.002099,-0.117497,-0.097292,0.071456,-0.10734,-0.043064,-0.199449,-0.090736,0.112866,-0.239159,0.170254,0.062827,0.234647,-0.105908],[-0.080153,-0.123411,0.033788,-0.080992,-0.013792,0.024983,0.107737,-0.157262,0.161212,-0.128795,-0.120564,-0.119013,-0.066262,-0.161148,-0.133247,0.022349,0.031359,-0.030589,-0.040161,-0.088517,-0.061007,0.115473,-0.050248,-0.020428,0.036903,-0.051318,0.049833,-0.050182,-0.057488,-0.007689,-0.15081,0.139319,0.096236,-0.026182,-0.114292,0.029744,-0.161993],[0.014821,-0.569773,-0.042403,0.008318,-0.132685,-0.138115,0.098189,-0.124368,-0.108151,0.198259,-0.111746,0.145415,0.103742,0.082511,0.094036,0.043506,0.047598,0.069501,-0.42547,0.569177,-0.155846,-0.025233,0.025132,0.024702,-0.061233,-0.394145,0.065291,-0.032191,-0.096534,0.040061,-0.104355,0.06609,0.045549,-0.07965,-0.054934,0.14412,0.243818],[0.092732,-0.040581,0.054289,-0.012857,0.009271,0.065848,-0.070961,0.067851,-0.007681,-0.077611,-0.132502,0.105037,-0.159582,-0.128344,-0.089421,0.139564,-0.052263,-0.000752,0.085427,0.0509,0.027032,0.119218,-0.06846,-0.071487,-0.143152,-0.142066,0.066876,-0.092935,-0.117515,0.11632,0.000549,0.063599,-0.153597,-0.028478,0.004763,-0.038319,-0.117551],[-0.185981,1.1336,-0.110369,-0.183649,0.264802,0.075578,0.013878,0.111655,-0.092646,-0.210755,0.181309,0.155202,0.221005,0.179073,0.004105,-0.132515,-0.060392,-0.116975,0.092468,-0.379057,-0.201181,0.050985,0.094884,0.059977,0.188664,0.286439,-0.086304,-0.006322,0.02008,0.029459,0.094206,-0.117794,-0.058927,0.140228,0.099498,0.039925,-0.073943],[0.070346,-0.020248,0.115844,0.109132,0.107219,0.10908,-0.053924,-0.046314,0.182029,0.079106,0.132634,0.18591,0.219487,-0.058767,0.023131,0.003529,0.148636,-0.053646,-0.120113,0.277722,-0.072204,0.091827,-0.205891,-0.06047,0.020873,0.288382,-0.026469,0.117381,0.162467,-0.055326,-0.005766,-0.059449,0.026162,-0.008416,-0.027694,-0.1777,-0.112343],[-0.15037,-2.646412,0.44757,0.020435,0.041058,-0.083787,0.109329,0.020184,-0.148925,-0.175495,0.572046,-0.132943,-0.010784,0.166178,0.147351,-0.09262,0.269028,-0.068151,-0.004044,0.279183,-0.164857,-0.106176,-0.106449,-0.248277,-0.048641,-0.446533,0.14511,0.070917,0.115869,0.031291,0.077948,0.011274,0.048893,0.053819,-0.215057,-0.140681,0.076208],[-0.02179,0.195668,-0.062902,-0.005022,-0.064231,0.002065,-0.058294,0.093959,0.255538,0.174037,-0.129095,-0.022806,-0.132739,0.152494,0.06841,-0.046423,0.071863,-0.127582,-0.000882,-0.277916,0.035874,0.011315,0.114985,0.05987,0.173867,0.206785,-0.19024,0.090467,0.127402,0.155509,-0.094368,-0.080915,0.013599,-0.084267,-0.129139,-0.035293,-0.290036],[0.186396,0.570083,0.162072,0.194247,-0.051024,-0.053251,-0.220565,0.079461,0.082323,0.024992,0.276482,-0.076365,0.159795,-0.000838,0.144689,0.018625,0.054357,-0.103541,0.100522,0.280011,-0.109641,0.067778,0.034815,0.011879,-0.062005,0.307679,-0.056469,-0.111477,0.195538,-0.095632,0.117503,0.128272,0.015657,-0.154517,-0.245549,-0.123465,-0.004749],[-0.144488,-0.304847,0.182477,0.219739,0.010564,0.112559,-0.071781,0.090138,-0.096427,0.087576,0.299815,0.08907,0.154524,0.002592,-0.064976,0.055998,0.133104,0.070369,-0.108032,0.147043,0.094549,-0.104387,-0.040628,-0.123232,0.113564,0.167762,-0.072894,0.113996,-0.054797,-0.06351,0.069885,0.00927,0.127328,0.072155,0.013914,0.02234,0.025157],[-0.023745,-1.044407,-0.023714,-0.105727,-0.01975,0.01009,0.20226,0.05652,-0.005078,0.17591,-0.158834,-0.018557,-0.090634,0.033404,-0.006894,-0.159749,-0.209883,0.042784,-0.332465,-0.360214,0.314066,0.094712,0.021971,-0.143365,0.152276,0.040018,-0.045111,-0.107319,0.172571,-0.063079,0.077604,-0.064018,0.17496,0.155962,-0.274973,0.194289,0.188169],[-0.188942,-0.124933,0.090697,0.176197,-0.086337,0.084438,0.093821,0.004562,-0.139471,0.21941,-0.334569,-0.009721,0.245799,-0.150317,-0.117662,0.001986,0.235355,-0.004616,-0.250946,0.403872,-0.21026,0.176596,0.136024,0.165255,-0.120562,0.524437,0.092756,0.167643,0.071365,-0.109041,0.038582,0.066396,-0.013726,0.215747,-0.102686,-0.109309,0.023924],[-0.116565,-0.294398,-0.185777,0.310486,-0.188176,-0.076245,-0.134874,0.022302,-0.051606,0.099356,0.49827,0.086232,-0.052053,-0.071831,-0.088462,-0.022569,0.197552,-0.077906,-0.742212,-1.266195,-0.3387,-0.199466,0.299931,0.057938,0.055393,0.593848,0.162831,0.115582,0.173568,0.128109,0.066578,0.160518,-0.034584,0.090019,0.214655,0.151649,-0.130862],[0.151329,-0.019657,0.091939,-0.105482,-0.128575,0.027811,0.072242,-0.122533,0.074914,-0.140382,-0.120385,-0.062563,-0.148195,-0.110173,-0.016589,-0.119046,-0.162447,0.141566,-0.008044,0.146785,0.027655,0.044931,-0.073542,-0.143247,0.147101,-0.06103,-0.155737,-0.167075,-0.053164,0.10349,-0.012953,-0.043483,-0.132619,0.088696,0.062322,0.033343,0.072605],[-0.148619,-0.05862,-0.10811,0.099918,-0.112658,-0.092248,-0.084329,-0.124944,-0.064038,-0.057237,0.085611,0.010855,-0.04428,0.026109,0.108078,-0.013231,-0.13665,0.129291,0.112781,0.000274,0.081501,-0.096862,-0.019657,-0.061374,0.050211,-0.114056,-0.043229,-0.133706,-0.035486,-0.031431,0.102315,-0.151869,0.077871,-0.056335,-0.078749,-0.026527,0.118153],[0.030561,0.118486,-0.015337,0.074229,0.13338,-0.027712,-0.027322,-0.041111,0.105609,0.145474,-0.020101,-0.008907,-0.14012,-0.162001,-0.120696,-0.138433,0.066215,-0.131056,-0.154005,-0.075912,-0.059762,-0.105491,-0.099861,-0.052883,-0.117457,-0.144985,0.07183,-0.06232,-0.06142,-0.114817,0.054317,-0.061358,-0.020157,0.05537,-0.150585,0.018041,-0.145198],[0.184513,-0.134552,-0.38328,-0.279268,0.177184,0.022357,0.195806,0.023866,-0.122019,-0.367868,-0.174943,-0.068914,0.011872,-0.015326,-0.135441,0.088406,-0.102063,0.088005,0.64347,0.866906,0.045313,-0.736052,0.048158,-0.104575,-0.046355,-1.16931,0.116543,0.024335,-0.175975,-0.179932,0.067577,0.037583,-0.00534,-0.064896,-0.027022,-0.155399,-0.262327],[0.186569,0.683652,-0.155252,0.218601,0.17039,0.046978,0.139772,-0.215229,-0.221578,0.36055,0.352383,0.134064,0.008228,-0.064078,-0.110243,0.046626,-0.089578,0.082416,0.139959,0.539799,0.356632,-0.169911,-0.094686,-0.081085,-0.038815,0.061369,0.136388,-0.077282,-0.133485,-0.120958,-0.056166,0.132479,-0.161533,-0.210134,0.10736,0.094061,0.314376],[-0.012137,-2.199418,0.324685,0.231288,-0.155172,-0.057166,-0.030882,-0.322188,0.067742,0.444371,-0.136526,-0.262186,0.192007,-0.061685,-0.023871,-0.136119,-0.068373,-0.127494,-0.295233,1.140125,-0.087329,-0.116805,0.029617,0.130781,-0.161532,-1.177077,0.084267,0.146926,0.030321,0.141648,-0.158032,-0.321861,-0.037324,-0.219888,0.239384,0.028626,-0.127508],[-0.184982,0.938075,0.122463,-0.226047,-0.028048,0.250323,0.087163,0.039795,0.277267,-0.078468,-0.154087,0.042772,0.173443,-0.00858,0.049952,0.110229,-0.03313,0.134999,-0.686884,-0.427821,0.153793,0.075325,0.085072,-0.014349,0.144658,-0.027191,-0.199967,-0.125089,0.128132,-0.076703,0.13102,0.152403,-0.02203,0.199244,-0.595056,0.089843,0.052561],[0.104406,0.06697,0.004667,0.121735,0.053384,-0.086763,-0.161326,0.131387,0.078508,-0.163901,-0.052335,0.098693,0.006585,-0.066987,-0.112316,-0.131341,-0.152966,-0.074521,0.116035,-0.10679,-0.100078,0.081959,0.097564,0.141225,-0.020295,-0.070469,0.079407,-0.054793,0.031845,-0.09527,0.151517,-0.161312,-0.010924,-0.086265,-0.091597,-0.159056,-0.021385],[0.105207,0.090741,-0.037133,0.028279,0.063665,0.021193,-0.090787,-0.027658,-0.00683,0.04567,0.072912,0.031051,-0.140818,-0.117809,-0.053932,-0.118177,-0.068094,0.105966,-0.137048,0.062923,-0.060755,-0.12173,-0.077622,-0.133165,-0.136279,-0.126483,-0.091068,-0.03833,0.025247,-0.056859,0.113468,-0.092321,0.053793,-0.075511,-0.10044,0.067868,0.072234],[0.178829,0.585999,0.326566,-0.044299,0.234764,-0.156314,-0.255688,-0.17141,-0.115646,0.242691,0.816182,0.070194,0.278607,0.062169,0.014702,0.042876,0.00123,-0.14573,-0.157379,0.621915,-0.305288,0.283552,0.180397,0.087928,-0.128303,-0.041643,0.057524,-0.037768,0.000921,-0.077491,0.051953,-0.147413,0.078663,-0.065031,0.116207,0.248311,-0.024833],[0.165204,-0.013566,0.530696,-0.001441,-0.035874,-0.079083,0.145824,-0.054109,0.088909,0.201708,-0.04213,0.082581,0.127993,-0.146388,0.025178,-0.141937,0.127534,0.016405,-0.338286,0.780569,0.219707,0.125711,-0.108242,-0.076854,0.135349,0.258447,-0.291545,0.053101,0.007573,0.026178,-0.162748,0.132838,0.048992,0.109477,-0.160181,-0.077548,0.028861],[-0.127343,-0.377578,0.256047,0.010469,0.065136,0.111905,0.185048,0.001961,0.219273,-0.166545,-0.103244,0.217669,-0.079115,0.200442,0.10022,-0.157954,0.084823,0.021145,-0.341361,-0.204048,-0.053851,0.170548,-0.028645,0.16669,0.167594,0.094069,0.12178,0.08299,-0.088258,-0.358951,0.092134,0.007411,-0.276345,0.267045,-0.159595,-0.555001,-0.44487],[0.140715,1.877198,0.047838,0.125827,0.19891,0.2814,-0.343154,-0.020572,-0.261047,0.226721,-0.03139,0.112751,-0.14039,0.018201,0.146497,0.053572,-0.081564,0.106234,-0.124898,0.356544,-0.093354,-0.021444,0.304059,0.192024,-0.153676,0.895211,-0.103069,0.030394,0.144788,0.018084,-0.156293,-0.079135,0.075431,-0.304039,-0.346066,0.136294,-0.219717],[-0.036022,-0.152876,0.314832,0.105919,-0.069335,0.100062,-0.104726,-0.056596,-0.050441,-0.024721,0.068799,0.055079,0.21088,-0.001512,0.145638,0.03051,-0.049042,0.217254,-0.756219,0.855563,0.066542,0.097043,-0.181687,-0.000272,0.007719,-0.456585,-0.399047,-0.109862,-0.122097,-0.1784,-0.13052,0.110423,0.073783,-0.138692,0.343332,-0.068242,-0.166323],[-0.0529,0.156244,-0.428775,0.25906,0.053974,0.113456,0.104437,0.254625,-0.114929,-0.071825,0.215319,0.112702,-0.105714,-0.063161,-0.032368,-0.072964,0.095606,-0.030378,0.524103,0.336048,-0.149744,-0.164306,-0.13589,0.000925,-0.075079,0.035447,0.206972,0.219664,0.162122,-0.102218,-0.059914,-0.041563,-0.05778,0.055565,0.035374,0.033345,0.024659],[0.131598,-0.032501,-0.017811,0.049799,0.0849,-0.080375,0.033001,0.019569,-0.091604,0.019096,0.267156,0.115468,0.182207,0.119798,-0.162899,-0.038433,-0.137437,-0.029787,0.015917,-0.262407,0.076619,-0.195463,-0.084798,0.090035,0.094185,0.259675,-0.042877,0.132668,0.030591,-0.029605,-0.020794,0.107838,0.140293,0.090689,-0.064142,-0.071146,-0.141338],[0.121992,-0.346409,-0.07444,0.076064,0.224874,-0.097062,0.034174,0.031762,0.006134,-0.096399,-0.124992,-0.059755,-0.154743,0.007478,-0.057844,0.031421,0.018357,0.021933,0.646891,0.535154,-0.268696,-0.027556,0.009885,0.079198,0.038393,0.194741,0.015431,0.09824,-0.103846,-0.093567,-0.148393,0.054562,-0.108379,-0.051383,0.124247,0.048888,-0.008753],[-0.030754,-0.032788,0.01182,-0.052393,0.083255,0.089471,-0.073074,-0.121389,-0.09131,-0.182336,-0.054594,-0.172206,-0.121154,0.006387,-0.100018,-0.021118,0.000291,0.08844,0.139314,0.089934,0.073323,-0.031759,-0.061513,-0.150905,-0.06755,0.02204,-0.130405,0.016671,0.076608,0.095985,-0.024612,-0.035268,-0.041742,-0.043915,0.141576,0.003475,0.098938],[0.069915,-0.339361,0.046731,2.2e-05,0.145267,-0.147132,-0.130726,0.092848,-0.140113,0.128483,-0.053756,0.035155,0.274026,-0.029853,0.138458,0.011218,0.181323,0.039959,-0.172855,-0.009728,-0.037244,-0.018173,0.055189,0.08993,-0.114279,-0.174397,0.105811,0.01977,0.076469,-0.028536,0.051352,-0.088448,-0.029883,0.045106,0.069711,-0.02702,-0.115921],[-0.162746,-1.239836,-0.04439,-0.00909,-0.204272,0.241107,-0.346743,-0.518517,-0.016411,0.463999,-0.023949,-0.168059,0.471874,-0.002805,-0.025586,0.027287,0.000825,-0.042458,0.377737,-0.19719,0.352804,0.011003,-0.223227,-0.055635,-0.180154,-0.191041,-0.097755,0.050275,-0.070876,-0.037769,0.131334,0.03297,-0.01817,-0.025275,-0.130246,-0.068274,0.09495],[-0.144176,-1.14013,-0.126611,-0.254414,0.205905,0.104767,0.161096,0.238395,-0.021741,-0.247738,-0.069631,0.008848,-0.016018,0.138447,-0.017754,-0.010784,-0.002888,-0.105102,-0.012685,-1.316323,0.113387,0.124967,0.187638,-0.052459,0.106237,0.325323,0.120157,0.185033,0.012895,-0.122254,0.006979,-0.006434,0.087168,0.183713,-0.058379,-0.044163,-0.050987],[0.230384,-0.867519,0.14581,-0.079172,-0.182914,0.012796,-0.243602,-0.168505,0.180439,0.102218,-0.129173,-0.229549,0.115677,0.000518,-0.019313,0.086283,-0.062344,-0.226939,0.278149,0.258909,0.19258,0.267534,0.116696,-0.116706,0.041599,-0.476375,0.097287,0.044187,-0.145424,-0.079497,0.044707,-0.233958,-0.048829,0.070618,0.030693,-0.162871,0.036827],[-0.132761,-0.01437,-0.040424,-0.030456,-0.145788,0.00265,-0.003649,-0.103319,0.110096,-0.094422,0.123493,-0.179416,-0.027142,-0.096268,0.022948,-0.045984,-0.089182,-0.049294,0.074131,0.046945,-0.078029,-0.027885,-0.031228,0.083593,-0.06538,-0.114458,0.094576,0.124552,-0.007412,-0.09613,0.104958,-0.002374,0.037252,-0.062958,-0.023903,0.110822,0.105625],[0.036741,0.541826,-0.163783,0.088328,-0.072686,-0.178324,0.207163,0.111871,-0.329934,-0.011123,0.301949,0.149104,0.191822,0.104394,0.121578,0.033992,-0.157464,0.173192,0.038993,-0.038442,-0.324452,0.190325,-0.031068,-0.053145,-0.163074,-0.333135,0.142797,0.147129,-0.160791,0.067229,-0.090475,0.125639,-0.174568,0.053664,0.004534,0.114175,-0.072394],[0.076579,2.049859,-1.77297,-0.021857,0.08758,0.138204,-0.110799,0.093296,-0.35278,-0.267075,0.340243,0.139751,-0.441531,0.016189,-0.019791,0.117665,-0.011119,-0.003092,-1.194945,-0.154078,0.028545,-0.106554,-0.201523,0.047579,-0.058379,0.977213,0.163809,0.088397,0.113903,0.064409,-0.087279,-0.119156,-0.152,0.018109,-0.117289,-0.007678,-0.081188],[-0.260423,1.11309,0.470098,-0.11477,-0.02658,-0.182984,0.106864,0.198907,-0.352232,0.175236,0.700261,-0.011492,0.008399,0.11778,0.023434,-0.130245,-0.013765,0.003213,-0.049646,-0.297589,-0.025014,0.050619,-0.044652,0.083049,0.041048,0.630518,0.005795,0.034552,0.084539,-0.088308,-0.002417,0.095682,-0.038611,0.069639,-0.128496,0.057183,-0.154639],[0.174977,-0.969643,-0.034097,0.105433,-0.279085,-0.000449,-0.19892,-0.147089,0.247982,0.027875,-0.333882,0.01672,-0.025226,0.071419,-0.115115,-0.118596,0.022053,-0.180953,0.201016,0.191283,0.043355,-0.043084,0.059582,0.029373,-0.039499,-0.49335,-0.086305,-0.16819,-0.209118,0.141274,-0.153485,0.007694,0.07281,-0.179029,-0.18873,0.135826,0.044396],[0.196829,-0.627895,0.136961,-0.027177,0.080442,-0.036699,-0.130629,-0.002419,-0.015426,-0.08414,0.11863,-0.133764,0.114781,-0.152981,-0.141321,-0.074568,0.116455,0.036594,-0.106063,0.383583,-0.031051,-0.05064,0.090619,-0.069212,0.13088,-0.182651,-0.036911,0.158058,0.029379,0.089967,-0.060809,0.170973,-0.081889,0.023465,-0.112161,0.109366,0.067924],[-0.220541,1.010235,0.179986,-0.080912,0.009052,0.0655,0.134653,0.132135,0.330046,-0.225047,-0.13491,0.182468,0.102778,0.121192,-0.009805,0.07412,-0.043063,0.041572,-0.612143,-0.474672,-0.044032,0.09917,-0.014083,0.032519,-0.108743,0.212958,-0.138783,-0.110004,0.07313,-0.076245,0.131621,0.095981,-0.030466,-0.133222,-0.090393,0.071636,-0.14468],[0.073158,0.540255,0.349857,0.309753,-0.266713,-0.001831,0.225593,0.005437,-0.11325,0.106478,-0.009257,0.121067,0.015822,0.105385,0.156228,0.074433,0.019288,0.175786,-0.108623,-0.144967,0.024594,-0.027721,0.113356,-0.055337,-0.04029,-0.25792,-0.088896,-0.094717,-0.069935,-0.043926,0.13287,-0.078405,-0.04639,-0.219207,0.027592,0.006195,0.011621],[0.117143,-0.156413,-0.04571,-0.00583,0.092606,0.075497,-0.034327,0.17351,0.272437,0.054642,0.035715,0.164667,-0.043675,-0.064724,-0.123796,-0.011381,0.123813,-0.003509,-0.115276,-0.515852,0.25431,0.013331,0.10498,0.088847,0.03874,0.813256,-0.068834,-0.155145,0.105574,0.100902,0.026384,-0.028319,-0.029477,0.236948,-0.033924,-0.184616,-0.046759],[0.190012,-1.822146,-0.255964,-0.100508,-0.14805,0.018406,0.00501,-0.322085,0.340802,0.03617,-0.253816,0.027308,0.224918,0.090106,-0.005345,0.147669,0.04255,-0.099896,-0.018064,-0.437491,0.061932,0.066799,-0.065587,-0.03967,0.009112,0.286634,-0.001112,-0.106723,0.124098,0.024405,-0.087657,0.110932,-0.147545,-0.131687,-0.040023,-0.094199,0.044251],[-0.115476,-0.633222,-0.105079,-0.040511,0.103225,0.155775,0.301372,0.006802,-0.014518,-0.148701,-0.13843,0.028268,-0.128371,0.051432,0.118317,-0.028358,0.016097,0.049692,-0.133322,-0.566451,0.073811,0.010083,0.218498,0.110789,0.19964,0.12241,-0.03575,-0.08746,0.188136,-0.180753,0.113096,0.135141,-0.291551,0.156993,-0.564305,-0.32668,-0.185102],[0.056554,-0.067006,0.016268,0.015445,-0.045048,-0.121322,-0.104647,0.004976,-0.088656,0.007467,-0.002244,0.051925,0.112076,0.040985,-0.022156,-0.006072,0.013985,-0.125376,-0.052618,-0.075648,-0.051105,0.15217,-0.031999,-0.046195,0.017188,0.063574,-0.111766,-0.077493,0.027516,-0.047976,-0.026343,-0.15558,-0.150068,0.022115,-0.03449,-0.143877,0.057925],[0.279427,-0.251742,-0.020888,0.114946,0.149588,0.073285,-0.312797,0.133321,-0.044877,-0.001937,0.006466,0.192055,-0.179218,-0.150836,0.031346,0.152323,0.016908,-0.032389,0.434613,0.915461,-0.001929,-0.241984,-0.091324,-0.051535,-0.146045,-0.260109,0.14529,0.199813,-0.134855,-0.076025,-0.130167,0.028456,-0.176172,0.019945,0.060281,-0.012311,-0.186185],[-0.105193,-0.811915,-0.054613,0.154055,-0.02828,0.191105,-0.030371,0.170946,0.140592,-0.149095,-0.087454,0.133586,0.121408,0.208188,-0.113874,0.045743,0.058049,-0.112198,-0.145343,-0.319175,0.18916,-0.007509,-0.04297,0.075594,0.085379,0.529497,-0.176372,-0.010125,-0.094326,-0.124793,-0.116619,-0.125915,0.114454,-0.118152,0.003729,-0.050918,-0.032696],[-0.304261,-1.014948,-0.029349,-0.002281,0.042817,0.098141,0.005507,-0.070221,-0.009267,0.234143,0.15442,-0.022961,-0.310627,-0.02229,-0.116674,0.143826,0.051173,0.249256,-0.653747,-0.265162,0.109331,-0.264661,-0.111623,0.014845,-0.051821,-0.500654,-0.078875,0.025482,-0.020964,-0.071391,-0.112845,0.248108,0.036392,-0.081202,0.490506,-0.068144,-0.109002],[0.114223,0.576703,0.163167,-0.027901,-0.056245,-0.104932,-0.077295,0.127382,0.034722,0.379984,-0.254948,-0.097954,-0.087169,0.014485,0.0981,-0.088913,0.18308,-0.03568,0.329675,0.622076,0.23561,-0.140104,0.058783,-0.041902,0.071967,0.24889,-0.190901,0.008376,-0.030417,0.133287,0.045439,-0.134175,0.156586,0.100491,0.153136,0.226945,0.325343],[0.108231,1.088944,-0.090321,0.01773,0.172547,0.025996,-0.05424,0.205419,-0.161269,-0.067262,0.084638,-0.197211,-0.352501,-0.148265,0.139142,0.035742,0.074087,-0.107356,-0.635293,0.022879,-0.175184,0.080411,0.130005,0.020487,-0.001797,-0.011492,0.366555,0.307129,-0.026241,-0.070931,0.139011,-0.139398,-0.093206,0.033093,-0.497798,-0.047215,0.315202],[-0.164668,0.904388,-0.244377,0.193207,0.015241,0.111267,0.066014,-0.249859,-0.324117,-0.21819,0.814706,-0.118196,-0.078227,0.063977,-0.015436,0.095568,-0.172112,-0.065988,0.060984,-0.361092,-0.042246,0.103602,-0.031346,0.041149,-0.14252,-0.426954,0.132,0.007111,0.060181,0.117144,-0.092797,-0.081327,-0.014222,0.104735,0.101401,-0.017971,0.101647],[0.001038,0.082762,0.152622,0.157059,-0.14318,0.170013,0.092483,0.156005,-0.041165,0.051482,0.172316,0.09299,0.109486,-0.030172,0.045429,0.116828,-0.030749,0.11754,-0.188391,-0.16062,0.163459,-0.015686,0.129552,0.003931,0.118388,-0.005738,-0.125908,-0.172841,-0.055812,0.104557,0.164012,0.027967,-0.020983,0.207176,0.04537,0.051352,0.010964],[0.014467,-0.428766,0.171621,0.031154,-0.174979,0.148699,-0.119722,0.1844,0.187082,0.047542,0.077625,0.07127,-0.155501,0.038721,-0.154129,0.102483,-0.113396,-0.068713,-0.192816,-0.122227,-0.188517,-0.157422,0.034909,0.05839,-0.019328,-0.270072,-0.109218,0.11728,0.167597,0.118027,0.021812,0.024625,-0.017806,0.15372,0.190858,0.167895,0.105991],[-0.100181,0.160794,-0.0624,-0.118541,-0.140172,0.145185,-0.064453,-0.151677,-0.108265,-0.00394,-0.090733,0.063089,0.063544,-0.047863,-0.008948,-0.072341,-0.002785,-0.148091,-0.040889,-0.046321,-0.085575,0.023656,0.075959,-0.037743,0.161774,0.109982,-0.047087,-0.021459,0.088966,0.062846,-0.086594,-0.143008,-0.060559,0.06762,-0.056722,-0.090918,0.048242],[0.02189,2.288546,-0.534678,-0.023621,0.208019,0.190106,0.034881,0.074063,-0.124007,-0.257364,0.570406,-0.122901,-0.568312,0.004242,-0.15766,0.068763,-0.070655,-0.022536,-0.002846,-1.402266,0.294104,0.214728,0.179015,-0.570809,-0.013746,0.81885,-0.034841,-0.04853,0.20858,-0.043874,-0.124967,0.181556,0.027289,0.024107,0.152676,0.019598,-0.014829],[0.209102,0.195365,0.426871,0.103215,-0.204783,-0.082635,-0.198563,-0.004496,-0.268314,-0.024545,0.411142,0.094672,0.276169,0.024562,0.027413,0.0951,-0.085761,0.073074,-0.309253,0.475714,0.161756,-0.025934,-0.145591,-0.013272,-0.136503,0.313907,0.188503,-0.09727,0.100644,0.09862,0.000427,0.053057,-0.11146,-0.082669,0.052616,0.115834,-0.106404],[0.024217,0.61122,0.180199,-0.014887,0.116441,0.040662,-0.11831,0.036141,0.040173,-0.204334,-0.267009,0.045016,-0.771988,0.094707,0.09583,-0.064487,0.028929,-0.057398,-0.775366,-0.784042,0.024041,0.128582,0.038167,-0.000334,-0.024125,-0.074076,-0.184096,-0.017739,0.097156,0.144427,0.103281,0.011548,0.092532,-0.149365,-0.159325,0.194053,-0.079885],[-0.236476,2.270915,0.306172,0.203414,-0.109931,-0.025717,0.134256,-0.010136,0.358172,0.10307,-0.354216,0.222043,-0.074922,0.100102,-0.127545,-0.091336,0.114588,-0.053929,-0.686144,-0.709142,-0.135471,-0.135291,0.224581,-0.01967,-0.070321,0.799001,0.028433,0.100125,0.03351,-0.128598,-0.065967,0.153798,0.129946,-0.16537,0.026651,-0.03616,0.42001],[0.029978,0.178635,0.091928,0.125151,-0.142214,0.070361,-0.089784,-0.085038,0.055906,-0.117392,0.016904,0.031848,0.045876,0.128581,0.077912,0.138383,0.088915,0.131738,-0.233568,-0.350795,-0.102616,0.013446,0.066946,0.021582,0.087804,0.014744,-0.288109,-0.048392,0.039055,0.107596,0.039581,0.025519,0.097683,0.184607,-0.025629,-0.063833,0.009502],[-0.070902,-0.149564,1.048575,-0.201943,-0.104409,-0.42034,0.27559,-0.43903,0.186475,0.295448,0.52271,0.216279,0.383183,0.09783,0.090173,0.159165,-0.071693,-0.017812,-0.642643,-0.386073,-0.020007,-0.079517,0.099993,0.115738,-0.152123,-2.183279,-0.226094,-0.142216,-0.138474,-0.133109,-0.105862,-0.04627,0.077275,0.389932,-0.180305,-0.170126,-0.007029],[0.29482,-2.772563,0.336003,0.053522,0.230319,0.312633,-0.009671,0.061098,0.280812,0.330367,-0.376836,0.038585,-0.785121,0.161676,-0.085472,0.060431,0.057544,-0.081176,-0.495873,1.167544,-0.100469,-0.054782,0.211009,0.023767,0.083354,-1.200017,-0.056659,-0.160392,0.048605,0.088451,0.029246,-0.167385,-0.047701,-0.010433,0.229774,-0.632898,-0.014214],[-0.126369,-1.63798,0.458746,0.235747,0.011867,-0.145012,-0.102686,-0.192034,0.091894,0.428987,0.166279,0.068956,-0.170992,0.12894,-0.019147,0.079003,-0.035634,0.124311,-0.229401,0.962672,-0.004194,0.039867,-0.082958,0.07953,0.136669,-0.222688,-0.474535,-0.173951,-0.084098,0.01761,-0.046708,0.100825,0.256504,0.120079,0.002277,-0.214195,-0.077591],[0.074673,0.10224,0.109544,0.034709,0.014687,0.00146,-0.143329,0.156356,-0.087795,0.087429,0.064962,-0.037509,-0.068604,-0.124759,-0.039853,-0.098626,-0.01316,0.14471,-0.0498,-0.12134,0.118503,-0.002622,0.154036,-0.046484,-0.057223,0.020197,-0.141218,-0.115916,0.118099,-0.110022,-0.018118,-0.086344,-0.155548,-0.018861,0.060064,0.028041,0.012862],[0.088398,-4.826667,-0.069256,0.334906,-0.58266,0.10549,0.348017,0.213,-0.359962,0.012484,-0.655916,-0.139952,0.037731,-0.130825,0.161657,-0.160827,0.308008,-0.133079,-0.109679,0.141191,0.563569,0.013769,-0.223497,-0.020677,-0.054576,-0.308739,0.191811,0.133829,0.002687,-0.044935,-0.083726,0.10028,0.062577,0.194643,-0.008005,-0.068305,-0.015924],[-0.050716,0.522518,0.360541,0.191254,-0.157735,0.151434,-0.16516,0.285967,0.271326,0.007632,-0.315028,-0.001068,-0.026725,0.051507,0.04855,-0.034116,-0.072026,0.014215,-0.178164,-0.354801,-0.101512,-0.190892,0.024154,0.033205,0.06225,-0.216341,-0.009737,-0.104115,0.058197,0.028793,0.056528,-0.069048,0.077227,-0.241355,-0.187989,0.058888,-0.056482],[0.273165,0.927088,-0.25029,-0.287486,-0.046238,-0.036692,-0.077812,-0.205315,-0.104309,-0.382268,-0.751007,-0.217224,-0.080064,-0.249314,-0.084072,-0.011115,-0.021779,-0.012752,-0.017841,-0.384756,-0.13536,-0.090129,0.131799,0.010049,-0.030793,0.912016,0.486645,0.466868,-0.293524,0.031577,0.107964,-0.141464,-0.081363,-0.107033,0.053619,-0.007732,0.004432],[-0.179713,-0.290906,-0.034629,-0.00016,-0.073233,-0.003493,-0.058088,0.041157,0.349974,0.080463,-0.441208,-0.0384,-0.119522,-0.033434,-0.051843,0.125543,0.208615,-0.026386,0.042042,-0.37394,0.017486,-0.213126,-0.133711,0.073087,0.184591,0.138952,-0.089014,0.070396,0.11697,0.083325,0.109267,-0.054982,0.13413,0.091305,0.136385,0.012316,0.111576],[-0.135278,0.10202,-0.075767,-0.049916,-0.045031,-0.117018,-0.035936,-0.036645,-0.048757,0.07233,-0.148628,0.081538,0.100642,-0.17934,-0.116455,0.108952,0.131702,0.108008,0.038534,-0.065897,-0.02588,0.007957,0.05641,-0.089582,0.035432,0.133642,-0.130523,-0.095719,-0.088729,-0.092572,-0.126684,-0.007718,-0.035997,0.050258,-0.066555,-0.003956,0.107819],[-0.092119,-0.848583,0.224769,0.175375,-0.11073,0.000721,0.151295,-0.070839,0.077833,-0.175486,-0.256837,-0.14783,0.60353,-0.139276,-0.06961,0.080673,-0.043025,0.149323,-0.254944,0.523153,0.139921,0.035743,0.353335,-0.045462,0.02693,0.105729,-0.200536,-0.091906,-0.046969,-0.140947,-0.142095,0.114043,0.010067,0.190909,0.014963,-0.026002,0.117357],[-0.056366,-0.413109,-0.262502,0.062057,0.169261,0.087158,0.166532,0.117265,-0.2685,0.037492,0.151049,0.059644,-0.106888,0.143691,-0.117378,0.101472,0.09912,0.123654,-0.123523,0.242434,-0.158123,-0.130914,-0.149379,-0.182435,0.112754,0.176397,0.142944,-0.041818,-0.082209,-0.000526,-0.075315,0.031615,-0.152717,0.066384,-0.151164,-0.104555,0.063441],[0.117526,0.828025,-0.025058,0.312002,-0.123767,-0.117894,0.100498,-0.149555,-0.258015,-0.015472,0.341758,0.134974,0.304743,0.075728,-0.152019,0.008567,-0.193016,0.185794,-0.079119,0.223406,-0.202931,-0.130031,-0.077529,-0.189351,0.067609,0.213826,0.097187,0.078152,-0.143127,0.059643,-0.131567,-0.010758,-0.130264,-0.230113,0.038357,-0.145713,0.184008],[-0.450473,2.951466,0.279777,0.123853,0.072777,0.049691,-0.004269,-0.168764,-0.082998,-0.158637,0.727701,-0.084644,0.236873,0.195049,0.097426,-0.050667,0.067363,0.167938,-0.491546,-1.518876,0.110421,-0.01269,0.025814,-0.008049,0.082559,0.190065,-0.125774,0.056006,-0.040181,0.162158,-0.019045,0.061811,-0.121132,0.037802,-0.178861,0.01462,0.08504],[0.130565,-0.8725,0.041234,-0.108754,0.058977,0.094438,0.234722,0.239541,0.015047,0.042834,0.192459,-0.024432,0.030234,0.043701,0.152924,-0.021569,-0.024029,-0.040021,-0.232115,-0.176064,0.166426,-0.076517,0.025452,-0.150355,0.168883,0.300322,-0.203193,0.0606,0.161111,-0.085865,-0.14739,-0.141251,-0.085505,0.116238,0.106892,0.02145,0.002364],[-0.072296,-0.040167,-0.042657,0.15237,-0.138249,-0.042323,0.220013,0.08495,0.112937,0.026807,0.254013,0.13238,-0.063771,0.012291,0.047615,0.065562,-0.113918,0.131154,-0.178319,-0.21372,0.204891,-0.12322,0.074811,0.053412,0.026099,0.335774,-0.080026,-0.127453,-0.105442,0.071065,0.068986,0.022429,0.084126,0.113894,-0.045294,0.005478,-0.148465],[-0.04492,0.082986,-0.109042,-0.154691,0.12568,-0.014531,-0.137903,0.005597,-0.074821,-0.105312,-0.020735,-0.017933,0.016125,-0.065663,0.000902,-0.031635,0.016409,0.138777,-0.085976,0.022021,-0.130552,0.137119,-0.023217,0.028273,-0.1585,0.001795,-0.128048,-0.087077,-0.120577,-0.102502,-0.090326,0.041957,-0.124193,-0.032711,-0.043707,0.148407,0.08545],[0.235744,1.863586,-0.096504,0.162997,0.010028,0.005379,-0.288585,0.057819,-0.030886,0.053756,-0.174137,0.071422,-0.47676,-0.070589,0.143374,0.153563,0.16824,-0.093298,-0.177779,0.511902,-0.146434,0.097088,0.115278,0.095901,-0.012389,-0.279183,0.03092,0.163609,0.086091,-0.083955,-0.149418,0.145735,-0.171489,0.061467,0.046136,0.017686,-0.170952],[-0.052262,2.230473,0.464501,0.054193,-0.168774,0.055408,-0.134448,-0.156183,-0.003493,0.224375,-0.015976,-0.030277,0.270561,0.1795,0.008591,-0.036919,0.088357,-0.135158,0.207643,-0.587666,-0.211348,-0.204708,0.05897,-0.087125,0.147086,-0.729812,0.222068,0.048823,-0.038798,-0.157858,-0.046427,-0.169242,-0.207406,-0.062815,0.137161,0.081282,-0.074294],[0.119402,0.032029,0.131302,0.068008,-0.022298,-0.033104,0.090067,0.037492,-0.015372,-0.041112,0.193067,0.001321,0.196236,0.101972,0.025106,-0.024124,0.091789,0.056545,-0.080017,0.388727,-0.082586,-0.081603,-0.094137,0.074213,0.031163,-0.253454,-0.111283,0.099608,-0.097576,-0.044015,0.040054,-0.092819,-0.121513,0.077544,-0.051257,0.038609,-0.185429],[0.04154,0.668036,-0.152318,0.018876,0.125834,-0.135401,-0.139769,0.050175,-0.030891,0.126665,-0.203754,-0.165256,-0.211564,-0.058818,-0.162019,-0.117272,-0.020155,0.137676,0.357209,0.582009,-0.238656,-0.041805,-0.138654,0.099213,0.01665,0.25615,0.285634,0.049769,0.119957,-0.035425,-0.117092,0.116049,-0.059951,0.064901,0.1323,0.082675,0.112243],[0.046733,0.521132,0.095216,-0.073781,-0.206082,-0.195913,-0.130254,-0.000842,-0.150869,0.164427,0.059758,0.090438,0.132431,0.060123,0.00346,0.007249,0.20442,-0.139595,-0.042333,-0.024789,-0.189275,0.096012,-0.05937,-0.003372,0.004729,0.142347,-0.097744,0.025265,-0.072054,-0.077389,-0.095424,0.132958,0.025213,0.048517,0.035799,0.110591,-0.15983],[-0.097971,1.819376,-0.244857,0.329737,0.002805,-0.317684,-0.005604,-0.118515,0.076279,0.298766,0.173429,-0.0662,-0.173367,0.052911,0.033746,-0.123787,0.007601,0.149855,0.14441,1.871006,-0.544995,0.00484,0.122706,-0.057923,0.07907,0.153159,-0.18823,-0.113672,0.019891,0.148939,-0.046564,0.115085,-0.149337,-0.573104,0.004932,0.049163,0.232904],[0.000642,-0.192071,0.050322,0.229645,0.0448,-0.114099,-0.140936,-0.156308,0.008129,0.169427,0.234625,-0.021374,0.272249,0.045313,-0.110665,-0.045749,0.179133,-0.124246,-0.057834,0.036414,-0.019961,-0.099485,0.026869,-0.086112,0.102274,-0.137653,0.075352,-0.010102,0.120479,0.090422,-0.126529,0.12925,-0.111722,0.062493,0.040129,-0.028793,-0.043895],[-0.277133,0.070985,0.076506,0.001886,0.039553,0.212027,-0.048299,-0.01446,0.012038,0.035573,0.057276,0.209262,0.08774,0.01729,0.111892,-0.121521,-0.026051,0.005641,-0.41176,-0.558679,0.15562,0.053319,0.008789,0.014501,0.105968,0.259458,-0.021224,-0.078729,0.016652,-0.00812,-0.008071,0.124418,-0.14857,0.085297,0.127012,0.069785,0.093819],[0.170964,1.256423,0.280737,0.191463,0.055667,-0.156481,-0.239224,-0.446227,0.335986,0.307732,0.958242,0.068418,-0.282368,0.068848,0.079564,-0.140499,0.036756,-0.112516,0.79251,-0.503657,-0.495134,-0.032567,0.068783,0.221168,-0.04395,1.138128,-0.128609,-0.02122,-0.114285,0.017133,0.00871,-0.018598,0.085181,0.290265,0.061527,0.095194,-0.188797],[-0.000704,-0.514282,0.089103,0.160418,-0.10001,-0.170724,-0.073571,0.019479,-0.019294,-0.013062,-0.140723,0.13276,-0.013161,0.127424,0.076287,0.121378,-0.095694,0.084049,-0.019312,0.399025,0.067161,0.070481,-0.230955,-0.239641,-0.055374,-0.25565,0.040365,-0.056105,0.07829,-0.009355,0.096393,0.057704,0.003959,-0.023316,0.107752,-0.085569,-0.159495],[-0.041106,-2.112403,0.044632,0.182014,-0.148675,0.101474,0.078691,-3.7e-05,0.31744,-0.119703,-0.520967,-0.125617,-0.070236,0.079648,0.090406,0.108141,-0.105821,0.020816,-0.790548,-0.905068,0.022316,-0.192888,-0.032211,0.140459,-0.086791,-0.214723,0.220727,-0.064786,-0.144565,-0.181292,-0.002999,0.091913,-0.04093,0.280076,0.054152,0.122916,-0.120957],[-0.064563,-1.266154,-0.14897,-0.066206,-0.076891,0.046339,0.178443,-0.003162,0.163813,0.031245,-0.083588,-0.069054,0.010152,-0.044186,0.06917,-0.085124,0.084456,-0.035084,0.081357,-0.405672,0.247237,0.122381,-0.02408,0.040058,0.132345,0.267135,-0.051452,-0.017526,-0.091396,0.024374,0.152485,-0.089237,0.086294,-0.04972,0.306287,-0.043509,-0.066839],[0.178149,1.648935,0.392909,-0.179983,0.209621,-0.097287,0.19855,0.160813,0.290605,0.225666,-0.841878,-0.07654,-0.264691,0.201641,0.023185,-0.06078,0.038578,-0.004306,-0.300704,-0.030794,-0.019583,-0.121457,0.175955,-0.166006,0.097955,-0.59924,-0.108896,0.053275,0.119097,0.049728,-0.110899,-0.142858,0.022371,-0.060953,-0.300041,-0.056174,0.008033],[0.000605,0.061931,-0.063765,-0.155659,0.006182,0.03102,-0.077822,-0.096939,0.139522,-0.104591,-0.028834,-0.110058,-0.140105,-0.092128,0.076592,-0.161605,0.107846,0.126321,0.107795,-0.171407,0.094578,-0.045998,0.053184,-0.124134,-0.040293,-0.089146,-0.066594,0.028669,-0.137879,0.078555,0.080836,-0.121874,-0.131794,-0.014231,0.014498,-0.069685,0.012579],[-0.034912,0.220436,0.412329,-0.04783,-0.298309,0.165874,0.105689,0.200057,-0.148315,-0.56466,1.196886,-0.169627,0.354473,-0.145961,-0.108397,0.00587,-0.13669,-0.156784,-0.379344,0.489946,0.336283,-0.11953,0.128383,-0.210436,0.088213,-1.127962,-0.192181,-0.079755,0.043337,-0.069639,-0.163922,-0.109371,0.067099,0.18045,0.156158,0.078136,-0.009348],[0.005969,0.277937,-0.055966,-0.036604,0.020915,0.063093,0.197652,0.100463,-0.165705,-0.086953,0.356433,-0.040368,-0.144873,-0.027612,0.044064,-0.091674,-0.090858,-0.102819,-0.027308,-1.040605,-0.009633,0.058266,0.132562,0.206904,0.088822,0.472303,-0.129906,0.112376,0.200315,-0.08205,-0.084344,0.08192,-0.085511,-0.090548,-0.14272,0.017266,-0.135814],[0.063772,-0.271278,0.119149,-0.083252,0.109928,0.148329,-0.076893,0.175177,0.038728,0.021953,-0.07801,0.036281,0.161873,0.072981,0.140693,-0.148089,-0.155065,0.004631,-0.196755,-0.834179,0.189097,0.090706,0.000961,-0.021937,-0.010797,-0.091755,-0.050753,-0.155833,0.162501,0.005738,-0.159164,0.050366,0.109218,-0.190728,0.191188,0.048703,0.156135],[-0.117169,3.37165,-0.408162,0.026828,0.204233,-0.026302,-0.148709,0.331637,0.049227,0.140315,-0.791656,-0.087752,0.028252,0.172734,0.155444,-0.108307,-0.17643,-0.015105,-0.174851,-0.928638,-0.011559,-0.295779,0.126716,-0.200648,0.162414,-0.917805,-0.08,-0.094166,-0.086994,0.206642,-0.032384,-0.015906,0.011989,-0.270922,-0.228336,0.05414,0.109847],[0.03175,-1.121171,-0.207245,-0.070028,0.006514,0.009958,-0.002424,0.186147,-0.301112,-0.079437,0.089092,-0.152676,0.122715,0.114304,0.121295,-0.119183,-0.05815,-0.049227,-0.426347,0.056106,0.156702,-0.113893,-0.018449,-0.085107,-0.163841,-0.236415,0.172896,0.101043,-0.039317,-0.06372,-0.048144,0.088504,0.048137,-0.055258,0.229972,0.09637,-0.019298],[0.140239,-2.467017,-0.260871,0.119791,-0.137632,0.262752,-0.394989,-0.257808,-0.444997,0.323198,0.498706,0.060609,0.301942,-0.092813,0.055183,0.001863,-0.081007,-0.154007,-0.011611,0.38424,-0.219332,0.30376,0.020429,-0.136109,-0.072255,-1.321849,0.150001,0.083634,-0.214944,0.072093,0.109008,-0.219226,-0.03847,0.131908,0.444405,-0.258249,0.096988],[-0.264862,-2.123882,0.361938,-0.145976,0.070026,-0.130739,0.219434,0.027136,0.163375,-0.216792,-0.295838,0.087563,-0.646412,-0.120329,-0.13489,-0.134915,0.076615,0.040425,-0.440691,-0.519342,-0.17037,0.079792,0.116984,0.18476,0.070136,-0.31121,0.053658,-0.051507,0.02108,0.106115,0.093664,0.049005,-0.221467,0.266576,-0.353736,0.209083,-0.066485],[-0.014999,-1.304707,-0.124719,-0.002073,-0.082141,-0.113732,0.172642,-0.158926,-0.078856,0.147622,-0.019636,0.10894,0.299,0.084384,0.154154,-0.117434,0.041511,0.092418,-0.353927,0.422097,0.031656,0.104908,-0.258853,-0.143382,0.000962,0.165412,0.112674,-0.063546,0.035066,0.008627,0.080593,-0.028189,0.082334,0.032016,-0.26431,0.18374,0.195034],[0.049788,-0.336993,-0.105053,-0.05496,-0.120759,0.096527,0.146885,-0.109221,-0.188122,0.037757,-0.049535,-0.089625,0.266612,0.165129,-0.13593,-0.115238,-0.033852,0.073519,-0.107541,0.262271,-0.034759,-0.114752,-0.074731,0.03997,-0.139338,0.168644,0.030779,-0.18421,0.154496,-0.083522,0.056638,-0.081158,-0.02223,-0.071261,0.064078,-0.060181,-0.078587],[-0.03818,-0.033768,0.002427,-0.083559,-0.140621,0.048564,-0.097519,0.056781,0.119846,0.027496,0.11714,-0.062922,-0.146417,0.131177,0.079165,-0.113579,-0.131889,0.12806,0.149431,0.159541,-0.052515,-0.016042,-0.08538,-0.036262,-0.085149,0.129032,-0.145719,-0.151984,-0.099424,-0.154882,0.050024,-0.147743,0.067327,-0.065518,-0.121767,-0.112526,0.086938],[0.219504,1.070778,-0.153111,0.094274,0.0303,0.075002,0.178605,-0.100032,0.003838,0.23778,0.388886,0.169166,-0.187294,-0.084807,0.071462,0.141929,-0.138538,0.098077,0.211227,0.792657,0.211529,-0.298378,0.10095,0.053181,-0.091411,-0.158105,-0.251778,-0.067123,0.140504,-0.121666,0.135703,0.03775,-0.171694,-0.107124,0.269719,0.291916,0.357002],[-0.047959,2.787282,-0.198247,0.088659,-0.103628,-0.044748,-0.078604,-0.349099,-0.019659,0.281306,-0.571613,0.005743,0.22074,-0.156901,0.114632,0.048451,-0.052665,-0.019475,0.312511,0.165483,0.011382,0.020646,0.275997,0.232851,-0.046736,-0.354218,0.344011,0.247529,0.034276,-0.068878,0.108627,0.14756,-0.139727,0.133699,-0.108542,-0.026529,0.219815],[-0.138383,0.310091,0.152943,-0.11423,-0.09649,0.134862,-0.034969,0.126171,0.223601,0.196675,-0.061506,-0.029056,-0.05012,0.173031,0.06917,-0.032748,0.041139,-0.105945,-0.134348,-0.183331,0.258165,0.106908,0.130605,-0.057163,0.062629,0.366917,-0.177296,-0.044054,0.195956,0.145768,0.122898,0.143033,-0.057979,0.074958,-0.466713,-0.038567,0.011475],[0.015006,-1.063398,-0.228719,-0.331711,0.084637,0.150275,0.089017,0.156129,0.00683,-0.226247,-0.370852,0.188042,-0.086873,0.15824,0.161265,-0.070993,0.09203,-0.042521,-0.407213,-0.52768,-0.162973,-0.121265,0.095992,-0.021718,-0.160396,0.127203,0.007303,-0.020055,0.061194,-0.031688,0.105978,0.188072,0.089435,-0.214737,0.20003,-0.020191,-0.145177],[-0.080568,-3.2343,0.528108,-0.471489,0.161013,0.081783,-0.037011,0.400889,-0.544204,-0.314599,0.211553,0.099875,0.173159,0.120877,-0.010609,-0.038577,-0.046881,0.025324,0.049634,0.752369,-0.172713,0.201323,-0.12465,-0.072933,-0.09302,0.102141,0.06562,0.147358,-0.168631,-0.139936,-0.0849,0.069867,0.043496,0.129671,-0.113236,-0.006306,-0.282323],[0.004362,0.959867,-0.083049,-0.076132,0.054199,-0.10366,-0.180131,0.048106,-0.135604,-0.016593,0.520258,0.195556,0.281828,0.013141,-0.016248,-0.030758,-0.108765,-0.023402,-0.157465,-0.259261,-0.110391,-0.059374,-0.239672,-0.107265,0.072871,0.607583,-0.036399,0.143,0.053819,0.102873,-0.048047,-0.051975,-0.117595,0.068276,-0.081339,0.008012,-0.010741],[0.250589,-0.572521,0.045925,-0.014482,-0.049402,-0.072297,0.036599,0.028624,0.262699,0.223438,-0.632998,-0.143475,-0.224164,-0.135547,0.037463,-0.015651,-0.005459,-0.247629,0.280057,0.578482,0.156741,-0.105666,-0.061829,0.227476,-0.006297,-0.573356,0.184559,-0.094453,-0.048309,-0.109309,-0.146819,-0.182995,0.120472,0.082112,0.101915,-0.152696,-0.210765],[0.075732,-2.675233,0.384572,-0.048503,-0.050059,0.200293,-0.556223,-0.296425,0.060037,0.537164,-0.230978,-0.093225,0.154649,0.054364,-0.11338,-0.126874,-0.007582,-0.011465,-0.091549,0.34037,0.022736,0.210692,0.024384,0.038612,-0.059681,-1.878417,0.146806,0.11636,-0.025542,-0.002136,-0.109272,-0.156339,0.125155,0.07455,0.311165,-0.171452,0.109998],[0.062394,0.432611,0.348214,0.019796,0.080332,-0.145579,-0.199391,0.010365,-0.073223,0.114445,0.082907,0.16736,0.011365,-0.134271,-0.155131,0.004477,-0.12927,-0.103268,-0.303626,0.386527,-0.023168,0.056135,0.20946,-0.106103,0.134863,-0.212885,0.002156,0.118778,0.150887,0.032241,0.022758,0.149127,-0.093483,-0.202503,0.06755,-0.246005,-0.160356],[0.065146,-0.12571,0.097721,0.06761,-0.023793,-0.098427,-0.106003,0.100502,-0.080798,-0.077967,0.151861,0.16234,-0.053165,0.002521,0.017811,-0.122758,0.006902,0.135705,-0.214046,-0.076164,0.200012,0.088632,0.027652,0.143147,0.164839,0.257406,-0.119805,-0.209123,0.077003,0.089365,0.042877,0.070672,0.105904,0.099381,-0.069538,-0.160092,-0.058758],[0.172911,-3.582835,0.553003,0.103604,-0.315082,0.003742,0.136608,0.150072,0.188286,0.091321,-0.28547,-0.126738,0.038181,0.067854,0.019744,0.097155,0.163009,0.200511,-0.441312,0.206837,0.020754,0.195674,-0.044726,-0.137936,-0.049245,-0.3069,-0.109945,-0.130428,0.01376,0.017571,0.095348,0.173406,0.167457,0.128485,-0.281755,0.065197,0.216163],[-0.19528,1.81975,0.126143,-0.258352,0.109305,0.233975,0.033803,0.26768,0.288586,-0.304073,0.349155,0.173986,0.107751,-0.114901,0.089535,0.08171,-0.002795,0.069999,-0.407018,-0.726274,0.162529,0.154014,-0.15483,0.04077,-0.087348,-0.83659,-0.135463,-0.112796,0.187787,0.179219,-0.043692,0.156211,-0.11898,0.082884,0.069885,0.009144,0.289696]],"bias":[0.08398,0.115935,0.128785,-0.058865,-0.059556,0.077599,0.01818,0.02021,-0.062127,0.157559,0.14342,0.026347,-0.114822,0.028376,-0.121493,-0.088296,-0.163429,0.064741,-0.080232,0.083914,0.00597,0.09304,-0.034759,-0.122246,0.127897,0.063163,0.148013,-0.015993,0.164392,0.134286,-0.027455,-0.035009,0.03759,-0.086905,-0.050459,0.130334,-0.002748,0.013474,0.026301,0.007385,-0.037439,0.126186,-0.158417,0.007628,0.007045,0.120733,-0.093637,0.036407,-0.144972,-0.031578,-0.152986,0.09039,0.020213,-0.080321,0.081568,0.052941,-0.136752,0.024995,-0.098385,-0.042324,-0.04038,0.018915,0.002752,0.077509,-0.131901,0.008242,0.061469,-0.15011,0.130211,-0.024728,-0.019036,-0.109652,-0.008553,-0.002082,-0.097001,-0.145839,0.000233,-0.117363,-0.048922,0.079687,-0.068657,0.131306,-0.084412,-0.118068,-0.004254,0.101729,0.02623,-0.082253,0.138211,0.113548,0.120763,-0.070921,-0.116257,-0.135547,0.077606,0.180497,-0.009724,-0.127951,-0.035917,0.108579,0.101671,0.171216,-0.140006,-0.016548,-0.070966,-0.14338,-0.05092,0.071625,-0.091851,-0.093509,-0.101131,-0.163588,-0.094544,0.159615,-0.173909,0.067646,-0.13257,0.065097,0.115736,0.024607,0.05243,0.099262,0.175843,-0.114576,-0.041167,0.02446,-0.02127,-0.150329,0.098895,0.110018,-0.113008,0.137154,-0.005515,0.018972,0.125786,0.197826,-0.046791,-0.050572,0.013693,0.151083,-0.012609,0.144629,-0.003185,0.08,0.141147,-0.085418,0.073783,0.028769,0.057354,-0.198252,0.023784,-0.017199,-0.164645,0.100461,0.171276,-0.173106,0.156251,0.131506,-0.054703,0.179911]},{"weights":[[-0.598487,-0.023794,0.47464,-0.212599,-0.000735,-1.581668,-0.060029,0.013821,-0.024148,-0.210873,-0.005372,-0.011128,0.031674,0.080161,-0.620774,0.210275,0.016273,-0.005297,0.058606,-0.13474,-0.563863,-0.018813,-0.5478,-0.129945,-0.60631,0.048167,0.205941,-0.186027,-0.157697,0.124802,-2.929835,-0.287934,-0.135551,0.185624,0.130616,0.245322,0.138713,0.353487,0.28768,0.013839,-0.00452,0.106809,0.280438,-0.442441,0.134383,0.02849,-0.081811,-0.333912,0.038669,-0.051858,0.042855,-0.184205,-1.207547,0.048399,0.09148,0.132025,0.001631,-0.042033,-0.125062,0.051334,0.067091,-0.019964,0.042542,0.037177,-0.030371,-0.657954,-0.422685,0.033024,0.051736,-0.638389,-0.302775,0.125947,0.209615,-0.060254,0.437514,-0.071474,0.076935,-0.07565,-0.145008,0.790224,0.015802,0.369383,-0.079418,-0.2785,0.85086,0.092385,0.070759,-0.07754,0.022102,-0.039309,-0.037002,-0.476138,0.214058,0.037849,0.346083,-0.124119,0.745893,0.173674,0.739428,0.108379,-0.029516,0.18399,0.034353,0.267765,-0.044579,-0.886518,0.05159,-0.106217,1.031139,-0.083432,0.397823,-0.065973,-0.092345,0.159131,0.433785,-0.065229,0.000177,-0.081672,0.101759,-0.717846,-0.051839,0.014947,0.047049,-0.01595,0.533785,-0.045352,-0.140217,0.304206,-0.011845,-0.342441,-0.216554,-0.116855,0.743925,0.071166,0.017954,-0.157755,-0.075336,0.073984,0.43175,0.082399,-0.245141,-0.218061,0.035074,0.172459,0.607218,-0.784437,-0.126109,-0.042119,0.28334,-0.114706,0.052715,-0.125121,0.266671,-0.922682,0.460017,-0.440281,0.246466,-0.033042,-0.172444,-0.029511],[-0.00378,2e-05,-0.041955,-0.023786,-0.058935,-0.084388,-0.11112,-0.026199,0.02307,0.06411,0.045031,-0.009589,-0.078594,-0.065361,-0.031394,-0.13203,0.055406,0.077577,-0.049636,0.067059,0.000584,-0.020421,-0.145302,-0.109616,0.06078,-0.067424,-0.053039,-0.120764,-0.031481,0.017834,-0.061022,-0.096519,0.035139,-0.088587,-0.142992,-0.064115,0.048056,0.010061,-0.041494,-0.079471,0.07624,-0.098764,0.057859,0.010149,-0.037717,-0.036456,0.018635,-0.098809,0.042971,-0.065457,0.001704,0.061019,-0.144465,-0.016597,-0.028052,-0.047888,-0.033643,0.012832,-0.092414,-0.053239,0.015692,-0.046606,0.054371,0.047734,0.023965,-0.046323,-0.070822,-0.002698,-0.038376,-0.146559,-0.107246,-0.024184,0.014324,-0.069598,-0.053045,0.002031,-0.059181,0.004089,-0.045442,0.022167,0.03784,-0.02212,-0.018857,-0.011392,0.073902,-0.064051,0.074799,0.007861,-0.087554,-0.064041,0.057856,-0.043307,0.011057,-0.014084,0.092102,-0.036842,-0.106746,0.037695,-0.072441,0.079811,0.044973,0.051944,-0.026467,-0.058388,-0.113143,0.109548,-0.002561,-0.070531,0.004046,0.081358,-0.008366,0.030016,0.015608,0.044834,-0.026567,0.091744,-0.062031,-0.099581,-0.010537,-0.066105,-0.105314,-0.008142,-0.01347,-0.060914,-0.04318,-0.023037,-0.068937,-0.088277,0.017639,0.01494,-0.121408,0.00228,-0.053217,-0.043836,-0.004461,-0.038919,0.068962,0.016331,-0.026245,-0.081209,0.011344,0.05794,-0.138727,-0.059904,-0.029342,-0.054469,-0.05693,0.04868,0.056045,-0.039829,-0.066654,-0.001843,-0.054916,-0.022928,-0.009587,-0.012379,-0.035369,0.013329,0.001457,-0.104138],[-0.067689,-0.014988,-0.1434,-0.008426,0.222995,1.483154,-0.011921,0.285757,-0.466254,-0.007324,0.098107,-0.190012,-0.075111,0.053911,0.033943,0.083593,-0.061712,-0.006391,-0.104266,-0.022426,-0.131071,-0.042885,0.066754,0.123823,0.00617,0.044325,0.075823,0.239366,0.101634,0.056356,0.118912,0.141308,-0.052826,0.103468,0.132432,-0.006713,0.052656,0.015298,-0.072847,0.045003,0.041795,0.197717,-0.048028,0.020667,0.31845,0.099189,0.105372,0.153189,-0.029442,0.015488,0.061669,-0.035748,0.14055,0.055391,0.031274,0.083768,0.058034,0.020777,0.099324,0.029363,-0.044366,-0.095687,-0.054279,0.093958,0.036747,-0.051745,-0.011241,0.064595,-0.021889,0.082124,0.0679,-0.014327,0.000185,0.106995,0.104056,0.033822,0.031005,-0.073504,0.04282,-0.571488,0.119099,-0.083544,0.087262,0.083949,-0.229742,0.054954,-0.012917,-0.021424,-0.005731,0.002509,-0.071518,0.063112,0.063963,0.065107,0.207152,-0.002015,0.031298,-0.067805,0.070823,0.002617,0.042746,-0.036654,-0.020412,-0.160838,0.075746,0.34601,0.002681,0.095019,0.376094,-0.06313,0.326531,-0.039822,0.009233,0.037507,-0.244934,0.045265,-0.084954,0.061314,0.056305,0.188934,0.144227,-0.027413,0.010551,0.002754,0.124189,-0.039924,0.080706,0.064218,-0.00687,-0.102241,0.072186,-0.040726,-0.164612,0.04572,0.140416,0.061114,-0.015225,0.020779,0.341187,0.141542,0.068299,-0.086709,0.105629,-0.097068,-0.19909,0.095972,-0.016869,0.058374,0.211882,0.190856,-0.028439,-0.016145,0.321214,0.142215,-0.263993,0.010198,0.001119,-0.003321,0.070916,0.059222],[0.020909,0.001628,-0.089907,-0.042661,0.031695,0.070977,-0.008004,-0.108025,-0.070629,-0.119307,-0.106892,-0.08461,-0.068062,0.022968,0.015054,-0.033184,-0.054702,-0.036196,0.005105,-0.012465,-0.056112,-0.013631,-0.121779,-0.070328,-0.026905,-0.035835,-0.023682,-0.094615,-0.009347,-0.015464,-0.073036,-0.056026,-0.107894,0.017507,-0.077965,0.000761,-0.082247,-0.041597,0.024543,-0.069161,0.050196,0.03229,-0.043597,-0.115045,0.030886,-0.085608,-0.048476,0.046572,-0.050961,-0.010142,0.075023,0.014123,-0.108112,0.012172,0.02464,-0.054978,-0.049767,-0.087313,-0.028867,-0.078448,-0.078931,0.053799,-0.038271,-0.054291,-0.058632,-0.020404,-0.086589,-0.039799,-0.033402,-0.071829,-0.098587,-0.092654,-0.070174,0.057076,-0.059105,0.020122,0.020953,0.034796,-0.085077,0.053498,-0.039824,0.029186,-0.063837,0.043143,0.000142,-0.103823,-0.024963,-0.10954,0.000105,-0.07615,-0.016226,-0.107423,-0.008982,0.039759,-0.021444,-0.056622,-0.073211,-0.09043,-0.057442,-0.103359,-0.070751,0.022718,0.00198,-0.079961,-0.112991,-0.006085,-0.012452,-0.020911,0.024508,-0.048711,-0.033405,0.004221,-0.01188,-0.077454,-0.102174,-0.076389,0.069744,-0.07246,0.022966,0.003855,0.013018,-0.081568,-0.024229,-0.039821,0.063527,-0.056828,-0.030475,0.014101,-0.003946,0.004996,-0.032981,0.020477,0.001685,-0.051571,-0.065902,-0.116759,0.01576,0.060004,-0.062364,-0.010731,-0.042179,-0.024085,0.006242,-0.062196,-0.054652,-0.111406,0.023317,-0.039301,-0.045521,-0.03733,0.011714,0.022802,0.053208,-0.007731,0.032555,0.014175,-0.119727,-0.086429,-0.112291,-0.011719],[0.068817,-0.002695,-0.119078,-0.10441,-0.050082,0.040959,-0.10315,-0.042492,-0.064332,-0.030823,-0.085904,-0.046628,-0.028107,0.072308,-0.043954,-0.0837,-0.066168,0.078635,-0.057842,-0.129544,0.062376,-0.003515,-0.021934,0.008595,0.034259,0.063861,-0.024893,-0.032443,-0.071939,-0.12129,0.005231,0.010401,-0.022883,-0.056384,-0.053002,0.003387,-0.048727,-0.033783,-0.131664,-0.109836,0.071196,-0.026085,0.048786,-0.017331,-0.001984,-0.129303,-0.035865,-0.013327,0.071278,0.007018,0.003121,-0.021894,-0.06699,0.014324,-0.061896,-0.054725,-0.028146,-0.071887,-0.099135,-0.005935,0.056565,-0.072169,0.062419,0.005469,-0.018482,0.028112,0.006878,-0.002537,0.037398,0.038616,-0.04233,0.018186,-0.035149,0.001974,-0.090134,-0.101022,-0.05677,0.001532,-0.081378,0.046653,0.036397,-0.059922,0.040592,-0.051093,0.057206,-0.101492,-0.020481,-0.0164,-0.133248,0.021277,-0.093467,-0.126851,0.00394,-0.036608,-0.045726,-0.095778,0.017942,-0.01021,-0.057016,-0.063713,-0.031238,-0.048303,0.048391,-0.004532,-0.078744,-0.018251,-0.052623,0.006023,-0.059232,-0.051281,-0.119155,-0.039878,-0.073965,0.030806,-0.068018,-0.081515,0.040245,-0.083725,-0.068558,-0.08012,-0.047918,-0.07036,-0.128799,-0.056235,-0.02892,0.0526,-0.085509,-0.073837,-0.122919,-0.053058,-0.046802,-0.007919,0.048243,-0.07979,0.031367,-0.041406,-0.003073,0.016017,0.025813,-0.126442,-0.107415,-0.103456,-0.087726,0.07714,0.015665,-0.101656,0.019327,-0.052084,-0.016014,-0.00138,-0.040119,-0.009608,0.000614,-0.090269,0.047348,-0.026945,-0.064039,-0.101429,-0.086668,-0.042698],[0.011476,0.008858,-0.398839,-0.023788,0.027535,0.00468,0.068872,-0.123228,1.067769,0.24786,0.138182,-0.224155,0.006664,-0.051784,0.063589,-0.095553,-0.004981,0.003235,0.165833,0.037514,0.217692,-0.122071,0.253589,-0.411326,0.093465,-0.055424,0.180698,-0.026008,0.100812,0.133287,0.064822,0.034733,-0.000791,0.004229,0.023597,-0.528205,0.026305,0.154344,-0.584133,-0.01086,0.072767,-0.677485,0.147066,0.235026,-0.122722,0.053688,-0.074464,0.053607,0.052455,-0.123194,0.073366,0.011586,0.108791,0.018408,0.138481,-0.053045,0.067656,0.083358,-0.107839,0.102054,-0.05787,-0.051605,0.014396,-0.103978,-0.074341,0.165368,0.226403,-0.023537,-0.059944,0.092854,-0.130861,-0.006154,-0.094574,-0.584812,-0.028333,0.046989,-0.044019,-0.035104,-0.019217,0.044485,-0.020185,-0.057652,0.059593,0.053871,-0.970672,0.067289,-0.048195,-0.041526,0.217636,0.083245,0.188149,0.114723,0.107077,0.056939,-0.177303,0.207202,-0.701579,0.150612,-0.708884,0.06728,0.157154,0.158934,-0.072862,-0.375816,-0.089959,0.436984,0.406472,0.215483,-0.15643,-0.411563,0.065276,-0.058419,0.075389,0.117471,-1.341825,0.170813,0.042876,-0.684565,0.09005,0.060279,0.275024,0.123475,0.028994,0.027603,-0.027242,0.089301,-0.066081,-0.130311,0.058703,-0.066458,0.066612,0.216261,-0.014051,0.05866,-0.016541,0.128117,0.09074,0.012704,0.759588,0.074302,0.041289,0.293377,0.029724,0.086904,-0.410479,-0.127042,-0.018173,-0.052401,-0.145552,-0.176923,0.072869,0.196191,-0.518751,-5e-06,-0.324126,0.070272,-0.041458,0.055325,0.124956,0.059953],[-0.087389,0.043819,-0.130033,0.043767,0.251001,1.529262,0.069844,0.223977,-0.266746,-0.023596,0.037802,-0.226583,-0.041522,-0.008121,-0.052646,0.047313,-0.002062,0.059101,-0.103518,0.011122,-0.108968,0.01332,-0.006117,0.091705,0.037976,0.01164,0.141441,0.250157,0.046588,0.113695,0.088848,0.085223,-0.05558,0.01936,0.165869,-0.044848,-0.051561,0.073092,0.032367,0.090359,0.022043,0.181796,-0.055593,0.014958,0.213859,-0.019841,0.078672,0.144976,-0.071308,-0.029207,-0.045347,-0.004055,0.01808,0.126373,0.070683,0.053813,0.115901,0.037382,0.073696,0.112432,-0.044237,0.016982,-0.073725,0.023999,0.058784,0.00646,-0.08484,-0.060881,0.05345,-0.008177,-0.052203,-0.131926,-0.007505,0.041883,0.05531,0.065852,0.01396,-0.004409,0.122956,-0.456255,-0.01849,-0.085716,0.066699,0.156298,-0.28327,0.098713,-0.07735,0.091343,-0.053633,0.035337,-0.037207,-0.021139,-0.001389,-0.030259,0.140021,0.004014,-0.091125,0.006063,0.00389,0.006303,-0.035306,-0.00272,0.01499,-0.062165,-0.022584,0.196216,-0.012607,0.087838,0.411528,0.024918,0.275028,0.067242,-0.04586,-0.034388,-0.302768,-0.065951,0.062037,0.02222,0.112616,0.155215,0.153618,0.068034,0.068604,0.039265,0.200987,-0.057728,0.051471,-0.088595,0.042306,0.007649,0.140956,-0.106657,-0.15282,0.091791,0.110778,-0.007421,0.035028,0.053992,0.316144,0.124448,0.046029,0.018938,0.016862,-0.083091,-0.197262,0.055445,0.091884,-0.028033,0.094434,0.224895,0.009993,-0.019366,0.299894,0.093976,-0.228599,0.062137,0.018741,0.001415,0.126868,0.093927],[-0.106796,0.070382,0.015844,-0.0715,-0.083569,-0.029041,-0.037542,-0.080558,-0.088615,-0.091465,-0.099987,-0.047184,0.038533,-0.029556,-0.111799,0.027678,0.016631,0.05547,-0.128615,-0.016039,-0.074677,0.025809,-0.019619,-0.038474,0.009157,-0.059294,-0.12095,0.009343,-0.050089,-0.056242,-0.081388,-0.109419,-0.094584,-0.036159,-0.012011,0.076497,-0.109397,-0.091823,-0.029802,-0.119012,-0.015184,-0.105059,-0.021552,-0.068355,-0.10998,-0.101759,-0.08327,-0.05328,-0.059291,0.006467,0.016335,-0.023255,-0.12725,-0.044068,-0.103854,-0.012747,-0.001028,-0.095282,-0.025135,-0.097778,0.036471,0.060932,-0.074901,-0.111126,-0.04655,-0.121856,0.035537,-0.020214,0.047895,-0.121884,-0.044073,0.029203,-0.061335,0.012794,-0.082944,-0.026495,-0.133572,-0.028785,-0.065559,-0.082776,-0.094273,-0.113213,0.043561,-0.130911,0.028777,-0.040929,-0.099774,-0.010488,0.039945,-0.100542,-0.005039,-0.112395,-0.053406,-0.000712,-0.041701,0.009342,0.071645,-0.033248,-0.121416,-0.088764,3.6e-05,-0.086866,-0.032363,-0.018128,-0.119322,-0.02992,0.00445,-0.042729,-0.089126,0.005148,0.062397,-0.020045,-0.06375,-0.023292,-0.069037,-0.030737,0.058104,-0.084826,-0.02474,-0.110114,0.003076,-0.081985,0.02521,0.074889,0.019528,-0.134629,-0.109963,-0.12157,-0.115422,-0.001288,-0.006847,-0.034794,-0.041578,-0.014056,-0.078508,-0.069995,-0.102884,-0.031979,-0.11129,-0.056371,-0.063624,-0.1465,-0.04886,-0.063279,-0.058988,-0.080157,-0.073739,0.021348,-0.047572,-0.04993,-0.076157,-0.000714,-0.032818,-0.042367,-0.095957,-0.016441,0.005993,-0.052846,-0.05425,0.014417],[-0.025971,-0.027996,-0.018614,-0.062307,0.006017,-0.018822,-0.05886,-0.007584,-0.042199,-0.037367,-0.07487,-0.062561,-0.011752,-0.075575,0.002422,-0.085803,0.048894,-0.070503,0.013535,-0.083122,0.011316,-0.001869,-0.011724,-0.025722,0.030601,-0.059281,0.060825,-0.03663,0.052146,0.03118,0.07228,0.014354,0.063506,-0.059532,0.060598,0.077072,0.02527,0.018503,0.043625,-0.022864,-0.00569,-0.075926,0.045953,-0.024529,0.036623,-0.046677,-0.013991,-0.04485,-0.058404,-0.019589,-0.042165,0.017765,0.076729,-0.040704,-0.024666,0.070371,-0.031234,-0.018594,-0.033063,0.037215,-0.049208,0.036236,-0.020404,0.020081,0.041595,0.046715,-0.070634,0.049059,-0.07171,0.020531,0.006444,-0.012802,0.004798,-0.01117,-0.073705,-0.072548,-0.03106,0.023085,-0.022211,-0.038128,-0.08624,-0.03245,0.050842,-0.011593,-0.013669,-0.017767,-0.077803,-0.065731,-0.065251,0.047405,0.004968,-0.03521,-0.030636,-0.036121,-0.016444,-0.008469,0.074833,0.053576,0.031819,-0.046954,-0.036126,-0.076279,-0.056459,0.037618,-0.082789,-0.001025,0.005403,-0.014786,0.015534,-0.071697,-0.075696,-0.018472,-0.069179,0.007764,0.069231,-0.065367,-0.027773,-0.074922,-0.034921,0.073483,0.059641,0.023685,0.04196,0.024661,-0.064236,-0.081028,-0.042573,0.013576,0.033904,-0.071483,-0.037332,-0.016305,-0.060862,0.039841,0.056007,0.047379,0.013998,-0.066037,0.049963,-0.054336,-0.004961,0.030993,-0.050836,-0.016698,-0.076853,-0.050879,-0.065503,0.0764,-0.039721,0.036718,-0.017179,-0.017076,0.016981,0.038609,0.046408,0.02421,0.042703,-0.048376,-0.028184,0.006412],[0.015752,-0.054527,-2.340754,0.048697,0.425848,1.516737,0.914456,-0.527917,-0.123089,-0.058865,0.019927,0.216495,0.052095,-0.041258,0.075838,0.047866,0.060312,0.036826,0.172267,0.071025,0.00817,0.530117,-0.106994,0.01712,0.018851,0.04433,-0.194047,0.000178,-0.406592,0.027691,-0.893186,0.075787,0.095224,-0.103953,0.299266,0.070202,-0.024097,-0.069272,-1.3846,0.020457,-0.030049,0.077388,-0.027342,0.070081,-0.009065,-0.070283,0.12176,-0.07997,0.046029,0.074819,0.034127,-0.06057,0.08092,0.017187,-0.062079,0.180433,0.101516,-0.024688,-0.196818,-0.202958,0.03438,-0.007876,-0.078717,-1.342219,1.009127,0.108851,-0.196553,0.01438,0.06756,0.097516,0.220782,0.047728,0.057982,-0.10865,-0.550563,-0.036301,-0.353948,-0.049018,0.059659,-0.372484,-0.133552,0.105104,-0.020453,0.343509,0.412971,-0.02533,0.177344,0.191729,0.352493,0.015561,-0.063442,0.011978,-1.171895,0.034514,-0.613182,-0.047965,-1.818462,0.123265,-0.05652,-0.105316,0.01994,0.065481,-0.037003,-0.340015,0.294735,-0.722772,-1.950151,-0.02616,-0.680176,0.659139,-0.214569,0.003749,0.002475,0.025399,0.013556,-0.048431,0.023743,0.283377,0.06873,0.181339,-1.05198,0.018682,-0.075002,0.025624,-0.889137,-0.100287,0.19095,-0.957003,0.030276,1.185561,0.101722,-0.051437,-0.162789,0.048324,0.726996,-0.079114,0.048398,0.046954,-0.767835,-0.082349,-0.087489,-0.053906,0.12443,0.075494,0.827888,0.172334,0.14334,0.014999,-0.022662,0.133329,-0.152838,0.244062,-0.277303,-0.018266,0.141471,0.106148,0.156542,-0.017425,0.146518,-1.076777],[-0.081933,0.053463,-0.036221,-0.003013,-0.008982,-0.036049,-0.060248,0.02617,0.046379,-0.066635,0.052845,-0.00306,0.01627,-0.04753,-0.009255,-0.019219,0.023416,0.02682,-0.083461,-0.011889,0.024049,-0.069163,-0.069113,-0.086675,-0.086657,-0.021286,-0.016317,-0.038143,-0.079496,-0.018434,-0.029834,0.001305,-0.023571,-0.099195,-0.053878,-0.055631,-0.00477,0.032851,-0.050936,0.049299,0.042201,-0.043619,-0.061161,0.004886,-0.056606,-0.090662,0.005046,0.104897,-0.027389,-0.028349,-0.05209,-0.095108,0.049812,0.027093,0.035316,-0.081016,0.051915,-0.074257,0.007188,0.051078,-0.069496,0.032872,0.044357,-0.037557,0.034436,-0.043491,0.015412,-0.02895,-0.062695,0.046545,0.053556,-0.083017,0.048896,-0.036499,-0.002502,-0.072424,-0.013765,0.050952,-0.072248,0.040082,0.006846,-0.092921,0.008181,0.041073,-0.024732,-0.005318,0.013722,-0.052105,-0.025979,0.002428,0.02991,-0.082194,-0.015429,0.077627,0.070252,-0.038029,-0.021904,-0.052265,-0.09202,-0.094781,-0.105846,-0.006031,0.064927,-0.038451,-0.030469,0.034744,0.021142,0.0288,-0.061897,-0.102255,-0.023863,0.067946,0.038517,-0.010017,-0.0464,-0.039538,-0.006987,-0.10205,-0.01561,0.055691,-0.027345,-0.020926,-0.049882,0.008405,-0.001548,-0.009703,0.048101,-0.069147,-0.065567,0.017437,0.023291,0.003215,-0.005953,0.044355,0.047821,0.051005,-0.061565,-0.014044,-0.057594,-0.073211,-0.059645,-0.002375,-0.067846,0.04692,-0.014755,0.022455,0.00523,0.011316,0.036288,-0.022365,-0.016825,0.000707,-0.085746,-0.066645,0.010408,-0.10185,-0.093377,0.002496,0.024014,-0.083704],[-0.080376,0.057377,-0.095902,0.024557,0.011176,-0.012179,-0.009208,0.028068,0.019468,-0.067068,-0.081399,0.023009,0.03333,-0.035645,-0.099939,-0.093358,-0.001119,0.055713,0.025788,-0.071286,-0.080023,-0.06813,-0.083032,-0.042199,-0.000758,0.069819,-0.08794,-0.049658,-0.032784,-0.057205,-0.001123,-0.012879,-0.088936,0.000393,0.050427,-0.030787,0.04654,0.019942,-0.062945,-0.079671,-0.006266,0.03095,0.019444,0.062672,0.036246,0.056766,0.06271,0.049921,-0.040597,-0.015279,-0.048254,-0.006758,0.006875,0.011597,-0.022561,0.035513,0.01915,-0.050047,0.06369,0.034965,-0.072187,0.058433,0.058864,-0.074797,-0.036572,-0.020577,0.056665,0.058942,0.016414,0.057522,-0.050767,0.047422,-0.021326,-0.071411,0.048955,-0.075605,0.008966,-0.073601,-0.025338,0.027622,0.015647,-0.03278,-0.053243,-0.072807,0.010292,-0.035373,0.029787,-0.097227,-0.077746,-0.008256,0.064123,-0.046665,-0.014748,0.038868,0.034868,-0.085198,0.068,-0.085256,-0.076818,-0.070716,-0.041636,-0.070049,0.021273,-0.050381,-0.0231,-0.018757,-0.022617,0.04731,-0.025101,0.010785,-0.082117,-0.039047,0.04388,0.056129,0.046686,-0.047295,0.059015,-0.075071,-0.021856,-0.07765,-0.066732,-0.070834,0.012261,-0.025438,0.014913,-0.055033,0.008594,-0.004832,-0.040127,0.047642,0.023018,-0.033591,0.012309,-5.4e-05,-0.025486,0.034254,-0.010956,0.054385,0.065754,-0.067751,-0.048626,-0.037796,-0.00216,-0.034831,0.004587,0.005983,-0.069076,-0.06071,0.036858,0.008722,-0.061396,0.035122,-0.083981,0.023869,0.008903,-0.042666,0.037768,0.017404,0.061494,-0.009589],[0.082258,-0.051456,-0.119128,-0.111313,0.004008,0.52235,-0.125885,0.016107,-0.233462,-0.007286,0.034786,-0.230643,-0.076601,-0.049608,0.000734,-0.047583,-0.027684,-0.059282,-0.016951,0.039131,-0.068491,-0.115256,0.169338,-0.072401,0.10953,-0.055824,0.049943,0.000269,-0.06825,0.02089,0.009939,0.089244,0.031813,0.044044,0.01618,-0.312511,0.059189,-0.083726,-0.110404,0.031498,-0.0503,0.122808,0.153315,0.136476,0.252952,0.068376,-0.007594,-0.043962,0.065161,0.019046,-0.012255,0.137186,0.03946,0.062434,-0.000552,7.3e-05,-0.064701,0.022692,-0.167917,0.003419,0.051856,-0.022335,0.032747,0.103764,0.090099,0.000543,0.030255,-0.015688,-0.037243,0.169928,-0.009599,0.064078,0.063056,-0.124518,-0.082118,0.073314,0.005658,-0.029637,-0.044451,-0.330869,-0.06122,0.040079,-0.040964,-0.035904,0.234366,0.048931,0.033687,-0.062052,0.077071,0.00164,0.006928,-0.008228,0.149424,-0.028983,-0.041194,0.174712,-0.179333,0.053229,-0.206189,0.105017,0.033748,-0.050024,-0.070583,-0.316395,-0.07508,0.500705,-0.151001,0.063808,0.755306,0.19939,0.232146,-0.027533,0.004901,-0.063546,-0.501211,-0.067878,-0.076034,-0.139383,0.095499,-0.011702,0.240503,0.035457,0.061776,0.030662,-0.052175,0.07169,0.016373,0.034104,-0.070826,0.036122,-0.008034,-0.192335,0.272507,0.06349,-0.273909,0.04689,-0.028729,-0.054307,0.312255,0.070698,0.088011,0.120565,0.060393,0.070778,-0.807691,0.057909,0.026507,-0.048856,0.105505,-0.127361,-0.032535,0.057474,-0.066305,0.12128,-0.264348,0.09294,0.044381,0.0463,0.073174,0.054416],[0.046331,-0.046713,0.00184,0.010395,-0.064428,-1.369942,0.163862,-0.171082,0.507239,0.078812,-0.051095,0.225669,0.040281,-0.042445,0.101595,-0.000646,-0.030572,-0.054779,0.040051,0.000897,0.143627,-0.05275,0.151426,-0.337296,0.042238,-0.034743,-0.030058,-0.097457,0.047005,0.01082,-0.15684,-0.023141,0.05249,0.041658,0.01267,-0.063819,0.050606,0.105606,-0.027811,-0.021072,-0.047306,-0.229972,0.057512,0.098056,-0.039409,0.080547,0.065388,0.01077,-0.059297,0.031625,-0.061561,0.065265,0.059517,-0.015245,-0.020271,-0.065997,0.001423,0.011766,-0.153456,0.149458,-0.026998,0.020847,-0.005069,-0.066788,-0.100801,-0.065123,0.139564,-0.051767,0.056384,-0.021097,0.107758,0.167435,0.025568,-0.242978,-0.103229,0.112963,-0.071262,0.067082,0.010073,0.318359,0.031595,0.094748,0.035395,-0.061563,0.31929,0.084232,0.044844,-0.040554,0.184882,0.088052,0.144867,0.078196,0.027919,0.057777,-0.122893,0.006864,-0.14269,0.078332,-0.238926,0.078017,0.128997,0.06318,0.07409,-0.243427,0.087412,-0.306323,0.010554,0.06082,-0.693039,0.078384,-0.056436,0.050346,-0.015866,-0.008972,-0.655534,0.012425,0.029078,-0.196508,-0.006377,0.004496,-0.055247,-0.03849,0.023705,0.034447,-0.112484,0.054015,0.094175,0.024202,0.024728,-0.007211,0.062354,0.133326,0.174024,0.062606,0.043598,-0.050002,-0.002283,0.0604,-0.50083,0.032853,0.084311,0.063155,0.019853,0.037213,0.169434,0.062711,0.053772,-0.009863,-0.20947,-0.150973,0.07495,0.070245,-0.09663,0.044201,0.171745,0.078321,-0.051523,0.095302,-0.035412,0.018078],[0.120008,0.07562,-0.000974,0.079507,-0.067312,-1.277098,0.042252,-0.13781,0.398512,0.011421,0.039028,0.159759,0.047098,0.043307,0.115723,0.059261,-0.012916,0.061255,-0.026724,0.103042,0.159959,0.069967,0.091973,-0.246958,0.122437,-0.008213,-0.033228,-0.144107,0.068353,-0.037477,-0.256184,0.02719,0.013233,0.035103,-0.025865,-0.117933,0.009441,0.001684,-0.033804,0.061993,-0.057851,-0.131878,-0.01641,0.044194,-0.246711,0.085547,0.008488,0.040888,0.025924,0.003191,0.003763,0.053439,0.044672,0.003339,0.096335,0.037162,0.038498,0.083681,0.009286,-0.02257,0.009237,0.040278,0.05754,0.000923,-0.136743,-0.012244,0.146141,-0.053711,-0.066992,0.026742,-0.030027,0.065223,0.071396,-0.081479,-0.005166,-0.018067,0.06374,-0.029385,-0.003232,0.26917,0.019325,0.071386,0.038762,0.034909,0.014983,-0.027139,0.002961,-0.044879,0.180818,-0.046412,0.124724,0.059488,0.11999,-0.075162,-0.116916,0.074904,0.058384,0.060811,-0.120568,0.065923,0.075436,0.062702,0.055662,0.123001,0.041464,-0.226286,-0.045365,0.073229,-0.516107,0.041442,-0.2095,0.028817,0.066285,-0.043618,-0.20376,0.035056,-0.027703,-0.164398,-0.005058,-0.067052,-0.157092,-0.065442,0.080746,0.000803,-0.049794,0.084768,-0.023942,-0.015155,0.030187,-0.062008,-0.046429,0.16342,0.15311,0.051843,-0.007277,-0.016199,0.064588,-0.037736,-0.374305,0.078515,0.025728,0.097352,0.057296,0.021345,0.183206,-0.028161,0.005871,-0.011965,-0.220743,-0.042096,0.032149,0.046857,-0.209321,-0.013227,0.239721,0.012673,0.003433,0.080454,-0.014463,-0.057192],[0.039434,0.044124,-0.01683,-0.015042,-0.033746,0.023981,0.013984,0.022588,-0.017487,0.073941,0.055556,0.063616,0.046781,-0.012207,-0.01085,0.047878,0.053573,-0.072817,0.051419,-0.080122,0.06106,-0.058638,-0.086058,0.059972,0.060256,0.04883,0.01314,0.001056,-0.052184,-0.020961,-0.020904,-0.089389,-0.030347,-0.043371,0.05718,-0.04825,-0.03759,0.005571,0.035144,-0.054558,-0.033956,-0.058063,0.005157,0.051865,0.018299,0.023865,-0.079223,0.059299,-0.016062,0.050429,0.035558,-0.080646,-0.037382,-0.023395,-0.08911,0.003267,-0.047729,0.047622,-0.056461,0.054856,-0.069549,-0.054952,-0.039409,0.005215,-0.069931,-0.080279,-0.032993,-0.036765,0.074215,0.060076,-0.067375,0.001297,0.033033,-0.088686,0.075981,0.050572,0.027758,-0.037409,-0.084547,-0.031538,-0.067368,-0.002023,0.036636,-0.077671,0.017096,0.043825,0.044319,-0.090607,0.030185,0.006886,0.026254,-0.014686,-0.0621,-0.010703,-0.052192,-0.073524,-0.020873,-0.036425,0.044165,-0.027965,-0.074461,-0.029028,0.028154,0.018175,0.02963,-0.057468,-0.054898,-0.052291,-0.053445,-0.000767,0.037926,-0.046762,0.026347,0.021371,-0.065811,0.036314,-0.002708,0.003996,0.05353,0.011797,-0.052576,0.025364,0.04808,-0.022492,-0.007483,0.057941,-0.044458,0.051495,-0.006871,-0.067793,-0.010082,-0.053694,-0.029314,0.008159,0.042946,0.046914,-0.057493,-0.072795,-0.03124,-0.028173,-0.010468,0.003903,-0.001565,0.031584,-0.004506,-0.011824,-0.012539,0.063717,-0.053282,-0.07889,0.024849,-0.041692,-0.059085,0.010219,-0.025133,0.020345,0.063636,-0.056737,-0.087346,0.044976],[-0.080135,0.074743,0.176813,0.043686,0.729158,2.943785,0.011064,0.424218,-0.941552,-0.103349,0.117213,-0.283254,0.065291,-0.010333,-0.231437,0.168287,-0.067978,0.076008,0.146775,0.078593,-0.485204,-0.17518,-0.101572,1.364447,-0.325939,-0.069675,-0.09467,0.078835,-0.346007,0.10215,0.310644,-0.155385,0.018831,0.066403,-0.177177,-0.12479,0.047077,0.007602,-0.132855,0.099323,0.052147,0.347204,-0.028499,0.238888,0.731228,-0.037221,-0.006881,0.121961,0.064022,-0.034,0.012536,-0.200338,0.073649,0.186512,-0.003593,0.239069,0.096568,-0.159949,0.164839,-0.487132,0.029757,0.060439,0.024966,0.101215,0.354323,-0.194612,-0.045267,0.001201,-0.008043,0.039837,0.121475,-0.09755,0.134395,0.109499,0.00804,0.040228,0.085575,-0.02158,-0.010398,-0.151967,-0.147226,0.047474,0.09296,0.07146,-1.327539,0.023419,-0.225836,0.029595,-0.115975,-0.007941,0.008412,0.085555,-0.1451,-0.03276,0.30969,-0.056602,-0.147055,-0.197726,0.086116,-0.332172,-0.087379,-0.076369,-0.069357,-0.759428,0.133059,-2.435919,-0.032703,-0.014952,0.775217,1.006508,0.493383,0.074602,-0.135071,0.032767,-1.269391,-0.093527,0.003986,-0.131122,-0.043954,0.153092,-0.05181,-0.060166,-0.109002,0.001555,0.339915,-0.276377,0.029543,0.200735,-0.003838,0.42588,0.069253,-0.188692,-0.034403,0.031274,-0.256267,-0.114553,-0.040616,-0.067613,-1.443774,0.019208,-0.040142,-0.478279,-0.09721,-0.175485,-1.325445,-0.023849,-0.012574,-0.000663,0.387132,0.514545,0.030497,-0.169174,-0.081098,0.103903,-0.01338,0.12258,0.098905,0.08191,0.077198,-0.154345],[0.018809,0.043465,-0.013577,0.141888,0.300636,1.887612,0.020739,0.458846,-0.815021,-0.052272,0.078747,-0.242373,0.010565,-0.023617,-0.058699,0.050101,0.051992,0.058636,-0.113686,0.087873,-0.101074,0.000625,0.040714,0.253582,-0.042268,-0.051895,0.136028,0.268359,0.145289,0.061076,0.304763,0.096028,0.082558,0.140208,0.087365,0.059714,0.047177,0.133251,0.037669,0.062686,-0.012565,0.093012,-0.148368,0.047695,0.213191,0.114087,0.04088,0.206519,-0.026085,0.130506,-0.074586,0.018886,0.130226,0.001335,0.04179,0.041686,0.030671,0.060102,0.149196,0.074324,0.035121,-0.03181,0.001048,0.182425,0.071015,-0.051827,-0.068988,-0.027586,0.001424,0.027311,-0.036148,-0.082627,0.076485,0.199969,0.090701,0.070509,0.004058,-0.006052,0.093346,-0.469619,0.145578,-0.179474,-0.050489,0.067089,-0.583138,0.10902,0.022271,0.15381,-0.041373,0.100842,0.00667,0.071846,-0.057547,-0.003057,0.265769,-0.018476,0.057538,-0.092081,0.229795,-0.106325,-0.012964,0.025673,0.012823,0.048151,0.079073,0.791667,0.118864,0.01109,0.554302,-0.039696,0.288083,0.031854,0.082216,0.071636,0.124981,-0.075311,-0.050579,0.022619,0.123085,0.117661,0.185407,0.049432,-0.030954,0.014144,0.179807,-0.066621,0.092747,0.090123,0.075745,-0.143977,0.160528,-0.013035,-0.353854,0.08997,0.207418,-0.074614,0.035427,-0.050305,0.323543,0.157546,0.067535,-0.107704,0.084119,-0.067549,-0.071459,0.116672,0.083667,-0.020914,0.192679,0.396546,-0.049216,0.016552,0.311715,0.094545,-0.129714,-0.011262,0.000671,0.028816,0.062017,0.196559],[0.030617,-0.049055,0.03162,0.013762,-0.096381,-1.479583,0.024542,-0.1203,0.287779,-0.03181,-0.003161,0.195733,-0.066321,0.022357,0.074922,0.082389,-0.020058,0.044769,0.076559,0.128541,0.190591,0.049357,0.017306,-0.228358,-0.013736,-0.043514,0.007311,-0.037149,-0.026169,0.025738,-0.14544,-0.019975,-0.000187,-0.020451,-0.084192,-0.135496,0.063684,0.114923,-0.141249,0.086058,-0.002383,-0.329618,0.112517,0.095023,-0.174159,-0.026134,0.063136,0.043839,-0.022721,0.080806,0.037911,-0.032436,0.019077,-0.083368,0.048908,0.054394,-0.006369,0.088674,-0.242709,-0.002672,0.07334,0.047169,-0.034161,-0.052949,-0.056746,-0.038488,0.222932,-0.071557,-0.066157,0.027542,0.067895,0.083858,-0.015859,-0.106234,-0.140907,0.092764,0.010323,0.032002,0.1064,0.211459,-0.027003,0.185491,0.049266,0.045394,-0.175866,-0.015994,0.049429,0.009587,0.120118,0.11128,0.011086,0.023285,-0.043984,-0.019612,-0.138568,-0.049025,-0.168264,0.057193,-0.277213,0.063149,-0.007504,0.02102,0.056151,-0.135685,-0.025837,-0.036563,0.097377,0.050379,-0.234761,0.166703,0.063983,-0.015617,0.033509,0.079696,-0.774617,-0.01671,0.055512,-0.278717,-0.010402,-0.063067,-0.067087,0.015917,0.045495,-0.0191,-0.042192,0.138418,0.023822,-0.120532,0.09209,0.039373,0.068877,0.120511,0.190982,0.109287,0.061253,0.09715,0.107874,0.001393,-0.242345,0.005252,0.035142,0.08469,-0.004349,0.027435,-0.102157,0.073075,-0.029299,0.06082,-0.054579,-0.151061,0.029163,0.057373,-0.154533,-0.031073,0.254912,0.092576,0.005529,0.044888,0.096481,-0.031536],[0.05932,0.067536,0.048584,0.059933,-0.24832,-1.211822,-0.065034,-0.788363,0.138674,0.082854,0.096721,0.236673,0.000632,-0.028593,0.07477,0.032879,-0.000994,-0.069314,-0.057994,0.060811,0.024857,0.060909,0.090466,-0.214637,-0.021706,0.048955,-0.131292,-0.307589,-0.092135,0.12722,-0.011706,-0.10627,0.101617,-0.015814,-0.105806,-0.086498,0.009111,-0.024717,0.009797,-0.028633,-0.02382,-0.17286,0.131182,0.059744,-0.478984,0.048445,0.077643,-0.054308,-0.045452,0.041636,0.039809,-0.029421,-0.01033,0.049701,0.063906,0.011972,-0.014889,-0.013097,0.141396,0.071007,0.012638,-0.031716,0.050306,-0.029605,-0.163061,0.025076,0.06499,0.06054,0.004275,0.031682,0.018621,0.102923,0.012415,0.056826,-0.088566,0.09909,-0.173287,-0.02035,0.033005,0.531892,0.023644,0.094483,0.038565,-0.097221,0.049697,-0.059932,0.001002,-0.044729,0.012334,0.121479,0.121649,0.125643,-0.089,0.057012,-0.275208,0.040686,0.091589,0.098947,-0.064569,0.020686,0.124554,-0.058646,0.032513,-0.344664,-0.002372,-0.145225,0.110753,-0.011612,0.212966,0.017861,-0.32263,0.020843,0.107745,0.071991,0.126523,0.104929,-0.014419,0.178417,-0.034678,-0.163447,-0.09023,-0.037531,0.019586,0.048348,-0.116116,0.094554,0.095743,-0.21536,0.004573,-0.033817,0.072855,0.188006,0.233309,0.067154,-0.114098,0.069117,0.112703,-0.027433,-0.203275,-0.166716,0.054553,0.016385,0.05047,0.046089,-0.009195,0.045956,0.008494,-0.049702,-0.212143,-0.127211,0.015425,0.081722,-0.36851,0.033345,0.229213,0.019837,0.046905,0.027838,-0.069711,-0.124336],[-0.024498,0.087827,0.044952,-0.046052,0.046796,-0.0384,-0.048569,-0.032577,-0.071438,-0.054041,-0.049432,0.06037,0.04154,-0.045873,0.008775,0.044498,0.06198,0.014725,0.030021,0.053603,0.004268,0.002093,-0.038752,-0.06324,-0.06785,-0.019687,-0.031131,-0.057066,-0.026352,-0.032933,-0.090771,0.055444,0.027017,-0.095358,-0.083875,0.08792,0.044369,-0.045275,0.030388,-0.052045,-0.011574,-0.021695,-0.08505,-0.077921,-0.07285,0.054447,-0.004069,-0.073963,-0.033051,-0.077099,-0.072605,-0.083707,0.041572,0.031365,-0.069148,0.03733,-0.004786,-0.076748,0.025939,0.000722,-0.017882,-0.064072,0.057768,0.047776,-0.096522,-0.077099,-0.094478,-0.070432,-0.062506,0.008834,-0.028376,0.074566,-0.085931,0.009553,-0.084676,-0.022353,-0.0248,-0.048261,0.001634,-0.021067,-0.004518,0.007696,-0.066882,0.04416,-0.011385,-0.034516,-0.025763,-0.089076,-0.066743,-0.056429,-0.018503,-0.040098,0.08267,0.06475,-0.053397,-0.001146,-0.036391,-0.044987,-0.00683,0.054256,0.015079,0.06028,-0.015834,-0.054823,-0.003988,0.005034,0.072029,0.050802,-0.076921,0.032193,0.043108,0.029589,0.053388,0.015966,-0.077885,-0.04818,0.029269,-0.00355,-0.030603,-0.099225,-0.033041,-0.10109,-0.053858,-0.047865,-0.084867,-0.069813,-0.009887,0.000683,-0.092918,-0.002577,-0.069296,0.077852,0.030144,-0.027005,0.008638,-0.049372,-0.073685,-0.058601,-0.052977,-0.034957,-0.098502,-0.039343,0.030431,0.046141,-0.062242,-0.045531,0.023057,0.072186,0.012177,0.049266,0.084705,-0.016981,-0.098431,0.011676,0.028982,-0.094198,-0.02334,-0.029744,-0.097176,0.047222],[0.096901,-0.051495,-0.024089,0.041199,-0.154129,-1.624237,0.04455,-0.107326,0.342816,0.019074,-0.028644,0.214962,0.007427,0.052826,0.129328,0.103562,0.032173,0.074745,0.063642,0.029981,0.108439,-0.036979,0.111394,-0.285216,0.008215,0.021188,-0.071672,-0.094206,-0.0223,0.027687,-0.140144,-0.017595,0.127948,-0.010281,-0.058682,-0.085544,-0.021922,0.094519,-0.025658,-0.077649,-0.065522,-0.181157,0.201011,0.069676,-0.002485,-0.012136,-0.023302,0.023728,-0.015591,0.10872,-0.037588,0.074555,0.028246,-0.081712,-0.018351,0.084499,0.068027,0.077971,-0.070285,0.027338,-0.02444,-0.006966,-0.031025,-0.078848,-0.07989,-0.006842,0.249939,-0.033948,0.016662,0.07368,0.072376,0.053857,0.100994,-0.107807,-0.120762,-0.010742,-0.032397,0.052502,0.031285,0.334622,-0.104276,0.144197,-0.015771,-0.011583,0.090039,0.019377,0.079299,0.112856,0.072746,0.09503,0.02979,0.01669,0.08486,0.046657,-0.086185,-0.009615,-0.036625,0.177451,-0.219963,0.013907,-0.001797,0.044342,0.035579,-0.187743,0.005735,-0.264323,0.064478,0.083683,-0.778119,0.132882,-0.092498,-0.069821,0.038946,-0.003894,-0.686335,0.032677,0.006535,-0.145016,0.088971,0.00681,-0.175378,0.037729,0.115154,-0.065872,-0.067023,0.034926,-0.017233,-0.01289,0.076726,-0.024256,0.045265,0.183116,0.280979,0.10696,0.018585,0.080569,0.124027,0.079713,-0.418441,-0.024964,-0.06841,0.026624,0.000452,0.025985,0.062451,0.079367,0.070881,0.060315,-0.173416,-0.085353,-0.021419,0.088793,-0.074219,0.029109,0.192616,0.048544,0.086115,0.03825,0.095932,-0.075123],[0.017423,0.055594,-0.094851,-0.05299,-0.288725,-2.089566,0.106144,-0.47357,0.693358,0.040252,0.054918,0.290048,0.050006,-0.043503,0.103944,-0.095401,0.042312,0.049217,0.015318,0.057777,0.078159,0.082412,0.004609,-0.309577,0.037059,0.051598,-0.094105,-0.345528,0.017726,0.030628,-0.287285,0.031065,0.020584,0.094387,-0.153937,0.033006,0.001742,0.042483,0.110985,0.031893,0.066767,-0.37169,0.023001,0.080069,-0.510762,0.030252,0.060185,-0.226485,-0.058303,-0.0185,-0.040776,0.074838,0.013114,-0.061556,-0.013636,-0.10655,-0.043461,-0.003222,-0.159399,0.020439,-0.025832,-0.019081,-0.022079,-0.253411,-0.3123,0.027916,0.235561,-0.048821,0.062127,0.069432,0.033308,0.180446,0.053193,-0.177247,-0.286796,0.106567,-0.139529,-0.039956,-0.108876,0.3199,0.026566,0.138791,0.053144,-0.050869,0.880803,0.026829,0.072277,-0.030821,0.199444,0.095459,0.032117,0.084964,0.125181,-0.068886,-0.385518,0.098799,0.121706,0.061174,-0.041073,0.076239,0.085453,0.05299,-0.005254,-0.001761,-0.039389,-0.314439,0.13121,0.109075,-0.838505,0.102144,-0.477121,-0.016295,0.050007,-0.008232,0.16559,-0.040472,-0.062461,-0.031173,-0.08146,-0.124982,-0.083272,0.003816,0.035844,0.040227,-0.239193,0.11773,-0.030169,-0.122045,0.028232,-0.074722,-0.069179,0.182928,0.366946,-0.019591,0.125815,-0.022503,0.124256,-0.047052,-0.391716,-0.07705,0.081006,0.152346,-0.034062,0.105221,0.508747,-0.012361,-0.0587,-0.001669,-0.18009,-0.215233,0.022146,0.084649,-0.242289,-0.000494,0.194928,0.042067,0.005457,0.085363,0.01093,-0.04121],[0.022441,-0.068019,0.030017,0.012175,-0.076871,0.019233,0.013157,0.05626,-0.014909,-0.02384,-0.011312,-0.004324,-0.038095,-0.05716,0.042879,-0.02736,-0.062316,0.049697,-0.026973,-0.033374,-0.053166,-0.013018,-0.001289,0.017101,0.046531,-0.05177,0.055409,-0.054601,-0.077337,0.007846,-0.074581,-0.048086,-0.097795,-0.051128,-0.037724,-0.024589,0.04629,0.000713,0.009171,-0.019885,-0.024975,-0.084698,-0.022255,-0.09366,-0.00933,0.037068,-0.038432,0.048184,0.03754,-0.06957,-0.003223,0.020486,-0.064756,-0.005106,-0.031467,0.027999,0.024646,-0.072114,0.01627,-0.047092,0.030147,-0.085314,-0.023189,0.029112,-0.047577,-0.057005,-0.082535,0.047027,-0.049853,0.000989,-0.089521,-0.057827,0.057566,-0.021656,0.06651,-0.08628,-0.031908,-0.082142,-0.022406,-0.022376,0.045782,-0.086709,0.05862,0.036538,-0.093803,0.048889,-0.028843,-0.059012,-0.01642,0.026453,-0.082633,-0.073709,-0.099014,-0.078408,-0.018989,0.04653,0.011069,-0.084045,-0.062442,-0.048055,0.040877,0.049087,0.009678,0.041543,-0.038218,0.038421,-0.043581,-0.04329,0.042196,0.018857,-0.018417,0.024515,-0.06233,0.05356,0.071872,-0.0451,0.007648,-0.064511,-0.073256,-0.000347,-0.028099,0.015116,0.045985,0.011711,-0.067002,0.027661,0.03377,0.024659,-0.094329,-0.077233,0.0511,-0.028602,0.013086,0.011071,-0.005152,0.050829,0.026342,-0.047349,-0.020011,-0.050772,-0.062037,-0.043124,-0.010279,-0.064526,0.046946,0.053717,0.058023,-0.008049,-0.022701,-0.01952,-0.066127,-0.097622,-0.048816,-0.004514,-0.021001,-0.090845,-0.093269,-0.020863,0.008387,-0.095124],[0.043151,0.038046,-0.078192,-0.09495,0.020641,0.053879,0.03322,0.003824,0.0013,0.005898,0.023889,0.03629,0.005966,-0.068264,-0.081084,0.044886,-0.071911,0.074057,0.046834,-0.029152,-0.055061,-0.069685,-0.078762,0.061331,-0.083728,-0.054965,-0.022369,0.086778,-0.045692,0.016251,0.040567,-0.086695,0.052747,-0.070911,-0.007647,0.012095,-0.035218,0.044186,-0.042835,-0.058939,0.04757,-0.032236,0.003498,-0.072273,0.019702,0.042093,-0.069446,-0.040793,-0.07862,0.012158,-0.025133,0.046465,-0.07291,-0.034814,0.003051,0.050681,0.040134,-0.035704,-0.051343,-0.012328,-0.030911,-0.052434,-0.076969,0.019423,-0.01868,-0.006172,-0.053105,-0.078001,-0.024804,-0.041458,-0.013376,-0.08801,-0.054163,0.008985,0.022373,-0.098507,-0.016656,-0.053127,0.002134,-0.005071,-0.084509,0.025094,-0.006268,-0.031089,0.016933,0.042793,0.03634,0.0101,0.031535,-0.053336,-0.091889,-0.023008,0.010347,0.002706,-0.057497,-0.021021,0.040874,-0.023533,0.017091,-0.097997,0.009787,0.004055,0.014242,-0.08271,-0.08505,0.006772,0.038974,-0.048594,0.003727,0.007811,-0.056467,-0.02109,-0.043748,-0.075878,-0.052312,0.037334,0.059115,-0.023911,0.040545,0.067596,-0.059636,0.046016,-0.051493,0.061978,0.066828,-0.09416,-0.005384,-0.0581,-0.052518,0.028691,-0.033829,-0.086838,-0.014024,-0.010555,-0.055735,-0.058484,-0.069208,-0.026113,0.036489,-0.106106,-0.014009,-0.010074,-0.091328,0.000906,-0.003967,0.030821,-0.064239,0.053566,0.034899,0.038317,0.042907,-0.039053,0.080592,-0.047105,-0.041784,-0.071566,-0.058211,-0.027506,-0.004353,-0.053566],[0.010477,-0.01091,0.086584,-0.097444,-0.322214,-1.495679,0.082945,-0.730701,0.394443,0.086729,-0.001004,0.158106,0.019021,0.031963,0.06155,0.02361,-0.035847,-0.003691,0.06777,0.073486,0.104405,0.070067,-0.024522,-0.06286,0.102129,-0.074444,0.008239,-0.224304,-0.027283,0.002641,-0.245851,-0.047411,0.097904,0.038286,-0.170414,0.214198,0.014162,0.033031,0.051432,0.021382,-0.005347,-0.256364,0.01352,0.118549,-0.440419,0.066791,-0.00669,-0.227761,-0.029058,-0.018362,0.065101,-0.030606,-0.083711,-0.055708,0.073491,-0.013356,-0.017555,0.110448,-0.211937,0.052486,0.046451,0.053735,-0.057683,-0.218589,-0.303831,-0.106148,0.229854,0.051051,-0.003628,-0.068831,0.091362,0.152103,-0.022144,-0.030045,-0.305494,0.025274,-0.006553,-0.045947,0.005039,0.401286,-0.045635,0.088071,-0.014912,-0.149371,0.308047,-0.028345,0.060915,-0.056796,0.156974,0.137579,-0.008972,0.006798,0.093929,0.07692,-0.536961,0.032834,0.111114,0.013945,-0.056595,0.046666,0.022601,0.101836,-0.069531,0.161777,-0.01069,-0.353524,0.066706,0.063022,-0.651179,-0.039604,-0.430996,-0.00892,0.094186,0.031319,0.190537,0.073148,0.085154,-0.036007,-0.052185,-0.145634,-0.114111,0.104449,0.145027,0.022943,-0.159185,0.033412,0.027018,-0.2752,0.035692,0.140327,0.014355,0.155212,0.293585,-0.022328,0.063276,-0.021522,0.003009,-0.081866,-0.377416,0.083859,-0.020489,0.044547,-0.094951,-0.016068,0.39952,-0.066839,0.05297,-0.010175,-0.235079,-0.454485,0.087167,0.148654,-0.515327,-0.016975,0.223672,0.039095,-0.010584,0.040401,0.095283,0.040686],[0.113803,0.079532,-0.049648,-0.016441,-0.334547,0.019247,0.095215,0.367554,-0.74369,-0.076239,-0.050451,0.679325,0.003058,0.010659,0.139866,-0.118324,0.000899,-0.030137,-0.145956,-0.162029,-0.026791,-0.097077,0.123891,-0.140793,0.135007,0.061369,0.099436,0.050776,0.107135,0.013134,0.276838,-0.296478,0.017824,-0.166573,-0.053614,-0.069804,-0.025721,0.094849,0.6686,0.006521,0.07683,-0.111163,0.185008,-0.003286,0.487759,0.091083,-0.166241,-1.185631,-0.078867,-0.100125,0.006823,0.103229,0.001115,0.007233,0.060834,-0.024419,0.11177,-0.051225,-0.379194,0.077121,0.045646,0.069946,0.03763,-0.492176,-1.104692,-0.166596,0.438841,-0.00328,-0.013416,0.212954,0.193401,-1.075629,-0.056139,0.059365,-1.064718,-0.01879,-0.177297,0.075858,-0.024941,-0.478276,0.051256,0.106437,-0.044742,-0.467078,-1.545621,-0.004213,-7.4e-05,0.059562,0.122143,-0.071195,0.037986,0.035141,-0.70186,0.014071,-0.364093,0.100842,0.460504,0.071946,-0.770556,-0.032165,0.140205,0.098903,0.036547,-0.461644,-0.426457,0.828315,0.044241,-0.028376,0.725708,0.281679,-0.040412,0.061163,-0.148857,-0.103918,0.262954,-0.052232,0.018601,0.183624,-0.120939,-0.125597,0.074316,0.070416,0.056402,-0.082611,-0.848816,0.019387,-0.179829,-0.441478,0.06978,0.09517,0.101427,0.651039,0.38727,0.080112,-0.221564,0.109598,0.062443,-0.002541,0.568592,-0.180408,0.057564,-0.103552,-0.12111,0.292784,-1.721926,0.070301,-0.07324,-0.020329,-1.620232,-0.026008,0.132408,-0.113032,-0.194932,-0.086056,-0.455074,0.145639,0.061679,0.01454,0.073471,0.034105],[-0.067983,-0.058551,-0.109697,-0.049437,-0.005331,-0.110591,-0.008735,0.02071,-0.14763,-0.138852,-0.060129,-0.056982,0.039492,-0.003689,-0.010465,-0.026265,0.022509,-0.019764,-0.097219,-0.037805,0.080261,0.026306,-0.078681,-0.153788,-0.012381,0.039375,-0.086395,-0.045278,-0.08784,-0.035633,-0.121934,-0.110899,-0.093406,-0.156523,0.002706,-0.096091,-0.147007,-0.094875,-0.099166,-0.058877,0.039804,0.050753,-0.114066,-0.033183,-0.025012,-0.123461,-0.076814,0.101056,0.059846,-0.049518,-0.070497,-0.081786,-0.085355,-0.017322,0.020708,-0.069571,-0.048671,-0.105549,-0.103125,-0.04213,-0.019204,0.054431,-0.055933,0.069403,0.078458,-0.025741,-0.057295,0.044571,-0.013727,-0.083745,-0.126904,-0.160304,0.014335,-0.040668,0.078821,-0.024266,-0.034963,-0.008257,0.03985,-0.073961,-0.003368,-0.057781,-0.051472,-0.054953,-0.060001,0.025995,-0.098465,0.022238,-0.182307,-0.086064,-0.104495,-0.029064,