export const distilledPolicyArtifact = {"enabled":true,"passed":true,"version":"distill-river-v2","trainedAt":"2026-06-25T22:59:57Z","policyKind":"softmax-distill","blend":1.0,"appliesTo":"open","featureNames":["equity","range_eq_0_10","range_eq_10_20","range_eq_20_30","range_eq_30_40","range_eq_40_50","range_eq_50_60","range_eq_60_70","range_eq_70_80","range_eq_80_90","range_eq_90_100","pot_odds","spr_norm","street_flop","street_turn","street_river","position_signal","to_call_flag","made_strength","draw_strength","wetness","paired","monotone","connected","range_advantage","blockers","range_percentile","range_weight","range_coverage","context_aggressor","three_bet","facing_bet","free_check"],"actionSets":{"open":["check","bet-small","bet-mid","bet-big","bet-over"],"facing":["fold","call","raise-small","raise-big","jam"]},"validation":{"val_kl":0.083521,"rows":302680},"model":{"type":"mlp-softmax","activation":"relu","layers":[{"weights":[[0.169614,0.106303,-0.360248,0.146224,0.527481,0.098676,0.24494,-0.070896,-0.263038,-1.638085,1.249137,-0.037034,0.000585,-0.055038,0.031428,0.202624,-0.048521,-0.034816,0.010798,0.169537,-0.221996,-0.11805,-0.031333,-0.287015,0.060126,-0.223462,-0.22498,0.074229,-0.085527,0.126987,0.145499,0.013804,0.025384],[-0.251305,0.179155,-0.689992,0.668162,0.300984,-0.055927,0.469211,-0.115673,-0.441634,0.055004,0.201402,0.025618,0.188156,0.01109,-0.109735,0.175584,-0.086779,0.016251,0.424697,0.096293,-0.111872,-0.078846,0.228152,-0.134077,0.105381,-2.0569,0.014474,0.014514,-0.395916,0.006634,0.018115,0.071185,0.027873],[-0.703634,0.062726,0.220619,0.253378,0.242726,-0.194338,0.251327,0.207291,-0.211435,-0.111872,0.212923,-0.011796,0.266849,0.128174,0.168359,0.195074,-0.011767,0.25522,-0.051545,0.046671,-0.102423,-0.008249,0.039002,-0.002201,0.049946,-0.112636,-0.189898,-0.025633,-0.105984,0.098951,0.026626,0.237568,0.241491],[-0.077676,0.168969,-0.063621,0.061157,-0.052465,-0.11833,0.155299,-0.118065,-0.055542,0.121585,0.084064,0.040464,0.05936,0.065835,0.021608,-0.114534,-0.058086,-0.125043,-0.1324,-0.145268,-0.068087,0.136613,-0.005017,-0.080955,0.029838,0.018668,-0.014838,0.167917,0.020716,0.007688,-0.138563,-0.139044,-0.110905],[0.701677,-0.128704,-0.457246,0.412336,0.228275,0.349802,-0.146085,0.108873,0.336042,0.292902,-0.094378,-0.015485,0.155464,-0.079829,0.064262,0.091197,0.108559,0.195224,-0.290738,-0.122544,-0.090658,-0.021641,-0.121982,-0.059344,0.059467,-2.070935,-0.182209,-0.125711,-0.028027,0.036335,0.126668,-0.032465,-0.158987],[-0.465332,-0.324011,0.006945,0.606736,0.0043,0.18824,0.47134,-0.00241,-0.321396,-0.812117,0.407275,0.185989,-0.020187,-0.076352,-0.048345,0.014127,0.090205,0.137761,-0.859062,0.052492,0.091787,0.020372,-0.013205,-0.04095,0.159697,-3.475244,0.060881,0.223545,-0.003767,-0.054237,-0.095479,0.117961,-0.181503],[-0.023472,-0.117097,-0.01258,0.287089,-0.435618,-0.39528,0.03388,-0.226612,-0.387507,-0.21414,0.411668,-0.166121,-0.024017,-0.015633,-0.150729,-0.083687,0.034431,0.175297,-0.821618,-0.083813,-0.172949,0.181896,0.085047,-0.006978,-0.137364,-2.310084,0.705476,0.456403,-0.017246,-0.135561,-0.083346,0.144246,-0.08333],[0.405287,-0.291685,0.206908,0.212171,0.08795,-0.522192,0.232211,-0.256793,-0.111822,0.09572,0.289623,-0.293667,0.135812,0.131384,-0.158675,0.012114,-0.001196,-0.239601,0.054331,-0.055342,-0.129165,0.227073,0.420674,-0.220773,0.059953,-0.176726,-0.10153,0.209256,0.102389,0.264428,0.065749,-0.170725,0.072439],[0.016158,-0.060117,-0.139421,-0.010639,-0.022206,-0.161808,-0.009727,0.012825,-0.036529,0.060171,-0.082676,-0.131254,-0.137386,0.052224,-0.116873,-0.009197,-0.004439,-0.022041,0.057292,0.13976,-0.076339,0.094067,0.09299,-0.171068,-0.108735,-0.002792,0.057675,-0.190107,0.024266,-0.157409,0.142743,-0.120263,0.142582],[0.152925,0.187333,-0.14468,0.116367,0.082499,0.164725,-0.031008,0.156562,0.135413,0.118621,-0.044771,0.036388,0.005296,-0.052861,-0.088682,0.186048,-0.153246,-0.07582,0.00265,0.037857,0.102214,-0.1222,-0.158942,-0.009002,0.150717,0.205639,-0.249562,-0.178123,0.108744,-0.155172,0.123333,-0.040474,0.164779],[-0.098853,0.003757,0.070204,-0.055931,0.016923,0.08457,-0.152239,0.045945,0.093002,-0.040567,-0.138572,0.001281,-0.133649,-0.15411,0.149965,0.023004,0.066164,-0.114811,-0.164704,0.119912,-0.124678,0.001976,-0.147109,0.104108,-0.113979,-0.113707,0.132262,-0.160706,-0.090059,-0.150062,-0.009302,0.018858,0.141534],[0.620108,-0.623189,-0.151629,0.065881,-0.136562,0.356338,0.014696,0.85327,-0.567134,0.734827,-0.007954,0.073167,0.054907,0.143506,0.069888,0.077062,-0.067824,-0.113418,-0.206611,-0.156499,0.159109,0.258772,-0.291984,0.106983,0.090329,-1.985014,-0.602207,-0.107552,0.00209,0.039008,0.004376,0.046918,-0.054178],[0.061805,0.397977,-0.522808,-0.118894,0.362306,0.404732,0.242503,0.658835,0.244487,0.212778,-1.868351,0.009776,-0.046867,-0.162671,-0.086838,-0.086577,-0.081987,-0.072312,0.35153,0.021512,-0.280772,0.000633,0.095944,-0.391357,-0.215973,-0.066168,0.001278,-0.135858,0.251151,0.063716,0.035909,-0.146673,-0.007451],[-0.471849,0.033623,0.077846,-0.121567,0.107433,0.003137,-0.017442,0.377915,-0.020479,0.140231,0.426239,-0.299277,0.082457,0.054808,-0.073346,0.037337,-0.081149,-0.513777,-0.288858,0.071278,0.189484,-0.222565,0.440431,-0.034804,0.250532,0.588313,-0.296067,-0.061184,0.132315,0.206591,-0.170639,-0.428296,0.183206],[0.098868,0.117765,-0.071687,0.005362,-0.132,-0.055191,-0.037126,-0.105946,-0.185024,0.12625,-0.036914,-0.050977,0.130793,-0.014109,-0.054692,0.037486,-0.031323,-0.009318,0.048234,-0.057931,-0.159425,-0.048787,0.051973,-0.097556,0.016112,-0.106775,-0.014767,-0.119789,0.052682,0.087083,0.012455,-0.160185,-0.16346],[-0.02856,-0.123936,-0.164315,-0.150874,-0.010661,-0.118823,-0.045878,-0.113695,0.137359,0.041057,-0.080649,-0.127007,-0.05428,-0.117604,-0.036338,-0.065941,-0.145203,0.163479,-0.139008,0.154006,0.141752,0.119161,-0.043194,-0.01078,-0.038731,0.058873,-0.166671,0.006127,-0.033633,-0.065402,-0.144797,-0.109581,0.154236],[0.378787,0.003913,-0.506006,-0.02147,0.047832,-0.062647,-0.278114,-0.489434,-0.142286,0.758834,-0.454012,0.055377,0.12063,0.123441,0.036221,0.079687,-0.101901,-0.040614,0.563792,0.056801,-0.055332,0.024596,0.149871,-0.048685,-0.162074,1.46577,-0.108746,-0.209722,0.064077,0.004563,0.071138,0.040181,-0.02156],[-0.658615,0.600745,-0.204902,0.416974,0.179335,-0.153453,-0.209736,0.177879,-0.156784,0.48645,-0.309452,0.280948,-0.046445,-0.146307,0.094589,0.000985,0.02623,0.115066,0.444133,0.137812,0.231759,-0.006649,-0.169229,-0.011717,-0.048142,0.93652,0.037855,0.012673,-0.429233,-0.158469,0.021116,0.185905,0.068343],[-0.103008,-0.14148,-0.112614,0.075135,-0.110394,-0.053188,-0.047597,0.124678,-0.170152,-0.114905,-0.022556,-0.108758,-0.109663,0.077907,-0.171969,-0.124172,-0.040621,-0.01577,0.034286,0.05969,-0.085754,-0.119531,-0.1021,-0.170984,-0.083794,-0.027905,0.146134,-0.017193,-0.089409,0.075534,-0.026969,-0.091008,-0.171359],[-0.313252,0.418413,-0.446808,0.417514,-0.197372,0.086271,-0.167146,0.062333,0.188408,0.021447,-0.187405,0.123345,0.14525,0.138865,-0.14294,0.172409,-0.046323,0.079512,0.139338,-0.018107,-0.179398,0.041723,0.317021,-0.273987,-0.09615,0.811641,0.050392,0.21898,0.106065,-0.46021,0.112251,0.128544,-0.195233],[-0.169554,-0.123288,0.043089,-0.125066,-0.046051,-0.044572,-0.136401,-0.050505,-0.123837,-0.006952,-0.030553,-0.116581,0.071501,0.055399,0.144968,-0.149944,-0.167571,-0.16566,-0.108834,0.04806,0.01619,0.056274,0.146189,-0.131489,0.051741,0.124964,-0.046058,-0.131475,-0.102027,-0.124911,0.030537,0.016588,0.022674],[0.201745,-0.278438,0.141639,-0.061991,0.137199,-0.142207,-0.435925,-0.08846,0.567003,0.05913,0.091448,-0.14069,0.095361,-0.009462,-0.101051,0.08262,-0.342102,-0.021983,0.220692,-0.06875,0.174265,0.026379,0.077032,0.174876,-0.024888,-0.074236,-0.201334,-0.057974,0.118176,0.093086,-0.04272,-0.092831,-0.202918],[0.351983,0.11648,-0.338698,-0.019189,0.231668,-0.240735,0.060222,-0.157199,0.592992,0.336689,-0.356919,-0.098994,0.140233,0.026446,-0.091917,0.134298,-0.030728,0.126503,-0.279877,0.162456,-0.031565,-0.014831,-0.237307,0.104071,-0.130446,1.824749,-0.248731,-0.175535,0.07928,-0.000546,-0.171514,-0.010857,0.085136],[-0.058667,-0.14859,-0.00191,-0.164161,-0.055314,0.072208,0.105035,0.01935,-0.056294,0.036292,0.063143,0.039246,-0.023962,0.022969,0.106565,-0.163174,0.129298,-0.121354,0.02125,-0.142607,-0.055884,-0.116952,-0.003501,0.006833,-0.164699,-0.127531,-0.124463,-0.013113,-0.081732,-0.140393,0.095679,-0.009437,-0.085396],[0.980703,-0.095377,-0.505341,0.450858,-0.040412,-0.13403,0.255013,-0.147821,-0.058512,0.010424,0.031376,0.042886,0.127087,0.060839,0.116925,0.116637,-0.016431,-0.079867,-0.318564,-0.014927,0.082541,0.080375,0.121934,0.00059,-0.031597,-0.779313,-0.703157,-0.277546,-0.058649,-0.034708,-0.091052,0.035738,-3.6e-05],[-0.777827,0.161438,0.220094,-0.199632,-0.036409,-0.542118,-0.476138,0.547551,-0.021096,0.171477,0.212541,0.131003,-0.013693,0.130955,-0.035369,-0.079204,-0.248359,0.124604,0.069704,0.085987,0.107284,0.110891,-0.099986,-0.071799,0.129071,-0.323187,0.296212,0.237969,0.077853,-0.223476,0.142127,0.153563,-0.178344],[-0.433544,0.896037,0.462306,-0.255613,-0.264501,-0.147747,0.290066,-0.262734,0.208272,0.262328,-0.481123,0.077112,0.21557,-0.062731,0.016987,0.095809,-0.040261,0.274831,-0.29779,0.017977,-0.056034,-0.105816,-0.01136,-0.154701,0.11328,-0.289681,-0.052885,0.101372,0.273798,-0.199089,-0.002465,0.081236,-0.003078],[-0.684044,0.18583,0.218677,0.336769,-0.000133,0.014419,0.648364,-0.248351,-0.319263,0.072174,-0.099793,0.264549,0.091748,0.051484,-0.172021,0.09324,-0.01661,0.155569,0.556232,-0.096856,-0.104165,0.561827,0.040318,-0.069599,-0.041947,2.681854,-0.142268,0.126602,-0.362428,-0.344942,0.005507,0.271778,-0.42839],[-0.120534,-0.338537,0.204521,-0.291267,0.518117,0.178725,0.080081,-0.326458,0.126648,-0.304636,0.118012,0.030639,0.06038,-0.085667,-0.169011,0.20361,0.174741,-0.044515,0.528153,0.02261,0.043197,-0.264115,-0.358796,0.145166,-0.049901,-1.388501,-0.028139,0.033342,0.010493,-0.068037,0.013873,0.112591,-0.003165],[-0.516586,-0.308966,-0.228788,0.406288,0.0065,0.094561,-0.087097,0.15811,-0.123516,0.359144,0.301725,0.138007,-0.008385,0.106877,0.111869,0.065469,0.06242,-0.020759,-0.128468,0.068749,-0.05298,0.190859,-0.012801,0.10948,-0.009018,-1.523815,0.204827,0.257624,-0.132538,0.202035,0.002652,-0.023618,0.052083],[0.159003,0.241708,-0.134962,-0.231941,0.477148,-0.068186,0.094437,0.13419,0.060608,0.054094,-0.1933,-0.010892,0.135518,0.046153,0.140921,0.037381,-0.024693,0.012374,-0.788714,-0.079363,-0.095471,0.589793,-0.048231,-0.136685,0.17078,-0.841502,-0.309963,-0.08919,-0.039424,0.05474,-0.116454,-0.002685,-0.039836],[-0.316297,0.350547,0.5262,-0.200552,0.11869,-0.131955,-0.901941,-0.662994,0.617872,0.615282,0.141304,0.289636,0.099106,-0.089778,-0.105604,0.182189,0.138389,0.122277,-0.12721,-0.022838,0.132095,-0.097235,0.263296,-0.127142,0.082119,0.035118,-0.376222,-0.071601,-0.562602,-0.107751,0.117816,0.297057,-0.333552],[-0.653446,0.148116,-0.206095,0.075524,0.037842,0.499844,0.43391,0.313229,-0.520032,-0.166047,0.40034,0.21664,0.193219,0.134873,0.0346,0.206336,-0.01419,0.148394,-0.060713,0.034438,0.087481,0.034839,0.036207,-0.028575,-0.016027,-0.104874,-0.198321,-0.01169,-0.07682,-0.022984,0.078025,0.112013,0.137472],[0.714136,-0.233378,-0.234274,0.184142,0.306123,0.225675,0.22351,-0.186918,-0.308258,-0.153244,0.329051,0.0538,-0.010295,0.032281,0.018836,-0.000574,-0.032215,0.068111,-0.09939,-0.023037,0.264093,-0.477425,0.124981,0.045914,-0.158554,-1.215976,0.104699,-0.020969,0.020611,0.047655,-0.049303,0.158712,-0.128676],[0.300024,-0.043455,-0.444468,0.35273,0.046437,0.047024,0.003608,0.085959,0.169656,0.123935,0.282536,-0.039139,0.020404,-0.110305,0.112325,-0.077055,-0.017609,-0.15901,-0.146309,0.031333,0.086971,0.082344,0.09629,0.073398,-0.070738,-0.494626,0.275419,0.421736,-0.130019,0.143703,-0.146056,0.044768,0.000794],[-0.354377,-0.25311,0.018095,0.005025,0.376921,0.037933,0.093477,-0.03739,-0.24581,0.189759,0.228856,-0.086244,0.067982,0.144241,-0.146804,0.04532,-0.113797,0.092901,0.077246,-0.002469,-0.202188,0.106379,-0.042869,0.119664,-0.001809,-1.363209,-0.095237,0.13913,0.086333,0.133015,0.124911,0.09609,0.111152],[-0.455245,-0.040611,-0.746213,0.387828,0.282281,0.88923,-0.057806,-0.220379,0.051124,1.31672,-0.165756,0.112632,0.324685,0.1191,0.088208,0.271432,0.008288,0.326769,0.089593,0.170803,-0.054892,0.356182,-0.578295,-0.201867,0.040387,0.110678,-0.049751,-0.016873,-0.326428,0.113317,0.039948,0.112354,-0.065817],[-0.671057,0.2653,0.136637,-0.549061,0.156425,0.081142,-0.336023,0.07449,0.334941,0.341524,-0.427361,0.208101,0.079402,0.143655,-0.08102,-0.064956,-0.051079,0.083947,-0.317897,-0.173045,0.145149,0.140278,-0.072605,0.124323,-0.080117,1.443269,0.016555,0.068635,0.225929,0.046376,-0.006537,0.281017,0.001387],[-0.073766,0.107254,0.065048,-0.056186,0.10764,-0.070546,0.064779,0.065118,0.112941,-0.082777,0.052812,0.032285,-0.147389,-0.126427,0.105075,-0.101138,0.068039,-0.133978,0.10129,0.054067,-0.156291,0.064195,0.025307,-0.104176,-0.028228,0.085755,-0.016922,-0.165785,0.076947,-0.173166,0.079045,-0.060567,0.027699],[1.150789,-0.383091,-0.444917,0.031924,-0.063736,-0.202325,0.169499,-0.136722,-0.186704,-0.086086,0.055656,-0.132282,-0.200044,-0.161973,-0.046689,-0.244781,-0.006884,0.025272,-0.744706,0.116783,-0.086764,0.271362,0.037198,0.019579,-0.240824,0.223619,0.462373,0.133305,-0.317847,-0.137764,0.050313,0.041482,-0.401066],[-0.731534,0.387669,-0.503738,0.216449,-0.09598,-0.13674,0.236165,0.007011,-0.178107,-0.098483,-0.003988,0.199536,0.095012,-0.104799,0.118323,0.04379,0.020935,0.26182,0.078375,0.099853,0.184619,0.212542,0.259247,-0.075186,-0.123922,-0.32121,0.014901,0.140437,-0.28286,-0.083689,0.160191,0.158388,-0.032272],[-0.330258,-0.096833,-0.156948,-0.183043,-0.141628,0.102865,-0.216921,-0.064342,0.152678,-0.083375,-0.210276,0.063709,-0.086607,0.16756,-0.060255,-0.046255,0.001878,-0.03172,-0.493561,-0.025771,-0.008701,-0.130547,0.165563,0.267807,-0.188438,1.433208,0.743893,0.287617,-0.245105,-0.007435,0.143704,-0.022651,0.046989],[0.910133,0.225875,-0.303157,0.500577,-0.33451,0.1173,-0.666534,0.426982,0.595389,-0.00403,0.014517,-0.112948,0.124084,-0.171185,0.055947,-0.06825,0.036645,0.102482,-0.380741,-0.062094,-0.03508,0.326021,0.392104,-0.035356,0.102238,0.252393,-0.417944,-0.367285,0.065303,0.02331,-0.158886,0.081127,-0.146228],[0.135527,-0.179265,0.090072,-0.09364,-0.094384,0.062219,0.05207,-0.143996,-0.005904,0.099377,-0.143801,0.072767,0.095493,-0.154741,-0.004245,-0.129037,0.027074,-0.059204,0.108166,-0.094782,0.030989,-0.003095,-0.059158,-0.139188,-0.124012,0.041413,0.105403,-0.128093,-0.05055,0.079018,-0.04565,-0.13737,-0.119191],[-0.266312,-0.293126,0.474804,-0.267635,-0.307313,0.413077,0.240461,0.00843,-0.634694,-0.713803,0.155917,-0.125768,-0.087771,0.150483,-0.14034,0.046954,0.02178,0.057478,0.964767,-0.019126,0.089722,0.27292,0.058975,0.233479,-0.249866,-3.566074,0.246234,0.221415,-0.349154,-0.101075,0.116965,0.083401,-0.368884],[0.001859,0.164051,0.039746,0.079188,-0.021371,-0.157426,0.007468,-0.057415,0.109652,-0.011474,-0.038051,-0.154263,-0.096918,0.036924,-0.032497,-0.146224,-0.006827,-0.009235,0.000709,-0.08112,0.047179,-0.107533,0.085265,-0.104693,-0.17242,0.034344,0.096632,-0.078796,-0.088903,-0.046891,-0.092027,0.028425,0.065323],[0.569106,-0.126625,-0.359328,-0.105095,-0.406571,-0.204219,-0.697975,-0.106658,0.246632,-0.157921,-0.21683,-0.360982,-0.357026,0.14698,-0.162045,-0.348516,-0.003407,-0.384766,0.126603,0.030733,0.084266,0.2387,0.001504,-0.032705,-0.065992,-0.17552,0.646844,0.396988,-0.137547,-0.271515,0.014318,-0.339677,-0.104453],[-0.153898,0.414676,0.14823,-0.354122,-0.705871,0.411147,-0.52106,0.905603,-0.038902,0.561551,-0.53772,-0.168774,0.10046,0.058373,-0.086595,0.027176,-0.632044,-0.059122,-0.004846,0.149306,0.070296,0.104038,0.072417,0.198785,0.041135,-0.041741,0.051329,0.191603,0.364794,0.069245,-0.052357,0.083683,-0.010732],[-0.085267,-0.153952,0.172408,0.067036,0.037105,0.115897,-0.151188,0.060434,-0.085738,-0.064142,0.030254,0.00891,-0.003991,0.005902,-0.053682,-0.168967,0.084154,0.044149,-0.041474,0.116408,-0.101592,-0.000789,-0.072903,-0.032087,0.005211,-0.172456,-0.109136,0.043283,0.103794,0.158095,-0.060618,0.061041,-0.161644],[0.119005,-0.052228,-0.063654,0.093099,-0.05803,0.020859,0.113392,-0.175691,0.016934,-0.100277,-0.130414,-0.044769,0.133482,0.1342,0.130285,-0.061269,0.008004,-0.067191,-0.0437,0.075336,0.050739,-0.151525,0.067428,-0.038713,-0.059919,-0.157894,0.110082,-0.177143,0.13943,-0.08731,0.001926,0.031855,-0.146756],[-0.089204,0.015324,0.074553,-0.006438,-0.057186,-0.129064,0.054453,-0.165686,-0.139737,-0.176646,-0.180668,-0.06824,-0.118154,0.16488,0.085306,-0.050421,-0.161555,-0.152324,-0.134474,-0.058693,0.057159,0.041456,0.033841,-0.010329,-0.152726,0.112108,-0.077519,0.084979,0.054215,-0.01853,-0.10378,0.009232,0.130529],[0.395695,0.130385,-0.071885,-0.056278,0.51506,-0.01479,-0.035862,-0.293845,0.092425,-0.060118,0.292196,0.07186,-0.127125,0.114874,-0.038902,0.00225,0.114649,0.032414,0.217979,0.061751,0.086902,-0.137398,-0.194345,-0.124419,-0.021974,1.430843,0.137144,0.075626,-0.114915,0.096436,0.09166,-0.158094,0.090573],[-0.094858,-0.15618,0.048765,0.061715,0.068129,-0.073435,0.16064,-0.086017,0.068702,0.094963,0.082945,-0.055153,0.092842,0.017607,-0.014641,-0.114578,0.031464,-0.092131,0.177813,-0.008937,-0.004474,-0.133321,0.158678,0.060082,-0.051796,-0.074755,-0.052858,-0.061272,-0.124103,0.143945,-0.066324,-0.169956,-0.087698],[-0.218195,0.126404,0.075619,-0.159979,0.220388,0.174431,-0.043173,0.073541,0.307655,-0.286657,0.211695,0.136128,0.056607,-0.140847,-0.121091,0.227148,0.008547,-0.080246,-0.00121,-0.123099,-0.11062,0.157676,-0.135798,0.071886,0.013594,-0.407532,-0.157156,-0.15176,-0.050846,0.093673,-0.085382,0.052492,0.084339],[0.523207,-0.251028,0.737607,-0.173753,-0.246675,-0.188352,-0.629091,-0.227106,-0.099395,-0.322118,0.215214,-0.174959,-0.106157,-0.09335,-0.064202,0.08357,-0.001374,-0.164195,-0.260222,-0.054037,0.055844,-0.052015,0.016774,0.000762,-0.224582,3.624694,0.336618,0.086905,-0.089698,0.045342,-0.170773,-0.176541,0.07397],[-0.689885,0.153068,0.423399,-0.099956,0.046942,-0.221374,-0.04691,0.09763,-0.011524,0.457729,0.245096,0.225755,0.234181,0.045878,-0.025018,0.201752,-0.000341,0.284909,-0.186473,-0.05717,0.204009,0.094032,-0.02259,-0.026836,0.2274,0.125375,-0.312887,-0.042804,-0.23271,0.192331,0.062118,0.165354,0.09336],[0.115596,-0.114397,0.18112,0.163204,0.295242,0.072548,0.617368,-0.069761,-0.262425,-0.16119,0.203735,0.02074,-0.053262,0.110653,-0.168221,-0.06305,0.006141,0.249639,-0.694221,-0.000793,0.133009,-0.126104,0.138577,0.102709,-0.010554,1.685297,-0.306682,-0.217398,0.031962,-0.157594,-0.123866,0.224996,-0.059046],[-0.354846,0.174547,-0.352305,0.045526,0.434944,-0.067299,-0.389648,-0.046986,0.504472,-0.47188,0.698942,0.094855,0.079948,-0.02792,-0.129528,0.013237,-0.105221,0.258377,0.347794,0.150822,0.094029,-0.314623,-0.230841,-0.041393,0.211912,-0.071638,-0.626067,-0.125797,-0.025879,-0.169504,0.153382,0.268693,-0.247232],[0.601047,-0.065103,0.079996,0.044728,-0.359102,0.082181,-0.083822,-0.34956,0.258172,0.189002,-0.466565,0.142214,0.031811,-0.05088,0.00545,-0.043531,-0.011696,-0.00358,0.554841,-0.007245,-0.049887,0.14935,0.039338,0.000638,-0.092284,0.014439,0.393809,0.088531,-0.204513,-0.256307,-0.084213,0.16301,-0.381015],[0.023529,-0.133887,-0.286719,0.297669,0.000313,0.426528,0.175662,-0.294452,-0.080345,0.815069,-0.758446,-0.133719,-0.038854,-0.097434,-0.169615,0.031895,0.023575,-0.056445,-0.047499,-0.055935,0.124082,-0.315771,-0.15913,-0.12538,0.112206,-1.668371,0.458807,0.365972,0.043428,0.004055,0.074875,-0.08641,0.216081],[0.45928,-0.209401,-0.193756,0.217366,-0.161608,-0.103653,-0.020099,0.100307,0.068755,0.307566,-0.076054,0.081168,-0.001481,0.02951,0.102966,-0.036934,-0.058137,0.126631,-0.037199,0.068516,-0.089828,-0.016765,0.010753,-0.030313,-0.118035,-0.689731,0.217354,0.237282,-0.234976,-0.023585,-0.097561,0.120577,0.068056],[-0.048967,0.11111,-0.129879,0.029824,0.027106,-0.066843,0.01372,0.112362,-0.037751,0.141177,-0.122829,-0.116115,0.138563,0.088377,0.164105,-0.099545,-0.080842,0.014542,-0.088654,0.005147,-0.145752,-0.121407,0.135873,-0.169902,0.100291,0.059608,-0.146074,-0.134839,-0.169635,0.109625,0.171438,-0.09289,0.054299],[-0.585548,0.395521,0.186151,0.164542,0.340246,0.148489,-0.152244,-0.004086,0.301382,0.085341,0.301919,0.288347,0.145801,-0.111319,0.148842,0.090379,0.010272,0.335774,0.031307,0.123853,0.189369,0.015532,-0.037078,-0.057442,-0.039825,-0.703663,-0.417756,-0.230215,0.17984,-0.000899,0.000269,0.323959,-0.129163],[0.626778,0.398044,-0.688731,-0.083161,-0.175084,0.11033,0.029958,0.03997,-0.493775,-0.009979,0.174943,-0.064038,-0.010316,0.142155,-0.101746,0.000924,-0.044847,0.032986,-0.681949,0.02138,0.042291,-0.155268,-0.256932,-0.031237,-0.094282,0.331705,0.713925,0.399756,-0.130178,-0.148158,0.025935,0.020216,-0.072963],[-0.359385,-0.076109,-0.336561,0.463587,0.351771,-0.095208,0.38706,-0.071508,0.229681,-0.448039,0.156281,0.118433,-0.063644,-0.11923,0.046744,-0.011284,-0.358392,0.276562,0.076009,-0.063133,-0.034068,0.135937,0.074337,0.129467,-0.008238,-0.285144,-0.132276,0.073907,0.033191,0.17716,-0.01307,-0.020694,0.161134],[-0.70865,0.243415,0.148754,-0.75559,1.078374,0.018209,0.079308,0.242994,-0.271714,-0.07116,-0.195721,0.014377,0.073918,0.10337,-0.171581,-0.043474,-0.002053,0.321513,0.340729,-0.139571,-0.138145,-0.161945,0.059507,0.078147,0.128532,-0.051903,-0.228271,0.060841,0.077421,-0.097383,-0.104119,0.194998,-0.135114],[-0.258003,-0.078864,-0.140331,0.050053,0.029415,-0.092684,0.010425,-0.022713,0.238257,-0.183216,-0.265737,-0.248466,0.015639,-0.106144,0.059461,-0.131573,0.016387,-0.217162,-0.743884,-0.093291,0.02539,0.246319,0.032349,0.012936,-0.113269,2.044444,0.271605,0.321192,0.3078,0.041759,-0.147629,-0.209313,0.03545],[0.54296,-0.015242,0.117312,0.102398,-0.198542,0.216343,-0.280721,0.065306,-0.175403,0.407124,-0.207667,0.141963,-0.124819,-0.12317,0.041787,0.025488,-0.062176,0.124417,-0.208693,-0.114606,-0.08405,0.005335,0.00654,-0.027376,-0.194483,-2.038913,0.34573,0.08683,0.104907,-0.143458,0.059959,-0.044404,-0.323417],[0.53879,-0.146398,-0.170167,-0.073528,-0.17995,0.075179,-0.008239,-0.115888,-0.191944,0.313119,-0.06048,0.04245,0.072734,-0.134037,-0.041603,-0.113872,0.094678,-0.100492,-0.059712,-0.065019,-0.162451,-0.0291,0.042605,0.019694,0.005057,-0.572588,0.083013,0.144644,-0.100808,-0.136497,0.148861,0.130116,0.006828],[0.537583,0.025736,0.088464,-0.110865,-0.048516,-0.182448,0.137788,-0.074265,0.117472,-0.158481,-0.060031,-0.075898,0.129167,-0.041644,-0.083007,-0.018119,0.063341,0.103807,0.0988,-0.016141,0.092323,-0.04077,-0.104108,-0.014891,-0.075719,0.453372,0.363742,0.120599,-0.071377,-0.267068,-0.170782,-0.055641,-0.265291],[0.501126,-0.141348,-0.439207,0.311348,-0.420745,-0.455411,0.346217,-0.155815,-0.265913,-0.276918,0.092441,-0.02273,-0.083419,-0.121009,0.057232,-0.118945,-0.003283,0.101329,-1.217209,0.019009,-0.232366,0.235085,0.069537,0.104061,-0.089645,-0.798693,0.335401,0.295526,0.003918,-0.086372,0.019381,-0.053868,-0.149327],[-0.332958,0.349752,-0.121654,0.103028,-0.118172,0.335559,-0.256677,0.23971,0.617431,-0.902697,0.084719,-0.072719,0.070463,-0.050401,0.08779,0.092681,0.004868,-0.176104,0.400167,0.108292,0.018264,0.083676,0.095123,-0.129808,-0.067143,2.331729,-0.112699,-0.11214,0.31409,0.263724,0.153928,0.10622,0.054732],[0.099413,0.191269,-0.494223,0.011774,0.742423,-0.280963,-0.007846,-0.144713,-0.020151,0.413366,-0.110311,0.046637,0.133055,-0.128982,-0.130589,0.078127,-0.047549,0.047261,0.439493,-0.083512,-0.056268,0.110738,-0.115699,0.193293,-0.032471,2.294354,-0.446403,-0.091355,-0.075102,-0.116047,-0.081428,-0.14776,0.094791],[0.237931,-0.002309,0.087425,-0.061147,0.171504,0.170158,0.189862,-0.135253,0.243648,-0.161004,0.169358,-0.00368,-0.050713,0.063295,-0.071892,0.081296,-0.017099,0.054585,0.41383,0.120401,-0.113779,-0.067085,0.033909,0.263489,0.099098,-0.338801,-0.483756,-0.285455,-0.006454,-0.111849,0.019551,0.117326,-0.260694],[-0.587099,-0.028743,0.140198,0.047944,-0.057814,-0.0875,0.323411,-0.432372,0.537475,-0.711885,0.405886,0.083417,0.222804,-0.082835,0.052591,0.165755,-0.006741,0.180723,-0.322438,-0.097363,0.101417,-0.028677,0.011632,0.014515,0.120978,1.492393,-0.086686,-0.059368,0.209618,-0.214335,0.137976,0.199056,-0.156457],[0.933275,-0.340101,-0.284738,-0.293651,0.042411,-0.157607,0.021269,0.060406,-0.16382,-0.250954,0.195097,-0.121078,-0.069201,-0.172793,-0.055132,0.002973,-0.000851,-0.330082,-0.040761,-0.138317,-0.128807,0.075931,0.050864,0.058323,-0.155486,1.239063,0.372576,0.279158,-0.069927,-0.077461,0.083704,-0.31718,0.030349],[-0.100501,0.159681,-0.170052,-0.01152,-0.090965,-0.096611,-0.167663,-0.022549,0.110833,0.095704,-0.03913,0.029802,0.067035,0.022346,-0.095754,-0.029145,-0.007197,0.04817,0.076827,0.032681,-0.148352,-0.124177,-0.056823,-0.124507,-0.071725,0.111637,-0.14436,0.066249,-0.063936,-0.128105,-0.081814,-0.140248,-0.143546],[-0.686138,0.20135,-0.184008,0.100801,-0.523115,0.097314,0.040787,0.496119,-0.156516,-0.34045,0.686312,0.193212,0.220324,-0.042346,0.159822,-0.024519,-0.049394,0.015762,0.557231,0.008504,0.037056,-0.191237,0.226343,-0.051178,0.258698,-1.5344,-1.201472,-0.406429,0.255205,-0.394755,-0.038987,0.179768,-0.232507],[0.770364,-0.010901,0.156759,0.177315,-0.516696,0.101058,0.028581,-0.145002,-0.182623,0.272356,-0.438258,-0.01802,-0.036976,0.142309,-0.038956,-0.023832,0.003406,0.086555,0.207172,-0.12,0.073336,0.022704,0.149994,0.119374,0.041856,1.234214,-0.560802,-0.266336,0.07036,-0.184516,0.02651,-0.210389,0.06523],[-0.935654,-0.147959,0.310931,-0.942265,1.640863,-0.721764,-0.145072,-0.32751,0.06715,-0.701618,0.337772,-0.065052,-0.08307,-0.171572,0.116308,-0.064938,-0.077221,-0.072246,-0.021967,0.171673,-0.151057,0.107894,-0.016182,0.179717,-0.086051,0.532421,0.806068,0.341684,0.285309,-0.129269,-0.147746,0.079573,-0.223534],[0.639748,-0.097377,-0.026008,0.228376,-0.273939,-0.062356,0.183138,-0.019763,0.095799,-0.24071,0.040361,0.190976,0.121386,-0.033671,0.038137,-0.187539,-0.042438,0.161234,0.101582,-0.071004,0.099587,0.025481,-0.114292,-0.048665,0.038303,-0.344886,0.021784,0.260364,0.091218,0.013253,-0.109924,0.045788,-0.30142],[0.489632,0.046857,0.224716,-0.130175,-0.074877,0.248463,0.032572,-0.060264,0.152085,0.353077,-0.022167,0.163422,0.159084,0.102341,0.107138,-0.143748,-0.004624,-0.067611,0.013524,0.133366,-0.038336,-0.068413,0.035537,-0.008599,-0.124812,-0.450448,0.198757,-0.105436,0.076864,-0.100267,0.069438,0.103568,0.005082],[0.005339,-0.072852,-0.01825,0.015166,-0.055478,0.037461,-0.004976,0.098331,0.001062,0.153455,0.032109,-0.062392,0.165973,-0.126496,0.121028,-0.044738,0.072249,-0.049046,-0.109895,0.028215,-0.057872,-0.03379,0.021481,-0.088367,-0.099921,-0.137448,0.053314,0.165974,-0.138761,-0.138074,0.083116,-0.127383,-0.128614],[0.272851,0.023373,0.257875,-0.263213,0.167424,0.035761,0.261325,-0.248339,0.014858,0.285229,-0.128135,-0.040008,-0.089485,-0.034084,-0.076881,0.014989,0.025535,0.182318,0.092463,-0.059714,-0.011803,-0.138772,-0.046314,-0.061931,-0.147284,0.339914,0.409985,0.306667,-0.177501,-0.243782,-0.059553,-0.054933,-0.222182],[-0.578538,0.095047,-0.267601,0.326972,0.158591,-0.009488,-0.247471,0.153841,0.460092,0.020671,0.024638,0.064512,0.065715,0.113388,0.114442,0.190599,-0.013657,-0.170661,0.030655,-0.148949,-0.042313,0.187929,-0.115383,0.086232,-0.094044,0.235122,0.072485,0.083678,0.257424,0.060994,0.166872,0.037886,0.036927],[-0.247464,0.122432,0.299603,0.138853,0.177984,0.408435,-0.56928,0.18592,0.406873,0.547103,0.142978,0.29744,0.149684,0.088678,-0.027798,0.272281,-0.060906,0.106462,-0.703287,-0.065469,0.04355,0.068456,-0.074168,0.070585,0.246324,0.305934,-0.417472,-0.172402,0.064322,0.202978,0.094764,0.188802,-0.002216],[-0.418086,-0.032474,0.017113,0.147959,0.082212,0.380964,-0.034201,-0.033889,0.402456,0.188375,-0.09194,0.146812,0.148998,0.036666,-0.030488,0.257459,0.064832,0.103547,-0.219078,-0.070917,-0.104281,-0.048391,-0.181904,-0.091701,0.17483,0.903101,-0.210785,-0.033172,0.246207,0.269776,0.120988,0.257767,0.091375],[-0.199529,-0.070762,-0.05697,0.382626,-0.58836,0.170188,-0.049252,0.633173,-0.003934,0.193621,0.020637,0.078454,0.228314,0.021299,0.081353,0.122139,0.021721,0.213098,-0.947025,0.122912,-0.231792,0.005107,0.011931,-0.104949,0.24559,-2.435181,0.17777,0.262178,-0.039646,0.188598,0.011831,0.246124,0.086197],[-0.607746,-0.200282,0.004488,0.793874,-0.37659,0.097209,0.236115,-0.003797,0.201079,-0.709611,0.772768,0.165991,0.194533,-0.091782,-0.023638,0.109579,0.030992,0.334452,-0.506013,-0.120671,0.065049,-0.158655,-0.131622,-0.030908,-0.059518,0.158554,0.080214,0.150815,0.029501,0.021622,-0.136884,0.245315,-0.0506],[-0.488084,0.022123,-0.04627,-0.158059,0.035122,0.175266,0.550894,0.227665,0.073949,-0.387936,0.142914,0.05588,0.030798,0.12809,-0.032148,0.08608,-0.004402,0.119872,0.51973,0.079325,-0.140792,-0.050972,0.109675,-0.072215,0.113573,2.553271,-0.340585,0.068891,0.446955,0.084592,0.010108,-0.030682,0.124123],[-0.837994,0.26766,0.309649,0.327272,0.036513,0.227176,0.21471,0.290883,0.212431,-0.101444,0.316709,0.305739,0.21974,0.024967,0.101547,0.318545,0.003094,0.320342,0.0897,-0.126921,0.061617,-0.001116,-0.026982,-0.044416,0.015404,0.346518,-0.286414,0.034373,-0.19776,0.207337,-0.136539,0.030857,0.081895],[-0.679053,-0.086566,0.391168,-0.453137,0.155639,0.442239,0.026416,-0.175399,0.174214,0.186535,-0.331724,-0.091829,0.214886,-0.016575,0.134396,0.187098,-0.00044,-0.111429,0.357249,-0.083061,0.017295,0.171439,-0.280447,-0.146751,0.089104,-0.060733,0.016551,0.230225,0.056407,0.16843,0.036456,-0.081703,0.068651],[-0.044693,-0.033814,-0.156053,0.000669,-0.006074,-0.111192,0.113316,-0.1001,0.128772,-0.191423,-0.031327,-0.104695,0.003415,-0.048502,-0.076228,-0.054206,0.076784,0.045241,-0.083802,-0.009598,-0.035137,0.087183,-0.039302,-0.103732,0.097731,0.130022,-0.009867,-0.104104,0.090566,-0.003192,0.056978,-0.087712,-0.043702],[0.458336,0.218974,-0.400324,0.172081,0.089472,-0.199072,-0.289572,0.480969,-0.216176,0.201075,0.223251,0.001694,0.089468,0.137909,0.023049,0.134241,-0.05511,0.012374,-0.143802,0.163417,-0.133787,-0.021666,-0.08757,0.089644,0.038176,0.177608,-0.457707,-0.060022,0.051841,0.184882,-0.133127,0.117463,-0.052545],[0.594361,0.201652,-0.002478,-0.416895,0.475017,-0.019908,0.129671,-0.393434,-0.133336,-0.146373,0.137826,0.108487,0.040045,-0.112017,-0.083815,-0.047017,0.007574,0.112329,-0.511481,0.062696,-0.014378,-0.100444,-0.127674,-0.032539,-0.112589,1.762624,0.096144,0.000333,-0.067606,0.222125,-0.022479,-0.158432,0.083894],[0.705869,-0.054508,0.209378,-0.127472,-0.159635,-0.21943,-0.067526,-0.093698,-0.119754,-0.034058,-0.384434,-0.041623,0.07287,-0.136223,-0.056479,-0.159215,-0.008524,0.127449,-0.26661,0.078644,-0.073077,0.037662,-0.064722,0.194064,-0.049662,-1.588563,0.409402,0.204076,-0.253348,-0.276473,0.079368,0.094436,-0.105148],[0.122182,0.030927,-0.01548,0.055161,0.063847,0.066333,-0.115235,-0.002548,0.150298,-0.0628,-0.007038,-0.154356,0.153764,-0.13495,0.16591,-0.159309,-0.060644,0.005887,-0.094781,-0.020217,-0.124468,-0.006768,0.049465,-0.077599,-0.117835,0.061833,-0.004248,0.101971,-0.121325,-0.124839,0.089527,-0.146402,0.077841],[0.329802,-0.096459,-0.232385,0.302771,-0.529803,-0.461307,-0.118846,-0.328264,-0.253263,-0.329595,0.83131,-0.198407,-0.01252,0.065679,-0.124566,-0.237021,0.033206,0.035764,1.03037,0.085771,0.035799,-0.197693,0.005079,0.025913,-0.173983,4.711449,0.252213,-0.009111,0.269348,-0.796882,-0.006735,-0.206491,-0.791441],[-0.767263,-0.160354,0.199661,0.434336,-0.038721,-0.360092,0.003839,0.134486,0.024116,0.463201,-0.304334,0.017441,0.182277,0.035689,0.085572,-0.044923,0.276808,-0.04565,0.122402,-0.128977,0.091498,0.083589,-0.123347,0.023091,0.188578,-1.059364,0.27931,0.186177,0.053229,0.0406,0.159429,-0.044802,-0.094346],[0.397046,0.063295,0.18128,-1.088316,0.59614,0.250647,0.360844,-0.90577,0.861129,0.355374,-1.133621,-0.056717,0.042916,-0.154683,-0.058039,-0.067326,-0.07409,-0.029364,0.014734,0.138613,0.171837,-0.181934,-0.328312,0.287722,-0.021,-3.253625,-0.153817,-0.103928,0.086404,0.161265,-0.089208,0.059045,0.207525],[-0.565478,0.258846,-0.114829,-0.079811,0.544167,0.297388,0.152142,0.312532,0.033795,0.537846,0.055533,0.213006,0.208266,0.094999,0.098072,0.247826,-0.031688,0.092364,-0.2415,0.021455,0.005711,0.088009,-0.104664,0.176191,0.031995,0.295954,-0.319174,0.036069,0.104752,0.121994,0.095338,0.299665,0.139396],[0.369821,-0.21034,0.107011,0.253582,-0.154292,-0.121579,0.297104,-0.245832,0.126772,0.567847,-0.312765,-0.081832,0.004758,0.07998,-0.008724,-0.109298,0.037526,0.221673,-0.196829,0.061836,0.164242,-0.026257,0.572135,-0.008219,-0.171239,-1.159994,0.018255,0.017654,-0.060261,-0.22315,0.172749,0.017835,-0.339555],[-0.188847,-0.200375,-0.546898,0.574005,-0.093534,-0.260373,-0.458665,-0.283383,0.055727,-0.260928,1.158074,0.00186,0.028326,0.102523,0.087186,0.002339,-0.009754,-0.023709,-0.127164,0.068488,-0.160498,0.189375,0.261848,-0.133896,0.059195,-0.516472,0.222705,0.161624,-0.023671,0.13368,0.093932,-0.157295,0.121584],[-1.099401,0.219624,0.10774,0.251086,0.068348,-0.077212,0.094028,0.139566,0.380608,0.250162,0.233133,0.400211,0.163985,-0.125337,0.052541,0.094673,0.008477,0.173114,-0.130102,0.124618,-0.01375,0.00993,0.033673,0.03262,0.136213,0.1997,-0.27191,-0.156066,0.269956,0.364857,0.162444,0.226449,0.092305],[0.237732,0.208094,0.011597,0.487473,0.017553,0.124411,0.62889,0.213568,0.224972,0.069732,0.136276,0.163245,0.206416,-0.047511,-0.127673,0.078979,-0.00325,0.052751,-0.466855,-0.002364,0.092512,0.306596,-0.023504,-0.027473,0.190487,-1.490422,-0.846723,-0.41496,0.079909,0.111325,0.160373,0.112467,0.116489],[0.017484,-0.578483,0.744058,-0.621099,0.465627,-0.116214,-0.024617,-0.522479,-0.643721,0.44914,-0.161522,-0.214657,0.009782,0.161474,-0.024512,0.110602,-0.272133,0.037339,0.120143,-0.145467,0.016406,-0.211149,0.036634,-0.015117,0.108791,0.933029,-0.070166,0.060623,0.215711,0.082635,-0.085586,0.004014,0.115448],[-2.999827,0.298142,0.539349,0.014304,-0.249661,-0.314226,-0.323225,-0.128865,-0.090895,-0.208962,-0.348795,-0.091912,-0.138774,-0.127921,-0.088042,0.121185,-0.013059,-0.156509,-0.058471,-0.162158,0.151016,0.061088,-0.010703,-0.018046,0.042968,0.523778,0.516441,-0.149656,0.197749,0.151973,0.161096,-0.190614,0.06567],[0.012079,-0.108539,-0.071916,-0.080077,0.121243,0.001334,-0.144009,0.063502,0.030697,0.157287,-0.095537,0.04056,-0.165894,-0.123081,-0.122918,-0.123092,0.1289,-0.102816,-0.120674,0.046182,0.130063,-0.105453,-0.038929,0.024671,0.138284,-0.092639,-0.116126,0.092693,-0.163661,-0.046784,0.167046,-0.038674,-0.122277],[-0.862428,-0.093894,0.17394,0.202707,0.11508,0.569428,-0.64139,-0.161345,0.825524,0.726238,-0.49348,0.018145,0.032269,-0.082332,-0.12608,0.162788,0.007604,0.198481,0.318224,0.163418,0.16855,-0.049066,0.05488,0.024837,0.111881,-0.099757,-0.238456,0.001242,0.122776,0.041931,-0.073639,0.124413,0.083437],[-0.325267,-0.187781,0.300877,-0.014134,-0.2573,0.015329,0.591888,-0.538706,0.005467,-0.359406,0.748631,-0.016672,0.162715,-0.16174,0.058408,-0.111699,0.104271,0.127216,-0.036522,0.034748,0.033328,0.048412,-0.025784,-0.041639,0.202953,1.530036,-0.036357,0.089656,0.324115,0.033272,-0.096108,-0.040042,0.122398],[0.786837,-0.196827,-0.18178,0.255568,-0.427116,-0.368432,-0.068379,-0.380708,-0.388368,-0.046756,0.107001,-0.025197,0.031321,-0.02254,-0.092027,-0.323127,-0.000828,-0.114886,-1.124627,-0.053532,-0.133959,0.409861,0.024298,0.046755,-0.148663,-1.142901,0.482719,0.068966,-0.154706,-0.129767,-0.130306,0.046893,-0.075243],[-0.496209,0.139414,0.085412,-0.284935,0.27077,-0.140168,0.236535,0.087741,-0.437879,0.278075,-0.478298,-0.149416,-0.041588,0.075486,-0.016246,0.072235,0.038838,-0.09452,1.234154,-0.077838,0.079041,0.044959,0.199235,-0.012668,-0.202348,0.323621,0.154201,0.013185,-0.275639,0.132255,-0.097882,-0.11068,-0.006145],[-0.13117,-0.113806,0.012203,0.114198,-0.010846,0.161815,-0.025196,0.121274,-0.183246,0.140598,-0.057796,0.044803,-0.140407,0.055922,0.022969,0.029021,0.161787,-0.116079,0.036625,0.123138,-0.051686,0.054877,-0.113793,-0.00085,0.075174,-0.101479,0.098691,-0.010185,0.042097,-0.170491,-0.059103,-0.165724,-0.132262],[0.830349,-0.529221,-0.089499,0.200245,0.300709,-0.070175,0.232145,-0.583567,0.132765,0.776518,-0.313077,-0.064989,-0.021607,0.11828,-0.150401,0.123236,0.000475,0.014641,-0.47758,-0.016136,-0.164508,0.162797,-0.15622,0.046713,-0.102252,-0.927709,-0.239032,0.085018,-0.250296,-0.237803,-0.033509,-0.005936,-0.120788],[-0.555697,-0.143505,0.851583,0.259224,0.216269,0.028092,-0.345752,0.204902,0.275647,0.60379,0.067608,0.34361,0.065798,0.169504,-0.065678,0.037581,-0.026217,0.333602,-0.159456,-0.15985,-0.047234,0.029045,0.05972,0.031069,0.214201,-0.066609,-0.319883,-0.249814,0.10917,-0.221792,-0.043108,0.131828,-0.155697],[0.44614,-0.109363,0.166877,0.070964,-0.122985,-0.051114,-0.10682,0.057244,0.015012,-0.094793,-0.333834,-0.138496,-0.00375,-0.059777,-0.095892,-0.015737,0.037791,0.070404,-0.900818,0.010767,0.111336,0.317635,-0.031653,-0.128533,-0.139598,2.307195,0.370735,-0.057465,-0.106602,-0.078451,-0.166186,-0.002315,-0.004178],[-0.400289,0.533053,-0.847817,0.86891,0.707086,0.308244,-1.03417,0.937106,0.483572,-0.838687,-0.251662,0.286152,0.029955,-0.131557,0.155767,0.082701,0.084699,0.200606,0.137079,0.075717,0.178933,-0.111646,0.148255,-0.105227,-0.023837,0.256495,-0.317348,-0.129838,-0.010308,-0.274545,0.161995,0.218824,0.008511],[0.065217,-0.272229,1.358238,-1.585072,0.568821,-0.473465,-0.403113,0.103901,2.141991,-0.607499,-1.641469,-0.24944,-0.067423,0.17312,-0.12151,0.048203,0.449127,-0.11888,0.127759,-0.101989,0.032568,0.153515,-0.081585,0.059313,-0.167469,-0.253948,-0.091919,-0.002146,0.538508,-0.037503,-0.153949,-0.12355,-0.138089],[0.623926,0.161381,-0.53945,0.125429,-0.170567,0.339417,-0.105981,0.839934,-0.49278,-0.314335,0.289115,-0.101813,0.055663,0.064252,-0.103949,0.023129,0.048824,-0.056821,-0.563778,0.069721,0.067656,0.30207,-0.119893,0.001485,0.15471,-0.317768,-0.293845,-0.269511,0.115443,-0.134695,0.145179,0.111792,0.027971],[-0.31103,0.084258,-0.293984,-0.041585,0.044326,0.141231,0.087472,0.204484,-0.064271,0.130057,-0.204146,0.166536,-0.13868,-0.146015,0.020504,0.01195,-0.013328,0.208638,-1.117687,-0.151261,0.076255,-0.298106,-0.084419,-0.003897,-0.096606,1.310487,0.422671,0.346627,-0.041676,0.000189,-0.114211,0.162638,-0.029139],[-0.309321,-0.095321,-0.219825,0.18975,-0.028645,-0.293351,-0.26311,0.043026,-0.17731,0.488281,0.115913,0.007946,0.117413,0.082121,0.145773,0.146707,0.233429,-0.159251,-0.003314,-0.135206,-0.09336,0.052519,-0.16123,-0.020352,0.064549,-3.164455,-0.056528,-0.02642,0.178261,0.055671,0.027393,0.079108,0.107352],[-0.692873,0.097009,0.198841,0.217972,-0.022978,0.186,0.304603,0.330394,0.199432,-0.187625,0.199855,0.067289,0.341077,0.03989,0.130823,0.335561,-0.000917,0.230914,0.099727,-0.067492,-0.0636,-0.020044,-0.00147,0.010021,0.087869,0.177195,-0.31737,-0.185743,-0.048656,0.052018,-0.071868,-0.010056,0.05341],[-0.232469,-0.31111,0.711299,0.373369,-0.690067,-0.142806,0.062433,0.16402,-0.443795,0.710977,0.092857,0.067177,0.126072,0.047407,0.097528,0.210609,-0.093227,0.09204,-0.442697,-0.013992,-0.019068,-0.188364,0.084019,-0.274633,0.032772,-2.91057,0.214104,0.298724,-0.110014,0.026275,0.167578,-0.021881,0.055922],[0.649531,-0.10742,-0.327328,0.468337,-0.553569,-0.035001,0.072321,-0.09763,0.182792,-0.930593,0.612493,0.121598,-0.099988,0.003479,0.054142,-0.164552,0.18961,-0.010372,0.431605,0.158441,-0.093913,0.032298,-0.0958,-0.08683,0.109568,0.158886,0.260901,0.07776,0.161044,-0.319041,-0.016603,-0.006799,-0.259747],[0.088623,0.218726,0.585599,-0.244427,0.413556,-0.473274,-0.163313,0.255461,-0.091425,0.656408,-0.289801,0.352169,0.228098,-0.074598,-0.062508,0.146611,-0.012747,0.326243,-0.461949,0.01548,0.051978,-0.411956,0.284693,-0.107775,0.126067,1.403857,-0.115783,-0.09511,-0.181485,-0.076451,-0.103942,0.197032,0.117986],[-0.05243,-0.127691,0.124766,-0.002765,0.162348,-0.049031,-0.060309,0.021291,-0.148776,-0.122173,0.124445,-0.115932,-0.01909,-0.091049,-0.163949,-0.019877,0.063204,0.029551,0.013544,0.080567,0.034555,-0.032295,0.143029,-0.022209,0.009399,0.06842,0.088679,0.039343,-0.004975,-0.138812,-0.12073,-0.150724,-0.081696],[0.548906,-0.029365,-0.171151,-0.141029,0.228115,-0.605505,0.226413,-0.017979,-0.170787,0.042928,0.20278,0.003973,0.082755,0.136881,0.106539,-0.018162,-0.054097,0.076666,0.44312,0.056565,0.106923,0.05455,-0.249648,0.095574,-0.140263,-0.006228,0.139702,-0.069429,0.152295,-0.200226,0.1709,-0.076273,0.022933],[-0.336889,-0.425507,0.516974,-0.160548,0.766475,0.439679,0.109693,-0.492267,0.414972,0.30951,-0.582069,-0.114251,-0.008656,-0.024366,0.026141,-0.031677,0.377674,-0.005908,0.64628,0.012918,0.075664,-0.137616,-0.172474,-0.0644,0.054422,1.314725,-0.295971,-0.126926,0.196998,0.015826,0.137766,-0.012269,0.170633],[-0.470811,0.355028,-0.332105,-0.151588,0.400308,0.879192,-0.451375,0.024799,0.211655,0.192005,-0.923203,0.160572,0.018886,0.069834,-0.139234,0.042724,0.020783,0.024338,0.572772,-0.095299,-0.172872,0.277284,-0.36717,-0.066413,0.114525,1.867489,0.096237,0.100405,-0.196044,0.230099,-0.056422,-0.120811,0.132121],[-0.125717,0.046906,-0.070432,0.032142,-0.1545,-0.105071,0.140507,0.131988,-0.08145,-0.076365,-0.122881,-0.066202,-0.054594,0.132178,0.116722,-0.06365,0.029962,-0.01444,-0.005088,-0.080245,-0.05245,-0.01393,0.159711,-0.065067,-0.075634,0.073407,0.089983,0.085562,0.115132,-0.093957,0.138968,-0.018244,-0.038094],[-0.034819,0.067234,-0.127596,0.107423,-0.065663,-0.037517,-0.032424,-0.108054,-0.022521,-0.0231,-0.037252,0.087543,-0.145288,0.101905,0.122369,-0.172617,-0.122744,0.114799,0.155148,0.130099,0.040613,-0.057495,-0.011333,0.008378,0.075859,-0.094478,0.053485,0.149498,-0.125036,-0.08527,-0.077315,-0.097644,-0.133386],[0.216352,0.271361,-0.048297,-1.15481,0.729622,0.579329,-0.718424,-0.198215,0.360542,-0.357142,0.161678,0.108987,0.003654,-0.084414,-0.024164,-0.137598,0.055768,-0.146998,0.77796,-0.130126,-0.044318,-0.02395,-0.108843,0.189703,0.041279,1.934683,-0.171412,-0.125198,0.477616,0.011361,0.051016,-0.070951,-0.087492],[0.255002,0.001966,-0.054664,0.075438,-0.057125,-0.56511,0.459337,-0.055018,0.32039,-0.602276,0.256428,-0.067959,-0.136518,-0.004342,0.141797,0.089182,0.003419,0.07364,-0.581623,0.097675,-0.193081,0.428622,-0.675021,0.042667,-0.155898,0.853898,0.319129,0.231874,0.403492,0.033147,-0.010252,-0.130556,-0.208305],[-0.067621,0.116989,-0.012703,0.134926,-0.062457,-0.090757,-0.01597,-0.101941,0.021932,-0.175864,-0.009953,-0.139801,-0.111519,-0.120696,0.078601,-0.057726,-0.135696,0.133662,-0.088435,-0.157559,0.038958,-0.088031,-0.153834,-0.118811,-0.026683,0.052871,0.130345,0.031198,-0.183248,0.009024,-0.1412,0.106941,-0.147955],[-0.405451,0.066378,-0.92122,-1.127722,1.464058,0.639934,-0.406933,0.482443,-1.39726,0.165219,0.766636,-0.039837,-0.024717,-0.121989,-0.153432,-0.073887,0.051146,0.230862,0.066965,-0.099147,-0.050962,0.269301,-0.197763,-0.19604,0.000778,-0.293999,0.06203,-0.036764,-0.047807,-0.286353,0.029489,0.257191,-0.047394],[-0.638063,-0.561599,0.318855,0.09594,0.337679,-0.288138,-0.3183,-0.092949,0.316511,1.045083,-0.56381,-0.040007,0.095554,-0.072419,0.143197,-0.032234,-0.154468,-0.206355,-0.018073,-0.023567,0.018235,0.424658,0.179085,0.142735,0.101167,1.33659,-0.014653,0.036205,0.100081,0.163103,0.020834,0.077214,0.148043],[-0.057394,0.046042,0.009914,0.136506,-0.046639,-0.02757,-0.074332,-0.142773,0.04858,0.083368,-0.155945,0.044613,-0.18592,0.165034,0.123043,-0.123241,0.101976,0.13521,-0.042641,-0.15531,-0.183207,-0.041024,0.03671,0.097441,0.069696,-0.095811,-0.038582,0.056408,-0.172429,0.100226,-0.129451,-0.011935,0.103699],[-0.723153,-0.082442,0.160185,1.101002,-0.098675,-0.294347,0.2888,-0.549689,0.421847,-0.710038,0.676414,0.028682,0.122945,0.104998,-0.107656,0.194453,0.063294,0.113647,-0.232366,0.021858,-0.07094,-0.036238,-0.012117,0.102612,0.060158,2.177967,0.082079,0.040281,0.124089,-0.163451,-0.033178,0.217439,-0.26656],[-0.147998,0.146993,-0.000682,-0.130586,0.020775,-0.064622,-0.095992,-0.007124,-0.004159,0.030933,-0.054434,0.00095,-0.033309,0.032586,0.161019,-0.077061,0.03716,-0.12488,0.159264,-0.024489,0.029795,-0.152245,0.01588,-0.120991,-0.077336,-0.11229,-0.107934,-0.095265,0.058955,-0.130712,-0.034448,-0.046091,0.170362],[0.09285,0.26963,-0.020586,-0.349361,0.160321,-0.059844,0.160832,-0.469456,0.027432,-0.560633,0.107611,0.140018,-0.001872,-0.160322,-0.104806,0.102315,0.118832,0.139758,-0.004956,-0.152641,0.081019,-0.043476,0.026721,-0.005822,0.096443,-0.768458,-0.249262,-0.136766,0.178783,0.002925,-0.077709,-0.155395,0.052207],[-0.332032,0.292691,-0.334348,0.091306,-0.024078,-0.324475,-0.223815,0.295883,-0.442294,0.116573,0.093746,-0.081911,-0.080564,-0.041638,-0.030425,-0.209095,0.069765,0.066239,0.160144,0.00905,-0.060006,-0.133273,-0.280442,0.077445,0.129717,1.845452,0.671524,0.397173,-0.383752,0.132033,-0.070978,0.045993,-0.015096],[-0.42879,-0.073278,-0.232817,0.051116,-0.599469,-0.174135,0.186933,-0.079265,-0.104843,0.533118,-0.273955,-4.2e-05,-0.112751,0.035265,0.002903,0.028221,0.06551,0.105137,-0.731114,0.11162,-0.000126,0.070547,0.079267,0.110408,-0.081213,-2.031008,0.441519,0.387585,-0.129852,-0.033455,-0.104103,-0.019359,0.066687],[0.038126,-0.078867,-0.024158,0.140821,-0.092188,-0.025747,0.042222,-0.12044,-0.107323,0.038468,0.042506,0.069787,0.008067,-0.072444,0.047254,-0.165889,-0.085268,0.062679,0.103033,0.041789,-0.074926,0.056759,0.076809,-0.11879,-0.173173,-0.157718,-0.022077,-0.170801,-0.123609,-0.065873,0.146081,-0.033224,-0.130279],[0.594221,-0.836846,-0.071691,0.97172,0.035218,-0.252686,-0.231853,0.180966,0.285897,-0.172721,0.056988,0.198406,-0.001924,0.078493,-0.121617,0.007212,0.051698,0.172328,-0.563347,-0.137484,-0.11934,-0.271588,-0.085237,-0.063178,-0.020934,-2.007272,0.277932,0.100395,-0.023488,-0.072835,0.073032,0.078617,-0.112024],[0.508232,0.038158,0.246691,-0.337816,0.300916,0.324853,0.223506,0.18758,-0.292466,0.089754,-0.020237,0.118104,-0.015021,-0.087946,-0.100664,0.190142,-0.146857,0.104262,0.350293,0.151071,-0.119596,-0.266183,-0.153976,0.056592,0.101998,1.305835,-0.668395,-0.263593,0.228955,0.154668,0.117391,0.110343,-0.079214],[-0.794424,0.329884,0.327168,0.033746,0.259906,0.242816,0.440766,0.240261,-0.023644,0.259202,0.333334,0.179659,0.284062,-0.169304,-0.018527,0.177367,-0.009684,0.339735,-0.08016,0.082316,-0.117258,0.023595,0.064303,0.036168,0.197072,0.127588,-0.38253,-0.112446,-0.019058,0.184322,-0.134554,0.030845,0.025196],[0.053865,0.086035,0.035333,-0.066702,0.131573,-0.016167,-0.136627,-0.070237,0.104522,-0.183882,0.017871,-0.096534,-0.001964,-0.115694,0.114534,-0.14339,0.052046,-0.10102,0.116221,-0.003551,0.072389,0.072089,-0.151417,0.091154,-0.14026,0.073056,0.064845,0.033362,-0.097347,-0.186821,-0.160431,0.050216,0.090308],[0.038191,0.117303,-0.141246,-0.142581,-0.167901,0.154663,0.052901,0.114807,-0.060754,-0.026803,0.102853,-0.127883,-0.121133,-0.084625,0.157999,-0.162299,0.005238,-0.121515,-0.172985,0.06378,0.066335,0.126272,-0.075012,-0.106209,-0.042329,0.075819,-0.023567,0.025554,-0.072463,-0.015717,-0.07901,-0.124191,-0.04819],[-0.339869,0.883111,-0.158688,0.276034,-0.355172,0.028293,-0.298072,0.619974,0.317376,0.253168,-0.112166,0.065098,-0.070368,0.097405,0.08387,-0.096779,-0.142488,-0.125528,0.36858,-0.071241,-0.175845,0.304562,-0.280797,0.129091,-0.012208,-0.029325,-0.049854,0.055236,-0.003622,0.126572,0.009176,-0.026581,0.198437],[0.818221,-0.157388,-0.172247,0.272214,0.2625,-0.175777,-0.112204,-0.299092,0.154268,-0.095432,0.068185,0.081272,0.122556,-0.071665,-0.15163,0.096631,-0.1702,0.202892,-0.109274,0.127732,-0.106757,0.209529,0.251625,0.185877,0.157173,-1.634478,-0.287406,-0.281464,-0.187666,-0.365736,0.141939,0.056669,-0.144214],[-0.594269,0.068864,-0.03153,0.498531,-0.161556,-5.3e-05,0.474477,-0.244068,0.159704,-0.576657,0.401629,0.233623,0.043536,0.043897,0.067367,0.097965,0.010265,0.063078,-0.624982,-0.124718,-0.014733,-0.089011,0.019228,0.037544,-0.104251,-1.098747,0.044483,0.236767,0.303162,-0.174913,-0.015788,0.13554,-0.117527],[-0.091124,0.020584,-0.167223,-0.158555,-0.168209,-0.003164,0.104345,-0.020253,0.073964,0.106341,-0.024763,-0.127286,-0.079809,-0.034264,-0.033614,-0.048434,-0.119287,0.014264,0.032921,-0.126156,0.027799,0.111189,-0.052262,-0.138715,-0.061449,-0.096646,0.072864,-0.089758,0.104949,-0.103162,0.030046,-0.131016,0.106816],[0.158883,0.015119,0.016547,0.014729,0.163363,0.329895,0.129097,0.20192,-0.41293,0.833671,-0.643958,0.141307,-0.082753,0.147646,-0.064865,0.036541,0.127651,-0.007301,0.365401,-0.152535,0.196376,0.184809,-0.010335,-0.017046,0.149688,-0.038341,-0.57041,-0.283961,-0.111864,0.200178,0.024456,-0.03115,0.008485],[-0.001646,-0.129196,0.029385,-0.112232,-0.045888,0.164211,-0.146098,0.044199,-0.068117,-0.093635,0.047559,0.08258,0.0326,-0.11686,-0.147603,0.003811,-0.023801,-0.077795,-0.151923,0.062431,0.011813,0.065181,-0.056802,-0.153515,0.017254,0.043242,-0.071394,-0.091452,0.156696,-0.100263,-0.020556,-0.104972,-0.136642],[-0.657275,0.405587,-0.019908,0.490128,0.210081,0.240944,-0.013659,-0.096323,0.230587,0.268918,0.133183,0.167373,0.104534,-0.05902,0.04138,0.042036,0.021512,0.283731,-0.268692,-0.138797,0.06462,0.040072,-0.052816,0.011844,0.164792,0.197305,-0.346221,-0.038434,-0.013761,0.213727,-0.083215,0.321923,0.158808],[0.654723,-0.107844,0.538526,-0.251107,-0.303877,-0.325589,0.125162,-0.139261,-0.531903,-0.502089,0.638524,0.104011,-0.108405,0.015863,-0.125965,0.015993,0.142619,-0.143413,-0.412126,0.055055,-0.191747,-0.077434,-0.046255,-0.047612,0.040548,2.615431,0.39151,0.205182,0.088015,-0.636201,-0.116553,0.096081,-0.707327],[0.177537,-0.068404,-0.002425,0.259473,0.031336,0.197118,0.375929,-0.505636,-0.544365,0.07449,-0.305083,-0.10908,-0.216458,0.118873,-0.149367,-0.08575,-0.017929,-0.130989,-0.059089,0.069566,0.038571,-0.309827,0.22929,0.201174,-0.177659,-0.682816,0.559772,0.183911,-0.309502,-0.056154,0.090434,-0.279511,0.144558],[0.614067,0.010462,0.069221,0.18718,0.014285,-0.186657,0.119468,-0.076212,0.19041,0.082764,-0.124901,0.116277,0.056554,0.14822,-0.156051,-0.119644,-0.009959,-0.139129,-0.224902,0.128091,0.113333,0.018185,0.037233,-0.033995,-0.088343,-0.516977,-0.021638,0.241169,-0.031022,-0.175611,0.038541,0.111204,-0.159862],[0.072702,0.203081,0.106384,0.014234,0.211156,-0.116664,0.231956,0.034552,-0.109504,-0.000516,0.157857,-0.0436,0.015028,0.080989,-0.078628,0.024833,0.300295,0.13643,0.079089,-0.031546,0.08218,-0.038864,0.07199,0.277256,-0.063287,1.768673,-0.494818,-0.063556,-0.004653,0.125618,-0.024801,-0.145806,0.219677],[-0.034102,-0.00293,-0.055715,0.033548,-0.107566,-0.089155,0.143567,0.026399,-0.091862,-0.151228,-0.136499,0.057155,0.015166,0.011,0.07176,-0.11337,-0.000109,0.046729,-0.092535,0.036067,0.138094,0.127644,-0.125407,-0.093425,0.016531,-0.124744,-0.138923,0.1719,-0.10094,0.021456,-0.060703,-0.152487,-0.115943]],"bias":[0.244292,0.170649,0.126815,-0.111066,0.001777,0.197187,-0.088576,0.132925,-0.072001,0.158014,-0.024193,0.0703,0.136174,0.141283,-0.009149,-0.134238,0.062405,0.17028,0.166863,-0.015018,-0.126941,-0.041069,0.155077,0.086708,-0.012593,0.041853,0.064209,-0.068642,-0.050891,0.029337,0.095969,0.136042,0.246387,-0.145205,0.048916,-0.015787,-0.013075,0.191217,0.102462,-0.327553,0.156921,-0.007848,-0.16733,-0.032863,-0.150026,0.119408,-0.265273,-0.098321,-0.114833,-0.146879,-0.055864,0.088022,-0.175307,0.109757,0.016529,0.112486,0.109105,0.208924,-0.231401,0.088523,-0.112035,-0.139259,0.00782,-0.24814,0.071756,0.086327,-0.059213,-0.012275,0.047958,-0.037687,-0.106338,0.20511,0.07878,0.144854,0.033542,-0.166619,-0.044433,0.245291,0.061612,-0.094831,-0.194051,0.014158,-0.025362,-0.0086,0.039846,0.07076,0.090609,-0.018877,-0.03611,-0.055593,0.060488,0.164701,-0.153808,-0.040884,0.129034,-0.17115,0.074472,0.0338,0.074611,0.143337,0.014584,-0.00861,0.065018,0.097565,0.333297,0.076972,0.125346,-0.162502,0.111096,-0.011762,-0.031807,0.087637,-0.096331,0.00465,0.152565,0.01836,0.020743,-0.029679,0.06191,0.006222,0.159808,0.279258,0.089323,-0.050382,-0.038417,-0.168907,-0.190225,0.209551,0.18157,-0.091452,-0.118902,-0.008112,-0.112506,-0.124406,0.192331,0.148108,-0.1672,-0.072787,-0.067293,0.021288,0.053173,0.078455,0.055705,-0.060177,0.064229,0.26836,-0.175376,0.113704,0.220602,-0.146974,0.208087,-0.086559,0.130009,-0.09297,0.154319,-0.058661,0.03936,-0.001677,-0.067596,-0.040239]},{"weights":[[0.038921,-0.016037,0.097393,-0.067238,-0.040727,0.068886,-0.033204,0.12255,0.008895,0.21788,-0.030122,0.051775,0.123899,-0.026157,-0.032779,-0.055594,0.181728,0.158777,0.076336,0.157339,-0.00768,0.153027,-0.060975,-0.040755,0.045254,-0.172318,0.044852,0.160069,-0.030813,0.10165,0.331798,0.031154,-0.052959,-0.226204,0.161749,0.125568,0.003683,-0.127383,-0.06065,0.164931,0.010082,-0.071669,0.208952,-0.017797,0.129223,0.041587,0.060478,0.021255,0.006271,-0.045487,0.021313,0.176971,-0.030699,0.101035,0.024979,0.190698,0.094653,-0.131922,-0.153143,0.329102,-0.136675,-0.072649,0.09118,-0.132788,0.222028,0.117602,0.471328,-0.063791,-0.200764,-0.059384,-0.020879,0.122356,0.22798,-0.222704,0.056772,0.655334,0.004149,0.015849,0.062285,-0.245925,-0.056773,-0.228769,-0.034646,-0.046773,0.066951,0.051957,0.077024,0.290658,0.126329,-0.114095,0.209414,0.13166,0.002349,0.185861,-0.033391,0.079667,0.072092,-0.414591,-0.033232,0.227893,0.199253,-0.059033,0.035328,0.216836,-0.081396,0.098676,0.037675,-0.071737,-0.047261,0.111629,-0.289113,-0.04542,0.030421,-0.191776,0.056991,-0.047162,0.135397,0.102176,0.076859,0.029909,0.06242,0.171711,0.052457,-0.035145,-0.031098,-0.015652,0.093202,0.020225,0.08609,0.018054,0.077176,0.189184,0.150388,-0.023189,0.039469,0.093087,-0.050236,-0.135085,0.065587,0.164763,-0.093541,0.113269,-0.034014,0.056823,-0.032099,0.204771,0.086912,0.038275,-0.027972,0.070907,-0.04979,0.015522,0.207056,-0.051257,0.208624,-0.245655,0.12147,-0.059514,0.08122,-0.031293],[0.014157,0.055465,-0.052132,0.064428,-0.052957,-0.068213,0.013919,-0.10067,-0.008623,0.00632,0.010864,-0.105152,-0.097992,-0.051093,-0.014564,0.02454,-0.056223,0.026727,0.076288,0.04264,0.042797,-0.077165,-0.003711,-0.078517,-0.068446,-0.066832,0.041246,-0.099779,0.012061,0.004563,-0.081718,0.033039,-0.011897,-0.073097,-0.020923,0.016722,-0.001036,0.049354,-0.005078,0.07733,-0.095684,-0.017669,-0.039301,-0.042946,-0.070875,0.032779,-0.106547,-0.077495,-0.0274,0.039842,0.025248,0.035737,-0.053184,-0.063825,-0.105842,0.008395,0.034278,0.029849,-0.067969,-0.077865,-0.024248,0.003394,-0.00659,-0.079814,-0.087162,-0.033449,-0.097319,-0.074728,0.02531,0.019006,-0.019814,0.00498,0.040243,0.054515,-0.028616,-0.084753,-0.014719,-0.066332,-0.06593,-0.082815,-0.054163,-0.005834,0.021194,-0.037235,-0.062727,0.015565,0.005352,-0.041351,0.036816,-0.006159,0.026929,-0.080325,-0.040025,-0.087111,-0.048199,0.024088,0.004047,0.022435,0.011806,-0.043806,-0.035982,-0.020838,-0.053251,-0.079614,0.06117,-0.053045,0.077519,-0.021208,-0.064804,-0.043507,-0.12124,-0.131843,0.017919,-0.023616,-0.047896,-0.105061,0.034627,-0.097959,0.052166,0.000372,-0.075147,0.047807,-0.032774,0.021613,0.05041,-0.070898,-0.06426,-0.105991,-0.124269,-0.037267,0.035409,-0.068108,0.035193,-0.059972,-0.067058,-0.039485,-0.058996,-0.050485,0.020941,-0.038078,0.026747,-0.081495,-0.061516,-0.030056,0.025723,0.016987,-0.033636,0.039869,-0.000791,-0.055145,-0.082089,0.03114,-0.020411,-0.025741,0.055013,-0.007521,0.008515,-0.027501,-0.011318,-0.010247],[0.199661,0.094317,0.184685,0.015496,-0.04204,0.060421,-0.173142,0.016146,-0.051076,0.206678,-0.043506,0.139258,0.134452,-0.121344,0.047576,-0.046079,0.13387,-0.037378,-0.068308,0.088352,0.032889,0.10857,0.042744,0.073609,-0.261424,-0.087408,0.030301,0.076773,-0.117198,-0.017164,0.177619,0.053066,0.152971,-0.057575,0.100731,0.055481,0.01326,-0.001003,0.037719,-0.036709,0.166699,-0.064932,0.098138,0.080192,-0.029546,-0.056349,-0.023174,-0.163963,0.032734,0.0563,0.019457,-0.057198,0.012509,0.049366,0.008722,0.097984,0.121376,-0.019579,-0.178752,0.322155,0.021429,-0.02928,0.084294,-0.017745,0.023725,0.060725,0.094237,-0.095289,-0.025586,-0.003821,-0.349263,0.13565,0.170856,-0.068366,0.05244,0.50235,-0.076286,-0.390411,0.068573,-0.428259,-0.011857,-0.023894,-0.002659,-0.018705,0.021224,0.153036,0.187228,0.144156,0.157218,0.018697,0.122373,-0.010277,0.021806,0.163816,0.043845,-0.056324,0.051681,-0.184367,-0.190119,0.201988,0.097933,-0.042683,0.148409,0.447497,0.017889,0.188868,0.038638,0.061029,0.044264,0.023256,-1.019572,0.061865,0.020715,-0.144236,0.020684,0.079646,0.158345,0.087049,0.20407,0.148211,0.092773,0.196076,0.029925,-0.039517,-0.017189,-0.027339,-0.051681,0.004013,0.161342,0.055838,0.069952,0.156481,0.014862,-0.040893,0.204325,0.009905,-0.104836,0.0426,0.039101,0.065424,-0.154426,0.00257,0.033406,0.031378,0.139766,0.0866,-0.044041,-0.084486,0.013057,0.007245,0.008574,0.072319,0.202245,-0.020915,0.225173,-0.36479,0.062462,-0.114653,-0.020576,0.060556],[0.006103,-0.050909,-0.019056,-0.031368,-0.007623,0.034504,0.217896,0.081148,0.016651,0.040572,0.070661,0.021112,0.294399,-0.051067,-0.040261,-0.039264,0.160338,0.178888,-0.035626,0.012821,-0.018418,-0.017874,0.13679,-0.048784,0.259355,-0.054578,-0.066314,0.007982,0.150198,0.032674,-0.374344,0.071061,-0.083482,-0.066618,0.069912,-0.035084,-0.003451,0.091859,-0.013295,0.307112,-0.100345,0.189486,-0.157343,0.02244,-0.072806,0.059938,0.536719,0.318139,-0.06933,-0.026129,-0.04278,0.104609,-0.007102,-0.125518,0.083767,0.029209,0.006294,0.226108,-0.072465,-0.090175,-0.057789,0.019815,0.07127,0.291484,-0.210963,-0.002907,0.072911,0.042413,0.036968,0.132741,0.232349,-0.121721,0.113216,0.289774,-0.175098,-0.23441,0.003691,-0.01955,0.560203,0.207718,0.080803,0.061745,-0.032203,0.066435,0.008658,-0.056293,-0.008742,-0.051411,-0.034905,0.150558,0.013351,-0.087337,-0.056153,-0.042927,0.130788,0.247953,-0.028386,0.149856,0.192976,-0.029971,0.119115,0.211401,-0.101717,-0.371282,-0.282763,-0.238683,-0.089379,0.024626,0.112384,-0.134283,-0.099625,0.200853,-0.033645,-0.124762,0.105702,-0.208301,-0.065562,0.147871,-0.136232,0.046615,-0.036606,0.017839,0.017808,0.052754,0.078471,0.004204,-0.138916,0.031311,0.085804,0.048703,-0.072817,-0.075377,0.043058,-0.007948,-0.03234,0.190244,-0.02091,0.030557,0.000326,0.045398,0.33485,0.225682,0.006528,-0.018481,0.232252,-0.078439,0.029313,0.03644,-0.009468,-0.176285,-0.033959,-0.00645,0.126811,0.043037,0.168606,0.251913,0.109101,0.212668,0.060128,0.068909],[0.080641,0.326564,0.077301,0.068155,0.059301,0.045285,-0.098923,0.444765,0.00678,0.190201,0.002984,0.418654,-0.084428,0.213139,0.034171,-0.020135,0.110679,0.403908,0.029752,0.18405,-0.045307,-0.016066,0.117318,0.049321,0.786962,0.272716,-0.008432,0.320035,-0.05905,0.331758,0.299077,0.070309,0.036506,-0.266126,0.193057,0.278535,0.556324,-0.018266,-0.026425,-15.336275,0.07993,-0.009533,0.304395,-0.034387,0.080153,0.060168,-2.96588,0.125644,0.038478,0.010508,0.072205,0.148772,-0.013463,0.25619,-0.172103,0.005554,-0.209295,0.182165,-0.618592,0.074177,-0.067366,-0.006351,0.354214,-0.161691,0.247166,0.331279,0.23213,-0.269714,-0.046479,-0.559988,-0.414436,0.121467,0.06846,0.270966,-0.007893,-0.351703,-0.050794,1.108094,-0.07748,-0.005986,-0.452128,-0.254792,-0.059441,-0.590215,0.329968,0.10434,0.300712,0.209455,0.104626,0.220578,-0.026886,0.441789,0.015053,0.208421,0.00748,-0.93645,0.032282,-7.587003,0.355018,0.337603,0.239794,-0.447851,0.320105,-0.286582,0.311427,0.199652,-0.079037,-0.067517,0.15679,0.148807,-1.643112,-0.573694,0.014884,0.191709,0.341693,-0.123316,0.402982,-0.057296,0.276774,-0.684167,0.360137,0.08158,0.379558,-0.582905,-0.179128,-0.00615,-0.603381,0.260075,0.174706,-0.027097,0.044494,-0.160951,0.055463,0.006411,0.44101,0.249626,0.036804,0.110142,0.070965,0.134847,0.119949,0.174857,0.055061,-0.039081,-0.016401,0.024138,-0.011413,-0.015751,0.31898,0.069986,-0.049562,-0.05814,0.316588,0.028498,0.075948,-0.551192,0.279279,-0.442565,0.228728,0.020264],[-0.027643,0.006655,-0.03033,0.053369,0.002266,-0.083619,-0.089986,0.001453,-0.003035,0.029198,0.038512,0.015133,-0.09022,-0.086809,-0.040668,-0.074822,0.040939,0.063611,-0.050923,0.068469,0.035366,-0.031088,-0.085752,-0.046142,0.046134,-0.080316,-0.027909,-0.088209,-0.003768,0.009179,-0.014833,-0.042366,0.030394,-0.078589,-0.083962,-0.065708,0.026627,0.028012,0.011336,-0.009651,0.062477,-0.053933,0.031973,-0.002138,-0.021534,-0.011867,0.008188,-0.069403,0.04278,-0.029026,-0.010713,0.038435,-0.060156,-0.030152,-0.057403,0.033253,0.017024,-0.007025,-0.005357,-0.047141,0.002994,-0.0727,0.054084,0.062313,0.052603,-0.061267,-0.060728,-0.015263,-0.050353,-0.078154,-0.058644,-0.01028,0.029405,-0.009523,-0.065408,-0.006515,-0.019806,-0.034705,-0.027374,-0.013661,0.028546,0.006932,0.002499,0.036542,0.017952,-0.025254,0.042286,0.05868,-0.077963,-0.063659,0.045789,-0.035908,0.024961,-0.028398,0.03805,-0.047325,-0.057006,0.022883,-0.075727,0.063948,0.036138,0.035155,-0.040097,0.003255,-0.058744,0.060994,0.013952,-0.07285,0.019332,0.049863,0.001034,0.016106,0.008107,0.03511,0.030992,0.062817,-0.061744,-0.053609,0.009871,-0.004258,-0.080429,-0.029773,-0.036608,-0.060627,-0.068629,-0.005571,-0.051659,-0.060015,0.04011,0.036934,-0.061628,-0.001076,-0.085134,-0.021331,0.010585,-0.061823,0.048754,0.008873,-0.001781,-0.045119,0.002991,0.0261,-0.074012,-0.0901,-0.053871,-0.010939,-0.03926,0.03406,0.045219,0.000926,-0.085358,-0.026485,0.002367,-0.007981,-0.050335,-0.022948,0.012483,0.00958,0.023267,-0.069644],[-0.625547,-0.062289,0.045216,-0.048435,-0.096777,0.267247,-0.250113,0.050485,-0.010968,0.074265,0.072554,0.117869,0.102109,-0.161352,0.0825,0.045412,0.196263,-0.101498,-0.074503,-0.04326,-0.067569,0.128629,-0.409679,0.012486,0.032295,-0.286983,0.137961,0.384341,0.062576,0.022285,-0.16753,-0.046434,-0.07555,-0.25325,0.268947,0.074771,0.075036,-0.235292,-0.049813,0.135615,-0.181028,-0.227362,-0.009111,0.039748,0.356547,0.043142,0.341833,-0.751244,-0.029299,-0.02689,0.067925,0.070957,0.097123,-0.057233,-0.27425,0.173917,0.359086,-0.683639,-0.115007,0.353865,-0.135246,-0.076271,0.114156,-0.017013,0.074115,-0.104097,0.247175,0.109534,-0.19006,0.020945,0.037886,0.21558,0.000511,-0.102493,0.017765,0.630394,0.007041,-0.443413,0.207003,-0.796775,0.053208,-0.073143,0.069973,0.11938,-0.106412,0.30594,0.015551,0.127755,0.237764,-0.259227,0.12423,0.125597,0.082235,0.216784,0.16683,0.030838,0.035243,-0.491624,-0.120314,0.184928,0.068424,-0.094326,-0.056664,-0.075524,-0.31485,0.641029,0.051845,0.068444,-0.172783,0.009457,-0.594432,-0.07422,0.024818,0.080222,0.302042,0.086084,0.201774,0.483027,-0.082923,0.391596,-0.065829,0.114073,0.344804,-0.111631,0.076692,-0.045898,-0.037265,-0.117451,0.239555,-0.04185,-0.005398,-0.021556,0.089393,0.02194,-0.036038,0.01582,0.027101,-0.372564,-0.025075,0.064812,-0.125943,-0.197551,0.064303,0.009189,0.090782,0.259247,-0.065857,0.080296,-0.188106,-0.034976,-0.110075,0.037796,0.165653,0.074498,-0.005455,-0.17419,0.037583,-0.175973,-0.125668,-0.057036],[0.048341,-0.013293,-0.080533,-0.000224,0.058137,0.057556,0.011611,-0.088576,-0.067131,-0.090335,-0.063627,-0.060786,-0.079845,0.007512,0.044125,0.003355,-0.067637,-0.047082,0.046048,0.019195,-0.012873,0.016663,-0.090787,-0.066288,0.004827,-0.048342,0.010977,-0.045681,0.021301,0.014121,-0.078257,-0.030967,-0.078893,0.047368,-0.047555,0.015071,-0.053563,-0.011111,0.059653,-0.022383,0.037077,-0.00478,-0.013936,-0.075011,0.034405,-0.040998,-0.020067,0.059984,-0.05077,0.019103,0.059149,0.043735,-0.08115,0.042509,0.054896,-0.026685,-0.018344,-0.05476,-0.057046,-0.046605,-0.091408,0.053512,-0.03808,-0.0376,-0.053891,0.005046,-0.066701,-0.052484,-0.045877,-0.042434,-0.068497,-0.075096,-0.043445,0.0788,-0.036457,0.049858,0.05565,0.021435,-0.056694,0.039908,-0.009281,0.069147,-0.063455,0.064793,-0.026998,-0.071075,0.002182,-0.080393,0.019337,-0.046719,0.012536,-0.078098,0.022209,0.026455,-0.007204,-0.025579,-0.044567,-0.044483,-0.02754,-0.073534,-0.039271,0.05314,-0.011543,-0.064924,-0.090551,0.005662,0.001681,0.022729,0.009511,-0.024388,-0.012803,-0.009832,0.029373,-0.045101,-0.058547,-0.045733,0.05614,-0.071895,0.052978,0.033125,0.041113,-0.05012,0.007253,-0.03963,0.007805,-0.013651,-0.002809,0.023862,0.024396,0.039443,0.010016,0.039019,0.028637,-0.00902,-0.048227,-0.087184,0.046313,0.046627,-0.065064,0.020818,-0.008884,0.009105,0.048441,-0.033292,-0.057151,-0.057714,0.053087,-0.051215,-0.053456,-0.038183,0.044212,0.062978,0.05241,0.037849,0.056149,0.042246,-0.090983,-0.05636,-0.08155,0.02493],[0.065438,-0.006727,-0.073242,-0.071234,-0.049891,0.032217,-0.052006,-0.042301,-0.06395,0.015529,-0.039395,-0.052824,-0.027963,0.071926,-0.043763,-0.035547,-0.065785,0.071981,-0.057555,-0.080213,0.062089,-0.006396,0.019919,0.05395,0.068647,0.058199,0.021455,-0.00091,-0.026867,-0.072039,0.054987,0.042462,0.026064,-0.03717,-0.011688,0.051886,-0.004964,-0.026408,-0.074753,-0.056656,0.063617,-0.027164,0.042895,-0.017236,0.029519,-0.072249,0.012674,-0.021419,0.070896,0.057395,0.003109,0.02392,-0.012215,0.057648,-0.008643,-0.011312,0.014414,-0.072313,-0.06,0.042916,0.056278,-0.071787,0.053373,0.034677,0.003312,0.020861,0.063578,-0.002525,0.037207,0.038425,0.011249,0.068349,0.007082,0.047457,-0.057033,-0.053175,-0.006906,0.000525,-0.056458,0.041026,0.048301,-0.059635,0.040401,-0.012698,0.052003,-0.053613,-0.026338,0.032288,-0.084159,0.071977,-0.048805,-0.082631,0.058851,-0.043511,-0.024433,-0.041895,0.073452,-0.010162,-0.05972,-0.065745,0.014342,0.003774,0.048007,0.020847,-0.068853,-0.023682,0.001826,0.063102,-0.067293,-0.011776,-0.066581,-0.039687,-0.073583,0.075195,-0.076431,-0.035657,0.033022,-0.035699,-0.013369,-0.029551,0.000223,-0.026856,-0.08095,-0.055948,0.018855,0.052313,-0.035657,-0.037353,-0.072325,0.004647,0.005162,0.043839,0.045848,-0.026924,0.05389,-0.003954,0.049672,0.00818,0.025718,-0.084906,-0.072165,-0.067931,-0.061114,0.076758,0.040084,-0.062861,0.071071,-0.051893,0.032002,-0.004078,0.007213,0.045672,-0.001007,-0.049647,0.037979,-0.027367,-0.012076,-0.044547,-0.03148,0.012755],[0.159832,-0.517811,0.045936,-0.017436,0.178944,0.213504,0.200304,-0.142128,-0.128422,-0.28322,0.065926,0.047739,-1.877812,-1.302025,0.006213,-0.059612,-0.071362,0.055851,0.072609,0.113806,-0.048649,0.052064,-0.134233,0.021918,-0.69045,0.275041,0.075172,0.139585,-0.070015,0.007898,0.622766,0.465796,-0.274893,-0.47478,0.091834,0.048366,-0.165722,0.173927,-0.057487,-0.496443,0.413386,0.212639,0.179025,-0.031194,0.21359,-0.010819,1.392856,0.013467,0.052168,-0.029215,0.024031,-0.246261,0.014683,-0.232842,0.073754,-0.13944,0.292157,-0.628111,-0.38216,0.195941,0.032516,-0.043442,0.171197,0.084313,-0.091204,0.302228,2.181173,0.154592,0.123809,0.106677,0.972569,-0.394421,-0.264563,-0.267432,0.228216,0.878823,-0.017971,-0.535379,-0.309627,0.837107,0.087466,0.113313,0.069644,0.272887,-0.148885,-0.539807,-0.32235,-0.00562,0.256754,-0.26636,0.02185,-0.846353,-0.019786,-0.005599,-0.090332,0.221664,-0.007758,-0.301436,-0.139863,-0.304338,-0.1218,0.146244,0.148727,0.621637,-0.791226,-0.502673,0.037086,0.0746,0.216057,0.071291,1.679453,-0.369946,-0.013226,0.215329,0.281935,-0.193713,0.103384,-0.353899,0.234677,0.483526,0.050731,0.068946,-0.022362,0.417039,0.090255,-0.043412,0.297925,-0.275504,-1.239798,-0.053073,-0.009888,0.162163,0.721797,0.072709,0.009301,0.084625,-0.1018,0.349451,0.07112,-0.139325,0.089275,0.133725,0.04993,0.096661,-0.48839,-0.176817,0.04899,-0.072954,-0.60121,0.077294,0.26711,0.021737,-0.47771,-0.024086,-0.271552,-0.072006,0.642136,0.172187,-0.334765,-0.00983],[-0.066905,0.021434,-0.06478,0.003634,0.197986,0.20757,0.22297,0.142026,0.029746,0.096983,0.012234,0.064253,0.153341,0.35055,-0.01141,0.007826,-0.09996,-0.022151,-0.07525,-0.019119,-0.062205,0.156737,0.005463,-0.00302,0.114266,-0.039055,0.080746,0.005228,0.184956,0.175539,0.170179,-0.017042,-0.101369,0.082332,0.255928,0.047853,0.011357,0.033228,0.065931,1.05849,-0.002033,0.016523,-0.11259,0.028022,-0.018353,-0.06577,0.002007,0.226524,-0.070926,-0.072734,-0.031865,0.071218,-0.020121,0.087478,-0.203492,-0.030768,0.105149,0.149489,-0.12593,0.105006,-0.06162,0.036156,-0.118944,0.178486,-0.029604,-0.131185,-0.077132,0.052539,0.033513,-0.02718,0.706085,-0.124377,-0.157138,0.106635,-0.048907,-0.439447,-0.010888,0.756069,0.090826,0.01343,-0.036076,-0.062713,0.048394,0.047932,-0.000857,0.030885,0.021669,0.179901,0.10701,-0.169256,-0.07737,0.040814,0.019715,0.03258,0.081949,0.272413,-0.072457,-7.773943,-0.018757,0.356423,0.061161,-0.107101,-0.030999,-0.659711,-0.128709,0.095824,-1.947529,0.058506,-0.053306,0.022456,0.873891,-0.099207,-0.052459,0.140122,-0.110634,-0.216879,0.00072,-0.206604,0.049344,0.022091,0.047932,0.013414,0.278704,-0.058808,-0.117054,-0.052431,0.104637,-0.167232,-0.101437,0.055872,0.074255,-0.099523,0.20395,0.043779,0.149491,0.045279,0.07999,-0.015184,-0.015163,0.056303,0.176972,0.212776,-0.026867,0.102492,-0.019066,-0.024941,0.014992,-0.004508,-0.08685,0.117179,0.108786,0.01616,0.061354,0.041115,-0.074577,0.182359,0.184468,0.061009,0.139675,-0.016612],[-0.45742,0.259575,0.091571,-0.010977,-0.175682,-0.065465,0.018593,0.235904,-0.074644,0.041448,-0.039455,0.001062,1.291249,0.034857,-0.032368,0.080081,0.149966,0.229077,-0.075956,0.104178,-0.016969,0.185054,0.022251,0.04183,0.587219,-0.416108,0.196679,0.148479,0.123216,-0.019863,-0.152924,-0.093712,-0.058999,0.108129,0.224346,0.054754,-0.11603,-0.29467,-0.000411,0.022107,0.138734,-0.345072,0.240199,0.014469,0.001385,-0.040544,0.293599,-0.067217,-0.059004,0.049814,0.023625,0.211941,-0.051234,-0.00526,-0.319624,0.057542,0.243947,0.162718,0.07281,-0.184542,0.021513,0.060646,0.120742,0.066363,0.086092,0.02646,0.273078,-0.011541,-0.04703,0.019834,1.051703,0.35957,0.251352,0.245533,0.112708,0.053021,-0.072932,-0.044064,0.221724,-0.362551,0.06968,-0.142318,0.04337,0.055723,-0.11533,0.130316,-0.090448,0.050612,0.122493,0.021633,0.136948,-0.073918,-0.015694,0.100932,0.169778,0.147197,0.062392,-0.103857,-0.372752,-0.240088,0.073846,0.11055,-0.211473,-0.328864,-0.320145,0.266432,-0.435407,0.017456,-0.106842,-0.071047,0.889728,0.18179,-0.010919,-0.09959,0.116649,-0.502028,0.38461,-0.377836,-0.244551,-0.131699,-0.059516,0.161059,-0.12378,0.104953,0.11284,-0.061812,-0.115306,-0.122299,0.018899,0.069526,0.06102,-0.045224,-0.270159,0.028343,-0.079633,-0.153569,0.001145,-0.033556,-0.018667,0.046951,0.235599,-0.297236,0.011956,0.014306,0.153654,0.009161,-0.0629,0.046118,-0.138151,0.182751,-0.039911,0.05859,0.221471,0.025615,0.002498,0.14845,0.062075,0.031623,0.264154,0.050484],[0.044295,-0.016985,0.104556,-0.050591,-0.108029,0.118035,-0.04591,0.043923,-0.026742,0.112046,-0.062124,-0.025256,-0.144594,-0.240836,0.040535,-0.06489,0.181948,0.11253,0.025908,0.037109,0.011268,0.186345,-0.063676,-0.013823,0.04571,-0.195436,0.113568,0.222646,0.258566,0.097716,0.445014,-0.017875,0.057553,-0.204401,0.323408,0.128927,-0.002831,-0.140001,0.056874,0.355805,0.063736,-0.138282,0.115355,0.012124,0.093276,-0.033951,0.381666,-0.176816,-0.058117,-0.007071,-0.041232,0.181853,0.09592,0.042235,-0.032827,0.188722,0.13527,0.136816,-0.213076,0.269179,-0.154793,0.048479,0.255666,0.001753,0.181583,0.276712,0.290397,-0.035133,-0.239848,-0.012576,-0.147925,0.039451,0.152686,-0.04669,-0.028748,0.570431,-0.039625,-0.262165,0.137115,-0.088525,-0.090174,-0.239657,0.050651,-0.000705,0.024149,-0.009982,-0.008616,0.114516,0.114091,-0.021723,0.279668,-0.003015,-0.010102,0.098548,0.019095,0.082479,0.074451,0.15717,-0.099557,0.012082,0.117896,-0.12629,-0.037791,0.091561,-0.303038,0.074817,0.018782,-0.002209,-0.08124,-0.04203,-0.523196,0.001976,-0.047983,-0.162588,0.21302,-0.227785,0.155054,-0.223598,-0.072547,-0.047332,0.10281,0.246565,0.076649,-0.057059,-0.143028,-0.068202,0.021947,0.033716,0.183885,-0.058761,-0.024753,0.078548,0.078161,0.075508,0.132194,0.054587,0.055482,-0.089522,0.049772,0.057884,-0.023736,0.070033,-0.038404,-0.025084,0.018212,0.211732,-0.058154,0.101212,-0.07765,0.071014,0.009006,-0.004503,0.202796,0.050756,0.300608,-0.235835,0.285166,-0.104352,0.01945,0.010741],[0.010239,-0.046361,-0.02383,-0.074085,0.098241,-0.061871,0.288946,0.212158,-0.01862,-0.03843,0.025524,-0.017439,0.342556,-0.090862,0.055678,0.025577,0.315795,0.116502,0.01209,0.190662,0.066071,0.120345,-0.147421,-0.006715,0.347226,0.184801,-0.006907,0.156779,0.234176,0.019777,-0.044275,0.166011,-0.144959,0.113944,0.371509,0.053862,-0.163651,-0.034262,-0.069616,-0.036174,0.124385,0.077479,0.029075,0.091752,-0.062291,-0.06233,0.423478,0.356026,0.045838,-0.053808,0.030634,0.212363,0.007481,-0.052983,-0.085822,-0.028901,0.12257,0.227027,0.200955,0.055594,0.10644,-0.007828,-0.015843,0.250302,-0.073506,0.03316,0.360102,0.263641,0.156808,0.304029,0.431901,0.012591,0.092354,0.254741,0.00986,-0.208915,-0.006885,0.129592,0.204458,0.610659,0.215475,0.11675,-0.020357,0.191995,0.032505,-0.227557,-0.080969,0.175874,0.038591,0.006735,0.039605,-0.047057,0.017842,-0.022458,0.166254,0.321603,-0.065153,0.366375,0.088317,0.056084,0.162317,0.245646,0.067319,-0.676362,-0.512295,-0.03712,-0.555449,-0.016545,-0.02868,0.083733,0.830762,0.435912,-0.035314,-0.009782,0.101176,-0.34575,0.066596,0.181498,-0.079737,0.248723,-0.006255,-0.032186,0.000462,0.315123,-0.027589,-0.068091,0.152904,-0.153902,-0.025137,0.028596,0.021599,0.102416,-0.043053,-0.038669,0.172152,0.044357,0.082369,0.188797,0.066503,0.039063,0.193309,0.255554,0.044391,0.085787,-0.038383,0.035759,0.018049,0.040102,0.02785,0.041818,-0.092773,-0.049371,-0.015298,-0.062312,-0.047744,0.519008,0.266069,0.248872,0.09658,-0.024058],[-0.07348,0.052745,-0.029766,0.017118,-0.014531,-0.031598,-0.050205,0.004457,0.052934,-0.060014,0.07752,-0.001902,-0.00241,-0.069036,0.000859,-0.003116,0.006645,0.014593,-0.059928,-0.002493,0.046579,-0.061524,-0.060045,-0.070051,-0.07954,-0.037185,-0.005475,-0.076953,-0.070106,-0.011417,-0.030071,0.009719,-0.015565,-0.085252,-0.09017,-0.051245,0.002347,0.039756,-0.023338,0.05978,0.024724,-0.052487,-0.051775,0.01382,-0.052222,-0.065103,0.012217,0.057797,-0.027246,-0.015368,-0.070475,-0.086007,0.0507,0.034781,0.040374,-0.073575,0.061428,-0.060906,-0.034663,0.05792,-0.090692,0.052286,0.032882,-0.033624,-0.002804,-0.030673,0.019106,-0.044322,-0.078462,0.049131,0.056626,-0.076779,0.05645,-0.032067,-0.03926,-0.061538,0.00598,0.055121,-0.064235,0.046311,0.01162,-0.077689,0.027541,0.046563,-0.019961,0.001629,0.021576,-0.043622,-0.017965,0.010248,0.036733,-0.075379,-0.003258,0.06,0.030573,-0.028278,0.004547,-0.025491,-0.083164,-0.088356,-0.094941,0.001808,0.04653,-0.035556,-0.030505,0.039192,0.033135,0.054021,-0.054895,-0.098102,-0.019822,0.048401,0.055677,-0.000342,-0.065784,-0.031552,-0.007232,-0.095617,-0.012327,0.059049,-0.019933,-0.011028,-0.042246,0.007665,-0.039824,0.016906,0.054655,-0.083617,-0.059136,0.03945,0.044833,0.003521,-0.000981,0.057385,0.05223,0.058851,-0.051597,-0.02976,-0.029461,-0.064861,-0.051946,0.00445,-0.042821,0.056261,-0.01082,0.032142,0.012211,-0.005425,0.031361,-0.056304,-0.00716,0.024733,-0.094446,-0.042987,0.022736,-0.090136,-0.084728,0.010395,0.031121,-0.060309],[0.161802,-0.166096,-0.030858,0.04171,-0.288874,-0.030497,-0.262329,0.268548,-0.010382,-0.101299,-0.067804,0.186711,1.1516,-0.2762,-0.076157,-0.067518,0.751497,0.027809,0.025692,0.183081,-0.071143,-0.182096,0.119436,-0.017349,1.98918,0.332522,-0.068295,0.067212,-0.304138,-0.189191,-1.024076,0.172194,-0.020668,-0.019103,-0.232261,0.026916,0.309047,0.19413,-0.062562,-0.793043,-0.028777,-0.648468,0.526893,0.074375,0.038135,0.071151,-4.640475,0.172097,-0.040406,0.000525,-0.129882,-0.098911,0.006839,0.08625,-0.393435,0.087116,0.192869,0.020176,0.518146,-0.776041,-0.109644,0.058146,0.001288,-0.012026,-0.142678,0.090401,-1.360574,0.03054,-0.002448,0.122705,0.403721,0.195212,-0.074214,0.057526,0.168485,-0.625167,0.031819,-0.942574,1.328913,0.959944,0.054501,0.034468,-0.052956,0.058506,-0.066676,0.059367,0.017659,-0.395171,0.002565,0.411138,0.124451,0.07991,-0.014677,0.145512,0.389398,-0.112378,0.067618,0.514365,0.020498,-0.134825,-0.071059,0.166409,-0.472728,-0.219872,0.195519,0.052806,1.366506,0.060804,0.034485,0.170598,-0.176565,0.258226,0.057932,-0.085074,0.021427,-0.087898,0.183087,0.140248,-0.072641,-0.019831,-0.007674,0.045986,0.140497,0.032981,0.103686,-0.040194,-0.633706,0.301318,0.298823,0.070123,0.039364,0.046947,-0.142008,0.01646,-0.149972,-0.119887,-0.064482,0.208799,0.065372,-0.007519,0.476048,-0.14778,0.015258,-0.32558,0.22899,0.099078,-0.030922,-0.060423,0.053485,-0.030421,0.02786,0.046933,0.269451,0.03563,0.001542,0.214775,-0.11931,0.097724,0.112056,-0.009541],[-0.01291,-0.098506,0.021257,-0.057195,-0.098403,0.060556,-0.007555,-0.104911,-0.024874,-0.071236,0.010232,-0.114427,-0.079618,-0.035614,-0.026407,-0.040283,-0.07597,-0.058995,-0.015254,0.019963,-0.052174,-0.115481,-0.031983,0.065838,-0.057548,-0.055843,0.00245,-0.049025,-0.070577,-0.006053,0.046297,0.04782,0.053723,-0.006183,0.001879,-0.123703,0.035217,-0.007429,0.045441,0.041198,-0.050109,-0.107088,0.03542,0.046833,-0.042478,0.036478,-0.00831,-0.110129,0.064779,0.046601,-0.012208,-0.011625,0.003959,-0.045418,-0.081572,-0.022138,-0.028247,0.026214,-0.073199,0.023717,0.008392,0.000452,0.032556,-0.033589,-0.060437,-0.078279,-0.034459,-0.061658,-0.084527,-0.061061,-0.008525,-0.039348,-0.027536,-0.038084,-0.048278,0.011307,-0.051963,-0.003064,-0.071612,-0.041103,-0.108651,-0.018607,-0.061726,-0.066154,-0.111589,0.060131,0.025044,-0.088011,0.012791,-0.028632,-0.069272,-0.073946,0.01804,-0.083569,-0.119748,0.030773,0.002809,0.029178,-0.074131,-0.000299,0.009796,-0.031035,-0.121714,-0.064675,-0.06789,-0.011474,-0.040829,0.031824,0.021426,-0.003906,-0.070682,-0.063755,0.026026,-0.088058,-0.030117,-0.122813,-0.063745,-0.045349,0.024504,-0.047373,0.004867,0.009254,-0.020773,-0.028876,-0.068721,0.045921,-0.013174,-0.045583,-0.115408,-0.008205,-0.011793,-0.046264,-0.076565,0.075212,-0.053497,-0.023079,-0.053162,-0.060986,0.024554,-0.048769,0.010715,0.007901,0.062194,-0.078488,-0.084638,0.062262,0.015531,-0.048665,-0.090978,-0.020931,-0.05852,0.036598,-0.0382,0.075554,-0.002654,-0.03034,0.014336,-0.030542,0.021443,0.065885],[0.014104,-0.142962,-0.014864,-0.0368,-0.006107,0.084754,0.123705,-0.062188,0.05942,-0.049303,-0.057615,-0.105768,-0.010313,-0.057231,0.05494,-0.020255,-0.085853,-0.065601,-0.007656,0.002157,0.012764,-0.260094,0.064029,-0.077496,-0.315917,-0.09794,-0.027605,-0.098274,0.092323,-0.015912,-0.024285,-0.1116,-0.000328,0.072659,-0.01495,-0.047989,-0.03523,0.063404,-0.002735,0.006836,-0.075287,0.099608,-0.002673,0.023815,-0.044107,0.047078,-0.04896,-0.178996,-0.05901,-0.017004,-0.071792,0.05452,0.055309,0.006911,-0.063299,-0.082327,-0.012998,-0.078133,-0.079063,0.042717,0.00909,-0.002745,-0.05388,0.038597,-0.107972,-0.10765,-0.133425,-0.054178,0.076453,-0.000232,0.28228,0.034977,-0.072999,-0.137218,-0.0041,-0.032807,-0.071487,-0.167336,-0.137294,0.202216,0.043994,-0.042023,0.012457,-0.036966,-0.090494,0.068593,0.006938,-0.032401,0.124503,0.020251,0.076524,-0.069418,-0.061797,0.038162,0.074472,0.015815,-0.074615,0.029143,0.102525,-0.12819,0.066387,0.001033,0.008935,-0.126495,-0.038633,-0.268437,-0.026741,0.024786,-0.018013,-0.012684,0.182489,0.021818,-0.071081,-0.079617,-0.112085,0.075544,0.103446,-0.054018,-0.001886,0.163575,0.034113,-0.066604,-0.014206,0.121987,0.067933,-0.05232,0.047125,0.052227,-0.097243,0.001093,0.041214,-0.073407,0.039989,0.044187,-0.093281,-0.114141,-0.075568,0.189453,-0.060791,-0.006707,0.13593,0.008677,-0.023197,0.045464,-0.004795,0.04377,0.01729,-0.020357,-0.131886,-0.11857,0.097033,-0.006898,-0.046615,0.014429,0.011425,0.158212,-0.152214,0.079854,-1.5e-05,0.009927],[0.041213,0.02081,-0.0807,0.041711,-0.097334,0.021653,-0.030647,-0.067237,0.05218,-0.078198,0.021434,-0.058035,0.024222,0.01255,0.067505,0.051996,-0.044077,0.042929,-0.067353,0.040494,0.033678,0.027125,0.030142,0.007647,0.04394,-0.028705,-0.05687,-0.05892,0.033017,-0.076113,-0.021274,-0.001389,-0.063046,-0.024161,-0.049183,-0.085682,-0.075564,-0.007881,-0.010356,0.032096,-0.076157,-0.069401,-0.088298,-0.008594,-0.063607,0.061662,-0.051678,0.037027,0.025828,-0.033805,0.003745,-0.001788,0.045713,0.042879,0.035667,0.018004,0.052704,0.013968,0.042723,-0.064617,-0.028385,0.017453,0.041235,-0.008818,-0.103857,-0.004615,-0.00982,-0.087357,-0.104068,-0.058841,-0.08813,-0.109872,-0.008218,0.053136,0.007892,-0.095626,0.035527,-0.057812,-0.052289,-0.084493,-0.028389,-0.082355,0.016584,-0.00573,-0.040117,-0.068511,-0.058905,-0.073893,0.042855,-0.107937,0.048019,-0.000757,0.039299,-0.094965,0.058617,0.019656,0.077343,-0.013981,-0.002815,-0.017003,0.003996,-0.017559,0.014827,-0.009672,-0.009357,-0.05255,-0.04899,0.044602,0.029878,-0.057562,-0.084958,-0.009326,-0.003924,-0.087487,-0.023026,-0.013475,-0.057207,-0.062404,-0.042346,-0.066708,-0.054401,-0.103106,-0.000245,-0.052383,0.031035,0.004514,-0.087797,-0.078699,-0.00426,-0.047096,-0.041171,-0.005749,-0.064654,0.032708,-0.072514,-0.070359,0.024233,-0.056822,0.049295,0.019934,-0.050927,-0.022583,0.035043,-0.055228,0.010287,-0.041721,-0.036999,-0.011917,-0.096595,-0.008393,-0.012962,0.01357,-0.000218,-0.017105,0.044578,-0.028199,-0.053037,0.013394,-0.047212,-0.04495],[0.015977,0.040299,-0.017408,-0.003046,-0.034282,0.021947,-0.011895,0.020271,-0.017457,0.047509,0.067554,0.060116,0.034664,-0.010023,-0.017925,0.060313,0.038962,-0.084842,0.051228,-0.067462,0.060774,-0.060794,-0.086698,0.071931,0.034089,0.034032,0.01087,0.00236,-0.039819,-0.02218,-0.008241,-0.090952,-0.032091,-0.044515,0.056473,-0.07413,-0.039333,0.003512,0.024035,-0.057679,-0.048155,-0.059901,0.003056,0.066126,0.015752,0.036131,-0.081262,0.057799,-0.015967,0.062504,0.035367,-0.06978,-0.037191,-0.023969,-0.091941,-0.010867,-0.048705,0.044923,-0.059637,0.050447,-0.084932,-0.065177,-0.028642,0.002567,-0.057488,-0.078739,-0.035813,-0.051931,0.059085,0.03259,-0.069197,-0.001672,0.03061,-0.076064,0.061276,0.050433,0.040014,-0.056836,-0.08672,-0.033669,-0.07089,0.02263,0.048372,-0.08162,0.014422,0.04244,0.041848,-0.092062,0.029036,0.005799,0.032199,0.007237,-0.086732,-0.025315,-0.055635,-0.075932,-0.032251,-0.0461,0.041338,-0.05326,-0.074652,-0.052477,0.013861,0.030939,0.030076,-0.071371,-0.066776,-0.039707,-0.065203,-0.001893,0.035288,-0.058516,0.028278,0.018336,-0.042933,0.011309,-0.021917,0.001687,0.051031,0.009445,-0.054468,0.023826,0.045959,-0.032446,-0.008967,0.071796,-0.047033,0.063194,-0.00958,-0.055211,0.002504,-0.081077,-0.031629,0.006982,0.04092,0.021083,-0.05327,-0.085956,-0.031096,-0.03005,-0.012698,0.001704,0.010794,0.027868,-0.007162,-0.011049,-0.014239,0.063335,-0.075597,-0.080295,-0.00138,-0.029196,-0.060773,0.022294,-0.047958,0.017957,0.064194,-0.056714,-0.088899,0.056681],[-0.072098,-0.001994,-0.008577,-0.050005,-0.060519,-0.129651,-0.040181,-0.0643,-0.049163,-0.031199,0.076015,-0.123923,0.008284,-0.050559,-0.046841,0.050529,-0.120489,0.023352,0.049683,-0.028336,-0.025725,-0.050474,-0.018231,-0.002506,0.01279,-0.127119,-0.127419,-0.117921,-0.114812,0.005588,-0.0303,-0.111418,-0.134029,-0.008027,-0.121373,-0.032881,-0.072051,-0.051654,0.032225,-0.019091,0.003854,0.021608,-0.067001,-0.006489,0.016471,0.004279,-0.120037,-0.126657,0.06364,-0.032307,0.012488,-0.071959,-0.054817,-0.077576,-0.085622,-0.023783,0.005008,-0.061017,0.014707,-0.053487,-0.024975,0.078594,-0.03055,-0.050063,0.024798,-0.014382,-0.032515,-0.055734,-0.0635,-0.11358,-0.034029,-0.028703,-0.027387,-0.117398,-0.080541,-0.028976,-0.017226,-0.071201,-0.12262,-0.110704,-0.095133,0.006554,0.058399,0.008518,-0.006058,-0.041905,0.011237,-0.097186,-0.052058,-0.070946,-0.093013,-0.098147,-0.055596,-0.088309,-0.066542,-0.050386,0.030664,-0.074899,-0.018825,-0.127108,-0.120936,-0.105162,-0.121363,0.000725,-0.045153,-0.000497,0.019406,-0.049914,0.025715,-0.057855,-0.144073,0.029477,0.033463,-0.121086,-0.120475,-0.118251,-0.04677,-0.106659,-0.121565,0.017735,-0.125763,-0.092956,-0.066981,-0.046063,-0.107024,-0.073042,-0.01731,0.027613,-0.105456,-0.071321,-0.042666,-0.091447,-0.003523,-0.022108,-0.061999,-0.101858,-0.065874,-0.121108,-0.011003,-0.020593,-0.114625,-0.006287,-0.070715,-0.122852,-0.104405,-0.127056,-0.041902,-0.00066,-0.048315,0.002236,-0.039534,0.055572,-0.014949,-0.009643,-0.078051,-0.053688,-0.06395,-0.015972,-0.024695,-0.014241],[0.038824,0.019665,-0.061173,0.068329,-0.009868,-0.075316,-0.120955,0.099308,-0.009096,-0.090871,-0.002129,-0.082192,-0.018689,0.036094,-0.019949,-0.035078,0.00247,0.021128,-0.052267,-0.048175,-0.036453,-0.041441,-0.047688,0.032093,-0.052901,-0.101611,0.002184,0.033987,-0.077594,-0.121777,0.060808,-0.058505,-0.020207,-0.02952,-0.094041,-0.050946,-0.060625,-0.054113,0.009377,-0.09428,-0.041004,-0.083289,-0.117497,0.055377,-0.014462,0.025546,-0.060919,-0.009329,-0.025975,0.050908,-0.074204,-0.042142,0.063419,-0.13808,0.063697,-0.063506,-0.109985,-0.004527,-0.089723,-0.128335,-0.018679,-0.031619,-0.037758,0.010874,-0.086593,-0.110898,0.048388,-0.075293,-0.052195,-0.008155,-0.105978,-0.014388,-0.034561,0.005366,-0.101211,-0.014313,-0.07576,0.001265,-0.061042,0.009118,-0.010213,-0.091434,-0.070211,-0.102246,-0.052553,-0.03484,0.010606,0.015257,-0.025008,-0.050972,-0.016287,-0.057873,-0.044028,-0.063297,0.044169,-0.058714,-0.017198,-0.084918,0.004975,-0.115714,-0.07672,-0.025317,0.046102,0.042276,-0.033042,0.026,0.004142,-0.046847,-0.021341,-0.026661,-0.021975,0.033517,0.012724,-0.051533,-0.065353,-0.108867,-0.094848,-0.12212,-0.027461,-0.037721,-0.087414,-0.06553,-0.096411,-0.052943,-0.055636,-0.060095,-0.031854,-0.010949,-0.038845,-0.070694,0.055075,0.027787,-0.00851,0.007264,-0.033844,-0.119552,0.077683,-0.093963,-0.062085,-0.023528,-0.071787,-0.098182,-0.001249,-0.040077,-0.082557,0.005202,0.011227,-0.020819,0.018483,0.023763,-0.085607,0.02789,-0.006618,-0.002742,-0.003778,-0.054637,-0.027764,-0.071682,-0.088188,0.024018],[-0.032814,-0.089943,0.043085,-0.013784,-0.032512,-0.070529,-0.074677,0.01507,0.042207,-0.097601,-0.02391,-0.018787,-0.086315,0.015117,0.032207,0.049891,-0.040299,0.029828,0.057481,0.051088,-0.000933,0.053382,-0.0905,0.036537,-0.063581,-0.063006,0.016527,-0.019314,0.005554,-0.013268,0.034603,-0.021894,-0.072264,-0.042343,-0.081225,-5.1e-05,0.036664,0.03054,-0.070311,0.034664,-0.02289,-0.095145,0.01651,-0.017862,-0.089174,-0.054199,-5.7e-05,0.048731,-0.022625,0.064777,0.018273,-0.058227,-0.024527,-0.031261,-0.005098,-0.018982,-0.041175,0.039107,-0.04008,-0.072316,0.057002,0.025461,-0.03397,-0.013651,-0.006952,-0.029513,-0.012004,-0.090072,-0.084779,-0.06655,-0.018456,-0.027864,-0.087069,0.004291,-0.083392,0.03987,0.033853,-0.008053,0.056939,-0.092544,0.00902,0.053422,0.026655,0.044933,-0.048678,-0.058745,-0.003923,0.003196,-0.057873,0.03966,-0.057693,-0.036805,-0.075323,-0.039519,0.006385,-0.094979,-0.078384,-0.013327,0.024348,-0.035042,-0.092366,-0.005041,0.035874,0.027079,-0.072053,0.024083,-0.053746,0.00978,0.033688,0.018156,0.040826,-0.03568,-0.014954,0.022061,0.01946,-0.078158,0.023093,-0.053922,-0.049988,-0.079002,-0.026413,-0.016445,-0.016276,-0.05503,0.045303,-0.00712,-0.031575,-0.081876,0.037001,0.000976,0.039752,-0.049742,0.019946,0.07097,-0.010272,0.052721,0.00373,-0.014379,-0.005805,-0.022737,-0.01108,-0.059857,-0.00119,-0.073044,0.046082,0.06204,-0.085616,0.042624,0.053061,0.000801,-0.03938,-0.00261,-0.04328,-0.055172,0.018213,0.034036,-0.060433,0.001935,0.038458,-0.050111],[-0.003897,-0.009403,-0.036603,0.043315,-0.093111,0.036928,-0.111053,-0.066811,0.017254,-0.03936,0.07759,-0.004135,-0.033973,-0.017903,0.046331,0.071178,-0.055331,-0.099423,-0.077992,-0.049931,-0.073361,-0.030427,0.039607,-0.074155,-0.107277,0.017528,-0.059592,-0.119244,-0.110664,0.088407,-0.036822,-0.073278,-0.001975,-0.074602,-0.131898,-0.068421,-0.073394,-0.065873,-0.067149,-0.043161,-0.068748,-0.051099,0.028998,-0.015005,-0.107784,0.058002,-0.034493,-0.066074,-0.04526,-0.008397,0.039618,-0.101771,-0.007158,0.02631,-0.014324,0.023944,-0.049493,-0.051939,-0.034269,-0.060488,-0.04818,-0.053442,0.049183,0.014306,-0.061188,0.059141,-0.086262,-0.00049,-0.056476,-0.040226,-0.067772,0.008405,-0.067163,-0.066113,-0.01168,-0.008882,-0.077899,-0.038133,-0.081729,-0.029379,-0.045005,-0.082009,0.017075,-0.040404,0.001726,-0.019029,-0.109565,-0.081276,-0.046922,0.015309,0.077081,0.011955,-0.071844,0.030729,-0.048079,-0.044867,0.030771,0.003079,-0.085102,-0.049226,0.075515,-0.110679,0.020863,-0.002814,0.006628,-0.026848,0.0694,-0.045332,-0.029383,-0.116635,0.013783,-0.042252,0.008133,-0.020866,0.013002,0.041152,-0.02845,-0.036669,-0.023764,-0.05922,0.013177,-0.08538,-0.032777,0.003394,-0.008956,0.04748,-0.034112,-0.103995,-0.093085,-0.016491,-0.00491,-0.009339,-0.06706,0.03652,-0.098003,0.023546,0.061786,-0.05535,0.061361,-0.119985,-0.019545,-0.055445,0.055364,-0.065323,-0.010064,-0.004626,-0.009147,-0.049511,-0.108165,-0.024795,-0.028836,0.008714,0.037076,0.059562,0.073815,-0.048054,0.063161,-0.063311,-0.128143,-0.062101],[-0.049811,0.059937,0.054912,-0.029779,0.052415,-0.029609,-0.055357,-0.022821,-0.068573,-0.082154,-0.026017,0.043928,0.028579,-0.055845,-0.017,0.060038,0.049655,0.002715,0.017983,0.076794,-0.000632,0.012826,-0.033292,-0.041768,-0.085441,-0.0316,-0.020669,-0.046039,-0.004243,-0.022804,-0.080473,0.064149,0.037917,-0.084295,-0.076337,0.047866,0.055964,-0.035518,0.003437,-0.04272,-0.023668,-0.013155,-0.073461,-0.065061,-0.078407,0.076273,0.008955,-0.064523,-0.03286,-0.053347,-0.084624,-0.089762,0.04138,0.042004,-0.063078,0.03947,0.00596,-0.067929,0.031253,0.011442,-0.029176,-0.075651,0.057481,0.057409,-0.08642,-0.082159,-0.084559,-0.082213,-0.074485,-0.017481,-0.019604,0.037198,-0.074413,0.030345,-0.072915,-0.010406,-0.003625,-0.068808,0.013486,-0.012766,0.005573,0.02264,-0.049279,0.054327,0.000206,-0.023967,-0.015747,-0.078154,-0.062498,-0.045821,-0.020637,-0.029822,0.042629,0.052113,-0.050181,-0.000116,-0.061919,-0.057919,0.003393,0.028197,0.007787,0.035276,-0.028252,-0.052816,0.006247,-0.018816,0.049771,0.073053,-0.088545,0.046177,0.052999,0.016753,0.082105,0.02718,-0.067221,-0.073186,0.003307,0.00774,-0.020908,-0.087451,-0.021799,-0.089705,-0.043383,-0.034916,-0.079226,-0.047589,0.001846,0.011558,-0.082227,0.01698,-0.049502,0.047043,0.037505,-0.015751,0.018071,-0.07503,-0.064732,-0.066532,-0.04097,-0.024514,-0.09018,-0.029214,0.053084,0.052933,-0.08684,-0.037616,0.032802,0.059669,0.006842,0.062227,0.046534,0.004182,-0.087225,0.032602,0.002644,-0.081415,-0.013405,-0.013723,-0.086966,0.060718],[0.015888,-0.09559,0.021555,-0.027439,-0.080487,0.035467,-0.084852,0.026702,-0.090741,-0.060292,-0.029937,-0.025425,-0.011156,0.039318,0.059917,0.058275,0.011481,0.05621,0.014559,-0.040125,-0.055033,-0.038377,0.007192,-0.048919,-0.027472,0.002431,-0.038413,-0.03808,-3.8e-05,-0.007963,0.013853,-0.015832,0.045989,-0.029108,-0.071778,0.051786,-0.061284,0.036572,0.053344,-0.087427,-0.084118,-0.067811,0.058339,0.002307,-0.001227,-0.033198,-0.085174,0.028818,-0.015519,0.046653,-0.056663,0.038379,-0.027872,-0.046511,-0.054684,0.04914,0.014524,0.008519,-0.055437,-0.038281,-0.041989,-0.029668,-0.050842,-0.053267,-0.027184,-0.005638,0.021594,-0.054082,-0.002037,-0.017984,-0.051547,-0.079964,0.041986,0.006608,-0.07166,-0.067081,-0.019263,0.008377,-0.042795,0.038882,-0.072962,-0.014833,-0.038876,-0.050749,-0.007701,-0.026732,0.013115,0.053204,-0.096489,0.049493,-0.064176,-0.025126,0.041611,0.025911,0.047284,-0.053228,0.076575,0.082854,-0.063487,-0.071992,-0.096087,-0.039986,0.014504,-0.047351,-0.088132,0.007171,-0.02565,0.05252,-0.039258,-0.002334,-0.029926,-0.09025,-0.042835,-0.035401,0.004185,-0.027251,-0.013849,-0.067391,0.053421,-0.003163,-0.076181,-0.012325,0.039092,-0.078541,-0.036192,-0.060169,-0.088084,-0.031122,0.01966,-0.070787,0.009576,0.011846,-0.064529,0.058606,-0.082392,0.044798,0.030706,0.058614,-0.004913,-0.008424,-0.094201,-0.096967,-0.038563,-0.071904,-0.088209,0.014619,0.011445,0.041853,-0.095756,0.052087,-0.066843,0.044133,-0.056302,-0.003735,0.003895,-0.003046,0.018569,-0.016697,0.037782,-0.029524],[-0.028454,0.016933,-0.058785,-0.032043,-0.034734,-0.035713,0.048449,0.055873,-0.020725,-0.028114,0.024444,0.019548,0.035458,-0.058992,0.05521,-0.069897,0.025787,0.053745,-0.039847,-0.038555,-0.032934,-0.026362,-0.019735,-0.051307,-0.027573,0.035937,-0.078435,-0.065978,-0.039694,-0.028709,-0.058533,0.059152,-0.075123,0.027558,-0.06738,-0.075075,-0.044908,-0.01238,0.060281,0.046302,0.051192,-0.039866,-0.062271,-0.007453,0.012737,0.002175,0.005407,-0.037182,-0.058016,-0.0268,-0.054003,0.034397,0.048578,-0.054048,-0.065528,-0.069663,-0.019985,-0.064202,-0.062556,-0.092135,-0.050087,-0.041234,-0.021983,-0.060509,-0.052596,0.02358,0.06194,-0.06816,0.047281,0.035178,-0.044439,0.026836,0.011958,-0.092049,-0.075122,0.049598,-0.049915,-0.07404,-0.085052,-0.060366,-0.039714,-0.051066,0.070933,0.035019,0.016123,0.031031,-0.008808,-0.017513,0.061714,0.027009,-0.033931,0.037625,0.04977,-0.083798,-0.039569,0.075129,0.074776,-0.038231,-0.029614,0.011656,0.035647,-0.002834,-0.020438,-0.052493,-0.017069,-0.01115,0.033177,0.068366,-0.027372,0.051059,0.046444,-0.031346,-0.016259,-0.046368,-0.076004,-0.094669,-0.093655,-0.029606,-0.052402,0.00046,-0.006851,-0.045171,-0.039516,0.009227,-0.062485,0.058317,-0.044209,0.003329,0.017512,-0.062422,-0.074135,-0.008379,0.060755,-0.036618,0.02212,-0.075062,0.049951,-0.058758,-0.03877,-0.083744,0.005827,0.063059,0.003267,0.022257,-0.053865,0.003853,-0.037571,-0.01723,0.053286,0.055486,-0.047856,-0.014422,0.027213,0.005841,-0.004225,0.036314,0.015572,-0.007096,-0.035639,0.024399],[0.156322,-0.185762,0.183114,0.026434,-0.147713,0.129742,-0.009471,0.123071,-0.006684,0.141834,0.007803,0.17066,-0.050441,-0.097889,0.082039,-0.005302,0.053007,0.107875,-0.008439,0.115699,-0.033154,0.187604,0.003163,0.035249,0.220302,-0.101724,0.126632,0.100563,0.029805,0.081157,0.334763,-0.017138,-0.137765,-0.259572,0.179568,0.073963,-0.085336,-0.107525,0.033448,0.096862,0.014268,-0.153278,0.144057,-0.049968,-0.125069,0.056731,0.189769,-0.003572,0.037349,-0.03896,-0.016258,0.157578,-0.041414,0.099956,0.053847,0.174568,0.186364,-0.090788,-0.172861,0.197855,-0.077613,-0.06657,0.147006,0.002534,0.117228,0.127793,0.508691,-0.037723,-0.180294,-0.010865,-0.115607,-0.016986,0.273798,-0.11528,0.090098,0.44725,-0.01292,-0.104539,0.146023,0.036355,0.049674,-0.228323,0.071996,0.064533,-0.002736,0.047043,0.10123,0.236207,0.13589,-0.049369,0.220862,-0.053552,-0.052642,0.047268,0.001432,0.134405,0.034022,-0.216185,-0.135293,0.130902,0.250286,-0.033412,0.067656,0.119236,-0.260158,0.165708,0.030465,-0.023217,-0.007109,0.106551,-0.068825,0.021533,-0.03096,-0.117621,0.183787,-0.180349,0.15808,0.002171,-0.001987,0.062545,0.091162,0.242559,0.101944,-0.032921,-0.135705,0.048494,0.140267,0.131368,0.013536,-0.058072,0.06741,0.155834,0.226259,0.052247,0.027063,0.099361,0.072962,-0.103106,-0.003563,0.076481,-0.15192,0.075002,0.008919,-0.009064,0.11972,0.349942,0.075873,0.009984,0.032796,0.026492,-0.073308,-0.078146,0.117699,0.014595,0.233095,-0.267948,0.091339,-0.052133,0.036226,-0.074228],[0.057979,0.043086,-0.070617,-0.077749,-0.007949,0.057753,0.044954,-0.034449,0.013813,0.011231,0.049242,0.035654,-0.005872,-0.085884,-0.066503,0.075371,-0.089358,0.05594,0.07036,-0.014789,-0.032373,-0.062019,-0.071325,0.067761,-0.074782,-0.073694,-0.013864,0.041237,-0.029558,0.023205,0.038219,-0.074339,0.059248,-0.063606,-0.04964,0.016929,-0.026661,0.050751,-0.011047,-0.045267,0.028275,-0.073997,0.00938,-0.045969,0.028174,0.068605,-0.055646,-0.087562,-0.078238,0.049988,-0.036923,0.060003,-0.079138,-0.025663,0.016443,0.048866,0.049694,-0.027044,-0.09763,0.00454,-0.056214,-0.032175,-0.094644,0.02303,-0.05529,0.000893,-0.040951,-0.097087,-0.043619,-0.042291,-0.007083,-0.075671,-0.045503,0.014179,-0.016844,-0.084573,0.009579,-0.051383,0.008483,-0.001245,-0.061571,0.043761,0.011853,-0.051175,0.01952,0.050186,0.044005,-0.020126,0.040916,-0.043569,-0.083316,-0.008653,0.026483,-0.016761,-0.097112,-0.014802,0.071281,-0.005173,0.025594,-0.092787,0.018431,0.014258,-0.002295,-0.064884,-0.088779,0.010627,0.05665,-0.02189,0.008748,0.011284,-0.052763,-0.035516,-0.028738,-0.069815,-0.077694,0.043462,0.054599,-0.014784,0.044877,0.029507,-0.051451,0.052165,-0.045921,0.083356,0.029049,-0.066703,-0.000598,-0.087419,-0.041205,0.053575,-0.012766,-0.082255,-0.011185,0.003722,-0.048027,-0.05052,-0.058153,-0.047268,0.063592,-0.096163,-0.008641,-0.0035,-0.061771,0.006233,-0.002729,0.03595,-0.025211,0.041392,0.037309,-0.000301,0.051329,-0.013708,0.043012,-0.022696,-0.038728,-0.065223,-0.044793,-0.014254,0.003517,-0.024493],[-0.087124,-0.110446,-0.072902,-0.072268,-0.075852,-0.065983,-0.057779,-0.064031,0.03639,-0.058707,-0.024969,-0.128202,-0.050379,-0.030198,0.050715,0.057816,-0.124486,-0.065292,0.019045,-0.042566,-0.026398,-0.104696,-0.150997,0.047283,-0.014687,-0.144741,-0.053818,-0.044225,-0.155126,-0.125696,-0.136584,-0.059267,-0.075095,-0.052151,-0.166216,-0.027211,-0.118732,-0.064446,-0.061505,-0.042971,-0.080577,-0.009721,-0.102952,0.036212,-0.144769,0.039153,-0.109689,-0.159073,-0.028915,-0.028558,0.064719,-0.135662,-0.035051,-0.119932,-0.040384,-0.06726,-0.071342,0.017219,-0.161804,-0.124948,-0.047825,0.031663,-0.115379,-0.113506,-0.143471,-0.11965,-0.05112,-0.042019,-0.097271,-0.168537,-0.077024,-0.050233,-0.129941,-0.064323,-0.132355,-0.087303,0.077143,-0.109247,-0.05139,-0.097802,-0.142288,-0.101701,-0.027322,-0.160539,-0.127948,-0.103061,-0.095121,-0.106356,-0.058921,-0.009747,-0.131418,-0.117379,0.022046,-0.012671,-0.144664,-0.095305,0.019094,-0.095015,-0.06634,-0.068173,-0.106975,-0.004013,-0.155077,-0.003235,-0.020064,-0.153191,-0.07502,0.01189,-0.054045,-0.164479,-0.121608,-0.088436,0.026032,-0.107462,0.00491,-0.081204,0.010378,-0.141309,-0.120821,-0.091035,-0.142707,0.001078,-0.006742,-0.063893,-0.005917,-0.028375,-0.074876,-0.15828,-0.088838,0.064463,0.044833,-0.139595,-0.085285,-0.059653,-0.050652,-0.135484,-0.052097,-0.132659,-0.010784,-0.018296,-0.175774,-0.123139,-0.046815,-0.128645,-0.133326,-0.135503,0.061081,-0.010127,-0.139403,-0.055362,-0.034328,0.039732,-0.158864,-0.027654,-0.005747,-0.02972,-0.065909,-0.098329,-0.03038,0.067075],[-0.006339,0.034687,-0.075377,0.034496,0.033185,-0.040846,0.049736,-0.001029,-0.054074,-0.088905,-0.045426,-0.075194,-0.024233,-0.010654,0.02077,-0.057366,-0.026172,-0.057486,0.019274,-0.082847,0.062697,-0.050552,0.001521,-0.05182,0.004846,0.035088,0.009515,0.038402,0.052743,-0.068255,0.015537,-0.064829,-0.063574,-0.068718,-0.015216,-0.003767,-0.003654,0.003902,-0.071914,-0.014425,0.050739,-0.000164,-0.067755,0.002541,-0.028486,0.05012,-0.009591,-0.042696,-0.078485,0.001104,-0.016576,-0.024277,0.054349,0.014733,-0.040267,-0.003627,-0.031115,-0.075813,-0.011157,0.015564,0.017792,0.053113,0.013695,0.018759,-0.043451,-0.093904,0.037052,-0.031228,-0.038578,0.046736,0.039738,0.03771,-0.017031,-0.036023,-0.054626,0.031417,0.026318,0.030927,-0.002043,-0.097077,0.049599,-0.070204,-0.025132,-0.019409,0.005015,-0.03395,-0.087899,0.03103,-0.001797,-0.080081,-0.075226,-0.037852,0.05207,-0.013486,-0.088371,-0.003731,0.01851,0.005508,0.012835,-0.062535,-0.002476,0.021639,0.009892,0.038271,-0.038308,-0.000562,0.001606,-0.063739,0.012202,0.006626,-0.095038,0.034219,-0.030847,-0.064832,-0.068243,-0.097579,-0.019022,0.01268,-0.102248,0.049834,-2.5e-05,-0.003575,0.013421,-0.080798,-0.089523,-0.009311,-0.102426,-0.05206,0.013549,0.020027,0.051951,-0.09891,0.018923,0.057468,0.001187,0.022917,-0.009666,-0.024624,0.001857,-0.05996,0.038125,-0.057207,0.031264,0.026438,-0.003622,0.003611,-0.083295,-0.039951,-0.043795,-0.036583,8.1e-05,-0.03641,0.027673,-0.074682,-0.020911,0.038732,0.016093,-0.023018,-0.002559,0.061905],[0.01322,-0.264352,-0.034169,-0.030926,-0.003503,0.089491,0.156238,0.100601,-0.059155,-0.068294,0.025353,-0.013652,0.373462,-0.137189,0.063898,0.04243,0.127596,0.088787,-0.075346,-0.045741,0.048244,-0.053909,-0.076844,-0.078471,0.202023,0.094462,-0.065055,-0.06923,0.205679,0.026321,-0.353941,-0.087939,-0.107624,-0.021962,0.160334,0.012563,-0.194718,0.010374,-3e-06,-0.041955,-0.031011,0.038319,-0.096581,0.04746,0.006734,-0.044296,0.283075,0.133095,0.05956,-0.036851,-0.05127,0.121589,0.006217,0.022075,0.034233,0.021276,0.167285,0.163757,0.007685,-0.002258,-0.000672,0.054144,0.005269,0.176817,0.024419,0.009612,0.54793,0.221028,0.046018,0.229839,0.300324,0.001566,-0.001076,0.303574,0.178654,-0.077299,-0.039289,-0.385044,0.153824,0.521957,0.25289,