export const distilledFlopArtifact = {"enabled":true,"passed":true,"version":"distill-flop-v2-deep","trainedAt":"2026-06-29T02:30:59Z","policyKind":"softmax-distill","blend":1.0,"appliesTo":"flop","featureNames":["equity","range_eq_0_10","range_eq_10_20","range_eq_20_30","range_eq_30_40","range_eq_40_50","range_eq_50_60","range_eq_60_70","range_eq_70_80","range_eq_80_90","range_eq_90_100","pot_odds","spr_norm","street_flop","street_turn","street_river","position_signal","to_call_flag","made_strength","draw_strength","wetness","paired","monotone","connected","range_advantage","blockers","range_percentile","range_weight","range_coverage","context_aggressor","three_bet","facing_bet","free_check","flush_blocker","nut_flush_blocker","top_blocker","board_pair_blocker"],"actionSets":{"open":["check","bet-mid"],"facing":["fold","call","jam"]},"validation":{"val_kl":0.023109,"rows":33600},"model":{"type":"mlp-softmax","activation":"relu","layers":[{"weights":[[0.043354,0.240623,-0.14607,-0.061557,0.060199,0.050044,-0.012784,-0.026343,-0.086238,-0.087898,-0.242168,-0.257718,-0.083505,-0.012068,0.029872,0.112911,0.150279,-0.255717,0.001706,0.368557,-0.045629,0.004705,0.096257,0.018512,0.010088,-0.100912,-0.104821,0.114936,0.022595,0.188385,0.138151,-0.209591,0.091945,0.010533,0.060281,-0.108282,-0.015717],[0.276537,-0.561037,-0.626815,-0.265668,-0.040974,0.144695,0.319136,0.136269,0.267479,-0.211221,-0.786449,0.188923,-0.215821,-0.086487,0.114453,0.09131,-0.064372,0.094181,0.128327,0.583814,0.025119,0.048397,-0.041191,-0.07665,-0.139504,-0.287089,0.06917,-0.004192,0.052037,-0.079058,-0.116906,-0.022627,0.079238,0.028082,0.040857,-0.052385,0.111824],[-0.191331,1.133013,-0.177633,-0.068639,0.139911,0.084064,0.130331,0.106185,-0.142915,0.211164,-0.050453,0.077569,-0.283629,0.000263,-0.026407,0.008466,-0.049053,-0.054431,0.014147,0.608119,-0.035298,-0.04109,-0.29756,0.172058,0.148004,-0.21802,0.005705,-0.156347,0.048111,-0.081891,-0.112307,0.180741,-0.144115,-0.051029,0.014526,0.039386,-0.141649],[0.153861,-0.143136,0.13033,-0.028073,-0.032935,-0.127712,-0.173063,-0.281603,-0.116274,0.237002,0.479786,-0.112085,0.048073,0.034838,-0.014082,0.159322,0.038898,-0.027962,-0.29693,-0.131729,-0.028285,0.148971,-0.002501,0.011644,-0.010752,-0.074493,0.201053,0.011682,0.049094,0.149562,0.06562,0.034467,-0.113283,0.041735,-0.130148,-0.00656,0.110572],[0.223875,-0.244434,0.265592,0.028999,-0.085953,0.096956,-0.031095,-0.06128,-0.047871,0.32193,0.379073,-0.095334,0.104096,0.066353,0.120394,-0.14214,-0.095255,0.001129,-0.155513,-0.058889,0.045043,0.10568,0.044805,0.034715,-0.127051,-0.28885,0.141476,-0.130345,0.098466,-0.085979,-0.072478,-0.062552,-0.02974,-0.083853,0.094829,-0.154634,0.08566],[0.086756,0.400211,-0.213114,0.049174,0.307205,-0.058629,-0.108266,0.193202,-0.235269,0.152747,0.240983,0.079567,0.107305,-0.061985,-0.123659,0.048313,0.239653,-0.020727,0.073964,0.571199,0.168939,-0.359994,-0.121141,0.028011,-0.115622,-0.347445,-0.147776,-0.205863,0.039876,-0.132544,0.163178,0.193871,-0.210893,-0.274962,-0.170161,-0.138182,0.076749],[-0.049686,0.454497,0.391933,0.15672,0.068874,0.206638,-0.105398,-0.080117,0.153874,0.457715,-0.290325,0.210844,0.274615,-0.04454,0.006574,-0.09894,0.000685,0.027442,-0.147695,-0.076232,0.055322,0.232151,0.054933,-0.421441,0.046702,-0.519292,-0.119845,-0.037854,-0.034382,-0.126358,0.049984,0.162812,-0.144183,0.161731,0.011637,-0.124023,0.269339],[-0.029662,0.623335,0.238032,0.11772,-0.152701,0.050524,-0.088758,-0.197031,0.047593,0.183126,0.225754,-0.005805,-0.033775,0.002124,0.079856,-0.059916,-0.035987,-0.118143,0.063039,-0.069427,-0.005168,0.104655,0.003497,0.09086,0.157111,-0.163235,0.144485,0.120842,-0.141619,-0.060696,-0.028681,0.07996,-0.121745,0.09058,-0.108268,0.02654,-0.124349],[0.089052,-0.050097,0.40349,-0.146756,0.237458,-0.254897,0.088067,0.080993,-0.001696,0.136811,0.416901,-0.161061,-0.022698,-0.018097,-0.050213,-0.084122,0.125233,-0.230669,0.144627,0.862987,0.21217,0.104412,-0.229978,-0.494689,0.000407,0.044889,-0.147813,-0.122355,-0.091096,0.156695,-0.153267,0.035247,-0.043573,-0.030291,-0.021485,0.192052,0.164382],[-0.060692,0.334251,-0.134506,-0.114317,0.11373,0.091604,0.076935,0.062841,-0.140698,-0.358895,0.002037,0.109487,-0.035831,0.085674,-0.108984,-0.156287,0.167981,-0.151299,0.086891,-0.345969,0.092423,-0.153793,-0.186938,0.191119,-0.131477,0.31039,-0.154084,-0.00442,0.059396,0.156956,0.067933,-0.187001,0.010585,0.054954,-0.063094,0.120127,0.144037],[0.174834,-0.683344,0.149573,0.051888,0.09258,-0.021569,0.070677,0.15334,0.074719,-0.000326,-0.560403,-0.050553,-0.210181,0.100865,0.124974,-0.107459,-0.006301,-0.064482,-0.044935,-0.263973,0.258451,0.215861,0.023676,0.113467,0.024438,0.195622,0.08997,-0.144191,-0.134124,0.115494,0.119327,-0.147855,0.073532,-0.043481,0.031602,-0.281239,0.171774],[0.25468,0.14565,-0.157079,-0.225848,-0.123258,0.001586,-0.016267,0.274115,0.293791,-0.377509,-0.483238,0.072799,0.149282,-0.154098,0.054475,-0.009979,-0.075644,-0.146172,0.04403,-0.105428,-0.078692,-0.038506,0.103462,-0.088555,-0.068101,0.57392,0.386193,0.188544,-0.108514,0.024855,-0.005639,-0.048989,-0.140645,-0.093289,0.013468,0.002228,-0.105087],[-0.07704,0.007189,-0.139932,0.084173,0.067686,0.039985,-0.157379,0.157851,-0.126033,0.092295,-0.143489,-0.066397,0.024962,-0.008442,0.059894,-0.161893,-0.058568,0.037809,0.111309,0.129637,-0.050383,0.022776,-0.107721,-0.034472,-0.017375,-0.082618,-0.157923,0.137739,-0.017264,-0.059601,0.142066,-0.013394,-0.051943,0.053368,-0.011857,-0.020167,0.063587],[0.252556,0.548255,0.355769,0.329147,-0.262814,0.140932,-0.325634,-0.008756,-0.282169,0.920631,0.069843,0.072915,-0.288199,-0.087838,-0.024044,-0.107496,0.009626,-0.072312,-0.140771,0.603186,-0.005253,-0.13328,0.310263,0.127276,-0.014611,-1.070342,-0.107569,-0.112113,0.006869,-0.169786,-0.12704,0.216269,-0.240195,0.120969,0.258128,-0.003283,0.179115],[0.035441,0.301472,0.074544,-0.032755,0.061441,-0.0043,-0.003126,-0.080602,-0.088904,0.270335,-0.058337,-0.224107,-0.142986,-0.032393,0.071716,-0.082544,-0.192463,-0.210926,0.132434,0.23405,-0.02021,0.117712,0.221444,0.190942,0.083775,0.161095,-0.052727,0.045388,0.209382,0.110326,-0.077214,-0.147188,0.220644,-0.014229,-0.19936,0.190638,0.030061],[-0.146502,-1.070373,-0.262801,0.26052,0.215069,0.063213,-0.146628,-0.104952,-0.08673,0.169565,0.748945,0.009189,0.023978,0.169931,0.097187,-0.157978,-0.107577,0.177715,-0.319876,-0.56403,0.120661,0.026045,0.060931,0.044644,0.151323,0.645394,0.11025,-0.047759,-0.020268,-0.131882,-0.074101,-0.07214,0.065286,-0.083804,-0.229131,-0.238201,-0.299818],[0.071446,0.114522,-0.097651,-0.134355,-0.106909,0.071328,-0.104812,-0.050522,-0.045136,0.118412,-0.161433,-0.109073,-0.021394,-0.103294,-0.104137,0.073946,-0.163149,-0.117824,-0.038548,-0.01499,0.032565,0.05665,-0.081356,-0.113441,-0.096794,-0.162219,-0.079506,-0.026493,0.138751,-0.01633,-0.084808,0.071705,-0.025615,-0.086318,-0.162572,-0.102144,0.106163],[-0.156273,0.151895,-0.009977,-0.009321,-0.065183,-0.151743,-0.127412,-0.014545,-0.045507,-0.013486,0.046942,0.131885,-0.135734,0.11747,-0.139669,-0.055129,-0.063832,-0.017193,-0.136656,-0.149606,0.156056,-0.153596,-0.125332,-0.156233,-0.122996,0.087087,0.110052,-0.133424,0.106566,-0.008591,0.118021,-0.160868,-0.116989,0.040878,-0.118881,-0.043676,-0.042279],[-0.11609,-1.726667,-0.470048,-0.252633,-0.003428,-0.095049,0.365779,0.211411,0.656306,-0.791969,-0.936995,-0.023696,-0.179364,0.037346,0.015386,0.053423,0.193836,0.009021,0.043684,0.710746,-0.324587,-0.067164,-0.043236,-0.099755,0.025542,-0.292132,0.011524,0.08998,-0.107399,0.147845,-0.000338,0.01055,-0.005926,-0.012658,-0.045378,0.049354,0.054952],[0.131128,-0.093078,0.320691,-0.083312,-0.123372,0.050056,-0.046254,-0.015918,0.125729,-0.047142,-0.065856,-0.148058,0.166262,0.100834,-0.026868,0.114484,-0.024593,-0.044619,-0.044381,0.258372,-0.09411,-0.141871,-0.051469,0.160611,-0.005226,-0.276097,0.032618,-0.169087,-0.159063,0.160351,-0.055475,0.050154,0.085785,-0.03359,0.02777,0.04352,-0.019287],[0.063345,-0.954892,0.233435,0.114539,-0.00295,0.145796,0.170223,0.200812,0.040679,-0.070127,-0.306074,0.117277,-0.2062,-0.012158,0.102922,-0.037022,-0.198811,0.015004,-0.375873,-0.106701,-0.137355,0.052782,-0.210906,-0.085907,0.134152,-0.289074,0.063625,0.002303,0.142298,0.118018,0.037249,-0.000186,0.079783,-0.041677,-0.254327,-0.014765,0.126495],[0.17353,-0.398482,-0.190109,-0.13939,0.00333,-0.110634,-0.118823,0.02557,-0.030671,-0.16959,-0.281899,-0.221209,0.13574,-0.032934,-0.081019,0.130416,-0.12689,0.017103,-0.030189,-1.145262,0.046216,-0.046999,-0.160617,-0.04127,-0.11951,0.113001,0.217062,0.209014,0.057278,0.116424,0.099448,-0.239161,-0.063138,0.146009,-0.019624,-0.023089,-0.142444],[0.187769,-0.113104,-0.101622,-0.150543,-0.121854,0.112277,0.068883,0.075392,0.040347,0.004659,-0.529313,-0.145112,-0.017032,-0.021955,0.109664,0.047609,0.090962,-0.182247,0.13012,0.400959,0.028849,0.133136,0.173355,0.034688,0.148267,0.033627,-0.005356,-0.076146,0.154002,-0.038724,0.081577,0.118028,0.006436,0.114353,0.095427,0.038935,0.051941],[0.153025,0.193978,0.106957,-0.020299,0.198807,0.164209,-0.043827,-0.121545,0.17346,0.100636,0.217573,-0.008081,0.191865,0.055786,-0.085583,-0.018038,0.030164,-0.049856,-0.139504,0.018081,-0.052605,0.034221,-0.030099,-0.059244,0.180149,-0.16965,-7.9e-05,-0.070929,0.030055,-0.133716,-0.093521,0.126944,-0.061095,-0.050323,0.074292,0.00419,-0.028173],[-0.021984,0.434058,0.078812,-0.149931,0.240199,0.152444,0.250613,0.062426,0.025548,-0.083608,-0.404592,-0.033002,0.002886,-0.003751,0.113693,-0.018879,0.069515,-0.178135,0.114089,0.008982,0.052401,0.092842,-0.110927,-0.038885,0.151568,-0.103987,-0.067047,-0.085558,0.160015,-0.030376,0.094197,-0.024453,0.120818,0.031022,0.148376,0.028289,-0.082838],[-0.0661,-0.106679,-0.08298,0.132555,-0.048278,-0.141029,0.053304,-0.144371,-0.096945,0.079099,-0.057069,-0.009012,-0.081274,-0.160355,0.150594,0.025163,-0.128386,0.076705,0.021445,0.002955,-0.160392,-0.149993,0.077289,-0.080948,0.081137,-0.014672,0.0197,-0.076786,-0.029142,0.013171,0.020671,0.03244,-0.154579,-0.150525,-0.01902,0.082934,0.047965],[0.134852,0.031784,0.130832,0.046504,0.215817,0.003486,0.127193,-0.081176,0.123521,0.052165,0.198143,0.059201,0.02116,-0.020813,0.065297,0.009242,-0.106179,0.11764,-0.030623,-0.280577,0.001869,-0.007994,0.127724,-0.118215,0.151947,0.054849,-0.073908,-0.026601,-0.133595,-0.021815,0.085391,0.055928,0.050165,-0.116642,-0.100565,-0.136306,-0.081323],[0.068674,-0.572394,-0.083792,0.128471,0.091013,0.155191,0.025167,0.065473,-0.057473,0.096818,0.05558,0.011318,0.23155,-0.044442,-0.054654,0.102625,0.118736,0.034991,-0.071585,-0.145109,0.051851,-0.189272,-0.093091,-0.083364,0.090284,-0.133367,0.163111,0.086988,-0.036291,-0.074173,0.13283,-0.025027,-0.149749,-0.165039,0.086339,0.0766,0.051804],[-0.156559,-0.249462,0.047586,0.108382,0.052841,-0.148674,0.011698,0.096706,-0.042998,0.104326,0.115188,-0.031865,0.002818,-0.116631,0.034921,-0.042114,0.118409,0.110335,0.052909,-0.506564,0.000971,-0.019978,-0.134263,-0.076529,0.085104,0.203209,0.027279,-0.135325,0.040786,0.044668,0.136059,0.103208,0.103858,0.103019,0.000111,0.057567,0.056685],[0.033629,-0.700696,0.350423,0.023952,-0.205383,0.124303,-0.026794,-0.064593,0.139677,-0.099257,-0.090828,0.054409,-0.098227,0.063976,0.005449,0.061027,0.138741,-0.056516,-0.352466,-0.133012,0.038168,0.125238,0.021024,-0.100455,0.055931,-0.280566,0.066163,-0.010765,-0.026807,0.040549,0.017882,-0.043578,0.047994,-0.069606,0.069709,-0.1072,0.175734],[-0.187393,0.019378,-0.113992,-0.105749,0.059007,0.069839,-0.052745,0.062027,0.123527,-0.101004,0.402738,-0.130529,0.122287,-0.101137,-0.089263,0.102943,0.208879,0.046657,0.166114,-0.150588,-0.079581,0.082457,-0.009758,0.002737,0.059369,-0.014101,0.104702,-0.082178,0.191543,-0.05569,-0.14093,0.016772,0.011835,0.072613,0.13221,-0.164903,-0.218512],[-0.01731,0.038891,0.292396,-0.012849,0.082388,-0.135189,0.079412,-0.173131,-0.044534,0.236636,0.442163,0.059091,0.17357,0.029045,-0.101655,0.104691,-0.034002,0.105941,0.083677,-0.350212,0.071639,0.12162,-0.046184,0.032048,0.133729,0.106405,-0.076325,0.03116,-0.133391,-0.00018,0.145977,0.136181,-0.032935,0.045633,-0.178084,0.112182,0.116341],[0.085967,0.233465,-0.00498,0.137611,0.005966,-0.000243,-0.001838,-0.082607,0.080781,-0.041612,0.025989,0.021299,0.178132,0.173494,0.068592,-0.099623,0.153292,0.130023,0.066729,-0.029658,0.078406,0.070564,0.048075,0.119442,0.097329,0.142675,-0.16121,-0.099251,-0.1292,0.120388,-0.008388,-0.025827,-0.110555,0.115714,0.057265,-0.136927,-0.107465],[-0.182498,-0.569433,0.096977,-0.142124,-0.001683,-0.113083,-0.012259,0.027503,-0.057966,-0.046131,0.048183,0.027847,0.033986,0.157904,-0.076886,-0.114711,0.052845,-0.090017,-0.378356,-0.546621,0.167922,0.220522,-0.468688,0.09611,-0.095082,0.098449,0.062118,0.091167,0.144065,0.101475,-0.00621,0.097242,0.05879,0.159601,0.229727,0.037212,-0.051414],[0.220796,-0.217583,0.058452,0.169517,0.179848,-0.008857,0.024465,-0.102272,-0.052532,0.010491,0.331906,-0.080429,0.119442,-0.080217,0.096029,0.051352,-0.046742,0.076454,0.006647,-0.002891,-0.013197,0.113398,-7.9e-05,-0.125885,0.12281,-0.074061,0.159733,0.010291,0.073106,0.030944,-0.004287,-0.010461,-0.114148,0.123988,0.106439,-0.016939,0.259882],[-0.499479,-0.585933,0.191751,0.119288,0.124459,-0.020755,-0.09983,-0.180359,0.11478,0.43003,0.762914,0.247619,0.094299,0.110379,-0.111484,-0.058801,-0.030992,0.178373,-0.157547,0.969112,-0.048166,0.128997,-0.171773,-0.035199,0.054989,0.009486,-0.402208,-0.077862,-0.015744,0.015712,-0.079759,0.152889,-0.126937,-0.149274,-0.216987,-0.03747,0.251764],[0.033337,-0.388283,0.185539,-0.065611,0.057855,0.173078,0.081915,0.16686,0.213513,0.12825,-0.137366,-0.102047,-0.198221,0.044828,-0.061955,0.074492,-0.162176,-0.069035,0.210793,0.180624,0.022685,0.093417,-0.104834,0.199106,0.124536,-0.122313,0.085836,0.011945,-0.02824,0.022282,-0.061703,0.048208,0.176399,0.06974,0.271814,-0.158569,-0.083839],[0.113502,-1.493257,0.391623,-0.102719,0.078692,-0.381391,0.147686,0.117949,0.303782,-0.423985,0.034593,-0.035796,-0.631907,0.111829,0.136456,0.068423,-0.015666,0.02902,0.007922,-0.279151,0.041691,0.458499,-0.049683,-0.000156,-0.133235,1.30062,0.149361,0.131488,-0.063381,0.219584,-0.162409,-0.016006,0.024862,0.029647,0.041107,-0.240889,-0.107973],[-0.142055,0.551895,0.08694,-0.013535,0.21306,-0.001553,0.088726,-0.229154,0.088,0.163979,0.115296,0.172626,-0.074474,0.208601,-0.153066,0.100909,-0.081816,-0.007923,0.125148,-0.009608,-0.056834,-0.037393,0.09497,-0.035129,0.132093,0.284287,-0.216737,-0.024822,-0.061703,0.010413,-0.056191,0.187559,-0.121364,0.05771,-0.058686,-0.029746,-0.128753],[-0.142985,-0.234646,0.270339,-0.073797,-0.02128,0.06435,-0.03296,-0.234717,-0.143711,-0.016581,0.113382,0.153118,0.208983,0.073456,0.063746,0.085379,0.101871,0.00821,-0.200637,-0.458055,-0.051339,-0.053703,0.075932,-0.108571,0.151456,0.058146,0.043979,0.097966,-0.030865,-0.003458,0.007922,0.087778,-0.029601,-0.198268,0.001372,-0.049696,0.163387],[-0.147935,0.127482,0.111018,0.088905,-0.126673,0.001764,0.155671,0.037722,0.075156,-0.020275,-0.149415,0.007087,-0.0545,0.10413,-0.010882,-0.036121,-0.146428,-0.0919,0.035056,-0.030882,-0.138835,-0.006484,-0.008768,0.000673,-0.07698,0.044742,-0.102137,0.080895,-0.099455,-0.163575,0.03262,0.091629,-0.074786,-0.084331,-0.044469,-0.087281,0.026984],[0.130078,-0.150367,-0.028586,0.191014,-0.034714,-0.10128,-0.098764,-0.206044,0.052544,0.153681,0.125956,0.072586,0.005755,-0.12285,0.139549,-0.153777,-0.068981,0.097482,-0.133794,0.353542,-0.036874,0.083968,0.049546,-0.113317,-0.121309,-0.040946,0.126903,0.011227,0.076385,-0.024692,-0.063679,0.028932,-0.112479,0.146051,-0.012352,-0.075746,0.017868],[0.128168,-1.037132,0.164261,0.011081,0.046856,0.018165,0.149274,0.197218,-0.067082,0.150698,-0.118542,-0.152845,0.124312,-0.133122,-0.012617,0.157822,0.173333,-0.014356,-0.033062,0.198563,0.225998,0.164464,0.041901,-0.089289,0.132062,0.033325,0.135175,-0.017841,0.135061,0.030954,-0.080897,-0.216833,0.194798,0.007984,0.058105,0.0309,-0.087639],[0.165052,-0.845887,0.025225,0.288282,0.074746,-0.170499,-0.163703,-0.17857,-0.274126,0.514146,0.353853,-0.081608,0.15846,-0.080592,-0.000748,-0.06922,-0.047544,-0.037307,-0.597648,-0.126056,0.086207,0.263276,0.143082,-0.040904,0.076532,-0.266309,0.114174,-0.032406,-0.04372,0.135683,-0.041068,-0.008482,0.155132,-0.272985,-0.131403,-0.119773,-0.050895],[0.021424,0.083901,0.238312,0.142897,0.120344,0.024363,-0.088491,0.131262,0.074867,0.019277,0.34186,0.14754,0.161117,0.015669,-0.135179,0.118662,-0.114797,0.215932,0.006291,0.561809,0.251197,-0.251431,-0.192263,0.055193,0.145908,-0.361743,-0.152901,-0.142161,0.107408,-0.163319,-0.108864,-0.073511,-0.180573,-0.17655,-0.105079,0.173726,0.166435],[-0.048437,0.045359,-0.108812,-0.102337,-0.030909,0.076784,0.101071,0.047668,0.005536,-0.096894,0.15238,-0.087874,0.130891,0.08601,0.007912,-0.09841,0.012752,0.139515,0.01546,-0.033419,-0.135787,0.055005,0.071991,-0.130132,0.166711,-0.081065,-0.111777,0.015848,0.1332,0.100239,-0.124575,0.099029,-0.014142,-0.055998,0.071383,-0.000248,0.08939],[0.081461,-0.13693,-0.106339,0.042258,-0.217749,-0.010117,-0.053714,-0.148801,0.11765,-0.107682,0.111016,0.105843,-0.381096,0.065258,-0.087997,-0.13797,0.193884,0.087628,-0.141719,0.1422,0.18508,0.003708,0.141497,0.093336,0.087589,0.401021,0.149812,0.049176,-0.007867,-0.137082,0.038021,-0.068447,0.114312,-0.07792,-0.024194,-0.113572,0.123461],[0.211068,-0.012567,0.042564,0.014436,-0.134775,0.004782,0.166756,-0.093873,-0.210309,0.01646,-0.004991,0.147675,0.139442,-0.121981,-0.055325,0.028959,0.07407,-0.005206,0.169363,0.078151,0.071012,0.085226,0.043374,-0.076585,-0.096942,0.015685,0.179259,-0.065314,-0.002595,-0.107286,-0.090749,0.121962,-0.147032,0.177987,-0.017984,0.025677,0.044257],[-0.080166,-0.123431,0.033795,-0.081006,-0.013795,0.024986,0.107758,-0.157288,0.161239,-0.128822,-0.120584,-0.119033,-0.066276,-0.161175,-0.133274,0.022352,0.031366,-0.030594,-0.040167,-0.08853,-0.061017,0.115493,-0.050254,-0.020431,0.03691,-0.051324,0.04984,-0.050188,-0.057498,-0.00769,-0.150837,0.139345,0.096249,-0.026187,-0.114312,0.029749,-0.162019],[0.021757,0.009839,-0.174945,-0.256556,0.107559,-0.229866,0.254582,-0.121429,0.146023,-0.196911,-0.045465,0.125499,0.069385,0.086638,0.09405,0.043513,0.017176,0.049581,-0.329782,0.428924,-0.457715,0.07003,0.197137,-0.087281,-0.050012,-0.175576,-0.002439,-0.077627,-0.070867,0.062142,-0.104375,0.046172,0.067626,0.190061,-0.158085,0.130568,0.010407],[0.092746,-0.040588,0.0543,-0.012859,0.009272,0.065862,-0.070975,0.067864,-0.007682,-0.077624,-0.132529,0.105057,-0.159609,-0.128371,-0.089434,0.139591,-0.052273,-0.000752,0.08544,0.050907,0.027037,0.119238,-0.068474,-0.0715,-0.143179,-0.142092,0.066889,-0.092948,-0.117535,0.116341,0.000549,0.063613,-0.153624,-0.028483,0.004764,-0.038326,-0.117571],[-0.169526,0.794067,0.161384,-0.103244,0.197816,0.010665,0.070231,0.121472,-0.038423,-0.13852,-0.305489,0.124488,0.102432,0.177633,0.004105,-0.132542,-0.072036,-0.147738,0.174113,-0.01362,-0.150799,0.066116,-0.015746,0.061984,0.18113,0.071903,-0.048675,0.038613,0.00225,0.134948,0.09422,-0.148559,0.046562,0.058128,0.093127,0.118665,-0.022851],[0.202019,1.297608,0.540413,0.242574,-0.002259,0.05851,-0.211087,0.074222,-0.062222,0.047407,0.386459,0.021828,0.016622,-0.061422,0.023135,0.00353,0.149469,-0.217837,0.33693,-1.063958,-0.181464,0.26326,0.159788,-0.152566,0.017126,-0.808315,0.031068,0.142857,0.134196,0.005554,-0.005766,-0.223642,0.087063,0.035264,-0.162597,-0.178236,-0.070733],[-0.166453,-0.130233,0.150905,-0.065582,-0.095303,0.003516,0.126368,-0.017008,-0.156574,0.06576,-0.030339,-0.223736,0.041726,0.132222,0.147378,-0.092634,0.050128,-0.158887,0.243873,0.448717,-0.130465,-0.213278,-0.071214,-0.044661,-0.068836,-0.279206,0.110417,0.042889,0.118904,0.06084,0.077962,-0.079455,0.078444,-0.063223,-0.149822,-0.037203,0.182553],[0.012609,0.546765,-0.012965,0.011011,-0.247932,0.042357,-0.056842,0.148945,0.091986,0.207476,-0.420546,-0.065793,-0.161826,0.114639,0.068423,-0.046429,0.102544,-0.170621,0.086287,0.387207,-0.063252,-0.002169,0.174977,-0.009704,0.138089,-0.328264,-0.145193,0.113121,0.09315,0.191514,-0.094381,-0.123906,0.049571,-0.092713,-0.090743,-0.115433,-0.01643],[0.257499,-0.878091,0.349007,0.245488,0.017932,-0.204639,-0.344916,0.101654,-0.003335,0.151459,0.581567,-0.120165,0.086281,-0.002029,0.144716,0.018628,-0.012446,-0.147346,-0.173757,-0.483047,0.028399,0.169542,0.171529,-0.045531,-0.059639,-0.327521,0.015769,-0.089493,0.176889,-0.087244,0.117523,0.08452,0.024066,-0.301501,0.016226,-0.251105,0.03848],[-0.229952,0.04967,0.068493,0.078374,0.144953,0.174135,0.005683,-0.015997,-0.072642,0.071713,0.749008,0.101075,0.176572,0.027419,-0.064989,0.056008,0.096444,0.082374,0.027894,-0.036533,0.220827,-0.292457,0.005707,-0.053497,0.150456,0.406867,-0.03739,0.134494,-0.03986,-0.051136,0.069899,0.021255,0.139745,0.015234,0.138015,-0.070523,-0.114176],[0.155893,-0.103807,-0.013204,-0.154496,0.002655,-0.032981,0.200285,0.045828,-0.092114,0.091043,-0.471158,-0.079746,-0.287958,-0.006193,-0.006895,-0.159776,-0.147849,-0.018392,-0.153955,-0.089152,0.204852,-0.063914,-0.055374,-0.05275,0.107489,-0.091167,0.156823,-0.013679,0.149296,-0.04023,0.077618,-0.125215,0.197855,-0.028259,-0.0696,0.074773,0.030486],[-0.382446,-0.047776,0.314853,0.283502,0.102063,0.072587,-0.051852,-0.235144,-0.094651,0.111743,0.703878,-0.048679,0.152536,-0.074452,-0.117682,0.001987,0.164217,-0.043574,-0.18559,-0.655573,0.026616,0.118645,0.049839,0.081634,-0.035561,0.119177,0.11757,0.194466,0.12638,-0.015474,0.038588,0.027455,0.079843,0.084728,-0.005599,-0.108813,-0.038791],[-0.063011,-0.389866,0.04622,0.136166,-0.023047,-0.118789,-0.028278,0.087205,-0.149511,0.074654,0.095718,0.088539,0.036136,-0.060787,-0.088475,-0.022572,0.133674,-0.075627,-0.16382,-0.400042,0.03953,0.013783,0.101589,0.089833,0.051392,0.130449,-0.04034,0.012203,0.122083,0.121274,0.066591,0.162838,-0.041458,-0.024875,0.050414,0.090826,-0.083595],[0.152977,-0.019661,0.093457,-0.103933,-0.127309,0.029987,0.07335,-0.121524,0.076126,-0.136673,-0.119302,-0.060963,-0.145154,-0.108505,-0.016593,-0.119066,-0.161276,0.143281,-0.006341,0.129314,0.020934,0.046626,-0.073556,-0.143274,0.148775,-0.053695,-0.154096,-0.165433,-0.051609,0.103503,-0.012954,-0.041802,-0.132645,0.088709,0.062332,0.0351,0.074369],[-0.148624,-0.065871,-0.108965,0.099411,-0.112568,-0.092632,-0.084639,-0.125084,-0.064578,-0.057587,0.084625,0.042895,-0.04383,0.025788,0.108098,-0.013234,-0.136986,0.161634,0.113081,0.000841,0.081532,-0.098086,-0.018858,-0.061611,0.049895,-0.114745,-0.043137,-0.133912,-0.035828,-0.031594,0.102328,-0.119608,0.077729,-0.056385,-0.078762,-0.02248,0.117993],[0.030566,0.118506,-0.01534,0.074242,0.133407,-0.027717,-0.027327,-0.041118,0.105629,0.145501,-0.020105,-0.008909,-0.140147,-0.162028,-0.120716,-0.13846,0.066229,-0.131083,-0.154032,-0.075926,-0.059772,-0.105511,-0.099874,-0.052894,-0.117477,-0.145012,0.071843,-0.06233,-0.06143,-0.114837,0.054327,-0.061368,-0.02016,0.05538,-0.150612,0.018045,-0.145225],[0.158153,-0.872485,0.22831,-0.039622,-0.051041,-0.046938,0.168886,-0.145237,-0.093309,0.193392,-0.145865,-0.011023,0.005641,0.014849,-0.135468,0.08842,-0.231955,0.145931,0.275513,0.075249,0.089802,-0.227947,-0.296762,-0.035973,-0.017993,-0.24638,-0.012313,-0.046835,-0.182219,-0.191118,0.06759,0.095493,-0.016501,-0.222986,-0.002901,0.012839,-0.208403],[0.201575,0.154547,-0.068066,-0.004094,0.167409,0.149378,-0.049332,-0.046128,0.032546,0.195714,-0.187388,0.060344,0.195204,-0.081871,-0.110264,0.046633,-0.035846,0.008664,0.113005,0.579003,0.158169,-0.251141,-0.098528,0.034848,-0.043457,0.200053,0.266743,-0.022044,-0.129341,-0.062361,-0.056176,0.058759,-0.102904,-0.035974,-0.142276,0.028488,0.119531],[0.104373,-1.363715,-0.304285,0.070718,0.078519,-0.14805,0.053204,-0.061614,-0.049945,0.210618,-0.798034,-0.181766,0.212914,-0.090587,-0.023874,-0.136146,-0.095377,-0.047017,-0.088232,-0.07294,0.048922,0.008492,0.122018,0.041892,-0.197025,-0.623994,0.300137,0.26135,0.020759,0.09465,-0.158059,-0.241425,-0.08437,-0.064072,-0.099356,0.036714,-0.040128],[-0.093906,-0.914413,-0.150272,0.147382,-0.066353,0.136496,-0.025074,-0.179043,-0.011957,-0.090175,0.7378,-0.007955,0.134403,-0.043198,0.049958,0.110249,0.033207,0.084312,-0.465355,-0.560966,0.244702,0.188746,-0.271263,0.196707,0.101957,0.681017,-0.10145,-0.067241,0.067476,-0.028715,0.131046,0.101702,0.025973,0.072458,0.035037,-0.07835,-0.272419],[0.104426,0.066983,0.004668,0.121755,0.053394,-0.086776,-0.161353,0.131414,0.078521,-0.163927,-0.052345,0.098707,0.006586,-0.067,-0.112336,-0.131368,-0.152993,-0.074534,0.116055,-0.10681,-0.100092,0.081972,0.097577,0.141252,-0.020298,-0.070482,0.079421,-0.054803,0.031852,-0.095283,0.151544,-0.161339,-0.010926,-0.086278,-0.09161,-0.159083,-0.021388],[0.105227,0.090754,-0.03714,0.028284,0.063679,0.021196,-0.090801,-0.027663,-0.006831,0.045677,0.072926,0.031056,-0.140845,-0.117829,-0.053942,-0.118197,-0.068107,0.105986,-0.137075,0.062937,-0.060765,-0.12175,-0.077635,-0.133191,-0.136306,-0.12651,-0.091082,-0.038336,0.02525,-0.056869,0.113488,-0.092334,0.053803,-0.075524,-0.100454,0.067881,0.072247],[0.29291,1.074816,0.630695,-0.325117,-0.013973,0.166747,0.08434,-0.154977,0.143922,-0.507484,1.250698,-0.086391,0.031908,0.107501,0.014705,0.042883,-0.013312,-0.302314,0.55058,0.260486,0.061455,-0.082098,-0.041206,0.16703,-0.083475,-0.07943,0.137347,0.030575,0.029706,-0.056627,0.05196,-0.303997,0.099554,-0.033913,0.23886,-0.196449,-0.307158],[0.029441,0.242793,0.188573,-0.0263,0.084082,0.003465,0.124469,-0.052069,0.009414,0.04685,0.337706,0.088984,0.157077,-0.134629,0.025181,-0.141964,0.075261,0.022786,-0.040242,-0.029754,0.208257,0.067253,-0.002952,-0.036319,0.148517,-0.048782,-0.287552,0.04257,0.023006,0.003288,-0.162774,0.139235,0.026104,-0.061676,-0.096655,-0.00431,0.123039],[-0.114278,-0.072317,0.112536,0.080191,0.01683,0.034019,-0.015777,-0.060248,0.09688,-0.064214,-0.155894,0.147933,-0.154094,0.140126,0.100234,-0.157981,0.101073,-0.048644,-0.050601,-0.004693,-0.063144,0.017507,-0.04412,0.045971,0.105049,0.088184,-0.04778,0.020749,-0.173229,-0.150054,0.092148,-0.062376,-0.067427,0.136454,-0.016754,-0.051241,0.012558],[0.05464,0.434229,-0.291411,0.275708,0.230553,0.117995,-0.11919,0.069567,-0.137175,-0.002774,0.16501,0.135888,-0.082043,0.042424,0.146524,0.053582,-0.022212,0.129366,0.192926,0.235486,0.041742,0.098156,-0.005612,0.039435,-0.124828,0.414891,-0.217505,-0.030327,0.151358,-0.024214,-0.15632,-0.056022,0.033145,-0.11064,-0.092537,0.115418,-0.425614],[0.058582,0.059429,0.136422,0.141091,0.111273,-0.038537,-0.088373,-0.153677,-0.034826,0.005514,0.369446,0.009151,0.175742,0.01565,0.145665,0.030516,-0.052772,0.171375,-0.170863,-0.15447,0.010168,0.045359,-0.070333,-0.062187,0.037206,-0.004008,-0.074206,0.00429,-0.095071,-0.132307,-0.130547,0.064503,0.119886,0.049992,0.109995,0.060025,-0.02391],[-0.011547,-0.105657,0.043061,0.10446,-0.077224,0.185093,0.133174,0.167298,0.027099,-0.067576,0.136864,0.134724,-0.042307,-0.068561,-0.032374,-0.072977,0.114048,-0.008392,0.191965,0.282594,-0.053503,0.086844,0.032939,-0.023101,-0.080654,-0.108889,0.199366,0.206123,0.154,-0.210509,-0.059924,-0.019579,-0.166075,0.034011,0.051697,0.069997,-0.050579],[0.141294,0.164689,0.056215,-0.01747,0.037038,-0.057491,0.075915,-0.009873,0.076406,0.01768,0.097863,0.083665,0.109995,0.123679,-0.162926,-0.03844,-0.153151,-0.061626,0.036493,-0.166496,0.078402,-0.205941,-0.157088,0.121791,0.105075,-0.017534,-0.041313,0.135606,0.029354,-0.000183,-0.020797,0.076032,0.16974,0.012791,0.036895,0.002209,-0.184883],[0.167252,0.61453,0.167195,-0.06858,0.266926,-0.07308,0.114438,0.044818,0.054337,-0.09338,0.131677,-0.03194,-0.052004,0.035428,-0.057854,0.031427,0.050116,0.049762,0.454318,0.145399,-0.054818,-0.001266,-0.058274,0.098147,0.069805,-0.054113,-0.083816,0.020978,-0.096984,-0.110607,-0.14842,0.082392,-0.125434,-0.101446,0.192872,0.043639,-0.38952],[-0.031877,-0.033149,0.010445,-0.054175,0.081992,0.087989,-0.074548,-0.122942,-0.09264,-0.183429,-0.057605,-0.141149,-0.122503,0.004895,-0.100031,-0.021122,-0.000926,0.119519,0.135553,0.09035,0.072444,-0.036695,-0.060973,-0.151005,-0.068934,0.020871,-0.131271,0.015632,0.075124,0.095822,-0.024616,-0.004206,-0.041925,-0.034666,0.139777,-0.00195,0.078873],[0.065124,-0.09071,0.350876,0.007533,0.109551,-0.175,-0.166811,-0.040293,0.011508,0.294803,0.316168,0.00034,0.162075,-0.006817,0.138485,0.01122,0.184313,0.005147,-0.416856,-0.335469,0.029407,0.048653,-0.070062,0.114839,-0.080108,-0.185476,0.128233,0.038433,0.08785,-0.028479,0.051358,-0.123283,-0.029827,-0.035827,0.200725,0.039277,0.229146],[-0.19633,1.06483,0.007015,-0.142951,0.158585,-0.157035,0.035628,-0.124784,0.176489,-0.261755,0.210412,-0.124692,-0.110497,0.054041,-0.025589,0.027292,-0.098448,0.000914,0.494665,0.196016,0.169366,0.058824,-0.079112,-0.0839,-0.126525,-0.188558,-0.079036,0.088773,-0.054828,0.009188,0.131361,0.076351,0.02879,-0.036836,0.149842,0.188616,0.117451],[0.026853,-0.121652,0.195057,-0.303212,0.027827,0.260799,-0.064828,0.218971,-0.260372,0.120118,-0.706394,-0.024294,-0.0346,0.093364,-0.017758,-0.010785,0.022709,-0.138246,0.136634,-1.247236,0.255985,0.171866,0.052879,-0.103784,0.050492,-0.554638,0.029988,0.125373,-0.035277,-0.127701,0.00698,-0.039575,0.081751,-0.012715,-0.183998,0.04323,-0.232127],[0.159011,2.58806,-0.021004,-0.241086,-0.021677,-0.274347,-0.310723,0.437888,-0.080337,-0.434839,-0.073263,-0.181628,-0.064911,-0.049562,-0.019317,0.086297,-0.025158,-0.179249,0.312887,-0.762182,0.139297,-0.28181,0.088741,0.061526,-0.009245,0.850886,0.134164,0.04809,-0.200643,-0.10894,0.044713,-0.186268,-0.078265,-0.089488,-0.106652,0.191304,-0.150134],[0.142667,-1.197317,-0.053064,-0.135639,-0.123772,-0.159337,-0.09821,-0.123404,0.032865,-0.027042,-0.182141,-0.232325,0.031565,-0.168483,0.022951,-0.045991,0.023863,-0.102182,0.208482,-0.69359,0.048028,-0.016529,0.064637,0.022461,-0.143233,0.133039,0.399072,0.295915,-0.065234,-0.176318,0.104979,-0.055254,-0.042921,-0.04261,-0.081371,0.039707,0.171107],[0.03988,-0.155952,0.12108,0.077171,0.008601,-0.135109,0.085498,0.051419,-0.073445,0.154586,0.470852,0.106329,0.090947,0.157639,0.121598,0.033999,-0.10272,0.130407,-0.317114,-0.209235,-0.051578,0.122566,0.008163,0.008832,-0.102562,0.038947,0.096237,0.137274,-0.114951,0.11415,-0.090488,0.082849,-0.127666,-0.017123,0.044898,0.010507,-0.231],[-0.090981,0.473698,-0.216214,0.212948,-0.162689,0.297665,0.034149,-0.364897,-0.063796,0.034514,0.293704,0.255415,-0.194457,0.08507,-0.019795,0.117685,-0.117709,0.112567,0.557144,0.936575,0.076811,-0.217948,-0.100264,0.040852,-0.005791,-0.529312,-0.127972,-0.033583,0.165292,0.084246,-0.087293,-0.003517,-0.132204,0.221975,-0.637493,-0.15603,-0.4962],[-0.259353,-0.11404,0.203664,-0.152995,0.056225,-0.087596,0.141571,0.092531,-0.150305,0.087368,0.162438,0.050937,0.104181,0.12428,0.023438,-0.130272,0.125353,0.065656,-0.260394,-0.289294,0.008394,0.138169,0.065376,0.069096,0.034163,-0.109411,-0.083264,-0.026191,0.056359,-0.123884,-0.002418,0.158152,-0.074204,0.038059,-0.304887,0.070783,-0.193548],[0.30862,-1.416444,-0.007485,-0.115548,-0.131816,-0.134729,-0.123853,-0.031635,0.047385,-0.010382,-0.461264,-0.021178,0.03005,0.038924,-0.115136,-0.118616,0.087387,-0.218862,0.1071,-0.392831,0.117601,-0.006929,0.060277,-0.052914,-0.075288,0.097153,0.18818,-0.021113,-0.204849,0.125081,-0.153511,-0.030208,0.056605,-0.038825,-0.204749,0.105724,0.053671],[0.207378,0.170027,-0.066242,-0.052984,0.139112,0.00567,-0.071081,-0.119551,0.133155,-0.112979,0.286756,-0.163181,0.026417,-0.134306,-0.141348,-0.074581,0.087112,0.0072,-0.128761,0.224916,-0.0659,-0.007918,0.159524,-0.163436,0.158882,-0.200511,-0.059121,0.137097,0.062411,0.084423,-0.060819,0.141603,-0.087448,0.052588,-0.136297,0.018962,-0.051323],[-0.20215,-0.907545,0.227362,-0.084279,0.073787,0.148225,-0.049568,0.159748,0.330633,-0.126051,-0.419629,0.172175,-0.06526,0.129549,-0.009807,0.074133,-0.055426,0.031268,-0.198787,-0.686053,-0.234234,-0.282781,0.068006,-0.004397,-0.09887,-0.23788,-0.097262,-0.062569,0.077394,-0.015811,0.131647,0.085675,0.029972,-0.185773,0.061812,-0.053147,-0.168378],[0.048582,-0.414435,0.084859,0.075666,-0.112012,0.081289,0.232035,-0.080102,0.065014,-0.140368,-0.294297,0.071091,0.006983,0.086666,0.156255,0.074446,0.003208,0.125767,-0.028866,-0.057876,0.07113,0.093227,0.087478,-0.028563,-0.056201,0.031326,-0.077161,-0.097993,-0.088762,0.00753,0.132896,-0.128437,0.005066,-0.138851,0.20236,0.046238,-0.07785],[0.15355,-0.471389,0.015325,-0.090949,0.244835,-0.046508,-0.061392,0.228521,0.081113,0.166476,-0.031788,0.108674,0.009289,-0.083815,-0.123816,-0.011382,0.051458,-0.059522,-0.171786,-0.235307,0.198914,0.07208,0.142412,0.131782,0.019622,0.55786,-0.018083,-0.121777,0.082091,0.125404,0.026389,-0.084342,-0.004986,0.102998,-0.130712,-0.190318,-0.062183],[0.224821,-0.984496,0.279347,-0.227109,-0.159064,-0.042285,-0.118909,-0.161712,0.188773,0.101366,0.1001,-0.032541,0.079022,0.087716,-0.005346,0.147696,0.056941,-0.159778,-0.187373,-0.385744,0.08204,0.196567,0.005666,0.064717,0.01368,0.070599,0.12355,-0.035774,0.127203,0.096886,-0.08767,0.051097,-0.07509,-0.228172,-0.168024,-0.027982,-0.023852],[-0.571764,-1.298742,0.22151,-0.02802,0.048489,0.054709,-0.023478,0.269127,0.184274,0.145146,-0.071502,0.048174,-1.317637,0.071929,0.118337,-0.028363,-0.084849,0.069603,0.183126,-0.433474,0.015505,0.025563,0.089776,0.00514,0.240885,-0.129345,-0.240809,-0.106887,0.148921,-0.035559,0.113116,0.15509,-0.146402,-0.127231,0.010782,-0.116135,0.109985],[0.056564,-0.067019,0.016271,0.015447,-0.045055,-0.121342,-0.104668,0.004976,-0.088669,0.007468,-0.002244,0.051932,0.112096,0.040992,-0.022159,-0.006073,0.013988,-0.125403,-0.052628,-0.075661,-0.051112,0.152197,-0.032005,-0.046202,0.017191,0.063587,-0.111786,-0.077506,0.027521,-0.047982,-0.026348,-0.155607,-0.150095,0.022119,-0.034497,-0.143904,0.057935],[0.301625,0.023837,0.107576,0.064236,0.112396,0.070543,-0.127326,0.057593,-0.049877,0.160918,-0.118348,0.177972,-0.054731,-0.12783,0.031353,0.15235,0.103306,-0.04651,0.117798,0.517414,-0.105927,0.022761,-0.000666,-0.060473,-0.112843,-0.029509,0.141073,0.208113,-0.112002,-0.133529,-0.130193,0.014347,-0.233691,-0.059702,0.084597,0.100242,-0.058999],[-0.099276,0.432845,-0.119275,0.099814,0.044859,0.200992,-0.02517,0.256868,-0.016201,-0.12712,-0.325654,0.098253,0.115319,0.198811,-0.113894,0.045749,0.032041,-0.147599,0.033139,-0.073102,0.143364,-0.051096,-0.092907,0.092877,0.07606,0.09246,-0.093712,0.058122,-0.110034,-0.06895,-0.11664,-0.161343,0.170345,-0.064106,0.009882,0.088133,0.104235],[-0.107706,-0.059216,0.014145,0.123993,-0.099685,-0.119797,0.078525,-0.16594,-0.054019,0.150881,-0.047323,-0.12542,-0.165324,-0.081316,-0.116694,0.143853,0.007696,0.146806,-0.105993,-0.044893,0.071807,-0.036642,-0.130701,-0.120643,-0.114988,-0.089193,-0.126327,0.019641,-0.095934,0.050393,-0.112865,0.145659,0.158192,-0.114671,0.135798,0.054583,-0.036719],[0.039751,-0.082749,0.103461,-0.048441,0.062005,-0.021849,0.071419,0.179294,-0.009261,0.126861,-0.299262,0.007209,-0.088281,0.050817,0.098114,-0.088926,0.119546,0.06949,0.149783,0.092298,0.163384,-0.112422,0.019805,-0.083094,0.098307,0.09215,-0.141636,0.053462,0.038529,0.163451,0.045446,-0.029025,0.18675,-0.107854,0.053081,0.067142,0.131997],[0.214982,-1.294086,-0.25655,0.066345,0.153759,0.054344,0.136499,-0.176829,-0.036056,0.17856,-0.670427,-0.218857,0.024505,-0.161265,0.139169,0.035748,0.159992,-0.129006,-0.200328,-0.461712,0.205127,0.004813,0.005777,0.015107,-0.024789,0.612818,0.205738,0.195653,-0.030098,-0.010966,0.139038,-0.161077,-0.033235,-0.006971,-0.156714,0.033951,0.080759],[-0.095972,0.396949,-0.348486,0.070343,-0.153683,0.252543,0.300184,0.272885,-0.072696,-1.000566,-0.178025,-0.177254,-0.096008,0.078561,-0.015438,0.095581,-0.139083,-0.125034,0.154242,-0.589549,-0.10581,0.126693,0.257968,0.128179,-0.131804,-1.477472,0.010831,-0.052279,0.078635,0.152007,-0.092811,-0.140362,0.020618,0.006939,-0.020057,0.035252,0.249022],[-0.055276,0.559101,0.105575,0.118206,-0.011092,0.249849,0.038475,0.211287,-0.102454,0.101271,0.087023,0.044233,0.209856,-0.010077,0.045436,0.116848,-0.011634,0.068785,-0.00822,-0.268524,0.107078,-0.136892,0.082459,0.037602,0.138836,-0.002256,-0.117503,-0.142084,-0.04038,0.18876,0.164039,-0.020796,0.063163,0.02901,0.023319,0.124724,0.01178],[-0.043798,-0.011756,-0.018472,-0.082918,-0.008639,0.142467,0.038699,0.302177,0.213108,-0.146913,-0.435056,0.081665,-0.095543,0.055425,-0.154156,0.102496,-0.207357,-0.058337,0.050474,0.086789,-0.20783,-0.224463,-0.014415,0.022059,-0.007503,-0.196489,-0.170791,0.088937,0.204671,0.153679,0.021815,0.035014,0.017811,-0.05988,0.196596,0.192328,0.021134],[-0.100195,0.160821,-0.062411,-0.118562,-0.140199,0.145212,-0.064466,-0.151704,-0.108285,-0.003941,-0.090747,0.063102,0.063558,-0.04787,-0.008949,-0.072354,-0.002785,-0.148118,-0.040896,-0.046328,-0.085588,0.023659,0.075973,-0.03775,0.1618,0.110002,-0.047093,-0.021462,0.088979,0.062859,-0.086607,-0.143035,-0.060569,0.067633,-0.056732,-0.090932,0.048249],[0.119504,0.111878,-0.154959,-0.013749,0.115354,0.113,-0.028244,-0.207599,-0.10893,-0.152498,0.156154,-0.184644,-0.002466,-0.059475,-0.157687,0.068776,0.008236,-0.084243,0.05609,-0.07217,0.034346,0.106838,-0.066338,-0.149008,-0.087747,0.08291,-0.152315,-0.140567,0.116481,-0.073317,-0.124988,0.11987,-0.002152,0.145475,0.062094,-0.023408,0.101987],[0.147732,-0.23552,0.347981,0.025708,-0.040485,-0.136369,-0.159601,-0.230198,-0.134215,0.01134,0.650855,0.037886,0.213369,0.035955,0.027418,0.095113,-0.027156,0.016296,-0.316483,-0.072789,0.031128,0.070562,-0.007221,-0.114054,-0.11377,0.05578,0.115738,-0.140421,0.128531,0.123585,0.000427,-0.00373,-0.086531,-0.06807,-0.028044,0.058504,-0.103604],[0.037441,-0.327012,0.310406,0.146202,0.006945,-0.093159,-0.181607,-0.229153,-0.112768,0.169824,0.48135,0.045022,-1.209559,0.098064,0.095843,-0.064501,-0.000254,-0.057409,0.063543,0.012232,-0.014608,-0.01734,-0.008411,0.009812,-0.007183,0.115511,-0.05985,0.037993,0.035193,0.147797,0.103295,0.011549,0.095889,0.015549,0.121246,-0.026116,-0.005971],[-0.214198,0.084517,0.334333,-0.058717,0.052237,0.097704,0.266414,-0.075434,0.163924,0.168916,-0.580222,0.232653,0.140867,0.109491,-0.127572,-0.09135,0.138485,-0.043413,0.000821,-0.116439,0.08044,-0.253571,0.125801,-0.002855,-0.063423,0.141875,-0.104156,0.050545,0.003073,-0.11064,-0.065981,0.164352,0.147987,-0.090484,0.242678,-0.027656,0.112342],[0.067457,0.485378,0.017187,0.116589,-0.070841,0.118369,-0.067667,-0.080599,0.012459,-0.103992,-0.181319,-0.0001,0.067435,0.139645,0.077926,0.13841,0.148551,0.099837,-0.082666,-0.121333,-0.141168,-0.086757,-0.003388,0.04378,0.098484,-0.163976,-0.241173,-0.013318,0.037654,0.13371,0.039588,-0.006437,0.123792,0.035881,0.052668,-0.037079,-0.074015],[0.038673,0.101887,0.34758,0.137137,0.118654,0.160927,-0.1248,-0.083537,0.007305,0.124346,0.584267,-0.0196,0.073521,0.179952,0.090186,0.159192,-0.053837,-0.254339,-0.030973,-0.154584,0.197478,-0.010605,0.25738,-0.103998,-0.063333,0.823814,0.057532,0.056598,-0.09358,-0.0097,-0.105883,-0.282777,0.20076,0.27002,-0.135822,-0.069618,-0.156017],[0.070228,-0.40011,0.361427,-0.137476,0.298507,0.031782,-0.297845,0.163676,0.629487,0.161931,0.247786,0.112482,0.043898,0.120988,-0.085486,0.060441,-0.015786,-0.007293,-0.49309,0.55362,0.192474,-0.096147,-0.073387,0.124485,0.05653,-1.794091,0.012846,-0.125049,-0.088193,0.037696,0.029251,-0.09351,-0.098479,-0.365259,-0.038329,-0.350376,0.040819],[-0.015929,-1.17142,-0.248207,0.312007,-0.277105,0.204153,-0.067789,0.087552,0.135077,0.175409,-0.452583,0.094054,-0.166046,0.129278,-0.01915,0.079016,-0.108428,0.1494,-1.129312,-0.821156,0.083657,-0.14068,0.073096,-0.022163,0.14535,-0.564341,0.001298,-0.013994,-0.04764,-0.031809,-0.046715,0.125908,0.207162,-0.29128,0.166511,-0.31204,-0.067011],[0.074687,0.102254,0.109564,0.034716,0.014689,0.001461,-0.143355,0.156383,-0.087808,0.087442,0.064976,-0.037516,-0.068618,-0.124779,-0.03986,-0.09864,-0.013163,0.144737,-0.049806,-0.12136,0.118523,-0.002623,0.154063,-0.046491,-0.057233,0.0202,-0.141245,-0.115937,0.118119,-0.110042,-0.018121,-0.086358,-0.155575,-0.018864,0.060074,0.028047,0.012864],[0.116689,-0.245397,0.060163,0.08163,-0.104466,-0.005371,0.089896,0.15902,0.091781,-0.03168,-0.308964,-0.165739,-0.176085,-0.091292,0.161684,-0.160854,0.052151,-0.158858,0.025239,-0.019307,0.131128,-0.016067,0.144551,0.114114,0.001442,0.011174,0.192978,0.158952,0.102672,0.049756,-0.08374,0.074547,0.157293,0.026581,0.051936,-0.034146,-0.091557],[0.139531,-0.340324,-0.013262,0.026063,-0.107699,0.183542,-0.022943,0.323601,0.081276,-0.076176,-1.037358,-0.045851,-0.072125,-0.000627,0.048557,-0.034123,-0.228675,-0.030566,-0.232276,0.646525,-0.100677,-0.186226,-0.179081,0.126521,0.015063,-0.817469,0.105572,-0.049587,0.047433,0.066757,0.056538,-0.113838,0.115188,-0.054877,0.04832,0.005403,-0.213274],[-0.068345,0.666687,0.126275,0.35238,-0.115619,0.157603,-0.107901,-0.399259,-0.163094,0.263555,0.520618,-0.044384,0.214119,-0.05643,-0.084085,-0.011116,-0.051571,0.160124,-0.089885,-0.21927,-0.097045,0.048484,0.06695,-0.026001,0.167655,-0.041176,-0.031742,0.153978,-0.131665,0.021218,0.107984,0.031384,-0.091746,0.006799,-0.229827,0.108425,-0.055672],[-0.220338,1.017283,-0.14628,0.090207,-0.037807,0.064894,-0.02152,-0.0897,0.34051,0.197537,-0.484584,-0.072494,-0.156878,-0.009695,-0.05185,0.12557,0.152138,-0.060504,0.273493,0.312686,-0.08361,-0.264945,-0.048202,0.012196,0.209026,0.481035,-0.096719,0.079398,0.133685,0.121006,0.109287,-0.089122,0.171845,-0.010792,0.001257,0.106413,2.1e-05],[-0.235852,0.404726,-0.030776,0.184056,0.138432,-0.081559,0.095119,-0.00829,-0.099711,0.205192,0.255882,0.174798,0.129564,-0.055902,-0.116475,0.108972,0.186463,0.201906,-0.052343,-0.425627,0.118118,-0.064842,0.043735,-0.039216,0.158944,0.222432,-0.197373,-0.081299,0.007869,0.068895,-0.126711,0.086141,0.12547,-0.014681,-0.190888,0.028151,0.033963],[-0.033083,0.100826,0.102739,0.16019,0.19824,0.109457,-0.120487,-0.182105,-0.201176,0.041345,0.608594,-0.147904,0.217304,-0.101229,-0.069624,0.080686,-0.11284,0.149311,0.130875,-0.252349,-0.042608,-0.007699,0.105996,0.046457,0.071667,-0.189607,-0.028765,-0.006412,-0.002378,-0.110423,-0.142121,0.114003,0.040622,0.111562,-0.069738,-0.027108,0.088796],[-0.107594,-0.003503,-0.385442,0.079875,0.115936,0.068162,0.223697,0.083383,-0.069917,0.095661,0.00387,0.09535,-0.110584,0.149916,-0.117398,0.101485,0.053754,0.159373,-0.136987,0.334394,-0.083632,-0.174973,-0.23751,-0.115603,0.123433,0.190936,0.063588,-0.091701,-0.073248,-0.021976,-0.075328,0.067295,-0.174208,-0.022252,-0.300014,-0.109466,-0.217567],[0.104874,-0.10077,-0.06687,0.294836,-0.097082,-0.284032,0.117998,-0.180813,-0.116968,-0.007608,0.288133,0.105401,0.300764,0.06171,-0.152045,0.008569,-0.047166,0.156192,-0.273796,-0.348581,-0.04566,-0.135075,0.003991,-0.051293,0.062602,0.161953,0.065979,0.035224,-0.160363,0.056619,-0.131594,-0.040371,-0.133324,-0.08849,-0.022101,-0.107828,0.236565],[-0.27067,-1.235471,0.261415,0.215042,0.164992,0.078445,-0.229227,-0.337531,0.004234,0.103064,0.480887,-0.085924,-0.079098,0.198605,0.097439,-0.050674,-0.129225,0.166707,-0.492289,-0.343688,0.02861,0.250086,0.166348,0.016188,0.069899,0.696973,-0.096546,0.060657,-0.043781,0.123932,-0.019049,0.06056,-0.159407,-0.022237,-0.272905,-0.076942,-0.296976],[0.140462,0.226575,0.197133,-0.140284,0.060377,0.120389,0.190115,0.221121,0.057771,0.106056,-0.097648,-0.061211,0.070635,0.043863,0.152951,-0.021572,-0.001379,-0.076794,-0.084429,0.130028,0.073784,-0.122275,-0.009412,-0.14024,0.169333,0.114017,-0.164635,0.087922,0.161081,0.010593,-0.147416,-0.178069,0.010953,0.012744,0.203808,0.042709,-0.033075],[-0.063407,0.423615,-0.199132,0.114875,-0.055166,0.037399,0.210494,0.028253,0.112971,-0.065193,0.045024,0.095353,-0.01479,0.005796,0.047622,0.065575,-0.112234,0.094125,0.019932,-0.170624,0.083852,-0.0957,0.076023,0.090439,0.018136,-0.150104,-0.049699,-0.106175,-0.113758,0.131685,0.068999,-0.014638,0.144759,-0.009377,-0.008297,0.08931,0.137962],[-0.044754,0.083,-0.105758,-0.153598,0.126148,-0.01341,-0.138553,0.00635,-0.075704,-0.100881,-0.020311,-0.017143,0.016713,-0.064877,0.000902,-0.031642,0.018212,0.139602,-0.085738,0.021884,-0.133181,0.137945,-0.02322,0.028278,-0.157727,0.000706,-0.126149,-0.086661,-0.119821,-0.102515,-0.090339,0.042763,-0.124213,-0.032718,-0.043714,0.155884,0.066187],[0.312823,0.086652,-0.057366,0.107889,-0.074566,-0.072809,-0.099317,0.004933,-0.04609,0.069934,-0.032186,0.060464,-0.181006,-0.079763,0.143401,0.15359,0.201131,-0.104282,-0.152854,0.551809,-0.113453,0.120147,0.038493,0.143284,-0.013036,-0.217859,0.119556,0.21684,0.096002,-0.237593,-0.149444,0.134783,-0.32513,0.09004,0.089476,0.126968,-0.02986],[-0.180293,0.791965,0.471294,-0.114478,-0.136842,0.179131,-0.046398,0.00136,-0.068467,0.295662,-0.26203,-0.027433,0.187257,0.202833,0.008593,-0.036926,-0.126975,-0.132339,0.049368,0.413891,0.177925,0.129842,0.119845,-0.118786,0.173405,-0.184067,0.002627,-0.059232,-0.017536,0.007788,-0.046434,-0.166424,-0.041768,0.063853,0.13549,-0.153508,0.000684],[0.084891,-0.00347,0.083768,-0.069094,0.039699,-0.03354,0.128879,0.063645,0.077213,-0.13788,0.263387,-0.019819,0.117774,0.103993,0.025109,-0.024127,0.046363,0.035418,0.020557,-0.070637,-0.01707,-0.071113,-0.039337,0.127256,0.040764,-0.142136,-0.093806,0.093028,-0.093432,-0.042347,0.04006,-0.113974,-0.119864,-0.00331,-0.055735,0.003464,-0.0385],[-0.046524,0.898062,-0.234063,0.072861,0.026964,0.08843,0.177149,-0.01867,0.031387,0.250687,-0.472428,-0.110397,-0.00259,0.015484,-0.162046,-0.117292,-0.041306,0.192608,-0.14467,1.089771,-0.231141,0.024817,-0.32365,-0.232772,0.090125,-1.348791,-0.098692,-0.169937,0.184515,-0.036788,-0.117112,0.170954,-0.061316,0.04374,0.477569,-0.062024,0.456461],[0.087223,0.257905,-0.030696,-0.197499,-0.151103,-0.140589,-0.083745,-0.008806,-0.037786,0.072569,0.053356,0.073626,0.037403,0.067547,0.003461,0.00725,0.147113,-0.156449,-0.009696,-0.038712,-0.164724,0.164257,-0.090288,0.079586,0.019599,-0.038822,-0.081831,0.033164,-0.063418,-0.053329,-0.095438,0.116145,0.049288,0.06248,0.158912,0.083876,-0.263078],[-0.094983,1.12928,0.080788,0.20429,-0.282061,-0.072228,-0.083007,-0.035325,0.123096,0.298291,0.057807,-0.054071,-0.141752,0.033985,0.033753,-0.123807,-0.053059,0.162027,0.189864,0.584987,-0.153577,-0.01104,0.078304,-0.028351,0.057346,-0.36932,-0.150909,-0.116219,-0.011068,0.078228,-0.046571,0.127237,-0.220087,-0.148125,0.087568,0.170006,0.131328],[0.00626,-0.003942,0.097445,0.019779,-0.015511,-0.201796,-0.107374,-0.279465,-0.018205,0.414785,-0.21182,-0.182016,0.249866,-0.014629,-0.110685,-0.045755,0.133401,-0.284919,0.343062,0.501554,0.290013,-0.145135,-0.070501,-0.250871,0.054494,-0.012199,0.111046,-0.023726,0.050956,0.13389,-0.126555,-0.031362,-0.068269,-0.025451,0.248647,0.168867,-0.290847],[-0.314767,0.22371,0.150798,0.079465,0.238516,0.204342,0.036599,-0.030209,0.070465,0.256172,-0.237682,0.255857,0.016276,0.096805,0.111912,-0.121541,-0.089568,0.052282,0.13826,-0.289538,0.145747,-0.140366,-0.074727,0.055449,0.18277,0.606113,-0.205655,-0.145691,0.075143,0.146758,-0.008073,0.171083,0.006278,-0.076311,0.060293,0.006435,-0.135251],[-0.068082,-0.009214,-0.080502,0.148464,0.235078,0.083087,-0.105902,0.094889,0.037975,0.15651,0.663003,0.13618,-1.195543,0.137551,0.079578,-0.140526,-0.029248,-0.044782,0.105075,-0.056233,0.002551,-0.016347,0.0323,-0.000779,0.010945,0.216435,-0.016599,0.076166,-0.059627,0.10519,0.008712,0.049161,0.173239,-0.03622,0.035794,-0.052722,-0.041942],[-0.01476,0.418302,0.188739,0.025015,-0.032738,-0.187001,-0.085351,0.006148,0.185953,-0.111324,-0.038658,0.110377,-0.056872,0.135157,0.076301,0.121399,-0.138888,0.061632,0.055741,0.276987,0.126431,0.035241,-0.106176,-0.098476,-0.04028,-0.330423,0.046525,-0.056093,0.087623,0.010607,0.096406,0.035299,0.023926,-0.125449,0.064883,-0.076737,-0.176105],[-0.075605,-0.104563,-0.042314,0.094719,0.092126,0.05297,0.272725,0.012542,0.168673,-0.068567,-0.609585,-0.089269,0.072828,0.116312,0.09042,0.108161,-0.143568,0.057223,-0.311014,0.063529,0.205798,-0.22119,-0.194958,0.038888,-0.056112,-0.028059,-0.058881,-0.191542,-0.125046,-0.26235,-0.002999,0.128315,-0.12199,-0.025188,0.134092,0.041341,-0.120977],[-0.084889,0.091264,-0.00028,-0.051307,-0.058328,0.056571,0.076623,-0.017831,0.127895,0.110609,-0.36084,0.002644,-0.0519,-0.05366,0.069183,-0.085138,0.104116,0.03668,0.116773,-0.009331,0.157914,0.050016,-0.010306,0.082242,0.116563,0.005574,-0.05539,-0.029315,-0.101501,0.074801,0.152511,-0.017469,0.136724,-0.148763,0.340885,-0.034489,-0.0155],[0.226462,-1.370387,0.221647,-0.218517,0.190499,0.057572,0.190664,-0.022995,0.235732,0.058745,-0.457349,-0.123371,-0.031233,0.173954,0.023189,-0.06079,-0.011517,-0.051131,-0.214073,-0.074251,-0.007734,0.075435,0.174992,-0.022662,0.069454,0.04044,0.001951,0.107969,0.130282,0.06577,-0.110919,-0.189733,0.038412,-0.209103,-0.154881,-0.121202,0.172826],[0.201384,0.074674,-0.139414,-0.142553,-0.019635,0.035931,-0.114819,-0.012297,0.195145,-0.135972,-0.254804,-0.114115,-0.14372,-0.096247,0.076606,-0.161632,0.179311,0.12257,0.183901,-0.02541,0.072217,0.009212,-0.022548,-0.165274,-0.043623,0.137509,0.178846,0.188311,-0.128758,-0.003486,0.08085,-0.125682,-0.2139,-0.069455,0.048904,-0.053379,-0.107078],[-0.013381,1.203711,-0.225348,0.165125,0.162225,0.191092,0.032414,0.083123,0.364047,-0.283576,0.337061,-0.182181,-0.024688,-0.060195,-0.108417,0.005871,0.085941,-0.169387,0.510548,0.481421,0.045231,0.084383,0.023425,-0.16461,0.178326,0.151049,-0.138444,-0.02061,0.132865,0.005187,-0.163949,-0.12194,0.141954,0.052819,-0.13047,0.274198,0.123633],[0.053552,-0.378332,-0.034501,0.211122,-0.040875,-0.00861,0.15055,-0.088587,-0.136727,0.030033,0.344725,-0.04293,0.019942,-0.032438,0.044071,-0.091687,0.048979,-0.105404,0.094259,-0.813518,-0.12588,0.110451,-0.166719,0.024081,0.074842,0.245751,-0.204907,0.064888,0.159035,-0.112215,-0.084358,0.079388,-0.115676,-0.20363,0.122263,0.059859,-0.150014],[0.111816,0.454905,0.235187,-0.003505,0.131854,0.14573,-0.070326,0.023052,-0.043298,0.211587,-0.110539,0.0435,0.114736,0.081389,0.14072,-0.148116,-0.101425,0.011838,-0.154214,-0.217461,0.082284,0.01644,-0.060534,-0.024373,-0.008079,-0.253973,-0.079104,-0.167391,0.14967,-0.034593,-0.159191,0.057577,0.068917,-0.138786,0.154337,0.132028,0.119878],[-0.155743,0.721534,0.075112,-0.023042,-0.016854,0.231744,-0.182973,0.086799,0.318212,0.072898,-1.026377,-0.093319,0.006715,0.176521,0.155471,-0.108327,-0.019862,-0.020657,-0.419413,-0.023995,0.272558,-0.080055,0.032659,-0.228082,0.157952,-0.104324,-0.028637,-0.064902,-0.107207,0.152268,-0.032391,-0.021459,-0.04242,0.077887,-0.194271,0.004429,-0.01892],[0.003749,-0.797426,-0.200115,-0.086725,0.087507,-0.020256,0.055704,-0.007735,-0.154206,-0.013407,0.359966,-0.195461,0.082115,0.135603,0.121315,-0.119203,-0.022657,-0.092007,-0.318555,-0.225547,0.13657,-0.046079,-0.0598,-0.095532,-0.135449,-0.176325,0.097082,0.065069,-0.018111,-0.071678,-0.04815,0.045756,0.040194,-0.032954,0.093714,0.033167,0.019551],[0.14531,0.772494,0.050937,0.01231,-0.363097,0.443203,-0.020073,-0.051968,0.067775,0.214645,-0.50833,0.083398,0.061146,-0.027148,0.055193,0.001864,-0.195981,-0.131262,-0.08094,0.31856,0.109786,0.158849,-0.144983,-0.07919,-0.016707,-1.199862,0.107874,0.085726,-0.147342,0.114316,0.109028,-0.196526,0.003734,-0.10988,0.12706,-0.309512,0.143014],[-0.266109,0.130463,-0.080626,0.119968,0.009834,-0.004549,0.229601,0.01844,0.137345,0.055966,0.194551,0.1352,-0.072147,-0.066061,-0.134916,-0.134942,-0.040129,0.088083,-0.240795,-0.325417,0.09533,-0.416745,-0.248275,0.196092,0.135197,0.150496,-0.092834,-0.084629,0.018007,0.20373,0.093678,0.096665,-0.123929,0.076035,0.106216,0.002541,-0.029495],[-0.174713,1.401843,-0.1179,-0.194371,0.063908,-0.153214,0.190212,0.179237,-0.029607,0.040137,-0.581001,0.034874,0.106369,0.093141,0.154181,-0.117454,0.109813,0.018355,0.116217,0.837072,-0.093008,0.21071,-0.106251,-0.104978,0.013664,-0.005596,-0.003877,-0.132695,0.034889,0.082091,0.080606,-0.102283,0.155804,-0.264637,-0.090879,0.265989,0.050746],[0.010445,0.312893,0.035505,-0.159654,-0.159562,0.084014,0.178871,-0.13719,-0.103931,0.076137,0.076801,-0.123957,0.139477,0.163876,-0.135957,-0.115258,-0.068236,0.039213,0.027875,0.024169,-0.030452,-0.096744,-0.064334,0.033388,-0.129096,-0.094837,0.106172,-0.151725,0.150966,-0.040038,0.056648,-0.115491,0.021266,-0.010503,0.142823,-0.064713,-0.129497],[-0.038187,-0.033774,0.002427,-0.083572,-0.140648,0.048571,-0.097532,0.056791,0.119866,0.027501,0.117161,-0.062936,-0.146443,0.131204,0.079178,-0.113599,-0.131916,0.128087,0.149457,0.159568,-0.052525,-0.016045,-0.085393,-0.036269,-0.085163,0.129059,-0.145746,-0.152011,-0.099438,-0.154908,0.050031,-0.14777,0.06734,-0.065531,-0.121787,-0.112546,0.086951],[0.235537,0.592453,-0.130572,0.053319,-0.087373,0.134062,0.167592,0.048715,0.157837,0.099993,-0.01755,0.137185,0.058305,-0.086194,0.071475,0.141955,-0.089192,0.066078,0.244565,0.538164,-0.011906,-0.072464,-0.124311,0.096409,-0.082245,-0.273889,-0.073751,-0.015894,0.157885,-0.064737,0.13573,0.005741,-0.114757,0.024232,0.061682,0.176074,0.041594],[0.022743,-0.038673,0.181423,-0.013321,-0.1812,-0.023672,-0.16705,0.095779,-0.102885,-0.044027,-0.615735,-0.054892,0.070662,-0.150474,0.114652,0.048457,0.084475,-0.08011,-0.039938,0.217158,0.16691,-0.13731,0.026301,0.192022,-0.04155,0.337966,0.350821,0.279444,0.007933,0.051182,0.108647,0.086964,-0.019687,-0.242146,0.096322,-0.251518,-0.189956],[-0.161348,-0.705378,-0.236252,0.060667,0.001726,0.199804,0.01657,0.145063,0.123093,0.157687,-0.083033,-0.071979,-0.075428,0.201703,0.069183,-0.032755,0.050648,-0.148885,-0.364586,-0.19623,0.210822,0.256667,0.111106,-0.087753,0.087304,0.363647,-0.205186,-0.030231,0.216486,0.196847,0.122918,0.100167,-0.006937,0.05403,-0.264271,-0.01166,0.098281],[-0.089881,-0.510246,-0.19124,-0.071858,0.147607,0.142672,-0.130345,0.000383,-0.017552,0.117525,0.080434,0.204643,-0.111278,0.188623,0.161292,-0.071007,0.174288,-0.025955,-0.568449,-0.091305,0.047411,-0.145641,-0.004812,-0.096581,-0.133792,0.268343,-0.18508,-0.108269,0.069198,-0.004008,0.105998,0.204673,0.117128,-0.086383,-0.072478,-0.094375,-0.178175],[-0.087644,0.022546,0.361171,-0.075388,0.088164,0.087702,-0.164363,-0.000892,0.007658,0.059944,0.48987,0.067193,0.10936,0.181933,-0.01061,-0.038583,-0.083084,-0.007365,-0.130943,-0.35326,-0.040971,0.057415,-0.038272,-0.037233,-0.015967,-0.084699,0.11379,0.182985,-0.096585,-0.090801,-0.084913,0.037191,0.092695,0.060769,-0.14301,-0.1541,0.204115],[-0.060269,-0.018125,-0.038366,-0.084887,0.04276,-0.120765,-0.10683,0.084117,0.015502,-0.031738,0.360375,0.18618,0.192463,0.033792,-0.016251,-0.030763,-0.02288,-0.032807,-0.07305,-0.443389,0.097841,-0.018065,-0.083863,-0.05294,0.091878,0.028975,-0.106571,0.109523,0.052854,0.088903,-0.048054,-0.061385,-0.131603,-0.023128,0.040735,-0.002364,0.015862],[0.203957,0.089253,-0.343257,-0.172333,-0.061701,-0.169726,0.237494,0.101406,0.487301,-0.081467,-1.487677,-0.073353,-0.182043,-0.189136,0.037469,-0.015655,0.019922,-0.177494,0.006184,0.155527,0.150282,0.109133,0.054962,0.137355,-0.065801,0.419381,0.322472,-0.038948,-0.055065,-0.172986,-0.146846,-0.112831,0.056839,-0.019425,0.191067,0.036842,0.020988],[0.049433,-0.407593,0.045014,-0.009313,-0.066383,0.15045,-0.105556,-0.047497,-0.004558,0.118187,-0.077645,-0.131639,0.1128,0.103762,-0.1134,-0.1269,0.052927,-0.049895,-0.197505,0.316031,0.052793,0.185242,-0.146411,0.071468,-0.005004,0.088519,0.23515,0.185349,0.063249,0.054756,-0.109292,-0.194805,0.18209,-0.25536,0.215623,-0.065731,0.042894],[0.034189,-1.044311,0.236169,-0.157552,0.186647,-0.252783,-0.124395,-0.041229,0.20095,-0.100777,-0.012364,0.148333,-0.078216,-0.152131,-0.155158,0.004477,-0.093944,-0.122325,-0.24909,-0.098378,0.107745,0.237263,0.096687,0.001852,0.123426,0.000463,0.05618,0.13308,0.137945,0.044323,0.022761,0.130098,-0.081412,-0.101804,-0.125693,-0.136704,0.035531],[0.046368,0.342453,-0.096565,0.049705,0.049764,-0.049591,-0.088557,0.099867,-0.084274,-0.166017,-0.052758,0.118907,-0.019197,0.002345,0.017814,-0.122778,0.076854,0.09228,-0.063122,0.132593,0.133892,0.031876,-0.000853,0.170281,0.16486,-0.02393,-0.12286,-0.211479,0.067546,0.167973,0.042883,0.027216,0.184504,-0.009813,0.010666,-0.152455,-0.010087],[0.260829,-0.136039,0.097753,-0.276939,0.065335,-0.151812,0.155926,0.175909,0.132763,-0.40424,-0.29286,-0.203947,0.110547,-0.003315,0.019747,0.097168,0.257371,0.123359,-0.439565,-0.393894,-0.280821,0.272268,0.221278,0.02547,-0.121215,0.415533,-0.030181,-0.116943,-0.025392,-0.056023,0.095361,0.096228,0.093873,0.132782,-0.02852,0.015016,0.058603],[-0.006117,-0.246143,-0.091778,-0.044283,0.116757,0.134918,0.185242,0.073007,0.112806,-0.099786,-0.023515,0.147726,0.154296,-0.125857,0.089548,0.081724,0.02415,0.043728,-0.07854,-0.08921,0.015769,-0.011342,-0.162474,-0.09682,-0.108209,0.266841,-0.13059,-0.1188,0.157988,0.157354,-0.043699,0.129947,-0.140871,0.150383,-0.188312,0.081737,0.115417]],"bias":[0.123544,0.151637,0.143405,-0.048541,0.032348,0.18662,0.038822,0.124967,-0.011183,0.155594,0.120222,0.016324,-0.114842,0.095451,-0.082337,-0.067884,-0.163456,0.064754,-0.082722,0.070639,0.029262,0.070704,-0.07741,-0.08157,0.164922,0.063176,0.102729,0.030957,0.165888,0.136427,0.000189,0.009392,0.0543,-0.089322,-0.027113,0.180829,-0.020158,0.005791,0.034839,0.006595,-0.037446,0.158386,-0.146691,0.010502,0.084302,0.137413,-0.09944,0.053179,-0.144998,-0.027469,-0.153013,0.088941,0.017571,-0.114292,0.0437,0.051766,-0.111955,-0.014608,-0.022494,-0.03127,-0.038698,0.018586,0.002752,0.107689,-0.149707,-0.020643,0.026862,-0.150137,0.130238,0.02059,-0.00727,-0.169988,0.015664,0.01508,-0.102404,-0.142007,0.028178,-0.118876,-0.025889,0.136525,-0.113808,0.081273,-0.156629,-0.064852,0.064617,0.10824,-0.006277,-0.063573,0.146585,0.094832,0.101707,-0.07334,-0.095786,-0.135573,0.100653,0.171057,-0.06874,-0.09165,-0.048896,0.123162,0.121788,0.187951,-0.140033,-0.08027,-0.059593,-0.140061,-0.041541,0.082676,-0.009755,-0.134221,-0.100834,-0.163615,-0.055,0.107487,0.018986,0.091413,-0.009167,0.103212,0.121955,0.010577,0.055959,0.099434,0.169376,-0.113797,-0.050336,0.047768,-0.019262,-0.076051,0.106324,0.091109,-0.17297,0.216684,0.06318,0.026687,0.162487,0.188385,-0.07449,-0.05468,0.099513,0.146287,-0.00423,0.148416,0.018091,0.145688,0.195498,-0.076687,0.072517,0.028774,0.055979,-0.191825,0.052418,0.01314,-0.103682,0.121094,0.117755,-0.123743,0.138443,0.131358,-0.125894,0.169009]},{"weights":[[-0.130208,0.207926,0.188858,0.10171,0.045368,0.124663,-0.041948,0.165394,0.170831,-0.197729,0.018154,0.474777,0.03168,0.549619,-0.123071,-0.136002,0.016276,-0.005298,0.041869,-0.06904,0.133792,0.272752,0.086921,0.140538,-0.116017,0.048173,0.028436,0.059377,0.004055,0.059717,-0.028058,0.067369,0.010692,-0.064958,0.209679,0.616724,0.064926,0.185491,-0.036651,-0.044492,-0.004521,0.187654,0.06402,-0.267583,0.249378,0.066609,0.038712,0.137128,0.038676,0.02793,0.042862,-0.139471,-0.12258,-0.046755,-0.02389,-0.16539,-0.29085,0.06744,-0.278167,-0.014736,0.074351,-0.019972,0.042549,0.130089,0.217245,0.224496,-0.291996,0.033031,0.051742,-0.111627,0.069315,-0.003887,0.111859,0.00396,0.212359,-0.046283,0.101039,-0.075522,0.006975,-0.138665,0.149805,-0.204267,0.438252,0.048167,0.329063,0.026463,0.118075,0.12111,-0.004967,0.042965,-0.144071,-0.017227,-1.227849,0.037855,0.172387,-0.149849,-0.021769,-0.008337,0.266425,-0.097872,-0.134256,-0.074379,0.03436,0.052396,0.101569,-0.239983,-0.171233,-0.082493,-0.076045,-0.115636,-0.271057,-0.065986,0.064021,-0.091874,0.072706,-0.169881,-0.056333,0.080705,0.080419,0.027744,-0.039859,0.033,-0.017828,-0.002812,0.287904,-0.140468,0.011593,0.186625,0.02798,0.161354,-0.08926,-0.141242,0.686173,0.054813,0.084646,0.006671,-0.008069,0.449106,-0.05737,0.061141,0.035126,-0.233893,0.057102,0.053887,0.012206,-0.074222,0.001078,-0.042125,0.280183,0.313282,-0.160237,0.00177,-0.039797,-0.075016,0.339641,-0.049927,0.062979,-0.068318,0.056638,0.081507],[0.023111,0.234699,0.014422,0.082499,0.086652,-0.25352,-0.197573,0.047425,0.185764,0.103433,0.094771,0.254073,-0.078608,0.042041,-0.019552,-0.255514,0.055416,0.077591,0.541906,0.128545,0.131538,0.086406,0.020386,-0.050369,0.115704,-0.067437,0.031164,-0.09416,-0.026439,0.086528,0.002693,-0.085346,0.078477,-0.077363,-0.047251,0.329421,0.126344,0.132335,-0.111538,-0.043105,0.076253,0.029725,0.06982,-0.023627,-0.081069,0.0267,0.213251,-0.039247,0.042978,0.079849,0.001704,0.090732,-0.139064,0.070928,0.026485,-0.102702,-0.185286,0.13947,-0.149938,-0.04123,0.027995,-0.047412,0.054381,0.049953,0.011511,0.007877,-0.333503,-0.002698,-0.038382,-0.125747,-0.084199,-0.0212,0.08109,-0.04553,0.025148,0.060972,-0.034213,0.002169,0.02104,-0.013279,0.212663,-0.369316,0.327989,0.064692,0.053905,-0.037042,0.10988,0.126979,-0.179784,-0.008467,0.102833,0.02911,0.016161,-0.014086,0.200774,-0.039222,-0.061749,0.053929,0.036811,0.016267,-0.005452,0.118776,-0.026472,0.003498,-0.011357,1.292983,-0.049501,-0.029595,-0.10696,0.207935,-0.418644,0.030021,0.0678,0.253443,-0.092745,0.093505,-0.384607,-0.079133,0.027836,-0.058472,-0.399633,0.048114,-0.026765,-0.055288,0.113328,0.050476,0.032289,-0.050427,0.111437,0.026025,-0.058827,-0.195363,1.020162,0.071462,-0.128223,-0.019501,0.132835,0.1242,-0.109389,-0.068419,0.055481,0.003611,-0.053321,-0.037171,-0.311415,-0.092206,0.019713,0.048687,0.034742,0.106077,-0.113246,-0.22598,0.036183,-0.021166,0.247797,0.021689,0.11315,0.067919,0.120666,-0.119913],[-0.071832,-0.033528,-0.041087,-0.002697,-0.006477,0.128835,0.015142,-0.04681,-0.138143,-0.005316,0.059337,0.01694,-0.075125,0.196284,0.036388,0.075435,-0.061722,-0.006391,-0.515326,-0.002508,-0.07307,-0.026987,0.019659,0.042664,-0.022225,0.044331,0.014109,0.087265,0.020045,0.029736,-0.071459,0.096531,-0.029992,0.077747,0.055333,-0.188301,0.005909,0.023575,-0.022382,-0.003759,0.041801,0.043271,-0.024995,0.028143,0.125333,0.072879,-0.131055,0.061147,-0.029447,0.053042,0.061679,-0.075667,0.129597,-0.023567,-0.015079,0.024166,0.01502,-0.050957,-0.115423,-0.020249,-0.031429,-0.097544,-0.054289,0.055467,0.019018,-0.073328,0.066645,0.064609,-0.021892,0.12084,0.106802,0.07121,-0.041657,0.07394,0.027945,0.037342,0.038788,-0.075175,0.037292,-0.163913,-0.048,0.044414,-0.02107,0.028354,-0.066767,0.043167,0.016286,-0.025728,0.073717,-0.003716,-0.085446,0.085985,-0.324525,0.065121,0.052938,-0.027445,0.044442,-0.070633,-0.058815,0.003225,0.009414,-0.069564,-0.020416,-0.02849,0.084859,-0.578296,-0.130677,0.10745,0.114579,0.177805,0.150575,-0.039829,-0.013431,-0.10306,-0.01077,0.034685,-0.160192,0.059018,0.012744,0.139454,-0.001025,-0.066097,0.066945,0.004536,0.046313,-0.084102,0.086106,0.145695,-0.031732,0.011206,0.047245,-0.138717,-0.243589,0.011491,0.11875,0.027127,-0.018906,-0.011512,0.063379,0.083989,0.050993,-0.007548,0.096239,-0.092569,0.032748,0.023848,-0.036632,0.058385,0.097597,0.013887,-0.038993,0.150091,0.056445,0.077898,-0.198992,-0.053128,-0.021252,0.006256,0.051033,-0.024486],[0.051475,0.001628,-0.071208,-0.009794,0.062565,0.07099,0.024383,-0.075669,-0.065564,-0.087498,-0.075352,-0.05859,-0.068076,0.022972,0.045245,-0.000358,-0.054712,-0.036203,0.036637,0.018055,-0.023451,0.019223,-0.087515,-0.076015,0.006405,-0.035842,0.011486,-0.063993,0.02723,0.016599,-0.064868,-0.021473,-0.077032,0.050255,-0.043032,0.028846,-0.051848,-0.009167,0.051912,-0.032737,0.050202,-0.001132,-0.012802,-0.080982,0.047873,-0.052454,-0.018103,0.073569,-0.050968,0.02056,0.075036,0.046293,-0.0748,0.04523,0.056628,-0.017614,-0.00706,-0.053392,-0.046864,-0.04263,-0.078944,0.053809,-0.038278,-0.033253,-0.039095,0.007905,-0.055236,-0.039805,-0.033408,-0.037721,-0.057372,-0.061715,-0.039432,0.065488,-0.02464,0.050737,0.055947,0.034803,-0.05357,0.053068,-0.007059,0.069543,-0.06385,0.067952,-0.01417,-0.067912,0.005523,-0.077692,0.032862,-0.04443,0.016772,-0.075256,0.022603,0.039766,0.005286,-0.023972,-0.044765,-0.059689,-0.024555,-0.070257,-0.035953,0.054865,0.00198,-0.0502,-0.087139,0.019107,0.009088,0.011537,0.024511,-0.009575,0.000222,0.004221,0.018243,-0.044155,-0.072917,-0.044127,0.069757,-0.067538,0.05526,0.035766,0.049558,-0.049353,0.009999,-0.039827,0.021771,-0.024631,-0.000724,0.032384,0.026987,0.031779,0.000481,0.052603,0.040602,-0.020094,-0.036076,-0.084814,0.04898,0.060014,-0.074739,0.024933,-0.006568,0.011538,0.037847,-0.032441,-0.044255,-0.078539,0.054403,-0.039308,-0.040146,-0.025818,0.046481,0.055052,0.056857,0.028217,0.059475,0.044158,-0.088558,-0.055175,-0.079145,0.016511],[0.06883,-0.025474,-0.088965,-0.072001,-0.060937,0.014391,-0.051245,-0.059175,-0.064345,0.005034,-0.061373,-0.046635,-0.028112,0.049505,-0.043961,-0.049945,-0.066181,0.078649,-0.057852,-0.097536,0.062219,-0.003515,0.009562,0.035344,0.05577,0.063875,0.008671,-0.014324,-0.041357,-0.083729,0.03825,0.026741,0.00457,-0.054053,-0.015145,0.031982,-0.019987,-0.02261,-0.095199,-0.071409,0.07121,-0.030842,0.048793,-0.017335,0.00802,-0.099249,-0.007283,-0.0228,0.071291,0.044296,0.003121,0.013041,-0.012265,0.066425,-0.010843,-0.002508,0.002836,-0.066207,-0.07365,0.023567,0.056575,-0.072183,0.062429,0.018784,-0.006864,0.028117,0.040119,-0.002537,0.037405,0.038623,-0.007105,0.073746,-0.011183,0.037475,-0.064687,-0.078002,-0.033566,0.001532,-0.073084,0.042293,0.048548,-0.059932,0.040598,-0.033415,0.034181,-0.075864,-0.020484,0.021693,-0.092205,0.053293,-0.057547,-0.079969,0.049213,-0.036615,-0.0305,-0.063797,0.073848,-0.028194,-0.057026,-0.063726,0.000611,-0.013639,0.048398,0.03082,-0.071021,-0.018254,-0.019521,0.039263,-0.059242,-0.011688,-0.077375,-0.039885,-0.087972,0.07695,-0.072253,-0.038911,0.019147,-0.05668,-0.036363,-0.033563,-0.010097,-0.035321,-0.099129,-0.056245,0.000251,0.05261,-0.05697,-0.043001,-0.093355,-0.010991,0.005187,0.017421,0.036712,-0.045567,0.040238,-0.0211,0.044033,0.01602,0.023214,-0.098319,-0.087472,-0.07782,-0.07719,0.077153,0.017617,-0.052349,0.054703,-0.052094,0.011324,-0.005509,-0.005162,0.027446,-0.009705,-0.062299,0.047355,-0.02695,-0.027569,-0.073762,-0.04873,-0.007973],[0.016056,0.473343,0.08291,-0.230389,-0.030073,-0.047114,0.134598,-0.080252,-0.003706,0.106621,0.104933,-0.295916,0.006665,-0.255687,0.123423,-0.223531,-0.004982,0.003236,0.638481,0.000158,0.00403,-0.169125,0.180268,0.00293,0.080255,-0.055434,-0.006806,-0.08455,-0.062065,0.083154,0.114457,-0.148338,-0.008473,-0.045441,-0.029997,-0.061315,0.114527,0.127458,0.014186,-0.176708,0.072781,0.099322,0.071523,0.014861,-0.172028,0.021485,0.102189,0.01475,0.052465,-0.060753,0.073379,0.012978,0.120689,-0.019112,0.026751,-0.186422,-0.001473,-0.149,-0.244352,-0.143046,-0.05677,-0.052112,0.014398,-0.09192,0.013015,0.039949,0.026486,-0.02354,-0.059954,-0.007851,-0.048455,-0.020013,0.056789,-0.149619,-0.034931,0.039957,-0.013933,-0.03564,-0.155963,0.270456,-0.23023,-0.274375,-0.94305,-0.011827,0.334729,-0.03178,-0.110319,0.022075,0.0046,0.042223,-0.075787,0.021194,0.795842,0.056949,-0.132799,0.110483,-0.018204,0.034191,-0.183625,-0.052228,-0.01908,0.227081,-0.072876,0.006219,-0.245924,1.151998,0.257243,0.118314,-0.010491,-0.267972,-0.182753,-0.058429,0.021913,0.129945,-0.411249,0.064139,-0.045156,-0.090169,0.122039,-0.168309,-0.125074,0.095649,-0.039421,0.019109,-0.162674,0.077476,-0.037071,-0.04486,-0.001584,-0.160302,0.051908,0.142411,0.539257,0.124985,0.16877,0.096377,-0.020985,-0.054866,0.259187,-0.145165,-0.125307,0.10531,-0.043837,0.105813,-0.034065,-0.076072,0.000178,-0.052411,-0.024702,-0.066425,0.017552,0.094052,-0.063408,-0.091443,-0.014189,0.011743,0.032491,0.042125,0.113018,0.07241],[-0.099512,0.073898,-0.02578,0.0351,0.052202,0.111644,0.10978,-0.049989,-0.100377,-0.017203,-0.004433,0.026216,-0.041529,0.167564,-0.09267,0.018487,-0.002062,0.059111,-0.379714,0.040573,-0.114737,0.021232,-0.034193,0.04195,-0.002504,0.011642,0.079432,0.108809,-0.021729,0.087298,-0.050501,0.039523,-0.020579,0.00661,0.087663,-0.238229,-0.091182,0.095281,0.09095,0.067275,0.022046,0.032334,-0.038174,-0.007438,-0.003247,-0.028365,-0.046912,0.063081,-0.071321,0.030048,-0.045354,-0.062465,0.000363,0.045409,0.019807,-0.030883,0.093149,-0.092272,-0.117173,0.080718,-0.032796,0.015942,-0.073739,-0.00089,0.040616,-0.01621,0.016793,-0.060891,0.05346,0.045751,0.025193,-0.045357,-0.060407,0.021723,0.009234,0.072355,0.033245,-0.005295,0.134789,-0.2243,-0.095064,-0.05421,0.053605,0.096832,-0.07073,0.095746,-0.052723,0.095013,0.063847,0.045813,-0.040788,0.019193,-0.353237,-0.030264,0.012932,-0.027009,-0.062758,-0.0047,-0.078556,0.01694,-0.060056,-0.060155,0.014992,0.071962,0.006904,-0.399856,-0.08929,0.093308,0.122659,0.20967,0.081185,0.067256,-0.057128,-0.209859,-0.033116,-0.092175,0.009506,0.03812,0.07493,0.095194,-0.010447,0.026151,0.099747,0.042696,0.144131,-0.098217,0.088464,-0.003704,0.036261,0.112329,0.073733,-0.177295,-0.239949,0.052372,0.124258,-0.042488,0.02521,0.075869,0.048632,0.077505,0.014402,0.07167,0.007169,-0.105411,0.0675,0.019967,0.09115,-0.028038,-0.011445,0.125598,-0.015504,0.137088,0.055837,0.036797,-0.189447,-0.013603,-0.012605,0.007469,0.161012,0.038618],[-0.050717,0.070395,0.018724,-0.020333,-0.010283,-0.04353,0.005026,-0.008604,-0.079628,-0.054456,-0.049907,0.009191,0.038539,-0.039122,-0.056459,0.064143,0.016635,0.05548,-0.076351,0.026229,-0.017068,0.074456,0.035436,0.031857,0.060631,-0.059304,-0.061935,0.067899,0.012787,0.001155,-0.010986,-0.072853,-0.059914,-0.007015,0.051524,0.07232,-0.0723,-0.043696,-0.010669,-0.066304,-0.015186,-0.06726,0.039045,-0.015809,-0.081571,-0.051172,-0.04547,0.007423,-0.059301,0.051034,0.016338,0.020963,-0.076287,0.021949,-0.051211,0.021915,0.053146,-0.042986,0.015645,-0.048794,0.036478,0.060942,-0.074915,-0.062464,-0.001457,-0.051909,0.051478,-0.020217,0.047902,-0.067477,0.003326,0.058543,-0.03473,0.021906,-0.025255,0.018797,-0.083521,-0.02879,-0.019464,-0.076643,-0.041709,-0.053768,0.043568,-0.072232,0.068694,-0.001096,-0.046175,0.046944,0.0449,-0.05685,0.03356,-0.056426,-0.032231,-0.000712,0.024789,0.036404,0.062752,0.027833,-0.057503,-0.03471,0.044187,-0.031385,-0.032369,0.029585,-0.074324,0.020821,0.042685,0.007166,0.012186,0.07649,0.056438,-0.020048,-0.015936,0.036089,0.01046,0.019439,0.048038,-0.053825,0.020854,-0.054437,0.029737,-0.022623,0.055194,0.074902,0.060536,-0.072105,-0.068878,-0.06632,-0.069152,0.059885,0.051204,-0.016411,0.023068,0.03763,-0.053801,-0.030281,-0.03697,-0.03647,-0.02837,-0.023207,-0.01496,-0.08048,0.001652,-0.007458,-0.049704,-0.033899,-0.030144,0.021352,-0.025914,0.005273,-0.032033,0.048651,0.032129,0.015869,-0.03233,0.039476,0.051577,-0.015835,-0.006664,0.040616],[-0.029341,-0.028001,-0.021208,-0.044096,0.005267,-0.021771,-0.05887,-0.007585,-0.045575,-0.040703,-0.077876,-0.081471,-0.011753,-0.075588,-0.00093,-0.086528,0.048901,-0.070517,0.010338,-0.08603,0.011318,-0.003015,-0.014136,-0.025696,0.026721,-0.059291,0.057926,-0.036637,0.048469,0.028128,0.072294,0.023648,0.060456,-0.060406,0.060608,0.077085,0.022373,0.015551,0.041654,-0.025691,-0.005691,-0.077969,0.042924,-0.027534,0.03663,-0.049748,-0.017006,-0.044856,-0.058414,-0.022685,-0.042171,0.014785,0.076742,-0.0436,-0.027756,0.070385,-0.03378,-0.02217,-0.03307,0.034025,-0.049215,0.032959,-0.020407,0.018628,0.034763,0.045064,-0.070648,0.049066,-0.071724,0.018695,0.003709,-0.012804,0.001046,-0.010924,-0.073718,-0.075173,-0.039823,0.020157,-0.025029,-0.039996,-0.089088,-0.053952,0.050849,-0.014183,-0.012242,-0.021188,-0.080794,-0.068642,-0.065264,0.044261,0.001493,-0.038029,-0.030641,-0.036128,-0.016448,-0.011985,0.074847,0.050218,0.031826,-0.050026,-0.039164,-0.07918,-0.056469,0.036822,-0.083519,-0.004533,0.0024,-0.017978,0.015537,-0.07171,-0.077705,-0.018475,-0.07216,0.005099,0.072099,-0.068719,-0.027778,-0.077013,-0.038056,0.073497,0.056579,0.020715,0.039058,0.024664,-0.064249,-0.083489,-0.045397,0.013578,0.031147,-0.074996,-0.039422,-0.016308,-0.063232,0.036833,0.056253,0.044086,0.010851,-0.06605,0.04997,-0.058877,-0.007967,0.028026,-0.053028,-0.017749,-0.076866,-0.046072,-0.067959,0.076413,-0.039728,0.025995,-0.02058,-0.020165,0.016984,0.036649,0.037595,0.021385,0.039752,-0.051523,-0.031376,0.010791],[0.001414,-0.172844,0.133863,-0.04645,0.026508,0.0535,0.191267,-0.038738,0.045015,0.115969,0.058012,-0.481129,0.052105,-0.376309,0.118771,0.211205,0.060322,0.036832,0.499841,0.000235,0.065893,-0.195877,-0.168833,0.017325,0.150202,0.044337,0.026956,0.000549,0.11131,0.02659,0.095615,0.145314,0.004763,0.164197,0.026858,-0.349466,-0.080538,-0.005829,-0.00469,0.196248,-0.030054,-0.027917,-0.158693,0.193089,-0.049587,0.015346,0.078515,-0.076186,0.046035,-0.027878,0.034133,0.101601,0.16493,0.017341,0.0101,0.254944,0.173274,0.040928,0.275261,0.130568,0.034387,-0.007877,-0.078731,0.034088,-0.216606,-0.24397,0.337969,0.014383,0.067573,0.084023,0.11152,-0.005133,0.073929,0.125667,-0.152982,-0.055133,-0.043776,-0.049024,0.044438,0.430858,-0.088908,0.248686,-0.420129,-0.037325,-0.477583,0.10031,-0.158369,-0.068802,0.281015,-0.011845,0.110483,-0.038734,1.151368,0.034521,-0.139958,0.134649,0.001729,0.068194,-0.2813,0.111172,0.206567,0.217113,-0.03701,-0.025215,-0.034477,1.546274,0.218547,0.070122,-0.191322,-0.99513,0.63252,0.00375,-0.134079,-0.095722,0.074677,0.076313,0.198199,-0.019988,0.04671,-0.059994,0.165319,0.022282,0.109739,0.025627,-0.232539,0.022045,0.009566,-0.043778,-0.052943,0.002228,-0.021138,0.289456,-0.284377,0.022094,0.332102,0.066935,0.079731,-0.191693,0.153895,0.182903,0.106471,0.20232,0.064338,-0.010018,0.31223,0.188469,0.077608,0.015002,-0.130775,-0.478039,0.081816,0.117583,0.134397,0.134253,-0.151407,-0.019372,0.109295,0.053133,0.121845,0.069737],[-0.175604,0.125558,-0.056065,-0.030955,0.03591,0.088935,-0.008234,0.072635,-0.35446,0.082637,0.070069,-0.29029,0.016274,0.053171,-0.14857,0.085717,0.02342,0.026825,-0.305446,0.019199,0.000235,-0.156778,-0.069542,-0.023231,-0.195032,-0.021289,-0.011845,-0.017232,-0.129556,-0.10391,-0.059825,0.08512,-0.021499,-0.154673,-0.080584,-0.726281,0.037102,0.04905,0.057984,0.007885,0.042207,0.004299,-0.081367,0.495389,0.136542,-0.105226,-0.07101,0.124736,-0.027394,0.05918,-0.0521,-0.097203,0.04232,-0.062318,-0.096929,0.332982,0.054258,-0.3492,-0.136041,0.034194,-0.061524,0.033158,0.044364,0.055952,0.124645,-0.032444,0.215582,-0.028955,-0.062708,0.675861,0.041176,-0.027359,0.051762,-0.0033,-0.009416,-0.032491,0.080391,0.050993,-0.060222,0.109359,-0.263514,0.615748,-0.461332,0.085982,-0.019616,-0.000883,-0.039862,-0.002323,0.386367,0.002291,-0.003821,-0.088203,-2.116195,0.07764,0.078251,-0.050575,-0.023949,-0.091862,-0.47971,-0.007246,-0.040813,0.028169,0.06494,-0.014201,0.034826,0.033731,0.040063,0.013903,-0.509809,-0.357566,0.403144,0.06796,0.063924,-0.255644,0.018352,0.042001,0.058136,-0.019181,-0.03506,0.150743,0.092381,-0.008631,-0.036802,0.039804,-0.034508,-0.008177,0.07247,0.114824,-0.081092,0.125015,0.472512,0.117714,-0.333115,0.0305,0.227309,-0.018393,-0.090961,-0.058647,0.25092,-0.049781,-0.039917,0.078123,-0.03279,0.060331,0.104941,0.255858,0.038273,0.011318,0.180422,-0.055827,-0.017587,0.09983,-0.088529,-0.107739,-0.068088,-0.217828,-0.13098,-0.02877,-0.045385,-0.004984],[-0.080022,0.012499,-0.090479,-0.001437,-0.008337,-0.021602,-0.052344,0.002871,0.019467,-0.063456,-0.082709,-0.016464,0.033337,-0.080967,-0.088302,-0.07975,-0.001119,0.055723,0.025791,-0.070122,-0.071538,-0.068201,-0.116184,-0.073337,-0.026363,0.069833,-0.095804,-0.082496,-0.044349,-0.06077,-0.034046,-0.043041,-0.094172,0.003941,0.01708,-0.01541,0.042535,0.015941,-0.11609,-0.0834,-0.006267,0.017614,0.015381,0.062771,0.048586,0.050023,0.058146,0.016619,-0.040604,-0.012681,-0.048261,-0.009354,-0.035686,0.012479,-0.023257,0.019669,0.015194,-0.050084,0.036745,0.030721,-0.072201,0.058443,0.058874,-0.076782,-0.065847,-0.020428,0.056675,0.058952,0.016417,0.034219,-0.052496,0.047429,-0.02583,-0.114311,0.015782,-0.080503,-0.022499,-0.073659,-0.031765,0.018662,0.015668,-0.022293,-0.062167,-0.096012,0.010257,-0.036418,0.029782,-0.109972,-0.07776,-0.014669,0.060081,-0.040033,-0.014751,0.038875,0.001585,-0.087216,0.068014,-0.10421,-0.076831,-0.070736,-0.049641,-0.075054,0.021276,-0.042117,-0.032732,-0.01875,-0.053869,0.045356,-0.069489,0.010285,-0.082142,-0.039054,0.039296,0.056103,0.052235,-0.045579,0.059025,-0.083033,-0.017538,-0.084506,-0.065631,-0.075496,0.011521,-0.025442,-0.018169,-0.060693,0.003508,-0.034711,-0.048619,0.032291,0.019712,-0.075581,0.009943,-0.005044,-0.023308,0.005282,-0.01214,0.009411,0.023769,-0.104023,-0.050287,-0.037805,-0.003988,-0.034796,-0.004168,0.008871,-0.072629,-0.06072,0.003873,-0.000479,-0.061406,0.035126,-0.115734,0.015578,-0.022827,-0.043513,0.032306,0.015895,0.0586,-0.050347],[0.056,-0.065099,0.032643,-0.032587,-0.042612,0.174582,0.13417,-0.032575,-0.183161,0.021812,0.06867,-0.287979,-0.076614,0.009526,0.001746,0.014221,-0.02769,-0.059292,-0.340887,0.06059,-0.06496,-0.142314,0.052628,0.106605,-0.023334,-0.055834,0.029252,-0.018515,-0.010967,0.070174,0.093005,0.091963,0.101165,0.078076,0.060829,-0.508416,0.079349,0.10415,0.089045,0.064943,-0.050307,-0.042732,0.013697,0.167115,0.036451,0.06869,-0.002004,-0.037648,0.065175,0.090449,-0.012257,0.041488,0.19243,-0.004451,-0.062933,0.124044,0.000287,-0.09311,-0.088144,0.094495,0.046565,-0.023157,0.032754,0.064958,0.034935,-0.146493,0.075877,-0.015691,-0.03725,0.172008,0.014684,0.030008,0.03564,-0.011381,-0.081188,0.098075,0.000699,-0.027991,0.021081,-0.003069,-0.13228,0.565509,-0.267129,0.001193,-0.146124,0.096468,0.024094,-0.012927,0.104434,0.04279,0.019719,0.038417,-0.267092,-0.028988,-0.120181,0.130572,0.02037,0.022135,-0.147597,0.169991,0.078339,-0.022619,-0.070597,-0.054971,-0.056898,-0.874225,-0.057379,0.078406,0.133414,0.02032,0.058904,-0.027538,0.044588,-0.151336,-0.014728,-0.054208,-0.005277,0.034446,0.084602,-0.000222,0.140865,0.046499,0.057096,0.029729,-0.082177,0.045187,0.059362,0.049634,-0.030783,0.043423,0.027473,0.095716,-0.939231,0.082031,0.01762,0.03234,-0.052513,-0.139023,0.204618,0.051336,0.092138,0.140088,0.079563,-0.048315,0.027434,0.124799,0.040536,-0.048862,-0.009543,-0.058949,0.044751,0.125116,0.030263,0.114031,-0.163624,-0.094509,0.082631,0.051573,0.116969,0.103713],[0.025167,0.146213,-0.05014,-0.038161,0.001965,-0.081434,-0.111092,-0.029122,0.137061,0.061933,-0.024389,0.11995,0.040287,-0.180923,0.12816,-0.085272,-0.030577,-0.054789,0.137156,-0.000447,0.115707,0.000775,0.148237,-0.137483,0.026566,-0.03475,0.005989,-0.086893,0.047226,0.018352,-0.018943,-0.102784,0.023826,0.043419,-0.031008,0.034702,0.067073,0.073857,-0.090294,-0.067005,-0.047313,-0.028491,-0.00618,0.064178,-0.024879,0.062259,0.086,-0.055796,-0.059307,-0.041721,-0.061571,0.071707,0.134977,0.095996,0.014221,-0.061346,-0.029344,0.009562,-0.173063,0.070247,-0.037399,0.020348,-0.00507,-0.103606,-0.094471,0.027476,-0.08568,-0.051774,0.056394,0.031138,0.055095,0.006886,-0.010633,-0.102158,-0.142612,0.096367,-0.142121,0.066292,-0.033567,0.021777,0.052291,0.102244,-0.074985,-0.131296,-0.002023,0.011117,0.046729,-0.110775,-0.009646,0.083357,0.0997,0.092524,-0.100215,0.057787,0.043674,0.021797,-0.089805,0.047271,0.049336,0.042137,0.121033,0.078698,0.074103,-0.080561,0.037065,0.443471,0.106989,0.059485,0.006306,-0.245859,-0.010116,0.050353,-0.032928,0.037694,-0.120775,0.044514,-0.067884,-0.096032,-0.04691,-0.046107,0.026687,-0.037345,0.003415,-0.012765,-0.057671,-0.002661,0.045508,-0.022214,0.016123,-0.031671,0.097593,-0.004473,0.063088,0.06925,-0.09966,-0.007208,-0.024861,0.122731,0.024759,0.015993,0.066409,-0.024602,-0.042968,0.008841,0.038472,0.089216,0.033867,-0.009864,-0.078768,-0.102501,0.10076,0.013227,-0.05367,0.021871,0.111988,0.087979,-0.083156,0.093055,-0.076609,-0.072604],[0.111908,0.270052,-0.095249,0.040638,-0.032669,-0.093731,-0.21415,-0.042747,0.127981,-0.014892,0.054036,0.031043,0.047105,-1.160004,0.126137,-0.016357,-0.012918,0.061266,0.064488,0.090919,0.115899,0.087093,0.132706,-0.040264,0.11336,-0.008214,-0.055231,-0.105895,0.031555,-0.023477,-0.119658,-0.025712,-0.020601,0.02268,-0.052479,-0.128774,-0.009648,0.030035,-0.135346,-0.000167,-0.057861,-0.003915,-0.020729,0.037051,-0.143786,0.064984,0.057783,-0.005248,0.025927,-0.065404,0.003764,0.062483,0.076476,0.107236,0.120082,0.013801,0.035079,0.072928,-0.088953,-0.034567,0.008681,0.040023,0.05755,-0.033719,-0.255961,0.070211,-0.046965,-0.053721,-0.067005,0.016272,-0.077898,-0.106489,0.084435,0.042071,-0.105267,-0.041242,-0.023897,-0.029453,-0.024666,-0.006104,0.059033,0.047324,-0.299205,0.005811,-0.04607,-0.091428,-0.001697,-0.082737,0.028271,-0.052117,0.100126,0.054357,0.009312,-0.075175,0.09301,0.086394,0.070896,0.061158,0.0267,0.01957,0.076644,0.067769,0.055672,-0.016994,0.025417,0.509789,0.059033,0.074082,0.01035,-0.248865,-0.082145,0.028822,0.037353,-0.016631,-0.087785,0.058649,-0.136202,-0.099602,-0.045453,-0.140057,-0.054696,-0.042913,0.050644,-0.044123,0.129228,0.050975,-0.081455,-0.099237,0.04085,-0.073574,0.012879,0.041639,0.004874,0.059602,-0.162987,0.005658,0.059198,0.023982,0.084841,0.031124,0.008095,0.027177,0.010257,0.033134,-0.018356,0.045096,-0.021172,-0.011967,-0.033742,-0.083446,0.061422,0.038994,-0.046761,-0.028784,0.193052,0.047124,-0.02001,0.076598,-0.039308,-0.135594],[0.039538,0.043097,-0.016783,-0.015039,-0.033559,0.024112,-0.0114,0.022654,-0.01748,0.05005,0.055616,0.064522,0.046787,-0.023326,-0.010852,0.048072,0.053583,-0.07283,0.051426,-0.080098,0.06107,-0.058653,-0.084101,0.06003,0.060674,0.048837,0.013241,0.001049,-0.052168,-0.020932,-0.021511,-0.089457,-0.030328,-0.043392,0.054549,-0.073101,-0.03756,0.005598,0.010838,-0.054493,-0.033963,-0.05804,0.005173,0.052761,0.018458,0.023934,-0.079165,0.061012,-0.016066,0.05046,0.035564,-0.080662,-0.037388,-0.02457,-0.088973,0.003268,-0.047707,0.047794,-0.05651,0.054886,-0.069562,-0.075155,-0.039416,0.005257,-0.069906,-0.07974,-0.033077,-0.036772,0.074229,0.057197,-0.067383,0.001036,0.03322,-0.088626,0.075994,0.050616,0.027841,-0.058895,-0.084602,-0.031504,-0.067304,0.020416,0.036638,-0.077655,0.017169,0.043877,0.044383,-0.090555,0.030225,0.006965,0.02641,-0.014589,-0.086381,-0.010705,-0.052176,-0.073561,-0.044159,-0.035194,0.044151,-0.027528,-0.07586,-0.028962,0.028159,0.01815,0.029662,-0.057478,-0.054908,-0.052273,-0.053455,-0.000691,0.037923,-0.046769,0.026366,0.021428,-0.06438,0.035932,-0.013735,0.004058,0.053567,0.011842,-0.05248,0.025399,0.048171,-0.022496,-0.007478,0.057403,-0.044473,0.051503,-0.006863,-0.067753,-0.010207,-0.077633,-0.029452,0.008241,0.042985,0.035842,-0.054735,-0.072808,-0.031245,-0.028145,-0.010424,0.003949,-0.001531,0.031438,-0.004802,-0.011824,-0.012514,0.063731,-0.074181,-0.078967,0.000476,-0.041678,-0.059145,0.010213,-0.036254,0.019892,0.063749,-0.056705,-0.087339,0.044957],[-0.017427,0.047884,0.035619,-0.062029,-0.011239,-0.073755,0.003839,-0.024982,-0.061114,0.021355,0.064449,-0.06954,0.065304,-0.000543,-0.047039,0.042557,-0.067991,0.076021,0.049881,0.011171,-0.025824,-0.010188,0.029724,-0.014063,0.066012,-0.069688,-0.076276,-0.065723,-0.073953,0.044458,0.048051,-0.066767,-0.090736,0.033549,-0.082157,0.006991,-0.012073,-0.003616,0.032423,0.047647,0.052157,0.064467,-0.024489,-0.011475,0.069736,-0.007667,-0.070725,-0.080188,0.064036,-0.044248,0.012537,-0.02963,-0.055113,-0.025775,-0.045186,0.024654,0.050661,-0.004466,0.071217,0.001644,0.029762,0.078989,0.024969,-0.007252,0.063483,0.040834,0.028519,0.001201,-0.008045,-0.057491,0.035798,0.020934,0.013736,-0.077832,-0.026088,0.013164,-0.02898,-0.027213,-0.069302,-0.071383,-0.050321,0.061233,0.053609,0.053713,0.050256,0.002374,0.059971,-0.049304,0.003573,-0.031429,-0.039471,-0.042243,-0.055893,-0.032767,-0.01148,-0.002201,0.030812,-0.023648,0.022609,-0.083491,-0.067924,-0.053336,-0.06937,0.044845,0.013604,0.051091,0.06362,-0.061981,0.073394,-0.006081,-0.062395,0.074615,0.021802,-0.06174,-0.064975,-0.050458,0.003986,-0.063151,-0.079116,0.064472,-0.086448,-0.051362,-0.017727,0.010847,-0.057569,-0.080355,0.028173,0.066599,-0.063054,-0.083655,-0.042864,-0.040583,0.060439,-0.034129,-0.001368,-0.052222,-0.066269,-0.067626,-0.011052,0.018312,-0.070995,0.034322,-0.082999,-0.077575,-0.052076,-0.082826,-0.053865,-0.000663,0.001379,0.045759,0.003856,0.045429,0.036731,-0.021448,-0.019525,-0.003615,-0.024173,0.029289,0.017609,-0.026087],[0.045666,0.184038,0.035814,0.094675,0.002939,0.141104,-0.028565,0.097423,-0.069084,-0.052046,0.045483,0.218825,0.010567,0.400382,-0.051226,-0.033667,0.051999,0.058646,-0.282893,0.052552,0.00188,0.06296,0.097087,0.077085,-0.009903,-0.051901,0.078841,0.137889,0.033714,0.009157,0.061622,0.003002,0.04727,0.059409,0.02513,0.191833,0.022612,0.127471,0.05865,-0.019404,-0.012567,-0.027221,-0.071612,0.018395,0.169048,0.070693,-0.079762,0.173295,-0.026091,0.147301,-0.0746,-0.002591,0.041167,-0.081975,0.020894,-0.183748,-0.060451,0.0422,-0.185219,-0.01482,0.042685,-0.031817,0.001048,0.136516,0.109029,-0.036836,-0.119578,-0.027591,0.001424,0.018531,-0.01096,0.0071,0.058645,0.093939,0.133752,0.033388,-0.00313,-0.001285,0.01152,-0.10463,0.103797,-0.192211,0.291093,-0.021358,0.203584,0.069386,0.086171,0.129134,0.005173,0.062981,0.028196,0.062409,-1.034092,-0.003057,0.28226,-0.01429,-0.069185,-0.047967,0.224247,-0.079483,-0.060176,-0.003803,0.012825,0.109964,0.036923,-1.307107,-0.028132,-0.004317,0.163196,0.358296,0.040627,0.03186,0.084706,0.020527,0.052853,-0.087607,-0.175259,-0.0327,0.076071,0.065707,-0.01358,0.013215,-0.003209,0.042143,0.270944,-0.102765,0.085738,0.106022,0.03374,0.001856,0.037098,-0.124688,0.317028,0.042333,0.066434,-0.08637,0.076512,0.262284,-0.005048,0.082213,0.009192,-0.039025,0.041023,-0.045307,-0.050508,0.040516,0.045533,-0.020918,0.111304,0.333145,-0.06265,0.076255,-0.031022,0.011865,0.041581,-0.029154,-0.026381,0.015248,0.04162,0.108257],[0.026416,0.112591,-0.004175,-0.051609,0.000312,-0.172072,-0.23767,0.007878,0.133842,-0.04131,0.00643,0.053945,-0.066334,0.013496,0.110588,-0.001993,-0.020061,0.044776,0.171903,0.103633,0.081849,0.105706,-0.000215,-0.024592,-0.005526,-0.04352,0.023197,-0.066997,0.012401,0.03161,-0.007517,-0.041432,-0.031409,-0.028795,-0.099776,0.060468,0.095887,0.047101,-0.165632,-0.002719,-0.002384,-0.085597,0.078002,0.038087,-0.165729,-0.044252,0.096733,-0.008348,-0.022724,0.005952,0.037918,-0.007131,0.043362,0.027753,0.059179,0.000739,-0.091149,0.096769,-0.163986,-0.05568,0.063298,0.046898,-0.034168,-0.05209,-0.074486,0.04901,0.004041,-0.071571,-0.06617,0.005065,-0.005543,-0.028182,-0.052173,-0.035791,-0.194034,0.089294,-0.037855,0.03179,0.07819,0.019165,0.04467,0.189072,-0.118383,0.011552,0.032555,-0.11809,0.053786,-0.040537,-0.08011,0.078525,-0.012795,0.0045,-0.085161,-0.019615,-0.01979,-0.035279,-0.09894,0.02962,0.056591,0.002896,-0.018866,0.038447,0.056161,-0.00132,-0.081212,0.476465,0.059739,0.042513,0.00374,-0.193171,-0.000192,-0.015619,0.0185,0.092025,-0.067227,-0.006896,-0.038407,-0.090043,-0.068441,-0.14937,-0.047743,0.036601,0.038382,-0.058897,0.000637,0.040677,-0.018836,-0.11496,0.065948,-0.053435,0.088529,0.000414,0.087006,0.093023,-0.042625,0.123186,0.056397,0.027037,0.035871,-0.033635,0.043107,-0.014206,-0.057345,-0.001011,0.030664,0.090201,-0.046637,0.06083,0.084725,-0.089632,0.027797,0.021467,-0.077408,-0.048731,0.131604,0.08882,-0.06172,0.035508,0.016433,-0.135331],[0.070474,0.208615,-0.076924,-0.03477,-0.015472,-0.096439,-0.369598,-0.019819,0.08172,0.054353,0.113552,0.041224,0.000632,-0.035222,0.086769,0.026276,-0.000994,-0.069327,0.054943,0.049404,-0.027473,0.040311,0.105844,-0.131472,-0.01594,0.048962,-0.071813,-0.142685,-0.052568,0.111712,-0.105316,-0.086443,0.0493,0.004895,-0.134544,-0.007922,0.038737,-0.058014,-0.194854,-0.034011,-0.023823,-0.003358,0.113184,0.020249,-0.253117,0.079103,0.075241,-0.166516,-0.045458,-0.062439,0.039816,-0.012348,0.006011,0.107123,0.07678,0.005046,-0.07519,-0.005705,-0.140031,0.015811,-0.000512,-0.031918,0.050313,0.016071,-0.130561,0.105615,-0.064004,0.06055,0.004276,0.041516,-0.057316,0.050238,0.069221,-0.056046,-0.27058,0.092956,-0.150294,-0.02062,-0.027855,0.161831,0.057695,0.071149,-0.17932,-0.011121,0.143637,-0.107959,-0.013551,-0.134095,-0.047384,0.110298,0.094596,0.093188,-0.099176,0.057022,-0.168115,0.04543,0.016222,0.107126,-0.040803,-0.013254,0.111925,-0.022041,0.03252,-0.040629,-0.014436,0.616808,0.142937,-0.004875,-0.09641,-0.257541,-0.010979,0.020847,0.046615,0.102513,-0.140137,0.114973,-0.145692,-0.038451,-0.034167,-0.164334,-0.048254,-0.033414,0.017255,0.041999,-0.126436,0.089168,0.03189,-0.080687,-0.00427,-0.053493,0.045389,0.056617,0.039916,0.10333,-0.098427,0.075179,0.084063,-0.052306,0.052169,-0.087966,0.093505,-0.012981,0.021819,0.039166,-0.039228,0.022173,0.01349,-0.049709,0.022811,-0.106973,0.024221,0.067638,-0.007004,0.074322,0.144297,0.057075,0.034169,0.039408,-0.135785,-0.152213],[-0.023571,0.085543,0.044256,-0.045316,0.047623,-0.039672,-0.063584,-0.032534,-0.073244,-0.058107,-0.049817,0.067,0.041547,-0.067849,0.009127,0.044353,0.06199,0.014727,0.030158,0.053352,0.0095,0.002081,-0.036738,-0.064116,-0.095021,-0.019691,-0.031697,-0.057885,-0.027888,-0.033539,-0.090122,0.052699,0.026551,-0.095597,-0.083153,0.043045,0.044427,-0.045576,-0.020544,-0.05321,-0.011576,-0.021284,-0.082268,-0.07651,-0.092092,0.053583,-0.00317,-0.069835,-0.033057,-0.077733,-0.072618,-0.090167,0.041578,0.032555,-0.072459,0.034886,-0.004221,-0.079299,0.026734,0.000202,-0.027581,-0.064717,0.057778,0.047151,-0.09607,-0.068627,-0.095398,-0.070446,-0.06252,0.008296,-0.029514,0.032465,-0.08664,0.008299,-0.075569,-0.022574,-0.026203,-0.074966,0.001589,-0.022902,-0.00499,0.007502,-0.070078,0.04358,-0.012152,-0.035372,-0.011949,-0.089448,-0.073561,-0.057151,-0.033953,-0.040294,0.034082,0.064763,-0.052944,-0.012666,-0.078644,-0.044527,-0.006964,0.054373,-0.003646,0.060534,-0.015837,-0.056989,-0.003591,0.005027,0.05877,0.049773,-0.076935,0.034586,0.042733,0.029594,0.053548,0.015432,-0.078789,-0.048046,-0.002301,-0.003807,-0.031499,-0.099679,-0.033297,-0.101875,-0.054779,-0.058431,-0.084022,-0.070008,-0.009986,-0.00043,-0.093397,-0.005117,-0.068838,0.039574,0.031328,-0.027582,0.007204,-0.049701,-0.075294,-0.070458,-0.048461,-0.035812,-0.102227,-0.040231,0.030011,0.058938,-0.099187,-0.045769,0.02297,0.072199,-0.006176,0.050875,0.036305,-0.018461,-0.099019,0.01003,0.030114,-0.083929,-0.02355,-0.030062,-0.097915,0.038929],[0.095999,0.341921,0.037079,-0.125414,-0.122517,0.018807,-0.159175,-0.023848,-0.004947,0.032151,0.017193,-0.083834,0.007428,0.076019,0.206143,-0.05016,0.032179,0.074758,0.389861,-0.003122,0.086599,-0.008163,0.227586,-0.094796,0.109196,0.021192,-0.061881,-0.107209,-0.006596,0.05169,0.080125,-0.104807,0.092107,0.04081,-0.124972,-0.010094,0.004182,0.132582,-0.030188,-0.118078,-0.065536,-0.083557,0.163196,0.051498,-0.149985,-0.011412,0.044507,-0.022439,-0.015593,0.036887,-0.037595,0.104377,0.181494,0.023035,0.020154,-0.013298,-0.001184,0.019988,-0.177744,0.004183,-0.024443,-0.005909,-0.03103,-0.190182,-0.150256,0.11279,0.077638,-0.033955,0.016666,-0.001806,-0.051047,-0.037775,0.092124,-0.050479,-0.070731,-0.066752,-0.047072,0.05147,-0.018178,0.140369,0.046955,0.189691,-0.368588,-0.0745,-0.077439,-0.010403,0.082874,0.057792,-0.111834,0.104222,0.011103,0.006701,1.439733,0.046663,0.025175,0.036232,0.103465,0.157906,-0.053397,-0.025794,-0.000354,0.118761,0.035585,-0.047528,-0.129489,0.614071,0.215623,0.089263,-0.050367,0.210209,0.134698,-0.069834,0.046121,0.002755,-0.238485,0.050521,-0.132327,-0.135536,0.039481,-0.213948,-0.142968,0.050213,0.062983,-0.106766,-0.034122,0.017084,-0.095697,0.025927,0.078572,-0.110952,0.113779,0.12582,0.401304,0.073291,0.053062,0.194301,0.105751,-0.108902,0.179789,-0.05144,-0.061498,-0.021444,-0.061293,-0.002735,-0.141939,0.126432,0.008606,0.060325,-0.138158,-0.100572,0.042587,0.193677,-0.145044,-0.037119,0.250322,0.059817,0.045422,0.047107,0.12412,-0.059846],[0.012791,0.175384,-0.100282,-0.188902,-0.06819,-0.160473,-0.193623,-0.004244,0.060794,0.022247,0.05348,0.109985,0.050013,0.086295,0.092005,-0.199495,0.042319,0.049223,0.115553,0.044884,0.013012,0.018527,0.029574,-0.102852,0.048186,0.051605,-0.117805,-0.106725,-0.10689,0.004522,-0.087433,0.035792,-0.045685,0.067628,-0.198057,-0.189415,-0.003173,0.046796,0.106108,0.006085,0.06678,-0.083318,-0.017217,0.032152,-0.118339,0.008591,0.142969,-0.110996,-0.058313,0.070826,-0.040783,0.086567,0.008322,-0.010915,-0.020132,-0.252896,-0.115978,-0.012173,-0.255812,-0.076048,-0.043415,-0.019246,-0.022082,-0.08989,-0.226642,0.096877,0.078574,-0.048827,0.062137,0.015508,-0.07295,0.026209,-0.034431,-0.106759,-0.228183,0.094654,-0.129479,-0.039989,-0.119946,-0.026524,0.070462,0.038769,-0.270254,0.011955,0.201247,-0.005779,0.032873,-0.101938,0.048605,0.0705,-0.006332,0.059252,0.040845,-0.068899,-0.223753,0.094583,0.061913,0.030723,0.018265,0.071277,0.075729,0.072133,-0.005255,-0.081227,-0.059853,0.749119,0.117053,0.106894,-0.144367,-0.128967,-0.009665,-0.016298,0.010879,-0.004034,-0.317729,-0.053255,-0.153935,-0.085325,-0.092348,-0.158277,-0.108148,0.0141,-0.011167,0.038996,-0.186663,0.099044,0.007528,-0.016407,0.034912,-0.102565,-0.073974,0.006789,0.284004,-0.05126,-0.006027,-0.036822,0.09995,-0.159904,-0.115347,-0.037023,0.039508,0.109163,-0.046019,0.091049,-0.142736,0.059732,-0.001144,-0.001669,0.027653,-0.108578,-0.000384,0.044134,-0.055573,-0.012418,0.09826,0.057438,-0.049271,0.058836,0.034447,0.021552],[0.022664,-0.068456,0.042915,0.017373,-0.071311,0.026567,0.03162,0.074509,-0.01456,-0.023556,-0.009092,-0.004886,-0.038102,-0.054166,0.043084,-0.002838,-0.062326,0.049704,-0.02692,-0.030008,-0.052887,-0.01197,0.002377,0.033781,0.047096,-0.051777,0.061702,-0.042147,-0.07059,0.011023,-0.04859,-0.02379,-0.09447,-0.046357,-0.045193,-0.020741,0.049093,0.00529,0.036253,-0.01364,-0.024979,-0.065947,-0.02159,-0.092628,0.036623,0.041851,-0.035264,0.049188,0.037547,-0.062591,-0.003224,0.021227,-0.079891,-0.004384,-0.0309,0.044588,0.033363,-0.070963,0.021255,-0.037217,0.035716,-0.085537,-0.023192,0.03941,-0.032381,-0.056195,-0.075484,0.047034,-0.04986,0.001531,-0.085262,-0.052415,0.067643,-0.013051,0.074772,-0.082695,-0.008314,-0.082461,-0.016823,-0.020214,0.048369,-0.085375,0.060274,0.056972,-0.093241,0.058713,-0.028425,-0.035461,-0.000512,0.031059,-0.080271,-0.06996,-0.089654,-0.078422,-0.017964,0.047743,0.020774,-0.083787,-0.057315,-0.047933,0.043237,0.049183,0.00968,0.050547,-0.030351,0.03816,-0.042736,-0.040334,0.041065,0.022244,-0.010222,0.024518,-0.060173,0.056547,0.092362,-0.0449,0.027997,-0.045098,-0.066282,0.028233,-0.021058,0.01775,0.049062,0.017926,-0.048624,0.028678,0.038746,0.056112,-0.089035,-0.069204,0.052366,-0.028767,0.013386,0.015745,0.009245,0.052853,0.02687,-0.031532,-0.022808,-0.040906,-0.059698,-0.04087,0.003081,-0.063975,0.048896,0.058228,0.063604,-0.00805,0.001994,-0.017577,-0.063536,-0.094602,-0.02303,-0.002595,-0.020153,-0.090402,-0.085201,-0.018003,0.014343,-0.0811],[0.064885,0.120342,-0.006356,-0.078215,-0.04793,0.273286,0.138626,-0.035791,-0.050949,0.031609,0.060589,0.230305,0.005967,0.317195,-0.066717,0.088116,-0.071925,0.074071,-0.057658,0.009656,-0.017206,0.00512,0.0175,0.094991,-0.062572,-0.054975,0.008963,0.097774,-0.010209,0.049595,0.018336,-0.05171,0.081374,-0.020832,0.00469,-0.081541,-0.002139,0.141152,-0.014382,-0.031582,0.047577,-0.118427,0.030675,-0.060542,0.168364,0.071762,-0.090468,0.009451,-0.078633,0.088354,-0.025137,0.060483,-0.044582,-0.001324,0.00179,-0.034794,0.078216,-0.02993,-0.225155,0.03941,-0.022377,-0.05248,-0.076982,0.091901,0.106276,0.069051,-0.123252,-0.078014,-0.024807,0.010056,0.021747,-0.033839,-0.039273,0.048791,0.124694,-0.07075,0.056738,-0.053166,0.03207,-0.115558,-0.073517,-0.035279,0.227127,-0.021569,0.029035,0.119795,0.066114,0.033606,0.082944,-0.011434,-0.040854,0.029687,-0.637581,0.002707,0.05252,0.006482,0.05814,-0.007481,0.128046,-0.070589,0.037061,0.004414,0.014244,-0.02853,-0.057155,-0.395765,-0.025729,-0.017356,0.085254,0.296601,0.072772,-0.021093,0.002165,-0.06579,-0.025454,0.049598,-0.081699,0.032421,0.077789,0.12634,-0.028346,0.076576,-0.018639,0.098508,0.213622,-0.102659,0.041215,0.000473,-0.01212,0.110988,-0.010431,-0.229141,0.014171,0.000292,0.042785,-0.046928,-0.047204,0.097705,0.100622,-0.056629,-0.001458,0.021138,-0.029552,-0.015011,0.025679,0.094266,-0.036059,0.053576,0.102251,0.175329,0.048964,0.009219,0.029501,-0.035023,-0.07111,-0.070542,-0.027424,0.003429,0.076286,0.033461],[0.027183,0.155425,-0.048223,-0.207696,-0.042682,-0.133121,-0.253988,-0.039988,0.089328,0.08357,0.008305,0.091283,0.019025,0.040126,0.056778,-0.076387,-0.035854,-0.003691,0.184653,0.05369,0.034077,0.021873,-0.005683,-0.015297,0.121388,-0.074457,-0.024665,-0.025975,-0.061444,-0.016014,-0.063814,-0.057824,0.020777,0.030287,-0.217722,-0.093407,0.0019,0.033742,-0.058362,0.026719,-0.005348,0.019447,0.015272,0.059015,-0.200286,0.0454,0.061835,-0.139218,-0.029063,0.009743,0.065114,-0.017713,-0.046437,0.015994,0.08251,-0.131748,-0.072971,0.106539,-0.211164,-0.006536,0.041187,0.053647,-0.057693,-0.05165,-0.230999,0.001831,0.047759,0.051058,-0.003629,-0.12174,-0.014116,0.023487,-0.103064,-0.062319,-0.152179,0.010225,0.007375,-0.046157,0.031156,-0.037519,0.015153,0.011164,-0.27595,-0.122931,0.07627,-0.071156,0.03782,-0.10458,0.000848,0.096884,-0.039983,-0.011849,0.001492,0.076933,-0.310047,0.034877,0.000869,0.016196,0.092192,0.069492,0.01102,0.132078,-0.069545,0.034616,-0.004948,0.662067,0.089965,0.053316,-0.122295,-0.277378,-0.055566,-0.008922,0.062373,0.024295,-0.187423,0.073467,0.050285,-0.139203,-0.063891,-0.144292,-0.146209,0.114091,0.094036,0.014204,-0.111358,-0.006739,0.059682,-0.117116,0.012325,0.028869,0.061062,-0.044375,0.235247,-0.0766,-0.013653,-0.008114,-0.010119,-0.142121,-0.077054,0.135695,-0.05808,0.000931,-0.09795,0.004662,-0.095069,-0.011198,0.082579,-0.010177,-0.038698,-0.133513,0.068604,0.105085,-0.177553,-0.040056,0.210328,0.083903,-0.071772,0.010518,0.11004,0.058325],[0.033639,0.151967,-0.065944,0.004816,0.026956,-0.029207,0.044332,0.006668,-0.007647,-0.070088,-0.062649,-0.043708,0.003058,-0.00449,0.06219,-0.069121,0.000899,-0.030142,0.022278,-0.073446,0.094498,-0.013138,0.039771,-0.073184,0.047917,0.061379,0.016099,0.038607,0.058528,-0.060921,-0.000751,-0.063685,-0.058204,-0.061323,-0.031389,0.009564,0.004937,0.011972,-0.096858,-0.013655,0.076843,0.007771,-0.026372,0.034392,-0.02028,0.030192,-0.000775,-0.020531,-0.07888,-0.00643,0.006825,0.014355,0.032566,0.052663,-0.00331,-0.068478,-0.022954,-0.016765,-0.141895,0.024086,0.031392,0.067382,0.037637,0.027987,-0.032254,-0.054037,0.045275,-0.00328,-0.013419,0.028721,0.046663,0.051966,-0.010878,-0.03014,-0.095568,0.033512,0.007905,0.074959,0.003502,-0.087137,0.058279,-0.029275,0.035722,-0.012426,0.01925,-0.025157,-0.043926,0.03379,0.009444,-0.074998,-0.077723,-0.033585,0.055591,0.014073,-0.035756,0.005393,0.005334,-0.00874,0.023957,-0.011779,-0.029557,0.063654,0.036553,0.04122,-0.030094,0.068847,0.025295,-0.084871,-0.157993,0.022501,-0.08631,0.061173,-0.037815,-0.056696,-0.114585,-0.061934,-0.056327,0.019358,-0.092481,0.051111,0.008737,0.004035,0.023487,-0.0851,-0.065007,-0.005275,-0.095463,-0.040839,0.019218,0.001264,0.016613,-0.088778,0.079334,0.055068,0.012007,0.056423,0.035106,-0.379917,-0.045502,-0.053441,0.043473,-0.048054,0.011597,0.076311,0.010968,0.026048,-0.08511,-0.020333,0.026408,-0.028643,0.002014,-0.054032,0.024824,-0.10073,0.130565,0.080736,0.024328,-0.017606,0.005364,0.042762],[-0.041241,-0.117298,-0.084498,-0.075564,-0.072604,-0.074853,-0.021518,-0.058803,-0.118674,-0.050415,-0.01415,-0.121593,0.039499,-0.077808,0.042555,-0.042788,0.022512,-0.019767,-0.07121,-0.037128,-0.019233,-0.032384,-0.060364,-0.138562,-0.007968,0.039381,-0.075441,-0.131493,-0.137971,-0.045471,-0.120847,-0.115738,-0.064724,-0.116556,-0.042559,-0.053686,-0.139694,-0.072438,-0.074657,-0.037544,0.03981,0.000863,-0.109332,-0.021449,-0.094241,-0.105371,-0.080115,0.032302,0.059856,-0.072471,-0.07051,-0.078153,-0.058879,0.023208,0.052591,-0.024839,-0.043862,-0.142133,-0.102808,-0.069025,-0.019207,0.054441,-0.055943,-0.033412,0.010012,-0.054925,-0.011137,0.044578,-0.01373,-0.094805,-0.092982,-0.058516,-0.003969,0.000589,0.010192,-0.059819,-0.102041,-0.008259,0.017349,-0.07102,-0.027965,-0.042453,-0.098277,-0.118258,-0.119484,0.003353,-0.118086,-0.038501,-0.15577,-0.09932,-0.070591,-0.011273,0.013824,0.017297,-0.059021,-0.077688,-0.036425,-0.031705,0.032821,-0.077051,-0.116045,-0.023993,0.054258,-0.037507,-0.009038,0.009832,-0.096231,-0.082354,-0.029059,-0.113593,