export const distilledPolicyArtifact = {"enabled":true,"passed":true,"version":"distill-open-river-v1","trainedAt":"2026-06-25T19:35:15Z","policyKind":"softmax-distill","blend":1.0,"appliesTo":"open","featureNames":["equity","range_eq_0_10","range_eq_10_20","range_eq_20_30","range_eq_30_40","range_eq_40_50","range_eq_50_60","range_eq_60_70","range_eq_70_80","range_eq_80_90","range_eq_90_100","pot_odds","spr_norm","street_flop","street_turn","street_river","position_signal","to_call_flag","made_strength","draw_strength","wetness","paired","monotone","connected","range_advantage","blockers","range_percentile","range_weight","range_coverage","context_aggressor","three_bet","facing_bet","free_check"],"actionSets":{"open":["check","bet-small","bet-mid","bet-big","bet-over"],"facing":["fold","call","raise-small","raise-big","jam"]},"validation":{"val_kl":0.050733,"rows":151340},"model":{"type":"mlp-softmax","activation":"relu","layers":[{"weights":[[0.001263,0.231395,-0.122261,-0.178422,0.24347,0.203218,-0.08882,-0.088452,0.093495,-0.167581,0.170175,-0.132259,0.001568,-0.055185,0.031526,0.218834,0.113687,-0.130035,-0.165684,0.169929,-0.070533,-0.005427,0.087728,-0.048587,0.074808,0.218338,-0.167543,0.131292,0.068302,0.253887,0.145891,-0.081389,0.152135],[-0.035311,0.070811,-0.134095,-0.054442,0.103112,0.015054,-0.151592,-0.103227,-0.159535,0.033447,0.139022,-0.097077,0.094458,0.011115,-0.110029,0.103599,-0.169259,-0.106375,0.120896,0.096489,-0.098514,0.003375,0.168025,-0.036448,0.038607,-0.052746,-0.052744,-0.041279,-0.160078,-0.020737,0.018164,-0.051345,0.000564],[0.000541,-0.011409,0.010299,0.18121,0.165345,-0.095478,0.080914,0.06288,0.228096,0.049555,0.167394,-0.169949,0.246144,0.128566,0.16875,0.18467,-0.004902,0.098113,-0.17958,0.046769,-0.088451,-0.0324,-0.031179,0.033449,0.075198,0.243757,0.134762,0.203091,0.179409,0.137349,0.026699,0.080089,0.280227],[-0.077872,0.169361,-0.063817,0.061304,-0.052612,-0.118624,0.155691,-0.118359,-0.055689,0.121879,0.08426,0.040562,0.059507,0.066031,0.021657,-0.114828,-0.058233,-0.125434,-0.132792,-0.14566,-0.068283,0.137005,-0.005029,-0.081151,0.029912,0.018717,-0.014875,0.168309,0.020765,0.007707,-0.138954,-0.139436,-0.111199],[0.231823,-0.20662,0.089848,0.11695,-0.05461,0.327497,0.080648,0.03001,0.045366,0.573258,-0.105652,-0.133042,0.132953,-0.080025,0.064458,0.101306,0.116525,0.07802,-0.043384,-0.122838,-0.043158,-0.051534,-0.083824,0.004759,0.067192,0.268298,-0.375004,-0.230945,0.066786,0.110076,0.12706,-0.150115,-0.085704],[0.006796,-0.127919,0.026421,0.041842,0.119822,0.094229,-0.033672,-0.175439,-0.042291,0.094304,-0.184135,0.091203,-0.09296,-0.076548,-0.048443,-0.033539,0.000672,0.042961,-0.067852,0.052639,0.149679,-0.052177,-0.13493,0.091648,0.116774,-0.094923,-0.168342,0.080142,-0.077294,-0.0086,-0.095675,0.023167,-0.135884],[0.140897,-0.084398,-0.136621,-0.392797,0.932771,0.377082,-0.206563,0.008559,-0.06085,0.971629,-0.489034,-0.169812,0.135223,-0.015682,-0.151121,0.103677,-0.008416,0.172391,-0.993101,-0.084009,-0.068686,-0.178149,-0.631402,0.106302,0.057509,1.636269,0.23022,0.238746,-0.280896,0.080816,-0.083542,0.141338,0.133176],[0.472694,-0.290524,0.66088,0.070255,0.141349,-0.001535,0.132876,-0.23471,-0.114052,0.054965,0.074968,-0.148939,0.245437,0.131776,-0.159067,0.078712,0.032224,-0.094628,-0.566383,-0.055489,-0.252236,0.151186,-0.088413,-0.340821,0.079403,-1.489197,-0.280069,0.113762,-0.027964,0.232348,0.065945,-0.025575,0.039705],[-0.170863,0.367719,-0.177695,-0.514543,0.466354,0.401231,-0.238392,-0.093663,-0.839121,1.085234,-0.678274,-0.09415,-0.088985,0.052371,-0.117167,0.029378,-0.029106,0.015553,0.514527,0.140152,-0.143094,0.191217,0.10493,-0.291212,-0.107557,-1.757624,0.202946,-0.086216,-0.096514,-0.142177,0.143135,-0.08293,0.158598],[-0.033192,0.173875,0.050886,0.131868,-0.132558,0.507281,0.073916,0.345507,-0.0155,0.312019,0.098647,0.013503,0.084475,-0.053007,-0.088878,0.268499,-0.165456,-0.099058,0.224682,0.037955,0.096848,-0.228939,-0.241392,-0.065964,0.247866,0.404574,-0.28497,-0.172714,0.138987,-0.06558,0.123627,-0.063484,0.255078],[-0.099049,0.003766,0.0704,-0.056078,0.016972,0.084766,-0.152631,0.046043,0.093198,-0.040665,-0.138964,0.001284,-0.134041,-0.154502,0.150357,0.023053,0.06636,-0.115105,-0.165095,0.120206,-0.124972,0.001983,-0.1475,0.104372,-0.114273,-0.114001,0.132654,-0.161098,-0.090255,-0.150454,-0.009327,0.018907,0.141926],[0.03903,-0.405149,0.136238,0.177881,-0.260585,0.259083,0.170612,0.590612,0.015442,-0.207336,0.220791,0.084981,0.084686,0.143898,0.070084,0.094649,-0.152228,-0.102205,-0.162335,-0.156891,0.117437,0.095815,-0.167999,-0.031121,0.058672,-0.350183,-0.17469,0.122949,0.132975,0.033111,0.004388,0.058603,-0.060302],[0.142135,-0.116321,-0.133745,0.089625,0.114888,-0.076219,0.04497,-0.059089,0.007594,-0.158059,0.016687,0.066586,-0.03933,-0.163063,-0.087034,-0.0954,0.065192,-0.01565,0.093617,0.021561,-0.172388,0.005545,0.112195,0.054652,-0.14155,0.057535,-0.022426,-0.145514,-0.118948,0.024566,0.036007,-0.090305,-0.046825],[1.051594,0.057919,0.066358,0.250012,-0.260186,-0.180735,0.021412,-0.043182,-0.104885,0.28256,-0.13535,0.055503,0.004816,0.054955,-0.073542,-0.0638,0.002026,-0.147777,-0.069134,0.071474,0.015268,-0.205659,0.117562,-0.169456,0.104668,0.146782,-1.072289,-0.329492,0.151716,0.080792,-0.171031,-0.061868,0.057458],[0.807847,-0.038632,-0.16217,-0.470264,0.153404,-0.319406,-0.114431,-0.012604,-0.413388,0.04735,0.166569,-0.062899,0.050447,-0.014146,-0.054839,-0.043263,-0.023173,-0.021305,-0.361941,-0.058078,-0.341747,0.216454,0.128336,-0.181212,-0.035661,1.265616,0.2083,-0.007525,-0.141296,0.006392,0.012479,-0.172571,-0.244609],[-0.042236,-0.130443,-0.171413,-0.157826,-0.017168,-0.125383,-0.052507,-0.120766,0.13117,0.034789,-0.087314,-0.127399,-0.060939,-0.117898,-0.036436,-0.071327,-0.151044,0.163871,-0.145554,0.154398,0.136891,0.114244,-0.046773,-0.016062,-0.044171,0.050123,-0.181138,0.00065,-0.039268,-0.070788,-0.145189,-0.109875,0.149438],[0.002241,-0.147837,0.092486,-0.345215,0.346251,0.086537,0.024166,-0.302318,-0.246137,0.697765,-0.377997,0.116186,0.221024,0.123735,0.036319,0.178279,-0.025883,0.019938,-0.624464,0.056948,-0.050104,-0.138456,0.300041,-0.171893,-0.074509,-1.41735,0.256198,0.03811,0.002967,0.137731,0.071334,0.100995,0.111599],[-0.167972,0.056074,-0.05718,0.159016,0.049957,-0.006882,0.031783,0.143159,0.102712,-0.166885,-0.152846,0.171141,-0.133361,-0.146699,0.094785,-0.064678,0.069746,0.004729,0.116986,0.138204,0.146572,-0.048691,-0.046508,-0.1493,-0.078267,-0.092831,0.058943,-0.000223,-0.109283,-0.106257,0.021165,0.075455,0.120969],[-0.103204,-0.141872,-0.112908,0.075331,-0.110688,-0.053335,-0.047695,0.124972,-0.170544,-0.115199,-0.022605,-0.109052,-0.109957,0.078103,-0.172361,-0.124466,-0.040719,-0.015819,0.034384,0.059837,-0.08595,-0.119825,-0.102296,-0.171376,-0.08399,-0.027979,0.146526,-0.017242,-0.089605,0.07573,-0.027043,-0.091204,-0.171751],[-0.799437,-0.107221,0.085988,0.542056,-0.338094,-0.093121,0.118724,-0.481864,-0.355624,0.243275,0.490099,-0.014243,0.101555,0.139257,-0.143332,0.176156,-0.007832,-0.058228,-0.092122,-0.018156,0.043874,-0.09952,0.723576,-0.114966,-0.053153,0.310222,-0.202353,0.073783,0.050203,-0.088944,0.112545,-0.009072,0.17674],[-0.169946,-0.123582,0.043187,-0.125458,-0.046149,-0.04467,-0.136793,-0.050603,-0.124131,-0.00697,-0.030627,-0.116875,0.071697,0.055546,0.14536,-0.150336,-0.167963,-0.166052,-0.109127,0.048158,0.016239,0.056421,0.146581,-0.131881,0.051839,0.125344,-0.046156,-0.131867,-0.102223,-0.125273,0.03061,0.016637,0.022723],[0.165441,0.305124,-0.429233,-0.721413,0.376602,0.754859,-0.674534,-0.129259,0.817868,-0.247643,0.021474,-0.152974,0.103619,-0.009487,-0.101247,0.098156,-0.344328,-0.033947,0.5122,-0.068946,0.092372,-0.353423,0.05494,-0.032019,-0.019315,-0.752207,-0.10218,-0.02063,0.242245,0.144459,-0.042818,-0.104966,-0.15217],[0.146431,-0.016401,-0.07755,0.108694,-0.141467,-0.179936,0.129835,-0.074306,0.130052,0.051215,-0.133839,-0.096373,0.109898,0.026519,-0.092113,0.094301,0.086973,0.129676,-0.079832,0.162847,-0.075203,0.008309,-0.138485,0.037051,-0.186929,0.083567,-0.048748,-0.10049,0.093004,-0.054858,-0.171905,-0.007948,0.031044],[-0.058814,-0.148982,-0.001914,-0.164553,-0.055461,0.072404,0.105329,0.019399,-0.056441,0.03639,0.063339,0.039344,-0.024011,0.023018,0.106859,-0.163566,0.12969,-0.121648,0.021299,-0.142999,-0.056031,-0.117246,-0.003511,0.006851,-0.165091,-0.127923,-0.124757,-0.013149,-0.081927,-0.140785,0.095875,-0.009461,-0.085592],[0.320856,-0.221354,0.300962,0.064527,-0.142923,0.455284,-0.163346,0.057789,0.120012,-0.839145,0.346659,0.050662,0.172473,0.060986,0.117219,0.150259,-0.245436,-0.072417,-0.300263,-0.014964,0.046676,0.038313,0.163752,-0.100457,-0.034293,-0.00439,-0.243974,-0.028294,0.150019,-0.026562,-0.091248,0.04349,0.008212],[-0.100141,0.053198,-0.089296,0.053098,0.161784,0.037911,-0.246632,0.090786,0.151152,-0.053011,0.306529,0.125925,0.017737,0.131347,-0.035467,-0.040304,-0.072935,0.11959,-0.108669,0.086183,0.173252,0.025969,0.082411,-0.045601,0.168253,0.46259,0.34124,0.296978,0.166926,-0.048714,0.142519,0.148484,-0.003523],[0.011401,0.116309,0.093636,-0.039145,-0.014771,0.119413,0.037504,-0.090425,-0.019051,-0.001174,-0.058892,-0.029261,0.133019,-0.062927,0.017036,0.033519,-0.049705,0.1692,-0.116989,0.018026,-0.075893,0.022996,-0.107957,-0.09883,0.127758,-0.031255,-0.074813,0.065279,0.03577,-0.144411,-0.002471,-0.025169,0.051923],[-0.179408,0.147629,0.08368,0.13731,-0.077142,-0.12556,-0.092766,-0.10656,-0.038238,-0.034689,-0.083388,0.120091,-0.038975,0.051582,-0.172413,-0.005725,-0.073398,0.010833,0.093873,-0.097052,-0.115752,0.08148,-0.165387,-0.047763,-0.114995,0.090333,-0.108136,0.080521,-0.029149,0.05136,0.005519,0.127313,-0.03217],[-0.127755,-0.082946,-0.125813,-0.100908,0.126718,-0.064057,-0.162135,0.043061,-0.165705,-0.115353,0.070268,-0.060282,-0.0227,-0.085863,-0.169403,0.145849,0.013208,-0.135551,0.069121,0.022659,-0.010055,-0.169442,-0.15843,0.068425,-0.098734,0.072387,-0.027892,0.007757,-0.094353,-0.04397,0.013909,0.021839,0.021096],[-0.408284,-0.06731,0.126844,-0.038852,0.015876,0.249609,-0.027084,0.238464,0.105178,0.275108,0.147896,0.14794,0.054002,0.107171,0.112163,0.11733,0.047716,-0.011307,-0.146648,0.068945,0.021951,-0.080565,0.221718,0.093065,0.013337,-0.078784,-0.156283,0.072886,-0.239581,0.230156,0.002658,-0.014173,0.079933],[-0.138943,-0.055331,0.068125,0.053985,0.020315,-0.157902,-0.004767,-0.12478,-0.084599,-0.00773,-0.125546,-0.140064,0.043339,0.046251,0.141313,-0.043756,0.057804,-0.116823,-0.032552,-0.079559,-0.011377,0.142508,-0.108707,-0.073899,0.086327,-0.004242,0.012083,-0.011414,-0.068679,-0.005216,-0.116748,-0.131847,-0.100084],[-0.312486,-0.529254,0.709056,0.606765,-0.02059,-0.337057,-0.224379,-0.13982,-0.070025,0.270605,-0.141363,0.131728,0.028061,-0.089974,-0.105898,0.136121,-0.033329,-0.036058,-0.164753,-0.022887,0.087753,0.067089,0.089324,-0.045958,0.019452,0.233008,-0.923332,-0.204524,0.26516,0.119151,0.11811,0.13922,-0.107335],[-0.148701,0.049441,-0.006993,-0.111205,0.137624,0.330113,0.084119,-0.287237,0.358744,0.019967,0.297562,0.110558,0.175315,0.135265,0.034698,0.192438,0.033999,0.042332,0.029919,0.034536,0.110705,-0.149559,0.233011,-0.066685,-0.012485,0.905737,-0.27773,-0.030893,-0.027461,-0.012999,0.078221,0.005758,0.14791],[0.145663,-0.024557,-0.124176,-0.073954,-0.01164,0.120072,0.08254,-0.161743,0.071822,-0.018329,0.167159,0.050217,-0.019401,0.032379,0.018885,-0.010875,0.040266,0.064525,-0.000416,-0.023086,0.160334,-0.165776,-0.04625,-0.048044,-0.161836,-0.04867,0.030837,-0.08089,0.047962,0.052652,-0.049401,0.15541,-0.124147],[-0.000286,-0.194145,0.583857,-0.552242,-0.02813,0.160386,0.938683,-0.264593,-0.150689,0.472056,-0.111363,-0.003921,0.093235,-0.110599,0.112619,-0.025774,0.084579,-0.124113,-0.909508,0.031431,-0.201126,0.410802,0.004666,-0.33191,-0.05804,2.568391,-0.041949,0.21353,-0.106115,0.136579,-0.146448,0.080172,-0.006574],[-0.15905,0.141028,0.05509,0.133763,0.139469,0.048106,0.226009,0.193388,-0.226475,0.047353,0.235431,-0.14857,0.109275,0.144633,-0.147196,0.10273,0.056857,0.031025,-0.22735,-0.002475,-0.150026,0.033636,0.066012,0.132549,0.029627,0.219184,-0.362456,0.029579,-0.014784,0.198282,0.125273,0.034192,0.17652],[-0.187832,-0.080344,-0.215759,0.046436,0.074583,0.041149,0.039211,0.536359,-0.145181,0.311656,0.052412,-0.105165,0.18493,0.119394,0.088404,0.173883,0.011338,0.109495,0.109355,0.171194,0.113105,0.319512,-0.1041,0.018158,-0.091676,-0.9048,-0.075647,-0.06227,-0.285539,0.178226,0.040046,-0.105446,-0.001531],[0.064422,-0.188577,-0.093039,-0.077437,0.133793,-0.15172,-0.46731,-0.21388,-0.051865,0.055879,-0.028006,0.086852,-0.059642,0.144047,-0.081216,-0.179694,-0.008963,-0.037645,-1.040076,-0.173437,-0.013743,0.429749,-0.018379,0.013089,-0.163928,0.859773,0.474626,0.311135,0.254645,0.00805,-0.006556,0.160119,-0.037034],[-0.073962,0.107548,0.065244,-0.056333,0.107934,-0.070742,0.064975,0.065313,0.113235,-0.082973,0.052959,0.032383,-0.147781,-0.126819,0.105369,-0.101334,0.068235,-0.13437,0.101486,0.054214,-0.156683,0.064391,0.025356,-0.10447,-0.028302,0.085951,-0.016971,-0.166177,0.077143,-0.173558,0.079241,-0.060714,0.027772],[0.388222,-0.107404,-0.372564,-0.244234,-0.359693,-0.110122,0.258454,-0.181469,-0.228793,0.291884,-0.060037,-0.030534,-0.203027,-0.162365,-0.046787,-0.219312,-0.007627,0.127406,-0.972689,0.117077,-0.081108,0.186153,0.009767,0.025152,-0.208114,-0.262403,0.553382,0.198459,-0.070674,0.017475,0.050411,0.14369,-0.246245],[-0.164244,-0.30772,0.611995,-0.684948,-0.213075,-0.260501,-0.168955,-0.248231,0.282183,-0.449278,-0.014584,0.076081,-0.049746,-0.105093,0.118617,-0.072137,0.023132,0.138829,0.1243,0.100049,0.305357,0.352994,0.375195,0.190877,-0.233939,-0.173378,0.139108,0.177597,-0.288282,-0.07558,0.160583,0.035048,-0.024091],[-0.139146,0.244128,-0.387004,0.178005,1.045733,0.488379,-0.061826,-0.326106,0.197677,-0.435127,-0.091891,0.158883,0.067699,0.167952,-0.060402,0.125836,-0.03751,0.063133,0.969446,-0.02582,-0.067919,-0.544953,0.011962,0.062843,-0.062498,-5.604054,-0.040789,-0.073623,-0.519154,0.166483,0.144096,0.072255,0.220995],[0.173793,0.28456,0.221378,0.311488,-0.229028,0.098659,-0.503157,-0.80239,0.349847,0.464189,0.36888,-0.081064,0.158272,-0.171577,0.056094,-0.047435,0.024657,0.134824,-0.56396,-0.062241,-0.046987,0.371903,0.451253,-0.094485,0.114356,-1.211586,-0.029683,-0.154792,0.116458,0.052461,-0.159277,0.113394,-0.117577],[0.140921,-0.174595,0.095494,-0.088842,-0.089321,0.0674,0.055971,-0.138456,-0.000427,0.104855,-0.139521,0.072963,0.100683,-0.155133,-0.004257,-0.124521,0.032599,-0.059351,0.115387,-0.094978,0.034878,0.003865,-0.059263,-0.142414,-0.11921,0.05662,0.110899,-0.12349,-0.04515,0.084248,-0.045748,-0.137762,-0.114451],[-0.269078,-0.938621,1.183568,0.112555,0.041497,-0.122124,-0.033957,-0.001182,0.157477,0.316175,-0.172267,-0.115912,0.015798,0.150875,-0.140732,0.185396,0.029736,0.067895,0.564488,-0.019175,0.027317,-0.083357,0.221145,-0.054493,-0.05301,-0.098045,-0.009012,0.140597,-0.394244,0.172864,0.117259,0.093943,-0.095719],[0.001863,0.164443,0.039844,0.079384,-0.021419,-0.157818,0.007486,-0.057562,0.109946,-0.011498,-0.038149,-0.154655,-0.097114,0.037022,-0.032595,-0.146616,-0.006845,-0.00926,0.000711,-0.081316,0.047277,-0.107827,0.085461,-0.104987,-0.172812,0.034442,0.096827,-0.078992,-0.089099,-0.046989,-0.092223,0.028499,0.065519],[-0.186682,-0.042323,0.521039,-0.282884,-0.550095,0.124816,0.25126,0.523943,-0.479972,-0.574628,0.472943,-0.099606,-0.118777,0.147372,-0.162437,-0.121401,0.056702,-0.123164,0.086229,0.030807,0.065225,0.191148,-0.065154,-0.220217,0.144456,-1.788197,0.083748,0.118215,0.301493,-0.057198,0.014355,-0.078181,0.110348],[-0.212486,-0.021117,0.066194,0.032385,-0.009514,0.065578,0.094273,0.180803,-0.028803,0.145046,0.334535,-0.123206,0.162073,0.05852,-0.086791,0.085455,-0.142669,-0.013319,0.19703,0.149698,0.093221,0.039219,0.072239,0.191446,0.142053,0.261613,-0.058168,0.162552,0.098499,0.108152,-0.052504,0.129748,0.028015],[-0.085463,-0.154344,0.1728,0.067232,0.037203,0.116191,-0.15158,0.060581,-0.085934,-0.064338,0.030327,0.008935,-0.004003,0.005915,-0.053829,-0.169359,0.08435,0.044247,-0.041572,0.116702,-0.101788,-0.000791,-0.073098,-0.032185,0.005223,-0.172848,-0.10943,0.043381,0.10399,0.158487,-0.060765,0.061188,-0.162036],[0.134165,-0.037612,-0.049044,0.108012,-0.043387,0.035657,0.12848,-0.161243,0.031825,-0.085604,-0.116102,-0.030032,0.14874,0.134592,0.130677,-0.046612,0.022724,-0.052583,-0.029039,0.075532,0.065516,-0.151917,0.082491,-0.024133,-0.045258,-0.142744,0.125227,-0.162599,0.154697,-0.087506,0.001931,0.04682,-0.147148],[-0.199313,0.068097,0.299821,0.175119,-0.026258,-0.089598,0.276336,-0.243989,0.172877,-0.061527,-0.038027,-0.068436,0.008468,0.165271,0.085502,0.076417,-0.199311,-0.152716,-0.233557,-0.05884,0.205001,0.059843,0.106087,0.14649,-0.023105,-0.621163,-0.362626,-0.004417,0.021922,0.108385,-0.103976,0.009257,0.257832],[-0.016023,0.323447,-0.407469,0.341997,0.229495,0.19033,0.5664,0.360902,-0.635668,-0.028572,0.486944,0.081828,-0.037478,0.115167,-0.039,0.089532,-0.015299,0.042431,0.377521,0.061898,0.073536,-0.090773,-0.036611,-0.233445,0.072296,-0.073761,-0.324084,-0.169317,-0.27847,0.16785,0.091856,-0.14856,0.161971],[0.054978,-0.058369,0.04947,-0.283142,0.13962,-0.026171,-0.087297,-0.023976,0.19337,0.13268,0.082841,-0.0553,0.080068,0.017656,-0.014678,-0.127726,-0.006256,-0.092327,0.242113,-0.008961,-0.033797,-0.456176,0.063165,0.016554,-0.056394,1.228709,0.490874,0.258029,0.044568,0.13141,-0.06652,-0.170348,-0.10082],[-0.285557,0.197752,0.270193,-0.051014,0.030895,0.12429,0.329984,-0.44029,0.424359,-0.390799,0.417754,0.069294,0.083192,-0.141239,-0.121385,0.256671,-0.039281,-0.14765,0.005799,-0.123393,-0.046764,0.138572,-0.123039,0.152706,0.033372,-1.495963,-0.260589,-0.180216,-0.014591,0.134878,-0.085578,-0.01457,0.125595],[-0.034066,-0.144584,-0.53966,-0.160704,0.433357,0.55152,-0.22554,-0.206359,0.52389,0.30114,-0.409317,-0.03229,0.029968,-0.093546,-0.064398,0.194443,-0.292198,-0.021585,-0.487221,-0.054184,0.013701,-0.127002,-0.01505,-0.150096,-0.061978,-0.613812,0.319723,0.131699,-0.194713,0.103849,-0.171165,-0.03387,0.132528],[-0.335443,0.000532,-0.037651,0.196553,0.042305,-0.073533,0.349263,0.426661,-0.287514,0.044336,0.325256,0.094314,0.217322,0.045976,-0.025067,0.185514,0.059731,0.153696,-0.014063,-0.057317,0.179139,0.223297,-0.041378,-0.031015,0.221435,0.618259,-0.34613,-0.039522,-0.180357,0.181903,0.062265,0.033642,0.082765],[0.164358,0.027454,0.09801,-0.042879,0.057349,-0.013575,0.009794,0.069543,-0.074957,0.071663,-0.008108,-0.081998,-0.139938,0.110947,-0.168613,-0.135535,-0.094503,0.147416,-0.055203,-0.000795,0.090274,0.053743,0.028555,0.125837,-0.072308,-0.075513,-0.151216,-0.150065,0.070631,-0.098224,-0.12416,0.122895,0.00058],[0.067161,-0.162275,-0.030087,0.005032,-0.040484,-0.124198,-0.14021,0.022364,0.114831,-0.042893,0.133648,-0.013409,-0.017655,-0.027993,-0.12992,-0.073426,-0.015835,0.150825,0.152779,0.151214,0.004335,-0.139952,-0.104804,-0.136633,0.116151,-0.043482,-0.145559,0.107787,-0.090044,0.059986,0.153774,0.161205,-0.017894],[0.018857,-0.058205,0.089804,0.078211,-0.158703,-0.003716,-0.026614,0.006671,0.090371,-0.040228,0.001065,0.122465,0.061097,-0.050978,0.005462,0.023272,-0.156365,-0.023802,0.144639,-0.007263,-0.117635,0.125587,0.042551,-0.157223,0.002928,-0.015844,0.027197,-0.128534,-0.055217,-0.064685,-0.084409,0.143211,-0.189728],[-0.270547,-0.238837,-0.161889,0.176037,0.625929,0.316089,-0.35777,0.047817,0.399337,0.137614,-0.252452,-0.12956,0.028822,-0.09763,-0.170007,0.084635,-0.126854,-0.052024,-0.267575,-0.056082,0.089619,-0.09344,-0.073768,-0.207119,0.177539,0.033571,0.120535,0.198563,-0.164761,-0.01204,0.07507,-0.082082,0.20047],[0.192848,-0.395116,-0.4255,0.431174,-0.126942,0.025377,-0.375208,0.058383,0.526323,0.506736,-0.429192,0.082355,-0.024887,0.029584,0.103162,-0.058333,-0.02733,0.127977,-0.313395,0.068712,-0.080941,0.077165,0.050189,0.005185,-0.128445,0.297137,0.523547,0.385523,-0.093056,-0.046381,-0.097757,0.121866,0.045563],[-0.066791,0.084836,-0.156843,0.002734,0.000932,-0.093302,-0.012893,0.086343,-0.065297,0.114304,-0.150001,-0.116408,0.11226,0.088573,0.164497,-0.126324,-0.106959,0.014579,-0.106571,0.005159,-0.173119,-0.139205,0.107715,-0.182301,0.073581,0.03151,-0.164926,-0.159554,-0.196674,0.08321,0.17183,-0.093086,0.027705],[-0.127237,0.019344,-0.051965,0.152843,0.019676,0.023166,-0.156044,0.090181,0.11462,-0.025904,0.139847,0.110155,-0.018181,-0.111613,0.149234,-0.059745,-0.157915,0.157445,-0.119549,0.124147,0.088883,-0.001981,-0.163877,-0.090878,-0.1634,0.033254,-0.095284,-0.092433,0.012022,0.109066,0.000269,0.145629,-0.019539],[0.032329,-0.322206,0.071497,0.045376,0.375271,0.128413,0.031781,-0.150805,0.053057,0.527699,-0.160056,0.011169,0.094449,0.142547,-0.101942,0.121192,-0.151357,0.108424,-0.278344,0.021429,0.168362,-0.026124,-0.22987,0.11469,0.042596,-0.344659,0.4427,0.334974,-0.138744,-0.014925,0.025984,0.095684,0.060448],[-0.126164,0.161704,-0.124536,0.199395,-0.2608,0.114039,0.651136,-0.033852,-0.351796,-0.660642,0.579149,-0.007282,-0.116215,-0.119524,0.046842,-0.026966,-0.104112,0.151231,0.452942,-0.063329,-0.091853,0.252523,0.104929,0.056174,-0.021622,1.823796,-0.277619,-0.010839,-0.064973,0.221496,-0.013107,-0.146675,0.205332],[-0.39864,-0.177719,-0.097964,0.156513,0.418141,-0.002162,0.20509,0.174666,0.221031,0.563661,-0.198452,-0.140089,0.103157,0.103566,-0.171973,0.022659,0.001923,0.167794,0.052894,-0.139963,-0.042889,-0.099231,0.289084,0.132056,0.278144,0.394583,-0.301798,0.042572,-0.206913,0.221534,-0.104389,0.040762,0.183677],[0.090198,0.119249,0.034948,-0.264041,0.071129,-0.058229,-0.328151,-0.221522,0.463331,-0.045595,-0.202551,-0.043546,0.053351,-0.106438,0.059608,-0.117986,0.060661,-0.012062,-0.188503,-0.093487,-0.002741,0.05614,-0.152034,-0.038813,-0.102249,-0.105532,0.327565,0.351829,0.273457,0.024438,-0.148021,-0.004229,0.018089],[0.044496,0.032857,0.092859,0.071918,0.176856,0.129682,0.225713,0.018491,-0.002772,0.594479,-0.245342,0.109194,-0.058933,-0.123464,0.041885,0.128807,-0.069791,0.091549,-0.404436,-0.1149,-0.026945,-0.125288,-0.048969,-0.008168,-0.078368,-0.549722,0.38331,0.152089,0.140172,0.069215,0.060106,-0.07769,-0.111285],[1.500663,-0.405389,-0.28358,-0.141145,-0.181696,0.014413,-0.243758,-0.41638,-0.084068,0.453307,-0.649201,0.047899,-0.080614,-0.134429,-0.041701,-0.260249,0.007308,-0.095338,-0.178247,-0.065215,-0.174055,-0.067036,0.103365,0.070892,-0.155549,-0.798713,0.42656,0.375713,-0.177624,-0.291171,0.149253,0.135858,-0.147436],[0.217243,-0.067292,0.02001,-0.222632,0.205263,-0.004717,-0.274584,-0.096639,0.154477,0.120546,-0.014505,-0.147731,0.108221,-0.041742,-0.083203,-0.009068,0.138039,0.03226,-0.101828,-0.01619,0.09169,0.223574,-0.030262,0.007454,-0.039367,-0.535892,0.3402,0.084313,0.164581,-0.145968,-0.171174,-0.127402,-0.144181],[0.129973,-0.103718,-0.119985,-0.222122,-0.045243,-0.151255,-0.209398,-0.123736,0.0927,-0.217213,0.127108,-0.065789,-0.067603,-0.121303,0.057379,-0.067538,0.061565,0.058493,-0.287854,0.019058,-0.127314,0.148791,0.10863,0.219572,-0.033149,-0.295879,0.277128,0.283745,0.199769,0.056509,0.01943,-0.097109,-0.006642],[-0.097625,-0.00194,-0.243792,-0.070144,0.183433,0.310451,-0.203093,-0.148299,0.249982,-0.199843,-0.249505,-0.035206,0.028697,-0.050499,0.087986,0.019922,-0.078487,-0.138678,-0.010814,0.108586,0.080102,0.081045,0.13842,0.008663,-0.128153,0.79064,0.420613,0.172772,-0.004343,0.152661,0.15432,0.144037,-0.057127],[0.051671,0.020243,-0.01292,-0.522878,0.9232,0.270148,-0.890615,-0.090428,0.143112,0.32368,-0.252381,0.045772,0.105609,-0.129374,-0.130981,0.050632,0.084103,0.046399,0.97855,-0.083708,-0.324369,0.039403,-0.330342,-0.184205,-0.068497,2.91578,0.01236,0.159477,-0.249036,-0.119517,-0.081624,-0.149089,0.091927],[0.098557,-0.04778,-0.014422,-0.150531,-0.045825,0.108986,0.13123,-0.078776,0.124025,-0.060209,-0.025231,-0.143768,-0.160249,0.063491,-0.072088,0.006625,0.005241,-0.085401,0.135403,0.120695,-0.171818,-0.164191,0.117937,0.171133,0.034779,0.108557,-0.166971,-0.141744,-0.080494,-0.020081,0.0196,-0.022433,-0.169508],[-0.047659,-0.000167,-0.075856,-0.189698,-0.119275,0.123504,0.023147,-0.071396,0.031791,-0.131909,-0.087306,-0.032324,0.113783,-0.08303,0.052738,0.094016,-0.102189,0.065052,-0.125012,-0.097559,0.105653,0.02129,-0.136353,0.101669,0.051359,-0.147597,-0.063076,-0.079354,0.026831,-0.129713,0.138368,0.083487,-0.072021],[0.035544,0.061475,-0.029488,0.067439,-0.496622,0.101828,0.208619,0.021172,0.045232,-0.224298,0.02333,0.138758,0.07572,-0.173185,-0.055279,0.097077,-0.004181,-0.070748,-1.034779,-0.138709,-0.097473,-0.074466,0.09067,0.007716,-0.114693,-2.308449,0.387844,0.319269,0.104866,-0.081649,0.0839,-0.057882,0.026439],[-0.100697,0.160073,-0.170444,-0.011545,-0.091161,-0.096807,-0.168055,-0.022598,0.111127,0.0959,-0.039228,0.029876,0.067231,0.022395,-0.09595,-0.029218,-0.007215,0.048268,0.077023,0.032779,-0.148744,-0.124471,-0.05697,-0.124801,-0.071921,0.111931,-0.144752,0.066445,-0.064132,-0.128497,-0.08201,-0.14064,-0.143937],[-0.152194,-0.113133,-0.057604,0.009618,-0.077125,0.102313,-0.113551,0.039287,-0.096779,-0.123635,0.055036,0.076304,0.110769,-0.042444,0.160214,-0.114918,-0.082524,-0.101555,0.12058,0.008529,0.038471,-0.162797,0.100456,0.056429,0.135795,0.027855,-0.003013,0.027504,-0.069532,-0.171584,-0.039085,0.062854,-0.009011],[1.250059,-0.05483,0.376517,-0.368834,-0.216403,0.036995,-0.247162,-0.166734,0.085603,-0.280548,-0.129076,0.042895,-0.060704,0.142701,-0.039054,-0.056492,0.011303,0.147647,0.018301,-0.120294,-0.034713,-0.008414,-0.001062,0.013226,0.01171,-0.507043,0.637421,0.479146,0.144398,-0.236677,0.026583,-0.149929,0.013607],[0.182766,-0.009202,0.376842,0.161779,-0.181098,0.135643,-0.408654,0.146662,0.640723,-1.383361,0.659163,0.027351,-0.018184,-0.171964,0.116602,0.005907,0.051727,0.020136,0.141207,0.172065,-0.066977,-0.179898,0.315925,0.112285,-0.013823,-2.615359,0.037088,-0.036766,0.349846,-0.090962,-0.148138,0.172367,-0.185453],[0.126892,0.211031,-0.538382,-0.002731,0.218184,0.447492,0.229443,0.247889,-0.473577,0.493792,-0.326448,0.126924,0.150901,-0.033769,0.038235,-0.125356,-0.221842,0.097376,-0.568685,-0.0712,0.090622,0.152733,0.141741,-0.157091,0.106441,-2.045944,0.061408,0.278906,-0.054164,0.191175,-0.110218,-0.018498,-0.124643],[0.099897,0.056632,0.115645,-0.163639,0.009012,0.154757,0.056589,-0.033535,0.10874,0.14848,0.108881,0.11934,0.123657,0.102537,0.107432,-0.163966,0.045383,-0.112278,0.027192,0.133757,-0.030095,-0.16513,-0.087086,0.030494,-0.139322,0.016779,0.159033,-0.169585,0.095323,-0.056191,0.069634,0.059331,0.049452],[0.005351,-0.073048,-0.018299,0.015203,-0.055625,0.037559,-0.004988,0.098527,0.001065,0.153847,0.032207,-0.062552,0.166365,-0.126888,0.121322,-0.044836,0.072445,-0.049144,-0.110189,0.028289,-0.058019,-0.033888,0.02153,-0.088563,-0.100117,-0.13784,0.053461,0.166366,-0.139153,-0.138466,0.083312,-0.127775,-0.129006],[1.232489,-0.11544,-0.564513,0.166906,0.31285,0.098262,-0.204492,-0.100031,0.011957,0.06602,-0.129329,-0.077096,-0.215638,-0.034182,-0.077077,-0.086126,-0.008282,0.145642,-0.086836,-0.059861,-0.026506,-0.051416,-0.010561,-0.01356,-0.223914,0.271945,0.599332,0.464615,-0.290697,-0.185953,-0.0597,-0.092135,-0.16424],[-0.325773,0.064564,-0.413041,0.245502,0.195526,-0.49865,0.339848,0.029038,-0.149954,0.32886,-0.019419,0.063616,0.01608,0.113682,0.114736,0.132017,0.078161,-0.172125,-0.10485,-0.14934,-0.07861,0.099021,-0.247256,0.07368,-0.148072,-0.809529,0.349156,0.226686,-0.131248,-0.006119,0.167264,0.036971,-0.030284],[-0.135529,0.078189,0.207701,0.38485,0.006004,0.019779,-0.266444,0.297056,0.372743,0.254055,-0.005787,0.158159,0.083469,0.088874,-0.027871,0.212783,-0.135764,-0.033446,-0.016309,-0.065665,0.037915,-0.019083,-0.004611,0.074026,0.169676,-0.764176,-0.347961,-0.135843,-0.148908,0.166302,0.09496,0.049047,-0.039248],[-0.257957,0.020073,-0.119419,0.057537,-0.114367,0.258714,-0.006337,0.010494,0.241188,0.353689,-0.154887,-0.008298,0.087459,0.036764,-0.030562,0.210793,0.131014,-0.05182,-0.190021,-0.071113,-0.112916,-0.072106,-0.083428,-0.10372,0.139531,0.19995,-0.152062,0.008203,-0.00462,0.266747,0.121282,0.103102,0.087904],[-0.202871,-0.074237,-0.103174,0.054408,0.015436,0.174597,0.315231,0.219946,-0.045394,0.13728,-0.007865,-0.021104,0.222568,0.021348,0.081549,0.129414,0.063965,0.113778,-0.342855,0.123206,-0.107458,-0.161825,0.086569,0.057658,0.239978,0.099956,-0.099177,0.112479,-0.145793,0.218415,0.011856,0.146927,0.115815],[-0.39574,-0.142873,0.057743,0.141647,0.061201,0.137078,-0.105532,-0.035385,0.459939,0.274275,0.083929,-0.022259,0.148317,-0.091978,-0.023687,0.107493,0.179492,0.146539,0.016865,-0.120965,0.124922,0.017934,-0.158285,0.093171,-0.053033,-0.281049,-0.200563,0.010446,-0.262465,0.226186,-0.137276,0.057251,0.153736],[-0.175748,0.031783,-0.119978,0.006384,0.103745,0.194814,0.565621,0.098657,-0.306238,-0.318755,0.07611,0.010857,0.003618,0.128482,-0.032246,0.054769,0.131014,0.075006,-0.113911,0.079521,-0.086677,0.037088,0.112694,0.063631,0.058085,-0.116701,-0.306869,0.081377,0.082501,0.0644,0.010132,-0.075911,0.103932],[-0.491486,0.317648,-0.09716,0.446933,0.344931,0.204078,0.276739,-0.082746,0.481605,0.394132,0.452423,0.12811,0.2748,0.025016,0.101743,0.381603,-0.033531,0.142713,-1.076493,-0.127313,0.114471,-0.09209,-0.042198,0.006283,0.123329,0.112928,-0.783037,-0.209949,-0.035273,0.337157,-0.136931,-0.147432,0.211715],[-0.508407,0.202482,0.098849,-0.303922,0.380737,0.147565,0.259743,0.267412,-0.355981,0.601242,0.092517,-0.132241,0.324266,-0.016624,0.134788,0.294555,-0.038798,-0.15205,-0.27908,-0.083257,0.072723,0.097022,-0.124106,-0.170907,0.230548,0.761045,-0.365122,0.067434,-0.009597,0.267568,0.036554,-0.122236,0.167538],[-0.260926,0.119295,0.006644,0.10368,0.281977,-0.132593,0.316786,-0.157781,0.2683,-0.579216,0.385609,-0.083704,0.109979,-0.0486,-0.076424,0.051519,0.234027,0.066637,0.097306,-0.009623,0.021521,0.025267,-0.05513,-0.112559,0.193344,0.595998,-0.214737,-0.169765,0.146201,0.101088,0.057125,-0.066483,0.060479],[0.097439,0.110537,0.017444,0.083311,-0.034277,0.047044,0.071011,-0.033363,-0.037624,0.333293,-0.046157,0.025222,0.123099,0.138301,0.023098,0.15823,0.119467,0.035902,-0.443929,0.163809,-0.098658,-0.045132,-0.104081,0.139928,0.033776,-0.352882,-0.07342,0.147467,0.178229,0.166146,-0.133519,0.141209,-0.071703],[1.485942,-0.164462,0.036518,-0.002705,-0.036888,-0.419461,0.023044,0.001806,-0.099509,-0.79802,-0.594583,0.149866,-0.149391,-0.112311,-0.084011,-0.257529,0.016945,0.153728,-0.081478,0.062892,-0.040537,0.042187,-0.046666,0.00456,-0.385702,-0.225378,0.554955,0.239547,-0.393989,-0.065491,-0.022528,-0.117772,-0.204129],[0.010884,0.151748,0.100279,-0.098478,-0.126638,-0.125693,0.08177,-0.118281,-0.098909,-0.091178,-0.178973,-0.026895,0.108616,-0.136615,-0.056626,-0.102723,0.165047,0.142636,-0.056288,0.07884,-0.094416,0.027604,0.036272,0.110138,0.017096,-0.147053,0.080138,0.045409,-0.174323,-0.1206,0.079564,0.109378,0.051279],[0.122476,0.031001,-0.015517,0.055308,0.064043,0.066529,-0.115529,-0.002554,0.15069,-0.062996,-0.007056,-0.154748,0.154156,-0.135342,0.166302,-0.159701,-0.06079,0.005899,-0.094977,-0.020266,-0.124762,-0.006787,0.049563,-0.077795,-0.118129,0.06198,-0.00426,0.102167,-0.121619,-0.125177,0.089723,-0.146794,0.078036],[-0.067614,-0.024736,-0.072207,-0.045038,-0.007381,-0.020505,0.107034,0.029111,-0.096087,-0.173016,0.138188,-0.162156,0.052412,0.065875,-0.12486,-0.14807,0.151171,0.07241,0.150169,0.085967,0.034455,-0.101206,0.08427,-0.052647,-0.126936,-0.032048,0.09272,-0.117863,0.14025,-0.154721,-0.006753,-0.170286,-0.149277],[-0.091524,0.040457,0.005878,0.016749,0.076747,-0.029323,-0.075824,0.150154,-0.164931,0.120057,-0.173844,-0.032522,0.12731,0.035787,0.085768,-0.084465,0.145882,-0.095841,0.038305,-0.129369,0.102729,0.01717,-0.123941,0.05193,0.141187,-0.057369,-0.010291,-0.008885,0.032901,0.020111,0.159821,-0.094988,-0.115088],[0.03892,-0.158948,0.137731,0.004313,0.188445,-0.040087,-0.095364,0.008309,0.185709,0.009876,-0.222078,0.005416,0.102045,-0.155075,-0.058186,-0.024001,-0.087613,0.032801,-0.382561,0.139005,0.062454,-0.132012,-0.071341,0.041658,0.060143,-0.589039,0.118434,0.056838,-0.006602,0.138453,-0.089404,0.121495,0.184738],[-0.35208,0.011117,0.145562,0.328145,-0.074514,0.049507,0.241689,0.533091,-0.01561,-0.069258,0.416052,0.079479,0.163255,0.095195,0.098268,0.20801,0.055819,-0.041352,0.097651,0.021504,0.017539,-0.062149,-0.098819,0.200676,-0.00638,-0.110837,-0.457741,-0.044073,0.0288,0.107791,0.095534,0.166645,0.125227],[-0.018997,0.045878,-0.024102,-0.112415,0.123981,0.108907,0.08624,0.134456,0.168939,-0.003008,-0.128267,-0.130684,-0.012028,0.080176,-0.008748,-0.099465,-0.170927,0.173526,0.068362,0.061983,0.066149,-0.019674,0.1194,-0.051473,-0.167367,0.032195,0.089717,0.027869,-0.034949,-0.048079,0.173141,-0.030925,-0.1649],[-0.068336,0.016102,0.097792,-0.244732,-0.18453,0.008498,0.136381,-0.075701,-0.340069,0.339354,-0.054837,0.066805,0.032534,0.102719,0.087382,0.004013,0.146676,0.041214,-0.413598,0.068684,-0.082759,0.11483,0.125707,0.018374,-0.024832,-0.093731,0.216586,0.13951,-0.018482,0.132948,0.094128,-0.092635,0.120844],[-0.104036,-0.153435,-0.093489,0.059383,-0.040209,-0.094594,0.026538,-0.173767,0.033714,0.051994,0.077155,0.087182,-0.053837,-0.125729,0.052688,-0.103932,-0.029857,-0.140151,-0.005515,0.124912,-0.046839,0.016475,-0.007327,0.10757,-0.061248,0.0386,-0.108243,-0.04659,0.045893,0.152228,0.162836,-0.086659,-0.120862],[-0.129881,0.531132,0.136874,-0.316007,0.048914,0.528543,-0.101205,-0.355256,0.030737,1.152123,-0.216261,0.01718,0.161467,-0.047609,-0.128065,0.034627,-0.024408,-0.093693,-0.857523,-0.00237,0.058497,0.465925,-0.005232,0.005361,0.14896,0.018977,-0.469695,-0.206039,0.004625,0.091211,0.160765,-0.033791,0.096407],[-0.119777,0.044995,-0.217993,0.051038,-0.017867,0.107469,0.339383,-0.075106,-0.087435,-0.013245,0.017027,-0.151983,0.124006,0.161866,-0.024561,0.211769,0.012559,0.100718,-0.320138,-0.145859,0.061338,-0.066486,0.159614,-0.01194,0.225414,-1.360611,-0.302042,-0.008736,0.037437,0.117765,-0.085782,0.067178,0.150705],[-0.556068,0.204415,0.212964,-0.158215,0.004876,0.219003,0.048595,0.474087,-0.060998,-0.017669,0.457908,-0.021489,0.086101,-0.128313,-0.088238,0.344112,-0.045841,-0.086323,-0.569316,-0.16255,0.224795,0.15364,0.074106,-0.045183,0.371512,-0.110561,-0.787275,-0.374438,0.200427,0.372092,0.161488,-0.120304,0.28538],[0.012104,-0.108833,-0.072112,-0.080273,0.121537,0.001337,-0.144401,0.063698,0.03077,0.157679,-0.095733,0.040658,-0.166286,-0.123375,-0.123212,-0.123385,0.129292,-0.103011,-0.120968,0.04628,0.130455,-0.105747,-0.039027,0.02472,0.138676,-0.092835,-0.11642,0.092889,-0.164053,-0.046882,0.167438,-0.038772,-0.122571],[-0.662526,-0.012265,0.109884,0.616036,0.37665,0.093097,0.541273,0.289451,0.282665,0.679925,0.261359,-0.127324,0.224991,-0.082528,-0.126472,0.366693,0.003017,0.053198,-0.422202,0.16381,0.162305,-0.033285,-0.101817,-0.082336,0.352112,-0.187226,-0.982013,-0.378532,-0.124413,0.369047,-0.073835,-0.02086,0.410771],[-0.331063,0.048677,0.083773,0.380091,-0.375515,-0.011027,0.666272,-0.12719,-0.007217,-0.245162,0.469088,-0.074464,0.19469,-0.162132,0.058555,-0.064615,0.101196,0.069822,-0.344924,0.034846,0.066229,0.042086,0.183887,-0.069995,0.232933,-0.126687,-0.321822,-0.031644,0.098433,0.121255,-0.096304,-0.097964,0.210672],[0.111817,-0.060334,0.330222,-0.265837,-0.030739,0.133652,-0.312973,-0.301555,0.331914,-0.208317,0.167449,0.037755,0.167204,-0.022589,-0.092223,-0.165562,0.07015,-0.052083,-0.199915,-0.053679,0.02884,-0.07962,-0.188921,0.158158,-0.001991,-2.037157,0.227717,-0.008497,0.029682,0.023238,-0.130698,0.110028,0.077906],[-0.30824,0.410777,-0.372862,-0.152406,-0.002389,0.203436,0.411126,0.022827,-0.377958,-0.369797,0.36374,-0.151665,0.002918,0.075682,-0.016294,0.11637,-0.089789,-0.096592,0.282316,-0.078034,0.097503,0.218491,0.205759,0.030395,-0.123125,0.426441,0.076812,-0.016452,-0.023862,0.152663,-0.098078,-0.112715,0.013839],[-0.121012,-0.103263,0.022825,0.125769,0.00042,0.172858,-0.01407,0.131833,-0.171518,0.152453,-0.04782,0.055844,-0.129799,0.056069,0.023018,0.040082,0.173163,-0.105355,0.048012,0.123432,-0.0425,0.065979,-0.114087,0.007766,0.086432,-0.112003,0.109497,0.000595,0.053254,-0.170883,-0.05925,-0.155098,-0.132653],[0.128502,0.16141,-0.04042,-0.003873,0.111511,0.04933,0.072875,-0.108478,-0.060251,-0.103569,-0.085975,-0.052856,-0.023712,0.118574,-0.150793,0.11656,0.048953,0.026975,0.040539,-0.016185,-0.115311,0.001764,-0.162838,0.096337,-0.175158,-0.164088,-0.160195,0.093275,-0.177992,-0.178978,-0.033607,0.00635,-0.061585],[-0.127541,-0.158362,0.087159,0.155485,0.13612,0.02305,-0.065421,-0.007316,0.046602,0.102165,0.128889,0.163378,-0.10577,0.169896,-0.065874,-0.12512,-0.14806,0.153368,-0.068065,-0.160242,-0.114365,-0.004161,-0.095893,0.066621,0.067103,-0.050589,-0.009452,-0.076417,-0.002943,-0.156445,-0.043205,-0.048957,-0.09043],[0.104067,0.10263,-0.089482,0.066497,0.600862,0.039853,-0.505311,-0.150076,0.405828,-0.127758,-0.375415,-0.063924,0.049792,-0.059924,-0.096088,0.029283,-0.02764,0.145508,-0.611992,0.010792,0.018583,0.281362,0.008942,-0.32934,-0.105412,1.8595,0.533566,0.0479,0.081605,-0.053746,-0.166577,0.072629,0.020711],[-1.76487,0.433277,0.414796,0.286955,0.306042,0.140759,0.271412,0.257702,0.20014,0.144197,0.274165,0.15209,0.212254,-0.131949,0.156158,0.287323,0.014229,0.0659,-0.319064,0.075913,0.171476,0.050558,-0.031044,-0.06864,0.242036,0.490167,-0.26135,-0.380334,0.292717,0.138301,0.162387,0.084268,0.422303],[-0.091275,0.144431,0.442916,-0.230487,0.035483,0.277177,-0.069314,0.070207,0.559832,-0.815634,0.556864,-0.130403,0.133681,0.173512,-0.121804,0.232562,0.086341,0.000451,-0.034067,-0.102185,0.01681,-0.109483,-0.099016,-0.123056,0.098133,0.536132,-0.370137,-0.060273,0.202653,0.029419,-0.154341,-0.004259,-0.0715],[0.074249,-0.038913,0.047575,-0.137853,0.085404,0.101289,-0.068102,0.012995,-0.060641,-0.164835,-0.144042,-0.161002,0.000301,0.064448,-0.104145,-0.027321,0.069908,-0.115893,0.006936,0.069917,0.137868,0.109053,0.012205,0.083101,0.064345,-0.16834,0.046077,-0.084406,-0.113199,-0.163495,0.145571,0.053145,-0.000267],[0.250505,-0.601023,0.522284,0.513926,-0.199714,-0.655627,-0.151204,-0.074457,0.362376,1.254904,-1.662336,0.118083,-0.241447,-0.146407,0.020553,-0.07576,-0.035332,0.160085,-1.184042,-0.151653,0.13506,-0.28123,0.299179,0.057272,-0.219845,0.525005,0.373829,0.330388,-0.095536,0.056543,-0.114505,0.114176,0.027141],[0.041493,0.012902,0.22151,-0.150993,0.123773,-0.034451,0.049469,-0.012973,-0.226261,-0.02797,0.119839,0.060631,0.155762,0.082317,0.146165,0.186362,0.128654,-0.106939,-0.306803,-0.135598,0.001517,0.148963,-0.000211,0.084406,0.051799,-0.090479,-0.11992,-0.038612,0.206832,0.083113,0.027466,0.131865,0.134875],[-0.024044,-0.037022,-0.09648,-0.073713,-0.160408,0.068276,0.10272,-0.016474,0.119192,-0.061356,-0.059142,-0.068744,0.172439,0.039988,0.131215,0.159425,0.107349,0.095299,0.168171,-0.067688,-0.115969,-0.026216,-0.022917,0.039413,-0.080233,0.03638,-0.144268,-0.152805,0.16493,-0.108549,-0.072064,-0.146332,-0.107137],[-0.450684,-0.358575,0.668048,-0.309581,-0.503291,0.050494,-0.037147,0.674687,-0.661072,0.204219,0.636033,0.103802,0.150288,0.047505,0.097724,0.202212,0.063447,0.128548,0.472972,-0.014028,0.069255,-0.204989,0.055651,-0.116536,0.051916,1.169899,0.073508,0.220186,-0.404691,-0.031222,0.16797,0.014446,-0.001519],[0.07258,-0.124678,-0.091236,-0.043653,0.01079,-0.139016,-0.187932,-0.049327,-0.060042,-0.101247,0.022823,0.020609,-0.152706,0.003488,0.054289,-0.175528,0.132361,-0.111496,0.006351,0.158833,-0.073517,0.084616,0.045265,-0.057343,0.084635,-0.041668,0.062528,-0.068551,0.107489,-0.182762,-0.016652,-0.1079,-0.123145],[-0.108103,-0.075722,0.462523,-0.088377,-0.015875,0.000781,0.141645,0.405855,-0.421427,0.178266,0.453568,0.141615,0.201415,-0.074794,-0.062704,0.165214,0.023298,0.115719,-0.187421,0.015517,0.08972,-0.181079,0.203192,-0.010976,0.194816,0.10976,-0.262185,-0.163764,-0.392036,0.044233,-0.104138,-0.013901,0.239198],[-0.074324,-0.155293,0.179012,-0.040087,0.151715,-0.080109,-0.058404,-0.014635,-0.123992,-0.125547,0.102085,-0.116226,-0.027405,-0.091245,-0.164341,-0.028193,0.038108,0.029624,0.027489,0.080763,0.014288,-0.080973,0.147698,-0.066147,0.000715,0.183584,0.070979,0.025184,-0.0044,-0.147501,-0.121024,-0.151116,-0.090189],[0.579146,-0.767448,0.643261,-0.050377,-0.009036,-0.311119,-0.418977,-0.47407,0.62456,0.735129,-0.845841,0.059911,0.041225,0.137273,0.106833,-0.064543,0.017702,0.132692,-0.096928,0.056712,0.194855,0.384921,-0.411139,0.371087,-0.212841,-0.249345,0.157649,-0.081275,0.543958,-0.258853,0.171292,-0.020574,-0.035373],[-0.433683,0.162794,0.069261,0.240594,0.367336,0.063989,-0.443508,-0.161633,0.763754,0.287573,-0.15618,-0.155666,0.034024,-0.024415,0.026215,-0.002635,-0.057339,-0.04711,-0.179507,0.012943,0.167251,0.060158,0.015109,0.064745,0.106514,0.589518,-0.610433,-0.241573,0.4209,0.06241,0.138158,-0.053453,0.217654]],"bias":[0.123497,-0.149759,0.044183,-0.058655,0.124107,-0.108909,0.137027,-0.011872,-0.070801,0.084552,-0.130295,0.153098,-0.054499,0.087612,-0.239266,-0.040549,0.20897,-0.017258,0.148114,-0.043429,-0.080321,0.118754,-0.159075,0.047037,0.159326,0.006122,-0.072277,-0.031377,-0.145903,0.220988,-0.078604,-0.103248,0.137217,-0.126109,0.132499,-0.014255,0.070718,-0.213454,-0.105365,0.00059,0.072805,-0.032431,-0.058535,-0.135216,-0.02828,-0.05474,0.14267,0.145321,-0.063846,0.030036,0.085499,0.089009,-0.104546,0.046589,0.058425,0.277957,-0.065263,-0.07583,0.052082,0.175914,0.058994,0.088717,-0.094153,0.153627,0.034219,0.108759,-0.044658,0.107485,-0.297978,0.109753,-0.068625,-0.045313,-0.052315,-0.108348,-0.045062,-0.03034,-0.03735,0.070621,-0.215443,0.063136,0.164247,-0.173009,-0.123037,-0.007483,0.145351,0.213283,0.138023,0.014501,0.082779,0.041139,0.329652,0.074523,0.139338,0.173841,-0.32427,-0.093098,-0.077511,-0.097839,-0.154054,0.032747,0.060212,0.053063,-0.060661,-0.021122,0.25907,0.06305,0.080639,-0.026192,0.371334,0.237279,0.087782,0.022864,-0.08461,-0.036146,-0.099698,-0.042526,0.131165,0.248941,-0.130518,-0.144222,0.126415,-0.166494,0.186348,0.0798,0.153267,0.039745,-0.101289,0.263385]},{"weights":[[0.052197,0.025954,-0.044692,0.013883,-0.002364,-0.001678,-0.073048,-0.088213,0.05707,0.007932,0.084131,-0.009693,0.003543,0.069204,-0.040984,-0.021847,-0.066173,-0.002211,0.072201,0.062167,0.086821,0.038278,-0.01471,0.049696,-0.021516,0.025765,-0.080926,0.085017,-0.062909,0.042455,0.071229,0.072035,-0.022272,0.037559,-0.005218,-0.065678,-0.097325,-0.024072,0.070927,-0.006696,0.068157,-0.032223,-0.046187,0.003441,-0.052348,0.022691,-0.090196,-0.005561,-0.059716,-0.045306,-0.07338,0.028054,-0.029857,-0.057249,0.067597,-0.05129,-0.080204,0.030352,-0.036985,-0.090323,-0.06266,-0.013856,0.038719,0.064856,0.015022,-0.093554,0.004595,-0.083906,0.054034,-0.087335,-0.003895,-0.083601,-0.091148,-0.037646,-0.054862,0.013512,0.041491,0.031565,0.006987,-0.093647,0.02781,-0.070555,-0.039452,-0.074032,-0.090119,-0.061103,-0.007935,0.055233,-0.09901,-0.062371,0.042806,0.062115,-0.014186,-0.005404,-0.040554,-0.051425,-0.022362,-0.061983,-0.016674,-0.081396,0.003041,0.080775,0.040279,-0.027164,-0.030013,0.054073,-0.047681,-0.008441,-0.023887,-0.043591,0.040998,0.05509,0.01975,0.084459,0.005585,0.050035,-0.036872,0.060964,-0.010217,-0.002836,-0.091032,-0.041681,-0.023971,-0.01665,-0.017698,0.074446,0.000116,0.03696],[-0.067436,0.049997,0.156015,0.0836,-0.371422,0.030268,-0.329014,0.340917,-1.064646,-0.225339,0.017017,-0.041211,-0.014268,-1.590785,0.23111,-0.035125,0.346574,0.05504,-0.067583,1.427037,-0.082883,-0.005332,0.083053,-0.050593,-0.323894,0.365135,-0.011134,-0.050608,-0.065872,-0.001347,0.058489,-0.374218,-0.129092,-0.044158,1.433826,-0.052324,-0.053172,-0.63657,-0.065932,-0.640407,-0.022463,-0.13524,-0.907025,0.002329,-0.139483,0.071364,0.349486,-0.0241,0.025555,0.035158,-0.424322,0.167514,0.739598,0.214244,0.386637,-0.203368,0.07413,0.052316,0.016489,0.242588,0.336295,-0.011522,-0.07476,0.153232,-0.154323,-0.019533,0.26585,0.35312,-0.339245,0.257652,0.109423,0.249217,-0.442505,-0.050962,-0.046786,-1.652254,-0.000347,-0.04009,0.395106,-0.125404,0.248501,-0.003627,-0.002118,0.375785,0.438139,-0.31671,0.053754,0.123963,0.097308,-0.019634,-0.038527,-0.074964,0.055141,0.014682,-0.5158,-0.062146,0.008088,-0.061586,0.001448,-0.031447,-0.389242,-0.048473,0.207939,-0.042744,-0.250374,-0.08106,1.223504,0.034739,0.287631,-0.138405,-0.059654,0.174026,-0.016193,-0.078229,-0.055826,-1.003283,-1.010135,-0.328681,0.070172,0.196506,-0.122375,-0.053368,0.154198,0.104136,-0.06532,-0.055901,-0.081754,0.0074],[-0.078674,0.073582,-0.064335,0.083296,-0.055512,-0.076323,-0.0263,0.015945,0.0074,-0.085221,-0.080152,0.010761,-0.086529,0.009727,-0.00184,0.049545,-0.062942,-0.061452,0.029246,0.074465,-0.041158,-0.096124,0.035938,0.005945,-0.04964,-0.053744,-0.015486,-0.084061,-0.001564,0.033148,0.087892,-0.016756,-0.061763,-0.05863,-0.08086,-0.015092,0.038161,-0.009641,0.045258,0.046838,-0.123692,0.068229,-0.066542,0.07103,-0.038359,-0.028621,-0.067818,-0.075334,-0.076082,-0.052461,-0.028181,-0.011474,-0.023902,-0.049103,0.028827,-0.020837,0.007916,-0.037636,0.017957,-0.032691,0.045761,0.039222,0.061468,-0.104903,0.010271,-0.058967,0.001022,0.051418,0.01346,-0.035077,0.013491,-0.00722,0.043978,0.024499,0.029032,-0.052995,-0.001911,0.08003,0.01941,-0.069438,-0.03776,0.071705,-0.04691,-0.013083,-0.009765,-0.105477,-0.102536,-0.024995,-0.021218,-0.011671,-0.043673,-0.085364,-0.02022,-0.129269,-0.043396,0.031927,0.052354,0.021269,-0.038145,-0.010035,-0.007601,-0.060468,-0.127377,-0.080285,-0.05737,-0.133409,-0.11571,-0.033548,0.021981,-0.065293,-0.093376,-0.04939,-0.006713,-0.065155,-0.003363,0.026538,-0.070578,0.036238,-0.019627,0.082458,-0.045611,-0.062755,0.027337,-0.010624,-0.003592,-0.061903,0.012679,0.026016],[0.031191,0.037852,-0.084488,-0.085328,-0.095591,-0.075542,-0.081976,-0.033582,-0.035501,0.050428,0.00482,0.034856,0.030409,0.019102,0.007143,-0.009937,0.057638,-0.070681,0.082935,0.038597,-0.035036,0.070816,-0.069837,0.055545,-0.00913,0.033488,0.003238,0.026783,-0.040322,-0.062132,-0.069987,0.058521,-0.007519,0.037875,0.034775,0.058896,-0.082388,-0.061556,0.030353,-0.000139,0.02136,-0.090484,-0.091992,-0.008493,0.04477,0.063662,0.040599,0.023131,-0.055336,-0.083413,0.005864,-0.001999,-0.082635,-0.012292,0.040978,0.040958,0.080828,-0.054609,0.048813,-0.007547,-0.023084,0.020142,-0.086167,-0.027217,-0.034884,-0.007775,0.057275,-0.043333,0.053308,-0.102625,-0.050677,-0.045259,0.038116,-0.004245,-0.017706,-0.102584,-0.020442,0.033757,-0.019248,-0.086396,-0.097249,-0.081519,0.038784,0.053527,0.00902,-0.041258,0.058768,-0.014848,-0.075839,-0.042943,0.04462,-0.097482,-0.002062,-0.076376,0.011235,-0.047088,0.058307,-0.062393,0.02019,-0.078549,0.05423,-0.001808,0.029148,0.033898,-0.088127,0.038882,-0.079719,0.046142,0.028029,0.009414,-0.057145,-0.102875,-0.081662,0.016143,0.056562,0.007714,0.054856,-0.083214,-0.06491,-0.095712,0.068511,0.034608,0.048707,-0.006588,-0.024518,0.041656,-0.082626,-0.074091],[-0.065086,0.080427,-0.09092,0.010231,-0.085891,-0.100288,0.010723,0.022332,0.051384,-0.054976,-0.046241,-0.036833,0.037225,-0.027442,0.000769,-0.048471,-0.022577,-0.040219,-0.063147,-0.040451,-0.004649,0.058215,0.049368,-0.015815,0.020162,-0.013031,0.015489,0.067606,-0.018292,0.061776,0.066145,0.036273,-0.071067,0.049559,0.024342,-0.099596,-0.094083,-0.060762,0.068313,-0.056281,-0.110701,0.028211,-0.009422,0.014945,-0.043437,0.066291,-0.050909,-0.004997,-0.054809,0.006504,-0.021003,-0.014918,0.021287,0.055922,0.011303,0.023635,0.016476,-0.00639,-0.093992,-0.01704,-0.002813,-0.039138,-0.087979,-0.044221,-0.015087,0.025294,-0.057764,-0.102444,0.032761,-0.070029,0.049093,0.0155,0.042175,-0.074198,0.009215,0.031841,0.062827,0.05607,0.026876,-0.055077,-0.099585,-0.022457,-0.062003,0.053658,-0.026059,0.025751,-0.00247,0.027365,-0.008758,0.004247,-0.042117,-0.019489,-0.040695,-0.055963,-0.004534,-0.094438,0.084737,0.080484,-0.033495,-0.001816,0.008765,0.02468,0.009552,-0.024822,-0.048391,-0.087832,-0.022232,0.047655,0.023731,0.034356,-0.099931,-0.009166,-0.082135,0.048341,0.08476,-0.093857,-0.029154,0.008182,-0.04536,-0.067012,-0.013106,-0.085111,-0.104005,-0.102759,-0.026194,0.029816,-0.033039,0.011238],[0.054147,-0.012599,-0.064833,-0.040625,-0.017448,-0.017119,-0.024643,-0.06072,0.007262,0.016767,-0.064259,0.014153,0.056609,-0.026612,-0.070636,-0.031246,-0.049174,0.037098,-0.045676,0.05344,-0.052419,0.015294,-0.066726,0.054388,0.039567,-0.023214,0.024257,0.043837,0.00738,-0.025204,-0.022924,-0.078506,0.022023,0.081801,-0.08149,0.055218,-0.071183,0.075171,-0.033037,-0.01722,0.078913,-0.020465,0.028712,-0.077653,0.070528,0.036985,0.052985,-0.062343,0.045628,0.056939,-0.063799,-0.039584,-0.033459,0.076873,0.012443,-0.032578,-0.020723,-0.000838,-0.065803,0.014958,-0.057138,-0.023351,0.083582,-0.074385,0.022493,-0.034688,-0.047645,0.024199,0.042032,0.016603,-0.059488,-0.075149,0.00194,-0.012111,-0.039602,-0.077342,0.031789,0.006011,0.033197,-0.028917,-0.07815,0.008786,0.022007,-0.036352,-0.046536,0.079766,-0.05101,-0.010463,-0.053452,-0.069583,-0.04374,0.041089,-0.086705,0.06347,0.073436,0.063436,-0.087293,0.056298,-0.024685,0.034196,-0.066541,-0.015966,-0.042841,-0.030043,0.021061,-0.068303,0.042144,0.043371,-0.059688,-0.070677,-0.00195,0.013455,-0.037375,0.006744,-0.002017,-0.05356,-0.048167,0.030903,-0.04047,0.054547,-0.042354,0.062648,0.026603,0.008394,0.07818,-0.04505,0.053339,-0.085299],[-0.070938,0.00315,-0.040339,-0.038103,0.030442,0.061779,0.060635,-0.039296,-0.003785,-0.077991,0.042091,-0.013886,-0.052034,-0.030636,0.02803,-0.049863,-0.101264,-0.012676,0.023532,0.059632,-0.015296,-0.011212,0.003961,0.038902,-0.05544,-0.071255,0.069873,-0.088407,0.037797,0.070935,-0.013162,-0.041843,-0.019593,0.050686,-0.044378,-0.049173,-0.03874,0.011293,-0.049197,-0.010886,-0.079963,0.047131,-0.087373,-0.03203,0.033111,-0.008893,0.039193,0.021793,0.00182,-0.080737,0.037245,0.073606,-0.051533,-0.05864,0.019386,-0.066416,-0.050831,-0.040755,0.03405,-0.097965,0.047951,0.081643,0.084071,-0.023715,0.032728,0.082434,-0.089923,0.016308,-0.037261,0.063936,-0.095824,-0.004337,0.045262,0.030049,0.063496,-0.091072,-0.059999,-0.015158,-0.085153,-0.092376,0.051562,0.053759,0.012973,-0.015708,-0.031429,-0.061864,-0.02744,-0.09313,0.058401,-0.012949,-0.097479,0.007679,0.042292,-0.090937,0.044656,0.066603,0.060914,0.002432,0.016937,-0.002299,0.039661,0.041742,-0.017603,-0.050961,0.062104,-0.021832,0.008226,0.041224,-0.040025,-0.009804,0.072699,0.069448,-0.058095,-0.027625,-0.00106,-0.068346,0.005152,0.063732,-0.040491,-0.011561,-0.053764,0.073811,-0.06002,0.016064,-0.026034,-0.056995,0.062408,-0.017366],[-0.019727,-0.028365,-0.000968,-0.054769,-0.06326,0.073099,0.013442,-0.065997,-0.076989,-0.087743,0.029097,-0.010184,0.005598,0.036538,-0.057716,-5.5e-05,0.004399,-0.047086,0.018364,0.070321,0.065014,-0.082374,-0.047538,0.008419,-0.08193,-0.089968,0.087486,-0.051354,0.01092,-0.048841,-0.077628,-0.059023,0.063183,0.050099,-0.024301,-0.074402,-0.043823,0.06437,0.003441,0.061907,-0.044201,0.084636,-0.031255,0.027438,0.052846,0.011614,-0.013001,-0.080194,0.056266,0.05325,0.066768,-0.05166,-0.064658,-0.033617,0.04836,0.026097,-0.012471,0.029601,0.000999,-0.093903,-0.066899,0.006158,0.018783,-0.002513,0.057587,-0.097475,-0.010728,-0.026005,-0.056918,0.050822,0.033849,-0.100659,0.033049,0.058472,-0.083667,-0.008035,-0.025587,0.060782,-0.004914,-0.052871,-0.076651,-0.067232,-0.014765,0.060405,-0.101593,0.002204,0.00983,-0.029028,0.00084,0.044333,-0.091152,0.01016,-0.072366,-0.088793,-0.088831,-0.072355,0.001942,0.002947,-0.024413,0.008026,0.018454,-0.015591,-0.044484,0.071131,0.017315,0.017812,-0.026263,-0.033409,-0.040648,0.069749,0.032327,-0.010485,-0.088082,-0.002861,-0.012903,-0.01215,-0.004413,-0.054765,-0.027368,-0.042686,-0.085191,-0.060944,-0.051969,0.052362,-0.086171,-0.020984,0.041685,-0.072353],[0.037915,0.062619,0.028238,0.082699,-0.062939,0.000795,0.029058,-0.042681,0.073296,0.058533,0.056403,-0.082714,-0.011033,-0.015093,0.066577,0.05905,-0.043419,0.004855,-0.005013,0.04324,-0.035618,0.034506,0.005867,-0.005483,0.080252,0.052413,0.022383,-0.020639,-0.054149,-0.085966,-0.070525,0.054231,0.058664,-0.046537,-0.060525,0.015372,-0.040508,-0.051859,0.086334,0.081626,-0.072901,-0.061821,-0.03427,0.035673,0.04942,0.07127,0.02836,-0.021646,0.011401,0.030079,-0.078598,0.065513,0.086178,-0.067363,0.080781,-0.044052,0.030383,-0.047307,-0.011166,0.004076,0.043221,4.5e-05,-0.043305,-0.020482,-0.01811,0.001302,-0.044834,-0.075423,0.026036,-0.052277,0.03046,0.064236,0.014749,0.062781,-0.033739,-0.078539,0.070346,0.042472,-0.060929,-0.070728,0.06867,0.080159,0.085595,-0.028167,-0.008602,-0.045814,-0.019451,-0.045689,0.069192,-0.078164,-0.081532,-0.053301,-0.08309,0.026818,-0.079252,0.036107,-0.035135,-0.065268,-0.060363,0.046651,0.036169,0.000695,-0.067932,0.021574,-0.058951,0.031802,0.075553,-0.043546,0.082102,0.04662,0.024366,0.0683,0.007019,-0.06629,0.03833,0.076126,-0.055337,0.030201,0.042268,0.075781,-0.002192,-0.070274,-0.029207,0.046897,-0.065903,-0.081474,-0.086858,-0.043716],[0.131424,-0.060044,0.187889,-0.002155,0.015482,0.031176,0.205684,0.318518,0.36158,-0.004523,0.021364,0.12047,0.004654,0.426185,-0.907685,-0.002885,0.039713,-0.074513,-0.03886,-0.15527,-0.00878,0.121721,-0.047066,0.061495,0.226657,0.111956,-0.022319,0.113733,-0.003826,0.141933,-0.001217,-1.071424,0.161714,-0.006895,0.137009,0.124378,0.054455,-0.074778,0.018654,-2.61645,0.186767,0.286153,0.107814,-0.102305,0.13112,0.07803,-0.040825,0.024396,0.01983,-0.056891,0.001934,-0.164696,0.027624,0.032902,0.205907,0.088799,-0.036126,-0.023112,0.012664,0.145912,0.199434,0.004591,0.049015,0.004125,-0.011857,0.077464,0.199925,0.08085,-1.250217,0.045247,0.11831,0.191175,0.412125,-0.019879,0.10448,-0.358033,0.065876,0.095478,-0.442585,0.190382,-0.154846,-0.035632,0.084886,-0.519694,-0.198008,0.070238,0.002275,0.051671,0.099637,-0.057413,-0.023642,0.032663,-0.064025,0.088407,-2.248976,-0.021423,0.086909,0.086522,-0.011019,0.149278,-0.026507,-0.049076,0.049716,-0.036868,-0.317519,0.076475,0.066527,-0.08553,-0.114254,0.02516,0.060135,0.014746,0.001326,0.056842,0.085542,0.108025,-1.218574,0.116593,0.026844,-0.114077,0.023001,-0.041021,0.074222,-0.062339,0.06322,0.027246,0.196438,0.097795],[-0.015029,-0.06879,-0.022273,0.047683,0.007008,0.079355,-0.011349,-0.04414,-0.114665,-0.007491,-0.024346,-0.072337,-0.05594,-0.001912,-0.036646,-0.057378,-0.047752,0.044669,0.028258,0.034185,-0.059648,-0.066824,-0.045555,0.03154,0.029653,0.047247,-0.063295,-0.059348,0.001609,-0.015426,0.026121,-0.071126,-0.086221,-0.006655,-0.095876,-0.099055,0.033744,0.00044,-0.0284,0.054585,0.066017,0.058957,-0.022357,-0.008713,-0.037318,-0.018514,-0.053916,-0.06379,-0.044184,0.022617,0.003219,-0.030082,-0.084948,0.015283,0.005456,-0.036598,0.071168,0.021087,0.051998,-0.048189,-0.083989,-0.066237,-0.017717,0.004205,-0.013937,-0.00395,0.005389,-0.047613,-0.05019,-0.082467,-0.047527,-0.101806,0.065684,-0.02663,0.063906,-0.023773,-0.05195,-0.020611,-0.11587,-0.109047,-0.006835,-0.008392,-0.021385,-0.106405,0.045487,-0.061539,0.06925,-0.017627,-0.075069,0.056883,-0.010815,0.049022,0.043751,-0.101342,-0.05971,-0.083556,-0.078755,-0.04179,0.039713,-0.05095,0.074196,-0.067175,-0.064095,-0.010777,-0.085533,-0.038283,0.024803,-0.021337,0.058555,-0.10047,-0.096475,-0.047416,0.059292,0.044334,-0.037731,0.009883,0.107947,-0.082601,-0.068032,0.02689,-0.01626,-0.02881,0.075539,-0.001421,0.054773,-0.019002,-0.011441,0.008733],[0.0225,0.058253,0.119957,0.017356,0.146734,-0.038103,0.273317,0.328707,-0.539258,0.298803,-0.048766,0.163994,0.011974,0.495668,-0.455067,-0.023534,0.455699,-0.086878,-0.07662,-0.005936,0.036895,-0.328108,-0.005486,0.082547,-0.085442,-0.271341,-0.083224,0.026341,-0.064397,0.049053,0.019213,0.11294,-0.003503,0.053399,0.394751,0.020994,0.141706,1.326465,0.042296,-0.250719,-0.217406,0.75186,0.584547,0.07288,0.11251,-0.063123,0.09643,-0.103416,0.036723,0.047482,-0.02283,0.09999,-0.164201,-0.109797,0.241595,0.034048,0.020824,-0.056999,-0.036578,0.457989,0.234417,-0.006659,-0.009585,0.129691,-0.304346,0.046371,-0.066574,0.250161,-0.709871,-0.065749,-0.196542,-0.115217,-0.236133,0.077274,0.029012,1.17109,-0.085539,0.051467,0.135419,0.061986,0.144387,0.080631,-0.002981,-0.292519,0.111355,0.152907,0.342208,0.140871,0.190929,-0.034871,-0.169703,-0.015136,-0.230366,0.108594,-0.89713,-0.005907,0.057843,-0.088073,-0.04391,0.18273,0.091193,0.052082,0.129523,0.107351,0.826034,0.120338,0.348922,0.068356,-0.224387,-0.01484,-0.035798,-0.187419,0.008593,-0.024983,0.006079,-0.067767,-0.615738,0.100332,0.082173,0.712406,0.036777,0.014192,0.340393,0.022196,0.20046,-0.02838,-0.101311,-0.07484],[0.227015,0.062552,0.314381,0.047953,0.010628,-0.054657,0.076331,0.16949,-0.231848,0.142984,0.04384,0.120085,0.017859,-0.042495,-0.823372,0.013298,0.054151,-0.083898,-0.045304,0.082359,-0.002749,-0.249342,-0.039906,0.081104,0.198584,0.17838,0.064063,-0.047992,0.034598,0.030346,0.043652,-0.493456,0.088612,0.073654,0.186344,0.051191,0.067565,-0.36204,-0.009109,3.633176,-0.04755,0.292882,0.183904,0.011464,-0.163815,0.024648,0.152158,0.04346,-0.087686,0.034717,0.002064,0.031579,-0.068789,0.08532,-0.051176,0.00723,0.057742,0.033869,0.083656,0.082908,0.230162,0.101161,-0.02449,0.102548,0.099777,-0.018521,0.197301,0.15357,-1.355612,0.149443,0.21462,0.127049,-0.043755,0.085422,-0.054009,-0.007997,0.013832,0.089825,-0.639463,0.290078,0.024487,-0.013322,-0.082071,-0.595576,0.053742,0.003613,0.106076,0.077463,-0.021069,0.083432,-0.211829,-0.047336,0.081143,0.131605,-1.681662,0.086584,-0.064253,0.006938,0.016327,0.005576,0.126032,-0.023729,0.074435,-0.064348,-0.341619,0.061379,-0.036133,-0.077597,0.024159,0.049998,0.192543,0.138056,-0.035568,0.063997,-0.036128,-0.249631,-1.458566,0.22792,0.027592,0.13539,0.174935,0.057966,0.040694,-0.01928,-0.071596,-0.091466,0.056262,-0.231524],[-0.00702,-0.073724,0.154669,0.062352,0.186834,0.097626,-0.096883,-0.686782,0.729619,0.232481,-0.065598,0.014406,-0.048777,-1.981875,0.381344,-0.066042,0.093085,0.068103,-0.005199,-0.663609,-0.062704,-0.143243,0.08784,-0.000431,-0.322648,0.211277,0.073657,-0.026433,-0.024839,0.142126,0.013901,-1.041714,0.180059,0.054513,0.331234,0.088153,0.025116,-0.086731,0.07237,0.346804,-0.279133,0.12458,0.308986,0.055877,0.374625,0.07121,-0.262782,0.118459,0.069294,-0.062779,0.051982,-0.14467,0.438448,-0.074505,0.10855,0.179933,-0.073785,0.048241,0.100771,0.42835,0.257839,0.084459,-0.041042,0.238006,-0.172388,0.230919,0.023139,0.367017,-0.521435,-0.184567,0.011311,0.068338,-0.293347,-0.027488,0.030119,0.501487,0.035323,0.09923,-0.162798,-0.362809,0.024641,-0.005911,0.033326,-0.422141,0.225097,0.234086,0.234858,0.216009,0.112007,-0.036026,-0.646401,0.34879,-0.112043,0.150767,-0.889164,0.054022,0.004563,0.007125,0.0974,0.130908,0.160737,-0.025286,0.036255,0.020424,0.183776,0.093217,-0.239556,-0.051328,-0.299922,0.145696,-0.194964,-0.242404,0.043145,0.035617,0.047824,0.002094,-0.785448,-0.002739,0.053546,0.038428,-0.043398,0.084685,0.358262,0.011028,0.196895,-0.012835,0.280428,-0.05403],[0.021131,0.058314,-0.064418,0.036833,0.045749,0.029292,-0.050306,0.009193,-0.012926,-0.034486,0.005421,-0.030466,-0.05685,-0.067689,0.061336,-0.087554,-0.004155,0.013249,-0.06658,-0.024964,0.087271,-0.032226,0.049441,0.009487,0.055135,-0.008291,-0.031156,-0.043375,-0.006501,0.030253,-0.08475,-0.065111,0.024291,-0.002449,-0.023519,-0.032066,0.005944,-0.007556,0.038319,0.063323,0.049602,-0.060139,-0.014925,-0.075735,0.007244,-0.010551,0.007716,-0.085589,0.030432,-0.078862,0.078499,-0.075965,0.014522,0.059523,-0.00511,-0.055491,0.077146,0.048346,0.047511,-0.014586,-0.052151,-0.006884,-0.015596,-0.027082,-0.032024,-0.030388,0.037932,-0.077321,0.072892,0.016767,0.014011,0.016531,-0.004569,0.081644,0.067957,-0.043286,0.071071,-0.071024,0.049808,0.072338,0.050728,0.035828,0.0168,-0.047001,0.071901,-0.078435,-0.059955,-0.077127,-0.027087,0.019984,0.042549,-0.00447,0.031232,-0.074709,-0.068479,0.010796,-0.015029,0.021387,-0.029341,0.047912,0.005916,-0.079136,-0.095221,0.017725,0.009984,0.03711,0.043183,0.032685,-0.087693,-0.095883,-0.043593,-0.08604,0.061812,0.076062,-0.056994,0.064814,0.039665,-0.03236,-0.079759,-0.051713,0.053034,-0.075203,-0.025378,-0.095696,-0.016148,0.025354,-0.011829,-0.034064],[-0.004364,-0.088114,-0.120489,-0.058104,0.034134,0.046761,0.002783,-0.042649,0.062962,-0.068366,0.04966,-0.006053,-0.007806,-0.034439,0.014441,-0.062395,-0.002401,-0.032514,0.001901,0.055855,-0.067379,-0.062825,-0.048419,0.053553,-0.018206,-0.020502,-0.006005,-0.035962,0.0175,-0.128646,0.051337,0.076272,0.032677,-0.055267,-0.05766,-0.0356,-0.074019,-0.07421,-0.051958,0.003579,0.003892,-0.053129,-0.075219,-0.003675,-0.069112,-0.025569,-0.0506,-0.056236,0.031977,0.007774,-0.021678,0.032359,-0.007173,-0.024849,0.033838,0.050913,-0.073989,-0.056046,0.053619,-0.058362,-0.008184,-0.015697,0.058941,-0.107149,-0.106559,-0.006994,-0.097489,0.05206,0.012385,-0.007184,-0.072558,-0.032512,-0.092276,0.084036,0.031318,-0.092232,0.035037,0.072169,-0.047551,-0.002324,-0.003456,0.039379,0.034711,0.041784,-0.083573,-0.064464,-0.011502,-0.037896,-0.086548,-0.050034,-0.03752,-0.081259,-0.077733,-0.052063,-0.082519,-0.051464,0.060944,0.041418,-0.069025,-0.028443,-0.088654,-0.023912,-0.022666,-0.053573,0.057199,-0.015102,-0.013776,-0.034762,0.018545,0.018056,-0.095424,-0.128984,-0.044523,-0.012261,-0.030743,0.025506,0.066215,-0.025421,-0.080816,-0.026866,-0.026236,-0.008954,-0.089824,-0.036925,-0.014863,0.000191,0.029464,-0.089784],[-0.175738,0.004307,-0.132707,-0.054213,-0.025516,0.01945,-0.983493,-0.646479,0.957391,-0.0494,0.081367,0.103042,-0.075432,0.138024,1.460305,0.062707,-0.335872,-0.007126,-0.083546,0.052951,-0.075793,-0.290292,0.046871,0.013976,-0.201863,0.207548,-0.012746,0.078901,0.00739,-0.047338,-0.015701,-0.244051,-0.316811,0.026852,-0.030113,0.000799,0.206119,-0.042093,-0.055753,2.903125,0.226008,0.121649,-0.30697,0.018151,0.308223,0.048359,0.309629,0.109176,-0.032819,-0.014715,-0.17869,-0.399762,0.316163,-0.118074,-0.017999,-0.004008,-0.004746,0.030132,-0.011654,-0.14482,0.045782,-0.057834,-0.060552,0.076215,0.056376,-0.237364,0.296201,0.03992,-0.097951,0.302611,0.242041,0.213357,-0.824431,0.046916,0.031038,2.131277,0.007888,-0.036935,0.191819,-0.179335,0.001917,0.040642,0.078481,-0.111122,0.247724,-0.147732,-0.09835,-0.150691,0.021825,-0.083318,-0.128561,-0.165666,-0.056493,0.044698,0.118119,0.010675,0.039528,-0.040889,0.016656,-0.001066,0.021935,-0.042402,0.026579,-0.033407,0.680089,-0.10947,0.502207,0.076771,0.09665,-0.345798,-0.115734,0.054363,0.015696,0.009689,-0.04955,0.179044,-0.197393,0.17359,0.00226,0.061166,-0.059809,-0.071814,0.203608,0.006728,-0.415464,-0.04055,0.342926,0.66983],[-0.022352,-0.046915,0.154921,0.059992,0.219988,0.027331,-0.190136,0.026002,-0.152237,0.003137,-0.028065,0.161924,0.047086,-0.473429,0.08336,-0.033048,0.142328,0.030751,-0.073801,-0.157809,0.069891,0.037522,0.006542,0.042382,0.198443,0.229418,-0.070616,0.022404,-0.026699,0.043856,0.026033,-0.196435,0.135095,0.001816,0.215415,0.059267,0.111481,1.186868,0.027181,2.131167,-0.01924,-0.000786,-0.148404,-0.071185,0.046863,0.025635,0.163969,0.045413,-0.061025,-0.04038,0.1548,-0.253667,0.361986,0.114521,-0.063703,-0.044538,0.019317,-0.039976,0.048045,-0.07252,0.159661,0.05304,-0.072331,0.04999,-0.050683,0.104199,0.051843,0.122247,-0.102192,0.089598,0.203513,0.00266,-0.164944,0.009577,0.024604,0.500172,0.053363,-0.024248,-0.146598,0.183855,-0.002536,0.034765,0.0837,-0.226328,-0.100107,0.124797,0.134018,0.049721,0.008726,-0.005456,-0.286191,0.278365,-0.025422,0.118076,-0.186486,-0.012826,-0.043613,0.020976,-0.036324,0.001341,-0.009997,-0.034061,0.036821,-0.049183,-0.295621,0.141478,-0.371367,0.069098,0.140179,0.113513,0.062706,0.051342,0.003618,0.077558,-0.071194,0.275247,-0.757096,0.036837,0.018467,-0.066519,0.122304,-0.037127,0.050286,-0.049743,0.112445,0.031955,0.11633,-0.053235],[0.097197,-0.054172,0.171309,-0.067629,0.011455,0.091003,-0.0588,0.086344,0.510678,0.18424,0.018997,0.066229,0.022297,0.665203,-0.186414,0.024196,0.080813,-0.036832,-0.070589,-0.033579,0.077798,0.29357,0.091444,0.05164,0.103665,-0.134975,0.022719,-0.020158,0.03762,0.023505,0.03603,0.86787,0.087213,0.044223,0.025848,0.108517,0.108323,-0.039504,-0.040238,-0.337631,0.064721,0.575042,-0.105556,0.008824,-0.04922,0.025059,0.013679,0.019503,-0.049382,-0.07659,0.182113,0.124037,-0.189047,0.083591,0.148204,0.181606,0.074837,0.042441,0.094952,0.163724,-0.366544,-0.034969,-0.076239,0.072061,0.072146,0.138878,0.016497,-0.071648,-2.304277,-0.146609,-0.160399,-0.120882,0.319004,0.023592,-0.017558,-0.611172,-0.031326,0.105633,-0.729898,0.138545,0.061484,0.087738,-0.064472,-0.893671,0.100491,0.144801,0.12384,0.087753,0.146731,0.089636,0.240185,0.132292,0.036079,-0.008587,-1.246928,0.043883,0.037498,-0.041682,-1e-06,0.134903,0.124597,-0.01908,-0.126138,-0.04456,0.264784,0.054,0.289518,-0.019333,0.291657,-0.004876,0.174684,-0.01946,0.079513,0.057765,0.00348,0.27927,-0.811784,0.140059,-0.009694,-0.139452,0.068368,-0.073828,-0.165085,0.056957,0.097184,-0.103552,-0.407701,0.280381],[0.010061,0.031332,0.071331,-0.00283,0.041723,0.043085,0.014155,0.082258,0.012312,0.06171,-0.053939,-0.059639,-0.007745,0.001708,-0.061816,0.052032,0.054119,-0.066797,0.045294,-0.014212,0.063761,-0.052522,-0.022854,0.040158,-0.086152,0.085315,-0.044072,-0.087377,0.065921,-0.04084,-0.025331,-0.046965,0.082371,-0.011393,-0.063549,-0.071055,0.024627,0.004228,0.053951,0.034354,-0.070377,-0.020361,0.002045,0.070799,-0.066026,-0.005362,-0.074689,-0.044496,-0.082517,0.087849,-0.075868,-0.033011,0.044906,-0.03746,-0.011329,-0.032413,0.008919,-0.019398,-0.08616,-0.062675,0.023739,0.058675,-0.038208,-0.035765,-0.079079,0.005211,0.005787,0.052692,0.053785,-0.030195,0.06966,0.002107,0.055596,0.017863,0.028784,-0.086638,-0.077063,-0.073231,-0.068451,0.086067,0.050277,-0.058383,0.079708,-0.058098,0.039845,-0.00154,0.017925,0.051187,0.000686,-0.055568,0.052784,-0.030058,-0.013517,-0.049774,-0.032178,0.014276,-0.04404,0.020851,0.046362,-0.019556,0.047801,-0.025054,-0.0448,-0.010235,-0.083598,0.055655,0.073957,0.035862,0.007434,-0.04957,0.030335,-0.057549,-0.005557,0.003608,0.081429,0.027427,-0.054452,0.001947,0.055307,0.024567,-0.045957,-0.061833,-0.005848,-0.019864,0.018056,0.067873,0.016034,0.005644],[0.153374,-0.030249,0.237547,0.080668,0.163009,0.08707,0.656949,-0.028356,0.235609,0.224167,0.037914,0.114628,-0.041992,0.435377,-1.008318,0.075157,0.104258,-0.048986,0.081847,0.379196,0.037656,-0.008414,0.035951,-0.05986,0.131627,-0.059907,0.022564,0.049947,-0.053207,0.165106,0.03922,0.895672,0.264084,0.080231,0.237515,0.127778,0.167063,-0.529422,-0.026723,-9.547136,0.255672,0.326481,0.200295,0.060618,0.280516,-0.028982,0.011402,0.180873,-0.080862,0.001295,0.35162,0.378511,-0.55377,0.309617,-0.108443,0.390325,0.004537,0.027615,-0.014562,0.178879,-0.034196,0.088398,-0.07047,0.151728,0.339365,0.269388,-0.204685,-0.116596,-1.790427,0.050434,-0.162611,0.099486,0.443527,0.063874,0.107669,-0.219373,0.04372,-0.007981,-0.547341,-0.00015,-0.052274,0.067365,-0.060613,-1.206117,0.168443,0.257358,0.287388,0.179134,0.339872,0.221,0.519496,0.487955,0.261696,0.050473,-1.933996,-0.060232,0.034448,-0.059525,0.014698,0.147686,0.423831,0.059341,0.077096,-0.015392,0.439509,0.126063,0.687631,-0.02446,0.676546,0.178878,0.005338,0.260788,0.035479,-0.065069,0.027536,-0.319159,-0.439339,0.294158,-0.076198,-0.636724,0.130724,-0.026959,0.090828,0.003807,0.217022,-0.015802,-0.306021,-0.137685],[-0.092609,0.066679,-0.063978,0.00407,0.04317,-0.033059,0.011793,-0.067006,0.017818,-0.022223,0.013693,-0.036487,-0.046412,-0.023168,-0.0566,-0.01238,-0.018786,0.06588,-0.084381,-0.027665,-0.069686,0.013159,-0.069807,-0.00338,0.023125,-0.002875,0.059262,0.068509,-0.053591,0.062993,-0.064239,0.007612,-0.084617,-0.051684,0.059186,-0.008644,-0.086533,0.004604,0.073962,-0.002321,0.007896,0.038524,-0.035643,-0.004388,-0.088688,-0.073782,0.035752,-0.012679,-0.079546,-0.065933,-0.066864,-0.047895,-0.062,0.053927,0.066678,-0.034848,0.058943,0.034157,-0.069786,0.028229,-0.070677,0.027278,-0.082249,-0.06831,-0.064036,-0.056112,-0.026288,-0.087675,0.038826,-0.039156,-0.061787,-0.092473,-0.034367,-0.012926,-0.057029,0.032738,-0.012204,0.001008,0.070394,-0.068424,-0.088081,0.029593,0.054167,0.066164,-0.066147,0.032314,-0.054417,0.040878,-0.023478,-0.015978,-0.052374,-0.079941,-0.013674,-0.050491,-0.056733,-0.019949,-0.081258,0.038691,-0.101284,0.021793,-0.081827,-0.00594,-0.000214,0.041264,-0.063424,-0.004608,-0.064866,0.065535,0.008449,-0.000408,-0.03752,0.05826,-0.045527,-0.079058,-0.075515,-0.078387,0.07392,-0.009112,0.062668,0.021209,-0.064262,0.04002,0.055725,0.015287,0.053959,-0.075431,0.024271,-0.099915],[0.092763,0.062591,0.226326,-0.013854,0.15577,0.089519,0.457823,-0.119284,-0.232947,0.19539,-0.016984,0.077961,0.00777,0.608079,2.644274,-0.033107,0.053852,0.001163,0.059085,-0.135767,-0.063094,0.000539,0.042513,0.01813,-0.027267,-0.043675,-0.059542,0.07031,-0.006055,0.032772,0.101011,0.646728,-0.045371,0.078511,0.140853,0.054749,0.066307,-0.083301,0.016996,-0.084148,-0.180288,-0.036026,-0.155693,-0.012256,-0.150013,-0.032946,-0.155869,0.120007,0.01855,0.061884,-0.044261,0.251543,0.005984,0.151219,0.037011,0.160574,0.077724,-0.066096,-0.037225,0.169606,-0.164213,0.033297,-0.000762,-0.000841,-0.079849,0.112646,0.08924,0.099333,-1.028959,-0.168565,-0.064725,-0.204382,-0.524773,-0.063604,0.079973,-0.346415,-0.083973,-0.02194,-0.483548,0.04189,-0.011336,0.068366,0.018218,-0.487325,0.008148,0.149963,0.047604,0.078713,0.171408,-0.025272,0.248849,0.071193,0.076512,0.167354,-2.707018,-0.043396,-0.001625,-0.057875,0.074696,0.042823,0.185867,-0.075248,0.012969,0.084008,0.11683,0.093042,0.210135,0.032414,0.16455,0.012997,0.076372,-0.14275,-0.037029,-0.050956,0.048614,-0.005539,-0.676898,-0.030002,-0.051529,0.227797,0.118418,-0.051956,0.028223,-0.032088,0.021627,-0.019603,-0.110744,0.225843],[0.221325,0.031045,0.164854,-0.03871,0.07359,-0.014917,0.106727,0.092608,-0.210777,0.209269,0.057256,0.199869,0.013584,0.413952,-1.976077,0.000526,0.029369,0.050286,0.022882,0.380537,0.064766,0.082541,0.051658,-0.052431,0.285686,0.280541,0.072865,0.108349,0.0802,-0.018399,-0.04093,0.525409,-0.030328,0.077982,-0.296505,0.055359,0.125847,-0.329332,-0.049092,-1.788224,-0.042196,-0.240985,-0.102776,-0.029935,-0.190395,-0.07834,0.235652,0.121086,-0.055411,-0.037804,0.017932,-0.088411,-0.137947,0.05718,0.109438,0.129672,0.047214,0.028669,-0.010877,0.181604,0.274615,0.014105,0.00413,0.192968,0.142122,0.001064,0.179227,0.029997,-1.074606,0.165027,0.130641,0.198431,0.556282,-0.027597,-0.043022,-0.215905,-0.013101,-0.06244,-0.380152,-0.081802,0.227607,-0.078647,0.028996,-0.780077,0.033087,0.122898,0.064868,0.047609,0.081111,0.008686,-0.165267,-0.096752,0.134444,0.127042,-1.292482,0.03034,0.084831,-0.05307,0.09039,0.173153,0.085525,0.034613,0.11058,0.010515,-0.322782,-0.037257,0.002734,-0.013365,-0.071567,0.039157,0.17302,0.058653,-0.0651,0.001989,-0.047052,0.57112,-1.26452,0.12767,-0.013522,0.133644,0.085024,-0.006946,0.026767,0.079092,-0.049912,0.033617,0.150909,-0.431921],[0.154219,0.06545,0.116493,0.054697,-0.001313,0.056004,0.209862,0.231721,-0.869483,0.100746,-0.082226,0.011225,-0.044426,0.268939,-0.171644,-0.005825,-0.13042,-0.047119,0.056691,-0.286023,-0.002039,-0.08163,-0.052666,-0.059191,-0.049602,0.018619,0.019791,-0.001399,-0.019931,-0.022981,0.005768,0.960098,0.100151,0.073966,0.20874,0.022253,0.01302,0.034171,-0.062926,4.809263,-0.106505,0.007763,0.061735,-0.02179,-0.205869,-0.079981,0.000725,0.031419,-0.063141,0.022536,0.137232,-0.003888,-0.207751,0.079445,-0.030817,0.157556,0.080611,0.040421,0.085203,0.037839,-0.193165,-0.05403,-0.033647,0.057582,0.091243,-0.01122,0.18485,0.00157,-1.158724,0.098976,0.121324,0.006418,-0.429802,-0.073653,0.083843,-0.194969,0.008334,0.072556,-0.294378,0.124461,-0.068735,-0.044093,-0.059268,-0.389345,0.014657,0.091615,0.092492,0.023527,0.093497,0.105027,0.158859,0.153611,0.201822,0.06682,-1.641701,0.024395,-0.057373,-0.060829,0.008573,-0.013914,0.093768,-0.059548,0.098424,0.029761,0.17347,0.055091,0.178273,-0.036534,0.192366,0.04253,0.238444,0.019968,0.067233,0.041083,0.013533,0.149872,-0.714005,0.114629,-0.075491,-0.002975,0.133969,0.049473,-0.214416,0.061363,-0.033774,-0.01362,-0.052764,0.149371],[-0.084339,0.00464,0.070322,0.074943,-0.069162,-0.018016,-0.102039,0.018014,-0.061593,0.006317,-0.075247,0.047111,-0.071164,-0.093572,0.016137,0.007727,0.026919,-0.045232,0.038066,-0.006577,-0.022296,-0.001326,-0.062453,-0.016785,-0.043142,0.019649,0.060551,-0.015868,0.02573,-0.034842,-0.108514,-0.012285,-0.063202,-0.046138,-0.027694,-0.010575,0.049301,0.006536,-0.006087,-0.028628,0.031988,0.013305,-0.070947,-0.105583,-0.035629,-0.054651,-0.092755,0.050568,-0.046833,-0.027027,-0.050557,-0.105519,0.011113,-0.024686,-0.045337,-0.040203,-0.027139,-0.059879,0.010179,-0.06194,-0.025145,0.017892,0.009989,-0.003281,-0.100549,0.043185,-0.068377,-0.034798,0.03851,0.054899,-0.06659,-0.094376,-0.027801,-0.039336,-0.108484,-0.039381,-0.019081,0.062028,-0.022807,-0.023082,-0.058884,0.004328,0.03986,-0.037269,0.000574,-0.093449,-0.061663,-0.103384,-0.032243,-0.027946,-0.067809,0.00282,-0.071766,-0.10308,0.003206,-0.101378,-0.061055,0.032033,-0.003251,0.042315,-0.11023,-0.021549,0.057457,-0.060862,0.033454,0.025857,0.047993,0.072128,-0.075446,0.000459,0.022597,-0.096043,0.032164,0.050017,0.057941,-0.007349,-0.065808,-0.094162,-0.073279,-0.076298,0.018997,-0.069846,-0.059786,0.048088,0.03321,-0.041666,0.052525,-0.052606],[-0.036583,0.080099,0.102964,0.0192,0.112217,0.000356,-0.585486,-0.198543,0.296745,0.152224,0.086919,0.141887,0.022388,0.974216,0.186536,0.026702,-0.095907,0.029918,-0.067125,-0.297437,0.052139,0.080957,-0.030303,-0.078569,0.001908,0.092133,0.009813,-0.047476,-0.050448,0.023467,0.009943,-0.959103,0.009909,-0.082039,-0.14567,-0.014886,0.099063,1.17177,-0.026123,1.936718,0.055552,0.322886,-0.301229,0.018516,0.232772,-0.073036,0.233214,0.164909,-0.030555,-0.003846,-0.05247,-0.009251,0.385573,0.104751,-0.081007,0.021704,0.087239,-0.053129,0.001883,-0.001138,-0.078187,0.079474,0.049504,-3.2e-05,0.167598,0.002206,0.080295,-0.056445,-0.220049,0.084236,0.128782,-0.095945,0.074814,-0.01687,0.0008,0.482552,0.006693,0.103525,-0.145196,0.193619,-0.055681,-0.081846,0.030885,-0.305883,-0.048869,0.114977,0.058848,-0.032396,0.011162,0.0295,-0.137543,0.187513,0.060625,0.089645,-0.019303,0.000691,0.005099,-0.02853,-0.047256,-0.096188,0.029219,0.020525,0.076114,0.002091,-0.21968,0.031664,-0.214086,0.060584,0.046713,-0.132604,-0.061015,0.124828,0.071644,0.028599,-0.054766,0.258184,-0.39816,0.152288,0.008967,-0.107105,0.046326,0.005241,0.239932,0.046585,-0.071847,0.007338,0.189697,0.209894],[-0.256903,0.044231,-0.107395,0.026045,0.170986,0.077805,-0.014181,-0.109183,0.622917,0.033253,-0.033,-0.089438,-0.03947,-1.698198,-0.018684,0.080393,0.274151,0.054346,0.034386,0.191122,0.05775,-0.362243,0.010743,0.027683,-0.509057,-0.319216,0.042196,-0.084824,-0.075059,0.093106,0.05531,-0.587705,-0.233482,0.063952,0.134624,0.014937,0.100509,0.795026,-0.010272,0.123909,0.023467,0.226119,-0.061229,0.037941,0.647619,-0.039763,-0.190041,-0.096515,-0.001249,0.062155,-0.01159,-0.323432,-1.50426,-0.215277,-0.151333,0.023757,0.020562,0.077882,-0.08205,0.037293,0.667554,-0.048224,0.012171,0.073101,-0.329766,0.042861,-0.872426,0.123405,0.054769,-0.951624,-0.535496,-0.325266,0.523312,0.053486,0.035486,0.394104,0.054161,0.079798,-2.680383,0.239827,-0.061901,0.000589,-0.053797,-0.00022,0.202926,0.142825,0.08285,0.020173,0.118592,-0.191816,0.208016,0.068396,-0.507564,0.058265,0.052667,-0.062723,-0.011909,-0.009411,0.063156,0.021621,0.018421,0.080696,-0.014987,0.052867,0.487376,-0.108533,0.177536,-0.067324,0.211322,-0.155157,-0.523069,-0.179505,0.030858,-0.011518,-0.059394,0.513734,0.302164,-0.41399,0.046603,0.983129,-0.173722,0.009537,0.218824,-0.031325,-0.046712,0.043367,0.559585,0.07715],[0.062642,-0.080363,-0.097679,-0.065478,-0.041685,-0.059242,0.010715,-0.047155,-0.01502,-0.020537,0.001753,0.054997,-0.027987,0.013517,-0.078226,-0.043567,0.05197,0.07591,0.058255,-0.037455,0.065784,-0.079431,-0.019282,-0.075621,-0.072836,-0.075432,0.027978,-0.040351,0.030185,-0.058174,0.014292,0.007979,-0.039555,0.078649,0.030844,-0.050803,0.015055,0.018465,-0.012699,0.053781,-0.012147,0.047624,0.059474,-0.071499,-0.04945,-0.028778,0.003826,-0.038607,0.005118,0.009894,-0.071666,-0.081501,0.054602,0.02329,-0.068578,0.039556,-0.082482,0.039961,0.024287,-0.047315,0.048015,0.03448,0.085579,-0.02397,0.034044,-0.081517,0.014027,-0.077677,-0.076578,0.060638,0.03155,-0.073202,-0.040883,-0.019155,0.011471,-0.093385,-0.085464,-0.039942,-0.043305,-0.059846,-0.044266,-0.066082,-0.017085,0.009969,-0.0717,-0.08081,0.008449,0.060535,-0.039322,-0.075564,-0.009991,-0.067695,-0.038067,0.040455,0.071572,0.053526,0.065973,0.037257,0.045352,-0.090928,0.029093,-0.002061,0.037452,0.046186,-0.069634,-0.070407,0.027853,0.052422,-0.00604,0.027704,0.026581,-0.079785,0.072674,0.052163,-0.013664,0.033414,0.004442,-0.008007,-0.03084,-0.031155,-0.044871,0.029401,-0.079914,0.072837,0.050984,0.000506,0.023438,0.010897],[0.131443,-0.087716,0.26341,-0.017495,-0.4054,0.000421,0.201241,0.390478,-0.017288,-0.148781,-0.050096,0.119408,-0.05522,0.013872,-1.461323,-0.019813,-0.318736,0.033472,-0.069135,0.509057,-0.067248,-0.035231,0.099776,-0.042061,0.074974,0.414471,-0.075422,0.005151,0.032949,0.018895,-0.050529,1.159894,-0.06662,0.032684,-0.179399,0.079396,0.174036,0.538854,-0.078736,-3.040495,0.037259,0.321669,-0.26919,0.019546,0.007166,0.053086,0.136331,0.072425,0.029183,-0.063996,-0.014278,-0.437905,0.034603,0.373723,-0.012797,0.089773,0.069749,0.015405,0.048617,0.162072,0.080811,0.073415,0.033938,0.094827,0.162625,0.003432,0.193727,0.000808,-1.096802,0.157731,0.140943,0.36149,-0.000207,-0.06557,0.053012,0.106752,0.062809,0.091791,-0.144564,-0.110617,0.065825,0.072542,0.017396,-0.956088,0.186783,0.061027,-0.091675,0.05724,0.07895,0.109627,0.284872,0.083706,0.360615,-0.019015,-1.157189,0.088326,-0.024848,-0.079325,0.023669,0.016402,0.147462,0.030826,-0.007698,0.01888,-0.043095,-0.065784,0.00557,0.023243,0.134956,-0.002953,0.229433,0.202825,-0.034082,-0.050458,-0.008575,0.621693,-1.509251,-0.003913,0.06963,1.174213,0.004667,-0.038755,0.075023,-0.016177,-0.059298,-0.025544,-0.056379,-1.359229],[0.002745,0.033287,-0.003285,0.033462,0.029178,0.073199,-0.003065,-0.047793,-0.052737,-0.004676,-0.055453,0.026657,0.069004,0.052696,0.027457,0.021177,-0.066099,-0.019074,-0.06863,0.037292,0.062024,0.054976,-0.037525,-0.065603,-0.020628,-0.047935,-0.08752,0.073613,-0.025631,-0.003077,-0.005656,-0.068486,-0.023968,-0.054481,-0.060136,-0.057725,0.062842,-0.066434,0.069722,0.034875,-0.028132,-0.074108,-0.047962,0.068983,-0.080174,0.04832,-0.04496,-0.064602,0.014773,-0.057097,0.013942,-0.087293,-0.069198,0.056975,-0.001552,-0.073658,0.042976,0.066416,0.077876,0.072574,-0.069215,0.064399,0.083904,-0.023671,-0.083671,-0.016579,0.022432,0.022117,0.062407,0.011667,0.082657,-0.038925,0.047086,-0.056651,-0.000234,0.027743,0.047741,-0.068152,0.034048,0.056136,-0.07972,-0.016435,-0.060997,-0.015983,0.018021,-0.049755,-0.029945,0.03129,0.060266,-0.081781,-0.037991,0.021873,0.031122,-0.058682,0.049143,0.039949,-0.000958,0.001226,0.046203,-0.043685,0.001224,0.049527,-0.042617,-0.072264,-0.072468,0.069362,-0.06809,0.027231,0.036768,-0.057709,-0.025991,-0.049927,0.077636,0.067676,0.008033,-0.011004,-0.083647,-0.030612,0.058509,-0.007736,0.000349,0.016163,-0.014324,0.048298,-0.084442,0.066185,-0.059992,0.01113],[0.079331,0.057621,-0.064371,0.046759,-0.069008,0.049467,-0.009674,-0.029092,0.058525,-0.061162,0.024026,-0.043544,0.052505,0.059162,0.075722,0.058272,-0.014402,0.068289,-0.075551,0.063435,0.037778,0.065301,0.053311,0.008565,0.082639,-0.00916,-0.045673,-0.04795,0.064233,-0.053315,-0.029126,0.015623,-0.039851,0.00682,-0.022636,-0.064404,-0.053659,0.016385,-0.011609,0.062275,-0.064482,-0.047358,-0.081052,-0.009639,-0.041247,0.069064,-0.020603,0.071488,0.028907,-0.03792,0.004195,0.030815,0.051233,0.073755,0.082355,0.045996,0.07393,0.037591,0.069289,-0.043895,0.010305,0.019575,0.064135,0.015094,-0.082396,0.013678,-0.021064,-0.059917,-0.074721,-0.024057,-0.065898,-0.087698,0.019539,0.078162,0.02662,-0.077636,0.039845,-0.05742,-0.02683,-0.071625,0.008952,-0.049802,0.018603,0.032834,-0.032635,-0.04994,-0.04747,-0.055213,0.069027,-0.087539,0.081503,0.02908,0.044062,-0.083855,0.087436,0.054642,0.086722,0.010244,0.025085,0.008757,0.031175,0.015982,0.062098,0.023665,0.019085,-0.028512,-0.007738,0.049991,0.062744,-0.033787,-0.058408,0.03212,-0.004402,-0.076022,-0.009133,0.01059,-0.045852,-0.038023,-0.018032,-0.044378,-0.031748,-0.087663,0.02798,-0.017142,0.06692,0.005062,-0.06984,-0.056808],[0.158214,-0.052716,0.085046,0.024746,-0.033803,0.036693,-0.316356,0.163019,0.148104,0.018061,0.055174,0.14047,-0.032347,1.222111,-4.15164,-0.001715,0.099281,-0.020127,-0.041491,0.13091,-0.072626,0.067095,0.013212,0.015219,0.188473,0.028465,0.075443,0.021879,-0.012516,0.143908,-0.00165,1.44928,0.110843,0.058602,0.106807,0.101598,0.032947,0.392702,0.003303,-0.913976,0.226948,0.163318,0.196918,0.073328,0.179247,-0.011237,0.156322,0.166721,0.059762,-0.081234,0.155905,0.034861,0.254623,0.043308,-0.05328,0.141874,0.054961,0.054441,0.06193,0.035891,-0.125274,0.024919,-0.009245,-0.001955,0.010546,0.042538,0.308212,0.053398,-1.513323,0.041594,0.161781,-0.024351,-0.142666,-0.050805,0.050593,0.08573,0.033957,0.069267,-0.839777,0.478525,0.076156,0.07013,0.039666,-1.222901,-0.056354,0.09659,-3.7e-05,0.087131,0.019188,0.137267,0.104464,0.153565,0.002373,0.041603,-2.11087,0.019568,-0.064396,-0.073473,0.009285,0.077976,0.182955,0.053987,0.032718,0.036591,0.272404,0.035566,0.188781,0.070151,0.123788,0.059381,0.194426,0.034316,-0.06137,0.012383,0.054143,0.118424,-0.802774,0.207588,0.062825,-0.235565,0.167564,0.021631,0.155591,0.018739,0.027091,-0.018792,-0.270031,-0.071123],[-0.051443,-0.051665,0.050717,-0.043238,-0.084455,-0.061903,0.01578,0.020919,0.033211,-0.080252,-0.061244,-0.060181,-0.05962,-0.001674,0.043028,-0.058379,0.028229,0.037451,-0.056991,0.019128,-0.010457,0.002841,0.05844,0.026644,-0.060619,0.027807,0.067592,-0.028662,-0.006905,0.064926,-0.035759,0.070902,-0.009201,-0.061915,-0.010094,-0.088981,-0.034144,0.010773,0.061784,0.02399,-0.060918,-0.09689,-0.046595,-0.017683,-0.013283,0.018153,-0.003914,0.033121,0.008357,0.000156,-0.016308,0.054647,-0.083673,-0.089261,-0.001934,-0.047977,-0.05242,0.024988,-0.048936,0.020824,0.068988,-0.061397,-0.083566,0.047663,-0.035393,0.037376,0.036154,-0.072606,-0.016255,-0.098907,0.002076,-0.031004,-0.070529,0.023827,0.071162,-0.091422,0.072819,-0.015233,-0.068269,0.040819,-0.092063,0.084801,0.055609,0.011682,-0.044536,-0.016891,0.030415,-0.018615,0.0577,-0.093416,-0.086385,-0.087166,-0.084084,0.047092,0.053563,-0.0736,-0.087901,0.050639,-0.094725,0.004598,-0.015989,0.009281,0.020401,0.052495,0.058168,0.069498,-0.032616,-0.007266,0.062677,-0.01091,-0.081569,-0.102673,0.071401,-0.036245,0.013977,-0.034584,-0.073309,-0.043809,-0.037584,0.02112,0.053719,-0.004981,0.063924,-0.01,0.017558,0.075923,0.01197,-0.010832],[0.061503,0.045557,0.015749,0.00134,-0.033645,-0.084725,0.029903,0.002315,0.005137,-0.100277,-0.029095,0.004016,-0.027138,-0.039084,-0.096476,-0.085507,-0.064717,0.068253,0.065416,0.055527,0.056027,-0.007768,0.064136,-0.041766,-0.02081,-0.04236,-0.044033,-0.05271,-0.074775,-0.060727,-0.031373,-0.009946,0.01111,-0.026359,0.016006,-0.104911,-0.09913,-0.080075,-0.077365,0.041145,0.004387,0.033117,0.047871,-0.076513,0.05663,-0.006778,-0.081236,0.058827,0.037538,-0.068819,-0.09817,-0.083689,-0.015748,-0.081499,-0.101705,0.062183,-0.083431,-0.044611,-0.033805,-0.012624,-0.088945,-0.101173,0.04464,0.062686,-0.081827,-0.105559,-0.072066,-0.072955,0.052294,-0.049563,-0.023617,-0.083192,-0.097948,-0.075415,-0.033098,0.014893,-0.065928,0.031337,-0.103933,-0.098872,-0.083829,-0.080168,-0.046972,-0.02076,-0.022329,0.038356,-0.008192,0.037335,0.027306,-0.035204,-0.044827,-0.014129,-0.03823,0.0211,0.009975,-0.029576,0.064127,0.066913,-0.062002,0.051631,0.017034,-0.020696,-0.107155,0.066755,-0.034045,-0.055101,-0.026001,-0.037837,-0.011091,-0.050633,-0.047462,-0.063601,0.057977,0.054282,-0.058623,-0.023775,-0.061149,-0.028149,0.00921,0.015066,-0.024764,-0.057867,0.014881,0.066406,-0.040325,-0.08233,0.060313,-0.044825],[0.010731,0.019562,-0.049449,0.005538,-0.022802,-0.005224,0.010515,-0.053043,-0.01401,-0.030383,-0.08426,0.0621,0.033594,0.028591,-0.066195,0.048628,-0.029098,0.056979,-0.083212,0.017267,0.071154,-0.08556,0.057369,-0.042852,-0.073033,0.048345,-0.046998,-0.071059,0.039177,-0.035475,0.001169,0.085801,-0.063579,-0.085223,0.036196,-0.030776,0.001589,0.044196,-0.060235,-0.021863,0.025736,0.056522,-0.056966,-0.012426,-0.084952,0.003855,-0.007876,0.06306,0.041609,-0.041577,-0.078747,-0.061776,0.021269,0.000918,0.066312,0.082532,0.025142,-0.000198,0.013502,-0.003301,-0.04935,-0.003408,0.084785,-0.012237,-0.01929,-0.042481,0.081955,-0.07673,-0.036925,0.024735,0.014299,0.084017,0.009869,0.083249,0.034592,-0.052438,0.022831,0.028296,0.01253,0.035524,0.014242,-0.005628,-0.033133,-0.06842,-0.056397,-0.081813,0.030506,-0.033563,-0.034962,-0.043347,-0.050707,-0.002826,-0.010499,-0.067311,0.023739,0.035172,-0.026046,-0.079288,0.061763,0.04499,0.072025,0.008137,0.011159,-0.077436,0.087101,-0.05609,-0.069537,0.034102,-0.017243,-0.070299,-0.001401,0.012674,-0.038667,0.036321,0.012584,-0.023338,0.015586,0.079412,-0.039292,0.031245,-0.014976,-0.003073,0.028771,-0.008676,-0.075593,-0.026575,-0.060919,0.026884],[0.160204,-0.078114,0.128743,-0.015458,0.042552,-0.061624,0.23504,0.412181,-0.228627,0.052917,-0.026762,0.158414,-0.065738,-0.743049,0.267474,0.058414,0.127714,0.049964,0.064389,0.527583,-0.001045,0.24413,-0.061113,0.040974,0.123302,0.067108,0.039184,-0.024476,0.024776,0.219607,0.040167,-1.037564,0.090875,-0.039352,0.2272,0.206405,0.209009,-1.529501,-0.078859,-2.478637,0.154688,-0.025421,-0.162506,0.04857,0.093985,-0.060783,0.137929,0.247115,-0.025358,0.061539,0.169677,0.039573,-0.482499,0.05043,0.243074,0.218723,-0.035952,0.06131,-0.014326,0.129298,0.283912,0.032788,-0.038104,0.17823,0.127365,0.253566,-0.047906,0.138587,-0.054296,0.024869,0.193576,0.153383,-0.126327,0.023058,-0.092721,-0.217814,0.037973,0.004936,0.251125,0.011959,0.242287,0.076083,0.029894,0.287638,0.178107,0.115238,0.148948,0.240392,0.16757,0.22539,0.444331,-0.002245,-0.062304,0.151089,-0.179498,-0.069602,-0.087884,-0.027765,0.093769,0.187295,0.078389,-0.018446,0.254943,0.045813,0.118523,0.238007,0.525197,0.010966,0.37151,0.213917,0.252885,0.165434,-0.01675,0.056692,0.02182,-0.744511,0.762564,0.052116,-0.031865,-0.021467,0.14114,0.004935,0.29612,-0.017362,0.2507,0.049229,0.145395,-0.405257],[0.027066,0.001094,0.013169,-0.033212,0.022753,0.079596,0.011771,0.069262,0.008583,-0.020599,-0.006502,-0.028915,0.009768,-0.048317,-0.001334,-0.059181,0.04636,0.069486,-0.074879,0.034225,0.082561,0.023303,-0.021874,-0.002925,-0.05163,-0.079238,0.038504,0.054024,-0.045871,-0.035747,0.065613,-0.068452,0.015333,0.051784,-0.051511,0.013261,-0.070736,0.053848,-0.077413,-0.007986,-0.021833,0.025369,0.056556,0.039082,-0.026575,-0.020079,0.026901,0.041768,-0.001109,-0.077317,-0.120656,-0.019614,-0.08227,-0.003359,0.067892,-0.121406,-0.050103,0.054581,-0.054034,-0.09436,-0.06341,0.08667,-0.041293,-0.085726,-0.026781,-0.055483,-0.066609,-0.067216,-0.007864,-0.067664,-0.083841,0.003693,-0.026555,-0.045449,0.08761,-0.016807,-0.076839,0.064972,-0.050954,-0.030781,-0.070795,-0.00942,0.044419,-0.047821,-0.017647,0.052814,0.006555,0.007604,-0.064926,-0.080915,0.001027,-0.036451,-0.010938,-0.087219,0.056091,0.065295,-0.015482,0.066245,-0.083343,0.05133,-0.026327,0.029762,-0.071434,0.085021,-0.041188,-0.043749,-0.043704,0.054444,-0.131159,-0.082649,-0.051773,-0.023254,0.016562,-0.024871,0.019152,0.02755,0.018231,-0.062935,-0.053723,-0.078778,-0.087197,0.078609,0.063499,0.074349,-0.113334,0.063544,-0.007066,-0.023585],[0.084792,0.070775,0.119547,-0.02784,0.188748,-0.057568,-0.185037,-0.070682,-0.003985,0.004111,0.077841,0.073595,-0.03664,-0.38497,0.001197,0.046692,0.150895,0.049656,0.014573,-0.346794,-0.03187,0.035007,0.027408,-0.053855,0.123846,0.078754,-0.024997,0.10025,-0.010838,0.100016,0.043221,-1.011823,-0.028771,-0.018499,0.222924,0.080555,0.047191,1.22444,-0.065331,2.656507,0.091688,0.006308,0.015161,-0.118352,0.202446,-0.049809,0.253042,0.018503,0.026357,-0.005188,0.078849,-0.312691,0.476214,0.157939,0.065005,0.040664,0.060222,0.066715,0.095095,0.081493,0.20574,0.017189,-0.084868,0.019868,-0.015804,0.114822,0.171384,0.083212,0.060858,0.083737,0.070465,0.039843,0.006411,-0.077826,0.001169,0.53295,0.046354,-0.021022,-0.124539,0.191319,0.115812,0.016414,0.020168,-0.138646,0.025087,0.069637,0.061131,0.01168,-0.069807,0.011537,-0.408885,0.302553,0.081306,0.039866,-0.185839,0.104813,0.056173,-0.079831,-0.047166,0.115075,0.10913,-0.025979,0.107293,-0.011422,-0.222321,0.025524,-0.340447,-0.059639,0.013385,0.125492,0.14596,-0.06833,-0.036863,-0.068126,-0.080997,0.078546,-0.668367,0.146276,-0.055616,0.053139,0.107847,-0.062758,0.152233,0.028704,0.044051,-0.101654,0.19018,0.110864],[-0.084471,-0.078681,0.029184,-0.078567,0.127836,0.013721,-0.4451,-0.436742,0.551792,0.247239,-0.068212,0.047464,0.002322,2.544902,0.854323,0.019119,-0.208572,0.025375,-0.055156,0.029096,0.014191,0.235925,0.012135,-0.073867,-0.154329,-0.016333,-0.009744,0.003927,0.073811,0.075423,-0.018963,0.385783,-0.037736,-0.064879,-0.230501,0.044189,0.103123,0.974769,-0.017658,2.077012,0.048172,0.565931,-0.523476,0.067544,0.161922,0.065529,0.019355,0.112467,0.086967,0.04395,0.07789,0.167621,0.220334,0.042374,-0.141894,-0.003067,-0.010538,-0.087101,-0.013045,-0.21205,-0.113383,-0.03043,0.015944,0.077385,0.109165,0.088282,-0.039464,0.036155,-0.075896,-0.003895,0.068624,-0.132258,0.154249,-0.06126,-0.021045,0.8419,-0.087232,0.004404,-0.066327,0.129939,-0.175281,-0.028799,0.052332,-0.299291,0.067878,0.191209,0.033269,0.007698,-0.007562,0.046079,0.169345,0.223239,0.112183,0.009894,-0.09743,0.08213,0.041851,-0.084605,0.0724,-0.034156,0.140427,0.061894,-0.096414,0.072227,-0.552252,-0.071204,-0.589765,-0.006948,0.166259,0.077347,0.091999,0.110043,0.035881,0.094676,0.016308,0.045888,-0.603093,0.131129,0.030872,-0.411478,0.016382,0.023645,0.128975,-0.003584,0.061191,0.004205,0.169463,0.065002],[0.06209,-0.009963,-0.069523,0.081874,-0.059569,0.062285,0.047917,-0.094056,-0.085084,-0.063831,0.086402,0.00457,0.02211,-0.049251,-0.084711,0.043657,-0.02936,0.049409,-0.041935,0.066083,-0.012853,-0.041737,-0.036366,0.076435,0.024737,0.017476,-0.042223,-0.01786,-0.027249,-0.045242,-0.046231,-0.037088,-0.017767,0.016539,0.033914,-0.049876,0.006614,-0.003537,-0.03639,-0.077469,0.058598,0.020531,-0.071881,-0.053369,-0.033545,0.031656,-0.037261,0.053957,-0.058504,-0.006464,-0.055534,-0.045075,0.013179,-0.017461,0.027399,0.07054,-0.085487,0.078452,-0.057528,-0.015642,0.053415,0.040091,0.075781,-0.050884,0.073853,0.074017,-0.059231,-0.057532,-0.083862,-0.036029,0.027711,-0.040096,-0.087449,0.031122,-0.004651,0.046962,-0.019572,0.021855,-0.023185,-0.089893,-0.048317,-0.020812,0.021413,-0.019911,-0.004681,-0.064499,0.069392,0.006029,-0.073487,-0.004053,0.054568,-0.097755,-0.027191,-0.079404,-0.078555,-0.006769,0.044968,-0.079391,0.000145,0.024716,-0.063431,0.082239,-0.083893,0.073793,0.045075,0.075976,-0.01747,0.014352,-0.094486,-0.097762,-0.055186,-0.068667,-0.075671,0.037982,0.029399,0.05529,-0.084591,0.066494,-0.053834,0.037487,-0.05053,-0.004184,0.012257,0.006181,0.033485,-0.009107,0.054537,-0.045071],[-0.018209,0.036762,-0.048873,-0.035949,-0.028983,-0.025924,0.072448,0.075812,-0.009605,-0.018072,0.02736,0.033043,0.055756,-0.049547,0.076672,-0.067244,0.04133,0.054873,-0.044675,0.024832,-0.036946,-0.01791,-0.004713,-0.057425,-0.009286,0.05466,-0.069127,-0.022632,-0.019845,-0.022507,-0.047751,0.079085,-0.072698,0.084934,-0.057755,-0.074197,-0.038765,0.001864,0.067519,0.055603,0.067483,-0.030667,-0.062307,0.010146,0.027068,0.00244,0.01702,-0.032274,-0.064988,-0.030057,-0.050842,0.053024,0.065393,-0.047669,-0.06034,-0.065943,-0.035694,-0.053152,-0.068695,-0.089696,-0.034764,-0.046226,-0.02464,-0.057361,-0.047571,0.037005,0.083419,-0.055413,0.069262,0.056645,-0.037552,0.042795,0.026949,-0.051113,-0.070811,0.074851,-0.055867,-0.069602,-0.083608,-0.057133,-0.000124,0.014722,0.079555,0.054149,0.030946,0.042749,0.002903,-0.009122,0.07803,0.040463,-0.025008,0.05553,0.067443,-0.083411,-0.026678,0.07722,0.083851,0.01046,-0.017882,0.02429,0.049211,0.026345,-0.01251,-0.045631,-0.005517,-0.002353,0.048754,0.076684,-0.017861,0.067476,0.062511,-0.02483,-0.018519,-0.052342,-0.085224,-0.091444,-0.06964,-0.021359,-0.045299,0.016171,0.002099,-0.031724,-0.030326,0.062033,-0.058778,0.061502,-0.036496,0.022165],[0.20043,-0.07001,0.142712,0.00749,0.129882,-0.041246,-0.19992,0.15108,0.284731,0.078852,-0.04347,-0.069504,0.022376,0.886206,-3.115299,0.065422,0.012708,0.004316,-0.028727,0.078738,0.07678,0.105089,-0.02458,-0.016155,0.085036,-0.068184,0.009574,0.065018,0.030928,0.093925,-0.00185,0.71453,0.136068,-0.058152,0.168263,0.090858,-0.051152,-0.241313,0.040728,-0.090747,0.031543,-0.00815,-0.0221,-0.010732,-0.104634,-0.068829,0.010027,0.029698,-0.069474,0.055411,0.068469,0.143667,0.192348,0.090809,-0.048306,0.143648,0.074816,-0.057728,0.10524,-0.01806,-0.319045,0.051696,-0.059486,-0.0241,-0.062246,0.09135,0.109105,-0.029704,-1.33979,-0.119117,-0.037926,-0.052837,0.28359,-0.07578,0.022774,-0.415814,0.01306,0.086924,-0.501589,0.291144,0.01714,-0.057032,-0.003594,-0.595244,-0.105433,0.122285,0.102953,0.093863,0.119555,-0.019367,0.23446,0.11956,0.16071,0.010152,-4.986724,0.072603,-0.044393,-0.040926,-0.056113,0.103659,0.066255,0.01802,-0.091367,-0.024955,0.235741,0.082102,0.273218,-0.074555,0.200488,0.018882,0.088662,-0.020277,0.071591,-0.078816,0.080743,0.427036,-0.839972,0.196115,-0.011317,0.397329,0.067907,0.051556,-0.119081,-0.039851,-0.01497,-0.105527,-0.622173,0.322828],[0.020427,-0.070849,-0.066336,-0.032345,0.053336,0.06491,-0.004334,0.048753,-0.04345,0.04572,-0.021894,-0.043253,0.064074,0.020425,0.0001,0.013884,-0.06611,0.082119,0.080551,-0.040735,0.021405,-0.066287,-0.074427,0.022843,-0.02692,0.024807,0.072472,0.012237,-0.087539,0.037306,0.039548,0.029061,-0.10125,-0.06505,0.057253,-0.030789,0.017277,0.019848,0.016213,0.061878,0.034671,-0.069244,-0.023657,-0.034482,-0.066795,-0.026361,-0.008014,-0.067862,0.069598,0.07972,0.068823,-0.028761,-0.02534,-0.03287,-0.066829,-0.104996,-0.029976,0.016348,-0.021895,-0.097122,-0.097872,-0.016359,0.031211,-0.100458,0.060592,0.045551,-0.078241,-0.101335,0.012199,0.068389,0.057298,-0.041944,0.012432,0.034111,0.04059,0.046174,0.006651,-0.093859,-0.07896,0.066645,-0.097024,0.08262,0.078914,-0.01544,-0.053572,-0.06538,-0.076658,0.058286,-0.079558,-0.079164,-0.012118,0.050066,-0.038549,0.029915,0.044276,-0.073876,0.087405,-0.049652,-0.055251,0.023117,-0.027253,0.078437,-0.030244,-0.050966,0.032589,-0.079429,0.014024,-0.051519,0.04029,0.059003,-0.066271,-0.094028,-0.087721,0.042749,-0.028024,0.062645,-0.090246,-0.026465,0.031905,0.064078,0.060208,-0.00962,-0.104952,0.004174,-0.058674,-0.049303,-0.102118,0.02686],[-0.064395,0.021223,-0.043502,-0.087029,-0.044867,-0.042683,-0.004655,-0.076017,-0.04071,0.018458,0.003164,-0.097788,0.010741,-0.051555,0.030813,0.006181,-0.081819,0.048966,0.013268,-0.038616,0.043046,0.061584,0.054455,-0.001615,0.052721,-0.042635,-0.070751,-0.008593,0.033883,-0.014047,-0.098752,0.005977,0.063726,0.003976,0.037892,-0.099758,0.026559,0.016223,0.015873,-0.075335,-0.090945,0.015655,0.06425,-0.031798,0.013698,0.032744,-0.054619,-0.040599,-0.020218,-0.054993,-0.082409,0.050975,0.067265,-0.012274,0.054564,0.035907,-0.03609,0.080796,-0.041814,0.07089,0.037629,-0.088347,0.02161,-0.102084,-0.045971,0.042486,-0.028632,-0.095048,-0.0097,0.002152,-0.046738,-0.049992,-0.063672,-0.03213,0.054167,-0.101873,0.012477,0.002797,-0.08608,0.010853,0.000637,0.064269,-0.04183,0.044279,0.044532,0.003477,0.061315,-0.032862,0.050371,-0.042387,-0.036869,-0.066926,-0.049705,-0.019128,0.011123,-0.039467,-0.006716,-0.036442,-0.015721,-0.098707,0.000707,-0.004778,0.020134,0.01398,0.026246,0.015474,-0.043016,-0.03923,0.005069,0.020761,0.03916,0.048302,-0.039989,-0.012181,0.021355,0.018282,-0.043587,-0.03694,-0.06432,0.038428,0.062442,-0.083053,-0.009401,0.02406,-0.090962,-0.055591,-0.053416,-0.024962],[-0.011606,0.032544,-0.083559,0.065548,-0.031799,0.015577,-0.080892,0.026895,-0.017898,0.075533,-0.021277,0.028634,-0.060689,0.032767,-0.057055,-0.082003,-0.044396,-0.031991,0.072606,-0.054836,-0.039313,-0.044571,0.031871,0.009486,-0.035233,0.074794,-0.076145,-0.051915,0.051845,0.023582,-0.076226,-0.017032,-0.07105,-0.070785,0.035718,0.044981,-0.016005,-0.084754,0.017395,0.032358,-0.053257,0.003292,-0.098381,-0.022072,0.074557,-0.07572,0.028033,-0.028659,-0.055561,-0.008559,-0.03064,-0.087751,-0.03181,-0.042502,-0.020619,-0.038191,0.000458,0.081583,-0.074537,-0.0397,0.012734,0.085821,-0.055935,-0.013958,0.009451,-0.023616,0.021998,0.016684,-0.028322,0.07431,-0.089561,0.066124,0.058482,-0.080405,-0.016203,0.001368,0.021038,-0.084773,-0.051279,-0.021853,0.017223,-0.016629,0.069863,0.015424,0.067052,-0.062768,-0.043542,-0.042833,-0.059217,0.073723,0.073923,0.021082,0.05196,-0.043794,0.013916,-0.08527,0.003965,0.072321,0.03834,-0.062972,0.013578,-0.066817,0.011582,-0.057985,-0.058433,-0.098182,-0.012088,0.072708,-0.0838,-0.055434,-0.064345,-0.05856,-0.059013,-0.0679,0.068414,-0.023327,-0.037304,0.023755,0.02904,0.032649,-0.08839,-0.031012,0.065994,0.058979,-0.006775,-0.006837,0.051619,0.075242],[0.001973,0.068429,-0.067888,0.038693,0.041217,-0.031956,0.068146,0.006334,-0.061022,-0.089938,-0.050912,-0.077065,-0.000354,0.000479,0.020949,-0.0723,-0.020338,-0.033596,0.021611,-0.078022,0.070346,-0.046606,0.01692,-0.057998,0.01337,0.048158,0.039575,0.050784,0.0757,-0.066601,0.024335,-0.064517,-0.062829,-0.046361,-0.014968,0.004518,0.001815,0.011673,-0.080651,-0.013001,0.061847,0.010239,-0.069365,-0.000305,-0.024685,0.056097,-0.006188,-0.039613,-0.087998,0.015902,-0.016308,-0.023713,0.063497,0.023707,-0.036579,0.00457,-0.00519,-0.057042,-0.001353,0.027927,0.028075,0.040573,0.041982,0.029386,-0.040006,-0.098543,0.043227,-0.025343,-0.03972,0.054469,0.05251,0.049296,-0.009394,-0.010441,-0.050012,0.039838,0.029518,0.044808,0.00463,-0.100854,0.062406,-0.054777,-0.028129,-0.00983,0.012794,-0.028683,-0.089728,0.042584,0.006464,-0.083507,-0.073693,-0.032686,0.052945,-0.00665,-0.091373,0.012519,0.020757,-0.022471,0.022401,-0.062053,0.006907,0.054835,0.017969,0.055032,-0.034643,0.006947,0.007921,-0.071511,0.023587,0.016641,-0.100036,0.044866,-0.022342,-0.053038,-0.050214,-0.100972,-0.008611,0.022874,-0.082656,0.065749,0.008355,0.026969,0.024963,-0.09543,-0.090344,-0.030949,-0.107049,-0.049012],[0.02578,0.022453,0.042792,-0.079279,0.029942,0.066655,0.011345,0.038267,-0.002483,-0.021424,0.00208,-0.055726,0.073876,-0.051126,0.020655,0.048461,0.008122,0.034785,-0.071166,-0.041275,-0.017377,-0.031236,0.013987,-0.040832,0.044241,-0.09893,0.007418,0.055306,0.036451,-0.018424,0.010665,0.049861,-0.064913,-0.065265,-0.03003,-0.054683,-0.048204,-0.015683,0.039742,-0.03159,-0.09721,-0.078677,0.009296,-0.08952,0.023585,-0.004112,0.027373,0.016051,0.025121,-0.022052,-0.104586,-0.007305,0.040469,0.025154,-0.039142,-0.107249,0.059131,0.043933,-0.02735,-0.104618,-0.101859,-0.01393,-0.055541,-0.099067,-0.023659,-0.105227,-0.015623,-0.009174,-0.102937,-0.047233,-0.015672,0.006931,0.024805,0.064343,-0.094236,0.00774,-0.033348,-0.06291,-0.047877,0.066898,0.045959,-0.025405,-0.07864,-0.055946,-0.034934,0.005418,0.059409,0.005952,0.010043,-0.100637,-0.08836,-0.029114,-0.041622,0.040267,-0.067711,0.037359,0.072815,0.000827,0.038589,0.029227,-0.036401,-0.015002,-0.064011,-0.079988,0.046597,0.047303,0.045608,0.013698,-0.061284,-0.029214,0.046478,-0.042486,0.027799,-0.008316,-0.057395,-0.085969,-0.047024,0.052737,-0.079756,0.009706,-0.101088,-0.043028,-0.015201,0.020977,0.028695,0.004159,-0.031186,-0.051906],[-0.071339,0.04368,0.162291,0.000639,-0.00901,0.080956,-0.618411,-0.797773,0.74301,-0.092377,-0.023884,0.020871,0.000981,1.623356,1.212019,-0.046925,-0.091591,-0.062683,