export const distilledPolicyArtifact = {"enabled":true,"passed":true,"version":"distill-river-v3-multisize","trainedAt":"2026-06-29T07:09:53Z","policyKind":"softmax-distill","blend":1.0,"appliesTo":"open","featureNames":["equity","range_eq_0_10","range_eq_10_20","range_eq_20_30","range_eq_30_40","range_eq_40_50","range_eq_50_60","range_eq_60_70","range_eq_70_80","range_eq_80_90","range_eq_90_100","pot_odds","spr_norm","street_flop","street_turn","street_river","position_signal","to_call_flag","made_strength","draw_strength","wetness","paired","monotone","connected","range_advantage","blockers","range_percentile","range_weight","range_coverage","context_aggressor","three_bet","facing_bet","free_check","flush_blocker","nut_flush_blocker","top_blocker","board_pair_blocker"],"actionSets":{"open":["check","bet-small","bet-mid","bet-big","bet-over"],"facing":["fold","call","raise-small","raise-big","jam"]},"validation":{"val_kl":0.047463,"rows":1189100},"model":{"type":"mlp-softmax","activation":"relu","layers":[{"weights":[[-0.350857,0.057348,0.74829,-0.55448,0.86156,1.441235,-0.338335,0.596887,-0.145764,-1.516731,-0.638279,-0.187795,0.033417,-0.051347,0.029234,0.230722,0.051438,-0.00243,-0.137657,0.157446,-0.043664,0.113609,-0.199756,0.068577,-0.082233,3.820638,-0.027579,0.146063,-0.353921,0.164597,0.134745,0.042688,0.070262,-0.012225,0.216502,-0.390134,0.013589],[1.053596,-0.447235,-0.242617,-0.241776,0.103887,-0.213988,-0.169896,0.008872,-0.095186,-0.543152,0.262726,0.000736,-0.310354,-0.099063,0.111898,-0.031012,0.016409,-0.185794,0.361132,-0.033663,0.024602,0.03567,-0.019863,0.026002,-0.237204,-3.372484,0.504958,0.170194,0.164781,0.014562,-0.114351,-0.299329,0.169174,0.023642,0.087028,0.107544,-0.261189],[-1.004533,0.820772,0.068343,-0.372802,0.125776,0.229281,0.256022,0.06748,0.056739,0.283962,-0.077427,0.00369,0.0133,-0.003392,-0.025859,0.149514,0.01677,0.09292,-0.039118,0.027818,0.005974,-0.014962,-0.067059,-0.047392,0.240166,-1.951608,0.063528,-0.062127,-0.099873,-0.200752,-0.109752,0.322497,-0.260865,0.051431,0.052887,0.040639,0.020412],[0.724453,-0.128993,0.901069,-0.615507,-0.216483,-0.08972,-0.255273,-0.436177,-0.048373,0.482056,-0.138612,-0.831708,0.02098,0.017297,-0.013763,0.154186,-0.07115,-0.004871,0.004077,-0.128648,-0.122068,0.223387,-0.138267,-0.051052,-0.047442,1.774106,0.181249,-0.021893,-0.20113,0.205371,0.063916,0.056167,-0.051956,0.246032,-0.83869,-0.407894,-0.245664],[0.144499,0.057596,0.026601,-0.128493,-0.024261,0.072432,0.020864,0.072684,-0.020891,0.040341,-0.084135,-0.09203,0.020659,0.044217,0.117839,-0.154101,-0.152224,0.002327,-0.119205,0.035841,0.035728,0.106959,0.083711,-0.033151,-0.166231,-0.032032,0.083996,-0.174438,0.069064,-0.082748,-0.070774,-0.060023,-0.027579,0.000222,0.047368,-0.051435,0.03269],[0.89246,-0.220301,0.002919,-0.717839,-0.338673,-0.652619,1.316051,-0.317786,0.382919,0.828664,0.250945,0.957187,-0.009319,-0.10274,-0.121104,0.141575,0.113957,0.039358,-1.988468,-0.025049,0.169684,-0.294181,-0.012344,0.127848,0.073707,0.657593,-0.376509,-0.28289,-0.819689,-0.245904,0.159771,0.249383,-0.322434,-1.233194,-0.176781,-0.153706,0.353737],[-0.491917,-0.642892,0.519132,0.814696,-0.318286,-0.688945,-0.154657,-0.574518,-0.793487,1.242212,0.578185,1.02742,0.060201,-0.09866,0.006447,-0.134587,-0.097706,-0.065279,0.089601,0.01686,-0.09355,0.161149,0.231452,-0.080507,0.041024,-1.620327,0.179959,0.104305,0.132346,-0.3097,0.049132,0.067207,-0.326368,-0.015217,-0.84586,-0.056009,0.167367],[0.336147,0.039565,-0.605398,-0.128706,-1.095764,-0.843585,-0.296682,0.579411,-0.910092,0.407516,1.649687,-0.481903,-0.021084,-0.014308,0.078152,-0.149416,-0.033793,-0.099363,-0.638897,-0.108377,0.017358,-0.021976,0.311718,0.072502,0.239356,-0.845555,0.825601,0.477802,-0.894093,-0.529886,-0.028042,0.094804,-0.590136,-0.18034,0.186289,0.11812,-0.073844],[0.213118,0.0442,-0.607075,0.169215,-0.366143,-1.134406,1.01971,1.121903,0.952425,-0.243851,-0.065484,-0.564683,-0.051586,-0.010974,-0.049361,-0.096161,0.009006,-0.290952,-1.828674,0.020328,-0.081651,0.75528,-0.057102,-0.114935,0.071923,-0.407273,0.026566,-0.012825,-0.149398,0.251396,-0.149861,-0.031103,0.05533,0.05839,-0.00119,0.549922,0.663647],[-0.360092,0.942221,1.875758,-1.435084,0.088155,0.296125,-0.149937,-2.122787,0.489786,-0.283671,0.200316,1.274163,0.064064,0.061489,-0.106429,-0.059572,-0.013092,-0.158907,0.267872,-0.136264,0.110282,-0.161335,-0.260806,0.117859,-0.171522,1.491063,-0.110359,0.042251,0.16185,0.328627,0.066229,-0.194405,0.185842,0.155048,-0.026815,-0.046806,0.29305],[0.05257,-0.112305,-0.101669,0.061006,-0.113111,-0.823899,1.718139,-0.256835,-0.654059,0.275275,-0.128063,-0.221513,-0.223503,0.124996,0.122419,-0.180442,0.006835,-0.057847,-0.885949,-0.087647,0.179793,-0.139181,0.025944,0.063113,0.008336,0.421984,0.923567,0.302706,0.10992,0.095664,0.116772,-0.139516,0.054762,-0.45576,-0.367122,-0.639083,0.403038],[0.040584,-0.046689,-0.171762,-0.101274,-0.097794,0.050567,-0.034807,0.076857,0.000117,-0.168868,-0.004616,0.093919,0.029974,-0.120336,0.053198,-0.030142,-0.143243,-0.120502,0.011568,0.033247,-0.102543,-0.052499,-0.021016,-0.093048,-0.056563,-0.12068,0.109007,0.017069,-0.10541,0.074623,-0.005533,-0.025439,-0.087482,0.03091,-0.019492,0.025861,-0.079362],[-0.075337,0.00703,-0.136525,0.08247,0.065982,0.039133,-0.153973,0.154444,-0.12322,0.090592,-0.140083,-0.064694,0.024536,-0.008229,0.058616,-0.158486,-0.05729,0.036958,0.108754,0.126231,-0.049531,0.022351,-0.105166,-0.033621,-0.016949,-0.080915,-0.154517,0.134333,-0.016839,-0.058323,0.13866,-0.013075,-0.051091,0.05209,-0.011644,-0.019741,0.062038],[0.5243,-0.045297,0.285697,-0.697895,0.066303,-1.103542,-0.308894,0.29053,0.33963,0.764764,-0.619884,0.956575,-0.201743,-0.133924,-0.023619,-0.190662,-0.051436,-0.115307,0.749984,-0.101023,0.066714,-0.158919,0.250038,0.239861,-0.151041,-1.694975,-0.072483,-0.165111,-0.272707,-0.393025,-0.123976,0.166846,-0.462099,0.408599,0.07258,0.321556,-0.255055],[-0.116537,0.010164,-0.210222,1.072223,0.082329,-0.060492,0.950287,-0.159679,-0.708143,-0.348675,0.014911,2.068121,-0.006183,-0.081863,0.070013,-0.001692,0.019796,-0.354384,0.258417,0.064486,-0.032052,0.357785,0.272333,0.145015,0.049113,1.773311,-0.327832,-0.105351,0.046276,0.152612,-0.075511,-0.290646,0.259715,-0.031365,0.108127,0.011673,-0.114188],[-0.102924,0.088352,0.081269,0.06585,0.093862,0.056899,-0.155598,0.051907,-0.052863,0.147139,0.046421,-0.006408,0.029477,0.132165,0.095484,-0.154571,-0.141313,0.15859,-0.123433,-0.135507,0.087997,-0.060003,0.064351,0.004371,0.108205,0.127484,0.135388,-0.045225,-0.043164,-0.137964,-0.072398,-0.086152,0.054528,-0.000207,-0.101809,-0.098952,0.019609],[0.069742,0.111967,-0.095948,-0.130948,-0.104354,0.069625,-0.102893,-0.049671,-0.044284,0.115858,-0.158027,-0.106518,-0.020968,-0.10159,-0.102433,0.072243,-0.159743,-0.115269,-0.037697,-0.01467,0.031714,0.055372,-0.079653,-0.110886,-0.095091,-0.158813,-0.077802,-0.025917,0.135344,-0.015904,-0.083105,0.070002,-0.02519,-0.084615,-0.159166,-0.100441,0.103795],[-0.152867,0.148489,-0.009764,-0.009108,-0.063479,-0.148337,-0.124254,-0.014226,-0.044655,-0.013166,0.046091,0.128479,-0.132327,0.114915,-0.136263,-0.053852,-0.062222,-0.016767,-0.133249,-0.1462,0.152649,-0.15019,-0.122694,-0.152827,-0.120441,0.085384,0.107497,-0.130017,0.104063,-0.008378,0.115467,-0.157461,-0.114434,0.040027,-0.116326,-0.042824,-0.041427],[-1.903296,0.362691,0.189695,0.304561,0.914878,0.357456,0.280768,0.262866,0.468831,-0.426182,0.087219,-2.272339,0.204246,0.044722,0.015066,0.362674,-0.003821,-0.227676,-0.479229,0.116218,0.121013,0.121085,-0.027921,-0.046008,0.284915,0.407767,-0.779361,-0.217416,0.227763,0.470306,-0.000331,-0.226187,0.319159,0.014496,5.6e-05,0.706394,-0.684697],[-0.061964,-0.308417,0.142961,0.629659,-0.201005,-0.37502,-2.787731,1.390036,0.115907,-0.060782,1.742705,-0.253998,0.164958,0.103292,-0.026229,0.157262,-0.005571,0.067977,0.521114,0.128546,-0.001851,-0.359889,-0.226209,0.175192,0.171563,0.462773,0.074539,-0.103845,-0.935553,0.268275,-0.054198,0.160499,0.195634,-0.148539,-0.693092,-0.036102,-0.077796],[0.094105,-0.425874,0.543974,0.166326,0.237595,0.648046,-0.123193,1.275846,-0.247317,-0.877892,-0.875873,2.289827,-0.069844,-0.078226,0.101219,-0.037315,-0.006222,-0.13238,0.281891,-0.054406,-0.047751,-0.047127,-0.090528,0.056624,-0.01519,-1.917772,-0.116118,-0.141469,-0.335149,0.215995,0.036398,-0.147209,0.178598,0.144807,-0.117785,0.078451,-0.026478],[0.509494,-0.155076,-0.236893,-0.019246,0.108686,0.164752,-0.076008,-0.123063,-0.091446,-0.010053,0.002421,-1.570713,0.140264,-0.008745,-0.079315,0.16087,0.015152,0.175372,-0.045815,-0.12924,-0.011289,0.009255,0.026796,-0.018319,-0.055495,0.522935,-0.104316,0.058548,-0.101842,-0.120581,0.097745,-0.075432,-0.296278,-0.071445,-0.083988,-0.101532,0.15875],[-0.278495,-0.66461,1.528283,0.271749,0.073709,0.319275,1.098434,-0.117898,0.255686,-0.628472,-0.865159,-0.830283,0.158748,-0.046931,0.107109,0.213154,0.031308,0.026408,0.533157,-0.029411,0.046871,0.111289,0.092092,-0.023239,0.146414,-1.733763,-0.37656,-0.249148,-0.239302,0.017963,0.079873,0.31996,0.062097,-0.014701,-0.027224,0.332829,0.262283],[0.150908,0.013661,-0.16407,0.495733,-0.427968,0.28332,-0.058656,0.204712,0.298674,0.33413,0.059958,-0.645749,0.180217,0.03466,-0.08388,0.021071,-0.075273,0.04857,-0.740557,0.123191,0.007901,-0.247771,0.035131,0.000424,0.233861,1.368375,0.329747,0.123259,0.171119,-0.405714,-0.091818,0.221624,-0.334022,-1.428187,0.384483,0.511755,-0.730201],[-0.681086,2.016447,-1.876322,0.581837,-0.077736,-0.391667,-0.172868,-0.898595,-0.075175,0.036152,0.841151,0.236423,-0.01824,-0.059713,0.111138,-0.00027,0.108647,-0.191973,0.009751,-0.050621,0.008122,0.325349,-0.081215,-0.065012,0.118687,0.464573,0.573004,0.285319,-0.241432,-0.002505,0.092494,-0.041027,0.145244,-0.150047,-0.028599,-0.051868,-0.379846],[-0.016936,-0.781969,-0.915363,0.439653,-0.191925,0.18466,1.171632,-1.204578,0.451054,1.563339,0.116499,-1.903158,0.050333,-0.156949,0.147187,0.152817,0.018433,0.207064,-0.231591,0.002902,-0.044511,-0.203432,0.143791,-0.003863,0.392967,1.943481,0.109683,0.061172,-0.184588,-0.65566,0.020246,0.162859,-0.821776,-0.148324,0.2401,0.12501,0.145379],[0.848846,0.486133,-0.393745,-0.756324,0.569537,0.405764,0.905116,0.069578,-0.282185,0.134786,-0.189653,0.835746,-0.013355,-0.014959,0.063594,0.045957,-0.037169,0.07591,1.063336,-0.059758,-0.011564,-0.116006,-0.266941,-0.129552,0.175341,-0.779518,-0.78303,-0.378839,-0.604151,0.114278,0.083688,0.015597,0.184627,0.065509,-0.175677,-0.610944,0.36998],[0.624654,-0.285702,-0.525796,0.274504,-0.042107,0.475862,-0.26953,0.084419,0.627608,-0.097205,-0.383892,-0.759713,0.149525,-0.088578,-0.053377,0.091924,-0.015606,0.035368,-0.056395,-0.043183,0.016382,0.092124,-0.020148,-0.048446,0.052968,-0.626137,0.100467,0.045976,-0.181534,-0.098888,0.129424,-0.023358,-0.172668,0.065369,0.460888,-0.021982,-0.226143],[-0.988935,-0.059744,0.295375,-0.718349,0.326545,-0.092388,-0.023112,0.015486,0.139934,0.262648,0.533019,0.048473,-0.007142,-0.127695,0.03407,0.042828,-0.003293,0.123574,1.007336,-0.154623,-0.003242,-0.422529,-0.46027,-0.101017,0.218669,2.954531,0.124353,-0.038918,-0.185164,0.249924,0.132653,0.116444,0.307676,0.030757,0.007499,0.613245,0.124493],[0.049422,0.300264,-1.164443,-0.665582,-0.096601,-0.429106,0.576686,-1.394629,0.744577,1.503766,0.723513,0.593434,-0.083617,0.072355,0.005343,0.075045,0.308846,-0.028603,-0.221795,-0.068324,-0.06073,0.297437,-0.195841,-0.128576,0.292356,-0.84706,-0.020105,-0.021811,-1.206686,0.043181,0.017456,-0.015967,0.050392,0.057384,0.094334,0.269377,0.102203],[-1.028909,0.592305,0.234505,-0.569737,0.343891,0.073433,0.247949,-0.153554,0.00803,-0.607781,0.661825,-0.587652,0.20264,-0.143538,-0.087559,0.213469,-0.025307,0.197092,0.59547,-0.019578,-0.045418,-0.016686,-0.045672,0.017715,0.069456,0.640532,0.224153,0.014861,0.088116,-0.164551,-0.137524,0.167206,-0.098618,0.103447,0.144695,-0.045476,-0.097855],[-0.94443,0.454267,0.008414,-0.415612,0.894376,0.202358,-0.754326,-0.194232,0.678658,0.351061,-0.05094,0.037538,0.255134,-0.009469,-0.099952,0.230045,-0.006787,0.249536,0.628893,-0.137274,-0.032086,0.190882,-0.156971,-0.147481,0.205204,0.274714,-0.224223,-0.032608,-0.380596,-0.505372,0.14257,0.278357,-0.537608,-0.118839,-0.696413,0.105965,-0.064001],[0.81368,-0.023014,-0.661389,0.135045,-0.402935,-1.432132,0.489329,0.540586,0.397218,1.364971,0.268397,-0.221657,0.153912,0.14582,0.066889,-0.041462,0.063511,0.11042,0.443891,0.124792,0.130695,-0.202792,0.182465,0.101451,0.317393,4.292383,-0.547491,-0.294878,-0.790335,0.187938,-0.008175,-0.042282,-0.038645,-0.002033,0.041776,-0.530327,0.479393],[-0.546989,0.459027,-0.333659,0.332774,-0.627646,-0.339642,-0.674754,0.963923,0.814122,-0.296165,-0.568534,0.575564,0.005112,0.133002,-0.075183,-0.116599,0.028344,-0.013091,-0.676904,-0.160759,0.12525,0.225895,-0.219662,0.18298,-0.136777,1.03541,0.610462,0.404881,-0.078889,0.041075,-0.006104,0.170503,-0.00068,-0.393391,0.667683,0.267414,-0.02959],[0.936931,0.142228,0.255909,0.005516,0.742353,0.121407,0.097038,-0.241972,0.084737,-0.471769,-0.781173,-1.404484,0.110766,-0.124148,0.094325,0.045912,-0.014025,0.187577,0.031184,-0.097264,0.058713,-0.018732,-0.056038,-0.003124,-0.061226,-0.450231,0.057197,-0.069149,0.028266,-0.191632,-0.004181,0.102461,-0.33324,0.00114,0.077067,-0.011682,0.176328],[-0.566845,0.110961,0.50526,0.67518,-0.038081,0.323056,-0.492118,-0.974512,-0.765465,0.611098,-0.408983,2.177564,-0.05896,-0.027181,-0.10893,-0.071277,-0.088441,0.034713,0.397975,-0.012873,0.069262,0.290598,-0.110907,0.158576,-0.21847,-0.503117,0.105991,0.143648,-1.118334,-0.144616,-0.078056,0.009796,-0.283843,0.007474,-0.061694,0.111682,0.153861],[-0.306796,-0.455447,0.568483,-0.493249,-0.327735,-0.352435,-0.095354,0.435207,0.48732,0.255933,0.444796,-0.02484,-0.191764,0.050021,-0.060677,0.035097,-0.036364,-0.043881,1.152156,0.032341,0.059508,0.158053,-0.161142,0.258524,0.15674,-3.642109,-0.097516,-0.100243,-0.253202,0.076684,-0.060426,0.070938,0.227325,-0.063935,0.182486,-0.006365,-0.216865],[0.608234,0.150834,-1.704983,0.627778,-0.38087,0.797029,-0.454074,0.759959,0.607812,-1.054332,0.925622,0.237466,-0.145406,0.108485,0.133049,0.062878,-0.046012,0.133697,0.296728,0.021857,-0.264445,0.500995,-0.052929,-0.495684,-0.019763,-4.394601,0.266641,0.212892,-1.255674,0.061741,-0.159002,0.089835,-0.128339,-0.034117,0.111882,-0.473316,-0.680395],[-0.62769,-0.009074,0.090545,0.051722,0.373363,0.165367,0.290893,-0.337547,-0.403565,-0.658705,0.596221,1.310016,-0.082123,0.142516,-0.14966,0.125959,-0.017596,-0.012179,0.246609,0.06279,-0.167769,0.050887,0.136185,-0.226639,0.090335,-0.163945,0.131672,0.180491,-0.422983,-0.01342,-0.054913,0.179657,-0.142574,-0.082777,0.130744,-0.052401,-0.156562],[-0.749801,-0.385273,-0.056798,-0.336281,0.238944,0.370014,0.227115,-1.306142,0.371856,-0.315655,0.570369,0.509274,0.162467,0.061461,0.062157,0.085651,-0.00806,0.043955,-0.568117,-0.126629,-0.081483,0.188237,0.134081,-0.035349,0.214216,0.949849,0.342308,0.295607,0.035261,-0.068574,0.007735,0.121649,-0.094153,-0.315975,-0.627877,-0.410643,0.114188],[-0.144529,0.124307,0.108463,0.087202,-0.1237,0.001724,0.152265,0.03687,0.073453,-0.019849,-0.146008,0.006928,-0.053223,0.102427,-0.010669,-0.035269,-0.143021,-0.090197,0.034205,-0.030243,-0.135429,-0.006377,-0.008555,0.000659,-0.075277,0.04389,-0.100433,0.079192,-0.097752,-0.160169,0.031768,0.089926,-0.073083,-0.082627,-0.043617,-0.085578,0.026345],[0.670425,-0.4281,-0.391093,1.522736,0.433616,1.466956,1.210433,0.578014,-0.934385,-1.077397,-1.071997,-1.727517,0.036797,-0.119439,0.136143,-0.038656,-0.169064,0.227234,0.218932,0.119214,0.023754,0.282786,0.201947,-0.111373,-0.18103,-1.142739,-0.332741,-0.216445,-0.048677,-0.716332,-0.062107,0.160363,-0.80297,-0.061016,0.143738,-0.070663,-0.076924],[-0.05645,-0.591127,1.234809,-0.003412,0.348133,-0.123869,-0.982691,0.287385,-0.654015,0.313046,0.311279,-0.393251,0.094683,-0.126367,-0.012404,0.134628,-0.053329,0.169204,0.981579,0.063465,0.223193,0.049243,0.308928,-0.000806,0.065634,2.872874,-0.127065,-0.192215,0.020297,-0.069547,-0.079194,-0.028998,0.090832,-0.616449,-0.08467,0.101187,-0.454972],[0.413898,-0.645834,0.22995,0.832359,-0.043018,-0.368415,0.359316,-0.241331,0.342712,-0.065314,-0.061018,0.356741,0.133236,-0.094611,-0.000735,-0.022606,0.041273,0.006547,-1.254079,-0.101948,0.072175,0.133908,0.031358,-0.001029,0.107334,-0.948485,0.008349,-0.076232,-0.024761,0.27845,-0.040216,0.034747,0.296997,-0.902508,0.518971,-0.202975,-0.481262],[-0.824428,0.856692,-0.058455,0.319576,0.25324,0.662712,0.083386,-0.160046,0.122,0.377721,-0.493895,0.312187,0.149216,-0.041983,-0.131772,0.284783,-0.055237,0.317312,-0.007973,0.001788,-0.025576,-0.469626,-0.117293,-0.228115,0.199976,-1.764955,0.039442,0.017095,-0.061911,-0.175052,-0.10631,0.034479,-0.192103,-0.047808,-0.035769,0.117872,0.367229],[-0.439916,-0.549535,-0.418267,0.213246,-0.31613,-0.299728,-0.132586,-0.159694,-0.396451,-1.296057,2.883586,-0.787359,0.111998,0.072128,0.007728,-0.093988,0.013567,0.197187,-0.178373,0.095847,-0.100686,0.312471,0.055371,-0.050698,0.312246,-0.308382,0.05359,0.134622,0.124656,0.032776,-0.12202,0.156891,-0.079123,0.248965,0.134868,0.097418,-0.104897],[0.399079,0.551923,-0.099701,-0.200615,-0.633346,-0.270229,-0.054799,-0.783608,-0.234007,0.013765,0.74562,-0.104998,-0.163093,0.062558,-0.086294,-0.172625,0.016524,0.055544,0.29843,-0.057553,0.180632,-0.194651,-0.102928,0.185802,0.06538,2.208225,0.451946,0.203008,-0.123375,-0.225216,0.037169,-0.097205,0.020793,-0.349515,0.187518,-0.257161,-0.031225],[0.857837,-0.342502,-0.445076,-0.368928,0.600637,-0.743588,0.313226,-0.688963,0.410851,-0.417977,0.195668,-0.202344,0.009567,-0.138407,-0.054048,-0.068223,-0.005713,-0.078079,0.461847,-0.149268,0.065915,0.240245,0.139485,-0.095061,-0.163557,-3.286251,0.175212,-0.076096,0.074366,-1.068629,-0.089046,0.046367,-1.107923,-0.008207,0.082131,0.332886,0.168035],[-0.093139,-0.135557,0.017913,-0.094887,-0.02868,0.009283,0.090264,-0.168575,0.142193,-0.140914,-0.132685,-0.129169,-0.079507,-0.157768,-0.129868,0.006669,0.015453,-0.043542,-0.053843,-0.086827,-0.074588,0.098285,-0.049403,-0.031564,0.020879,-0.065351,0.034328,-0.063715,-0.071325,-0.024617,-0.147431,0.12285,0.077185,-0.025713,-0.111757,0.017325,-0.158613],[0.093508,0.035765,-0.111997,-0.713885,-0.665826,-0.162206,-0.998802,0.319523,0.434094,1.743079,-0.487199,0.459183,-0.059862,0.087553,0.092347,0.025493,-0.037078,0.021931,-0.997019,0.142115,0.015693,-0.301877,0.485231,0.148379,0.046208,-1.782559,0.601617,0.280664,-0.273952,0.057301,-0.102603,0.01866,0.062759,-0.07733,-0.234963,-0.203679,0.16095],[0.07387,-0.054815,0.037789,-0.027708,-0.006185,0.049402,-0.086692,0.052115,-0.022209,-0.091791,-0.144885,0.087713,-0.171855,-0.124973,-0.087731,0.121403,-0.067236,-0.015962,0.063289,0.050056,0.008463,0.101883,-0.081481,-0.089951,-0.155372,-0.152642,0.048882,-0.10695,-0.129392,0.097805,0.000536,0.04714,-0.167077,-0.041214,-0.007055,-0.05032,-0.118075],[-1.003164,0.279097,-0.09487,-0.467249,0.470386,-0.177055,0.820544,-0.338642,-0.54728,-0.378925,-0.009212,2.288781,0.072771,0.139771,0.003999,-0.160946,0.01735,-0.290031,-0.007306,-0.040306,-0.099743,0.049155,0.064532,0.07877,0.083545,-1.655466,0.692301,0.430295,-0.319054,0.220578,0.092517,-0.290838,0.133813,0.073276,0.153563,0.132099,-0.037561],[-0.48619,-0.557521,0.372353,-0.622847,1.076584,1.16986,0.216531,-0.378232,1.314063,-0.725031,-1.674899,0.797046,0.119719,-0.13312,0.022709,0.035936,-0.018791,-0.013324,-1.187018,-0.040065,-0.480253,0.925425,-0.467432,-0.234552,-0.118706,-1.162854,0.225012,0.22408,0.010758,-0.24088,-0.00566,-0.019027,-0.161003,0.097411,-0.724851,0.227659,-0.147329],[0.838992,-0.407768,-0.422442,0.152927,0.070521,0.001373,-0.180296,-0.264528,-0.600415,0.118882,0.85779,-0.745729,-0.149619,0.122605,0.143972,-0.142676,0.008424,-0.846166,0.507672,0.126947,-0.137197,-0.109378,-0.032678,-0.019645,-0.035202,0.508571,0.618665,0.340502,-0.693005,0.180933,0.076259,-0.769831,0.198342,-0.017699,-0.008272,-0.000996,0.538751],[-0.088487,0.001955,0.287884,0.532114,-0.068228,0.040003,0.215777,-0.444525,1.259835,-1.612811,-0.590292,2.199333,-0.15496,0.112814,0.06672,-0.086814,-0.105102,-0.223176,0.134237,0.025319,-0.104248,-0.100175,0.108189,-0.098474,-0.033311,0.12267,-0.068029,0.099577,0.361976,0.235307,-0.092678,-0.177349,0.096799,-0.049951,0.055135,-0.046926,0.045923],[-0.398962,-0.234406,1.263591,-0.745623,-0.067525,0.401321,0.0206,-0.170216,0.430185,0.890015,-1.409539,-0.910432,0.108454,-0.04832,0.14131,0.092389,-0.023955,-0.036693,0.252887,0.105971,0.065833,0.574288,0.149411,0.18598,-0.12531,-1.843355,-0.031857,-0.109633,-0.106477,-0.467934,0.114968,0.190657,-0.358896,-0.158357,0.056318,-0.896305,-0.164449],[-0.12378,-0.630868,-0.282713,0.962477,-0.876818,-0.444893,0.246157,0.233372,-1.139004,-0.208938,2.147382,2.132349,0.004778,-0.012053,-0.063286,0.028713,-0.032968,-0.014206,-0.203677,0.074272,0.004494,-0.117877,0.270597,-0.377176,0.23195,1.381315,0.156568,0.235961,-0.266999,0.021222,0.068196,-0.074044,0.208417,0.137196,-0.17494,-0.059564,-0.036357],[0.013443,0.037324,-0.187876,0.373677,0.095583,0.088415,0.207053,0.293054,0.081388,0.056553,0.160202,-0.068361,0.013003,-0.009424,-0.006735,-0.039561,0.001823,0.067706,-2.044316,-0.097589,0.164396,0.197484,-0.117612,-0.075024,0.254585,-3.190037,-0.057478,-0.054956,-0.091504,0.45112,0.075914,-0.036805,0.683607,0.061077,0.167792,-0.078762,0.514822],[-0.971649,0.430775,0.408275,0.437494,0.134005,0.556966,-0.02343,0.229933,-0.147531,-0.112725,0.412154,-0.00601,0.353123,-0.159376,-0.115127,0.26073,0.013216,0.217588,-0.131626,-0.14516,-0.069363,-0.052641,0.091142,-0.002213,0.097038,-0.650244,-0.25179,0.008009,0.033928,0.079785,0.037737,0.286142,0.173167,0.049939,-0.040044,-0.017136,0.036722],[0.046338,-0.348267,-0.809783,1.016615,-0.204599,-0.909207,0.629681,0.486768,0.15654,0.292177,0.519914,0.168262,0.096448,-0.076828,-0.086772,0.086541,-0.017539,0.02371,-1.124663,-0.085158,0.095568,-0.00981,0.253566,0.111697,0.258063,-0.20185,-0.276597,-0.07396,-0.060538,0.162896,0.064888,0.256844,0.00378,0.012093,0.156408,-0.092039,0.033125],[0.14793,-0.030796,0.089835,-0.10337,-0.125303,0.027154,0.070539,-0.120564,0.07307,-0.137891,-0.118081,-0.06133,-0.144992,-0.096538,-0.016167,-0.127629,-0.159095,0.13817,-0.007877,0.143405,0.015393,0.044069,-0.083839,-0.139867,0.143689,-0.070792,-0.152376,-0.163715,-0.051975,0.1018,-0.012741,-0.042656,-0.129239,0.07502,0.049515,0.032481,0.070898],[-0.140443,-0.051071,-0.096164,0.107577,-0.102538,-0.085513,-0.072959,-0.111925,-0.052759,-0.046439,0.091585,0.010835,-0.034686,0.047762,0.105543,-0.026382,-0.125133,0.125977,0.105984,0.020869,0.08776,-0.095038,-0.010597,-0.054328,0.057632,-0.100496,-0.037657,-0.123364,-0.027246,-0.022165,0.100625,-0.148425,0.085041,-0.01995,-0.077059,-0.026149,0.115704],[0.029928,0.115952,-0.015021,0.072539,0.13,-0.027079,-0.026688,-0.040267,0.103439,0.142095,-0.019679,-0.008696,-0.136741,-0.158621,-0.118162,-0.135053,0.064525,-0.127676,-0.150626,-0.074223,-0.058495,-0.10336,-0.098171,-0.051772,-0.114923,-0.141605,0.07014,-0.061053,-0.060153,-0.112283,0.05305,-0.060091,-0.019734,0.054102,-0.147205,0.017619,-0.141819],[0.99405,-0.026548,0.230397,0.091646,-0.676446,-0.233586,0.363716,0.355822,0.184826,-0.007692,0.514574,-0.035108,-0.005588,0.059608,-0.132061,0.121211,0.00905,0.200784,0.321561,-0.110136,-0.14349,-0.536639,-0.331812,-0.483313,0.14965,-2.109401,-0.074468,-0.038935,-0.136928,-0.233102,0.065887,0.151128,-0.062169,-0.074109,0.264281,-0.46769,-0.560059],[1.439025,-0.091845,0.080965,-0.017391,-0.043848,-0.099015,0.815808,-1.195456,-0.007756,0.043608,0.717597,0.107491,0.095908,-0.051209,-0.107709,0.030821,-0.017079,-0.014084,-0.178261,0.042469,0.133525,0.063948,0.131009,0.065243,0.016217,-0.837661,-0.482154,-0.44483,-0.477516,0.007801,-0.054899,0.034926,-0.031881,-0.185291,-0.125004,0.038729,-0.067412],[0.685852,0.12493,-0.398012,-0.096062,-0.021257,-1.094168,0.813626,-0.189881,-0.309103,0.672934,-0.305354,0.018603,-0.031947,-0.055723,-0.023448,-0.215776,0.004452,-0.185998,-1.190766,0.006169,0.102171,0.118634,0.302974,0.272548,-0.226435,-3.187729,0.487543,0.34858,-0.082131,0.258375,-0.154652,-0.376855,0.083395,-0.139374,0.129855,-0.369424,-0.417235],[-0.500131,0.776556,0.564781,-0.062843,-0.08667,0.101958,-0.082404,-0.338461,0.163155,0.337491,0.171124,-0.445375,0.341253,-0.076896,0.049107,0.30256,0.030432,0.297876,-0.578012,-0.090617,0.171735,0.040575,-0.14204,0.087448,0.214292,-1.038719,-0.324403,-0.175478,0.143385,-0.0342,0.12764,0.31509,0.019306,0.029266,0.147482,0.051011,-0.112553],[1.004189,-0.171936,0.419972,-0.16717,0.445498,-0.284922,-0.197445,-0.454188,0.197996,-0.084238,-0.03999,-0.059961,-0.034971,-0.065297,-0.109781,-0.148213,-0.017075,-0.159732,0.24716,-0.104255,-0.114709,-0.18958,0.056644,0.092387,-0.043783,1.823646,0.437637,0.150591,0.075374,0.015186,0.148138,-0.244646,0.097889,-0.013487,0.022326,-0.090141,-0.025437],[0.10317,0.089051,-0.036288,0.027646,0.062107,0.020771,-0.089097,-0.027025,-0.006671,0.044825,0.071223,0.030417,-0.137438,-0.115274,-0.052664,-0.115642,-0.066404,0.103676,-0.133668,0.06155,-0.059487,-0.119195,-0.075932,-0.129785,-0.132899,-0.123578,-0.089379,-0.037485,0.024824,-0.055591,0.110934,-0.090631,0.052526,-0.073821,-0.09875,0.066178,0.070544],[0.5714,-0.090134,0.159762,-0.69108,-0.26955,-0.300073,-0.067354,0.266497,-0.916869,0.211082,0.684235,0.626067,0.076389,0.041843,0.014385,-0.050176,-0.044954,-0.162993,0.182457,0.058281,0.010242,0.366497,0.152662,0.189144,-0.19434,1.140528,0.046371,-0.087788,0.016459,-0.246919,0.051108,-0.164675,-0.093822,0.118701,0.777813,-0.436903,0.016422],[0.032693,-0.38506,1.767344,-1.185263,0.302062,-0.560722,0.47391,-0.778944,-0.059645,1.15075,-0.161748,-0.396912,0.185517,-0.154625,0.024756,-0.055896,-0.017592,0.12262,-0.033811,0.153885,-0.053648,0.292503,-0.528271,-0.276955,0.211531,1.583851,-0.48457,-0.059011,0.522336,-0.036011,-0.159368,0.236537,-0.013693,-0.339716,-0.297843,0.23763,0.31398],[-0.097043,-0.070614,0.124512,0.093719,0.03121,0.048369,-0.000675,-0.044011,0.10953,-0.048467,-0.136867,0.159748,-0.135367,0.151942,0.09853,-0.154575,0.113881,-0.03257,-0.033307,0.011329,-0.046914,0.032002,-0.025935,0.059736,0.117711,0.101843,-0.031162,0.03535,-0.154637,-0.146648,0.090444,-0.046316,-0.065724,0.150756,0.000879,-0.028117,0.012345],[0.606226,-0.462288,-2.147949,0.062826,0.354712,-0.859006,1.545384,0.144224,-1.229392,1.457322,0.638551,0.687345,-0.221074,0.008321,0.143118,-0.022599,-0.225713,0.043078,-0.119587,0.101429,0.061722,0.300784,-0.22132,0.166366,0.010139,1.522853,-0.329576,-0.119698,0.286909,-0.07686,-0.152913,-0.1385,-0.020749,-0.306727,0.050296,0.289992,-0.161763],[0.504518,-0.007501,-0.176748,0.702384,0.393012,0.356756,0.153193,0.288802,0.179362,-0.342603,-0.229356,-1.23168,0.216736,0.000982,0.142258,0.142918,-0.005687,0.273296,-1.530532,0.1123,-0.01071,0.43262,-0.022085,-0.049167,0.097413,-0.741045,-0.128605,0.00186,-0.112048,-0.122246,-0.127141,0.169415,0.12429,-0.417113,0.157837,-0.253995,0.005869],[0.914062,-0.59734,-0.286952,0.178995,-0.76184,-0.651214,-0.083188,-0.859823,-0.279711,-0.887099,1.708723,0.405612,-0.307319,-0.086425,-0.031523,-0.344563,-0.00944,-0.240911,0.396275,-0.057855,-0.193096,0.035065,-0.128651,-0.020872,-0.260999,-0.873909,0.530696,0.356364,0.32997,-0.603012,-0.058646,-0.251863,-0.559876,-0.283669,-0.034777,0.106634,-0.106058],[0.720451,-0.23521,0.043608,0.240719,-0.69263,-0.655238,0.392406,-0.382795,0.402073,0.22309,0.445702,0.113534,0.100605,0.11845,-0.159519,-0.082424,-0.019183,-0.052209,-0.131762,-0.155311,0.138769,-0.578487,-0.353863,0.207015,0.121683,0.878749,0.380081,0.352921,-0.151496,-0.160238,-0.020371,0.082559,0.005951,0.253496,-0.060403,0.025459,-0.164016],[-0.926788,0.497846,-0.470109,0.392636,0.505711,-0.075581,0.117645,0.471484,0.777435,-1.85095,1.007394,0.223293,0.049473,0.014643,-0.056576,0.139914,-0.057222,0.17813,0.872047,-0.088248,0.014456,-0.269366,0.136961,0.047081,0.156692,-0.958951,-0.203269,-0.014145,-0.311027,-0.515307,-0.145013,0.210599,-0.53002,-0.46229,0.685654,0.016309,-0.009939],[0.720616,0.053793,0.451127,-0.044541,0.364157,-0.213637,0.06015,-0.317051,-0.485128,-0.372508,-0.384673,-1.139403,-0.142412,0.029601,-0.098328,-0.085476,0.013078,0.058731,1.467245,0.112262,0.15038,-0.314333,-0.041753,-0.043486,-0.201764,-0.441104,-0.041747,0.042795,0.320251,0.041533,-0.02419,-0.062343,-0.093076,0.038402,0.440048,0.032849,-0.132833],[0.917653,0.00111,-0.790639,0.476136,0.071221,-0.264828,0.293568,0.211093,0.054119,0.349259,-0.640174,0.003211,0.117423,-0.023738,0.135079,-0.041,0.107954,0.051031,-0.847138,-0.098026,-0.089502,0.294093,-0.263838,0.049428,-0.136208,1.221017,0.234793,0.061857,-0.048062,-0.280217,0.050507,-0.074648,-0.281538,-0.057493,0.276209,0.394213,-0.032423],[-0.759562,0.568869,-0.394807,0.226271,0.341386,-0.15586,0.378333,0.417951,-0.175058,-0.53967,-0.109725,-0.392324,0.109567,0.055186,-0.025163,0.071604,-0.033227,0.067591,0.648691,0.084877,0.207627,0.004619,-0.113355,-0.023181,-0.139074,0.486691,0.128986,0.231293,-0.339205,0.022338,0.127955,0.141153,0.041589,0.202884,-0.302415,0.134308,0.103274],[1.36799,-0.011248,-0.445579,-0.381357,-0.58244,0.049534,0.079909,0.500821,0.296266,0.330582,0.526064,-1.3189,0.053354,0.137402,-0.017332,0.001072,0.007543,0.072427,-0.243398,-0.16057,0.085996,0.056476,-0.027166,-0.101427,0.241953,-5.249465,-0.076983,0.086172,-0.446285,-0.483936,0.00682,0.168991,-0.278292,-0.269206,-0.793194,0.11267,-0.837744],[0.065934,0.416061,0.237571,-0.571966,-0.367098,-0.124563,-0.176451,0.001347,0.978356,0.150383,-0.727995,-1.947982,0.079046,-0.011191,-0.018891,0.117551,-0.035858,-0.031625,0.739735,-0.015397,0.187466,-0.079967,-0.001116,-0.097609,0.028882,-1.412394,0.020925,-0.002202,-0.366295,-0.108732,0.043862,-0.038469,-0.078744,-0.013788,0.008565,0.511127,0.300047],[-0.153176,-0.305286,0.316259,0.963899,-0.579528,0.320619,0.033303,0.092548,-0.574931,-1.030174,0.89159,-0.975314,0.034026,-0.077532,0.022526,-0.023125,0.045247,0.037714,0.252309,0.061686,-0.04804,-0.236831,0.046643,0.052449,-0.065166,0.102437,0.423043,0.336552,0.285561,-0.240283,0.103005,0.083749,-0.11001,-0.221214,0.282097,-0.098164,0.357987],[0.695946,-0.521143,0.455246,-0.467667,-0.832796,-0.509341,-0.592134,0.712735,0.453135,0.542798,-0.405653,-0.040242,-0.101872,0.124083,0.119043,-0.108328,0.013549,0.058533,-1.290112,-0.05925,-0.128386,0.330117,0.055766,-0.047912,-0.214542,0.022406,0.7251,0.431807,-0.254714,-0.043576,-0.088785,0.012091,-0.280209,-0.002403,0.023384,0.213855,-0.164546],[-0.224375,0.28798,-0.050102,0.217111,0.357602,-0.011673,-0.155604,0.604633,0.174812,0.246838,-0.023241,0.909633,0.082364,0.058317,-0.019369,0.307994,-0.024638,0.148775,-0.887474,0.15341,0.082813,-0.077805,-0.108011,-0.0003,0.178756,-1.586772,-0.317108,-0.077389,0.034907,0.257023,-0.085589,0.0353,0.045369,0.031129,0.162229,0.033711,0.249761],[-0.600708,0.45912,0.254082,-0.620456,0.445467,0.460508,0.555066,-0.559882,-0.827984,0.294033,0.401216,-0.393869,0.133389,0.108946,0.023012,-0.021857,0.10777,0.174187,-0.310636,-0.10441,0.122958,0.085347,0.169094,0.100706,0.102476,-1.313578,0.004423,0.076917,-0.347858,-0.236431,-0.002365,0.263302,-0.188279,-0.180729,-0.021244,0.15966,-0.111428],[0.697963,-0.157451,-0.234501,0.059869,-0.331054,0.219373,-0.369689,-0.221118,0.245465,0.12112,0.034998,0.943028,-0.007602,0.094969,-0.112581,-0.121003,-0.021242,-0.13372,0.223787,-0.062378,-0.012685,-0.021079,-0.053612,0.023951,0.00948,0.294263,-0.160981,-0.194427,-0.03096,0.096019,-0.150105,0.050625,0.028628,0.073684,-0.22814,0.320215,-0.440813],[0.76716,0.168216,0.397698,-0.29013,0.107277,0.145629,-1.033028,0.468199,0.119028,-0.450232,0.168458,-0.424101,-0.013717,-0.157783,-0.137942,-0.088366,0.068187,0.02476,-0.178461,0.088868,-0.039405,-0.185565,0.244583,-0.225917,0.078939,1.096628,0.147674,0.221541,-0.102404,-0.018044,-0.059541,0.156184,-0.186598,-0.041445,-0.676689,-0.092417,0.044929],[-0.862143,0.270475,0.24657,0.383121,0.107662,0.008356,0.111039,0.287026,0.420208,-0.149187,-0.362927,0.827706,0.094282,0.085305,-0.009594,0.169689,0.016619,0.145451,-0.005666,-0.036315,-0.093273,-0.045515,0.043278,0.061091,-0.091783,-0.273348,-0.173472,-0.101031,0.17401,-0.199214,0.128241,0.199153,-0.154151,-0.101099,0.085189,0.015312,0.075001],[0.331168,0.64606,-0.352575,0.262506,-0.356664,0.375811,0.027389,-0.228803,0.382945,0.637047,-0.111445,-0.027115,0.06387,0.098236,0.152848,0.174999,0.028605,0.214064,0.395449,0.060265,0.179151,-0.231092,0.251626,-0.020412,0.080112,-1.306065,-0.968843,-0.518034,-0.054222,0.186837,0.12949,-0.035217,0.184407,-0.079569,-0.004364,0.209718,0.566865],[-0.530815,0.193518,-0.128586,0.056505,-0.025322,-0.195488,-0.165337,-0.127742,0.067217,0.701302,0.147328,1.636876,-0.01391,-0.118979,-0.121261,-0.004905,-0.014284,-0.04503,0.018769,-0.158388,0.102674,0.14263,-0.01446,-0.003991,0.028043,0.563365,-0.051759,-0.15761,0.305189,0.172688,0.025848,-0.069246,0.044999,-0.039695,0.042606,-0.086432,0.00393],[0.43402,-0.794956,-0.015181,0.437784,-0.341399,-0.507033,0.500999,-0.009899,0.171971,1.413955,-2.21398,0.262928,-0.105418,0.081006,-0.00524,0.032191,-0.009928,-0.461448,-0.476078,-0.071318,0.029156,0.263717,0.116185,0.08862,-0.13944,1.834862,0.163288,-0.054077,0.066063,0.223826,-0.085967,-0.254731,0.055945,-0.335439,0.101828,0.413173,0.039755],[-0.802605,0.724265,-0.559703,-0.060652,-0.082317,0.235562,0.788801,0.588326,0.152301,-0.533772,-0.572265,0.683065,-0.072935,0.011242,0.115782,0.024254,0.120217,0.070693,0.779228,-0.041092,-0.000521,0.05431,-0.213615,0.010276,0.150963,0.412996,0.006441,-0.035283,0.035517,-0.39712,0.110562,0.154483,-0.504865,0.508059,-0.079564,0.000487,0.026312],[0.055287,-0.065316,0.015845,0.015128,-0.044203,-0.118788,-0.102797,0.00487,-0.086966,0.007308,-0.002191,0.05108,0.109541,0.04014,-0.021733,-0.005966,0.013668,-0.122747,-0.051595,-0.073958,-0.050261,0.148791,-0.031178,-0.04535,0.016766,0.062038,-0.109232,-0.075803,0.026882,-0.047131,-0.02582,-0.152201,-0.146689,0.021693,-0.033646,-0.140497,0.056657],[1.397345,-0.191053,-0.296692,0.725549,0.408626,-0.282579,-0.201696,-0.509639,-0.108521,0.198843,-0.306418,0.208647,-0.15977,-0.149731,0.030688,0.071711,-0.001337,-0.164413,-0.553278,0.081521,-0.062069,0.058429,0.080191,0.018346,-0.235357,0.662644,0.15564,0.166625,-0.383099,-0.119526,-0.126787,-0.104998,-0.21795,-0.06786,-0.402432,-0.093229,-0.399829],[-0.364327,-0.249799,-0.660626,0.540637,0.317416,0.951475,-0.814981,0.159094,-0.875028,0.525644,0.244405,2.262661,0.119184,0.149474,-0.111339,0.077417,0.049605,-0.184645,-0.080349,-0.074292,0.057143,-0.026609,-0.097987,-0.074266,0.112751,1.098332,-0.095587,0.0385,-0.27973,0.026315,-0.114085,-0.198362,0.260264,-0.050037,0.100605,0.000802,0.301695],[-0.975224,0.39118,0.487603,0.085099,0.216547,0.132403,0.163213,0.136564,0.177699,0.07687,0.276454,0.033144,0.075768,-0.070198,-0.114139,0.367966,0.001622,0.381778,-0.000435,-0.035963,0.191049,0.009375,-0.039913,-0.083572,0.097966,-0.01508,-0.509948,-0.153982,-0.121086,0.188544,-0.11031,0.38063,0.292986,0.019252,-0.00564,-0.009575,0.008144],[-0.077399,-0.605721,-0.407298,0.55211,0.90958,0.966396,-1.363604,1.184644,-1.008103,-2.015613,1.931489,0.050328,-0.083393,0.00486,0.09641,-0.04446,-0.001399,-0.087412,-0.002137,-0.068806,0.208473,-0.249604,0.401555,-0.139617,0.111302,0.702155,-0.050329,0.110147,-0.353875,0.210503,0.044594,-0.183772,0.233421,0.297928,0.072323,0.466474,0.454422],[-0.091092,-1.092534,-0.317376,0.071328,0.055301,-0.014983,1.278734,-0.70864,-0.464826,2.393884,-1.205198,-1.117297,-0.021031,-0.115546,0.135762,0.0314,0.070799,0.039317,-1.016634,-0.148982,0.181558,0.132612,0.113854,0.051705,0.119165,-0.941816,0.588222,0.460609,-0.576111,-0.077277,0.135631,0.007941,-0.099128,0.218152,-0.145235,0.115352,-0.162456],[-0.955406,0.043474,-0.095723,0.020201,0.370789,0.74835,0.364303,0.244559,0.160082,-0.041325,-0.217274,1.823591,0.047253,0.069956,-0.015119,0.273215,-0.004901,-0.266965,-0.331162,-0.072178,0.084626,0.035119,-0.057174,-0.060815,0.061978,-0.265517,-0.551602,-0.314438,0.087883,0.578185,-0.091108,-0.281462,0.450923,-0.006994,0.002453,0.074025,0.995153],[-0.76588,0.304909,0.343003,0.529578,0.213328,0.271239,0.100862,0.357397,-0.497636,0.08672,0.479953,0.573111,0.363083,-0.098099,0.044584,0.315097,-0.011964,0.258216,-0.07186,0.007192,0.08103,0.036069,-0.009507,-0.071963,0.233937,-0.035623,-0.386996,-0.268836,-0.287195,0.232473,0.160632,0.170734,0.109483,0.020522,0.015613,-0.0063,-0.013238],[-0.407137,-0.36296,-0.320644,0.170762,0.886471,0.600003,0.054707,-0.212092,-0.318879,0.38544,-0.670514,1.822997,-0.112665,0.012781,-0.150749,0.115274,-0.015466,-0.236863,-0.004242,0.0979,-0.145147,-0.429345,0.021325,-0.039107,-0.076289,-3.411112,0.075408,0.21078,0.126377,0.290632,0.021389,-0.14522,0.157934,0.029617,0.289196,0.388057,0.569151],[-0.109114,0.144129,-0.072443,-0.127325,-0.149332,0.128978,-0.075784,-0.159916,-0.117154,-0.016308,-0.101597,0.061674,0.050132,-0.047018,-0.008736,-0.085514,-0.016689,-0.144711,-0.054406,-0.045476,-0.097851,0.00859,0.059846,-0.036898,0.143802,0.099742,-0.058235,-0.034926,0.072834,0.047171,-0.084904,-0.139628,-0.073715,0.051699,-0.055454,-0.089228,0.047397],[-0.262325,0.387905,0.377794,0.375179,0.546837,-0.142525,0.040478,-0.068664,0.227999,0.12817,-0.00367,-1.631696,0.154823,-0.029744,-0.154281,0.251959,-0.007345,0.156118,0.220077,-0.045774,0.241323,0.029193,0.084493,-0.025203,0.074626,0.289717,-0.634336,-0.348567,0.47845,0.005257,-0.122433,0.35585,0.074793,0.054807,-0.01358,-0.007832,0.509684],[1.050483,-0.522282,-0.553142,-0.150013,0.208876,-0.422895,0.745853,-0.57851,-1.268571,-3.699263,3.783248,-0.394732,0.015241,0.029981,0.026779,-0.043373,-0.020797,0.009986,-0.032711,0.149578,-0.01256,0.279971,-0.213875,0.024062,-0.142549,-0.376989,0.11359,-0.189607,0.441451,-0.134382,0.000417,-0.009641,-0.340118,0.047078,-0.017196,-0.025876,-0.243077],[-0.006321,-0.086745,-0.055782,0.061445,0.056992,-0.065681,-0.155684,-0.0168,-0.154443,0.055352,-0.04928,0.044171,-0.140299,0.079138,0.09414,-0.076256,-0.002427,-0.056131,-0.165451,-0.132998,-0.162038,-0.012362,0.046767,-0.096946,-0.038458,0.05427,-0.123692,-0.008115,0.051672,0.114587,0.101591,0.011336,0.063504,0.046596,-0.155945,0.029551,-0.078195],[-0.104629,-0.15137,0.134442,0.049491,-0.000246,-0.021473,0.009205,-0.065502,-0.037728,0.092491,-0.089426,0.111854,0.095165,0.027995,-0.124374,-0.089647,0.109241,-0.158245,-0.135231,0.019031,-0.004679,-0.100177,0.148149,-0.037046,-0.140186,0.031009,-0.093765,0.01614,-0.062442,-0.111517,-0.064277,0.045269,0.14113,-0.057544,0.117912,-0.105862,0.105552],[-0.179623,-0.309029,0.576041,-0.074534,1.400104,0.454783,0.034884,0.452429,-0.680516,-1.994188,0.066219,0.174682,0.060705,0.105831,0.076222,0.161086,0.089153,0.117013,0.159656,-0.0823,-0.234343,0.131483,-0.271476,-0.08155,-0.034624,-0.434927,0.01378,0.113492,-0.517349,0.203604,0.038736,0.013241,0.194213,0.204994,0.350488,0.011307,-1.184663],[-0.060341,-0.169584,0.043614,0.076521,-0.0372,0.088781,-0.07446,-0.076158,-0.082373,0.138765,0.016939,0.121763,0.126864,0.099983,0.088483,0.134505,-0.091394,-0.107245,-0.043451,-0.021263,0.018474,-0.096931,0.012918,-0.143899,-0.162541,0.130738,-0.096511,-0.082726,-0.156932,-0.120184,-0.103607,-0.134845,0.085999,0.115235,-0.071561,-0.154254,-0.006871],[-0.307238,0.526117,-0.479847,0.442077,-0.318953,-0.325562,0.104148,0.717048,-0.198486,-2.328664,3.296691,0.208211,0.064126,0.092253,-0.083783,0.167259,-0.044017,0.011315,-0.649903,-0.004232,0.185322,-0.704132,0.22874,0.076223,0.230667,-0.562698,0.048212,-0.068982,0.216505,0.205956,0.028613,-0.07314,0.072312,0.200422,0.054736,-0.033312,-0.22067],[0.361643,0.019721,-0.429168,0.075757,0.123327,0.18644,0.060585,0.094016,0.568941,-0.013608,0.110991,-0.002908,0.035404,0.09766,-0.018724,0.151119,0.005119,0.198703,-1.297049,-0.015416,-0.104653,-0.274139,-0.038114,0.059229,0.217707,-7.626652,-0.504868,-0.25005,0.051144,-0.066586,-0.045863,0.175237,0.167437,0.065145,0.096454,-0.082342,0.892418],[-0.758544,0.244478,0.073961,0.869975,-0.047281,0.128612,0.2489,0.338271,-0.184313,0.732395,-0.532656,0.645466,0.086541,-0.122224,-0.039008,0.051879,0.043708,0.300603,-0.263971,-0.118805,0.18316,0.034665,0.168592,-0.026803,0.052621,1.687473,-0.186986,-0.073463,0.126993,-0.117329,-0.017695,0.074683,-0.161875,-0.073732,-0.060485,0.036344,0.193622],[-0.260794,-0.219609,0.024884,-0.297797,-0.410598,-0.295139,-0.56155,0.18832,1.638635,0.885733,-1.155408,0.125591,-0.151858,-0.075821,0.158278,-0.20948,-0.015278,-0.065061,0.809642,-0.136199,0.162465,-0.161565,0.282321,0.128631,0.012135,2.886901,0.23681,0.173615,-0.164264,-0.188627,-0.082037,0.163378,-0.083393,-0.068358,-0.040393,0.097743,-0.002406],[-0.697389,0.144247,-0.070164,0.094564,-0.220931,0.662341,0.229617,0.876279,-0.831146,-1.58314,1.522174,0.149953,0.052017,0.018506,0.047706,0.058778,-0.020257,0.021373,0.876281,0.059825,-0.03897,-0.11399,-0.256825,0.04956,0.147256,0.326054,-0.15465,-0.146753,0.472082,0.266315,0.055261,-0.060101,0.313299,-0.193831,0.015845,-0.165339,-1.13177],[-0.791356,0.220301,0.630207,-0.023234,0.129438,-0.206578,0.361044,-0.161555,0.718368,-0.643914,0.291436,-0.749635,0.190381,-0.08341,-0.082382,0.122537,-0.084765,0.273463,-0.046754,0.064618,-0.116606,-0.025948,0.123816,-0.073423,0.248163,1.201054,0.156858,0.321094,-0.51103,-0.128609,0.105429,0.148168,-0.238945,-0.016677,-0.146762,-0.032557,0.059737],[-1.026649,-0.463446,0.560626,0.450548,0.578057,0.386365,0.86628,-0.85418,-0.202667,0.099851,0.172207,-0.302901,0.068642,-0.061516,-0.050998,0.305747,0.092682,0.115924,0.479709,-0.013387,-0.020429,-0.409003,0.131911,-0.277901,0.300152,-0.092043,0.114872,0.254946,-0.163359,0.154443,0.106732,0.087838,0.204976,0.135772,0.137686,-0.106427,0.292466],[-1.070166,0.428473,0.272334,0.23038,0.133771,0.073595,0.152092,0.066781,-0.014633,0.052614,-0.124495,0.861242,0.276823,-0.160355,-0.11392,0.260647,-0.010417,0.293073,0.039864,-0.053299,0.067031,0.015911,-0.041144,-0.026313,0.151707,-0.181718,-0.128349,-0.050423,-0.166597,-0.166596,-0.123728,0.180333,-0.111444,0.031946,0.006073,-0.002368,0.02699],[-1.100279,-0.43744,-0.576256,0.10432,0.873929,0.601865,0.165088,0.055305,-0.788145,0.594676,0.235787,-1.578671,0.248293,-0.121104,-0.06792,0.181799,-0.010165,0.220806,0.020999,0.061897,-0.042004,-0.038264,-0.072417,-0.044558,0.219461,-1.148281,0.646663,0.428785,-1.155833,-0.069156,-0.138715,0.186492,0.078675,-0.032715,0.250065,-0.029965,0.210396],[-1.023278,-1.023798,-1.475742,1.669382,1.115496,-0.374915,0.338084,0.585068,0.724185,0.177029,0.133881,-0.429144,-0.008349,0.155086,-0.114843,0.232201,0.06284,0.276278,0.473161,0.068336,-0.096383,-0.488008,-0.359766,-0.266505,0.391109,-0.477092,0.241595,0.089882,-0.126549,-0.026422,-0.073625,0.186526,-0.17523,-0.053061,-0.050162,0.012069,0.056975],[1.072923,0.324262,0.074956,-0.024052,-0.209541,0.023445,-0.299648,-0.080776,-0.134866,-0.076984,-0.154668,-0.013092,0.15411,0.049487,-0.148639,0.002888,0.007877,0.161797,0.021775,0.014741,-0.075142,-0.008709,0.017055,-0.006433,-0.002875,-0.925364,-0.112066,-0.068484,-0.347163,-0.072524,-0.128187,-0.03062,-0.257352,-0.003796,-0.023136,0.01381,0.399873],[-1.150892,-0.08103,0.632254,0.727612,0.120737,-0.023141,0.004365,-0.022458,0.049791,0.022112,0.091681,-0.555268,0.222555,0.147196,0.095736,0.120377,0.006761,0.340731,0.019656,-0.015396,-0.040067,-0.00297,0.000914,0.022735,0.174573,-0.17825,0.007171,0.160138,-0.042775,-0.072882,-0.018623,0.237203,-0.350243,0.008103,0.034946,0.003078,0.034073],[0.093203,0.322324,0.452536,-0.41942,0.552217,0.32739,-0.045099,-0.252132,0.400647,0.967708,-0.519279,-1.002248,0.211098,0.03098,0.149544,0.096248,-0.028609,0.132421,-0.037986,0.066451,0.039597,0.049914,0.066815,-0.310793,0.235734,-3.878438,-0.436437,-0.034304,0.078949,0.025019,-0.14401,0.033355,0.025372,0.172228,-0.158051,0.396666,-0.24544],[0.058362,-0.628131,-0.735764,-0.328873,-0.082717,-0.764151,2.81872,-1.041673,-0.202991,0.318967,0.675221,1.533709,-0.010618,-0.025714,0.04677,0.05974,-0.190062,0.060787,-0.05838,0.032098,-0.047409,-0.044932,0.111598,-0.129925,0.136149,0.36695,-0.131018,-0.157724,-0.543641,0.192548,0.067296,-0.045626,0.205549,-0.205238,0.055456,0.018805,0.07174],[-0.03968,0.065608,-0.107976,-0.152724,0.122897,-0.015978,-0.136243,0.004347,-0.075016,-0.104219,-0.021484,-0.018941,0.013676,-0.050847,0.000882,-0.046158,0.015025,0.134034,-0.084065,0.034427,-0.130686,0.132373,-0.033554,0.012256,-0.156472,-0.001326,-0.121583,-0.085445,-0.11919,-0.100812,-0.088636,0.039749,-0.121658,-0.043805,-0.042862,0.157458,0.084254],[0.261407,-0.035255,-0.352719,0.310728,-0.035249,0.223923,0.171251,0.707598,-1.834667,-0.21264,1.400447,-0.507579,-0.084855,-0.097859,0.139995,0.205981,-0.095392,-0.059523,-1.356993,0.092354,-0.088928,0.449322,0.098689,0.080039,0.075191,-0.161557,0.010557,0.146253,-0.110426,-0.668132,-0.146038,0.17507,-0.75369,0.39264,-0.050096,0.161331,-0.209247],[-0.129899,0.032823,0.130525,-0.093966,-0.1369,0.050726,-0.004468,-0.035775,-0.053561,-0.044829,-0.171043,-0.003054,0.127995,0.160433,0.00838,-0.052711,-0.120573,-0.103561,0.038844,0.157824,-0.034125,0.065581,0.068519,-0.159887,0.112519,-0.059419,0.111458,-0.025436,-0.067751,-0.060783,-0.045582,-0.136465,-0.10905,0.010218,0.06273,-0.043695,0.001025],[0.430453,0.045498,0.164971,0.535514,-0.312139,-0.410577,0.14455,0.590212,-0.556727,0.082818,0.768007,-0.790516,0.148332,0.099151,0.024684,0.060362,-0.002645,0.160256,0.412068,0.044806,0.063653,-0.369974,0.061941,0.075294,0.147192,0.473033,-0.343628,-0.009035,-0.351756,-0.137266,0.039209,0.014122,-0.213522,0.057564,-0.162582,0.244634,0.076549],[0.060118,-0.058179,-0.022554,0.009079,0.624577,0.538714,0.27206,-1.142946,0.747807,-0.018063,-0.97136,-0.815635,-0.133518,-0.020517,-0.15864,-0.108997,-0.140407,0.160247,0.039562,-0.121248,0.027499,-0.089821,-0.107825,0.034486,-0.015799,-0.031611,0.306654,0.063717,0.535431,-0.017106,-0.114557,0.138592,-0.041068,0.118674,-0.155997,-0.056231,0.279841],[0.860003,0.211745,-0.4472,-0.582954,-0.579134,-0.533749,-0.026444,0.417033,0.372742,-0.78954,0.9956,0.871107,-0.011364,0.067639,0.003381,-0.032251,0.021529,-0.201052,-0.158088,0.109424,-0.074452,0.250039,0.109264,0.058224,0.063625,1.188075,-0.57095,-0.273029,-0.361894,0.03822,-0.093735,0.06622,0.138373,0.041268,0.034957,0.061219,0.285308],[-1.344568,0.623628,0.07713,0.25981,-0.654025,0.357795,-0.126909,-0.027193,-0.028802,2.331626,-1.601597,-0.18258,-0.041475,0.04371,0.032901,-0.022197,-0.030293,0.233955,0.756791,0.147295,-0.054078,0.160985,0.227295,-0.043126,0.120348,1.057319,-0.125465,-0.044532,0.080779,-0.13337,-0.045719,0.200222,-0.425811,-0.094353,-0.076926,0.580345,-0.293094],[0.74506,-0.290019,-0.00214,0.179997,-0.009215,-0.067808,0.105978,0.082003,0.154737,-0.063462,-0.424498,-0.640423,0.130053,0.005982,-0.108131,-0.060756,0.023313,-0.158051,-0.170645,-0.106444,0.070074,0.057857,0.01921,0.035474,0.016924,1.433855,0.396346,0.153667,-0.024764,0.026435,-0.123612,0.090306,-0.171644,-0.002344,-0.030341,-0.196404,-0.282096],[-0.402522,-1.055652,1.517799,0.297397,-0.043503,-0.133262,0.042227,0.28788,-0.133325,0.882619,-0.928886,1.138437,0.023887,-0.011118,0.109357,-0.037941,-0.034979,-0.033845,0.317732,-0.136306,-0.003929,-0.0491,-0.04283,-0.041765,0.112784,-1.06484,-0.010061,-0.030166,-0.215487,0.168729,-0.00786,0.082638,0.031347,-0.056835,-0.192573,0.064638,-0.154107],[-0.040348,0.123245,0.093904,-0.055891,0.056236,-0.009254,0.003164,0.130365,-0.037284,0.130696,0.126626,0.081205,-0.112488,0.090657,0.077874,-0.163616,-0.154268,-0.092372,0.089435,-0.065947,-0.18463,0.068799,-0.003139,0.03626,-0.058938,0.086721,-0.082322,0.004602,-0.125077,-0.01189,0.008499,-0.000124,0.054673,0.125148,0.027063,0.050706,-0.013885],[0.491842,-0.164792,0.107973,-0.14368,0.265767,-0.558351,-0.161586,-0.119929,0.578131,-1.540127,0.571179,-0.158527,-0.173131,0.129416,0.074598,0.059853,-0.001737,-0.058373,0.493025,0.114691,0.081298,0.365799,-0.564115,-0.058025,-0.105923,0.435317,0.24398,0.015593,-0.012449,0.187809,0.094703,-0.084167,0.200938,-0.060946,0.421346,-0.014269,-1.35598],[-0.60523,0.008781,-0.01976,0.886063,0.200446,0.206072,0.201087,0.354923,-0.150342,-0.430723,0.738453,-0.568773,0.18289,0.087115,0.088717,0.275276,0.114953,0.210859,-0.248877,0.108998,0.22509,-0.166818,-0.295211,0.124054,0.092449,0.224659,-0.064127,-0.142311,-0.48748,-0.587616,-0.002946,0.279247,-0.451062,0.044523,-0.114387,-0.00934,0.16943],[-1.010351,0.622066,0.537161,-0.808573,0.211793,0.139626,0.664447,-1.18753,-0.481507,-0.503995,1.536224,-0.359496,0.112515,-0.08994,0.06748,0.057664,-0.106235,0.092473,0.246952,-0.121945,0.22646,0.51649,0.07357,0.221683,0.206656,-1.975428,0.161212,0.09233,-0.686272,0.085319,0.149105,0.039398,0.145766,-0.119236,-0.052081,0.205539,-0.236079],[0.60119,0.002428,-0.408437,-0.00697,-0.600367,-0.378578,-0.102393,-0.1459,-0.085884,0.439331,-0.121561,2.988325,-0.231842,0.139939,0.022763,-0.217648,0.001461,-0.189742,-0.413226,0.027251,-0.077155,0.034079,0.062063,0.054126,-0.073721,0.884584,0.372954,0.255922,-0.074187,-0.013754,-0.108364,-0.325082,-0.040491,-0.025372,-0.183768,-0.24088,0.062871],[0.010989,0.060664,-0.052644,-0.142314,0.015961,0.040171,-0.066092,-0.085035,0.145319,-0.093356,-0.01908,-0.098015,-0.126379,-0.079834,0.074903,-0.158225,0.115888,0.133546,0.115824,-0.15932,0.103009,-0.045153,0.062187,-0.121599,-0.029156,-0.078162,-0.054739,0.038413,-0.124249,0.076866,0.079147,-0.108735,-0.128415,-0.003556,0.024676,-0.067995,0.012368],[-0.685541,-0.120876,0.224828,0.369623,0.3832,0.114345,0.05272,0.636754,0.062408,-0.247101,-0.03461,0.971327,0.201489,-0.15561,-0.105863,0.127441,-0.001401,0.003259,0.333332,0.112625,0.285732,-0.212253,0.083496,0.028444,0.148003,-0.682254,-0.188484,-0.060895,-0.114864,-0.02509,-0.160542,0.049716,0.108847,0.092007,-0.000647,0.06662,-0.067116],[-0.485239,-0.128665,-0.331,0.600074,0.135955,0.089071,2.221454,-0.776402,-1.085648,0.582263,-0.178537,-0.076546,0.060426,-0.046175,0.043219,0.029775,-0.000895,0.010641,1.197394,-0.138397,0.163397,-0.142825,-0.572802,0.428957,0.148079,0.898119,-0.709739,-0.216134,0.024169,-0.133497,-0.082654,0.191567,-0.136951,-0.037017,-0.68042,0.214966,-0.187157],[0.830936,-0.30305,0.195239,0.128298,0.388607,0.492148,-0.118853,0.040417,0.073706,0.06925,-0.691389,-1.066128,0.13211,0.054749,0.137314,-0.164005,0.032944,0.081786,-0.246486,-0.143115,0.142099,0.129171,-0.151374,0.09073,-0.086093,0.363784,-0.230045,-0.245581,0.444342,-0.141126,-0.155784,0.126182,-0.039916,-0.017576,0.019555,-0.016377,0.095298],[-0.438676,-0.279931,0.170205,0.873313,0.178997,0.858321,0.006217,0.177131,-0.128557,-0.795738,0.280061,-0.674384,0.10093,0.157511,0.152065,-0.011037,-0.042702,0.089754,-0.052185,0.009393,0.192485,-0.031488,-0.171077,0.008769,0.181269,-0.238893,0.211405,0.096157,-0.283688,0.214365,-0.031539,0.088952,0.024029,-0.077015,-0.248644,-0.313868,0.381819],[0.829001,-0.394082,-0.536251,-0.153901,-0.048484,0.108407,-0.035099,-0.621924,-0.249733,0.560085,0.582185,-0.929526,0.021548,0.127751,0.11876,-0.155171,-0.036173,0.032633,-0.414105,-0.128534,0.146735,-0.022364,-0.051641,-0.025026,-0.090261,-0.883548,0.400574,0.239105,-0.074808,-0.287976,-0.047299,0.167825,-0.17882,0.074574,0.300218,0.040291,0.052202],[1.009242,-0.300109,0.189852,-0.490199,-0.552194,-0.056684,0.842887,-0.268349,-0.470709,0.273125,0.405091,0.36458,0.041327,-0.022814,0.053916,-0.048446,0.025066,-0.113191,-0.699235,0.034175,0.117604,0.056463,-0.010299,0.14092,0.01104,-1.494412,-0.034621,-0.00148,-0.202274,-0.022589,0.106473,-0.177557,-0.130576,-0.011383,0.220058,-0.08744,-0.355047],[-0.49893,-0.688478,0.014798,-0.178678,-0.371454,-0.104635,0.63344,-1.007707,0.505673,0.908402,-0.800984,1.680561,-0.174585,-0.128851,-0.13151,-0.22096,0.003861,-0.056517,0.479465,0.047451,0.030438,-0.022231,-0.368931,0.197609,0.018692,0.784492,0.394158,0.172957,-0.132826,-0.124228,0.091975,-0.0481,-0.444957,-0.017539,0.008013,-0.02003,0.030538],[0.925113,-0.835561,-0.79717,0.054141,-0.43333,-0.617031,0.377493,-0.258684,-0.418937,0.113524,0.572046,-0.103119,-0.045496,0.051614,0.150775,-0.285706,-0.00525,-0.08871,-0.6271,0.133286,0.048897,0.299519,0.04573,-0.009367,-0.068219,0.307515,0.837062,0.335139,-0.249244,-0.197119,0.078903,-0.207105,-0.124868,-0.023404,0.002114,0.118877,0.063481],[1.151838,0.246949,0.28548,0.045966,0.0689,0.066694,0.092716,-0.015225,-0.201065,-0.424969,-0.455443,-1.309086,0.240064,0.148778,-0.132551,-0.100038,-0.003037,0.235919,0.149848,0.129516,0.004196,-0.004107,-0.00877,-0.010168,-0.243102,-0.011778,0.313472,-0.019671,-0.227994,-0.374567,0.05537,0.084438,-0.314252,-0.003306,-0.004498,0.00568,-0.02594],[-0.037335,-0.032923,0.002374,-0.081869,-0.137241,0.047719,-0.095829,0.055514,0.117312,0.026862,0.114606,-0.061549,-0.143037,0.127798,0.077475,-0.111044,-0.128509,0.124761,0.146051,0.156161,-0.051526,-0.015621,-0.08369,-0.035417,-0.083459,0.125653,-0.14234,-0.148604,-0.097735,-0.151502,0.049179,-0.144364,0.065637,-0.063828,-0.119232,-0.109991,0.085248],[-0.217517,-0.291462,-0.465169,0.831693,-0.759306,-0.620281,-0.526523,0.183315,0.065588,-1.012213,2.527328,1.368356,0.004052,-0.121133,0.069772,0.122456,-0.01104,0.054329,0.397424,0.137908,0.003994,-0.334397,0.011986,0.066354,0.018484,1.792295,-0.162974,-0.062925,-0.293158,-0.249823,0.132323,-0.004894,-0.298972,-0.170865,0.523278,0.007744,0.459694],[-0.406152,-0.032873,0.536731,0.119173,-0.577963,-0.251523,-0.53343,0.463046,0.637844,-1.237164,0.003961,-0.198311,-0.015842,-0.119702,0.112097,-0.0162,0.075063,-0.068165,0.328538,-0.030714,0.166845,-0.031095,0.292709,0.159811,-0.11283,-2.284364,0.451566,0.278708,0.167733,-0.102555,0.106092,0.095265,-0.171936,-0.006645,-0.194892,-0.460202,-0.115685],[-0.803531,0.461482,0.432127,-0.02387,0.420581,-0.033237,0.289983,0.112812,0.003168,0.213593,0.40967,0.04637,0.2448,0.119117,0.06748,0.214959,-0.018672,0.163702,-0.326111,0.036898,0.280837,0.05027,-0.067763,-0.011956,0.219913,0.654999,-0.461832,-0.150573,0.164933,0.174196,0.120363,0.409041,-0.025745,0.023109,-0.030957,0.078026,-0.128709],[0.44168,0.079949,0.131521,-0.398935,0.470027,0.003073,-0.675524,-0.937262,-0.157435,-0.691467,1.394424,1.603529,-0.086249,0.158604,0.157885,-0.104814,-0.005518,-0.079523,-0.544746,0.052906,-0.120235,0.033013,0.211346,0.004302,-0.183434,0.171284,-0.15425,-0.10101,-0.120928,-0.298076,0.103684,0.146244,-0.17962,0.054955,0.141432,0.203414,-0.127761],[-0.113288,-0.084265,0.124334,-0.164219,0.078992,0.061127,-0.11527,0.094653,0.002717,-0.133946,-0.006577,0.076884,0.047027,0.144554,-0.010398,-0.048267,-0.169987,0.003697,-0.053601,-0.088016,-0.111831,0.056777,-0.076127,-0.104439,-0.065947,0.073028,0.041501,0.12,-0.118985,-0.077749,-0.08321,0.047485,0.102342,0.140363,-0.115562,-0.108103,0.002946],[0.653845,-0.653386,-0.41748,-0.264507,-0.556206,0.010977,-0.589858,-0.85305,-0.485099,-0.745079,2.04987,0.827904,-0.001873,0.002532,-0.015826,-0.219455,0.007367,-0.111065,-0.99643,-0.080659,-0.133648,0.385,-0.101927,-0.087234,0.011593,0.748091,0.451277,0.380621,-0.097191,-0.185488,-0.047202,-0.138792,-0.401319,-0.077189,0.275266,0.001351,0.061841],[0.580757,-0.370908,-0.43791,-0.441705,-0.088834,-0.468454,-0.708843,-0.333585,-1.083859,-1.367411,1.635188,-0.071657,-0.497406,-0.158691,0.036618,-0.333243,0.011956,-0.46126,0.322784,-0.081155,0.08519,-0.105467,0.145782,0.094128,-0.288415,-0.259041,1.063727,0.368299,-0.575119,-0.307747,-0.14344,-0.398013,-0.083187,-0.010201,0.044009,0.018943,-0.164459],[0.919218,0.095514,0.3142,-0.729798,-0.350466,0.394598,-0.010552,-0.013508,-0.243241,0.233975,-1.081428,-0.249432,-0.105667,0.091935,-0.110845,-0.25431,-0.005593,-0.235147,-1.248426,0.153715,-0.105202,0.202768,-0.116439,0.011191,-0.222861,-0.122773,0.495532,0.284161,0.972224,0.0216,-0.106738,-0.377436,0.146363,-0.095828,0.227018,-0.003342,0.021845],[0.750149,0.957747,-0.210022,-0.976586,0.204892,-1.062669,-1.945014,-2.037306,-0.241582,-3.25017,4.681283,0.774684,-0.341042,-0.14267,-0.151752,-0.248372,0.013973,-0.304518,-0.249509,0.066218,0.06658,-0.093661,0.624876,-0.107616,-0.025869,3.157749,0.386316,0.246215,0.528969,-0.252472,0.022335,-0.057735,-0.375587,-0.783778,-0.50443,-0.177181,-0.267942],[0.436926,-0.500869,0.440823,0.215121,0.350596,-1.398919,-1.369204,0.937744,0.330116,0.464533,-0.159367,1.50398,-0.158529,-0.017448,0.017388,-0.181369,0.006578,-0.018901,-0.046726,0.128887,0.089444,0.085192,0.099268,0.085977,0.137239,1.921812,-0.461123,-0.425069,-0.184988,0.344837,0.042032,-0.082521,0.361284,0.156572,-0.320064,-0.143574,0.370007],[0.150347,0.780507,0.76296,-0.636119,-0.451512,-0.408834,-0.197767,-0.448325,0.119368,-2.462762,2.915696,-1.708752,-0.065421,0.045212,0.019321,0.137573,0.00593,0.285575,0.002139,0.092847,-0.0645,-0.033344,-0.034376,-0.036921,-0.004465,0.371331,-0.207748,-0.174426,0.179332,-0.03776,0.093658,0.258816,0.109097,0.074059,-0.031838,0.00374,0.279942],[-0.778958,0.402115,0.005105,0.210178,0.158403,0.331537,0.296817,0.006431,0.277882,-0.294103,0.224039,0.64896,0.174773,-0.147313,0.087845,0.227599,0.011921,0.149579,0.00041,0.068179,0.071824,0.020504,-0.041631,-0.054047,-0.002963,0.353263,-0.29995,-0.176952,-0.133765,0.338488,-0.042847,0.234138,0.046485,0.018659,-0.008327,-8e-06,-0.013467]],"bias":[0.202414,0.014072,0.277518,-0.065997,-0.004195,0.235528,-0.054453,0.014872,-0.017912,0.224087,0.069045,0.026098,-0.112287,-0.040349,-0.051626,-0.100541,-0.16005,0.063051,0.237654,0.119119,-0.038771,0.125982,0.065286,-0.061003,0.123202,0.190703,0.142464,-0.023215,0.232385,0.158507,0.067401,0.098227,0.085403,-0.112733,-0.07706,0.027893,-0.051698,0.000797,0.000358,-0.0019,-0.036595,0.266725,-0.159774,0.040084,0.194425,0.124743,-0.135187,-0.063958,-0.157124,-0.041329,-0.165266,0.022026,-0.023833,-0.171352,0.002101,0.078477,-0.174979,0.099309,0.150464,0.06073,-0.039552,0.026982,0.002699,0.185157,-0.131858,-0.069535,0.187136,-0.166978,0.126831,-0.13536,0.053008,-0.151359,-0.092845,0.113726,-0.393155,-0.186986,0.116968,-0.156112,-0.094302,0.181291,-0.053237,0.150019,-0.044049,-0.234858,0.231479,0.199958,0.04536,-0.103497,0.19961,0.2084,0.068848,-0.189616,-0.101122,-0.132167,-0.003495,0.155138,0.168404,-0.092157,-0.009126,0.293409,0.232829,0.157036,-0.151489,0.134405,-0.200252,-0.167337,-0.119845,0.075564,-0.106726,-0.049478,-0.054039,-0.011842,-0.092283,0.216631,0.123879,0.220922,0.039784,0.181891,0.260253,-0.006277,0.177657,0.203131,0.129759,-0.113405,-0.012649,-0.008055,0.062029,-0.104228,0.066653,0.198895,-0.165277,0.187784,-0.008298,-0.034909,0.301554,0.287531,-0.260733,-0.039122,0.122381,0.248266,-0.048104,0.224783,-0.025406,0.096249,0.037737,-0.285417,0.07263,0.028136,0.001512,-0.223855,0.219895,-0.048338,-0.14473,-0.101279,-0.176364,-0.261004,-0.111311,0.048122,-0.031939,0.287962]},{"weights":[[-0.045694,-0.021703,0.032254,0.049602,-0.056777,-0.062312,0.037467,0.028501,-0.017057,-0.039789,-0.01523,0.003451,0.030934,0.044676,-0.007766,-0.019808,0.015851,-0.005192,0.0129,-0.075546,-0.059873,0.026012,-0.095171,0.030683,-0.084791,0.02255,-0.024624,-0.081922,-0.029219,0.022524,-0.05067,0.014752,-0.015484,-0.014169,0.040028,-0.009926,0.02114,-0.041388,-0.04859,-0.020637,-0.004414,0.020387,0.034102,-0.06405,0.015413,0.03949,-0.038456,-0.07815,0.025285,0.003657,0.025134,-0.081651,-0.055481,0.037888,0.030169,0.006991,-0.080392,0.059094,-0.064668,-0.028662,0.071479,-0.021095,0.041698,0.013036,0.009684,0.034382,-0.077041,0.017812,0.050891,0.009172,-0.052062,0.008031,-0.03023,-0.040357,-0.015996,-0.03658,-0.069134,-0.072528,0.033758,-0.095482,-0.011246,-0.005252,-0.072868,-0.040722,0.057638,-0.037149,0.036688,-0.01166,0.037403,-0.026882,-0.04671,-0.056156,-0.028971,0.037004,-0.092364,-0.076852,0.010215,-0.018189,-0.029405,-0.034437,-0.003501,-0.013077,0.027903,0.046674,0.034832,-0.052853,-0.013062,-0.086302,0.009491,-0.031334,-0.002355,-0.056738,0.007767,-0.08945,0.047411,-0.073282,-0.005609,0.04311,-0.013638,-0.039076,0.046499,0.022345,0.02156,-0.016653,-0.053894,-0.020597,-0.033669,-0.017647,-0.036991,-0.044926,0.027634,-0.082156,0.05726,0.005204,0.002397,0.001773,-0.014496,0.071494,0.046551,-0.057974,0.047201,-0.083404,0.03541,0.05497,0.036337,0.040053,-0.005066,-0.041274,0.05216,-0.078523,-0.061398,-0.073241,-0.015997,0.009053,0.030537,-0.011823,0.018027,-0.074325,-0.069148,-0.000606],[-0.031004,-0.04264,-0.027472,0.008644,0.003592,-0.081536,-0.06201,0.00286,-0.016948,0.009495,-0.014253,0.026653,-0.076905,-0.089818,-0.055104,-0.064695,0.054139,0.075888,-0.048032,0.039088,-0.027082,-0.059084,-0.117541,-0.05736,0.032831,-0.043251,-0.06106,-0.09971,-0.044723,-0.020032,-0.013005,-0.04157,-0.002339,-0.089736,-0.098886,-0.06353,-0.005257,0.027959,0.032188,-0.033024,0.07455,-0.052553,0.01159,-0.007973,-0.019953,-0.044107,0.004208,-0.068009,0.053599,-0.077608,-0.010005,0.031715,-0.051877,-0.045774,-0.062246,0.063375,-0.021422,-0.044106,-0.050699,-0.066055,0.015359,-0.060155,0.053103,0.042611,0.040158,-0.102474,-0.069694,-0.093334,-0.037531,-0.069149,-0.074945,0.003696,0.030581,-0.054868,-0.040628,-0.019219,-0.032221,-0.083513,-0.025742,-0.036981,0.016999,-0.035577,-0.045453,0.033159,-0.022298,-0.02549,0.046698,0.036327,-0.077896,-0.102978,0.025056,-0.058937,0.024332,-0.013767,0.030774,-0.069024,-0.085604,-0.018465,-0.085033,0.045622,0.003418,-0.001891,-0.023223,-0.037774,-0.059216,0.080841,0.027466,-0.102247,0.024818,0.030007,-0.014335,0.029382,-0.003532,-0.000829,0.022051,0.040688,-0.072388,-0.074873,-0.002245,-0.069468,-0.076986,-0.065574,-0.065959,-0.059646,-0.06722,0.006264,-0.053217,-0.074487,0.01213,0.025782,-0.098156,-0.023122,-0.071286,-0.053569,0.009858,-0.076144,0.046791,0.020484,-0.02546,-0.042484,0.025058,-0.005688,-0.08607,-0.077494,-0.023842,-0.006637,-0.04142,0.047835,0.044949,-0.000674,-0.073043,-0.03689,0.01626,0.005834,-0.047356,-0.052844,0.006991,-0.035771,-0.002287,-0.112344],[0.069501,-0.325528,0.168923,0.093045,0.023461,0.088492,-0.155538,-0.181394,0.130371,-0.187422,-0.018639,0.032819,-0.073421,0.166638,0.103732,0.036964,-0.060445,-0.006285,-0.678425,-0.363324,-0.073146,0.332979,0.149713,0.042765,-0.270704,-0.147724,0.260696,0.163805,-0.208601,0.433832,-0.214234,0.267742,0.397157,0.11202,0.107434,0.031542,0.009921,0.215132,0.044113,-0.077301,0.04095,0.211892,0.292349,-0.135691,0.254038,-0.338117,-0.018374,-0.005005,-0.043885,0.567837,0.081317,0.197973,0.044254,-1.845021,0.01233,0.560577,-0.092844,1.445352,0.015557,-0.065579,-0.036309,-0.091655,-0.053012,0.246398,0.207946,-0.192432,0.233138,-0.654217,-0.021466,0.233986,0.260021,0.049715,-0.181109,-0.28754,-2.422938,-0.257082,0.031944,0.470216,0.086943,-0.049003,0.618569,0.87122,-0.237325,0.013879,0.055237,0.162646,0.014767,-0.071452,-0.013419,0.013364,-0.109442,-1.53866,0.150979,0.063418,0.386928,-0.595472,-0.048684,0.763027,-0.306166,-0.146164,0.004817,-0.204849,-0.016458,0.149266,-1.172366,0.051624,-0.046517,-0.085087,-0.048826,-0.651253,-0.081017,0.085448,0.19769,0.199853,0.232757,-0.115798,-0.091335,-1.164964,0.258875,0.044391,0.041604,-0.366179,-0.215376,0.011863,-0.013982,-0.059424,-0.103566,0.009588,0.143726,0.036781,0.247931,0.257896,0.055589,0.860341,0.15409,-0.159537,0.370726,0.016567,0.151399,0.215556,0.210189,-0.102071,0.036079,0.020804,0.045818,0.439035,0.035137,0.057107,-0.251334,-0.013546,0.063836,0.324745,0.047784,-0.269397,-5.072241,0.649197,0.598257,-0.464022,-0.877391,-0.034303],[-0.036085,0.108337,-0.004648,0.330285,0.0697,0.2839,0.367479,-2.3869,1.482275,0.014435,0.139196,-0.047383,-0.066373,-0.417655,0.127859,0.008911,-0.053435,-0.035351,0.330161,0.035456,-0.352656,0.260488,0.153067,-0.197287,-0.088201,-0.868747,-0.109141,0.162752,-0.463949,-0.333651,-0.790968,-1.926818,-0.013146,-0.820217,0.55182,-0.311636,-0.367205,-1.237856,0.8601,-0.504996,0.049351,-0.105338,-0.31179,0.403585,0.21112,-0.045616,0.088063,-0.586818,-0.050116,-0.087191,0.073333,-0.445926,-0.629872,0.512106,-0.435402,0.486684,-1.586639,0.020304,-0.470079,0.558407,-0.077241,0.052531,-0.037426,0.867756,-0.001258,0.204573,0.384303,0.243909,-0.032557,0.002702,-0.21886,-0.060438,-0.737167,-0.690815,1.459381,-0.040431,-11.636498,0.848655,0.112587,-0.190899,-0.276314,0.306693,0.138546,0.292981,0.535922,0.032085,0.043511,0.323618,-0.553701,0.747881,-0.936022,0.288836,0.04464,0.038914,0.096434,-0.446826,0.818707,0.089148,0.388837,0.007053,-0.379248,0.214086,0.001933,-0.195991,-0.050503,0.018682,0.016609,-0.160067,0.024085,-0.043173,-1.867151,-1.436312,0.071445,0.642117,-0.361608,-0.267597,0.973379,-1.031044,0.623055,0.227175,3.027143,0.264901,-0.491226,-0.038976,-0.726571,-0.013406,0.13826,0.475426,0.014009,1.344267,0.301434,-0.222195,0.040623,-0.049833,-4.992202,-0.026033,0.863342,0.058736,-0.536222,0.735881,0.742268,0.084279,0.266062,0.15329,-1.193083,0.522218,0.653474,-0.038456,-0.502011,-0.72655,0.628462,-0.523739,0.065406,0.154298,-0.017893,0.837931,-0.452812,0.316413,-0.350064,-0.265009],[0.005646,-0.015688,-0.125726,-0.069927,-0.049237,0.031293,-0.062864,-0.098502,-0.062642,-0.01332,-0.038742,-0.045783,-0.027473,0.007886,-0.08388,-0.034893,-0.064478,0.076945,-0.056574,-0.086884,0.047924,-0.016718,-0.019713,0.039872,0.056634,0.009684,0.014697,-0.05646,-0.058231,-0.09173,-0.00923,0.03514,-0.030388,-0.098157,-0.052436,0.01667,-0.012896,-0.029671,-0.131126,-0.068958,0.069506,-0.053634,0.0342,-0.016909,-0.021199,-0.129428,-0.038988,-0.026047,0.069588,-0.005346,0.003068,0.001042,-0.012052,0.064721,-0.042918,-0.006677,-0.031592,-0.075875,-0.119907,-0.02471,0.055298,-0.070479,0.061152,0.003518,-0.004622,0.027479,-0.00567,-0.015198,0.036553,-0.013749,-0.000858,0.072043,-0.002715,0.040874,-0.06082,-0.10859,-0.070168,-0.045203,-0.101805,0.007152,0.034952,-0.058654,-0.014384,-0.012534,-0.010159,-0.107014,-0.020059,0.021922,-0.138936,0.018591,-0.096129,-0.076622,-0.00282,-0.035763,-0.03552,-0.096053,0.006021,-0.041088,-0.110394,-0.062142,-0.044652,-0.052502,0.047547,-0.031633,-0.075124,-0.017829,0.001795,0.003224,-0.057964,-0.064578,-0.078587,-0.103276,-0.116868,0.066209,-0.11826,-0.095019,-0.024417,-0.085258,-0.053999,-0.062338,-0.054704,-0.03037,-0.110012,-0.054967,-0.026616,0.051583,-0.077764,-0.071675,-0.103554,-0.039988,-0.036742,0.032573,0.047399,-0.039865,-0.002305,-0.05142,0.049018,0.015602,-0.039873,-0.089785,-0.08375,-0.063969,-0.108765,0.026164,0.012985,-0.060847,0.025809,-0.051239,-0.031205,-0.053742,-0.051517,-0.013745,0.000601,-0.048993,0.046503,-0.026311,-0.025466,-0.075058,-0.041799,-0.052466],[-0.0659,-0.002066,0.018125,-0.039777,0.027448,-0.044253,-0.065136,-0.030401,-0.09475,0.025358,0.042038,0.013396,0.006507,-0.059956,-0.00191,-0.050765,-0.004875,0.003183,0.05154,-0.000147,-0.079643,-0.024109,0.024329,0.00054,-0.068752,-0.078378,-0.029041,-0.037105,-0.008585,0.035574,-0.010103,-0.019552,-0.080135,-0.052735,-0.012879,0.046895,0.029788,0.034872,-0.083696,-0.095189,0.071077,0.008525,0.008771,-0.03485,-0.068577,-0.03452,-0.088831,0.029531,0.036795,-0.067044,0.055301,-0.035385,0.004192,-0.085264,-0.008566,-0.076591,-0.004798,-0.080168,-0.005275,-0.001772,-0.05195,-0.05983,0.014079,-0.056962,0.024372,0.050695,0.000493,-0.045823,-0.058677,-0.058401,-0.046251,-0.006872,0.008344,-0.076611,-0.035814,0.035477,-0.039896,-0.027253,-0.009437,0.014173,-0.09336,-0.017621,0.061804,0.044416,-0.048943,0.018142,-0.043842,-0.022258,-0.020239,2.2e-05,-0.056789,0.041346,-0.025789,0.055672,-0.081649,0.020539,-0.03503,-0.058338,-0.057376,-0.057451,-0.067179,0.052005,-0.078247,0.005964,-0.022448,0.033997,0.072262,0.049041,0.024813,-0.052578,-0.022173,-0.070577,-0.049991,0.032858,-0.079438,-0.055315,0.021589,-0.041364,0.029768,0.025937,0.00821,0.050718,-0.069284,0.023412,-0.048477,-0.05837,-0.032521,-0.066195,0.006312,-0.074181,-0.019011,0.027973,0.032836,0.027356,-0.023568,-0.058479,-0.101837,0.012545,0.047642,-0.046537,-0.051733,0.006721,0.029535,0.037973,0.01138,-0.046927,0.042371,-0.05145,-0.055272,0.051763,-0.094927,0.002411,0.016483,-0.049339,-0.086508,-0.042362,0.006405,-0.030746,0.042786,-0.034499],[0.214849,-0.430409,-0.223985,0.356517,0.069962,0.220475,-0.208589,0.121032,0.59503,-0.142665,0.13522,0.000967,-0.040677,0.124279,-0.057737,-0.00045,-0.002009,0.057834,0.245646,0.505283,0.031703,0.656677,-0.180913,0.295651,0.331016,0.45853,0.116284,0.2948,-0.345337,0.041718,-0.191284,-0.14237,0.204387,0.226918,0.135417,0.053923,-0.025599,0.301737,-0.058395,-0.011534,0.02162,0.567764,0.260849,0.129563,-0.376463,-4.1e-05,0.287304,0.135386,-0.084079,-0.110979,-0.021936,0.561739,-0.265579,0.289932,0.381884,0.125182,0.246564,0.455835,-0.069608,0.06435,-0.036705,0.014538,-0.072036,-0.086204,0.246986,-0.134505,-0.003102,-0.485688,0.052183,0.030802,-0.043634,-0.064649,0.120752,0.105326,-0.759348,0.353426,0.008625,-0.492717,0.334951,-0.051733,0.186472,0.253875,0.146855,0.144731,-0.106905,-0.054144,0.178543,-0.019133,-0.093019,0.013412,-0.007988,0.023774,-0.308643,-0.029625,0.113016,0.102043,-0.110554,0.170753,0.108076,-1.396281,-0.118431,0.366074,0.012889,0.14344,0.082346,0.001832,-0.043306,0.110354,0.011263,0.143178,-1.576508,0.078885,0.139466,0.008732,-0.071888,-0.308828,-0.04819,-0.074852,-0.080329,0.118496,-0.18521,0.187404,0.266926,0.013362,0.075027,-0.067739,-0.118037,0.13941,-0.069472,-0.149348,0.10982,-0.305612,0.058745,0.51385,0.048203,-0.015996,0.970322,0.047927,-0.237031,-0.25419,0.164033,-0.101411,-0.036009,0.261657,-0.309377,0.274966,0.209821,-0.0274,0.0426,-0.019377,-0.034194,0.089477,0.04567,-0.19478,-0.101293,0.080945,0.329924,-0.21548,0.449902,0.005027],[0.03972,0.097303,-0.090183,-0.027717,-0.013434,0.175185,0.169581,0.842309,-0.743504,-0.027201,-0.214659,-0.00235,0.037688,-0.880635,0.441259,0.072714,0.016209,0.054203,-0.390423,-0.145602,-0.259305,0.223425,0.174876,-0.122868,0.236443,0.264081,-0.570748,-0.496323,-0.029776,0.022276,0.383122,-0.627228,0.20227,0.36243,-5.959384,0.843251,-0.008585,-0.308075,-0.784929,0.107312,-0.014867,0.153436,0.042308,0.143012,0.114554,0.04309,-0.923851,1.351219,-0.042982,-0.316715,0.00903,0.027836,0.24272,0.272404,-0.211658,-0.098132,-0.44533,0.382426,0.218167,0.326524,0.035626,0.0446,-0.073212,0.124159,-1.591548,-0.02549,0.340851,0.04338,0.04705,-0.763946,-0.182785,0.057265,-0.045534,-0.191567,-0.099617,-0.058947,-0.552776,0.925511,-0.448392,0.221778,-1.724609,0.592712,1.401967,-0.136878,0.14442,-0.301942,-0.320802,0.192399,-0.474392,-0.315015,-0.061331,-0.047709,-0.048492,-0.000699,-0.994012,0.02443,0.269894,0.155441,-0.123446,0.31447,0.25158,0.006492,-0.031518,-0.025474,0.840647,0.026379,0.050503,-0.22625,0.010855,0.678898,-0.016245,-0.262718,0.068741,-0.037352,-0.102233,0.20653,-0.38359,-0.742512,0.993798,-1.720055,-0.497824,-0.249511,0.041186,0.091217,0.267589,-0.046386,-0.799565,0.289943,0.347571,0.121802,-0.053214,0.284078,0.051108,0.313562,-0.332262,0.272675,0.596797,-0.031163,0.2611,0.071803,-0.80888,-0.123201,-1.470137,-0.411824,-0.740467,1.396155,-12.384896,0.020926,-0.645224,0.673627,0.310912,-0.290942,0.044236,0.32766,0.995456,-0.232398,0.37841,-0.019624,-1.152586,0.239676],[0.300867,-0.31505,0.081275,-0.376267,0.034596,0.080917,-0.242366,-0.025302,-0.010434,0.188919,-0.203091,-0.050077,-0.01154,0.110207,0.32411,-0.071859,0.04805,-0.068813,0.837863,0.121337,0.04149,0.004414,0.391988,0.662909,0.313082,0.22495,0.305205,-0.064759,0.681569,0.058397,0.137113,0.051488,-0.073016,0.23608,-0.010804,0.558352,0.351771,0.322704,-0.045839,0.197995,-0.005584,0.15975,0.161965,0.374,0.377381,-0.00607,-0.085408,-0.003214,-0.068206,0.138915,-0.019752,0.019481,0.738779,-0.816409,-0.19701,0.275781,-0.033515,0.251687,-0.004225,0.292961,-0.055875,0.070036,-0.019981,0.303284,0.226719,0.13432,0.182307,-0.365774,-0.070021,0.244145,0.292484,-0.012591,-0.317362,0.342564,-1.875877,-0.09041,-0.370814,-0.024943,-0.067302,0.169688,-0.298269,-0.826132,0.006742,-0.407676,0.338757,0.069226,-0.058934,-0.122221,-0.160841,0.629937,-0.266767,0.174573,-0.060309,-0.035276,0.005167,0.271201,0.084017,-0.346587,-0.189691,0.493691,-0.043832,0.27622,-0.048028,0.315478,-0.199185,0.00272,0.01852,0.310358,0.01444,0.531295,0.459384,-0.047747,-0.072586,0.667484,0.025409,0.228952,-0.215685,-0.026881,-0.156287,-0.002106,0.181396,0.208773,-0.077768,0.039231,-0.018382,-0.050302,0.141721,0.005918,0.012307,0.376273,-0.103679,0.263763,-0.042113,0.491292,0.310373,0.495066,-0.552789,-0.064347,0.127392,0.089573,0.10799,0.273633,-0.166394,-0.067549,0.025099,-0.968821,-0.205709,0.07471,-0.019813,0.643662,0.089465,0.032073,0.015739,0.532297,-0.603389,-0.610852,0.146606,-0.125044,0.470828,0.031894],[-0.063841,-0.066815,-0.008643,-0.085815,0.003662,-0.052114,0.073434,0.006807,-0.025112,-0.013038,0.011563,-0.031911,0.051246,-0.040414,0.022412,0.02525,0.059044,0.035981,0.011927,-0.00945,0.051463,0.027405,-0.079575,-0.006593,0.025744,0.043485,-0.051115,0.034189,-0.050344,-0.011802,0.044322,0.027417,-0.064164,-0.004221,0.072284,0.065501,-0.050968,-0.012965,-0.082259,0.024143,-0.029416,0.029421,-0.07986,0.050852,-0.058657,-0.074931,0.037791,0.023285,0.045184,-0.052802,0.033282,-0.00135,-0.01956,0.021396,-0.054541,-0.01474,-0.026847,0.025491,0.053011,-0.009671,0.033535,-0.007701,-0.077028,-0.002807,-0.033014,-0.049478,-0.014034,0.002276,0.06587,0.026416,-0.018807,-0.005027,0.05194,0.020391,-0.038365,-0.082086,-0.006762,-0.061347,-0.067177,0.067423,-0.041124,-0.02382,-0.02003,-0.067957,0.014535,0.001813,-0.027827,-0.025697,-0.037339,-0.065953,0.013225,-0.030895,0.001874,0.033669,-0.004569,0.006784,-0.077909,0.047795,-0.049059,-0.009253,0.046494,0.059276,-0.036158,-0.057998,-0.013487,-0.034418,-0.076018,-0.030093,-0.016684,0.072895,0.003893,0.00367,-0.040917,-0.009832,0.02411,-0.025328,0.023321,-0.07146,-0.04368,-0.078717,-0.010355,-0.01487,-0.050827,0.025201,-0.038803,-0.066783,0.027531,-0.076697,-0.066903,0.028106,0.0137,0.047201,-0.072888,-0.032398,0.073883,-0.05139,0.040575,0.046109,0.051795,0.051568,-0.045061,0.010099,0.043737,-0.074026,0.028223,0.05326,0.051115,0.014682,-0.041778,-0.072399,-0.078044,-0.048718,0.03983,-0.070235,-0.030643,0.045443,0.038841,-0.026637,0.055933,-0.037335],[-0.080058,0.035993,-0.032012,-0.004037,0.022211,-0.034238,-0.056802,0.016447,0.046944,-0.065357,0.055461,0.022049,0.015848,-0.102252,-0.009147,0.006093,0.022994,0.026186,-0.077901,-0.008215,-0.018096,-0.075212,-0.06501,-0.082679,-0.084033,-0.077118,-0.011161,-0.052592,-0.074211,-0.014781,-0.031305,0.003999,-0.019829,-0.094103,-0.074852,-0.051291,-0.000909,0.036715,-0.046283,0.050239,0.041356,-0.049843,-0.057076,0.006174,-0.056061,-0.084822,0.027219,0.068529,-0.041599,-0.02483,-0.029472,-0.095209,0.039418,0.013965,0.034475,-0.074773,0.056641,-0.07766,-0.038095,0.054971,-0.082318,0.034423,0.043512,-0.031587,0.029399,-0.037908,0.014987,-0.079845,-0.061379,0.03665,0.05564,-0.056304,0.054524,-0.03581,-0.034431,-0.061743,-0.010536,0.014823,-0.065781,0.040821,0.011869,-0.071101,0.018698,0.054608,-0.023023,-0.000268,-0.010463,-0.031061,-0.023394,0.006028,0.034686,-0.073071,-0.013026,0.075937,0.058617,-0.037644,-0.018842,-0.057005,-0.096468,-0.092982,-0.098628,-0.007072,0.057732,-0.0365,-0.016282,0.052354,0.050916,0.030978,-0.046644,-0.092762,-0.020122,0.055944,0.044452,-0.012527,-0.073014,-0.037725,-0.015391,-0.096065,-0.010704,0.03712,-0.024088,-0.019561,-0.04718,0.006405,-0.040461,0.000725,0.06385,-0.077415,-0.059657,0.019155,0.037073,-0.030701,0.000427,0.047121,0.047942,0.04959,-0.063968,-0.015009,-0.07224,-0.066577,-0.068888,-0.004886,-0.024643,0.045533,-0.014008,0.025949,0.045369,0.011105,0.032095,-0.05717,-0.01538,0.005906,-0.075814,-0.06479,0.007111,-0.101318,-0.086491,0.005456,0.027335,-0.081079],[-0.08166,0.043366,-0.09265,0.025767,0.016795,-0.027028,-0.026594,0.036251,0.016576,-0.063686,-0.082037,0.01832,0.032485,-0.054438,-0.090518,-0.06621,-0.001093,0.054446,0.013484,-0.070791,-0.076389,-0.069952,-0.076169,-0.030824,0.003026,0.053955,-0.088136,-0.048742,-0.029077,-0.058197,-0.006395,-0.015525,-0.090647,0.000265,0.045303,-0.031825,0.043779,0.01739,-0.080179,-0.082115,-0.00616,0.029668,0.014903,0.057083,0.032188,0.053621,0.059401,0.044504,-0.052464,-0.016456,-0.059047,-0.007962,-0.006265,0.008119,-0.024634,0.029801,0.015237,-0.044405,0.056657,0.032129,-0.059642,0.044634,0.057596,-0.070165,-0.024923,-0.022917,0.039468,0.043713,0.015992,0.055375,-0.052731,0.046577,-0.012157,-0.085082,0.059523,-0.074941,0.015581,-0.073428,-0.020407,0.023973,0.011832,-0.026536,-0.064107,-0.063522,0.007071,-0.033523,0.029026,-0.093673,-0.090509,-0.00757,0.060737,-0.042365,-0.034327,0.038023,0.033814,-0.088541,0.05153,-0.083988,-0.090399,-0.072368,-0.041398,-0.066112,0.012553,-0.04761,-0.013461,-0.019119,0.001546,0.043661,-0.025612,0.006472,-0.084841,-0.038203,0.040857,0.054831,0.033011,-0.047447,0.041233,-0.074462,-0.020584,-0.066107,-0.069152,-0.072205,0.008007,-0.039303,0.010902,-0.053905,0.007223,-0.005938,-0.039337,0.053663,0.023142,-0.032746,0.00772,0.000416,-0.026733,0.044314,-0.018867,0.053118,0.043747,-0.0681,-0.044877,-0.042385,-0.001019,-0.036689,-0.010286,0.008658,-0.071672,-0.059442,0.031252,0.015106,-0.066188,0.029475,-0.07608,0.021749,0.018305,-0.044885,0.037742,0.014404,0.058754,-0.025436],[0.342153,-0.295612,0.082254,0.089616,-0.041321,-0.051244,0.131425,0.033584,-1.937283,-0.081765,0.324499,-0.055969,-0.074911,-0.071781,0.473756,-0.039629,-0.027051,-0.058014,-0.668751,0.416623,-0.062816,0.269464,0.373557,-0.264081,-0.015428,-0.180605,0.070638,-0.079366,-0.440336,0.014701,0.253961,0.069209,0.292157,-0.019166,-0.125162,0.288287,0.518813,0.028798,0.069003,0.080745,-0.049455,0.163078,0.409337,-0.081447,0.18429,0.21544,-0.016707,0.024132,0.048813,0.074288,0.008715,0.621958,-0.025214,-0.759364,-0.224637,-0.148598,0.016524,0.780823,0.013786,-0.00642,0.045583,-0.015165,0.031902,0.215503,0.125925,-0.595641,0.059494,-0.4411,-0.036398,0.023715,0.157566,0.010133,-0.266445,0.17698,-1.705297,0.058261,-0.17271,0.573023,-0.580433,0.44012,-0.181946,0.130645,0.116871,-0.293215,0.007618,0.119483,-0.084723,-0.10415,0.019702,0.08615,-0.057031,0.368912,-0.016807,-0.02835,-0.177342,0.095562,0.092393,0.734924,-0.17037,-0.008683,0.153357,-0.14813,-0.067114,-0.026965,-0.023785,0.017551,-0.03574,0.404365,0.004752,-0.02145,0.269554,-0.194889,-0.143318,0.329769,0.129222,0.09539,-0.092323,0.163236,0.431205,-0.212621,0.175313,0.148336,0.222011,0.033833,0.054804,0.039156,0.412084,-0.243055,0.207304,-0.327,0.066289,0.035605,-0.017344,0.657708,0.04871,0.564937,-0.964082,-0.057557,0.13945,-0.057818,-0.358351,0.449672,0.076042,0.088861,0.166031,-0.942895,-0.026974,-0.048011,0.10232,0.081442,-0.077196,0.054692,0.009687,0.291105,0.119387,-1.184379,0.228402,0.241016,0.159858,0.117335],[-0.144223,0.087762,0.200721,-0.173302,-0.033943,0.116157,0.454771,0.03695,0.009792,0.09523,-0.501128,-0.015564,0.039436,0.238365,-0.072999,-0.019928,-0.029938,-0.053512,0.2768,-0.052474,0.076483,-0.864521,-0.201276,-0.255927,-0.010363,0.022064,0.130997,0.032633,0.313938,0.206489,0.321132,0.16533,-0.153128,0.048832,-0.133633,0.321526,0.360331,0.560031,0.374348,0.160195,-0.046461,0.064607,-0.145072,0.361603,0.342755,0.153522,-0.248101,0.143662,-0.040119,0.155396,-0.071521,-0.319809,0.041813,-5.278204,0.156029,-0.520432,0.301562,-1.490974,0.054535,0.163528,-0.022543,0.021239,-0.004963,-0.003629,-0.036506,-0.665314,0.083163,0.162441,0.055116,-0.247073,-0.139766,0.030633,-0.289206,-0.002418,-2.979473,-0.07704,0.269344,-1.934944,-0.079585,0.14531,-0.073422,-3.117549,-0.216043,0.114144,0.035883,0.116931,-0.071795,-0.086259,0.274572,0.185847,0.190184,-0.164546,0.246971,0.056509,0.079418,0.153829,0.095965,0.162164,0.069818,-0.125774,0.24242,0.155909,0.06888,-0.094497,0.410695,-0.066387,-0.000205,0.001378,0.02384,0.107439,0.587696,0.323435,-0.022801,-0.124504,0.113762,0.10921,0.351821,-0.062586,0.189179,0.048788,0.30637,-0.362756,0.182797,0.035837,0.092897,-0.030221,0.011894,-0.002308,0.20301,0.075839,-0.295996,0.153,-0.005289,-0.170245,0.107089,-0.073217,0.02937,0.060949,0.124552,0.190848,-0.308276,0.122239,-0.256055,-0.092945,0.254853,-3.053964,-0.084567,-0.009651,0.080663,0.129342,0.179452,0.252296,0.002633,0.379407,-14.70158,2.418781,-0.126729,-0.177231,-0.162837,0.188822],[0.258227,0.122442,0.089946,-0.27557,-0.042958,0.688133,-0.262461,0.549976,0.660717,0.156366,0.136091,-0.019764,0.046253,0.028123,0.012885,0.051342,-0.012705,0.059988,0.018218,0.289843,0.451043,0.550806,0.738455,-0.006266,0.202732,-0.1094,0.09568,-0.1631,0.128305,-0.130911,-0.009713,-0.127513,0.275978,0.289299,0.236751,-0.330195,-0.394661,-0.558645,-0.07747,0.126731,-0.056584,-0.479043,0.633403,-0.008896,-0.381262,0.485105,0.086893,0.23002,0.040632,-0.605113,0.021672,0.163821,-0.530155,0.415152,0.323903,0.476167,0.083995,-0.051605,0.157573,-0.003505,0.009025,0.036492,0.056273,-0.030939,-0.092782,0.090927,-0.280402,0.118414,-0.065302,-0.244335,-0.326871,-0.076909,0.151661,-0.224476,-1.18922,-0.489751,0.431875,0.374358,-1.383941,-0.271636,0.365375,-0.280506,0.0719,-0.276567,0.038805,0.238536,-0.07067,-0.05255,0.068755,0.455983,0.209799,-0.052936,-0.023884,-0.073472,0.139214,0.331847,0.030049,-0.440286,0.014252,-0.226613,-0.358216,-0.240699,0.062696,-0.026807,0.379655,-0.014579,-0.006777,-0.181564,0.060624,0.645496,0.014068,0.292836,-0.302819,-0.220514,-0.112955,-0.21021,-0.197358,0.00108,0.6893,-0.323462,0.175039,0.085403,0.060126,0.003232,0.881604,0.024911,-0.128546,0.071039,0.046717,-0.507747,-0.272426,-0.525975,-0.040556,-0.202437,-0.110385,-0.026079,0.40542,-0.036891,-0.115129,-0.919087,-0.145679,-0.189728,0.164974,-0.347779,0.842586,0.151637,-0.044718,-0.011754,-0.071918,-0.005895,-0.061047,0.233887,0.036701,0.635267,0.027277,0.439435,0.188513,-0.216608,-0.03666,-0.279858],[0.075238,0.245963,0.140957,-0.00651,-0.010186,-0.049296,0.032955,0.30066,-0.027428,0.078327,-0.089158,0.082089,0.045936,0.114313,-0.940843,0.059332,0.052305,-0.071127,-6.015092,-0.524112,-0.409193,-0.734549,-0.058485,-0.051271,-0.104077,0.200936,-0.143096,0.039083,-0.165519,-0.303831,0.288328,-0.019002,0.225052,0.104647,0.054031,0.090628,0.027269,0.189896,0.290845,0.181602,-0.033111,-0.038316,0.206493,0.36273,0.12871,0.411162,0.025853,0.188702,-0.01564,0.360457,0.025055,-0.426858,-0.465221,0.111106,0.032235,0.047232,0.081713,-2.110992,0.069037,0.324293,-0.067859,-0.044454,-0.038564,-0.097644,0.051412,0.767728,0.11017,0.372459,0.072526,-0.01481,-0.054488,0.012939,0.196108,-0.039733,-2.272718,0.079483,0.581536,-1.118543,0.261146,0.222988,-0.077098,0.445556,0.192596,0.089055,0.132122,0.232514,-0.02241,-0.072734,0.208008,-0.040578,-0.079664,-0.933647,-0.018996,-0.010492,0.139992,-0.152921,0.077475,0.25216,0.315709,-0.086226,0.026618,-0.252811,0.027521,0.112668,0.007448,-0.061109,-0.05363,-0.060356,-0.054904,0.07709,0.180982,0.029654,0.383453,-0.014373,0.139294,0.246261,0.169583,0.000495,0.098047,0.056715,0.19186,-0.006317,0.119382,-0.019092,0.084767,0.091541,0.060148,0.063867,0.045812,-0.038315,-0.002162,0.097041,-0.018571,-0.284281,0.141271,0.203084,-0.116863,-0.071105,0.068072,0.337085,-0.117498,0.16259,-0.1629,0.172253,0.254289,-1.924081,0.055823,0.062146,-0.017597,0.150193,0.116219,0.087302,-0.043622,0.296315,-6.006993,2.101984,-0.126547,-0.299147,-0.149309,0.092435],[0.16759,-0.286998,0.137732,0.401672,0.016386,0.156493,-0.364244,0.230615,0.470279,0.057178,0.509838,-0.059915,0.063601,0.093775,-0.075878,0.049875,-0.066288,0.074318,-0.368382,-0.308324,-0.382052,0.18249,0.031302,-0.254752,0.199842,0.158487,0.134963,-0.006898,-0.712072,-0.231845,0.278778,0.038894,-0.311358,0.668017,0.102004,-0.242092,-0.047069,0.777531,-0.083103,-0.05803,0.051281,0.18701,-0.034934,-0.014379,-0.114304,-0.01839,-0.104466,-0.186715,0.066659,0.008385,0.024025,0.204076,0.23153,0.3473,-0.678907,-0.568672,0.061631,0.658258,0.159872,-0.019551,0.029123,0.081544,0.024544,-0.158671,-0.233864,0.098999,0.100614,-0.17131,-0.007832,0.161062,0.332831,0.020509,-0.050229,-0.14301,-0.882401,-0.150212,0.110443,0.236282,-0.022467,0.161481,-0.037033,0.101222,0.205451,0.325749,0.109682,0.048285,-0.182755,0.034405,0.021049,-0.137714,-0.072993,0.479487,-0.421937,-0.031915,-0.020056,-0.160237,0.083447,-0.106486,0.537114,-0.061877,0.080767,-0.21917,-0.067667,0.095109,0.242261,0.053789,0.062063,-0.052125,0.069715,0.081896,-0.445805,0.015572,0.109869,-0.073289,0.01956,0.540997,0.135293,-0.224242,-0.585052,0.01273,0.027691,0.174551,0.104119,0.037482,-0.170072,-0.053832,-0.303235,0.498717,-0.700885,-0.164307,0.296834,-0.11626,0.070818,-0.386563,0.078448,-0.127733,-0.387555,-0.065923,-0.044639,9.9e-05,0.154254,0.042101,0.022884,-0.117367,0.051036,0.548511,0.058176,-0.00065,-0.085558,0.069888,0.171266,-0.190456,0.050729,0.254007,0.033295,-0.220774,0.021906,-0.489101,0.100533,0.13339],[0.571547,-0.044062,0.01473,0.522086,0.037879,-0.068858,-0.248085,0.370232,0.305162,-0.096386,0.232823,-0.007459,0.010354,0.140973,-0.134166,-0.034424,0.051147,0.057368,-1.810482,-0.066891,-0.169443,0.586662,-0.084614,0.186333,-0.058795,0.164743,0.177431,0.154612,-0.300859,0.095501,0.207488,-0.167409,0.037452,0.095673,0.227775,0.287485,-0.025016,-0.212036,0.028698,0.206013,-0.012354,0.659598,-0.091056,0.113271,-0.045229,0.011025,0.027843,0.242993,-0.025648,0.013891,-0.045145,-0.03172,-0.102038,0.217105,0.228724,0.161479,-0.154126,0.728696,0.028799,-0.162814,0.034276,-0.031036,0.001021,-0.176251,-0.087335,0.219996,0.056632,-0.215248,0.001397,0.332355,-0.503611,-0.019173,-0.261106,0.448424,0.026032,-0.060119,0.255112,0.108642,0.348553,0.07618,-0.091052,0.201271,-0.361114,0.320058,-0.202522,0.069536,0.206913,0.354367,-0.197438,0.201391,-0.174002,0.031641,-0.114017,-0.003004,-0.200053,0.015557,0.005121,-0.147474,0.392769,-0.646011,0.066994,-0.03845,0.012612,0.103487,-0.183932,0.07329,0.030395,0.109401,0.010419,0.27625,0.822085,-0.250818,-0.098185,0.253998,0.383411,0.05519,-0.139102,-0.410024,-0.692164,0.18831,-0.03946,0.348625,0.253465,0.022896,0.114917,-0.048615,0.069298,0.113822,0.017902,-1.007059,0.324443,-0.336037,0.102883,-0.110518,-0.124287,0.131092,-0.792882,-0.04946,-0.306769,-0.089736,-0.003175,0.056913,0.184167,0.147233,0.024154,0.657022,0.389803,-0.020492,0.035288,0.203569,-0.029473,-0.209672,-0.013108,-0.812535,0.149419,0.164019,-0.054169,-0.620075,-0.406745,0.012502],[-0.032948,-0.036404,0.321342,-0.013239,-0.031236,0.412115,0.470428,0.01104,0.150401,-0.639582,-0.022147,0.01767,-0.064631,0.241078,0.492234,0.058445,-0.019636,0.043924,-0.500888,-0.140491,0.415114,-0.160209,-0.491885,-0.161965,-0.010727,-0.4525,0.23192,-0.000262,0.708287,0.162356,-0.320554,0.296869,0.224647,0.488332,0.047696,0.384919,0.378098,0.283766,0.229882,0.171008,-0.002331,-0.560106,-0.261061,-0.046128,0.079937,-0.526819,-0.139245,-0.013747,-0.006894,0.422429,0.031888,0.202715,0.231111,0.429374,0.139983,-0.384086,0.119006,0.201686,-0.19208,0.163323,0.067945,0.043975,-0.033316,0.371571,0.148986,0.104962,-0.161523,0.055651,-0.064467,0.186309,0.071612,-0.007047,-0.667801,-0.032573,0.840863,0.22319,-0.121985,-0.365022,-0.287001,-0.196428,0.042217,0.181089,-0.200639,0.307496,0.338174,-0.195818,0.257195,0.024571,0.343738,-0.287729,0.467834,0.05637,-0.005039,-0.019189,0.11489,0.118098,0.57473,0.071453,-0.16936,0.002685,0.115812,0.390099,0.061503,-0.575042,-0.450352,0.045546,-0.033121,-0.148265,0.057563,-0.644204,0.816767,0.029502,-0.04309,0.206885,-0.085396,-0.204398,0.323751,-0.522284,-0.136527,0.076066,-0.120654,-0.099431,-0.405961,-0.015839,0.487489,0.010719,0.122353,-0.12078,0.430039,0.075736,-0.017862,0.283573,0.04653,-0.006553,-0.149326,-0.203811,0.461903,0.003908,-0.127551,-0.706064,-0.128342,-0.276802,0.016664,0.250057,0.267354,0.11607,-0.093929,0.059552,-0.067738,-0.054777,-0.044595,0.049572,-0.01772,0.9535,1.030372,0.072286,0.427389,0.13109,0.187793,0.053576],[0.379973,-0.324271,-19.64255,0.670827,-0.049849,-3.336875,0.867389,-0.435329,0.184726,-0.344132,0.19188,0.052239,0.000619,0.07564,0.127107,0.06987,-0.00097,-0.067624,0.006512,-0.097668,0.174486,0.214196,0.018931,-1.210849,0.405736,-1.082024,-0.553153,-0.216134,0.093543,0.332661,0.298644,-0.088191,0.21624,0.13718,-0.289426,-1.638423,-0.285977,-0.026943,-4.963708,0.861274,-0.023397,-1.620961,-0.076245,-0.087841,-0.527697,-0.144583,0.011246,-0.443919,-0.028542,0.645879,0.018318,0.18033,0.312146,0.121088,0.039122,-0.04021,0.310651,0.698657,0.371921,-0.171987,0.014339,-0.033843,0.049461,-0.276834,-0.641463,0.488252,-1.328495,-0.314356,0.00417,0.199853,-0.488585,0.074515,0.279458,-1.39831,8.091124,0.125819,2.962872,-0.446547,-0.285715,0.491837,0.613625,-0.119056,-0.234519,-0.307557,0.550314,0.935568,-0.346845,-0.164977,-3.492515,-0.499472,0.846888,0.31235,-1.403431,0.055745,-0.035181,-0.049637,0.324878,0.147734,0.208965,-0.055507,-0.525862,-0.062746,0.03498,-0.420651,-0.065139,0.01701,0.068093,-0.165446,-0.0285,-0.086958,-0.39062,0.059883,-0.091259,0.222964,-4.220052,0.287471,-22.536207,-0.814956,1.855835,-0.16631,-9.984182,-0.048038,0.345021,0.037947,-1.674586,0.06383,-0.186178,-0.237689,0.042632,-0.087268,-0.027668,0.167649,0.013273,0.359727,-2.575419,-0.012265,1.263171,-0.022712,-0.514945,0.457066,-0.124751,0.047682,0.123635,0.121566,-2.694452,0.912724,-0.105067,-0.048857,2.503142,0.078938,-0.326477,-0.202194,0.052716,4.329877,-0.213,0.306802,-0.624656,0.143378,0.536291,-0.244291],[-0.491662,0.187081,0.261804,0.107432,0.04516,0.259679,-0.343967,-0.563101,-0.532585,-0.132206,0.162419,0.072692,0.040696,-0.011917,-0.246588,0.06708,0.060713,0.014408,0.31158,-0.488214,0.475625,0.388647,0.066018,-0.236714,0.136812,-0.004075,0.280565,-0.251352,0.26224,0.089199,-0.019904,0.204471,-0.088,0.416787,0.112675,0.122183,0.125396,-0.156236,-0.150985,-0.166449,-0.011363,0.495952,0.000542,-0.014559,0.201482,0.092741,-0.114064,0.192019,-0.017654,-0.463158,-0.094817,-1.664128,1.23067,0.437857,0.589783,0.717714,0.301998,-0.67483,-0.009235,-0.490788,-0.023553,-0.052653,0.0565,0.017499,0.264,-1.045421,0.0279,0.317995,-0.061237,0.22589,-0.223448,0.049214,0.041435,-0.424621,-0.462857,0.404532,0.209225,-0.611954,0.081368,-0.090751,-0.097478,-0.828125,-0.021827,0.04671,0.462206,0.043436,0.170352,-0.226262,0.089184,-0.065924,0.213508,0.530134,0.377441,0.06306,0.204668,0.188078,-0.102551,-0.254606,-0.11028,0.449321,0.138314,0.356506,-0.015465,0.31536,0.567746,0.001484,0.061013,0.226322,-0.069503,-0.019315,1.172713,0.29607,-0.168626,0.025312,0.154129,0.047237,0.101422,0.033639,-0.26169,-0.013262,0.015697,-0.793033,-0.180403,-0.025788,0.02659,-0.042484,0.042591,0.169536,-0.526165,0.343896,-0.215754,0.380589,0.056474,0.098536,-0.075537,-0.369497,0.382841,-0.053645,0.016915,-0.078137,0.099584,-0.118571,-0.120968,0.102446,0.127537,-0.589662,0.050898,0.070496,-0.465536,-0.515985,0.329414,0.055082,-0.068486,-0.475799,1.372129,0.384111,0.764096,-0.309451,-0.643985,0.147365],[0.114508,-0.172891,0.176567,-0.42853,-0.044989,0.009768,0.008903,0.215173,-0.443207,0.583801,-0.180819,0.009734,0.007269,0.082677,0.382408,0.066455,0.031328,0.073055,0.778881,0.202012,0.516565,-0.14951,0.021228,0.014524,0.993417,-0.058577,-0.103166,-0.116406,0.27636,0.219041,0.049601,-0.067308,-0.347837,0.456325,-0.311816,0.897412,0.066026,0.36197,0.422848,-0.158512,-0.063832,0.252217,-0.12416,0.132223,-0.058821,0.169337,0.153149,0.343073,-9.6e-05,0.479382,-0.017481,0.592984,-0.021798,-0.585471,-0.340506,0.773777,0.172944,0.064142,0.108167,0.370461,-0.034902,-0.00833,-0.030392,0.270467,-0.138238,-0.329353,0.368903,-0.190076,0.01624,0.000739,0.599603,-0.057471,0.049558,0.102638,-1.654072,-0.023373,-1.033323,-0.551507,0.054785,0.229535,0.205905,-0.640957,0.137527,0.141445,0.217335,-0.012529,0.037009,-0.309175,0.220348,-0.072756,0.547003,-0.243835,0.012136,0.045812,0.063931,0.576718,0.350739,0.591595,0.211987,0.557645,0.420825,0.2902,0.041753,0.144887,-0.73118,0.013268,-0.004064,0.06224,-0.024421,0.270266,-0.328267,0.096757,-0.095152,0.642631,0.027747,0.334462,0.397941,-0.633543,-0.22722,-0.249722,-0.088595,-0.245896,0.365455,-0.057271,-0.297356,-0.042355,-0.314463,0.130094,-0.017211,0.106042,0.17965,0.41999,-0.033619,0.18998,-0.296541,0.493404,-0.233352,0.077167,0.391346,0.018448,-0.133861,0.155056,0.045828,-0.135333,1.054348,-0.463267,-0.209223,0.059047,-0.403745,0.729085,0.179835,0.009659,-0.029917,-0.080116,-2.539471,-1.279217,0.373338,0.349861,0.282932,0.38449],[0.196869,0.354819,0.157549,0.030763,-0.032201,0.10135,0.362519,-0.004555,0.452215,0.418075,-0.30727,0.053664,0.049161,0.195505,0.338818,-0.059054,0.041467,0.048372,0.215353,-0.205527,0.105281,-0.987279,-0.106685,-0.244857,-0.000718,0.091164,0.173876,-0.228036,-0.300077,0.304457,0.192807,0.240984,0.011114,-0.060362,-0.422635,0.196683,0.362515,-0.142185,0.363624,0.219011,0.065077,-0.336055,0.22264,0.25116,0.362989,0.107508,-0.277121,-0.178282,-0.03829,0.150344,-0.060418,0.473226,0.063095,-0.612586,0.589894,-0.498375,0.389067,-0.644851,0.153054,0.081704,-0.028229,-0.021474,-0.021656,0.047676,-0.135422,-0.38661,0.276614,0.150485,0.060859,0.24314,0.261508,0.041929,-0.318924,-0.098718,-1.009652,-0.15508,0.283131,-1.741473,0.015431,0.094319,-0.357946,-0.76183,-0.334033,0.132721,0.127802,0.155397,0.020414,-0.178307,0.215255,0.080444,0.182408,0.39002,0.276822,-0.067196,-0.12837,0.297709,0.326077,0.77229,-0.164626,0.235829,0.310752,0.147829,-0.005149,-0.005695,-0.242391,0.010969,0.048006,0.162542,-0.013507,0.576216,0.488524,0.157628,-0.038204,0.165407,0.052326,0.095218,0.174275,0.165814,0.084568,-0.1773,0.134972,-0.313085,0.307516,0.060719,0.028236,0.068438,-0.025861,-0.215443,0.419918,-0.059896,-0.520053,0.242738,0.101485,-0.057495,0.132878,0.230178,0.292303,-0.046207,0.201625,-0.067414,-0.419869,0.207369,-0.447369,0.127497,0.193463,-3.315865,-0.349244,-0.001629,0.105679,0.248225,0.200092,0.310903,0.042432,0.237111,0.391468,0.41153,0.002028,0.029402,-0.000675,0.242355],[0.024004,-0.066742,0.032416,0.011853,-0.072278,0.021118,0.020386,0.053776,-0.011353,-0.021307,-0.007753,-0.001361,-0.03725,-0.070933,0.044112,-0.00522,-0.061049,0.048852,-0.024656,-0.029234,-0.013608,-0.010388,0.001552,0.020325,0.049451,-0.071143,0.058244,-0.078641,-0.070959,0.011442,-0.06684,-0.041563,-0.092739,-0.044857,-0.069883,-0.02269,0.048907,0.003846,0.016366,-0.015966,-0.024553,-0.082093,-0.018844,-0.089394,-0.003802,0.040393,-0.036014,0.010696,0.023594,-0.0658,-0.015002,0.021901,-0.078531,0.015168,-0.028996,0.027731,0.028092,-0.065962,0.015495,-0.042479,0.028935,-0.082791,-0.022766,0.032142,-0.053088,-0.052,-0.077494,0.046182,-0.049008,0.001838,-0.084203,-0.039688,0.059389,-0.017795,0.036468,-0.081213,-0.027366,-0.077423,-0.019469,-0.017461,0.048081,-0.083547,0.056594,0.040313,-0.089986,0.052256,-0.023681,-0.055592,-0.010846,0.029475,-0.076352,-0.06798,-0.089656,-0.076718,-0.053642,0.047957,0.018126,-0.080318,-0.06089,-0.045385,0.046645,0.050269,0.00161,0.044064,-0.035024,0.044596,-0.0192,-0.038525,0.046476,0.017143,-0.01453,0.024093,-0.058312,0.056189,0.053309,-0.042071,0.004214,-0.058886,-0.067096,0.003769,-0.023969,0.017333,0.047911,0.013975,-0.080444,0.034574,0.034882,0.029113,-0.088848,-0.07125,0.051557,-0.030523,0.017374,0.014704,-0.000544,0.051514,0.022734,-0.046939,-0.022079,-0.045524,-0.056926,-0.040767,-0.005948,-0.060806,0.046725,0.069773,0.062147,-0.007838,-0.025091,-0.029696,-0.061062,-0.090659,-0.026237,-0.000839,-0.022177,-0.086957,-0.087223,-0.016689,0.012081,-0.087905],[0.046799,0.032917,-0.074369,-0.098986,0.027193,0.053088,0.039444,-0.044543,0.004599,0.00945,0.027287,0.033818,0.005861,-0.098018,-0.074967,0.074063,-0.070222,0.072368,0.05012,-0.02677,-0.04472,-0.067201,-0.074884,0.04525,-0.077976,-0.081058,-0.019103,0.075028,-0.041582,0.018518,0.025421,-0.07828,0.053196,-0.066823,-0.015277,0.011838,-0.032359,0.045382,-0.035974,-0.056459,0.046725,-0.0787,0.005549,-0.067666,0.021744,0.043786,-0.067647,-0.091352,-0.092189,0.012629,-0.009568,0.04966,-0.089694,-0.029475,0.0068,0.045336,0.043361,-0.028812,-0.10191,-0.007848,-0.026459,-0.048419,-0.075279,0.017744,-0.065434,-0.000327,-0.050913,-0.08594,-0.024382,-0.039895,-0.01163,-0.055629,-0.047773,0.008121,0.017247,-0.09622,-0.013942,-0.05147,0.00222,-0.002984,-0.079614,0.020446,0.025387,-0.058404,0.016855,0.045978,0.042278,-0.027038,0.035279,-0.049824,-0.085038,-0.017984,0.015048,0.002654,-0.058576,-0.017679,0.045768,-0.018068,0.019276,-0.092996,0.015093,0.007511,0.008771,-0.077454,-0.089709,0.028075,0.067808,-0.044972,0.025315,0.003078,-0.055906,-0.034442,-0.04082,-0.073144,-0.082842,0.040774,0.049025,-0.019165,0.041856,0.057853,-0.056071,0.046438,-0.050091,0.059023,0.025106,-0.081113,-0.006477,-0.058689,-0.049484,0.03085,0.0023,-0.089751,-0.009909,-0.007927,-0.051283,-0.05254,-0.066061,-0.028192,0.036675,-0.100141,-0.008634,-0.009513,-0.044033,0.003659,-0.004688,0.065325,-0.01606,0.052299,0.028848,-0.005752,0.045327,-0.033771,0.056733,-0.045116,-0.0382,-0.066204,-0.052894,-0.024302,-0.001222,-0.048221],[0.076462,0.487144,0.217389,-0.476859,-0.00179,0.220669,0.247074,-0.215339,-0.877214,0.403122,0.199364,-0.020175,0.018599,0.066389,0.617196,0.056836,-0.035002,-0.003611,0.196206,0.132207,0.446033,-0.588311,-0.005364,-0.400258,0.198679,-0.33764,0.286183,-0.113206,0.436315,0.32705,0.077104,0.261197,0.266836,0.228767,-0.406942,0.525788,0.107865,-0.161296,0.236715,0.126838,-0.005241,-0.002454,0.488607,0.354371,0.171877,0.264082,-0.0524,0.246616,-0.012982,0.082318,0.042989,0.915319,0.170598,0.151816,0.690921,-0.198057,0.387467,0.157926,-0.010229,-0.115239,0.045606,0.05003,-0.056416,0.396462,-0.27804,0.070784,0.029461,0.265889,-0.003549,-0.275704,-0.071652,0.038914,0.354823,0.045222,0.319581,-0.182155,0.604341,-1.258531,-0.312655,0.35168,-0.169193,-1.434319,-0.24362,-0.351879,0.142058,0.078861,0.216113,-0.536625,0.256618,0.183757,0.292316,0.243953,0.407124,0.07523,-0.059053,0.394594,0.026374,0.35077,-0.582928,-0.0258,0.04405,0.776243,-0.065276,0.16962,-0.746208,-0.058744,-0.01422,0.192546,0.018519,0.026043,0.531741,0.24347,-0.168323,0.087528,-0.02292,0.331214,0.334049,0.06266,0.253201,-0.13013,0.093673,-0.085497,0.320646,0.046497,-0.206553,-0.009493,-0.395615,-0.210225,0.0736,0.138137,-0.384137,0.101651,0.026304,0.150308,0.164645,0.201179,0.598339,-0.075548,0.071879,0.183646,-0.516439,0.224167,-0.682711,-0.108537,0.174168,-2.157393,-0.406612,-0.009964,0.180841,0.016149,0.058379,0.290997,-0.062063,-0.155453,-0.603766,0.435957,0.220808,0.296206,-0.641589,0.181255],[-0.072262,0.277667,0.03187,-0.144093,0.03905,0.219452,-0.06927,0.327204,0.930326,0.139197,0.006308,-0.030116,0.003005,0.187608,0.107781,-0.047612,0.000879,-0.029503,-0.203903,-0.232532,0.074367,-0.464628,0.204816,-1.187191,0.1889,-0.284294,-0.135362,-0.08344,-0.530337,-0.25525,-0.054399,-0.307222,-0.177171,0.418227,-0.13292,0.087127,0.200281,0.174091,-0.053577,0.10863,0.07514,0.336007,-0.245067,0.563786,-0.253776,0.157115,0.026849,0.16808,-0.061681,0.214989,-0.020143,0.450813,-0.149587,0.251137,-0.239241,0.45767,0.143882,-0.291399,-0.124504,-0.292695,0.035907,0.071463,0.036785,-0.107854,-0.368677,0.35725,-0.033793,0.371997,-0.013099,0.337463,0.222745,0.064837,0.039921,0.244134,-0.335678,0.148039,0.087846,-0.269927,-0.032146,-0.212552,-0.077506,-0.391239,-0.089955,0.02496,0.323339,0.180998,0.048998,-0.406677,-0.003724,-1.019198,0.200966,0.016002,0.131512,0.013754,-0.297411,-0.056341,0.107861,0.141458,0.55145,0.125543,0.003526,0.450781,0.041548,0.10405,0.166956,0.041168,0.027429,-0.006664,0.04452,-0.255617,-0.488461,0.104105,-0.271028,0.306601,-0.194594,-0.095057,0.010242,-0.05934,-0.00769,-0.028133,0.019441,-0.271899,0.008218,-0.049376,0.804319,0.008596,-0.130667,-0.12339,-0.040884,0.098484,0.041056,0.182156,0.056939,-0.198673,0.111862,-0.019119,0.26435,9e-05,-0.104873,0.290861,-0.000627,-0.221416,0.109019,0.284412,-0.081357,0.125377,-0.14307,-0.019907,-0.273455,-0.02347,0.147464,0.025511,0.059445,0.133358,0.909383,0.205309,0.367953,-0.029197,-0.145892,0.072942],[0.2629,0.771715,0.126977,0.788788,-0.025349,-0.114836,0.139388,0.779071,-0.696647,-0.434162,1.126638,-0.06465,0.038647,-0.500436,0.178236,0.031376,0.022087,-0.019341,-7.404984,-0.820747,-0.54959,0.145016,-0.307905,0.295838,0.383302,0.113292,-0.18769,0.100314,0.092934,0.044075,-0.155936,-0.080465,0.197658,0.068889,-0.03937,-0.043106,-0.405505,0.249468,0.113064,0.210679,0.038959,0.4235,-0.634619,-0.070184,-0.263205,0.137295,0.473243,0.231138,0.058579,-0.708929,-0.068807,0.223803,-0.31305,-1.05291,0.08655,-0.050856,0.370105,0.197761,-0.123439,-0.178876,-0.018781,0.053164,-0.054666,0.108226,0.299585,0.51297,0.147344,-1.049975,-0.01341,0.218441,-0.014732,-0.057239,0.094782,-0.010115,-1.144008,0.026616,-0.93334,-1.003065,0.319436,-0.279251,0.476772,0.37105,-0.119656,0.55137,-0.008174,-0.049784,0.01913,-0.355507,-0.216484,-0.44993,0.114914,-0.063593,-0.006332,0.016871,0.098715,