export const trainedPolicyArtifact = {"enabled":true,"passed":true,"version":"postflop-selfplay-regret-v3","artifactId":"postflop-selfplay-regret-v3-1782377476","trainedAt":"2026-06-25T08:51:16Z","training":{"selfPlayHands":1800000,"reservoirSize":1800000,"rolloutBatch":32768,"trainStepsPerIter":32,"batchSize":8192,"hidden":128,"seed":20260625,"regretDecay":0.58,"seconds":7.3,"device":"cuda"},"featureNames":["equity","pot_odds","spr_norm","street_flop","street_turn","street_river","position_signal","to_call_flag","made_strength","draw_strength","wetness","paired","monotone","connected","range_advantage","blockers","range_percentile","range_weight","range_coverage","context_aggressor","three_bet","facing_bet","free_check"],"actionSets":{"open":["check","bet-small","bet-mid","bet-big","bet-over"],"facing":["fold","call","raise-small","raise-big","jam"]},"policyKind":"regret-matching","blend":0.78,"validation":{"regret_mse":0.057186,"regret_mae":0.156319,"avg_positive_regret":0.029273,"norm_error":0.0},"behavior":{"dry_blocker_bluff_bets":[0.0,0.316966,0.295207,0.387827,0.0],"wet_air_checks":[1.0,0.0,0.0,0.0,0.0],"flush_draw_raises_vs_bet":[0.0,0.0,0.0,0.0,1.0],"value_bets":[0.0,0.0,0.0,0.53322,0.46678],"river_nut_overbets":[0.0,0.0,0.173133,0.523813,0.303054]},"standards":[{"name":"regret_mse","passed":true,"value":0.057186,"threshold":"<= 0.085"},{"name":"regret_mae","passed":true,"value":0.156319,"threshold":"<= 0.22"},{"name":"avg_positive_regret","passed":true,"value":0.029273,"threshold":"<= 1.35"},{"name":"normalization","passed":true,"value":0.0,"threshold":"<= 1e-5"},{"name":"dry_blocker_bluff_bet_total","passed":true,"value":1.0,"threshold":">= 0.34"},{"name":"wet_air_check","passed":true,"value":1.0,"threshold":">= 0.42"},{"name":"wet_air_bet_cap","passed":true,"value":0.0,"threshold":"<= 0.58"},{"name":"flush_draw_raise_vs_bet","passed":true,"value":1.0,"threshold":">= 0.16"},{"name":"flush_draw_fold_cap","passed":true,"value":0.0,"threshold":"<= 0.28"},{"name":"value_bet_total","passed":true,"value":1.0,"threshold":">= 0.56"},{"name":"river_nut_overbet","passed":true,"value":0.303054,"threshold":">= 0.10"}],"model":{"type":"mlp-regret","activation":"relu","layers":[{"weights":[[0.387173,-0.125149,-0.121913,-0.114485,-0.11119,-0.031316,-0.100424,0.234833,0.242917,0.350966,0.148702,0.054619,-0.025987,-0.003716,0.094243,0.017994,0.131746,-0.048643,-0.124946,0.119115,-0.055641,0.206593,0.072691],[-0.465391,0.287179,-0.201434,-0.007815,0.029086,-0.034508,0.025715,0.084395,-0.07809,0.126005,0.047582,-0.007185,-0.0183,0.098059,0.053495,0.145347,0.065542,0.054561,0.140268,0.127673,0.049702,0.07899,0.037253],[-0.178812,0.213386,-0.161699,-0.131188,-0.01762,-0.116428,0.131256,0.146581,0.092431,0.235418,0.08888,-0.073202,-0.056385,-0.001039,0.099981,-0.05544,0.142961,0.096154,-0.030698,-0.140319,-0.055151,0.015906,0.10168],[0.575601,0.132329,-0.579458,-0.005624,-0.00576,-0.007768,0.019643,-0.111222,-0.035329,-0.15355,-0.023476,0.004154,-0.01553,-0.008629,0.045636,0.102005,0.011966,0.024945,-0.01646,0.009915,0.001399,-0.075297,-0.00443],[-0.312443,-0.011041,-0.13588,0.01978,-0.01326,-0.007833,-0.123182,0.012227,-0.012344,0.130112,0.249711,-0.007687,0.101025,0.041686,-0.021913,-0.130772,-0.023611,-0.055029,0.132875,0.069211,-0.004573,0.138449,0.000859],[0.886327,-0.152121,0.232035,-0.24069,-0.235285,-0.241614,-0.006338,-0.280061,0.099357,0.293624,0.018689,0.006031,0.015774,0.029064,0.01662,-0.086099,-0.00578,0.006115,-0.038103,-0.024867,-0.007617,-0.039033,0.025631],[0.686385,0.245161,-0.06677,-0.07804,-0.075243,-0.01271,-0.034803,-0.082305,0.078035,0.17979,0.012416,0.004086,0.006708,0.058185,-0.201859,-0.240561,-0.084366,-0.025034,-0.025407,-0.094418,-0.077633,0.002205,0.012391],[-0.065037,0.174702,0.093333,0.064477,-0.003415,0.153657,-0.101702,0.290774,-0.185657,-0.408889,0.005933,-0.071433,-0.083913,-0.077493,0.227847,-0.062589,0.039611,-0.074059,-0.015213,0.183933,0.021303,0.138914,0.013088],[-0.244213,-0.268369,0.088239,-0.056714,0.0319,-0.136277,0.122282,0.179883,-0.249027,-0.162529,-0.097806,0.139711,-0.08107,-0.18885,0.042333,0.170581,0.030038,0.083989,0.030771,0.084995,-0.180217,0.038467,0.22742],[-0.424444,0.195903,-0.22756,0.163681,0.16801,0.135322,0.068742,0.08912,-0.120745,0.056399,0.17619,0.021568,0.000966,0.123301,-0.057931,-0.317453,-0.055553,0.028793,-0.115403,-0.031302,-0.056426,0.21156,-0.015347],[0.787619,0.398155,0.123751,-0.153992,-0.150737,-0.153691,0.005847,-0.107546,0.015938,0.120921,0.017708,-0.001614,-0.005164,-0.008652,0.066956,0.036012,0.001033,-0.015502,-0.003131,-0.010549,-0.001413,0.044113,0.000672],[0.954333,0.112617,-0.168198,-0.122728,-0.122026,-0.116187,0.002137,-0.027798,0.018028,-0.02759,-0.03002,0.0011,-0.003504,-0.003575,-0.031455,-0.11174,0.006732,-0.007968,0.017614,0.004604,0.002454,-0.121303,-0.023754],[0.12244,0.15825,-1.647272,0.134264,0.129686,0.138272,0.004428,-0.056621,-0.034684,0.014401,-0.049318,0.006795,-0.004814,-0.001572,0.119573,0.088557,0.017586,-0.000379,0.002818,-0.00271,-0.002408,0.118379,-0.003618],[0.278359,-0.122196,-0.174478,-0.129119,0.01567,-0.018235,0.094024,-0.096889,0.191526,-0.125436,0.10292,-0.012999,-0.024163,-0.144812,0.110626,-0.02641,-0.163962,-0.07374,0.187059,0.155562,-0.030905,0.019843,-0.168991],[-0.20784,-0.246178,0.028448,0.099878,0.113369,0.087891,0.10056,-0.208413,-0.145748,-0.226604,0.08495,-0.035954,-0.052859,-0.003143,0.152451,-0.172849,0.008412,0.195145,0.040755,-0.055844,-0.009615,-0.214174,0.140309],[-0.359775,0.44103,0.122723,0.08707,0.098992,0.059313,0.130375,0.253768,-0.188219,0.048526,-0.120364,0.009364,-0.063458,-0.038606,-0.071355,0.157617,-0.05027,-0.130105,0.084305,-0.099225,0.026978,0.09289,-0.003408],[-0.208989,0.261304,-0.101395,0.146522,0.129299,0.10956,-0.140325,-0.06511,0.259991,0.50168,0.122842,-0.060106,0.058319,-0.00495,-0.267411,-0.388067,0.102047,0.113531,-0.162459,0.151617,0.026712,-0.088419,0.095618],[0.144204,0.317557,0.139881,0.07648,-0.209866,-0.027451,-0.036253,-0.165773,0.053598,-0.054693,0.126719,-0.056852,0.10387,-0.004063,0.2752,0.08543,0.126239,-0.054062,0.096537,-0.179297,-0.09607,-0.025427,0.008345],[0.029971,0.078567,-0.1167,-0.115032,-0.151981,-0.010676,0.086603,-0.174453,-0.16965,-0.175095,-0.182882,0.052191,0.022721,0.01602,0.008671,0.110701,-0.094182,-0.114814,-0.14513,-0.140025,-0.011212,0.098541,0.01848],[0.265808,-0.560214,0.288551,-0.057438,-0.105243,-0.105222,0.111406,0.118283,0.132295,0.023843,-0.007528,0.010655,0.016907,-0.056579,-0.054516,0.33805,0.217641,0.043912,0.025044,0.197153,0.128972,0.256352,0.082843],[-0.218047,-0.180055,0.104099,0.158889,-0.041554,0.082916,0.188441,-0.158578,0.165725,-0.247723,-0.143134,-0.082295,-0.036447,0.072403,0.189274,-0.003104,0.079993,0.167102,0.170557,-0.050931,-0.006851,-0.0463,0.055997],[0.539747,0.04976,0.216302,-0.033074,0.015054,-0.047471,0.069737,-0.18996,0.157146,0.15283,-0.008825,0.019026,0.043221,0.098643,0.256343,-0.013978,-0.043341,0.072571,0.209026,-0.006954,0.015508,-0.243766,-0.065179],[-0.757725,-0.186951,0.56115,-0.057004,-0.05625,-0.060675,0.022017,0.106863,-0.08012,-0.204596,0.069131,-0.00626,0.013982,0.017294,0.010338,-0.043731,-0.015617,0.016536,-0.0118,-0.006631,-0.017366,0.057298,0.002729],[0.283528,0.255832,-1.288625,-0.056867,-0.056546,-0.049119,0.020977,0.013587,0.120648,0.121262,0.067044,-0.004164,0.00595,0.007875,-0.095363,-0.494754,-0.000937,0.020563,0.01847,-0.040314,-0.059119,0.130656,0.0495],[-0.149821,-0.330705,-0.026297,0.076649,0.205672,0.219337,0.08271,0.286667,0.232334,-0.120679,0.093136,0.142996,-0.08391,-0.01337,0.187429,0.175764,-0.070171,0.042904,0.045897,-0.015945,-0.040835,0.13284,-0.151292],[-0.335825,-0.160564,0.07171,0.052985,0.233607,0.170335,-0.163664,0.090239,0.014794,0.013824,0.014956,0.128282,-0.021388,0.005579,-0.023881,-0.103147,-0.004631,0.051378,-0.122628,0.074833,0.093947,0.181478,0.126853],[-0.016031,-0.015228,-0.18813,0.184581,0.072543,0.095309,-0.154531,0.215165,0.017458,-0.280846,-0.130674,-0.095825,-0.056734,0.012516,0.039854,0.252529,-0.111977,0.117796,0.183063,0.170873,-0.087698,0.176615,0.065744],[0.012519,-0.378575,-0.031033,0.082524,0.134624,0.108155,-0.145422,0.311121,-0.012553,-0.156549,0.31229,-9.9e-05,-0.026492,0.191034,-0.174669,-0.141651,-0.063138,0.004455,-0.101524,0.08996,-0.131028,0.086502,0.028899],[-0.21463,0.21706,0.250675,0.128245,-0.035773,0.032243,-0.10414,0.145551,0.203862,0.093181,-0.10833,0.096396,0.060391,-0.028399,0.105143,0.188585,-0.071724,0.129617,-0.088211,-0.103898,0.026595,0.087858,0.024448],[0.383231,0.339337,-0.219425,0.017288,0.029973,0.065391,-0.038329,-0.190978,0.109564,0.023253,-0.063745,-0.028924,0.010434,0.096833,0.068569,-0.190748,-0.087679,0.052318,-0.035194,0.142405,0.01302,-0.141714,0.111555],[1.097806,0.001871,0.084477,-0.00429,-0.007416,-0.000524,0.015553,-0.244439,0.019439,0.024834,-0.030137,-0.000871,-0.001911,0.01197,-0.137062,-0.148931,0.006526,0.013445,0.01201,0.012951,0.001033,-0.172746,-0.003879],[0.150206,-0.245029,0.283466,0.116044,-0.077112,0.153183,0.076518,0.172913,-0.013858,-0.118367,-0.178172,-0.030212,-0.032181,-0.093354,-0.05743,0.663298,0.183785,-0.124354,0.179291,0.200845,-0.002345,-0.074322,-0.148163],[0.769689,-0.237994,0.023523,-0.120575,-0.120012,-0.113636,-0.016353,-0.286802,0.003086,0.071256,-0.006695,0.000226,-0.005706,-0.000112,0.036449,-0.170497,-0.003055,-0.00903,0.003238,0.001716,0.000115,-0.01687,-0.015851],[0.260597,0.112423,0.332241,-0.208211,0.025795,-0.145362,-0.086616,0.098848,0.096042,-0.17978,0.08721,-0.05213,0.029368,0.002994,0.12285,0.194141,0.051398,-0.108451,0.172608,-0.04213,-0.028932,0.201304,0.077659],[-0.275391,0.257421,0.001862,-0.090375,-0.055443,0.019982,-0.109421,0.143176,0.381746,0.504885,-0.14873,-0.044664,-0.006892,0.115475,0.206599,0.267599,-0.004886,-0.089798,0.172644,0.202586,-0.026276,0.059671,0.001944],[0.19631,-0.314562,-0.048354,0.240566,0.198822,0.143571,-0.107172,-0.420456,0.054394,0.335694,0.101324,0.002321,0.234832,0.218011,-0.03799,-0.614632,0.027567,0.250496,-0.009124,-0.090826,0.026678,-0.490262,0.01468],[-0.438239,0.014646,0.258535,-0.099984,-0.051999,-0.144993,-0.012465,0.176169,-0.098118,-0.017352,0.164369,0.024288,-0.007501,0.046813,-0.015769,-0.064941,-0.111607,0.174433,0.095156,0.183092,0.106819,0.094744,0.042537],[0.279044,0.44699,0.448475,-0.035514,-0.020354,0.031313,0.015781,0.015004,0.230884,0.377694,-0.082144,-0.007856,-0.028625,-0.001996,-0.213303,-0.458625,0.035837,0.013593,-0.017397,-0.091921,-0.040083,0.122524,0.031193],[0.505745,0.185531,-0.205403,-0.017657,-0.015849,0.009145,-0.123996,0.106697,-0.058555,-0.243851,-0.190726,0.043684,-0.022177,-0.087562,0.21637,0.533836,0.119801,0.136296,-0.080793,-0.01174,0.09062,-0.034258,0.058507],[0.185897,-0.310209,0.002699,0.021018,0.025425,-0.091612,-0.159548,0.253861,-0.003367,-0.11322,0.159908,0.058811,0.072946,0.20058,-0.267381,-0.21342,0.009273,0.091024,0.113763,-0.080014,-0.110104,-0.127678,-0.011081],[0.258725,-0.181367,0.144566,0.078442,0.073103,0.015162,-0.079643,0.076995,0.24165,0.279106,0.25539,-0.018857,0.067045,0.111818,-0.063672,-0.427629,0.061308,0.102745,0.073408,-0.075103,-0.077836,0.339304,0.014043],[-0.645663,0.327194,0.019086,0.204483,0.203566,0.20727,-0.004215,-0.193933,0.00843,0.104906,0.012267,-0.004064,-0.002717,-0.001596,-0.125718,-0.240497,0.00213,0.005213,-0.013019,-0.011047,0.00042,-0.164686,0.007382],[0.069556,-0.093137,-0.039107,-0.004446,0.054152,0.027261,0.127981,-0.203764,0.182568,0.322665,0.256967,0.073491,0.033373,-0.002434,0.042108,-0.298344,0.009772,0.07943,-0.030652,0.161338,0.070344,-0.257289,-0.048086],[0.53447,0.146107,-0.055807,0.011154,0.021413,0.010901,-0.054374,-0.286094,0.185665,0.278041,0.116732,-0.016966,0.0804,0.068242,0.152233,0.264172,0.115323,0.024939,-0.088506,0.035455,-0.012621,0.125452,0.017843],[-0.350688,0.168558,0.232187,0.073158,0.194332,0.161712,-0.14473,0.207406,-0.093333,-0.223061,0.260535,-0.033137,-0.02662,-0.038212,-0.081452,0.170378,-0.033189,-0.126615,-0.043998,-0.110747,0.075621,0.142528,-0.016616],[-0.138998,-0.074361,0.164588,0.056185,-0.133052,0.163832,0.025738,0.020223,0.04854,0.095768,0.069757,0.040257,-0.034803,-0.046943,-0.349751,-0.087655,-0.002785,0.010763,0.099337,-0.136857,-0.161516,-0.095989,0.185803],[0.650236,-0.11778,0.225886,0.010566,0.005587,0.017088,-0.038509,-0.246461,-0.028708,-0.034423,-0.073563,-0.003396,-0.019901,-0.009018,0.065635,-0.091085,-0.008824,0.001571,-0.011616,-0.05274,-0.028148,-0.098979,0.078771],[0.267264,0.313925,0.14068,-0.03639,-0.084585,0.074041,0.003544,-0.073397,0.112368,-0.153449,0.076263,-0.074208,-0.104566,0.116424,-0.032896,-0.458334,0.06332,-0.084598,0.017627,-0.08803,-0.023314,0.023159,0.054405],[-0.088966,-0.15309,0.011414,0.023491,0.0256,0.018957,-0.009915,-0.076549,-0.941983,0.425852,0.081498,0.000484,0.020148,-0.34998,0.050053,-0.740782,0.028044,-0.00656,-0.024529,-0.015457,-0.004,-0.112522,-0.002861],[0.107434,0.102793,0.043746,-0.070457,0.062748,-0.06575,0.101915,-0.039371,0.195481,-0.041619,-0.064173,0.031677,-0.129281,-0.241412,0.04199,-0.920892,-0.151082,-0.005797,0.084545,-0.243793,0.024954,-0.203934,-0.040773],[-0.091739,-0.164319,0.231434,0.046636,-0.044687,0.018232,0.011592,0.207566,-0.187595,-0.130351,0.139471,-0.020349,0.072556,-0.087787,-0.202026,-0.101341,0.004375,-0.116795,0.010665,-0.038457,0.047218,0.032873,-0.015306],[-0.193399,-0.033027,-0.170577,-0.085439,0.165211,0.000302,-0.005754,-0.143845,-0.075502,-0.540265,-0.303,0.023266,-0.057603,0.001545,0.179794,0.457352,0.029213,0.037912,-0.091638,0.035506,0.186469,-0.054099,-0.044744],[0.053379,-0.068286,-0.003903,0.164557,-0.123974,-0.004655,0.108317,-0.238896,0.028725,0.086654,-0.048113,-0.006464,0.046749,0.003687,-0.087037,-0.276149,-0.154815,0.066161,-0.051539,0.013039,-0.133047,0.024665,0.065438],[-0.860115,0.101445,0.284955,0.052352,0.049796,0.048427,0.016096,0.021745,0.040723,0.006962,0.030878,-0.002039,0.00987,0.007753,0.095707,0.10686,0.013362,0.009055,0.03626,-0.008427,-0.003178,-0.230162,0.095435],[-0.13496,-0.393442,-0.126546,0.034487,0.117318,0.085087,-0.034428,0.112589,0.105376,-0.032347,-0.082039,0.035673,0.05545,-0.025631,-0.053156,0.031537,-0.065085,0.136488,-0.017595,0.13753,-0.000146,0.028468,-0.215934],[0.360636,-0.143542,0.16778,0.076802,0.013907,0.02107,0.056426,0.224407,0.103389,0.068743,-0.118691,-0.055874,0.037965,-0.089305,-0.111607,-0.200085,-0.098803,0.171825,0.160682,0.037899,0.110912,0.161783,-0.03308],[0.427688,-0.023088,0.106398,0.054535,0.16883,0.103775,0.074295,-0.130032,-0.081148,-0.034124,-0.184854,0.034916,0.076332,0.108963,0.196322,0.119294,-0.103261,0.025809,-0.169027,-0.063304,-0.078792,0.169365,0.105107],[0.334086,0.247074,-0.076538,-0.066257,-0.0384,0.028518,-0.02022,-0.257283,0.089291,0.06086,0.114331,0.034351,-0.110472,-0.051363,-0.241904,-0.442735,0.12054,0.092002,-0.065825,0.114464,0.068804,0.050622,0.016603],[-0.205076,-0.071664,0.092202,0.247978,0.247353,0.260405,0.098743,-0.025657,-0.103815,0.103394,-0.057723,0.028244,-0.241282,-0.143536,-0.31675,-0.369247,-0.037909,-0.056566,0.104107,0.026045,0.039455,-0.253829,0.02164],[0.208307,-0.115266,0.082053,0.158375,0.168446,0.093879,0.182055,-0.430343,-0.105794,-0.045318,-0.009356,0.035613,-0.06136,0.239716,-0.193072,-0.335037,-0.059925,-0.056314,-0.053988,-0.238737,0.058589,-0.196238,-0.021808],[0.079644,-0.257854,0.04037,-0.097577,-0.098124,0.057606,-0.060209,-0.272363,0.047442,-0.110725,0.315901,0.024978,-0.062364,0.122522,0.266141,0.151201,0.149175,-0.00867,0.062025,0.054575,-0.051173,-0.174603,0.000756],[-0.147209,0.292672,0.036497,0.051946,0.180704,-0.057074,-0.121318,-0.031877,0.054594,-0.010703,-0.046683,-0.019546,-0.060837,-0.031686,-0.216394,-0.261046,0.082786,0.034275,0.113019,-0.1001,-0.016375,-0.01939,-0.023421],[-0.1858,-0.312767,-0.117843,0.069379,0.087026,0.167812,0.043631,0.062604,0.345008,0.184722,0.188603,-0.070437,-0.006272,0.074645,-0.232711,-0.038649,0.186081,-0.174405,0.15707,0.091517,-0.074604,-0.054992,0.017577],[0.024799,0.257554,0.025622,-0.059214,-0.058512,-0.063896,0.013733,-0.280407,0.418184,0.866475,0.319617,0.004268,0.193596,0.114709,0.103318,-0.947563,0.04285,0.010735,-0.032817,-0.018393,-0.011428,-0.156361,-0.008052],[0.199833,0.279508,-0.191975,0.145653,0.199042,0.201526,-0.041034,0.120587,-0.394076,-0.21424,0.245242,0.037293,-0.024055,0.206207,-0.160848,0.178062,-0.13464,-0.059832,-0.101913,0.036546,0.093073,0.105802,-0.0246],[0.732385,0.105033,0.163711,-0.166534,-0.156676,-0.153258,-0.03565,0.022639,0.113532,0.252169,0.023201,-0.008325,-0.009461,-0.027921,0.072948,0.049781,0.070429,0.009453,-0.071301,-0.003244,0.013792,-0.095431,0.015486],[-0.165768,-0.254051,-0.155645,0.143079,0.006475,0.166914,-0.059919,0.209759,0.27072,0.066209,0.022269,-0.002342,0.063549,0.022657,-0.166848,-0.343971,0.044422,0.028527,0.170315,-0.046241,0.064077,0.07652,0.001752],[0.040125,-0.112535,-0.02086,0.17105,0.19067,0.176215,0.042223,-0.147264,0.009398,-0.00971,-0.086223,-0.015882,0.113129,0.153002,-0.111827,-0.270931,-0.079427,-0.032235,0.025893,-0.183868,-0.085393,-0.180556,-0.043395],[0.772315,0.199723,-0.295535,-0.126146,-0.123895,-0.136115,0.052453,0.044919,0.093528,0.149321,-0.019135,0.003743,0.005315,-0.006605,0.215177,0.226375,-0.005585,0.037024,-0.046993,-0.023569,-0.015162,0.036975,-0.010109],[0.450205,0.039977,0.247598,-0.012304,-0.034713,0.02826,-0.061578,-0.169095,0.139134,-0.027533,0.037543,-0.020724,0.039243,0.087172,-0.078082,0.14081,0.188881,-0.09556,-0.008082,0.120712,-0.038815,-0.239298,-0.070933],[-0.330376,-0.02542,-0.037248,-0.013725,0.045707,0.088175,-0.039938,0.157166,-0.108437,-0.185374,0.149639,0.01235,0.094485,0.201445,0.036779,-0.312053,0.15558,0.058456,0.078905,-0.084393,-0.047784,0.127749,0.098876],[0.338833,-0.134895,-0.094973,0.051126,0.070905,0.072898,-0.035775,0.148064,0.108023,0.332764,0.265702,0.00688,0.060605,0.159683,-0.159322,-0.549771,-0.087088,5.7e-05,0.013798,0.014969,0.015778,0.1589,-0.013015],[-0.01718,-0.271901,0.302736,0.073356,0.148988,0.132729,0.132614,0.21605,-0.068754,0.210676,-0.114473,0.058211,0.035301,-0.092635,-0.227648,-0.291102,-0.07743,0.122741,-0.112762,0.027799,-0.002842,0.266104,0.004657],[-0.237781,0.089475,0.118013,0.166135,0.174428,0.155168,-0.023712,0.192784,0.033497,0.28761,-0.308764,-0.007438,-0.113472,-0.101937,-0.294268,-0.573479,-0.036942,0.013091,0.112655,-0.21714,-0.04366,0.122105,-0.005256],[0.254244,-0.305463,0.135297,-0.027813,-0.043789,0.020175,0.053837,-0.044391,0.197492,0.100837,0.067582,0.010705,0.025804,0.038482,-0.218286,-0.366891,0.127612,-0.057421,0.083269,-0.12218,0.075683,-0.197118,0.091264],[-0.333739,0.472289,0.231448,0.121218,0.028852,0.058414,0.137769,-0.020231,-0.168397,-0.272928,0.142631,-0.048023,0.062128,-0.049394,-0.152825,-0.052745,-0.030626,-0.102059,-0.080301,0.226051,-0.034466,0.173289,-0.075416],[-0.344759,0.465604,-0.133328,-0.076261,0.14934,0.049139,-0.0924,-0.149926,0.037952,0.190112,0.066716,0.091625,0.128871,0.114176,0.159649,-0.076761,0.087146,-0.027547,0.077111,0.114822,-0.019599,0.176061,-0.080773],[-0.367363,-0.160794,0.214051,0.001258,-0.009304,0.17544,-0.101108,0.068469,0.065011,0.189476,0.105567,0.011184,-0.059372,0.022031,0.079596,-0.148289,-0.019686,-0.054312,-0.063019,-0.000887,-0.051188,-0.007847,-0.094866],[0.412225,-0.708105,0.115091,0.235857,0.242018,0.233103,0.125478,-0.131446,0.106855,0.147142,-0.033547,0.007056,0.004914,-0.006713,-0.157096,-0.374929,0.027784,0.058498,0.046135,-0.008792,0.028467,-0.051897,0.102537],[0.2302,-0.024474,0.299457,0.097448,0.185034,0.201016,0.015206,-0.36253,0.122814,-0.289397,0.008804,0.110455,0.050823,0.034845,-0.050042,0.160972,-0.059725,-0.010761,-0.032958,-0.065168,-0.016545,-0.431669,-0.08312],[0.402277,0.19391,-0.201388,0.118843,0.02332,0.040541,0.031201,0.116709,0.052984,0.27354,0.204144,0.097547,0.158852,0.064374,0.053838,-0.165292,-0.171859,-0.072304,-0.089603,-0.067844,-0.031086,-0.069543,0.030006],[0.016008,-0.266811,-0.001264,0.051024,0.032735,0.080331,-0.067359,-0.341444,0.141299,0.263833,0.174066,-0.065476,-0.463041,0.173217,-0.188545,-0.566166,-0.011603,-0.125985,0.026645,0.169129,-0.037378,-0.339974,-0.044558],[-0.374078,0.272273,-0.129875,0.12687,0.128682,0.15868,0.145322,0.115852,-0.093766,-0.227367,0.255938,-0.010884,0.035933,-0.006191,-0.10935,-0.321438,-0.033843,0.031571,0.039671,0.043269,-0.040121,0.103115,-0.023889],[-0.453779,0.481402,0.047152,0.033922,0.076617,0.041004,-0.053119,-0.036279,0.074415,-0.151009,0.124209,0.077619,-0.012803,-0.024667,-0.074367,0.26014,0.042443,0.033292,-0.020724,0.011716,0.016778,0.170731,-0.02344],[-0.289691,0.095771,0.13084,0.08732,0.084424,0.117962,0.107417,0.004019,-0.071277,0.104753,-0.022395,-0.012576,-0.055085,0.049072,0.12479,-0.106896,-0.002303,0.136804,-0.052584,0.013268,-0.103737,0.024452,-0.012406],[-0.396082,0.529798,0.033575,0.042075,0.030863,0.247104,0.140693,-0.0844,-0.055524,-0.173264,-0.023713,-0.017651,0.010202,0.067703,-0.073088,-0.086264,0.054154,0.063991,0.026861,-0.026488,0.0051,0.006469,-0.088639],[0.487019,0.21544,-0.015653,0.070485,0.037782,0.036485,-0.009049,-0.135961,0.069707,0.041019,-0.17167,0.008497,-0.031559,-0.090455,0.238105,0.235273,-0.035076,0.048197,-0.070525,0.147303,0.030879,-0.178215,0.011395],[0.337196,-0.158662,-0.056099,0.117349,0.102793,0.119291,-0.01322,-0.306721,0.11325,0.455722,-0.411998,-0.007469,-0.326427,-0.480387,-0.291463,-1.014804,-0.003746,0.008592,-0.044445,-0.068118,-0.026555,-0.250345,0.036409],[-0.375719,0.297837,0.217051,0.150752,0.164006,0.007928,0.075364,0.1563,-0.030173,-0.151541,-0.110755,0.046802,0.118657,0.110489,0.206141,-0.000201,-0.105671,-0.154676,0.05747,0.132023,0.010437,-0.101293,-0.008124],[0.289974,0.11718,0.051744,0.071632,-0.136803,-0.188323,-0.00823,0.2262,0.200382,0.312363,0.014014,0.053942,0.118394,-0.000673,-0.136634,-0.32914,0.140516,-0.133626,0.120418,0.024968,-0.107798,0.278055,0.010224],[0.035763,0.415732,-0.308242,0.029542,-0.026547,0.007527,0.023949,-0.173883,-0.345563,0.165843,0.219773,0.017228,0.044448,0.140807,-0.034499,-0.269453,0.101122,-0.089499,0.174402,0.060138,-0.043008,-0.014976,0.041231],[-0.37752,0.427563,-0.205236,-0.032829,-0.059686,0.001053,0.100799,0.041185,0.214742,0.262491,0.081117,0.061635,0.147216,0.047127,-0.120382,-0.063861,0.174818,-0.035523,-0.099634,0.179209,0.056125,0.142128,-0.044515],[-0.281052,-0.262994,0.2526,0.029829,0.039448,0.036539,0.027221,0.288411,-0.105858,-0.194437,-0.02666,-0.016971,0.026283,0.023337,-0.10089,0.152994,0.006636,-0.06527,-0.035004,0.051488,-0.012231,0.258772,-0.045573],[-0.072771,-0.249501,0.096703,0.077501,0.054103,0.102557,0.134944,-0.053072,0.017705,-0.209,-0.011687,-0.000513,0.005047,0.034748,0.234183,0.388049,-0.038524,-0.158791,-0.019708,0.13091,0.136929,-0.098331,0.021383],[0.347332,-0.220567,-0.248447,0.024878,0.017217,0.001099,0.181505,0.223227,-0.234948,-0.068337,0.033774,0.045649,-0.0239,-0.053684,-0.076534,-0.430734,-0.017633,0.022345,0.041456,-0.12179,-0.03737,0.200727,-0.02758],[0.180168,0.080892,-0.104633,-0.065042,-0.065315,0.12199,0.069876,0.258993,0.220711,-0.102592,0.205873,-0.072283,0.078388,0.119126,0.027543,-0.197683,0.013854,-0.015934,-0.164292,-0.108088,-0.06456,0.275884,-0.03885],[-0.334605,0.162999,0.176186,0.175289,0.12035,0.135989,-0.073287,0.064413,-0.187485,-0.100642,0.181265,-0.062759,0.033705,0.069194,0.168075,0.038893,-0.002551,-0.020039,-0.007923,-0.188695,-0.028363,-0.01171,0.03918],[-0.125135,0.322063,0.216883,0.049241,0.023815,0.036547,0.015429,0.163477,-0.353732,-0.49766,-0.109633,0.0254,0.041862,-0.093129,0.24808,0.008884,-0.017477,0.117145,-0.076697,-0.031611,-0.004433,-0.109959,-0.016819],[-0.240704,-0.051689,0.263173,0.089014,0.104401,0.080091,0.150632,-0.076892,-0.237884,-0.112082,0.074504,-0.029946,0.134449,0.115613,0.078014,-0.105121,-0.062716,-0.087049,-0.02173,-0.059355,-0.00625,0.24741,0.137466],[-0.193518,-0.031247,0.005716,0.182963,0.192202,0.185157,0.005273,0.116081,-0.057347,-0.14644,-0.073667,0.000779,-0.049258,-0.063635,-0.56992,-0.919715,-0.064856,0.006363,0.009112,-0.034887,-0.009232,0.038035,0.013821],[0.598358,-0.04672,-0.300216,-0.048203,-0.050498,-0.053745,-0.038284,0.229057,0.159289,0.136012,-0.04467,-0.019979,-0.005226,-0.004649,-0.001647,0.079825,0.05131,-0.032383,0.057375,-0.006737,0.000497,0.064615,0.008451],[-0.282353,0.215885,-0.026279,0.162745,0.045868,0.042168,0.178188,-0.053614,0.215777,0.047457,0.133592,0.054859,0.009957,-0.075556,-0.172354,-0.37738,0.051771,-0.04275,0.051473,-0.16707,0.047487,0.073618,-0.017371],[0.458716,0.125998,-0.795828,0.045733,0.039958,0.044276,-0.034399,-0.131556,-0.082998,-0.118423,-0.050369,0.000894,-0.009411,-0.010412,-0.063952,0.066327,-0.02668,-0.016258,0.033495,0.007767,0.004013,0.110594,-0.078065],[0.205956,-0.163199,0.228679,-0.062168,0.110541,0.08039,-0.163649,-0.163558,0.019121,-0.03097,-0.040718,0.009967,-0.000197,0.087154,-0.039121,-0.146218,0.064275,0.037626,-0.023692,0.132646,-0.064843,0.170884,0.043144],[-0.323824,0.072181,0.186779,-0.010541,-0.041599,-7.5e-05,0.135641,0.138148,0.120358,-0.018751,0.119431,-0.058311,-0.009995,-0.098383,0.078053,0.045985,0.022464,-0.03166,-0.08386,-0.093089,-0.007622,-0.129231,-0.015714],[0.122357,-0.11025,0.047345,0.049738,0.077145,0.13911,-0.032634,-0.183032,0.109508,0.265312,0.066529,0.042049,0.122934,-0.169896,-0.295251,-0.724029,0.170385,-0.124792,-0.100179,0.108723,-0.038926,-0.311354,0.01843],[-0.032748,-0.319891,0.03749,0.145829,-0.20869,0.105287,0.069477,0.14643,-0.01346,0.226455,-0.071433,0.109806,0.156361,0.110811,-0.223453,-0.323445,0.010663,0.074202,-0.160872,0.008323,0.053187,-0.19766,0.063099],[0.309984,0.035018,0.164912,-0.086694,-0.115699,-0.003225,0.177772,0.025013,0.170352,-0.001415,-0.096285,0.10856,-0.017832,0.012485,-0.014862,-0.025051,0.081136,-0.063987,0.064884,0.108939,0.082579,-0.055331,0.05684],[-0.110771,-0.275926,0.019702,0.057428,-0.015472,-0.025144,-0.158752,-0.069549,-0.134015,-0.194807,0.238951,-0.045241,-0.015282,0.014211,-0.179891,-0.222191,-0.023091,-0.049034,0.05085,0.068937,-0.058346,-0.162034,0.140086],[0.189801,-0.18194,0.055802,-0.10435,-0.096028,0.006597,-0.01806,0.201463,0.178272,-0.305062,0.168047,-0.042815,-0.118526,0.08106,-0.139558,0.021494,0.025531,0.126677,0.109307,0.076399,0.078739,-0.133695,-0.074251],[0.216972,-0.199175,-0.045735,0.135048,0.08493,0.184232,-0.017109,-0.184304,-0.039741,0.48001,0.304745,-0.026885,0.104839,-0.035702,-0.034984,-0.57113,-0.097332,-0.049506,0.054438,-0.017934,0.018175,-0.333494,-0.067294],[0.132667,-0.465945,0.157066,0.113109,0.097499,0.114353,0.025642,0.193143,-0.072463,-0.15368,0.043898,0.030955,-0.0196,-0.011935,-0.338886,-0.419927,-0.137322,-0.028241,0.032527,-0.044815,-0.073605,0.286355,0.023208],[0.044924,-0.119345,0.333554,0.055436,0.072473,0.046879,0.012157,-0.026618,0.001342,0.017842,-0.464752,0.015463,-0.18905,-0.223863,-0.71266,-0.988544,-0.041233,0.059111,0.050272,-0.329799,-0.030847,-0.358096,0.007505],[0.376937,-0.164343,0.057209,-0.075156,-0.060969,-0.191875,0.158255,0.125991,0.008409,-0.171649,0.060978,-0.017373,-0.067306,-0.079,0.121657,0.342556,0.160136,-0.126623,-0.091679,0.138747,0.037604,0.147724,0.034425],[-0.00997,-0.146188,0.094201,-0.027381,0.063527,0.073879,-0.035158,-0.113021,-0.271766,-0.128795,-0.081889,0.094228,0.040929,0.059308,-0.176719,0.178055,-0.039584,0.087721,0.001819,0.202675,0.171204,0.153563,-0.067993],[-0.369175,-0.005652,0.180581,0.181493,-0.002165,-0.057705,0.095939,0.145032,0.071635,0.261374,-0.116784,-0.051928,0.010293,0.165169,-0.083181,0.160204,0.009352,0.138796,-0.149994,-0.179224,0.119144,0.215885,-0.046964],[0.185696,0.047275,-0.131917,-0.086335,0.121084,0.122866,-0.115056,0.215297,0.072092,0.356388,-0.183357,-0.026953,0.069938,0.057456,-0.206526,-0.427322,0.062853,0.033303,-0.020866,-0.076605,0.163922,0.238107,-0.100101],[-0.023325,0.168486,-0.162416,0.091036,0.174991,-0.093166,0.034748,-0.32226,0.00727,0.297752,0.065539,-0.063194,0.028917,-0.187932,-0.058597,-0.576723,0.080326,0.175638,0.004799,0.111943,-0.202598,-0.348016,0.125255],[-0.014375,0.408745,0.041123,0.049587,0.052245,-0.024486,-0.096642,0.123655,-0.139057,0.150968,0.087029,-0.015426,-0.092122,0.053111,-0.028593,-0.242324,-0.116135,0.015057,0.098524,0.188829,-0.225623,-0.130686,-0.090017],[0.305085,-0.078241,0.060533,0.12729,0.163455,-0.049453,0.062162,0.048315,0.001966,0.270117,0.15665,0.118079,0.212055,0.07015,0.102495,-0.162115,0.012716,0.077844,-0.065134,-0.152173,0.108015,-0.073595,-0.126314],[-0.054324,-0.222192,0.073108,0.084956,0.055178,0.105683,0.104982,0.190454,-0.178097,0.201025,0.091867,0.030929,-0.067869,0.194874,0.144805,-0.035187,0.031326,-0.016411,-0.101463,-0.078662,-0.015208,0.138856,-0.025092],[0.202118,-0.182293,0.120754,0.055676,0.207421,0.119567,-0.158264,0.017722,0.01983,-0.177554,0.009985,-0.024138,-0.112987,-0.092361,0.059581,-0.358029,-0.068377,0.168629,-0.02184,-0.107301,-0.126037,-0.072781,0.128912],[-0.252454,-0.154954,-0.006462,0.2017,0.218088,0.077469,-0.110203,0.140299,0.078224,0.170563,-0.126776,-0.017224,0.047604,0.085127,0.03568,-0.143695,0.017698,0.096438,-0.100479,-0.155238,0.027184,0.027136,-0.059851],[0.954333,-0.076815,0.176345,-0.069854,-0.0694,-0.058034,0.014478,0.064654,-0.019455,-0.030067,0.027077,-0.004393,-0.002381,0.008858,-0.151754,-0.270329,-0.017404,-0.00535,0.012075,-0.004354,-0.016817,-0.267052,-0.03405],[0.70581,-0.075225,-0.07456,-0.01441,-0.012706,-0.010914,-0.001371,0.031086,0.031054,0.078908,-0.017212,0.000381,-0.004354,-0.004156,0.160462,0.16479,0.024663,0.008992,0.021386,-0.011208,-0.005382,-0.068319,0.006078],[0.140191,-0.017277,0.082182,0.093863,-0.021977,-0.103821,0.063344,-0.158547,-0.192993,-0.082059,0.023977,0.095937,-0.019306,0.082386,0.09019,-0.005855,-0.010626,0.120779,-0.103934,-0.150524,0.173372,0.039768,-0.137931],[-0.240202,-0.074959,0.254376,-0.027042,-0.00741,0.026968,0.089622,-0.110276,0.043235,-0.059057,-0.15807,-0.01245,-0.021192,0.078287,-0.27782,-0.17196,-0.122543,0.062349,0.045904,0.006695,-0.009622,0.058082,0.017794],[0.464914,-0.249925,0.20642,0.064758,0.097354,0.142233,0.022375,-0.109982,-0.301636,-0.082335,0.140989,-0.06968,0.085081,0.145542,-0.085716,0.060858,0.068749,-0.077776,-0.05914,0.091449,0.045044,0.181539,0.003032]],"bias":[-0.154289,0.015749,0.169982,0.13255,0.184092,0.012516,0.065497,-0.14176,0.228849,0.189879,-0.307819,-0.00822,0.002698,0.178416,0.15299,-0.010074,0.258972,-0.075379,-0.116807,-0.092958,0.105767,-0.221928,-0.047234,0.10435,0.043381,0.093488,0.016721,0.022635,-0.102195,0.046522,-0.019161,0.1089,0.183623,0.003618,-0.093855,-0.021088,-0.092696,-0.285505,-0.094227,0.138462,-0.196951,0.280873,-0.093498,-0.226812,0.063295,-0.038606,0.092651,0.058406,0.120546,0.169349,0.188981,0.028761,0.051946,0.166153,0.146177,-0.185741,0.007998,0.031097,0.157602,0.070369,-0.151806,0.265474,0.009597,-0.201339,-0.053937,-0.274252,0.197768,0.178057,-0.261453,-0.040028,-0.021345,-0.190484,-0.063103,0.158984,0.152205,-0.113832,-0.020044,0.283569,-0.050868,0.281932,0.104647,0.23864,0.049256,-0.184766,-0.090892,-0.049041,-0.194322,0.186593,-0.087187,0.011281,0.002933,0.323051,-0.068063,0.102095,-0.097055,0.175412,0.026072,-0.028116,-0.120492,0.363119,-0.253297,0.22479,0.098671,0.049111,0.235464,0.193426,0.067137,0.042808,0.185827,0.046645,0.031908,0.002035,0.313785,-0.109424,-0.126064,-0.014602,0.013867,0.206523,0.002027,-0.025579,-0.034499,0.226258,0.200143,-0.165486,-0.25659,0.094112,0.265267,0.016975]},{"weights":[[0.226276,-0.056103,0.007247,0.022349,-0.03826,0.353415,0.211334,0.112627,0.141579,4.7e-05,0.3382,0.148638,0.04407,0.114508,-0.071945,-0.024597,-0.046731,-0.02654,-0.073985,0.141049,0.040285,0.11302,-0.044943,-0.113975,0.203576,0.021662,0.187839,0.13458,0.076752,-0.03729,0.204883,0.153089,0.160742,0.179614,0.012286,-0.037035,-0.048085,0.056116,0.079933,0.091047,0.267777,0.106368,0.065334,0.088194,-0.019292,0.011425,0.094288,0.10712,0.113651,0.115042,0.111928,-0.083974,0.095223,0.059972,0.111127,0.257049,0.159155,0.018648,-0.054773,0.04573,0.13636,-0.056505,0.135222,0.053536,0.01836,0.258155,0.182426,0.08791,0.130467,-0.079356,-0.024896,0.266912,0.109058,0.163682,0.11955,-0.051014,-0.023624,0.048303,0.037836,-0.103441,0.146594,-0.010943,0.017151,-0.167927,0.040139,-0.082437,0.176231,-0.211686,-0.061608,0.243607,-0.024955,-0.121833,0.194887,-0.045662,0.137277,0.192387,-0.030191,-0.056061,-0.01397,0.11577,0.239881,0.081119,-0.059118,0.12806,-0.011035,0.037032,0.087344,0.165693,0.007824,0.179708,0.100648,0.260057,0.013351,0.196417,-0.008395,0.105457,0.105319,-0.101093,0.066576,0.20085,0.073045,0.19183,0.144358,0.287123,0.132118,0.151712,0.084486,0.278208],[-0.0747,0.054725,0.007845,-0.038226,-0.042758,0.036765,0.017045,0.007235,-0.009262,-0.061197,0.022491,-0.070972,-0.080547,-0.035965,0.017461,0.055222,-0.073711,-0.040597,-0.024444,0.072274,0.037433,-0.096924,-0.032441,0.025504,0.03937,-0.041733,-0.091858,0.068428,0.036841,-0.001642,0.023963,0.067346,0.026052,-0.054349,-0.033112,0.030906,-0.089555,-0.021649,0.016202,0.048983,-0.059454,0.04333,0.069523,-0.009894,0.05945,-0.065694,0.028603,-0.094217,0.037341,-0.091345,-0.062436,0.005618,-0.048592,-0.060634,0.046588,-0.049856,-0.074129,-0.07821,-6.5e-05,0.044861,-0.101305,0.017957,0.001271,0.06384,0.008813,0.072456,-0.090593,0.062257,-0.034709,0.023199,0.042175,-0.018609,0.001506,0.014677,0.031845,0.077447,0.022583,-0.052454,-0.046153,-0.092031,-0.087857,-0.012378,0.026967,-0.063877,-0.066802,-0.004598,-0.030362,-0.07406,-0.010354,-0.046025,-0.049946,-0.031882,0.019206,-0.095997,-0.10232,-0.045286,-0.005081,-0.059148,-0.068742,-0.067865,0.031491,-0.047876,0.067977,-0.100589,-0.027844,-0.057347,-0.014215,-0.065997,-0.001153,-0.036664,-0.052349,0.052999,0.00799,-0.088537,0.026586,-0.093437,0.063133,-0.043514,0.061159,0.029899,-0.067112,-0.035993,0.0129,-0.040679,0.010143,-0.012537,-0.035806,-0.020453],[-0.033954,-0.059485,-0.117266,-0.038215,-0.128551,-0.019798,-0.046021,0.022791,-0.12926,-0.030936,0.012855,0.061316,-0.005452,-0.095449,-0.076475,-0.022799,0.018919,0.049325,0.029366,0.037619,-0.10465,-0.013376,0.008057,-0.067899,-0.105277,-0.129763,-0.040613,-0.093394,-0.092083,-0.052648,0.067604,-0.069202,-0.075083,-0.047849,0.030016,-0.069767,-0.080326,0.051404,0.057698,-0.118245,0.034975,-0.126795,-0.113085,-0.101786,0.014936,-0.072579,-0.074021,-0.011909,-0.088984,-0.027879,0.029187,-0.025103,0.058549,-0.002636,-0.096321,-0.116371,-0.055742,-0.007451,0.039392,-0.055749,-0.096492,-0.118384,-0.11304,-0.103994,-0.059287,-0.017248,-0.0269,-0.069963,0.039999,-0.009911,-0.093681,0.040439,-0.028863,0.041374,-0.019157,-0.054294,-0.068615,-0.08722,-0.059753,0.026922,-0.106452,0.004754,-0.007562,-0.111075,-0.053167,-0.064727,-0.043572,-0.039643,-0.105899,-0.009787,-0.042358,-0.007546,-0.049294,-0.063772,0.018079,0.00324,-0.029544,-0.021042,-0.011918,-0.107438,-0.028976,-0.091144,-0.102137,-0.03412,-0.014628,-0.052211,-0.072086,-0.091094,-0.012185,-0.121755,-0.028539,-0.00589,-0.10076,-0.068359,-0.098264,0.00327,-0.015402,-0.122454,-0.082441,-0.078193,-0.120195,-0.025459,-0.015084,-0.038014,0.046836,0.038503,0.040164,-0.028398],[-0.106961,0.071141,0.07933,0.035489,0.045626,-0.17277,0.092997,-0.022074,-0.046326,0.018225,-0.409876,-0.080586,-0.242782,-0.041828,0.119608,0.199558,0.121635,0.037257,-0.027624,0.003557,0.098213,0.03843,-0.178172,-0.144815,-0.065691,0.103678,0.006755,-0.031956,0.113685,0.006784,-0.093252,-0.010717,0.017839,0.006304,0.139059,0.099419,0.080185,0.11486,-0.023677,-0.043656,-0.061106,-0.006072,0.113519,-0.026333,0.094867,-0.028083,0.018325,-0.016731,0.036377,-0.025517,-0.044942,-0.058135,0.066178,-0.154882,0.07067,-0.164948,0.027331,-0.019982,0.061372,0.010136,0.087303,0.122161,0.011791,0.020043,-0.084643,-0.284468,0.02197,0.050297,-0.248138,0.01377,-0.010357,-0.025492,0.035078,0.056542,-0.010212,0.203139,0.058628,0.096822,0.083885,0.148344,0.070123,0.124888,0.070351,0.077331,0.128493,0.067596,-0.102058,-0.225231,0.045637,-0.067668,0.106001,0.11652,0.070234,0.036444,-0.111991,-0.003991,0.048576,0.016043,0.017308,0.079061,-0.211731,0.167855,0.068664,0.014117,0.151718,0.141523,0.005045,0.015599,0.063851,0.023099,0.215811,-0.020648,-0.038698,-0.146905,-0.04356,-0.041208,-0.101768,0.052033,0.040232,-0.016867,-0.012591,-0.001133,0.062513,-0.146133,-0.181883,0.054944,0.140735,-0.120836],[0.061684,-0.096635,-0.01244,-0.03225,-0.066134,0.145717,-0.035655,-0.007042,0.032202,-0.172261,0.239874,0.085836,0.162405,-0.057686,0.015741,-0.112414,-0.033211,0.087436,-0.038475,0.105148,-0.022421,0.080012,-0.292505,0.128672,-0.025461,-0.07532,0.029716,-0.102078,0.108896,-0.00972,0.089395,0.072158,0.099192,0.01301,-0.088239,0.028018,-0.150394,0.214672,0.025207,-0.064415,-0.03309,-0.231363,0.018285,0.038524,-0.207028,-0.011618,0.116933,-0.027437,-0.199184,0.025643,-0.086949,-0.112038,0.008867,-0.139988,-0.031282,-0.031497,0.09967,-0.037882,0.037295,-0.091828,0.084475,0.053877,-0.041324,0.0336,0.021365,0.104064,-0.074472,-0.130683,0.154728,0.145531,-0.040466,0.087493,2.8e-05,-0.196453,0.086177,-0.011517,0.046545,-0.041295,0.070032,0.060296,-0.065842,-0.089942,-0.305919,-0.154008,-0.080734,-0.116876,0.140423,0.042158,0.077175,0.039057,0.108172,-0.211125,-0.139516,0.087067,0.065802,0.052154,-0.129105,0.002795,-0.08262,-0.542598,-0.066796,-0.135194,0.028546,0.037198,0.019497,-0.110792,-0.042264,-0.045359,-0.016782,0.033238,0.015548,-0.027813,-0.187737,0.104313,0.092556,0.006179,0.031247,-0.035809,-0.084224,-0.045228,-0.062988,0.087227,-0.059594,0.045131,0.116061,0.051024,-0.028785,0.047893],[-0.081287,-0.071907,0.053925,-0.0856,-0.09082,0.033446,0.013211,0.020476,-0.07481,0.001413,0.006948,-0.07576,-0.040094,-0.08988,0.02113,-0.005535,-0.017915,-0.058904,-0.062416,0.00297,-0.031966,0.015605,0.050573,-0.036796,-0.029742,0.051816,-0.074919,-0.094066,0.003294,-0.033798,-0.00447,-0.102026,0.022641,0.065544,0.067429,0.06888,-0.09799,0.051894,0.031957,-0.067584,-0.073213,-0.056623,0.022182,-0.10852,0.054488,-0.069366,0.076512,0.008344,-0.049861,-0.100951,0.0473,0.009868,-0.032909,-0.0868,-0.022484,0.029581,0.068522,0.017504,-0.024699,-0.021597,0.00916,-0.067603,0.029275,-0.037651,0.02001,0.014065,-0.009001,-0.01522,-0.03675,-0.000287,0.023166,0.056019,-0.068558,-0.062,0.031886,0.006184,-0.091791,0.038673,-0.039117,0.013235,-0.028915,-0.043911,0.03329,0.041017,0.051847,-0.060198,-0.034444,0.113084,0.03625,0.024178,0.020247,-0.063646,-0.090679,-0.046814,0.035762,-0.054181,-0.052225,-0.062689,0.082703,-0.046755,-0.019659,-0.071587,0.024088,-0.036363,-0.064272,-0.024587,-0.087847,-0.058541,0.055829,-0.055973,0.012901,-0.103483,-0.048369,0.051357,0.005913,0.056063,-0.092223,-0.078956,0.072978,0.047226,0.053017,0.059258,0.003965,0.005715,0.04433,-0.020706,-0.054614,-0.057835],[0.128691,-0.054521,0.042676,0.102671,-0.077576,0.08085,-0.038612,-0.04156,-0.002245,-0.060715,0.287323,0.2332,-0.141324,0.090857,0.047793,-0.120943,0.06269,0.082155,-0.002972,0.03761,0.058769,0.066616,0.867991,0.253099,-0.024409,-0.138064,0.037362,-0.102519,0.059472,0.123988,0.098465,-0.006337,0.052414,0.041222,-0.005704,-0.008057,-0.136149,-0.05522,0.184328,-0.072272,0.003954,0.260695,0.037531,0.141856,-0.120488,-0.09373,0.093164,0.066249,-0.090848,0.004748,-0.087399,-0.081502,-0.047723,0.007928,-0.186998,-0.003605,0.084778,-0.03326,-0.04436,-0.02945,0.052641,0.048083,-0.087051,0.051609,0.372745,0.161536,-0.152338,-0.115216,0.516174,0.086198,-0.108726,-0.049173,-0.134693,-0.098618,0.056778,-0.084491,0.069768,-0.263744,0.045586,0.12523,0.156523,-0.062282,0.074951,-0.261008,-0.076182,-0.047776,0.128303,-0.141256,-0.095293,0.054499,0.110416,0.013822,-1.011409,0.032421,0.239169,-0.028629,-0.103909,0.124898,-0.079412,-0.030279,0.454241,-0.044811,0.156646,0.020047,-0.116374,-0.063627,-0.100763,-0.009403,0.029362,-0.015659,-0.055137,-0.20132,0.025768,0.181548,-0.003804,-0.128592,-0.019187,-0.103961,-0.02049,0.028379,-0.074252,-0.022677,-0.130239,0.057086,0.20093,-0.002065,-0.072711,0.023358],[-0.075077,0.006,-0.013204,-0.066123,-0.073379,0.048393,-0.091825,0.067825,-0.0618,0.018985,-0.039586,-0.079862,-0.061779,-0.066244,0.034956,-0.051401,-0.084196,-0.041759,-0.076153,0.001976,-0.016806,-0.031823,-0.060791,0.005131,-0.057047,0.019552,-0.038581,0.008099,-0.035341,-0.011106,0.033005,-0.05506,0.015115,0.011721,-0.085916,-0.092128,-0.036281,-0.054784,-0.08259,0.035611,-0.027754,-0.0268,0.018482,-0.037749,-0.005771,0.005633,0.033856,0.039745,0.02373,-0.095207,0.033583,-0.085364,-0.03719,-0.017754,-0.091665,-0.016546,-0.028343,-0.053133,-0.037418,-0.090789,-0.039133,-0.088503,-0.040333,-0.021249,-0.088996,0.033762,0.064474,0.0458,-0.01992,0.024819,-0.034954,-0.081521,-0.039134,-0.069295,0.00427,0.067988,0.072578,0.071505,-0.01304,-0.01465,0.002324,0.076679,-0.088054,0.027615,-0.085456,0.08013,-0.042938,0.055288,0.056323,-0.081281,0.063264,0.038897,-0.033378,-0.077006,0.006001,-0.073631,-0.075275,0.023438,-0.095453,0.046716,-0.019191,-0.029973,0.043069,-0.060755,0.072358,-0.096165,-0.022179,0.024769,-0.044477,-0.044739,-0.070877,-0.008918,0.01746,0.036139,0.055664,0.062303,-0.092418,-0.050894,0.012789,0.067936,-0.056915,-0.07365,-0.052813,-0.069145,0.077544,0.011574,-0.052347,-0.033297],[0.066636,0.008341,-0.010055,-0.06968,0.015642,0.061776,-0.031363,-0.042154,0.030405,0.026433,-0.030158,0.018147,-0.056487,-0.103967,0.024403,-0.045566,-0.026024,0.021584,-0.00034,0.071029,-0.033179,-0.002358,-0.024752,0.029966,0.050827,0.037924,-0.080921,-0.073872,0.076656,0.056372,0.012518,0.023245,-0.056643,0.055851,-0.072443,-0.078864,0.025098,0.018449,0.06978,0.045431,0.066151,-0.202867,-0.089335,-0.015169,0.045986,0.010789,-0.096435,0.044575,-0.097811,0.027444,0.02996,-0.107101,0.010942,-0.120209,0.028517,-0.081382,0.030687,-0.043181,0.019656,-0.000186,0.064814,-0.013303,-0.09087,0.070753,-0.045543,-0.060838,0.055569,-0.065493,0.010309,-0.15618,-0.079323,-0.031941,0.027876,-0.075385,0.022312,-0.002362,-0.081663,0.00189,-0.058033,-0.029607,0.035542,-0.027876,0.05422,-0.060175,-0.023815,-0.007463,-0.098294,0.002059,-0.057117,-0.046419,0.00355,0.050249,0.046122,-0.042441,0.055753,-0.059655,0.070367,-0.054774,-0.01,-0.084424,0.019043,-0.082492,-0.072139,-0.098383,0.070896,-0.021161,-0.002428,-0.083866,0.004207,0.010231,0.007237,0.048965,0.059986,-0.095088,-0.041502,-0.039957,0.063504,-0.038197,-0.084604,0.025786,-0.03695,-0.048652,0.034684,-0.082639,-0.035225,-0.076292,-0.062491,0.064753],[0.195201,-0.229008,0.003181,0.112044,-0.304763,0.137561,0.180561,0.046708,-0.094111,-0.342828,0.406835,0.188129,0.046252,0.1187,-0.085388,0.103132,-0.28532,0.116003,0.057232,0.05497,0.000168,0.021748,0.026235,0.44472,-0.009006,-0.092372,-0.097304,-0.225865,0.051848,0.094589,0.116007,0.016888,0.060992,0.096283,-0.016851,0.01312,-0.100046,0.150326,0.18325,-0.037816,0.127905,-0.913132,0.051454,0.182869,-0.216703,-0.003694,0.142792,0.097191,-0.123099,0.119555,-0.147355,-0.045645,0.040793,-0.081233,-0.168787,-0.012925,0.095766,0.015745,-0.134813,0.006102,0.196933,-0.142199,-0.149943,0.160128,-0.001245,0.213095,-0.181783,-0.063787,0.416768,0.003216,-0.124463,0.35563,-0.121284,-0.473967,-0.102042,-0.073817,-0.013439,-0.211835,-0.04416,-0.041874,0.103787,-0.178462,-0.428682,-0.180636,-0.033431,-0.066172,0.1281,-0.186244,-0.10065,-0.014114,0.081105,-0.327745,-0.509128,-0.082479,0.205791,-0.007849,0.04107,0.213919,-0.124018,-0.850433,0.296082,-0.107179,0.161595,0.015701,-0.078436,-0.164893,-0.119222,0.073211,-0.098961,-0.051791,0.01013,-0.120699,-1.388142,0.198953,0.142877,-0.109518,-0.088838,-0.125246,-0.099731,0.065488,-0.102049,0.052875,-0.184034,0.092422,0.242367,-0.03274,-0.19555,-0.030236],[-0.132004,0.033864,0.08906,-0.403424,-0.037437,-0.551722,-0.215205,0.029838,-0.045807,0.097197,-0.568391,-0.838264,-1.061408,-0.016857,-0.101087,0.191629,-0.071028,-0.00973,-0.061632,-0.03717,0.012726,0.035905,-0.497889,-0.445102,0.020598,0.077519,-0.093412,0.003253,0.130522,-0.081802,-1.140429,0.016606,-0.668679,0.055645,0.045962,-0.046669,0.120507,0.076316,-0.092294,0.019497,0.097323,-0.210488,0.010064,-0.050202,0.207714,0.006347,0.022577,0.05978,-0.040107,-0.121751,0.107721,-0.044003,0.001136,-0.673128,-0.002159,0.064866,0.027122,-0.14587,-0.036883,-0.167678,-0.016751,0.030866,-0.007102,0.175332,-0.153067,-0.239861,0.076393,-0.096588,-0.484334,0.034846,0.111343,-0.095142,0.060187,-0.092593,-0.123036,0.158088,0.100909,0.182969,0.050646,-0.095984,-0.032841,-0.11226,0.078937,0.174341,0.113828,0.113977,-0.155061,-0.082214,0.092405,0.060715,-0.173161,0.012998,0.067329,0.023949,-0.130846,-0.041688,0.071643,0.025751,0.044402,-0.027858,-0.253219,-0.050391,-0.616288,0.006172,0.100561,-0.148688,0.007896,0.019655,0.055479,0.037941,-0.183479,-0.001279,-0.072092,-0.071049,0.016479,0.081172,-0.037866,-0.138454,0.028792,-0.091889,-0.017157,-0.125461,0.083062,-0.54941,-0.459421,-0.035866,0.106037,-0.148872],[-0.146131,0.11102,-0.050766,-0.121985,0.0335,-0.187802,0.163838,0.063631,0.005224,0.04606,-0.83237,-0.135665,-0.685245,-0.051536,0.053401,0.060296,0.233546,-0.065997,-0.003418,-0.109835,-0.017592,0.004039,-0.242254,-0.302311,-0.01883,0.076223,-0.081314,-0.036319,0.134943,-0.081248,-0.113366,0.03297,-0.015167,-0.026731,0.003683,0.249284,0.063337,0.000143,-0.163809,0.03734,0.050818,0.005235,0.031172,-0.057881,0.057116,-0.001172,0.0147,0.068879,0.109062,0.113725,0.084922,0.019862,0.11687,-0.183328,0.071795,0.003506,0.004713,0.096752,0.146419,0.228832,-0.027559,0.052219,0.09378,-0.211588,-0.03966,-0.520475,0.117811,0.151549,-0.397023,0.029738,-0.044549,-0.159018,0.04765,-0.050808,-0.001649,0.172348,0.081234,0.058534,0.124081,0.161116,-0.034337,0.20739,-0.095412,0.132712,0.061397,0.060231,-0.193885,0.632587,0.065741,-0.09046,0.055371,0.007465,-0.001916,-0.033927,-0.013781,-0.07283,0.081204,-0.004153,0.019904,-0.044417,-0.271987,0.219123,-0.112117,0.058743,0.109801,0.200263,0.098731,-0.038767,0.152242,-0.013315,0.245725,-0.016124,0.263266,-0.008041,0.025842,0.058745,0.037183,0.101782,0.068566,-0.030268,0.001648,0.060827,-0.053195,-0.170203,-0.277874,-0.029385,0.114187,-0.013654],[0.047982,0.060844,-0.011875,0.03482,0.028955,-0.030011,-0.095716,-0.026756,0.047229,-0.079909,0.033389,0.054659,0.016469,-0.059897,-0.050933,-0.089929,-0.07414,-0.028619,-0.072105,-0.068544,-0.058378,0.026948,0.010442,0.014162,0.032873,-0.017537,-0.098601,-0.03555,-0.04219,-0.086335,0.034563,-0.082837,0.009788,0.042755,-0.00083,-0.015415,-0.025361,-0.038216,0.024157,-0.091368,-0.014457,-0.078479,0.023476,0.057927,-0.042846,-0.046231,0.036811,-0.031178,-0.00355,-0.089076,0.036588,-0.083926,-0.014587,0.000366,0.001593,0.000767,-0.019432,-0.095983,-0.049899,-0.012124,-0.099049,-0.10689,-0.102418,0.03242,0.065651,-0.081523,0.054665,-0.036298,0.050673,0.025618,0.034607,0.050028,0.006495,-0.072447,-0.007065,-0.062516,-0.093656,-0.077044,-0.040114,-0.048891,0.003307,0.062735,0.065107,0.063651,-0.027075,-0.033658,0.061846,0.069049,-0.003519,0.043265,-0.035134,0.03762,0.049912,-0.064876,-0.015691,-0.099294,0.02307,0.02779,-0.091836,-0.01159,-0.033386,-0.01378,0.005773,0.014831,-0.065032,-0.027424,-0.049803,0.042775,-0.033572,0.062208,0.039586,-0.015745,-0.040821,0.004003,-0.008859,0.032766,-0.070575,-0.03152,0.045887,0.012186,-0.074051,-0.019463,-0.078563,-0.041587,-0.095839,0.023444,-0.033934,-0.093569],[0.044892,-0.034834,-0.091743,0.028615,-0.065441,-0.033724,0.009265,-0.094501,0.019942,-0.079555,-0.102761,0.035808,-0.037071,-0.000523,-0.036417,0.047402,0.012018,-0.057134,-0.030324,0.044655,-0.101881,-0.090314,-0.038473,0.036574,-0.079385,-0.102835,-0.001897,-0.018349,0.069362,-0.010988,-0.031914,-0.0776,0.022278,-0.004498,-0.040459,-0.054055,0.017382,-0.081657,-0.001436,-0.086608,-0.004935,0.029713,-0.025214,-0.050946,0.019838,0.049282,0.02428,0.023035,-0.044554,-0.092779,-0.023996,0.023794,0.030918,-0.073797,0.033008,0.062183,0.016353,-0.095217,0.037063,-0.000472,0.03749,0.039939,-0.039269,-0.063842,-0.088627,-0.077381,0.011501,-0.013929,-0.070122,0.046548,-0.045628,0.028596,0.021735,-0.040391,0.019113,0.000674,0.038867,0.063913,-0.03536,0.019139,-0.012729,-0.092028,0.004519,-0.048749,0.047271,-0.051299,-0.036687,0.065723,-0.102427,-0.006778,0.034376,0.021833,-0.067572,0.06497,-0.086277,-0.103969,-0.025309,-0.082645,-0.008563,0.058727,0.041045,0.041884,-0.105094,-0.097987,0.042844,-0.107694,-0.097394,-0.079294,0.026875,0.018608,-0.023741,-0.046296,0.022473,-0.018922,-0.037155,0.047089,0.064268,0.010706,0.008926,-0.071141,0.000834,-0.00861,0.05347,0.018861,0.026337,-0.009168,-0.099761,-0.062412],[0.021772,-0.08434,-0.061115,0.018752,0.053836,-0.006565,0.0623,-0.042974,0.076302,-0.018519,0.049701,0.070592,-0.011926,0.049178,0.059629,-0.038758,-0.088139,0.055821,-0.022916,0.085604,-0.038937,-0.024821,-0.003915,-0.068369,-0.067764,-0.070275,-0.035293,-0.074835,0.079206,0.019464,0.015083,0.080546,-0.076856,0.057484,0.083278,-0.052717,0.056062,-0.070049,0.06226,-0.063803,0.008822,0.083633,0.03106,-0.009884,0.037316,-0.082344,-0.056009,-0.051468,-0.06003,-0.08019,-0.011518,0.059904,-0.043815,-0.073277,0.063787,-0.02737,-0.063227,-0.042834,-0.056043,0.068524,-0.073594,-0.071103,-0.039232,0.062131,-0.013194,-0.004358,-0.036107,0.076268,-0.042647,-0.078448,-0.017036,-0.023159,0.036506,0.008962,0.020694,-0.070089,-0.059125,0.075439,0.01555,-0.034522,0.005642,-0.006943,0.04364,-0.07378,-0.040703,0.079453,-0.02509,-0.026241,-0.021232,-0.03236,0.048362,-0.001179,0.001782,0.069419,-0.032277,-0.007061,-0.049305,0.010971,0.021311,-0.069927,-0.019152,-0.084909,0.030342,-0.033441,-0.027919,-0.066707,0.034018,0.003787,0.024026,-0.033934,0.074295,-0.028435,-0.012875,-0.028014,-0.013443,-0.057572,0.04155,0.007255,-0.084041,-0.071486,0.023244,-0.086411,-0.073959,-0.024578,0.046287,-0.024674,-0.02553,-0.072595],[-0.208842,0.075104,-0.054615,0.061054,0.015535,0.147521,0.040147,0.023205,-0.063611,0.071006,0.034772,0.152245,-0.151983,0.009767,-0.077454,0.301232,0.098108,-0.029817,0.070365,-0.229433,0.031997,-0.047609,0.141882,-0.058939,-0.068383,-0.045624,-0.03193,-0.098223,0.173852,0.023083,0.148528,-0.130732,0.058312,0.075204,0.132634,0.080458,0.059093,-0.029539,-0.112326,0.059215,0.028203,0.045521,-0.068929,-0.116257,0.050254,0.022714,0.003165,0.13263,0.026818,0.042018,0.003375,-0.011561,0.034675,-0.08985,-0.040096,-0.115202,-0.026885,0.126694,0.087158,-0.015226,-0.151283,0.115653,-0.151614,-0.536264,0.093686,0.015229,-0.04751,-0.076305,-0.221738,0.028533,-0.01574,-0.135883,-0.046574,0.013134,0.091296,0.387975,0.059473,-0.060577,0.13305,0.012227,-0.103058,0.06797,0.16648,0.561299,-0.007039,0.36298,-0.12922,0.391549,0.109222,0.042508,0.003436,0.278977,-0.224589,-0.121417,-0.321771,-0.058235,0.044621,0.016857,-0.03164,0.123505,-0.290285,0.083157,-0.133246,-0.052034,0.007831,0.161673,-0.007362,0.067218,-0.03504,0.008337,-0.000995,-0.351199,0.189585,-0.137154,0.014371,-0.017337,0.074464,0.070042,0.096828,-0.034393,-0.066937,-0.007961,-0.085274,0.140197,0.019554,0.015973,0.113182,-0.199083],[0.322908,0.008057,0.065552,-0.040021,-0.037097,0.281804,0.078866,0.098821,-0.015215,0.090249,0.140357,0.144772,0.17272,-0.039123,0.001327,0.030189,-0.040303,0.017872,-0.003498,0.195957,0.007906,-0.026496,-0.068718,-0.045058,0.062576,-0.006975,-0.009341,0.129733,0.109111,0.095731,0.212087,0.130411,0.03907,0.154515,-0.066667,-0.066689,-0.020186,0.093512,0.097952,0.0282,0.228774,0.117342,-0.056657,0.221649,0.073237,-0.029053,0.121438,0.082359,0.076096,-0.096556,0.113249,-0.090882,-0.050132,0.047676,-0.023434,0.121905,0.16351,-0.033989,-0.058269,-0.051942,0.135622,0.031059,0.062604,0.040817,0.004717,0.259163,0.044662,0.040211,0.117413,0.0252,0.058524,0.13862,0.103947,0.01597,-0.065074,0.059159,0.013496,0.001157,-0.046071,-0.016257,0.127412,0.00776,0.061168,0.091511,0.088603,0.03865,0.102186,-0.221792,0.024091,0.125522,0.015197,-0.01194,0.199084,0.072781,0.000926,0.191999,0.035063,0.026373,0.022596,0.03143,0.32478,0.020689,0.047378,0.006562,0.07886,-0.052815,-0.024497,0.064002,0.029532,0.124513,-0.070878,0.205616,0.053528,0.080596,-0.013404,0.10412,0.070828,0.015423,0.074819,-0.015132,-0.011684,0.046185,0.100029,0.092539,0.269128,0.083603,0.113694,0.092907],[0.025834,-0.013453,0.022702,-0.1905,0.000907,-0.546739,-0.069087,0.097362,0.063983,-0.02851,-0.390779,-0.51754,-0.501327,-0.029047,-0.053028,0.02771,0.017613,-0.09103,-0.028342,0.067831,0.069595,-0.037938,-0.567045,0.027474,0.081555,0.161233,0.095211,-0.000959,-0.058517,-0.068746,-1.216304,-0.01975,-0.797823,-0.017364,0.013145,0.019128,0.066493,-0.109944,-0.103289,-0.002342,-0.001549,-0.525012,-0.05462,-0.060107,0.144106,-0.017904,-0.106679,-0.031166,0.039516,-0.130342,0.046655,0.060308,0.019774,-0.307588,0.118185,-0.015343,-0.019775,-0.139423,0.055944,-0.082472,-0.002192,-0.007051,0.068172,0.295236,-0.089545,-0.168552,0.083919,0.03815,-0.323492,-0.040768,0.130256,0.041879,0.100197,0.002732,-0.049529,-0.050294,0.032224,0.13612,-0.15432,-0.028671,-0.096066,-0.030423,-0.060881,-0.010946,0.042305,-0.076007,-0.080889,0.035082,0.02488,0.007862,-0.057431,-0.082306,0.151498,0.060404,0.139189,0.039432,-0.029479,-0.021535,0.010922,-0.020836,-0.141566,-0.073751,-0.256741,-0.056025,0.119594,-0.064702,0.060312,-0.021205,0.094764,0.03593,-0.031968,0.123987,0.034004,0.013378,-0.050817,0.126958,-0.05389,-0.01228,-0.023236,0.043339,-0.023923,-0.116252,0.095509,-0.378215,-0.529915,0.003727,-0.03274,-0.050194],[0.251067,-0.157051,0.079801,0.187213,0.009828,0.058165,0.103623,-0.162752,-0.126808,-0.138482,-0.001373,0.140956,0.103011,0.042911,-0.017544,-0.324191,0.020785,0.041868,0.077037,0.023267,-0.057738,0.025559,0.035365,0.554646,-0.070202,0.026863,0.063857,0.0094,0.01991,0.139609,0.003577,-0.054833,0.129267,0.037294,-0.04484,-0.006452,-0.089707,0.137296,0.062771,-0.098328,0.073034,-0.494704,0.083765,0.01716,-0.395554,-0.132915,0.072004,-0.051986,0.038103,0.067,-0.03142,0.003069,-0.041181,-0.001657,0.079461,0.030886,-0.038789,0.131896,0.021927,-0.049002,0.023586,-0.108783,0.096765,0.210481,0.101322,0.012053,-0.028664,0.01566,0.318968,0.070843,0.003048,0.05201,0.072883,-0.143769,0.097332,-0.261559,-0.040343,-0.174792,-0.012589,-0.085031,0.008323,0.073064,-0.258213,-0.711215,-0.059786,-0.216814,0.059067,-0.071993,-0.109201,0.039815,0.122659,-0.148392,-0.368511,-0.026329,0.574969,-0.055066,-0.074556,-0.070981,-0.214664,-0.587065,0.299524,-0.040641,0.237835,0.013235,-0.062488,-0.044276,0.048581,-0.014571,-0.045563,-0.007705,0.110361,0.078514,-1.093513,0.083268,0.064955,-0.044774,0.084324,-0.065009,0.056254,0.061554,0.031425,-0.038691,-0.017631,0.113241,0.186335,-0.036941,-0.069259,0.102488],[-0.039706,-0.08122,0.047636,-0.140086,0.061854,-0.269683,-0.242245,0.134896,0.028425,0.026901,-0.35017,-0.501452,-0.397668,-0.060312,-0.080729,0.168537,0.012856,0.084625,-0.005119,0.063123,-0.017851,0.028069,-0.364739,-0.248659,0.002304,0.069359,-0.075674,-0.065254,0.221642,-0.073155,-0.551677,-0.022994,-0.1232,0.100859,0.150073,-0.141087,0.058985,0.182202,-0.07304,-0.015515,0.127489,-0.753565,0.057845,-0.030466,0.179628,0.065187,-0.03844,0.089904,0.012704,-0.038777,-0.052033,0.0111,-0.04898,-0.532206,-0.117537,-0.07474,-0.025987,-0.122059,-0.086485,-0.041928,-0.015497,0.038782,-0.146026,0.154923,-0.153819,-0.024531,-0.032551,-0.107969,-0.14519,0.046658,-0.036247,0.04469,-0.003857,0.069,-0.129668,0.180719,0.045715,0.164375,-0.100059,0.053793,-0.113371,0.009207,0.000903,0.164545,0.111442,0.04836,-0.104176,0.057009,0.133419,-0.010548,-0.152535,0.008828,0.088202,-0.096131,-0.072913,-0.081734,0.075315,0.137419,0.052342,-0.157752,-0.290197,0.062626,-0.329661,0.071752,0.058246,0.013754,-0.04276,-0.078406,-0.040561,0.047619,-0.11346,0.025214,-0.029581,-0.02444,0.050218,0.017549,0.041833,0.022065,0.006502,-0.036258,0.04469,0.025339,0.060345,-0.233891,-0.186052,0.00807,-0.008367,-0.056579],[0.010395,-0.068273,0.019031,-0.033681,-0.006715,0.031839,-0.023345,-0.077706,0.02377,-0.054551,-0.061657,0.050051,-0.052243,0.045066,0.008089,-0.097178,-0.08948,-0.07818,0.068526,-0.027886,-0.045192,-0.090272,-0.0981,-0.070538,0.030259,0.036201,0.018894,0.055972,0.03294,-0.034688,0.004863,0.047481,-0.040297,0.03221,-0.048788,0.045883,-0.001116,-0.06349,-0.090745,-0.093722,-0.01537,0.042604,-0.095876,-0.081591,0.027182,0.043396,-0.050952,-0.07777,-0.058203,0.022329,0.009028,0.066159,-0.066536,-0.025627,0.026556,-0.088427,-0.049961,0.068042,-0.061996,-0.038424,-0.085929,-0.000841,0.030534,-0.095823,-0.061434,0.058035,-0.022077,0.052588,0.024294,0.009132,0.060171,-0.062353,0.006289,0.059916,-0.025773,0.055316,-0.069037,-0.06028,0.030944,-0.093771,-0.038148,-0.096028,0.051787,0.068606,0.024452,-0.056109,0.007811,-0.093537,0.041298,-0.089915,-0.026912,-0.108177,0.041,0.027419,-0.095192,-0.091977,-0.075414,-0.028239,-0.000147,-0.011373,-0.046467,0.013821,-0.010602,0.045637,0.006293,-0.073305,-0.055865,-0.018064,-0.049888,-0.038137,-0.030804,0.061969,-0.02436,-0.059632,-0.024913,-0.079016,-0.076795,0.035443,-0.063138,-0.036425,0.016841,-0.089084,-0.07839,-0.081516,-0.096672,-0.09809,-0.018222,-0.095738],[-0.036551,-0.063748,0.040345,-0.178765,0.018579,-0.466014,-0.117828,0.013288,0.055066,0.023205,0.105695,-0.43089,-0.290992,0.034722,-0.017031,0.090156,-0.03747,0.076373,0.052839,0.199758,0.090906,0.028271,-0.212363,-0.270085,-0.004955,0.124814,-0.048831,0.017871,0.137145,-0.061138,-0.821396,-0.013724,-0.605986,0.086982,0.170577,-0.104756,0.121463,0.256989,0.011223,0.046613,0.041176,-1.087003,-0.073383,-0.001266,0.073665,0.13846,-0.249974,0.051694,-0.013109,0.024717,0.141947,0.06461,-0.098186,-0.618809,-0.082562,0.051665,0.1503,0.027062,-0.020304,-0.014585,-0.038769,-0.052615,0.006817,0.134494,-0.211879,-0.119346,0.093105,0.039593,-0.231754,0.076026,0.107288,0.003529,0.098655,0.057372,-0.023378,-0.024847,-0.09652,0.201387,-0.291908,0.083083,-0.121729,0.054722,0.03714,0.106252,0.081203,-0.088063,-0.04003,-0.054942,0.104198,0.021709,-0.163605,-0.01002,0.145473,0.073203,-0.085401,-0.075368,0.112153,-0.00739,0.149017,-0.097437,-0.261815,-0.034046,-0.397592,0.010574,0.032698,-0.070419,0.036648,-0.060377,-0.040487,-0.015944,-0.009572,0.065767,-0.074294,-0.009144,0.044823,0.035988,-0.042841,-0.067751,0.099058,-0.021383,0.012487,0.063352,0.030217,-0.462458,-0.412894,0.01418,-0.013551,-0.082155],[-0.084983,-0.014468,-0.038709,-0.068977,-0.068146,-0.085775,0.059476,-0.103652,0.034046,-0.084154,-0.062593,0.017186,-0.046571,-0.041002,0.003871,-0.007688,-0.040339,-0.093905,-0.026209,-0.086756,-0.047825,0.028434,0.033968,0.004111,0.047093,0.019112,-0.011077,-0.011919,-0.020826,-0.034621,0.007837,0.017538,0.043445,-0.08227,0.016342,0.052719,-0.007244,-0.011689,-0.011749,0.054862,0.008643,-0.081087,-0.022164,0.041628,0.020293,-0.069419,-0.012678,0.071283,-0.050587,0.065103,0.057986,-0.088293,0.061399,-0.007484,-0.046533,-0.006399,-0.038078,-0.018781,-0.035092,-0.063171,-0.053354,0.034137,-0.031631,0.07265,0.000978,-0.029886,-0.040473,0.013401,0.065684,-0.063796,0.036277,-0.092969,-0.012278,-0.083518,-0.004054,0.072422,0.011938,-0.01315,-0.018215,0.041743,-0.093099,0.052685,0.010348,0.004728,0.019836,-0.084733,-0.050718,-0.013795,0.012695,-0.018803,0.04128,0.036215,-0.053178,-0.0437,0.046844,-0.084784,-0.000363,-0.063554,0.00755,-0.079482,-0.073263,-0.027076,0.015354,-0.010888,-0.028841,0.021917,-0.0576,-0.094002,-0.09733,0.025274,0.073089,-0.063043,0.062235,-0.055516,-0.040141,-0.046722,-0.026968,-0.071954,0.021323,-0.065241,-0.062348,0.019817,-0.04657,-0.012495,-0.071968,-0.097168,0.007607,-0.034176],[-0.075815,-0.046614,-0.06465,-0.00497,0.003607,0.251747,0.126341,0.012622,-0.048645,-0.068574,0.396265,0.126743,-0.013183,-0.016998,0.10614,-0.409041,-0.109038,0.163472,-0.01624,0.049046,-0.035341,0.183834,-0.027915,-0.07292,-0.053026,-0.043526,-0.052141,-0.020088,0.049233,-0.028329,0.085919,-0.048859,0.134257,0.116101,-0.035323,0.073398,-0.068432,0.507569,-0.016397,-0.048873,0.02324,-0.027326,0.047746,0.208501,-0.098996,-0.05391,0.162613,0.104949,0.068462,0.10255,0.052023,-0.103314,-0.003151,-0.005679,-0.080459,0.058363,0.124075,0.099166,-0.062819,-0.053297,0.066965,-0.002698,-0.032333,-0.16375,0.045678,0.130252,-0.145409,-0.031743,0.085035,0.173561,-0.127189,-0.055899,-0.015872,-0.216816,0.110693,-0.055986,-0.077337,-0.004602,0.199924,0.025551,0.036965,-0.08188,-0.133205,-0.175651,-0.122447,-0.052369,0.167394,0.039843,-0.004249,0.061519,0.093904,-0.106942,-0.450922,0.036772,-0.19675,-0.088095,-0.07127,-0.074499,-0.026511,-0.017167,-0.048574,-0.077256,-0.054119,0.02217,-0.004553,0.007793,-0.051534,0.025569,0.035547,-0.029694,0.104486,0.219643,0.261221,0.055584,-0.068022,-0.053412,0.013999,0.014487,0.033155,0.107839,-0.007051,0.016578,-0.118837,0.162842,0.174055,0.0176,0.04557,0.162632],[0.071919,-0.246786,-0.12668,-0.109368,-0.024381,0.097583,0.018035,-0.101356,-0.005021,-0.174686,0.164628,0.023314,0.117041,0.07398,0.062747,-0.664093,-0.07233,0.098187,0.058357,0.203665,0.115933,0.122586,-0.36951,-0.21427,-0.01923,0.049279,-0.105633,0.196364,-0.064668,-0.060305,0.115481,0.039111,0.195161,0.122205,-0.248568,0.075329,-0.032126,0.054599,-0.034205,0.041429,0.04308,-0.039215,0.007236,0.075187,-0.01436,0.062506,0.073791,0.012085,0.211469,0.111986,0.101792,0.103001,0.01255,0.052255,0.033611,0.109231,0.069661,0.010538,0.056123,0.071873,-0.001007,-0.099183,0.076061,-0.285596,-0.064419,0.14875,0.031911,0.058416,-0.130612,0.115754,0.064041,0.110216,0.223117,-0.116385,0.155726,-0.207004,-0.101798,0.061872,0.105736,0.000486,0.058951,-0.023158,-0.203682,-0.517312,0.018691,-0.247502,0.055236,0.15041,-0.089529,-0.018179,0.049002,-0.300908,0.443442,-0.024379,0.102103,-0.037493,-0.161625,-0.098273,0.05574,-0.083065,-0.21775,-0.100492,0.053015,0.062327,-0.023355,-0.020256,0.072884,0.008801,-0.049326,0.080787,0.05945,0.435275,0.263923,0.013973,0.063264,-0.056761,0.03592,0.052831,-0.012745,-0.010704,0.062639,0.036111,0.043852,0.176743,0.195729,0.00956,-0.008816,0.099222],[0.032284,0.021293,-0.108883,0.053095,0.059907,-0.003514,0.018402,0.021023,0.027063,0.022022,0.041893,-0.019133,-0.060117,0.024399,-0.045278,-0.065767,0.003881,0.032397,0.08113,-0.085883,-0.045199,-0.003643,-0.015834,0.038093,-0.017381,-0.013574,-0.009542,-0.016059,0.010937,0.000805,0.111559,-0.107322,0.120689,-0.08958,0.055908,0.027688,-0.045494,-0.069409,-0.121787,0.031111,-0.026665,0.054513,-0.069204,-0.099124,0.098901,-0.05981,0.091301,0.000379,-0.080837,-0.095704,0.049802,-0.053352,0.067476,-0.077484,0.005032,0.014115,0.038448,0.026228,0.025479,-0.077165,-0.001414,-0.029441,-0.00405,0.036553,-0.116604,-0.033787,0.002781,-0.02136,0.039103,0.030679,-0.000932,-0.087614,-0.018224,0.041598,-0.045481,-0.004307,0.032105,-0.004308,0.053476,0.035511,0.005255,0.047507,0.028638,-0.090115,-0.064275,-0.064087,-0.038732,-0.037846,-0.000808,0.012211,-0.082686,-0.029213,0.052267,-0.01772,-0.058256,0.024003,0.004463,-0.05308,0.001406,-0.061226,0.018955,-0.028152,-0.036562,-0.002307,0.014652,-0.042074,-0.039777,0.042099,0.024121,-0.058028,-0.082135,0.028261,0.074384,-0.084234,0.017862,-0.009429,-0.095626,0.066827,0.018682,-0.02562,0.048414,-0.044062,0.003253,0.017802,-0.064783,0.013593,-0.095347,0.008247],[-0.077622,0.024489,-0.089725,-0.001586,0.09538,0.004292,0.101027,0.005452,-0.061565,0.034497,0.084532,0.214722,0.002947,-0.058363,-0.022004,-0.28681,0.031884,-0.025246,0.086135,-0.013336,-0.014501,0.134285,0.386542,-0.000263,-0.082636,0.016574,-0.082085,-0.045183,-0.049072,0.100221,0.054633,-0.036405,0.107208,-0.095184,-0.209551,0.11617,-0.077366,-0.141663,0.048291,-0.042405,-0.038582,0.048447,0.112322,0.151592,0.033704,-0.053318,0.111183,-0.035839,0.220787,0.082672,-0.000199,-0.073225,0.020719,0.071287,-0.044794,0.083911,0.089861,0.079048,-0.016753,-0.018173,-0.05628,-0.043646,-0.053003,-0.40001,0.050555,0.050064,-0.133586,0.025381,0.055328,0.087814,0.035415,-0.311924,-0.084741,-0.052885,0.05294,-0.030148,-0.036957,-0.010115,0.047458,0.03578,0.064692,0.052552,0.129536,-0.071178,0.027648,0.013589,0.010116,0.009851,0.005109,-0.010916,0.031541,-0.104804,-0.095248,-0.017879,0.104938,-0.101645,-0.023981,-0.142536,0.023373,0.144099,-0.007457,-0.061317,0.103475,0.095157,-0.110771,0.051849,-0.06368,-0.031856,0.057528,-0.06222,0.119778,0.060519,0.233704,-0.05807,-0.011224,-0.121692,-0.010412,0.02472,0.015886,0.021181,-0.087176,0.05126,-0.047136,0.103513,0.085526,0.105353,0.025766,0.111628],[-0.139646,0.215361,-0.024495,-0.003686,0.087056,-0.754632,-0.38024,0.117561,0.109872,0.155414,-1.409025,-0.720876,-0.184715,-0.115706,-0.135504,0.152674,0.077769,-0.095617,-0.001523,-0.075555,0.077662,-0.450332,-0.35622,0.395153,0.097964,0.042633,0.030514,0.099244,0.102725,-0.060345,-1.865244,-0.054888,-0.913318,0.002112,0.144428,-0.075959,0.166079,-0.048604,-0.123981,-0.084251,0.06786,0.191483,0.027377,-0.264379,0.261571,0.07319,-0.286356,0.016026,-0.155192,-0.110695,-0.005261,-0.050138,0.026536,-0.229654,0.058664,-0.008816,-0.124574,-0.085148,-0.000484,-0.167258,-0.261015,0.02819,0.176545,0.175121,-0.122122,-0.395322,0.11475,-0.061128,-0.288605,-0.563562,0.170241,-0.087158,0.041345,0.053232,-0.250798,0.13266,0.157604,0.132696,-0.215211,-0.214868,-0.139848,-0.233579,0.133672,0.322103,0.079424,0.077899,-0.1329,0.0149,0.191172,-0.00903,-0.043867,0.159755,0.139084,0.030518,-0.058498,0.014294,0.095341,0.121382,0.123038,-0.041609,-0.206596,0.06757,0.047771,-0.03351,0.202173,-0.153831,0.004853,-0.066865,-0.049229,0.008419,-0.210889,-0.000493,-0.120934,-0.013748,-0.055485,0.173794,0.060357,-0.01821,-0.011401,0.002314,0.002799,-0.122696,0.101368,-0.901193,-0.412821,-0.05344,-0.010013,-0.126188],[-0.039587,0.033018,0.063083,-0.03814,0.001517,0.030861,-0.080525,-0.089145,-0.072467,0.035615,0.059918,0.063483,-0.071681,-0.048816,0.037059,0.010082,-0.056458,0.017644,0.039269,-0.080515,0.059793,-0.016998,-0.101054,0.0283,-0.043905,-0.011934,-0.010796,-0.092488,0.022409,0.021419,-0.014493,0.042709,-0.037599,-0.101528,0.000177,-0.091736,0.006712,-0.004469,-0.058667,-0.040507,-0.020167,-0.062881,-0.006348,0.045671,-0.081696,0.05775,0.064042,0.039554,0.059608,-0.022477,-0.03968,-0.058583,0.004478,0.068775,-0.048071,0.066834,-0.009784,-0.066347,-0.053447,-0.078127,-0.030673,-0.042675,-0.01473,-0.049301,0.012736,-0.072877,0.01195,-0.048704,0.039947,0.033208,-0.070249,-0.036545,-0.061866,-0.079205,-0.058885,0.033989,-0.024093,-0.046252,0.016041,-0.047793,-0.062296,-0.10364,-0.025418,-0.026415,-0.101763,-0.08497,-0.037939,0.009712,-0.086639,0.038202,-0.075296,0.034067,0.018728,-0.039197,0.05517,-0.048529,0.015178,-0.035792,-0.014393,-0.077676,-0.031785,0.029359,-0.000423,-0.061595,0.003123,-0.025166,0.047933,-0.092063,-0.062811,0.03493,0.025593,0.029923,-0.058476,0.04066,0.063703,-0.065598,-0.092225,-0.093775,-0.046641,-0.026556,0.054064,0.064225,-0.05495,-0.039976,-0.06803,-0.046368,-0.104425,0.039843],[0.161448,-0.047867,0.067803,0.003391,-0.075116,0.201855,0.104073,0.118974,-0.026983,0.032533,0.263271,0.214797,-0.062968,-0.02099,-0.130467,0.065436,-0.154301,-0.148775,0.019717,0.172353,-0.076801,-0.061385,0.045,-0.168604,0.024305,-0.05425,0.116982,0.023548,0.080222,-0.01676,0.138564,0.10202,-0.090047,0.198628,-0.099621,-0.240798,0.002636,0.090561,0.092373,0.076847,0.128445,-0.336689,-0.102831,0.105437,0.089978,0.078702,-0.046023,-0.017815,-0.086958,0.066198,0.002471,-0.056142,-0.098594,-0.072684,-0.10172,0.149285,0.049164,0.038017,-0.051991,-0.19578,-0.037984,-0.088975,-0.144936,-0.027512,-0.034527,0.260132,0.045721,-0.169672,0.314941,-0.046095,-0.096779,0.162,0.085196,0.004792,0.03995,-0.039579,-0.044153,-0.173376,-0.143898,-0.060109,0.069581,-0.088873,0.003962,-0.000895,-0.023785,-0.181884,0.128409,-0.09006,0.002135,0.158725,-0.179536,-0.075021,0.174557,-0.035626,0.107423,0.157948,-0.003292,-0.022227,-0.080718,0.098325,0.123794,-0.005879,-0.109174,0.033867,-0.09559,-0.178388,0.041645,0.058743,-0.052358,0.07838,-0.106579,0.219817,0.056261,-0.030898,0.009099,-0.007534,0.026637,-0.046344,0.05377,0.047391,-0.014366,-0.047414,0.031704,0.196699,0.109448,-0.080969,-0.07401,0.009823],[-0.287714,0.039624,-0.003028,-0.020226,0.166601,-0.086962,-0.030872,-0.023682,0.010098,0.053798,0.024639,-0.028843,0.010191,0.018197,0.000795,-0.052733,0.041427,0.010126,0.08797,-0.13624,0.039408,0.104174,0.172215,0.122502,-0.009065,0.009568,0.077017,-0.009104,-0.072972,-0.006773,-0.228873,-0.080887,-0.07384,-0.10448,0.243567,-0.118689,0.058037,-0.077419,-0.156898,-0.067207,-0.240147,0.418664,0.038475,-0.064667,0.124931,-0.080052,-0.054381,-0.171926,0.006266,-0.029218,-0.065138,0.056799,0.016143,0.466489,0.089616,-0.299431,-0.266118,-0.166081,-0.0783,-0.27626,0.096696,-0.017323,-0.109699,-0.484076,-0.05696,0.00772,-0.08602,-0.138263,-0.064955,0.041694,0.15005,-0.203918,-0.060541,0.10074,-0.021744,0.06054,0.130678,-0.012656,-0.162225,-0.058816,-0.115305,-0.081931,0.15184,0.399785,0.024691,0.169531,0.05418,-0.086073,0.113635,-0.152922,0.089578,0.174256,-0.035237,0.055987,-0.058685,0.023375,0.173441,0.069996,0.118796,-0.13051,-0.057044,0.076025,-0.209628,-0.179644,0.035822,-0.168746,-0.081412,-0.068815,-0.150238,-0.143807,-0.147807,-0.052388,-0.138471,-0.209423,-0.067955,0.063518,-0.145966,-0.09498,-0.038207,-0.053492,0.027038,-0.040009,0.096551,-0.101699,-0.074248,-0.054436,-0.028571,-0.206082],[0.012126,-0.033564,-0.074727,-0.02686,-0.003841,-0.009899,0.067252,-0.044594,0.014867,0.058643,0.01688,0.048366,0.033365,-0.00567,-0.060977,0.024124,-0.028181,-0.052295,-0.086705,0.056159,-0.08948,0.01867,-0.065471,-0.097026,0.013648,0.030292,-0.009278,0.071135,0.015025,0.0493,0.047175,-0.019405,0.051016,0.014962,-0.103976,-0.004735,-0.089568,0.03385,0.03197,0.005682,0.062313,-0.017006,-0.095224,0.06697,-0.084701,-0.024212,0.02807,-0.034693,0.01669,0.059429,0.006881,-0.00183,0.034575,0.016479,-0.021277,-0.014356,-0.0376,-0.051913,-0.055765,-0.100333,-0.006787,-0.040518,-0.016494,-0.024371,0.005988,-0.075321,-0.073555,-0.023866,-0.030921,-0.087712,-0.099132,-0.067466,0.025538,0.028803,-0.056321,0.056503,0.013739,0.056278,-0.024719,0.02327,0.036731,-0.037673,-0.0428,-0.039487,-0.013215,0.00811,-0.027627,0.036079,-0.06734,-0.051826,0.054009,0.069998,-0.004562,0.066027,-0.048957,0.070139,0.011052,-0.101059,0.0696,-0.012265,-0.052926,0.049355,0.02958,0.058134,-0.066787,-0.06821,0.063918,-0.04032,0.045512,0.024538,-0.06135,-0.015995,0.017696,0.02433,-0.0447,-0.042455,-0.017313,0.022459,-0.003346,-0.004399,0.005881,-0.039405,-0.008112,-0.042083,-0.02304,-0.096375,-0.002255,-0.072747],[0.152598,-0.016625,0.039453,0.153163,0.044939,0.29598,0.053573,-0.072836,-0.072359,0.046167,0.418207,0.255743,0.203737,0.154042,0.101316,-0.379823,0.000706,0.006675,-0.016756,0.032576,-0.048065,0.17238,0.390756,0.143077,-0.043571,-0.172375,-0.054633,-0.024701,-0.067717,0.159398,0.208295,0.050973,0.071617,-0.041202,0.079992,0.085272,-0.155837,-0.069805,0.146989,-0.015428,0.047425,0.050733,0.138789,0.243091,-0.291636,-0.06158,0.080911,0.05033,0.214278,0.045503,-0.017372,-0.073262,0.020101,-0.119701,-0.083536,0.047471,0.145905,0.107324,-0.028451,0.088469,0.080124,-0.020925,-0.010875,-0.296804,0.246521,0.137497,-0.011036,-0.003223,0.358255,0.175857,-0.045953,-0.064613,-0.044716,0.088141,0.053775,-0.249651,-0.029715,-0.163956,0.100023,0.121578,0.065603,-0.050452,-0.071215,-0.47648,-0.095914,-0.140653,0.121053,-0.086021,-0.090111,0.031561,0.064679,-0.06463,-0.759764,0.028999,0.583151,0.081558,-0.147527,-0.207889,-0.134379,0.211354,0.428372,-0.073738,0.037525,-0.033302,0.005795,0.118919,-0.067608,0.097951,0.078759,0.028929,0.110166,0.174157,0.172722,0.101702,-0.012992,-0.175324,0.056228,0.036995,0.021546,0.160035,-0.038939,0.03726,0.000261,0.195681,0.215924,0.087701,-0.154844,0.171481],[-0.027473,-0.085609,0.042326,0.047382,0.042102,0.186842,0.14115,-0.07813,-0.084998,-0.095466,0.310467,0.174206,0.083973,0.040309,0.128691,-0.214939,-0.104678,0.07414,-0.043098,-0.000397,0.0039,0.053275,-0.529394,0.089877,-0.12219,-0.183387,-0.127228,0.058672,0.086036,0.005711,0.173363,0.103266,0.107544,0.126972,-0.027773,0.034847,-0.041455,0.364087,0.063578,0.099634,-0.028521,-0.008827,0.105476,0.051683,-0.0588,0.052173,0.0801,0.046647,-0.049525,0.162739,-0.036803,-0.047118,0.015025,0.085172,-0.127439,0.076767,0.083087,0.140496,0.069712,0.034125,-0.039687,0.041037,-0.05085,0.087279,0.107622,0.170413,-0.122703,0.095312,-0.010744,0.049489,-0.135682,-0.03057,-0.041836,-0.142778,0.048322,0.124259,0.064628,-0.061663,0.100843,0.087934,0.043572,-0.0533,0.014015,-0.186025,0.015118,-0.032288,0.137438,0.391638,0.037374,-0.015555,0.006061,-0.170624,-0.565064,-0.007343,-0.179485,-0.016903,-0.109431,-0.07435,-0.062275,-0.160987,-0.132625,-0.01124,-0.037795,0.07404,0.056999,0.083786,0.059598,0.140373,0.058257,-0.012943,-0.003769,-0.084203,0.123666,0.066812,-0.064647,-0.057535,-0.026262,-0.01043,0.049158,0.013045,-0.004792,0.063005,-0.06485,0.205338,0.23242,0.119503,0.037485,0.045155],[0.047095,0.028764,-0.066882,0.018372,0.071432,-0.049275,0.022906,-0.013362,-0.005324,0.037865,-0.056206,0.007314,0.019402,-0.057155,0.026528,-0.020783,-0.067395,-0.001762,-0.021816,-0.028767,-0.017854,-0.049147,-0.053296,0.036471,-0.026221,0.022495,0.001762,-0.072196,-0.046036,-0.064426,-0.030455,0.01781,-0.016181,-0.033464,-0.06778,0.031277,-0.065952,0.041199,0.04122,-0.036121,-0.087795,0.017055,0.030991,0.025748,0.029937,-0.043016,-0.079652,-0.066924,-0.056419,0.077125,-0.092172,0.060317,-0.067944,0.040856,-0.078808,0.040464,0.027015,-0.042255,-0.063709,0.002362,0.076662,0.049805,-0.022824,0.043344,0.05003,-0.069233,0.023908,-0.007806,-0.059975,-0.06787,-0.089253,0.022312,-0.094901,0.037235,-0.042762,0.065767,-0.025358,0.014372,-0.022062,-0.036302,-0.078562,-0.016032,-0.047213,-0.054724,-0.00232,-0.075981,0.063924,0.012685,-0.084672,0.016287,-0.073989,-0.028346,-0.083124,-0.013779,-0.029008,-0.065269,0.037036,-0.039598,-0.050157,0.009449,0.023787,0.077062,0.046291,0.076119,-0.021653,0.044978,0.031338,0.023419,0.015635,-0.090124,0.038552,-0.01009,0.068729,0.006313,-0.066707,-0.053611,0.055401,-0.07958,-0.061792,-0.059012,-0.058278,0.072915,-0.039345,-0.006,0.010567,0.003368,-0.077117,-0.017148],[-0.043457,-0.042819,0.059404,-0.090729,0.02839,0.208637,-0.29507,0.131341,0.083913,0.125096,-1.465958,-0.424481,0.194842,-0.106614,-0.137423,0.197468,-0.071224,0.024662,-0.060748,0.012979,0.025423,-0.287704,-0.047958,0.159263,0.151004,0.002883,0.07055,0.066034,0.182354,-0.20192,-0.124849,-0.007886,0.424347,0.114606,0.146865,-0.124537,0.146221,-0.027603,-0.110053,0.061768,0.1862,-0.317142,-0.092704,-0.346029,0.285109,0.036724,-0.089045,0.050872,0.034245,-0.032067,0.033583,-0.077715,-0.034774,-0.328034,0.092929,0.033295,-0.086069,-0.261715,-0.069068,-0.268455,-0.065464,0.064569,0.064952,-0.056262,-0.050613,-0.192178,0.059811,-0.07455,-0.359836,-0.198645,0.04639,0.017391,0.021833,-0.02713,0.102024,0.13673,0.089499,0.078722,0.386762,-0.45536,-0.006303,-0.177107,0.147934,0.345731,0.031698,0.280972,-0.227929,0.042172,0.11769,0.048352,-0.281289,0.208317,0.280418,0.03468,0.022135,0.087411,0.059243,0.11247,0.181146,-0.118125,-0.121769,0.085637,0.175577,-0.01212,0.054357,-0.082202,-0.065046,-0.004697,-0.064846,0.077248,-0.32404,-0.012459,-0.010433,0.004048,-0.010646,0.082947,-0.049174,-0.02915,-0.05181,0.050616,0.063761,0.088032,0.02158,0.176972,0.030389,0.07694,0.003771,-0.038157],[0.012079,0.011961,-0.017712,-0.025112,-0.002987,0.046474,0.013152,0.050761,0.058782,0.065852,0.008926,-0.033047,-0.103137,-0.051808,-0.005588,-0.026611,0.067192,-0.027043,-0.082863,-0.045982,0.024859,-0.023178,-0.047416,-0.088717,-0.060322,-0.075222,-0.041069,-0.060798,0.047406,-0.05286,-0.030093,0.012304,-0.032479,-0.025087,0.062627,-0.011363,0.05321,0.065519,-0.082199,-0.036619,-0.015871,-0.052741,-0.029926,0.051004,-0.069157,-0.014405,-0.080099,-0.0575,-0.058237,-0.099754,0.059191,0.041658,-0.009314,-0.022387,-0.023048,-0.005813,-0.03798,-0.041793,-0.020839,-0.070363,-1.4e-05,0.023017,-0.010658,-0.011915,-0.017428,-0.031572,0.052538,-0.015724,0.013776,-0.018781,-0.090569,0.046993,0.031601,-0.01318,-0.090291,-0.00502,-0.051913,-0.012791,-0.073462,-0.017207,0.031219,0.068742,0.05672,0.000124,0.001523,0.01734,-0.002965,-0.015119,-0.028496,-0.070222,-0.061624,0.07141,-0.102202,0.061371,-0.049964,-0.063709,-0.078079,0.023028,0.01391,0.032854,0.004695,-0.019191,-0.102847,-0.06874,-0.013622,-0.051078,-0.005729,-0.055042,0.030423,-0.003674,-0.103253,0.067766,0.068895,-0.068677,-0.044448,-0.070757,-0.079148,0.058363,0.056387,0.019729,-0.043875,-0.032075,-0.07975,0.05942,-0.09793,-0.048768,0.066204,-0.081178],[-0.06892,0.040483,-0.102048,0.017643,0.052308,-0.032866,-0.038875,-0.052905,-0.073697,-0.075825,0.058688,-0.019508,-0.022125,0.035749,0.02011,0.065951,0.014272,-0.062246,0.060458,-0.06265,0.029988,0.010673,-0.088677,-0.054983,-0.087084,-0.000212,0.026806,0.002837,-0.104948,-0.074302,0.057219,-0.087344,-0.023967,-0.047256,-0.037388,0.051352,-0.072914,0.022454,-0.065989,-0.001958,0.003996,0.044073,0.04974,-0.062102,-0.003556,0.033557,0.033358,-0.090828,-0.10179,-0.035868,-0.022122,-0.086352,-0.001182,-0.091403,0.059114,-0.063757,-0.046876,-0.034227,-0.096666,-0.0883,0.025695,-0.021546,0.039445,0.02411,-0.049271,-0.056921,-0.015348,-0.089284,-0.015954,-0.041097,0.004211,-0.081258,-0.100151,-0.008651,-0.050707,0.063424,0.053764,-0.008316,0.024711,0.024258,-0.047766,-0.001883,-0.063356,0.073426,-0.077206,-0.066462,-0.045333,0.03979,-0.03194,0.051518,0.036702,-0.078127,-0.015573,0.038507,0.023158,0.004365,-0.085685,0.029706,-0.032651,0.040798,-0.075101,-0.011799,-0.043243,-0.04001,-0.089115,-0.076857,-0.017609,0.043812,0.011546,-0.095758,-0.09715,-0.022032,-0.04395,-0.063975,-0.051412,-0.058466,-0.043179,-0.032035,-0.065815,0.061052,-0.051442,0.056028,0.038091,-0.097764,0.066993,0.017026,-0.054716,-0.041721],[-0.017603,0.023914,0.071446,-0.016616,-0.077041,-0.006289,0.010406,-0.097184,-0.02113,-0.080556,-0.256501,-0.093634,-0.024533,-0.098076,0.011084,0.062973,0.009243,-0.024438,0.022639,0.027537,-0.060473,-0.049034,-0.240541,-0.023968,-0.048883,-0.056693,-0.0533,-0.058126,0.099417,-0.010783,0.106663,0.031103,-0.075172,0.033693,-0.127347,-0.039632,-0.035124,0.285261,-0.034289,0.026977,-0.057895,0.142599,0.061599,-0.011773,-0.057549,0.086103,0.070112,-0.074734,-0.134626,0.041744,-0.064047,0.034515,0.073185,-0.07366,0.042085,-0.035097,-0.054325,-0.077141,0.040728,0.029965,-0.008595,-0.013596,0.045399,-0.136294,-0.097056,-0.015926,0.054018,0.042554,-0.070153,0.033714,0.023059,0.028485,0.057165,0.115634,0.058089,-0.082105,-0.09368,0.031249,-0.064921,0.044913,-0.116962,0.004655,0.106166,0.040079,0.048772,0.017237,-0.035799,0.054604,0.016609,-0.059663,-0.130756,-0.105956,-0.100382,0.07049,0.009584,0.037982,0.04671,0.032901,0.005885,0.022056,-0.086156,0.043218,-0.062598,0.007298,-0.082365,0.02379,0.048507,-0.038842,0.056148,-0.014716,-0.052767,-0.11259,0.104688,-0.004625,-0.040031,-0.042451,0.053526,-0.007073,-0.030627,0.052023,0.027494,-0.031384,0.078174,-0.069869,-0.11144,-0.061073,0.047521,-0.121259],[0.006528,-0.160819,-0.043155,0.113731,-0.071615,0.076803,0.034375,0.131534,0.046098,-0.480488,-0.214688,0.076079,-0.522225,-0.007883,0.07667,0.073945,-0.226063,0.141909,0.017612,0.092151,0.057427,0.108011,-0.292064,-0.027964,-0.103757,-0.03045,0.00311,-0.13818,-0.062543,0.000809,0.153338,0.068909,0.064074,0.130503,-0.078389,0.032922,-0.131879,-0.146826,0.09009,-0.066564,-0.044873,-0.917792,0.040401,0.116575,-0.124315,-0.046707,0.13643,-0.040443,-0.125596,0.169908,-0.1274,0.019874,0.048991,-0.026434,0.061574,-0.091315,0.079871,-0.050435,-0.051285,-0.015937,0.127814,-0.066595,-0.092257,0.140682,0.014799,0.004322,-0.062171,-0.050366,0.005043,0.075463,-0.1767,0.039799,-0.227445,-0.708816,0.017585,-0.043065,-0.031326,-0.081914,0.001727,0.101598,0.017889,-0.121301,-0.665072,-0.183016,-0.08667,-0.212054,0.094276,0.042931,0.028697,-0.14903,0.055306,-0.228564,-0.285185,0.023253,0.126165,-0.151185,-0.008858,0.267946,-0.134289,-1.149912,-0.319314,-0.137836,0.105434,-0.020219,0.049848,0.045967,0.077128,-0.0019,-0.108897,0.006705,0.066382,-0.444203,-0.600721,0.04299,-0.004455,-0.049757,-0.077011,0.036264,-0.01253,-0.018139,0.00329,0.050025,-0.073792,0.021167,0.11864,0.11457,-0.079311,0.030187],[-0.038005,0.036264,0.107069,-0.190966,0.042905,-0.530895,-0.330667,0.097666,0.058915,0.004018,-1.265535,-0.547423,-0.34229,-0.052908,-0.064762,0.039742,0.011516,0.064687,-0.082445,-0.095325,0.024977,-0.18361,-0.159789,0.070873,0.096712,0.108764,0.069775,0.063837,0.039899,-0.084875,-1.059939,-0.070734,-0.408258,0.078891,0.035093,-0.045469,0.049992,-0.08692,0.010307,0.002149,-0.03208,0.342808,-0.187507,-0.21993,0.063029,0.062711,-0.009415,-0.126475,0.021912,0.049794,-0.02406,0.019558,-0.025998,-0.06691,-0.01524,-0.051996,-0.168016,-0.087318,0.179875,0.074192,-0.074087,0.031062,0.069457,0.024584,0.020568,-0.249333,0.091296,0.06431,-0.273811,-0.092146,0.03715,-0.009377,-0.051229,0.032838,-0.078031,0.092356,0.058399,0.129698,0.005553,0.211131,-0.03853,0.011366,0.12369,0.097474,0.172975,0.15842,-0.196681,0.037389,0.024091,0.033589,-0.089384,0.031784,0.04965,-0.086108,-0.184601,0.03211,0.133616,0.141664,0.101192,-0.005653,-0.156301,0.065874,-0.014625,0.005979,0.183419,-0.002214,0.020013,-0.017101,0.067139,-0.095278,0.002739,-0.08108,0.23024,0.01959,0.023135,0.099677,0.003936,-0.095478,0.045291,0.017387,0.096401,-0.062906,0.105329,-0.579705,-0.419157,0.016759,0.064477,-0.13356],[-0.045293,0.024623,0.021144,0.046701,0.032452,-0.229551,0.003602,-0.008759,0.071177,0.044895,-0.461573,-0.133829,-0.223655,-0.019795,0.032579,0.122247,0.07334,0.071012,0.052445,0.008855,0.044231,0.008594,0.067233,0.019848,0.030162,0.062401,-0.032192,0.056931,-0.022196,0.090852,-0.227248,0.042009,-0.025056,-0.051152,0.017612,0.11101,0.043979,-0.19606,-0.000437,0.051421,0.051607,-0.051902,0.024723,-0.097353,0.170253,0.079321,0.024877,-0.036317,-0.046067,-0.066645,0.074635,-0.018743,0.036814,-0.105124,0.126115,0.00635,-0.083761,-0.008085,0.109254,0.13086,0.149704,-0.012348,0.088781,0.223908,0.009096,-0.260156,0.056589,0.088748,-0.203085,0.025672,0.080061,-0.069546,-0.07001,-0.009788,-0.003001,0.205416,0.071627,0.199698,0.148673,0.173091,-0.067301,0.094773,-0.019354,0.128681,0.045464,0.054731,-0.047248,-0.183791,0.125826,-0.096929,0.030004,0.053852,0.129769,0.082024,-0.145458,-0.100057,0.005095,0.112342,0.15565,-0.050928,-0.242748,0.065835,0.084054,-0.025422,0.119637,-0.014108,0.066295,-0.036906,0.045635,0.085368,0.099239,0.008559,-0.064502,-0.036329,0.035824,0.116902,-0.102076,0.031069,-0.02733,0.063543,0.010989,0.039096,0.026088,-0.221374,-0.14152,0.045747,0.118947,0.02346],[-0.05369,0.069275,-0.019145,-0.020526,-0.015688,-0.057629,-0.056923,-0.045583,-0.009568,0.032101,0.03183,-0.08847,-0.069565,0.06572,-0.006657,0.008382,-0.060824,-0.042195,-0.003963,0.074188,-0.072094,0.034452,-0.002315,-0.072636,-0.073816,-0.084026,-0.063374,0.02569,-0.039145,0.014263,0.027222,-0.013048,0.036433,-0.027877,-0.021199,0.004511,0.047234,0.04468,-0.051872,-0.013826,-0.084521,-0.080068,-0.026434,0.059523,0.051214,-0.004156,0.056381,-0.070105,0.057214,-0.0312,-0.026269,-0.053063,0.007382,0.036474,0.010399,-0.073041,0.026794,-0.052173,-0.007932,-0.021439,-0.059555,0.01752,-0.055861,0.069174,-0.084137,0.023148,0.020377,0.058545,-0.064014,-0.003702,0.038541,-0.072869,0.055081,-0.084068,0.037016,-0.009785,-0.074626,0.030652,-0.005883,0.023919,-0.020479,-0.077034,-0.063466,-0.007485,0.044977,0.017594,-0.001032,0.062541,0.014072,-0.046767,0.015506,0.035257,0.044772,-0.061863,0.005875,-0.0429,-0.003575,0.014077,-0.024454,0.067421,-0.045774,0.074179,0.02084,-0.008281,-0.018312,-0.028962,-0.061041,-0.034629,-0.006482,-0.044304,-0.062374,0.01582,-0.078029,0.018867,-0.040528,-0.073349,-0.007603,-0.029443,-0.025196,0.023587,0.060762,-0.034306,-0.04409,0.036041,-0.018027,0.022061,0.050695,-0.045551],[-0.056808,-0.053504,0.005923,0.046956,-0.103738,-0.027376,0.065521,0.016634,0.004036,0.035286,-0.088396,-0.063607,-0.025381,-0.022436,-0.012426,0.051671,0.040803,0.040326,-0.021527,0.025309,0.028118,-0.072576,0.055044,0.008448,0.039071,0.039425,-0.03651,-0.093341,-0.01284,-0.031528,0.032276,0.043548,-0.102318,-0.088807,-0.103765,0.034944,-0.057542,-0.077337,-0.080792,-0.064571,0.059676,-0.006263,-0.048867,-0.027687,-0.034315,-0.080375,0.039271,-0.076148,0.058257,0.00849,-0.048486,-0.107122,0.054309,-0.05809,0.032856,0.064314,-0.080159,-0.012233,0.025836,0.033424,-0.052869,-0.052505,0.03826,-0.075389,-0.008854,-0.036784,0.043362,-0.026707,-0.067381,-0.069476,-0.011941,-0.060034,0.052403,-0.032676,-0.081326,-0.022754,-0.003773,-0.077932,-0.042499,0.013468,0.069445,0.035092,0.039062,-0.020642,0.045735,0.054129,0.06924,-0.026802,0.042755,-0.04293,-0.049575,0.058918,0.007049,-0.030508,0.051177,0.04368,0.034009,-0.092135,0.037556,-0.055168,-0.025663,-0.092584,-0.062054,0.009632,-0.061046,-0.063847,-0.009865,-0.012635,0.043972,-0.065383,0.048457,-0.105107,0.044428,0.043091,-0.001111,-0.089003,0.060652,0.025208,-0.085899,-0.015789,-0.045027,-0.024804,-0.047404,-0.040578,0.029189,-0.073236,0.006894,-0.086693],[-0.004844,0.056656,-0.091223,0.012624,-0.024003,-0.047122,-0.004659,0.022053,0.042564,-0.055854,0.010043,0.053625,-0.004299,0.01288,0.063052,-0.022088,-0.00761,0.037612,0.020793,0.07072,-0.018622,-0.056172,0.045531,-0.08735,0.023594,-0.031642,0.016178,-0.035723,-0.065015,0.004336,0.041175,-0.100067,-0.023081,-0.096543,-0.034314,-0.012729,-0.066057,-0.099621,0.068678,0.023215,-0.000866,-0.09192,-0.071398,-0.002305,0.00201,-0.072809,-0.022927,-0.094455,-0.062036,0.046264,-0.004547,-0.006923,-0.055192,-0.075894,0.031813,-0.012373,-0.064121,-0.069661,-0.018727,0.012748,0.069517,0.00466,-0.104799,0.060633,-0.018569,-0.001959,0.019057,-0.028199,0.011095,0.034922,0.056078,-0.087128,0.013824,0.027675,-0.105476,-0.006172,-0.057685,-0.033008,-0.069435,0.057739,-0.009725,-0.047053,0.007812,0.038385,-0.033351,-0.092236,0.026886,0.001436,0.003027,-0.025918,-0.008879,-0.057323,-0.04129,-0.016531,0.054895,-0.031794,0.006036,-0.028245,-0.105377,-0.065175,0.100594,0.028337,-0.099474,0.036933,0.055295,-0.02078,-0.082465,-0.088423,-0.05343,-0.104577,-0.095771,-0.004237,0.032157,-0.017698,0.043513,0.021426,-0.082123,-0.075809,-0.094568,0.041893,-0.055089,0.008834,0.048666,-0.000706,0.056516,-0.074147,-0.050641,-0.002079],[-0.055568,0.075369,0.096317,0.126914,0.025901,-0.357282,0.005573,-0.015443,-0.020299,0.080063,-0.690251,-0.055713,-0.40819,0.114887,0.078887,-0.021175,0.20015,-0.050123,-0.033326,-0.071637,0.082723,-0.135201,-0.3821,0.149948,0.125013,-0.018154,0.039688,0.014755,-0.157836,0.038439,-0.33242,0.085444,-0.100673,-0.068749,-0.133222,0.055601,-0.052862,-0.010427,0.059277,0.065351,-0.044964,-0.164992,-0.031687,-0.05578,-0.054952,-0.046038,-0.026622,0.105488,0.015474,-0.035023,-0.017297,0.067188,-0.011599,-0.250576,-0.023652,0.049085,0.10905,0.124367,0.079823,0.143481,-0.038551,0.075248,0.091806,0.106071,0.176192,-0.402912,0.118079,0.149167,-0.286208,-0.122193,-0.006596,-0.018666,-0.017285,-0.03461,-0.069647,0.007308,0.066371,0.121394,0.01717,0.146047,0.191134,0.115372,-0.027477,-0.213625,0.055928,-0.155886,-0.064729,0.060779,0.058578,0.036962,0.097679,-0.098634,-0.027707,0.006219,0.080678,0.059184,0.030368,0.025761,-0.02515,0.153049,-0.043394,0.160127,0.197897,0.060627,0.088665,0.065888,0.079589,-0.023047,0.096424,0.079409,0.17591,-0.020281,-0.055406,0.043067,0.045558,0.027488,0.107888,0.141652,0.051038,0.046701,0.023072,0.048116,-0.031239,-0.281886,-0.202862,0.028267,-0.00861,-0.050015],[-0.109343,-0.036919,-0.022881,0.20381,0.090137,-0.554861,0.15394,-0.031901,0.013168,0.082621,-0.558331,-0.01664,0.048963,0.067242,0.085475,0.006116,0.07106,-0.100167,0.035964,0.093721,0.034955,-0.121494,0.019098,0.394164,0.056211,0.079431,0.10198,-0.019098,0.016162,0.072931,-0.491117,0.154771,-0.26005,-0.031022,-0.017977,0.118934,0.000124,-0.095883,0.066784,0.030189,0.007944,0.05869,0.103185,-0.068409,0.090668,-0.012685,-0.142348,-0.012644,-0.076679,0.037962,0.01584,0.077397,0.109384,-0.059466,0.017752,-0.102945,0.049981,-0.035335,0.203354,0.155986,-0.035246,0.116432,0.084206,0.15051,-0.019396,-0.351234,0.160251,0.100783,-0.042851,-0.017503,-0.001805,0.104558,0.028005,-0.019449,0.130524,0.00561,-0.058365,0.157958,0.030116,0.218804,-0.046933,0.030077,-0.072442,-0.113566,0.084218,-0.010828,0.022815,0.444076,0.067947,0.086259,-0.029255,-0.005669,0.012261,0.050578,0.064167,0.017766,-0.044659,0.054349,0.034997,0.108734,-0.016596,0.057603,0.273102,0.026599,0.032591,0.144556,0.122601,-0.038851,0.048829,0.04274,0.015731,-0.013504,0.278048,0.011422,0.064463,-0.012318,0.055163,0.15773,0.089625,0.007005,-0.0455,0.150107,0.092404,-0.332615,-0.25057,0.059894,0.089671,0.058301],[0.092394,0.05228,0.06242,-0.087606,-0.088536,-0.046051,0.058407,0.091702,-0.012024,-0.028392,-0.057092,-0.088013,0.009872,-0.003156,-0.004473,0.00781,0.005223,0.059539,0.086983,0.038012,-0.003545,0.058517,-0.007833,0.065077,-0.020741,-0.096263,0.023916,-0.054241,0.040788,-0.085001,-0.110227,0.005292,0.048084,0.034772,-0.047144,-0.002208,0.055355,-0.067092,-0.027163,-0.083614,0.024483,0.009633,-0.073837,0.020138,-0.040478,-0.108327,0.053811,0.010545,0.007979,-0.054698,-0.078912,0.039273,0.05362,-0.080246,-0.012516,-0.025733,-0.033584,0.032356,-0.021876,-0.012129,-0.006399,0.060224,0.061195,0.030014,-0.001657,-0.108617,-0.025777,0.019752,-0.006317,-0.061373,-0.010536,-0.100461,-0.054817,-0.025069,0.013274,0.002172,-0.046205,-0.076855,0.009357,0.041547,0.00302,0.04261,-0.070378,0.029433,0.061888,-0.058636,-0.095333,0.038277,0.009352,-0.037303,-0.050117,-0.018273,0.079712,0.039678,0.059796,0.046306,-0.04526,0.006242,-0.04833,-0.028597,-0.077723,0.046276,-0.069217,-0.007812,-0.011357,-0.0061,0.049187,0.000783,0.053705,-0.089313,-0.103427,0.046411,-0.091029,-0.00238,0.004872,0.00861,0.021934,0.055511,-0.104725,-0.0802,-0.100371,-0.047217,-0.027039,0.001955,0.013903,-0.007289,-0.060183,0.020425],[-0.184679,-0.172373,-0.166213,0.094244,-0.047631,0.15326,0.129908,-0.126854,-0.021779,-0.167286,0.169955,0.156587,-0.003647,0.01258,-0.120321,-0.337527,0.017929,-0.174105,-0.030106,-0.031104,-0.002366,-0.037788,-0.07484,-0.001855,-0.207521,-0.09279,-0.15909,-0.00652,-0.311455,0.098967,0.211456,-0.093097,0.145121,-0.027353,-0.225145,0.146483,-0.143006,-0.058128,-0.051998,0.018259,0.009934,-0.093662,0.02347,0.055164,-0.254896,0.029849,0.131054,0.019877,-0.058704,-0.097283,-0.032339,-0.043204,0.023616,-0.245797,-0.049576,0.033107,-0.024325,0.173161,0.082721,0.106066,-0.074691,-0.105168,0.005591,-0.25299,0.108457,-0.022965,-0.010497,0.000494,0.011089,0.08423,-0.095529,0.018448,0.0597,0.244517,0.134085,-0.060872,-0.083804,-0.203687,0.06812,0.069355,0.078503,0.044862,-0.009684,-0.096087,-0.132452,-0.1562,-0.012584,0.115315,-0.234338,-0.00996,0.016128,-0.070964,-0.429118,-0.127525,-0.093828,-0.083585,-0.119058,-0.349921,-0.121234,0.448197,-0.016354,-0.063498,0.073027,-0.028121,-0.185703,0.078019,0.060899,0.037625,-0.061152,0.027453,0.032004,0.311956,0.5847,0.022017,-0.009929,-0.177922,0.101476,-0.026982,-0.004312,-0.073102,-0.091086,0.072319,-0.119244,0.131433,0.025724,-0.02932,0.015665,0.061244],[-0.083384,0.052723,0.085484,-0.028901,0.108476,-0.188759,0.010088,-0.013801,-0.022618,-0.04862,-1.021755,-0.065505,-0.516177,0.034092,0.14835,-0.040776,0.212141,-0.007605,0.082079,-0.09524,0.108237,-0.134831,-0.340397,-0.149973,0.089919,0.080397,-0.050229,0.034709,0.026846,0.027757,-0.021066,0.101106,0.00029,-0.12248,-0.012535,0.208592,0.153796,-0.023582,-0.170338,0.075059,0.013036,0.145151,0.100328,-0.108681,0.076819,0.110256,0.004993,0.031333,0.16026,0.110985,0.004915,-0.087641,0.042871,-0.092575,-0.018717,-0.065741,0.015667,0.002051,0.115335,0.252404,-0.071797,0.147313,0.058788,-0.24067,-0.055187,-0.574551,0.020407,0.211214,-0.582293,-0.073636,-0.047761,-0.220091,0.041318,-0.014868,0.058652,0.112966,0.098168,0.183785,0.093624,0.050192,-0.001777,0.125285,-0.003476,0.050397,0.023649,-0.054284,-0.229392,0.68854,-0.00879,-0.049034,0.058912,0.016552,-0.008584,0.10413,-0.065104,0.042307,0.082816,0.050394,0.080256,-0.007986,-0.341527,0.090343,0.087256,0.026978,0.169497,0.198674,0.022905,-0.042534,0.186723,-0.078239,0.296443,-0.018245,0.238216,-0.05753,0.122718,0.004272,-0.072497,0.114897,0.04408,0.068061,0.046876,0.028532,0.094813,-0.088343,-0.404876,-0.026553,0.066317,-0.016037],[-0.008432,-0.031044,0.001959,-0.147646,0.087747,-0.771847,-0.245309,0.01163,0.03667,0.057789,-0.519779,-0.518424,-0.52586,-0.023801,-0.104731,0.169154,-0.021042,0.002915,0.057515,0.025754,0.041556,-0.163259,-0.114468,-0.112385,0.022447,0.161807,0.098964,-0.030568,0.110765,-0.214997,-0.992927,0.078326,-0.375577,0.047245,0.238814,-0.048166,0.120583,0.048942,-0.004831,-0.03467,0.13359,-0.770096,-0.003879,-0.108522,0.16207,0.013198,-0.496766,-0.046626,0.100535,-0.002417,-0.007345,-0.068976,-0.0701,-0.682237,0.023085,-0.010207,0.033077,-0.202249,0.020798,-0.137221,-0.098225,-0.040239,0.019711,0.050671,-0.150702,-0.243911,0.076782,0.000542,-0.083795,-0.298367,0.14815,-0.022735,-0.027173,0.103334,-0.13349,0.054002,0.023526,0.105287,-0.234948,-0.001283,-0.105479,-0.05198,0.071491,0.156017,0.083392,0.053549,-0.076875,0.033796,0.099585,0.002115,-0.140691,0.148401,0.13971,0.031696,0.030746,0.059095,-0.005727,-0.035863,0.069673,-0.074429,-0.112688,0.083393,-0.210863,0.001876,0.025246,0.028034,0.02835,-0.074796,-0.023457,0.066841,-0.173542,0.07678,-0.035662,-0.013561,-0.001358,0.012077,-0.033708,-0.140717,0.00072,0.038388,0.049591,-0.077457,0.143467,-0.900682,-0.236954,-0.03197,0.050222,-0.047807],[-0.062346,0.017586,-0.030812,0.04883,0.020398,0.022898,-0.076232,0.010943,-0.063784,0.002917,-0.071086,-0.03834,-0.029343,-0.062506,-0.081487,0.063601,-0.099261,0.009952,0.045006,-0.096172,-0.061976,-0.060533,0.031857,-0.075279,-0.069532,0.0421,-0.0107,-0.040089,0.02333,-0.036883,0.029175,-0.059339,-0.030863,-0.019144,-0.032343,0.016245,0.020682,-0.036598,0.063034,-0.006887,0.005216,0.008652,-0.015793,-0.05924,-0.099714,-0.06711,-0.086598,-0.069988,-0.072188,-0.029373,0.052347,-0.025611,0.064316,0.009099,0.057941,-0.019511,-0.041997,-0.072782,0.009999,0.004147,-0.025696,-0.095879,-0.002777,-0.027937,0.008123,0.09267,0.018107,-0.066659,-0.036112,-0.020852,0.054418,-0.093166,-0.102233,0.044249,-0.070165,-0.053184,-0.097144,-0.090214,-0.087952,0.045786,-0.075432,-0.1063,-0.04362,0.049745,-0.071131,-0.071965,-0.01288,-0.055734,-0.045617,-0.06362,-0.076747,-0.022595,-0.049933,-0.054396,0.016956,0.039549,-0.052092,-0.023976,-0.053544,-0.07685,-0.04434,-0.104792,-0.046652,0.010462,0.04093,-0.081962,-0.037358,-0.067306,-0.026352,0.007509,0.030989,-0.025606,0.029493,0.018639,0.057986,0.012383,0.00617,-0.014065,-0.062826,0.029605,0.00468,-0.104004,0.02031,-0.002929,-0.064548,-0.090925,-0.020797,0.03693],[-0.37985,0.203636,0.06164,-0.007315,0.018399,0.102477,0.019496,-0.041703,-0.046106,0.08707,-0.075515,0.054785,0.003544,-0.079989,-0.00749,0.34473,0.136772,0.035886,-0.029006,-0.307752,-0.086126,-0.037078,0.06901,0.123765,-0.102024,-0.023926,-0.043025,-0.140251,0.177172,0.147253,0.033065,-0.134878,0.147364,-0.128618,0.15973,0.236166,0.1526,-0.022129,-0.159366,-0.126405,-0.038477,0.212118,0.106607,-0.028284,0.182297,0.009639,0.125071,-0.067653,0.097374,0.047223,-0.076388,-0.025542,-0.010492,0.081444,-0.083623,-0.171614,-0.133881,0.054288,0.104526,0.120448,0.014896,0.068573,-0.031156,-0.370824,0.032767,-0.041278,0.014837,0.115111,-0.390857,0.153878,-0.021497,-0.480948,-0.059694,0.146902,0.144946,0.364342,0.186942,-0.029399,0.20226,0.112949,-0.085554,0.138508,0.257436,0.640332,0.051297,0.400797,-0.04703,0.475187,0.079023,-0.085096,0.16076,0.297113,-0.025587,0.020816,-0.412977,-0.045741,0.002729,0.149673,0.068103,0.040302,-0.420869,0.143155,-0.113787,-0.013616,-0.005096,0.145218,0.030064,-0.110249,0.069743,0.012456,0.162552,-0.244438,0.293749,-0.215586,-0.079112,-0.035757,-0.057749,0.145345,0.1427,-0.040945,-0.030069,-0.043233,0.025791,0.040055,-0.169451,0.038123,-0.033368,-0.236876],[-0.133894,-0.040856,0.086025,0.013232,0.140857,-0.007439,0.032962,0.068783,-0.032243,0.054956,-0.509744,-0.068391,0.288686,-0.002859,0.088391,0.149415,0.154924,-0.092178,-0.077544,-0.076857,0.087629,-0.079188,0.190772,0.197886,0.006489,0.105402,-0.033388,0.191072,0.094504,0.028244,-0.018628,0.009852,0.000513,-0.1344,0.123639,0.111677,0.103794,0.237304,-0.163424,0.099853,0.002769,0.009462,-0.040797,-0.064722,0.195454,-0.005211,-0.08662,-0.02201,0.144199,0.110393,-0.04562,-0.059002,0.018348,-0.020739,0.079801,-0.045794,-0.01945,0.074378,0.082497,0.100069,-0.011065,0.051284,0.118132,-0.26567,0.092167,-0.140049,0.142492,0.271204,-0.190393,0.038212,0.049736,0.100095,0.02419,0.053951,0.169768,0.035835,0.088286,0.110401,0.185834,0.028239,-0.012304,0.087341,0.108238,0.165134,0.049788,0.084302,-0.071104,0.489543,-0.040998,0.004206,0.124945,0.178639,0.122338,0.011592,0.066007,0.073607,0.118173,-0.056279,0.097067,0.058307,-0.143643,0.129911,0.088148,-0.057592,0.078062,0.084659,0.156586,-0.02458,0.106842,0.06893,0.095888,-0.005531,0.155171,-0.088683,0.080382,0.009104,-0.016022,0.074031,0.039083,0.029263,0.100884,0.039306,0.170062,-0.099834,-0.032133,-0.035679,0.061176,-0.165991],[-0.07829,-0.067587,0.043687,-0.047155,-0.022799,0.052829,-0.029115,0.019759,-0.090972,-0.114791,-0.17087,-0.078384,-0.472437,0.002646,0.084059,0.240259,-0.159056,0.046136,-0.045976,0.040286,0.058746,0.085988,-0.288886,-0.157884,0.011011,-0.02768,-0.052478,0.060571,0.040649,-0.043696,-0.020036,0.068875,0.072823,0.069186,0.037263,0.076717,0.006983,-0.119309,-0.14564,-0.055154,-0.004519,-0.651435,-0.002609,0.020992,-0.080814,-0.085877,0.11244,-0.061187,-0.102519,0.068811,-0.095383,0.083383,0.075706,-0.037994,-0.057331,-0.117821,-0.059817,0.015506,-0.054697,-0.046728,0.02147,-0.031215,-0.089251,0.17781,0.059553,-0.003307,-0.113545,-0.036793,-0.034749,0.16431,-0.124579,-0.113159,-0.067948,-0.285194,0.052363,0.091868,0.081594,0.022125,0.076496,0.032644,-0.044498,0.019411,-0.332161,-0.004259,0.029955,-0.182122,0.000911,0.04351,0.011536,-0.018182,0.094674,-0.128399,-0.302328,0.056145,-0.020765,-0.021013,-0.02553,0.190339,-0.055294,-0.829534,-0.502831,-0.02318,-0.122008,-0.003955,0.02591,0.038374,0.025656,0.063668,0.032069,-0.045445,0.041404,-0.24983,-0.433323,0.030771,0.056783,0.074216,-0.123552,0.02837,-0.05764,0.015446,-0.020459,0.069715,-0.037519,0.003713,0.164564,-0.069971,-0.127284,0.007265],[-0.119302,-0.02118,0.03239,0.068723,0.108395,-0.197801,-0.03859,0.060579,-0.023326,0.026095,-0.634163,-0.092894,-0.018187,0.083762,-0.026217,0.098822,0.127376,-0.040821,-0.07264,-0.103949,0.080335,-0.037797,-0.016594,0.128055,0.00794,0.051438,0.060098,0.002003,6e-06,0.062695,-0.015175,-0.053207,0.072344,-0.0099,0.100729,0.170601,0.048235,-0.117624,0.020326,0.068206,-0.083262,-0.03649,-0.003664,-0.097374,0.109144,-0.010329,0.02133,-0.020889,0.043366,-0.01542,0.052371,0.046626,0.090849,-0.14992,0.002845,-0.147304,-0.083409,0.025812,0.026182,0.087533,0.133156,0.032142,0.01698,0.051299,0.060752,-0.305316,0.056295,0.078643,-0.237925,-0.022737,0.091095,-0.072163,0.049135,-0.031366,0.033456,0.093177,0.08607,0.060501,0.136046,0.068396,0.098921,0.073839,0.006189,0.131646,0.004032,0.166195,0.010854,-0.123307,-0.055908,-0.05865,0.05933,0.219727,0.064618,-0.028829,-0.073107,0.051074,0.090394,0.017076,-0.002563,0.048616,-0.150358,0.135931,0.072302,0.039793,0.029393,0.101893,0.006621,-0.073399,0.127656,0.028664,0.204633,-0.060688,-0.063512,-0.025936,-0.040659,0.022167,-0.012962,0.090169,0.05495,-0.02947,-0.08684,-0.07256,0.095233,-0.142876,-0.126396,0.035191,0.034716,-0.121134],[0.124037,-0.097423,0.003755,-0.018777,-0.089473,0.199989,0.112962,-0.041736,-0.137025,-0.194179,0.380294,0.080946,-0.289228,0.07606,0.014406,-0.633908,-0.079445,0.016649,0.075006,0.045541,0.032805,0.200426,-0.786744,-0.177854,-0.005701,-0.138935,-0.111649,0.058763,0.012878,0.112307,0.094592,-0.026574,0.166522,0.072932,-0.079392,-0.020088,-0.008162,0.384832,-0.150278,0.060688,0.019603,-0.085925,0.007197,0.163389,-0.150231,-0.022507,0.188786,-0.01387,0.027789,-0.012345,0.062475,-0.034311,0.049533,-0.162975,-0.041202,0.010025,0.059701,0.002202,0.015589,0.004867,0.079566,-0.091145,-0.06641,-0.200718,0.053421,0.27968,-0.036853,-0.102406,-0.070389,0.069932,-0.028799,0.096525,0.050672,-0.159835,0.156067,-0.101325,-0.127012,0.028364,0.171352,-0.035591,0.014108,-0.074935,-0.257468,-0.154247,-0.081461,-0.165427,0.063878,-0.001807,-0.064655,0.090711,-0.030401,-0.239717,0.247904,0.033289,0.08163,-0.049953,-0.176291,-0.060785,0.001527,-0.114316,-0.268708,-0.10149,-0.020051,0.101127,0.036553,-0.011401,0.030365,0.116537,-0.099007,-0.012126,0.048263,0.373522,0.024809,-0.051469,-0.093332,-0.086564,-0.020878,0.078329,0.048623,0.117558,-0.026055,0.021576,-0.052228,0.203855,0.15295,0.011265,-0.072888,0.17589],[0.027868,-0.04072,-0.013503,-0.065378,0.00014,