export const trainedPolicyArtifact = {"enabled":true,"passed":true,"version":"postflop-physical-rollout-regret-v2","artifactId":"postflop-physical-rollout-regret-v2-1782383680","trainedAt":"2026-06-25T10:34:40Z","training":{"selfPlayHands":50000,"reservoirSize":50000,"rolloutBatch":2048,"trainStepsPerIter":8,"batchSize":2048,"hidden":128,"seed":20260625,"regretDecay":0.58,"averageStrategySteps":800,"averageStrategyWarmup":0.18,"averageStrategyPower":1.5,"showdownRollouts":24,"histogramHands":6,"histogramRollouts":6,"seconds":43.17,"device":"cuda"},"featureNames":["equity","range_eq_0_10","range_eq_10_20","range_eq_20_30","range_eq_30_40","range_eq_40_50","range_eq_50_60","range_eq_60_70","range_eq_70_80","range_eq_80_90","range_eq_90_100","pot_odds","spr_norm","street_flop","street_turn","street_river","position_signal","to_call_flag","made_strength","draw_strength","wetness","paired","monotone","connected","range_advantage","blockers","range_percentile","range_weight","range_coverage","context_aggressor","three_bet","facing_bet","free_check"],"actionSets":{"open":["check","bet-small","bet-mid","bet-big","bet-over"],"facing":["fold","call","raise-small","raise-big","jam"]},"policyKind":"regret-matching","blend":0.1,"validation":{"regret_mse":0.417707,"regret_mae":0.433083,"avg_positive_regret":0.36495,"norm_error":0.0},"behavior":{"dry_blocker_bluff_bets":[0.0,0.974499,0.025368,0.0,0.000134],"wet_air_checks":[0.0,0.997234,0.002766,0.0,0.0],"flush_draw_raises_vs_bet":[0.0,0.30764,0.305184,0.204307,0.182869],"value_bets":[0.209718,0.18898,0.13025,0.188352,0.282699],"river_nut_overbets":[0.225019,0.158308,0.100121,0.221288,0.295264]},"standards":[{"name":"regret_mse","passed":true,"value":0.417707,"threshold":"<= 0.6"},{"name":"regret_mae","passed":true,"value":0.433083,"threshold":"<= 0.6"},{"name":"avg_positive_regret","passed":true,"value":0.36495,"threshold":"<= 1.35"},{"name":"normalization","passed":true,"value":0.0,"threshold":"<= 1e-5"},{"name":"dry_blocker_bluff_bet_total","passed":true,"value":1.0,"threshold":">= 0.18"},{"name":"flush_draw_raise_vs_bet","passed":true,"value":0.69236,"threshold":">= 0.16"},{"name":"flush_draw_fold_cap","passed":true,"value":0.0,"threshold":"<= 0.28"},{"name":"value_bet_total","passed":true,"value":0.790282,"threshold":">= 0.56"},{"name":"river_nut_overbet","passed":true,"value":0.295264,"threshold":">= 0.10"}],"model":{"type":"mlp-regret","trainingTarget":"average-strategy-distilled-from-physical-regret","activation":"relu","layers":[{"weights":[[0.065484,0.114398,0.102583,-0.083853,-0.05165,0.115057,0.116569,0.003684,0.005022,-0.10593,-0.106237,0.210673,-0.074229,-0.087304,-0.073112,-0.133646,0.098678,0.199104,0.029531,0.152818,0.081353,-0.002624,0.104382,-0.060758,-0.1634,0.096018,-0.008314,0.104312,-0.021239,-0.089855,-0.071957,0.066803,-0.070331],[-0.048201,0.070154,0.140897,-0.023706,0.038772,0.157125,0.09566,-0.04137,-0.014261,0.235163,0.15884,-0.032529,0.173829,0.077667,0.01295,0.220718,-0.057609,-0.068597,0.330978,0.050907,-0.100704,0.0093,-0.127713,-0.071064,0.159065,0.217271,0.083509,0.121847,0.247288,-0.216956,-0.042733,-0.125278,0.018928],[-0.150921,0.037242,-0.11876,-0.028567,0.057722,-0.081844,-0.013731,-0.013216,-0.189696,-0.178789,-0.014165,-0.03203,0.007343,-0.079522,-0.128194,-0.050377,0.021562,-0.03575,-0.112588,-0.073288,0.15129,0.099998,-0.006317,-0.106024,-0.02062,0.098808,0.185125,0.02717,0.130547,-0.18307,0.117977,-0.066028,-0.224102],[-0.365362,0.040447,-0.015229,0.057656,0.115433,-0.131484,-0.0007,0.062923,0.129364,0.05702,-0.088565,0.157926,0.033208,0.05954,0.015365,-0.012065,-0.047001,0.17058,-0.300293,0.051106,0.069414,-0.044374,0.091792,-0.086012,-0.121118,-0.093081,-0.22251,-0.162367,0.088351,0.030398,0.078092,0.054217,0.116361],[-0.138203,0.128346,0.174381,-0.005307,-0.012784,-0.186414,0.020825,-0.135699,0.069456,-0.165136,-0.069006,0.176431,0.088296,-0.016362,0.107595,-0.063726,0.058029,0.174868,0.080114,0.18639,0.056235,0.088601,-0.030244,0.039682,0.022168,-0.171124,-0.163545,-0.149457,-0.111999,-0.16676,0.014151,0.02383,-0.179266],[-0.086843,0.228558,0.102319,0.221677,0.158611,0.057706,0.140481,0.073986,0.083749,0.052332,-0.025132,-0.061931,0.142896,0.192325,0.107529,0.015828,0.212579,-0.120399,-0.340162,0.32108,-0.110052,0.102578,0.113513,-0.007928,0.239588,0.176503,-0.110779,-0.091391,0.157714,-0.022324,0.155106,0.042699,0.079174],[-0.170607,0.198385,0.261121,0.225507,-0.0356,-0.026034,0.108211,0.178684,-0.073945,0.092767,-0.116892,0.02869,0.146981,0.013959,-0.054098,0.046049,0.170338,-0.070325,-0.084186,0.195299,-0.046511,-0.06768,-0.042932,-0.055825,-0.007432,-0.003932,-0.126967,-0.035048,0.179008,-0.0906,0.09368,0.189861,-0.063929],[-0.173131,-0.031746,0.007405,-0.030041,0.138376,0.048283,-0.010593,0.086932,0.034906,-0.071874,-0.158674,-0.095222,0.085167,-0.118736,-0.031113,0.017559,-0.010731,0.21143,0.02729,0.183792,0.170562,-0.095945,-0.102905,-0.013788,0.077414,-0.190958,0.077313,-0.100256,-0.107821,0.145544,-0.040896,0.115459,-0.126692],[0.294971,0.082447,-0.131146,0.025116,-0.125279,-0.006898,0.105841,0.13887,0.088967,0.00017,0.164152,0.221998,-0.056823,-0.161857,-0.090335,0.020178,-0.02208,0.099003,-0.015581,0.069783,-0.159992,-0.001818,-0.091058,0.091867,-0.000721,-0.101569,0.18893,0.090487,-0.058092,-0.020381,-0.066283,0.035532,0.053388],[-0.358118,0.008914,0.022294,-0.023728,0.010602,0.015032,0.055913,-0.132041,-0.090861,0.032397,0.004267,0.284039,-0.091438,0.18606,0.168192,0.076342,0.177883,0.001997,-0.29927,0.062338,0.173218,0.027209,0.058839,0.040268,-0.054418,0.116059,-0.121353,0.057802,-0.032916,0.0361,0.076605,0.080853,-0.079026],[0.051795,0.16696,0.083021,0.018244,0.087588,0.049731,-0.069668,0.22237,0.095544,-0.195629,0.057063,0.074056,0.200941,-0.064133,0.212772,0.037171,0.174318,0.063511,-0.129017,-0.03535,0.08669,0.134053,8.8e-05,-0.217501,0.193741,-0.044739,-0.055561,-0.141106,-0.128996,-0.010778,-0.017233,-0.116329,-0.127761],[0.006491,0.099317,0.087184,0.010071,-0.061951,-0.000288,-0.043548,0.182145,0.209687,0.043349,0.051494,-0.096329,-0.063071,0.077294,-0.043426,0.10474,0.054478,-0.207418,0.123429,-0.101603,-0.050889,0.045048,0.125094,0.01938,0.143942,0.088821,-0.078489,0.20848,0.208906,0.107039,-0.015145,-0.133271,0.05733],[-0.28897,0.118312,0.197321,-0.021071,-0.106886,0.048158,-0.124358,0.004733,-0.031823,-0.120226,-0.014621,0.164846,0.006874,-0.077308,0.114921,0.135942,-0.120224,0.147484,-0.178521,-0.039289,-0.10155,-0.123957,-0.020937,-0.036929,0.07287,0.06626,-0.105892,0.083802,0.201972,0.078114,-0.083619,-0.051675,-0.084671],[0.215496,0.093898,-0.174331,0.115477,-0.072867,0.144281,-0.023468,0.134139,0.118634,0.050827,0.198609,0.114314,0.02999,0.080082,0.148091,0.021697,-0.114796,0.220972,-0.12462,0.003087,0.135463,-0.027322,0.193043,-0.064082,-0.12847,-0.134862,0.030947,0.084372,-0.140646,0.158637,0.038148,0.101017,0.095332],[0.267794,-0.015396,0.089192,0.090032,-0.155855,-0.121621,0.163759,0.193745,0.103459,-0.053905,-0.070345,-0.054628,0.153979,-0.057911,-0.027244,-0.121948,0.113297,0.022141,0.250324,0.146507,0.010715,-0.044694,0.139548,-0.116062,0.02279,0.171216,0.10141,0.00866,0.090826,-0.043722,0.144856,-0.08927,-0.16513],[0.039051,-0.124569,0.057688,-0.139443,-0.148819,-0.138596,0.110158,0.069449,0.151803,-0.118997,-0.193517,0.110388,-0.026587,-0.07701,0.155919,-0.108384,0.141776,-0.092053,0.145859,0.064286,-0.168126,-0.055492,-0.111714,-0.13928,-0.111205,0.068744,-0.140723,0.018673,0.034215,-0.132192,-0.115618,-0.028923,-0.04385],[-0.34552,0.001049,0.082559,-0.058797,0.127095,0.127874,0.059967,0.044664,0.110719,-0.145986,0.107697,0.105894,-0.034902,-0.037281,-0.083334,-0.049697,0.15906,0.085389,-0.14231,-0.004995,0.084301,0.005791,-0.060436,0.008435,0.031243,-0.172902,-0.055373,-0.015839,-0.081893,0.011275,-0.053554,0.080931,0.085607],[-0.190428,-0.083824,0.05422,-0.01015,-0.017458,0.026436,-0.071863,-0.099249,-0.14813,-0.200708,-0.053395,0.15939,0.100667,-0.130299,-0.103093,-0.082294,-0.050726,0.145403,-0.194628,0.174307,0.087314,-0.027128,-0.083511,-0.082265,-0.03329,-0.140691,-0.040142,-0.17712,0.098999,0.089944,-0.045889,0.131743,-0.003675],[-0.260473,-0.040093,-0.000964,-0.014623,0.09975,0.171783,0.140282,-0.039316,0.065996,-0.06116,-0.077035,-0.071105,0.060091,0.03931,-0.032972,0.025561,-0.071096,0.162153,0.16778,-0.124668,0.032159,-0.090798,0.005988,0.037093,-0.110266,0.066167,-0.008416,0.011937,0.160526,-0.081141,-0.007906,-0.061989,0.065554],[0.108876,0.126031,0.125856,-0.042234,-0.149067,-0.119652,-0.068632,0.172561,0.128842,0.089702,-0.023594,0.029172,-0.072052,-0.142662,-0.063942,0.124477,0.058555,0.174003,0.031756,0.070669,-0.055666,0.052239,-0.183157,0.138569,0.053441,-0.006243,-0.159011,0.023573,0.183979,-0.001907,0.03979,-0.060026,0.051577],[0.044218,-0.149033,-0.006372,0.04938,0.014056,0.00793,0.057721,0.067874,-0.077997,0.044722,0.05318,0.120515,0.033023,0.1118,0.102648,0.066474,-0.148824,0.158986,0.0368,0.188612,0.14291,0.114564,0.029102,0.049088,-0.009995,0.062955,-0.061348,-0.076062,0.14614,-0.000676,-0.027039,-0.073813,-0.075464],[-0.209534,0.24919,0.168895,0.086171,-0.055049,0.140092,-0.028116,0.128207,0.143791,-0.01087,-0.049617,-0.054402,0.09208,0.17775,0.089574,0.070831,-0.109646,-0.030994,-0.016324,0.203819,0.035,0.094275,-0.027662,-0.082294,0.026416,-0.022192,0.016839,-0.016376,0.122868,-0.151633,0.084055,0.24105,-0.012774],[0.115631,0.025203,0.115776,-0.055916,0.066438,0.04055,-0.027416,-0.103075,-0.108544,0.00962,-0.087798,-0.103573,-0.02451,0.154562,0.106797,0.075568,-0.135233,0.214737,-0.013489,-0.089107,0.022689,-0.077972,-0.058538,-0.06405,0.095922,-0.007788,0.142761,0.104102,0.167437,-0.150785,-0.077065,-0.007559,-0.119033],[-0.116576,-0.004984,0.055489,-0.010998,0.061053,0.004182,0.119063,-0.046149,-0.144245,-0.077088,0.006496,0.255624,0.007231,0.176647,0.036335,0.024613,-0.039813,0.207194,0.094537,-0.193821,0.1575,-0.036175,0.096725,-0.014573,-0.085556,-0.085734,-0.157215,0.004854,-0.005593,-0.017025,-0.070084,-0.003165,-0.035317],[-0.152424,0.212198,0.008384,0.091153,-0.002314,0.115778,0.087299,0.008076,-0.002631,0.055481,0.056335,0.207252,0.050399,-0.01317,-0.018333,0.060394,-0.008007,0.140869,-0.036868,-0.098704,0.006759,-0.069423,0.03769,-0.066185,-0.009583,-0.153132,-0.021888,-0.05476,-0.025408,0.067231,-0.049251,-0.03567,0.08194],[-0.228823,-0.129898,-0.057719,0.039662,-0.03816,0.078544,-0.083775,0.003006,0.139486,0.065745,-0.184686,-0.132064,0.172723,0.127175,0.125005,-0.123898,0.143335,-0.017511,-0.009615,0.031904,0.107948,0.005495,0.006892,-0.04449,0.163734,0.054277,0.103057,-0.15369,0.031082,0.114135,0.11368,0.149908,-0.001345],[0.282589,-0.181485,-0.119026,0.043887,-0.217917,-0.131726,-0.060667,-0.014564,0.071217,0.024989,-0.000609,0.17451,0.076349,-0.004342,0.024671,0.002296,-0.059342,-0.125778,-0.00338,0.102861,-0.025443,-0.02336,-0.03254,-0.060082,0.08088,0.162685,0.127683,0.209287,-0.08101,0.039849,-0.011898,0.005236,0.094354],[0.183749,0.126857,-0.124718,-0.126158,-0.046813,0.070609,-0.122257,-0.0711,-0.118683,0.1268,0.149723,0.161238,0.201386,-0.079265,-0.155306,0.078444,-0.073386,0.069069,-0.062517,0.148281,0.009858,0.154273,-0.053291,0.081156,-0.10205,-0.000881,0.117799,-0.129679,0.14578,-0.047444,-0.162319,-0.048001,-0.005186],[-0.167013,-0.018732,-0.010886,-0.046224,-0.009207,-0.118983,-0.082163,-0.128253,-0.224741,0.051459,0.017303,0.087471,0.065659,0.044269,-0.006838,0.026456,-0.073147,0.142249,0.016452,0.098192,0.104917,-0.034525,-0.073804,-0.017126,-0.140332,0.124782,-0.150859,-0.060903,0.125443,0.092081,0.001111,0.040472,0.006025],[0.083318,-0.129837,-0.111213,0.094578,0.071822,-0.042026,0.144022,-0.059973,0.19207,-0.164026,0.095313,0.142608,-0.08024,0.128211,0.159651,-0.047765,-0.129648,0.176293,0.12319,-0.085436,-0.059602,-0.03771,-0.008368,0.057667,0.066109,-0.256107,-0.027118,-0.04776,0.158555,-0.082697,0.029566,0.074795,0.052181],[-0.28257,0.141326,-0.07518,0.162915,-0.047037,-0.053249,-0.186899,0.126687,0.087286,0.078045,-0.03145,0.133254,0.078897,0.056173,-0.001853,0.032788,-0.014509,0.21182,-0.069886,0.046252,-0.114007,0.089653,0.062837,-0.008861,0.055236,0.126871,0.039786,-0.078837,-0.015736,-0.082405,-0.031512,0.002341,-0.033432],[0.101153,-0.160258,0.050997,0.075992,0.044037,-0.029317,-0.144219,0.099991,0.125224,0.192031,0.056134,0.126854,-0.001741,-0.108211,0.071809,-0.104632,-0.119616,-0.094997,0.260478,-0.131047,-0.009317,0.062429,-0.117976,0.015328,0.098377,-0.035465,0.162938,0.111991,-0.127182,-0.101558,0.120428,0.147216,0.091161],[-0.129185,-0.057463,-0.147873,-0.04848,-0.108367,0.012626,-0.029831,0.045554,0.122632,0.02932,-0.027575,-0.171206,-0.014102,0.168827,0.012353,-0.07208,0.091626,-0.000755,-0.067251,-0.13333,0.052261,-0.024375,0.070549,0.041806,0.167503,-0.134403,-0.069077,0.11161,0.172161,-0.029954,-0.134748,-0.019826,-0.001312],[-0.036129,-0.070441,-0.041548,0.003923,-0.072757,0.091917,0.058124,-0.048483,0.068227,0.012878,0.239406,-0.085955,-0.063876,0.154131,0.145228,-0.011001,0.081927,-0.120525,0.102697,0.128224,0.146338,-0.038255,-0.109029,0.154164,-0.109118,-0.020829,0.082783,0.184549,0.079009,-0.110642,0.014454,-0.064083,0.063506],[0.280247,-0.065045,-0.171722,-0.108094,0.004573,0.217347,0.005292,0.182029,-0.04998,0.178127,0.140164,0.010923,-0.076652,0.105156,-0.098565,0.115479,0.169598,0.038325,0.194274,0.160511,-0.038171,0.151627,0.198695,-0.018731,0.093878,-0.039033,0.217907,0.18986,-0.099156,0.157716,-0.015857,-0.055198,0.045082],[-0.111083,0.213999,0.177865,0.104997,0.016312,-0.071376,0.097476,-0.099335,-0.017199,0.159891,0.038075,-0.173111,0.162061,0.062953,0.166749,0.058366,0.13716,-0.136171,-0.16303,0.165194,-0.039458,-0.089162,-0.024638,0.074818,-0.125079,-0.035142,-0.042366,0.055756,0.014662,-0.091804,0.090423,0.103222,0.118153],[0.026181,0.115664,0.208063,0.106519,0.253906,0.017168,0.221885,0.183434,0.097221,0.174978,-0.042932,0.311012,0.236433,0.10614,0.03226,0.086466,0.173634,0.009024,-0.145459,0.159948,-0.078085,-0.00642,-0.064269,0.2294,-0.016019,0.153517,-0.289386,0.083724,0.12629,0.084283,-0.087367,0.217027,0.053633],[-0.182322,0.095278,-0.019842,0.111486,-0.043143,0.092983,-0.119904,-0.153121,-0.079746,-0.037733,0.081774,0.243997,0.050174,0.150298,0.058973,0.056029,-0.004259,0.02626,-0.238298,-0.063011,-0.055388,0.056116,-0.058567,0.157519,-0.097891,0.175934,-0.145791,-0.00805,0.007726,-0.106789,0.079109,0.18323,-0.1687],[0.239877,-0.002618,0.096609,0.002849,-0.021851,0.029748,0.248158,0.013791,-0.058333,0.037042,-0.047274,0.024504,-0.031718,0.004569,0.181833,0.176551,0.132425,-0.046475,0.28054,0.09095,0.210588,-0.021065,0.015918,-0.066936,-0.066567,0.225504,0.136103,0.131557,-0.033146,0.181983,0.018218,-0.074869,0.133492],[0.04714,-0.105393,0.16691,0.076,-0.102222,-0.063281,-0.007121,-0.005202,-0.133922,-0.135779,-0.055094,0.004979,0.057508,0.085863,-0.053782,-0.124749,-0.05604,0.100283,-0.049285,-0.075583,0.186625,0.009748,0.043264,-0.029808,0.031757,-0.046877,0.145163,-0.160701,0.06232,-0.003444,-0.113295,0.194279,0.15184],[-0.297339,0.269213,0.180743,0.170986,0.093265,0.151481,-0.006736,-0.126722,0.002949,-0.040081,-0.062116,0.062234,0.174611,0.028981,0.089364,-0.01517,-0.00679,-0.002423,-0.116968,-0.040764,0.019337,-0.099086,-0.082012,-0.050549,0.158819,0.08108,-0.015008,-0.024662,-0.10027,0.045283,-0.042841,0.177704,0.11518],[-0.187934,0.12505,0.131286,0.129755,0.011422,0.07939,-0.068588,0.102733,-0.119479,-0.004305,-0.004793,-0.034489,-0.083693,0.030068,0.072159,0.184431,-0.081707,-0.047371,-0.061817,0.084818,-0.091422,0.117637,-0.102965,0.007972,-0.116876,0.130424,-0.113842,0.16341,0.083368,0.120728,0.018944,0.039347,-0.047938],[0.093236,-0.023547,0.116123,0.236525,0.196016,0.221303,0.007118,0.178264,0.231245,0.124298,0.103589,-0.177946,0.037584,0.086515,0.18769,0.154681,-0.110934,-0.016916,-0.149733,-0.011751,-0.088396,-0.193256,0.030325,0.105434,0.209147,-0.041858,-0.081072,-0.103966,0.193834,-0.108085,-0.185808,-0.114443,0.04188],[0.092147,-0.195012,0.050807,-0.099922,-0.141417,-0.132485,0.018255,-0.130597,0.014945,-0.036668,-0.037331,0.067537,-0.043654,-0.00881,-0.00654,-0.066562,-0.136325,-0.104423,-0.167282,-0.189671,-0.096619,0.034076,-0.174018,0.064423,-0.061625,-0.122835,-0.153206,-0.126171,-0.119367,0.022269,-0.034751,0.019122,-0.046773],[-0.114111,0.108755,0.077047,-0.024171,-0.046105,-0.044769,-0.027126,-0.037819,-0.000693,-0.09892,0.084503,0.070977,0.0804,-0.116274,0.015203,-0.162932,0.110576,0.15143,-0.285644,0.050894,-0.127511,0.122267,0.098656,-0.027182,0.080834,0.065977,-0.241953,-0.209564,0.021643,0.058645,-0.09532,0.186511,-0.164046],[0.216654,0.070955,-0.166235,-0.251772,-0.166952,-0.099304,-0.210569,-0.171211,-0.014293,-0.130538,0.003978,0.116545,0.01314,-0.11613,-0.125783,-0.179184,0.045205,0.133111,-0.008042,0.131896,-0.054725,0.130453,-0.045307,-0.114418,-0.056159,0.084121,0.110346,0.124702,-0.074427,0.047548,0.069459,0.165935,0.228392],[0.048875,0.064978,-0.051355,-0.105028,-0.116779,-0.068473,0.105323,-0.091431,0.088782,0.102782,0.002527,0.15616,0.026734,0.170094,-0.079176,0.051444,0.098125,-0.098132,0.101045,-0.026792,0.076105,-0.150435,-0.134456,-0.060756,-0.013906,0.086167,-0.124806,-0.068547,0.120179,-0.029479,-0.018542,0.057351,-0.040902],[-0.087213,-0.140839,-0.109019,-0.149589,0.071479,0.08499,0.003994,-0.126277,0.057692,-0.013629,0.103847,0.113874,0.17102,0.040658,-0.151188,-0.060252,-0.016619,0.15498,0.079159,-0.133328,-0.101861,-0.049064,0.035673,-0.081365,-0.145221,-0.010938,-0.081989,0.117997,-0.138708,0.06614,-0.067493,0.025859,0.069718],[0.042694,-0.02807,-0.14123,-0.022682,0.077391,0.039892,-0.046404,-0.110423,-0.113117,0.165471,0.026078,-0.210211,0.101995,0.14823,-0.092762,-0.1697,0.024851,0.144557,0.061775,0.006614,-0.072443,0.086126,0.041987,0.170196,0.09947,0.055057,0.110123,-0.013964,-0.129993,-0.046296,-0.137267,0.087078,-0.075597],[-0.094296,0.132648,0.071875,-0.144559,0.035732,-0.060989,-0.024571,-0.151797,-0.126681,0.078971,0.160269,0.142658,0.056796,-0.080912,-0.093985,-0.130554,-0.059708,-0.070817,-0.000167,-0.125042,-0.18461,0.056413,0.052253,-0.155283,0.10156,-0.06224,0.109313,0.048287,-0.071755,0.148794,0.05275,0.048543,-0.001014],[-0.048177,0.129423,0.023065,-0.1953,0.028612,-0.081748,0.082687,-0.196441,-0.010597,-0.082416,0.086107,0.130103,0.147977,-0.111014,-0.178563,-0.138504,0.140461,0.075721,-0.125697,-0.133877,0.085836,0.095305,0.011214,-0.106595,0.137572,-0.175534,-0.021167,0.033446,-0.07579,0.049381,-0.144074,0.166696,0.121766],[-0.280532,0.258401,-0.009511,0.178555,-0.08573,0.020343,-0.049941,0.076752,-0.069511,-0.028287,0.079249,-0.121175,0.195456,0.080096,0.059119,-0.025425,0.007274,-0.023103,-0.000747,-0.008622,0.105941,-0.033313,0.025531,0.106198,0.037257,-0.102368,-0.211108,0.079778,0.03612,0.12527,0.011777,0.007665,0.038474],[0.242099,-0.048439,-0.17607,0.131545,0.016143,0.123594,0.199895,0.044527,0.14212,0.026748,0.040509,-0.118979,0.213609,-0.068484,0.118706,-0.031698,0.091304,-0.033426,0.100948,-0.118408,-0.15531,0.11827,-0.003671,0.072734,0.166297,-0.098559,0.068917,0.213891,-0.047633,-0.001062,0.091579,-0.130795,-0.062664],[0.158336,-0.066451,-0.054837,0.034321,-0.020227,0.068417,-0.080473,0.064464,-0.041672,0.12582,-0.096653,0.169323,-0.094055,0.022655,0.08058,0.047191,0.058507,-0.097737,-0.150254,0.057549,-0.015133,-0.035088,-0.160259,-0.070051,-0.037535,0.059838,0.152283,0.092782,0.118471,-0.165463,0.13227,0.176318,0.009866],[-0.092947,0.132059,-0.07587,-0.131195,-0.005843,-0.150122,-0.025791,0.070176,-0.150643,-0.1475,-0.007043,-0.172085,0.004255,-0.038122,0.087819,-0.123555,-0.031007,0.054199,-0.079464,0.197827,-0.093343,0.046129,0.123183,-0.049272,0.010429,0.077945,0.063123,0.082299,0.079395,-0.041549,0.002697,0.1755,0.061611],[0.165735,0.023049,0.025188,-0.094713,0.06538,0.088743,-0.143636,0.140235,0.109337,0.13107,0.073011,-0.137444,-0.088448,-0.046125,0.012806,-0.09803,0.127484,0.218783,0.029923,0.116839,0.148569,0.081965,0.034591,0.099002,0.14945,-0.155617,0.104696,0.163172,-0.109616,-0.136071,0.071481,-0.086691,-0.114453],[-0.286972,0.064582,0.244654,0.133067,0.288867,0.22453,0.087152,0.050919,0.130176,-0.010178,-0.094059,-0.008254,0.191413,0.152403,0.07944,0.065146,-0.048424,-0.011477,0.070265,0.009795,0.002485,0.084092,0.031477,-0.115572,0.190642,0.139994,-0.11529,0.236412,0.048803,-0.026246,0.061501,-0.116919,-0.007942],[0.078756,0.015933,0.031075,0.12549,0.139073,-0.105377,-0.119998,0.009552,0.156859,-0.057016,0.090801,0.010359,-0.057274,0.105712,0.168074,-0.052676,0.027776,-0.103176,0.071803,-0.123247,0.118612,0.111313,0.154972,0.061467,0.090002,-0.014452,0.068811,0.058648,0.185766,0.17518,0.157961,-0.062772,-0.138064],[-0.179439,0.070742,0.109994,-0.195047,-0.1781,-0.000418,-0.042501,-0.082971,0.024599,-0.193796,-0.061754,-0.023787,-0.072314,0.12772,-0.035616,-0.015869,0.031246,0.141762,-0.184722,-0.05634,0.041122,0.048738,0.084356,2.9e-05,-0.17209,-0.120878,-0.082033,-0.108845,0.108734,-0.171267,0.040784,-0.128395,0.041718],[-0.212954,-0.057484,-0.013067,-0.073964,0.026341,-0.147407,-0.109938,-0.088041,0.068015,0.091764,0.110085,0.011142,-0.094346,0.049532,0.14479,-0.143967,0.152713,0.068601,0.095333,-0.059573,-0.104823,0.152763,0.004782,-0.077632,0.133391,-0.109584,-0.122676,-0.071656,-0.15522,-0.097886,0.151752,0.125399,0.011207],[-0.097733,0.013949,-0.070258,0.195572,-0.132765,0.075579,0.122018,0.169103,0.18644,-0.037507,0.02991,-0.153068,-0.125273,-0.134887,0.182406,0.087028,-0.068164,0.085126,-0.144364,-0.017934,0.070648,0.069156,0.072528,0.116106,0.153462,0.016114,-0.027536,0.031916,0.141813,0.037276,-0.08307,-0.108899,0.044035],[0.236907,0.137206,0.08573,0.085774,0.021496,0.052477,-0.065679,0.047534,-0.029659,0.044299,0.157116,0.086558,0.113362,-0.040621,-0.059472,0.006947,-0.068522,0.204635,0.025324,0.123829,-0.115836,0.062047,0.061657,-0.098766,-0.003044,-0.032504,-0.000947,0.173707,-0.123782,-0.015282,-0.013968,0.19621,-0.236574],[0.029817,-0.083532,0.012938,0.081486,0.036449,-0.195028,-0.103629,-0.076424,-0.078875,-0.086664,0.175157,0.044521,0.132806,-0.068347,-0.047295,0.099569,-0.03653,0.151558,-0.048756,-0.117247,0.051573,0.046322,-0.006303,0.060318,-0.019294,-0.177776,0.115525,0.113693,-0.068177,-0.124906,0.111013,0.026474,0.005373],[0.14084,-0.04213,-0.253089,-0.060676,-0.230264,-0.166656,-0.082796,0.161297,-0.05246,0.110745,0.211467,0.143591,0.123324,-0.198362,-0.166269,-0.153751,-0.082064,0.167754,0.068809,-0.073337,0.082089,-0.113779,-0.098775,-0.094874,-0.064496,-0.000382,0.136377,0.055244,-0.020481,0.023947,-0.093804,-0.061869,-0.022124],[-0.042207,-0.059411,0.110285,0.095911,0.091897,0.12593,-0.025406,0.019924,0.018342,-0.0851,-0.103516,0.078916,-0.130823,-0.168567,0.17335,0.143081,-0.078098,0.162628,-0.25528,-0.026782,0.164098,0.1372,0.050134,-0.019786,-0.159591,0.060945,-0.129676,-0.120511,-0.029897,0.009112,0.037591,-0.102656,0.023964],[-0.175857,0.060208,0.15159,0.065498,0.066374,0.152307,0.159687,-0.117539,0.068833,0.136662,0.02326,0.046309,0.035486,0.052287,-0.054141,0.128038,-0.148492,0.157347,-0.206721,0.124022,0.014928,0.022003,-0.071548,0.003072,-0.118827,-0.117098,-0.034602,0.108834,-0.047269,0.145796,-0.101863,-0.046656,0.110781],[0.127625,-0.10764,0.13261,-0.001403,-0.132261,-0.024435,0.040373,-0.009207,0.066198,-0.106115,-0.090926,0.090004,-0.022848,-0.177573,0.065847,-0.039008,-0.032204,0.014948,-0.180753,0.011116,0.14736,0.02251,-0.017402,-0.023946,0.020662,-0.13475,0.007488,-0.081864,-0.091209,0.057115,0.103989,0.088101,-0.210265],[0.120633,-0.113814,-0.11913,0.069164,0.106929,-0.178136,0.018685,0.045246,-0.050412,0.002917,0.014525,0.08972,-0.051895,-0.07702,0.12067,-0.06403,0.150436,0.14879,0.077849,0.060277,0.016262,0.034177,-0.005411,-0.141623,-0.030533,0.105926,0.009105,0.100956,0.020133,0.115802,-0.0106,-0.002773,-0.172619],[-0.06751,0.229184,0.103633,0.184389,0.076029,0.27226,0.151838,0.177195,0.238354,0.070158,0.121414,-0.023085,-0.129162,0.174761,0.275128,0.101,0.082271,-0.316356,0.163008,0.005862,0.180635,8.3e-05,0.085043,-0.107911,0.331368,0.004442,0.23904,0.089751,0.031684,-0.008519,0.081637,-0.138547,0.003393],[0.364478,-0.09871,-0.224742,-0.152683,-0.070584,-0.067957,-0.139179,-0.096798,0.045781,0.069857,0.005046,0.020983,-0.033666,-0.086256,-0.056973,-0.063115,0.021494,-0.066394,0.09264,-0.124745,-0.104675,-0.0237,-0.046645,-0.009966,0.133258,0.039993,0.268131,0.157056,-0.103459,-0.060364,-0.046291,0.076012,0.141584],[0.022786,0.183198,-0.019378,-0.063719,-0.13855,-0.126195,0.036765,0.165908,0.071109,-0.085161,0.069229,-0.192362,-0.129272,-0.222149,0.046092,-0.033996,0.077763,-0.100355,-0.177358,0.05433,0.120796,0.1312,-0.048478,0.09204,-0.08304,-0.120272,-0.159678,0.114771,-0.136249,-0.009374,0.103914,-0.035033,0.081829],[0.149793,0.019693,-0.157826,0.10711,0.085828,0.113084,-0.065319,0.233291,0.219187,-0.042292,0.027247,-0.119005,0.222468,0.120716,0.038871,-0.027337,-0.113605,-0.052233,0.160323,-0.131389,0.095541,0.039708,0.052216,0.125479,0.111231,0.16451,0.217935,-0.003476,0.071768,0.002167,-0.112612,-0.120014,-0.105733],[-0.046363,0.16307,0.185105,-0.087274,-0.160479,-0.139037,-0.053819,-0.139429,-0.02931,0.057735,0.009671,-0.116327,0.038253,0.108216,-0.144389,-0.00615,-0.072434,-0.014524,-0.251821,0.025829,0.072045,0.102491,-0.150482,-0.09266,0.077975,0.048566,-0.080229,-0.080507,0.123651,-0.068783,0.094793,0.071839,-0.07664],[-0.05756,0.081261,0.25658,0.035034,0.016667,0.038238,0.188302,0.056752,-0.069243,-0.069772,0.02445,0.004117,-0.024978,0.157548,0.154761,0.202749,-0.035308,-0.167623,-0.214367,-0.174929,0.145917,0.136236,0.019336,-0.050772,0.024636,0.001902,-0.036539,-0.149425,-0.008294,0.022425,-0.010798,-0.180862,0.146514],[-0.170141,-0.046287,0.180258,0.108506,0.053507,-0.046263,0.03681,0.012276,0.083825,-0.026938,0.153784,-0.112295,0.012338,0.111411,0.007578,0.072632,0.124802,-0.111213,-0.176142,-0.12773,-0.024906,0.063038,-0.104564,-0.130436,0.180854,-0.187778,0.121435,-0.108586,0.102604,0.116913,-0.073015,-0.011939,-0.079998],[0.2716,-0.010716,-0.01527,-0.086372,0.210929,0.020418,0.129717,0.123746,0.191307,-0.018244,0.030283,-0.052148,0.058693,0.131564,0.133665,-0.079707,-0.121702,-0.071413,0.003406,-0.070773,-0.085872,0.142955,0.031419,0.13983,0.159204,0.140419,0.103053,-0.099921,0.051232,0.159206,0.14698,-0.191892,-0.126926],[0.02952,-0.051562,-0.023909,-0.160078,0.101977,-0.127568,-0.177193,0.03128,-0.001575,0.041674,0.048111,0.011863,0.12517,0.158488,-0.018134,-0.156628,0.058135,-0.060367,-0.022572,0.095864,-0.007734,-0.193256,0.073613,-0.102998,0.084618,0.096926,0.120951,0.11357,-0.156413,0.049071,0.008684,0.030313,-0.039423],[-0.045587,0.126378,-0.038855,0.081144,0.066911,-0.124971,0.019699,-0.075878,0.052825,-0.094869,0.064447,0.119792,0.022876,-0.154665,-0.024075,-0.043153,0.143043,-0.144118,-0.122231,0.112674,-0.139925,-0.029022,-0.097049,-0.002043,-0.119877,-0.034727,-0.115384,-0.154111,0.008336,0.082707,-0.096462,0.090155,-0.154034],[0.264564,0.02205,0.098342,-0.141048,0.092337,-0.102029,-0.086576,-0.111119,-0.154149,0.020349,0.176992,0.116281,0.054111,-0.098042,-0.015914,-0.138085,0.075487,-0.056226,0.008796,0.077967,0.143369,0.112955,-0.10974,-0.096046,0.024893,-0.117305,0.20771,-0.123524,0.022509,-0.10474,0.065374,-0.008204,-0.191942],[-0.268592,0.173898,0.131659,0.191556,-0.056656,0.204127,0.104174,-0.062833,0.035307,-0.08203,-0.158237,0.039806,0.000741,0.015816,0.110114,0.197068,0.060948,0.08855,-0.03799,0.145404,0.002025,0.091335,0.153505,-0.014933,0.101517,-0.002077,-0.095463,0.010133,-0.02378,-0.107571,0.110212,0.058365,-0.05731],[-0.297267,0.021823,0.113798,0.079809,0.055879,0.024815,-0.203591,0.052312,0.04942,-0.044493,0.079685,-0.046672,0.177537,0.102478,-0.036726,0.055299,-0.044422,0.162498,-0.213989,-0.044397,-0.139325,-0.065073,0.06435,0.131235,-0.19238,-0.066966,-0.07199,0.023352,0.120581,-0.103368,0.011804,0.13358,-0.163952],[-0.259326,0.113511,0.024382,-0.058712,0.053233,-0.108178,0.023961,0.043574,0.057912,-0.130695,-0.054539,0.249837,-0.129381,0.131457,0.021471,0.008866,-0.091958,0.158279,-0.045493,-0.100943,0.078929,0.096517,0.040789,0.04248,0.0169,-0.13027,-0.186518,-0.027195,0.081651,0.035412,0.027294,-0.064353,-0.158689],[-0.017032,0.160827,0.104076,-0.033275,-0.014348,0.123722,-0.14958,-0.066392,0.091414,0.188235,0.028728,0.138907,-0.075389,0.180033,0.055924,-0.123833,-0.113583,-0.00341,0.106076,0.107241,-0.014668,0.163585,-0.018776,0.014256,0.091374,-0.157134,0.009718,0.097058,0.012394,-0.121048,-0.064966,0.092359,0.008738],[0.082691,-0.1742,-0.001752,0.099676,-0.118258,0.124449,0.174462,0.056728,-0.116601,0.018546,-0.045811,-0.169038,0.155475,0.051537,-0.088188,0.07694,0.08204,0.10842,0.001141,0.08269,0.180977,0.035171,0.104179,-0.123576,-0.024979,0.09522,0.146169,0.12391,0.166289,-0.052405,-0.12333,0.069841,-0.015712],[0.00958,-0.069594,0.009143,-0.170843,-0.057017,-0.145755,0.03375,0.004783,-0.191088,-0.109275,0.019534,0.050807,-0.127697,0.038379,0.077797,-0.021784,0.121045,-0.111073,-0.09241,0.059341,0.051288,-0.181808,0.03765,-0.024065,0.034426,0.035159,-0.011835,-0.015712,0.001786,-0.014244,-0.102797,0.123278,-0.192934],[-0.375965,0.056938,0.164924,0.049199,0.05816,0.103951,-0.014759,0.104236,-0.013378,-0.020111,-0.054602,0.273149,0.019418,-0.08379,-0.040404,0.008642,0.052817,-0.062838,-0.117811,0.183056,-0.098892,-0.055699,-0.017709,0.05895,-0.057075,0.022721,-0.17852,0.097937,0.16868,-0.01603,0.003683,0.176183,-0.118378],[0.08972,-0.174193,-0.162836,-0.068049,0.062414,0.038935,0.074356,-0.131714,0.03902,0.059776,0.082929,0.090459,0.247249,-0.132928,-0.003843,-0.118533,0.089401,0.040788,0.04255,0.097807,0.130949,-0.124517,-0.095651,-0.005239,-0.129756,0.025125,0.100168,-0.067245,0.049066,-0.109788,0.1301,0.195474,0.067068],[-0.29796,0.203379,0.121537,0.170506,-0.083229,-0.113548,0.072198,-0.020383,0.037001,-0.145685,-0.117554,0.113975,0.109272,-0.033604,-0.000702,0.022584,0.090938,0.199447,-0.246997,0.127863,0.01024,-0.018809,0.043562,-0.048966,0.109259,-0.174058,-0.198897,-0.021919,-0.008151,0.007827,-0.019593,0.08099,-0.032448],[-0.013285,0.011745,0.159014,0.162161,-0.062676,-0.081924,-0.145442,0.142826,0.023989,-0.124184,-0.170118,0.04921,-0.028593,0.056752,-0.123189,-0.116426,0.017309,0.068529,0.018729,-0.103057,-0.033038,-0.084287,-0.051435,0.129897,-0.006266,0.003104,-0.188056,0.096024,0.11785,0.067272,-0.012958,0.155446,0.018441],[-0.055778,0.058571,-0.003479,0.160657,-0.08508,-0.042214,0.039943,-0.064402,0.073747,0.013976,0.129206,-0.255513,-0.091844,-0.034383,0.013916,-0.021742,0.032415,-0.166509,0.017044,0.14491,0.112156,-0.021072,0.111591,-0.196457,0.17141,0.009577,0.00211,-0.12595,-0.124515,0.162959,0.008778,-0.153185,0.060412],[-0.14885,-0.089102,0.060671,0.104515,-0.083492,-0.019778,0.14679,0.000414,-0.044558,0.058972,-0.108287,0.017165,0.08828,-0.092821,-0.083747,-0.185763,-0.045625,-0.12383,-0.088302,-0.155185,-0.147262,-0.081954,-0.005938,0.000471,-0.161058,0.063304,0.012565,-0.035727,0.032119,0.131773,-0.090974,0.07623,0.105371],[-0.059426,0.167194,0.143634,-0.074131,0.119789,-0.072102,-0.052625,0.009007,-0.123354,0.078274,0.086647,-0.036688,0.031381,-0.050149,0.038324,0.08222,-0.108611,0.051344,-0.011532,-0.051652,-0.114907,-0.003873,0.116979,-0.087355,0.072946,-0.016913,-0.066027,-0.088897,0.089282,-0.170527,0.037137,0.110832,-0.10575],[0.215127,-0.028439,-0.044757,-0.109988,0.090328,0.143988,-0.027715,0.154953,0.115292,0.167458,0.063133,0.23027,-0.172852,-0.004554,0.038805,0.064271,-0.024261,0.190818,0.167926,0.147601,-0.047876,-0.0172,-0.046114,0.024891,-0.057191,0.095881,-0.060675,0.196492,-0.115296,-0.044895,0.134411,0.240358,-0.162122],[0.056558,-0.031997,-0.021192,0.08751,-0.078271,-0.08484,-0.010029,-0.157301,0.060881,0.02058,0.149567,0.09486,-0.154282,0.026136,-0.014862,0.098531,0.067732,0.137775,0.058268,-0.16518,0.089498,-0.144721,-0.007222,-0.047167,-0.082397,-0.034493,-0.146985,0.075569,0.078437,0.10684,-0.071695,0.10452,-0.008296],[0.084414,0.18946,0.159021,-0.134133,-0.087687,-0.062482,-0.065831,0.067966,0.061597,-0.034966,0.129512,-0.030181,-0.074024,0.18232,-0.129161,0.041681,0.159662,-0.002847,-0.154961,-0.102444,0.005955,0.057494,0.032824,-0.025814,0.04156,-0.049406,-0.065248,-0.147629,-0.130809,-0.193756,0.049809,0.181139,-0.011134],[-0.21534,0.103642,0.161868,0.178991,0.063562,-0.042289,-0.072401,0.038055,0.019379,-0.060428,-0.037212,0.129481,0.09609,0.1756,0.151368,0.047204,-0.144515,-0.110208,-0.291867,0.040403,-0.090448,0.099406,0.048446,0.084741,0.062942,0.0383,-0.153191,0.055875,0.179183,0.03702,-0.034912,-0.052991,0.011532],[0.211818,-0.165539,0.09996,0.073165,-0.150641,0.034179,0.074389,0.169426,0.105038,0.018786,-0.002301,0.017599,0.07774,-0.134401,-0.157318,-0.100663,0.13758,-0.001121,-0.055264,-0.142453,-0.13154,-0.014387,-0.093283,-0.053804,-0.019489,-0.077024,0.088402,0.02061,0.091904,-0.077384,0.121978,0.195698,-0.08406],[-0.020605,0.181554,0.159694,0.202197,0.141973,-0.049545,0.013367,0.084673,0.00796,-0.096582,0.134739,0.045825,0.163431,0.135423,0.114913,0.115745,-0.037418,0.018897,-0.114798,-0.078081,0.046847,0.083307,-0.031398,-0.096564,0.121784,-0.129216,-0.140326,0.105521,-0.070714,0.144138,-0.152391,-0.111677,-0.134193],[-0.090509,0.001613,0.112572,0.096238,-0.046057,-0.082758,-0.12901,-0.144448,-0.168075,0.123863,-0.087386,-0.020532,-0.119524,-0.095541,-0.088643,-0.198831,0.074892,0.035757,-0.204614,0.114276,0.029462,-0.067775,-0.06734,0.119453,-0.096872,-0.149729,0.113193,0.014691,0.011166,-0.044237,0.118746,0.028132,0.126239],[-0.199198,-0.010267,-0.1144,0.037882,0.095137,0.121165,-0.09888,0.025635,0.014831,0.008203,-0.06323,0.002117,0.059772,0.118475,-0.029313,0.120467,-0.011964,-0.15409,-0.20473,0.1506,0.12381,-0.002385,-0.091504,0.154235,-0.089821,0.160718,0.014154,0.089864,-0.132135,0.096387,-0.086553,-0.108995,0.040495],[-0.013893,0.061315,-0.100511,0.057436,0.119578,0.053307,-0.04936,0.013267,-0.11429,0.068919,0.088185,0.088876,-0.030549,-0.09022,-0.001296,0.109783,-0.087675,-0.01332,0.085474,-0.129969,0.001617,-0.261825,0.092914,0.002432,-0.063918,0.042504,0.081767,-0.169533,0.139619,-0.059878,-0.100932,-0.071037,0.059025],[-0.103133,-0.098,0.113722,0.044876,0.201998,-0.121246,0.162895,0.125837,-0.020003,0.184004,0.034719,-0.060383,-0.062458,0.158748,0.015187,0.191451,0.206194,-0.122274,-0.114838,0.16026,0.088823,0.014287,-0.051945,-0.095236,-0.023782,-0.167996,0.084138,-0.009505,0.104896,0.164353,0.057649,0.009864,0.083317],[0.063006,0.120837,-0.006574,-0.063265,-0.072407,-0.131539,0.093138,0.187847,-0.035987,-0.069353,-0.127902,0.014533,0.101308,0.124767,-0.108361,-0.06807,0.072579,-0.073962,-0.073165,-0.117381,-0.160286,0.023291,0.11691,-0.176931,0.103476,-0.048177,0.039573,0.186432,0.010532,-0.089569,0.053439,-0.012877,0.061885],[-0.041509,0.017401,-0.003497,0.09238,0.053143,-0.085476,-0.096323,0.083665,0.269797,0.095744,-0.041074,0.214039,-0.02663,-0.11525,-0.02524,0.150175,0.10012,0.231072,-0.052928,-0.143332,0.168081,-0.076988,0.132663,0.144538,-0.071765,0.157559,-0.127442,0.115314,0.100761,-0.074125,-0.036424,-0.097019,-0.144521],[-0.006049,0.039359,0.117964,-0.053743,0.008529,-0.052644,0.08234,0.10044,-0.075917,-0.080497,-0.018981,-0.123969,0.076232,-0.055156,0.139302,0.092714,0.048052,-0.011043,0.065535,0.065063,-0.114131,0.064454,0.084471,-0.130405,-0.001944,0.059478,0.019315,0.138197,-0.085222,-0.158511,-0.085483,-0.031133,-0.048746],[-0.139699,0.21539,0.125987,0.125501,0.184642,-0.121934,0.044316,0.074222,-0.096569,-0.083014,-0.122271,-0.050749,-0.095183,0.001374,0.135266,0.070475,-0.072696,0.083883,-0.120213,0.014035,0.174983,-0.039658,-0.072538,-0.012676,-0.026648,0.088666,-0.11685,-0.042665,-0.144323,0.075777,0.070297,0.13059,-0.011798],[-0.108471,0.158237,-0.0573,-0.117955,0.213277,0.155378,0.115069,0.06308,-0.208426,-0.024081,0.070045,0.273965,-0.114041,-0.000524,-0.08173,-0.134944,-0.102825,-0.042688,-0.180518,0.165146,0.065463,0.076753,-0.152812,-0.023128,0.007729,-0.033419,-0.007172,0.129971,-0.015749,-0.008023,0.15125,-0.078528,-0.036003],[-0.045338,0.205284,0.225781,0.202685,-0.058739,0.092352,0.115549,-0.065265,0.020215,0.113794,0.188257,-0.086376,0.173885,0.095523,-0.004677,-0.052687,0.081116,0.024898,0.100674,0.07814,0.113556,0.05727,-0.105292,0.107283,-0.115727,-0.111998,0.104435,-0.15687,0.165064,-0.007801,0.052611,-0.077007,-0.056219],[0.283947,-0.229912,-0.238521,-0.096482,-0.207427,-0.015215,-0.171244,-0.165449,0.075717,0.022715,0.061291,0.056542,-0.153081,-0.078517,-0.108577,-0.134631,-0.009213,0.118655,-0.045501,0.059505,0.006259,-0.046279,0.051765,-0.095082,0.145842,0.1432,-0.030862,0.103647,-0.020793,0.027794,0.015144,0.119871,-0.15617],[-0.195484,0.125661,0.08393,0.102512,0.148782,0.079739,-0.099561,-0.080031,-0.021916,0.148751,0.19103,0.203018,-0.078765,-0.06602,-0.011532,-0.088448,0.178884,-0.022704,-0.155668,0.070288,-0.16028,-0.033231,-0.035322,0.069674,-0.028452,-0.100666,0.005662,0.067264,-0.048709,0.080198,0.062424,-0.136717,-0.057946],[0.203736,-0.151183,0.062337,0.073877,0.063625,-0.154962,-0.131074,-0.120816,0.031636,0.061035,0.054218,0.188195,-0.110883,0.02192,-0.054533,0.117264,-0.064339,0.171992,0.124215,0.066466,0.089664,0.020677,-0.068788,-0.114717,-0.092451,0.108942,0.15311,0.113302,0.132275,0.018855,0.169082,0.04079,-0.00249],[-0.181285,0.119771,0.176179,0.203562,-0.078856,0.051335,0.132242,0.157486,0.07584,-0.157679,-0.130493,0.209451,-0.068947,-0.09769,-0.039328,0.006127,0.089297,0.044964,-0.274356,0.158028,0.09408,-0.001556,-0.06702,-0.059415,0.156063,0.075371,-0.163058,-0.095793,0.047172,-0.09693,-0.05311,0.041367,-0.175288],[-0.071354,-0.061211,-0.113259,0.072734,0.137636,0.067935,0.069176,0.147834,0.06945,0.136126,0.059023,0.133512,-0.158161,0.150759,0.120882,0.123504,-0.08487,0.056704,0.051648,-0.045481,-0.000287,-0.015629,0.059619,-0.006328,0.02201,0.081087,0.097364,0.040759,0.110026,-0.079917,0.048036,0.08966,-0.176594],[-0.052227,0.192464,-0.109498,-0.114996,-0.07965,-0.159953,-0.137893,0.093058,0.037685,-0.147778,-0.139119,0.073366,-0.119085,-0.001038,0.064296,0.070142,-0.067032,-0.040158,-0.201346,-0.058194,-0.191835,0.110472,-0.184532,0.133735,-0.045489,-0.066934,-0.215087,0.008367,0.013243,0.066804,0.046939,0.069535,0.103116],[0.170099,-0.100958,0.120388,0.049524,0.024258,-0.053995,0.083631,0.045045,-0.007509,0.204529,-0.115781,0.331749,-0.148842,-0.071942,-0.041363,0.078458,0.096472,0.05983,-0.014097,-0.099319,-0.018748,0.153959,0.046971,-0.006007,0.064039,0.232414,0.175601,-0.073113,-0.102256,-7e-05,0.002922,0.099404,-0.016734],[-0.087744,0.120571,-0.110479,0.092431,0.090361,0.066999,-0.167465,-0.117331,-0.031766,-0.133159,-0.013707,-0.061805,0.190982,-0.154289,0.131727,-0.001787,-0.088365,0.059929,-0.025712,-0.069607,-0.107756,0.067713,0.054463,0.123165,-0.031828,0.026091,-0.067163,-0.149247,0.131846,0.039416,-0.011106,0.137201,0.002064],[0.042722,-0.013499,-0.145579,-0.031851,-0.075567,-0.077116,0.096405,-0.092583,-0.02859,0.126205,0.042087,-0.114375,-0.129968,0.116598,0.15273,0.040934,-0.046999,0.027411,0.116185,0.113133,-0.082761,0.082502,0.148784,0.173246,0.003099,-0.131515,0.059592,-0.100192,-0.040671,0.078993,0.168485,0.08899,-0.114728],[-0.155059,0.130056,0.075714,0.032378,0.123972,0.153221,0.154806,0.110152,-0.097731,0.133262,0.077622,0.062189,-0.123061,0.07085,-0.097773,-0.185896,-0.166247,0.053028,-0.197189,0.008289,0.008459,-0.074279,-0.170286,-0.160732,-0.103369,-0.07666,0.1555,0.06674,-0.115629,0.166934,-0.111281,0.140143,0.141296],[-0.143533,0.074581,0.102622,0.051602,0.086528,0.052116,0.049935,0.080869,-0.005349,0.024263,0.13174,0.025128,0.072425,0.01554,-0.022702,0.090924,-0.118215,0.15244,0.076259,-0.038785,0.084849,-0.017487,0.118127,0.004223,-0.15247,-0.143568,-0.084555,-0.043586,0.132664,0.086839,0.002472,-0.046707,0.098366],[-0.06713,0.144609,0.183949,0.095164,0.149007,0.135331,0.152165,0.135499,-0.154452,-0.044834,0.145588,0.080826,0.089976,0.018007,-0.016115,0.077223,0.050163,-0.083427,0.082614,0.0803,-0.121761,0.12786,-0.159621,-0.008807,-0.101493,-0.141674,-0.00488,-0.160277,-0.094836,-0.066977,0.00048,0.153041,0.114371],[-0.166717,0.144025,-0.037016,-0.077589,0.00954,-0.026796,0.073903,-0.134622,-0.139417,0.060726,0.088762,-0.081441,-0.052729,0.177297,0.073255,0.081685,0.065101,-0.166292,-0.016238,0.045278,-0.05245,-0.06165,0.056622,0.083901,-0.060914,-0.138912,-0.046247,0.060284,-0.058228,-0.090174,0.073034,-0.113541,-0.155677],[0.360689,-0.056304,0.015627,0.066208,0.130762,0.022282,0.156791,0.029137,0.046201,0.038544,0.072155,0.043952,0.129212,-0.059985,0.165028,0.110713,-0.058665,-0.095332,0.024824,0.195941,0.03491,-0.10801,0.025022,0.033619,0.080482,0.090236,0.068055,0.154004,0.177726,-0.10395,0.118342,0.028942,0.156693],[-0.057447,-0.040429,0.198584,-0.037562,0.075581,-0.051976,0.036548,-0.087,-0.027055,-0.108003,0.069844,0.017584,0.128861,-0.038337,0.097044,0.049327,-0.014974,0.028719,-0.06259,0.173484,-0.101062,0.098772,-0.145775,-0.065482,0.084046,-0.161156,-0.15643,-0.045141,-0.067644,-0.048323,-0.027731,0.006817,-0.104157],[0.038379,0.143086,-0.163307,-0.097541,-0.0209,0.147021,-0.095757,-0.080896,0.016969,0.083528,-0.057561,0.161525,-0.010902,-0.010033,0.182842,0.102224,-0.044126,0.094149,-0.057864,0.041231,0.050257,0.056872,-0.04649,0.097421,0.186635,-0.025034,0.012586,-0.026629,0.167167,0.080653,-0.035933,0.040183,-0.141337],[0.064603,-0.034376,-0.15566,-0.014844,-0.089544,0.128096,0.174149,-0.10227,0.077276,-0.1736,0.106998,0.176844,-0.00814,0.058084,-0.067943,0.060718,-0.134467,-0.049193,-0.10657,-0.028022,0.164352,0.157883,-0.001835,0.062155,0.160182,-0.124251,-0.063953,-0.168948,0.081893,0.096791,-0.021771,0.06669,-0.089444],[0.074633,-0.057446,0.157427,-0.004424,0.034605,-0.175631,-0.177367,-0.066674,-0.005103,0.057766,-0.000484,0.157154,0.026885,-0.093916,-0.088978,0.136531,-0.136161,0.056634,-0.09699,0.018057,-0.136451,0.098868,-0.060196,-0.034161,0.0711,0.117509,-0.021234,-0.068721,-0.132855,0.040954,-0.08307,-0.07865,-0.257029],[0.072723,0.118962,0.032411,0.149507,-0.092906,0.051511,-0.035805,0.092492,-0.091689,-0.133406,-0.144442,0.136971,0.050389,0.018183,0.092721,0.088485,-0.130978,0.113539,-0.035551,-0.112169,0.002304,-0.023652,-0.119659,0.104129,0.11565,0.039656,0.105405,0.104324,0.155132,0.169345,-0.149206,0.018093,-0.052244],[0.029991,0.101849,-0.051395,-0.043931,0.034385,0.092064,-0.052506,0.156336,0.007566,0.125468,-0.102901,-0.111216,-0.040957,0.09638,0.011733,0.127292,0.10174,0.068199,0.047466,0.068151,0.022629,-0.02124,-0.030864,0.094553,0.105912,0.110271,-0.25319,0.03848,-0.165356,0.092835,-0.078792,-0.007453,0.116399]],"bias":[-0.02132,0.03506,-0.110299,0.189535,0.154527,0.043507,0.071537,-0.058946,-0.144725,-0.103839,0.053577,0.196747,0.068983,-0.160441,0.107355,0.124704,0.077038,0.045413,0.133377,0.186357,-0.117384,-0.09374,0.031664,-0.041193,0.061084,-0.034564,-0.052308,0.13974,-0.014495,-0.049677,-0.105519,-0.098257,-0.142338,0.112938,0.042488,0.052125,0.082451,-0.045504,0.054762,-0.011673,-0.08268,0.072362,0.19104,0.130647,-0.046015,0.101685,-0.056768,-0.091339,0.100904,-0.061989,-0.070981,0.021903,-0.087697,0.06147,-0.063462,-0.121584,0.028904,0.041814,-0.145998,0.176765,-0.093816,-0.133177,0.042991,-0.208137,0.072618,0.051441,0.048379,-0.073283,0.049546,-0.163837,0.052985,0.069013,0.084939,0.102662,0.026671,0.028037,-0.021068,-0.142745,0.085556,0.133122,-0.098988,0.001412,-0.125848,-0.128766,-0.073029,-0.015077,-0.081695,-0.110491,-0.032451,-0.020565,-0.063104,0.110923,-0.101954,0.061674,-0.090771,0.048906,-0.041621,0.08129,0.11499,0.035444,0.217627,0.105365,-0.03018,-0.133885,0.135385,0.134277,0.015256,0.027346,0.058479,0.167914,-0.16701,0.150563,0.10444,0.146806,-0.046214,0.072303,0.144093,-0.111243,0.135997,0.135737,0.05061,-0.069429,0.045661,0.110235,0.083141,0.082318,0.007538,0.175493]},{"weights":[[-0.009081,0.000557,0.007519,-0.005023,0.07335,-0.072837,0.019007,-0.03851,0.054824,-0.043721,0.044147,-0.005153,-0.091253,0.056983,0.022811,-0.062598,0.050885,-0.024676,-0.094314,-0.084475,-0.030897,-0.01359,0.023991,-0.091358,0.035493,-0.02508,-0.047382,-0.02959,-0.063719,0.044885,-0.038277,-0.007569,-0.025963,-0.077239,0.002947,0.07457,0.032026,-0.062695,0.036199,0.031892,0.066646,-0.028045,0.006852,0.067641,0.064462,0.021771,-0.048118,0.021773,-0.075095,-0.019488,-0.019455,-0.065316,-0.059761,-0.086638,-0.014903,-0.058562,-0.017079,-0.060227,-0.041284,0.012696,0.017734,0.043055,0.001185,0.085585,-0.07204,0.062566,-0.099487,-0.018078,-0.018507,0.000774,-0.068554,-0.013259,0.055904,0.026496,-0.076649,-0.063234,0.0424,-0.01062,-0.032115,0.00609,-0.077924,-0.052152,0.022812,0.036824,0.031346,0.009938,-0.036542,-0.089427,-0.057527,-0.062878,0.009447,-0.006601,0.023066,-0.01349,-0.006597,0.065636,0.036043,0.056211,-0.092757,-0.063776,-0.00159,-0.039881,-0.006564,-0.061533,-0.099886,0.065335,0.077795,0.0401,0.003225,0.086589,0.028033,-0.077274,-0.082282,0.059614,-0.042039,-0.091581,-0.062395,0.002353,-0.100244,0.059145,-0.002981,-0.056883,-0.050903,0.069595,-0.014268,-0.093612,-0.055795,-0.035373],[0.053029,-0.092548,0.045823,0.047076,-0.052928,-0.036592,0.00015,-0.108018,0.010314,0.253056,-0.076087,-0.141148,0.075085,0.021449,-0.221655,0.004831,0.019497,0.013434,-0.091549,0.048324,-0.011154,0.020646,-0.082274,0.113363,0.115582,-0.069979,-0.045601,-0.006656,0.031792,0.062653,0.112829,0.063423,-0.013107,-0.088295,-0.171678,-0.019974,-0.046538,0.021486,-0.03346,-0.041222,0.008258,0.061751,-0.08884,0.021574,0.06181,-0.067578,0.082503,0.064382,-0.028518,-0.080974,-0.0068,0.032721,-0.152773,-0.0598,0.010811,-0.022562,-0.016514,0.016043,-0.046159,0.10367,-0.084587,0.034592,-0.018216,-0.054315,-0.027095,-0.016599,0.068475,-0.065518,-0.133851,-0.188186,-0.075497,-0.142436,-0.100903,-0.038406,-0.154585,-0.114329,-0.084234,-0.005104,-0.173867,0.058457,-0.063177,0.106528,0.047205,-0.150074,-0.013489,0.102387,0.016836,0.09948,0.043124,-0.013559,-0.089191,0.07448,0.016292,-0.037887,0.066167,-0.039366,-0.145652,0.014164,0.080241,0.026505,-0.015246,-0.016411,-0.045299,0.012993,-0.032626,0.07495,0.004315,-0.138335,-0.048148,-0.185006,-0.080637,0.073821,-0.080769,0.056945,0.110717,-0.102235,-0.106236,0.039719,0.01915,0.013055,-0.060592,-0.138009,-0.062847,0.055661,-0.04121,-0.048751,-0.051349,-0.079055],[0.028889,0.04366,-0.025581,0.154951,0.080215,-0.368682,0.059934,-0.028103,-0.071366,0.195054,-0.027903,-0.044052,0.161266,-0.038592,-0.139283,0.054637,0.038584,0.127403,-0.024376,0.026058,0.023238,0.180048,-0.121594,0.133568,0.12879,0.008143,-0.136676,-0.099406,0.128047,0.075776,0.088702,0.008757,-0.028381,0.005996,-0.157171,-0.053317,-0.264802,0.069263,-0.150399,0.038726,0.129471,0.116092,-0.040598,0.012575,0.09774,-0.042789,-0.069664,-0.036817,-0.051717,0.061493,0.045052,0.065217,-0.093938,-0.08174,-0.026973,-0.143943,0.061622,-0.156194,0.045375,0.017756,-0.040261,0.015144,-0.006227,-0.079471,0.015882,0.124599,-0.092383,0.014341,-0.108515,-0.110024,-0.020008,-0.170933,-0.026907,-0.059375,-0.103159,-0.092375,-0.122784,0.063764,-0.059814,0.102261,0.086518,0.082385,-0.111965,-0.151107,-0.067861,0.149687,0.0059,0.148101,0.043721,0.017343,0.042312,0.087669,-0.082445,-0.047597,-0.015895,0.078134,-0.118313,-0.009454,0.087978,0.022021,-0.140182,-0.113569,-0.076001,-0.107502,0.041985,-0.002786,-0.135961,-0.059124,-0.161019,-0.121538,-0.120587,0.094186,-0.010038,0.071928,0.038888,0.01626,-0.048981,0.022067,0.064915,0.059439,0.018372,-0.209653,0.115321,-0.069507,0.064627,1.6e-05,0.005873,-0.102397],[-0.088552,0.179692,-0.058337,0.073259,-0.080145,0.044715,-0.077652,-0.129756,0.104556,0.024962,-0.023841,0.123917,0.10575,0.028349,0.063397,0.139755,0.02864,-0.076718,-0.015369,0.004671,-0.022591,0.035671,0.048206,-0.032214,0.016854,-0.005188,-0.006478,-0.025254,-0.028818,-0.003063,0.007149,0.047706,0.036779,0.074101,0.139909,-0.101191,-0.028873,-0.040725,0.19785,-0.052384,0.074682,0.060873,0.013504,-0.013445,-0.039584,-0.026993,-0.01632,-0.133796,-0.102657,0.091542,-0.098785,-0.110914,0.114582,0.047092,-0.047814,0.013213,0.081376,0.02701,0.054661,0.037836,-0.054678,-0.038261,-0.00581,0.060352,-0.074535,-0.029609,0.000917,0.044265,0.240348,0.209379,0.006071,0.091093,-0.125912,-0.07523,-0.020922,0.123102,0.034907,0.049306,-0.028767,0.038544,-0.06032,-0.029287,0.052369,0.092291,-0.066314,0.07232,0.074657,-0.057414,-0.079571,0.061487,-0.026707,0.03933,0.085347,0.037141,-0.061666,-0.101502,0.075952,-0.024706,0.044445,0.102855,-0.032128,-0.038314,-0.005718,-0.080902,0.11669,0.052118,-0.105083,-0.049322,0.035449,0.04903,0.044598,0.042976,0.091176,0.016811,0.1436,-0.023497,-0.032696,0.000631,-0.001038,0.010771,0.018025,0.215558,-0.104742,-0.069998,0.030937,0.078729,-0.041326,0.024042],[0.02527,0.06973,-0.050117,-0.052587,-0.09118,0.009977,-0.031523,-0.029875,0.0179,-0.013393,-0.097181,-0.013249,-0.065812,-0.080607,-0.048308,-0.083929,-0.000624,-0.090608,-0.013519,0.003234,0.032843,0.001052,-0.084629,-0.012224,-0.052183,-0.08626,-0.068709,-0.052864,-0.054657,-0.000272,-0.005822,-0.010729,0.023377,-0.012179,0.000866,0.011878,-0.098584,-0.030514,0.033551,-0.100832,-0.08773,0.022632,-0.054153,-0.007305,0.019885,-0.076079,-0.00484,-0.028012,-0.007133,0.010554,0.004257,-0.017647,0.016383,-0.075892,-0.049936,-0.032949,0.006699,-0.083314,-0.044816,-0.020001,-0.073505,0.023691,-0.044935,0.034901,0.018644,-0.043705,0.038806,0.060635,0.076075,-0.096763,0.059885,-0.041104,-0.076708,-0.0229,-0.066057,-0.100001,0.074099,0.066886,-0.091352,0.072956,0.010421,0.061072,-0.080975,0.039417,0.020223,0.030288,0.060758,0.043924,-0.039923,0.039037,0.050902,-0.071188,-0.075859,0.027382,0.012284,-0.006637,-0.035793,0.043001,0.064944,-0.058303,0.061633,-0.020327,-0.015102,-0.075158,-0.011997,-0.042761,-0.023021,-0.04326,-0.092067,-0.043963,0.02115,-0.085233,-0.081701,0.046355,-0.014735,0.026983,-0.035697,0.019635,-0.046109,0.036581,-0.076504,-0.069439,0.070893,-0.038956,-0.041542,-0.03839,0.004464,0.000284],[0.108805,-0.201254,-0.11059,-0.084906,0.035435,-0.027694,0.112,0.1195,0.138655,-0.189598,0.069968,-0.093288,-0.094533,0.0731,-0.001429,-0.091685,0.00015,-0.016169,-0.066169,-0.077421,0.045755,0.106905,0.071874,-0.155298,0.05114,-0.041116,-0.041358,-0.002088,-0.02977,0.093541,0.026708,-0.084778,-0.062035,-0.008002,0.06464,0.078936,0.025122,-0.004792,-0.064256,0.053089,0.068403,-0.055558,-0.015956,0.096918,-0.036846,-0.026612,0.0544,0.066276,-0.01652,-0.060453,0.049924,-0.067103,-0.000412,-0.074308,0.10378,-0.017048,-0.0668,-0.097058,0.064067,-0.069816,-0.03012,0.181325,-0.018693,0.219336,-0.04495,0.020704,0.035757,0.012705,-0.279182,-0.032313,0.100647,-0.07145,0.045489,-0.012683,0.025315,-0.073634,0.005498,0.080198,0.058847,0.060752,0.072302,-0.068277,0.022161,0.009251,0.005987,-0.216961,0.068264,-0.131507,-0.03258,-0.061904,0.046898,-0.029969,0.251386,-0.017775,0.031329,-0.061391,0.009128,-0.003743,0.096787,-0.074734,-0.02606,0.050004,0.020141,-0.025966,-0.055521,-0.041848,0.095606,0.003946,0.136837,0.099405,0.030108,-0.16941,-0.037615,-0.097103,0.002785,0.091413,0.004051,-0.028499,-0.069572,0.013469,-0.053297,-0.014915,0.057818,0.090999,0.070772,-0.064118,-0.01941,-0.048708],[-0.003136,-0.061795,-0.065804,0.016096,0.008445,0.043257,0.067152,-0.106642,-0.014666,0.014045,-0.038822,-0.07088,-0.015791,-0.046648,-0.033747,-0.046075,-0.089831,0.065528,-0.081818,0.045644,0.022759,-0.066902,-0.037074,-0.065914,-0.039993,0.049465,0.055746,0.022494,0.024952,-0.064056,-0.090702,0.073333,0.003324,0.009401,-0.080846,0.034655,-0.102904,0.014369,-0.038863,0.026108,0.032339,-0.079664,0.001439,-0.060885,0.053419,-0.045407,-0.035076,-0.071396,-0.068255,0.018243,0.042172,0.065888,0.021761,0.057978,-0.031737,-0.019513,0.049814,0.013329,-0.094447,-0.080868,-0.057985,-0.034358,0.042908,0.062189,-0.076887,-0.071398,-0.009998,0.005478,0.023439,0.075363,-0.03809,-0.080575,-0.095494,-0.055903,0.081047,-0.003081,0.01934,0.053288,0.012233,0.047838,0.032485,0.058377,-0.078325,-0.06661,0.045937,0.043607,-0.05134,0.065416,-0.053942,0.01718,0.014775,-0.004151,-0.033075,-0.097866,-0.033081,0.001638,-0.080222,0.026046,-0.014384,-0.069909,-0.079012,-0.063681,0.065599,-0.037225,-0.047719,-0.048852,-0.005597,0.040505,-0.085502,-0.008797,-0.054277,-0.01931,-0.08879,-0.10181,-0.042894,-0.018506,0.033598,-0.032427,0.032953,-0.065963,-0.025983,-0.069656,-0.068623,-0.093095,-0.098434,0.015373,-0.085421,-0.009667],[0.078113,-0.041286,-0.068932,-0.012952,0.07809,-0.00413,0.084323,0.049673,0.024027,-0.065148,-0.057677,0.019608,-0.044065,0.030841,0.052336,0.017654,-0.032841,-0.028224,0.026254,0.081525,0.031453,-0.08693,-0.005334,0.015421,-0.039413,0.017898,-0.04458,-0.042812,0.076546,0.012079,-0.088026,-0.086262,-0.086868,0.001017,-0.026364,-0.081471,-0.054918,-0.074311,0.087352,0.03424,0.005281,-0.094096,-0.076621,-0.056412,-0.003086,0.040074,0.025314,-0.083918,0.051407,0.068654,-0.056169,0.028675,-0.07859,-0.038992,-0.075609,-0.067966,-0.022212,-0.068157,-0.014317,0.055907,0.039192,-0.053472,0.048776,-0.065224,-0.08608,-0.05514,-0.042238,-0.07854,-0.041963,-0.063677,0.084156,-0.000233,0.019328,-0.073877,-0.063802,0.006031,0.014367,0.080408,-0.054491,0.015322,-0.08426,0.081152,0.037645,-0.068897,0.056723,0.044773,-0.005504,-0.055395,-0.052685,0.015565,-0.003571,0.012411,-0.011844,-0.006964,-0.069642,-0.043832,-0.053509,-0.030855,-0.065363,0.055907,-0.065652,0.069533,-0.08847,0.083668,-0.081614,0.025739,0.086909,0.005866,0.064339,0.011227,-0.023804,-0.062005,-0.071892,-0.08647,0.075159,-0.013508,-0.00898,0.026615,-0.040582,-0.000678,-0.047804,-0.023485,0.035047,-0.088802,-0.028935,-0.05969,0.052129,-0.090015],[0.016656,0.054349,-0.045923,0.189142,0.055121,0.285307,0.018748,0.023917,-0.253468,0.296442,0.136953,-0.050284,0.191063,0.007137,-0.121801,-0.129436,0.134115,0.127085,0.016424,0.037487,0.049016,0.216434,-0.000784,0.142369,0.109515,0.036047,-0.234862,-0.009363,0.156882,-0.086361,0.266114,-0.151523,-0.042668,-0.017183,-0.066204,0.160154,0.100443,0.232328,-0.061364,0.057204,0.209062,0.018835,0.046076,-0.012562,0.179898,-0.060483,0.067915,0.101791,0.033608,-0.016756,0.064301,0.010824,0.021452,-0.009227,0.020359,-0.174161,0.05235,-0.069938,-0.028508,0.070103,-0.032812,-0.103845,-0.01597,-0.168354,0.109752,0.132151,-0.009756,-0.016519,0.006746,-0.686268,-0.015266,-0.006355,0.099311,-0.043534,-0.011321,0.019452,0.121542,-0.024355,-0.127641,0.18315,0.080238,0.153,0.010909,-0.109726,0.05015,0.243558,-0.022977,0.041168,0.118566,-0.289589,-0.093711,0.053408,0.07761,-0.061188,0.009698,0.024426,-0.176551,0.032099,-0.004833,0.021852,-0.05025,-0.026906,0.069508,0.080286,-0.021311,0.069274,-0.15806,0.040861,-0.17774,0.027367,-0.141082,0.040614,-0.030471,0.069396,0.059593,0.107696,-0.068455,-0.007045,0.032323,0.045919,-0.031776,-0.167715,0.11634,0.011795,0.035049,0.029663,0.042145,0.031856],[-0.029069,-0.113939,0.083449,-0.070457,-0.047267,0.101031,0.104594,0.135151,0.077418,-0.022364,0.048987,-0.109909,0.138283,-0.043051,-0.030987,0.117435,-0.035431,-0.065546,0.106227,0.041227,0.044038,0.14674,0.048487,-0.037635,0.150446,0.097906,-0.096396,-0.021208,-0.032161,0.030332,0.009664,-0.243809,0.010177,0.038616,-0.063066,-0.056599,0.11376,-0.032046,-0.015097,0.050962,-0.027378,0.090256,-0.083664,0.069414,0.038181,0.04557,0.023423,-0.013076,-0.051393,-0.060466,0.048929,0.001894,-0.060583,-0.072036,0.116534,0.090203,0.080552,0.048443,-0.010557,0.097409,0.046814,0.124682,0.011358,-0.009568,0.018587,0.099718,0.078906,0.127148,-0.148412,-0.023545,0.018523,-0.107711,-0.027436,0.16723,-0.02627,-0.046401,0.016094,0.077518,0.065336,0.085164,-0.08197,-0.020447,0.046238,0.147363,-0.020135,0.086226,-0.006674,-0.017623,0.077925,0.021096,0.064667,0.028401,0.19768,-0.047352,0.043577,0.088095,0.099846,-0.005359,0.083536,0.016789,0.062874,-0.004295,0.017726,0.065167,-0.011851,0.087281,-0.037461,-0.040956,0.032966,0.076455,-0.034177,0.036032,-0.002186,0.070485,0.096277,0.048109,-0.026626,0.045022,0.015611,0.023953,0.073584,-0.10023,0.042253,0.012389,-0.002637,-0.003911,0.086925,0.013888],[0.037799,-0.015729,0.053512,-0.077295,0.012511,-0.026823,0.06797,-0.053031,0.094714,-0.10393,0.009823,-0.055825,0.078105,0.103592,-0.013735,-0.005378,0.016517,0.05283,0.061954,0.076006,0.061394,0.083288,0.064621,-0.103395,0.032261,0.04524,0.001498,-0.053882,-0.026555,0.043484,-0.07375,0.038456,-0.058232,-0.060427,-0.069269,0.033735,0.099877,-0.087541,-0.019479,-0.017343,0.017907,0.091556,0.103835,0.050429,0.00992,0.018804,0.120451,0.088311,0.046937,0.052225,0.063835,-0.083036,-0.026723,0.081351,-0.018532,0.046647,0.116266,-0.054231,-0.01439,0.0058,0.053425,0.103229,-0.026355,0.02878,-0.00175,0.039672,-0.031261,-0.017551,0.113516,-0.139858,-0.072235,-0.028515,-0.053756,0.135016,-0.016116,-0.054862,0.098511,-0.035195,-0.03761,-0.043728,0.046699,-0.126995,0.033697,-0.032783,-0.069138,-0.10244,0.060669,-0.129746,-0.045492,-0.024685,0.015196,0.100915,-0.01829,0.069199,0.014148,0.011512,-0.023319,-0.008166,0.034994,-0.006688,-0.01,-0.047246,-0.05816,-0.043838,0.060067,0.015461,0.061599,-0.04499,0.080667,0.095871,0.088192,-5.8e-05,0.073911,-0.058802,-0.053462,-0.04051,0.027966,-0.028117,-0.034982,-0.076519,0.035062,-0.083136,-0.091037,0.02085,0.089274,0.053237,0.073395,-0.032637],[0.062582,-0.08707,0.012857,0.063597,-0.008179,0.009501,-0.005054,-0.055727,-0.040497,0.00861,0.001049,0.022,-0.081049,-0.028426,-0.035937,0.058361,0.0568,-0.055845,-0.000387,-0.061731,0.037335,0.020809,0.002323,-0.000737,-0.082924,0.056728,0.002602,-0.064866,-0.007016,-0.073705,0.036151,0.056522,0.005933,-0.082037,-0.022522,-0.027917,0.013893,-0.011057,0.058354,0.043894,0.01781,0.072346,0.053298,-0.038299,-0.032007,0.059115,-0.015664,0.0659,-0.057523,-0.034205,0.009726,0.051316,0.032043,-0.042545,0.058095,-0.038666,-0.097844,0.011807,-0.071648,-0.08328,-0.03452,-0.052303,0.00964,-0.068003,0.06863,-0.088614,-0.104975,-0.104106,-0.082332,-0.089756,0.064323,-0.007386,-0.084151,0.02564,-0.074905,0.036735,0.039298,-0.074528,-0.066477,-0.041,-0.013622,-0.098874,-0.061055,-0.087697,-0.074701,-0.056726,-0.037937,-0.015715,-0.020261,-0.069996,0.04869,-0.048281,0.037521,0.044138,-0.085033,-0.103167,-0.035236,-0.055163,-0.034098,0.061103,-0.046311,-0.098419,0.050838,-0.03781,-0.104314,-0.101218,-0.068094,0.042503,0.02055,-0.054944,0.060341,-0.000852,-0.002932,-0.039822,0.024312,0.015572,0.049276,-0.081089,-0.001561,0.061683,-0.019327,0.06961,0.007494,-0.012281,-0.035978,0.015633,0.001373,-0.033501],[0.042093,0.003422,-0.043762,0.026329,0.038666,-0.041376,-0.012086,0.073708,-0.01876,-0.044665,-0.049076,-0.024562,-0.073197,0.072167,0.029449,0.087274,0.057344,0.062596,-0.064522,-0.037779,-0.044576,-0.053526,0.013428,-0.005106,-0.040848,-0.058321,0.088004,0.026045,0.018094,-0.024155,0.064868,0.05907,-0.082252,-0.002852,-0.08328,0.026609,-0.042457,0.054247,-0.073492,-0.071802,0.066872,0.002914,-0.059432,0.023574,0.043887,-0.005961,-0.013492,-0.064721,-0.037022,0.018318,-0.062361,-0.086483,-0.067879,-0.072009,0.009317,-0.052366,0.080443,-0.042957,0.027076,0.021185,0.083817,0.073454,-0.010212,-0.050179,-0.054633,-0.081819,-0.072384,-0.080412,0.016634,0.035018,0.046977,-0.027207,0.028799,-0.026922,-0.004646,0.012008,-0.01809,-0.027639,-0.058062,0.056129,0.027777,-0.050518,0.030917,0.00483,0.017689,0.065948,0.016356,0.008501,-0.08517,-0.031171,0.08767,0.002571,-0.018126,-0.008619,0.05481,-0.039791,-0.032474,-0.036892,0.05103,-0.083209,-0.056265,0.028267,-0.087403,0.072885,0.011796,-0.035365,0.011096,0.057576,0.032309,-0.044026,0.076409,-0.053471,0.061185,0.003194,0.031898,-0.058869,-0.086053,-0.002394,-0.012731,-0.043819,0.007855,-0.080576,0.057439,0.080891,-0.08156,0.027714,0.042801,-0.038539],[0.087915,0.057783,0.032569,-0.145493,-0.00346,-0.295253,-0.091794,-0.074485,0.147561,-0.12052,-0.134978,-0.087357,-0.054254,0.018011,-0.010746,0.038279,-0.068836,-0.056596,-0.130201,-0.040571,0.020316,-0.143248,-0.024717,-0.201094,-0.078336,-0.089678,0.170556,-0.000674,-0.14585,-0.00555,-0.163636,0.024953,-0.014537,-0.067776,0.005243,0.009832,-0.133803,0.01438,0.042819,-0.014447,-0.194596,-0.102579,-0.054082,-0.006668,-0.060344,0.117174,0.09765,-0.041912,-0.019976,-0.042309,0.026985,-0.075514,0.061965,0.044057,0.015944,0.030054,-0.15411,0.020562,0.00549,-0.087324,-0.037449,0.072115,0.096294,0.164461,-0.116287,-0.004079,0.100725,0.096396,0.028188,0.201659,-0.008477,0.015462,0.038092,-0.214034,-0.034321,0.023393,0.085515,0.001997,0.114281,-0.128835,-0.002519,-0.165994,0.025558,0.075179,0.017569,-0.119071,0.01809,-0.005703,-0.098179,0.102837,-0.002738,-0.064286,0.147133,-0.048031,0.019736,0.039675,0.059442,-0.011415,-0.065965,-0.020149,0.037471,-0.028091,0.042991,0.042527,-0.055382,-0.182953,-0.095186,-0.079437,0.174235,-0.14853,0.106696,-0.17988,0.051178,-0.130446,0.069544,-0.099535,-0.037643,0.033038,-0.108141,-0.140428,-0.032884,0.122618,0.032814,0.062102,0.005089,-0.019946,0.040232,0.040138],[0.023893,0.010061,0.038226,-0.035309,0.051299,-0.127376,0.141259,0.089855,-0.127406,0.039852,-0.01897,0.00697,0.073441,-0.044273,-0.073469,-0.002989,-0.044107,0.069055,0.096354,-0.109029,-0.085062,0.082812,-0.057957,0.055245,-0.029912,0.014824,-0.143794,-0.048397,0.109301,-0.021574,-0.00296,0.041607,0.062763,-0.008536,-0.017005,-0.011764,-0.158371,-0.022862,-0.021729,-0.088665,0.050749,0.075991,-0.013327,0.008487,0.057331,-0.07167,0.017432,-0.074883,0.01519,0.023513,-0.038604,0.120155,-0.016874,-0.023093,-0.037852,-0.068239,0.113791,-0.092844,-0.082199,0.012711,0.090781,-0.115679,-0.099991,-0.103997,0.009619,0.013997,-0.065694,-0.036893,-0.05035,-0.296047,-0.006884,-0.038506,0.037071,0.016192,0.112295,-0.115825,0.002302,0.067214,-0.047392,0.079137,0.040859,0.013929,-0.129722,-0.113586,0.036638,0.080682,0.031209,-0.019426,0.05446,0.051456,-0.009855,0.043677,-0.156575,-0.124006,-0.050128,0.124642,-0.029351,0.073138,0.017727,-0.054107,0.007459,0.038919,-0.097989,-0.067008,-0.052379,0.086947,0.052938,0.019837,-0.114655,-0.055407,-0.160958,0.138997,-0.082904,0.095336,0.04981,0.097209,-0.042392,-0.115788,0.047017,0.07233,0.060425,-0.065084,0.079718,0.039871,-0.089153,0.007459,-0.073406,0.023508],[-0.101508,0.098494,0.058233,0.036664,-0.032414,-0.01796,0.169655,-0.018043,-0.067272,0.098686,-0.047714,-0.003666,0.089025,-0.039707,-0.033914,0.043776,-0.068858,-0.056691,-0.005321,-0.027638,-0.046289,0.125421,-0.050576,0.188583,0.046449,0.050693,-0.04428,-0.017085,0.102127,0.055242,-0.055685,-0.061274,0.071661,-0.000822,-0.102318,0.133013,-0.011154,-0.019619,0.031202,-0.104308,-0.02087,0.13177,0.035196,0.052696,0.015227,0.009762,0.042953,-0.095083,0.037704,0.05195,-0.019617,0.009147,-0.013629,-0.06033,0.055449,0.004828,0.104579,-0.007079,0.031909,0.051447,0.015402,-0.091973,-0.059773,-0.282513,-0.066316,0.077736,-0.003255,-0.075201,0.180265,-0.293975,0.011276,0.032388,-0.002769,-0.038066,0.107076,-0.024317,-0.020574,0.044958,-0.027895,0.166194,0.081057,0.089308,0.051798,-0.080139,-0.048295,0.087599,0.018957,-0.013458,0.058025,-0.052154,-0.035469,0.003864,-0.070045,0.040622,-0.003254,-0.031491,-0.0339,0.040974,0.047232,-0.019727,0.047346,0.105973,0.012229,-0.025108,0.086646,0.125557,0.004867,0.075928,-0.148274,-0.037988,-0.067228,0.071543,-0.077667,0.085565,0.043445,0.080144,0.074276,-0.019131,0.006807,0.017465,0.069956,-0.06148,0.035454,0.081362,-0.04798,0.011832,0.074188,0.004786],[0.094945,-0.058226,0.072295,0.046535,0.049849,0.058191,0.033211,-0.02964,-0.03826,-0.042336,0.005971,-0.028137,0.021178,0.058589,0.01715,0.039084,0.029227,-0.080355,0.034245,0.104575,-0.011219,0.139526,0.103248,-0.098107,0.005861,0.064044,-0.00076,0.100063,-0.018475,0.030894,-0.119977,0.022727,-0.045119,-0.03672,-0.046343,-0.006463,0.177019,-0.076359,0.002423,0.09334,-0.041417,0.064791,0.106146,-0.015253,-0.101404,-0.022343,-0.017668,0.018812,0.080063,0.052617,-0.008829,0.088452,0.062296,0.008254,0.054428,0.043735,0.030412,0.017417,-0.060705,0.015131,0.005529,-0.056234,-0.046441,0.013743,0.085617,0.060788,-0.054082,-0.029397,0.010669,-0.111326,0.086745,0.027045,0.089188,0.070627,0.112884,0.073477,0.110548,0.074262,0.038317,0.025396,-0.02367,0.045912,0.042791,0.064651,0.027363,-0.032616,-0.020857,-0.108561,0.107005,-0.003666,-0.037867,0.05559,-0.146389,0.119495,0.024774,0.064954,-0.06945,0.078831,0.057559,-0.008119,-0.043663,0.033578,0.065531,0.053994,0.035478,0.075691,0.07829,0.02683,-0.031483,0.088561,-0.078169,0.049833,0.02171,-0.056489,-0.035476,0.012248,0.091644,0.011397,0.017373,0.039685,-0.030639,-0.092868,-0.030404,0.056045,0.058038,0.086424,-0.027694,0.019924],[0.018838,0.024337,-0.010811,-0.022101,-0.053455,0.074017,0.137589,0.025212,-0.180994,-0.062533,0.004852,0.061019,0.091803,0.055326,-0.109143,0.067743,-0.058362,-0.076176,0.016361,-0.017112,0.070186,0.162136,-0.086603,0.017437,0.094532,0.076382,-0.072103,0.018014,-0.101959,0.007167,-0.03106,-0.036822,-0.056602,0.100285,-0.051709,-0.050129,0.160052,-0.009427,-0.004967,0.027064,0.104065,-0.009658,-0.051617,-0.035046,-0.034737,0.022936,0.011415,-0.064177,-0.075412,0.06588,-0.078388,0.059965,-0.063809,-0.015452,-0.081749,-0.053005,0.122252,0.083387,-0.058848,0.03075,-0.005535,0.035568,-0.017333,-0.015936,0.081245,-0.010364,0.063388,-0.037673,0.067556,-0.189355,0.022106,0.048504,0.040279,0.180686,0.049227,-0.077924,0.053353,0.026375,-0.063294,0.081786,0.005517,0.072399,0.005429,-0.038946,0.051107,0.05707,0.056941,0.037755,0.032198,0.023782,-0.041244,-0.065593,-0.038555,0.00586,0.056701,0.037703,-0.067104,-0.038467,0.089811,0.074461,0.012894,0.048767,-0.017603,-0.017299,0.004397,0.084463,0.006623,0.082439,-0.05869,0.093932,-0.170611,0.018106,-0.007118,-0.047318,-0.014218,0.033092,-0.073599,-0.038097,0.051197,0.064432,0.030828,0.031019,0.080326,-0.016983,0.036195,0.012908,0.055101,-0.027423],[-0.027792,-0.006666,-0.083322,-0.081592,0.007416,-0.064606,0.054424,0.059387,0.060141,-0.015909,-0.030562,0.012161,0.006904,-0.033734,-0.076516,-0.060737,0.065562,-0.075277,-0.055573,-0.030716,-0.051527,-0.066805,-0.061088,0.012432,0.087533,-0.075449,0.070201,0.048279,0.018488,-0.04374,-0.058521,-0.044012,0.071264,-0.024935,-0.046674,-0.042944,0.033353,-0.022217,-0.009858,-0.003793,-0.008174,-0.025497,0.068241,0.023042,0.026479,-0.044053,0.084113,-0.044972,-0.0624,-0.04221,-0.01276,-0.046155,-0.006787,0.022996,-0.046804,-0.053582,0.010252,0.017359,0.015303,0.020159,0.056312,-0.051142,-0.078619,-0.047944,0.038369,-0.026452,0.064681,-0.056132,0.011913,0.040901,-0.036565,-0.025553,0.06779,-0.046754,-0.033957,0.025289,0.025352,-0.068669,-0.07732,-0.071859,0.045601,0.003998,-0.013429,0.063,0.006116,0.018948,0.005569,-0.0958,0.049465,-0.076754,0.003129,0.015267,0.047117,-0.063657,-0.005525,0.001002,-0.037417,-2e-06,-0.047833,-0.015236,-0.075445,0.056913,-0.030664,0.052423,0.016635,0.023663,-0.059194,-0.07564,0.018911,-0.056979,-0.041111,-0.0855,0.024005,0.012981,-0.031201,0.065952,0.005757,-0.024673,-0.0467,0.021999,-0.101337,-0.042309,-0.031466,-0.046555,-0.10105,-0.054592,-0.034392,-0.102717],[-0.003543,-0.125726,-0.033826,0.160314,-0.008321,-0.062769,0.084337,0.060585,0.110854,0.249844,-0.130676,-0.11573,0.005517,0.026852,-0.171401,-0.027509,0.066406,0.048874,-0.086926,-0.058414,0.084338,0.027874,-0.063258,0.199317,0.000496,-0.134261,-0.14396,0.001342,0.04284,0.033401,0.201321,-0.011508,-0.151197,-0.077983,-0.106068,-0.118203,-0.150611,0.145304,-0.160065,-0.065659,0.063896,-0.046719,-0.080443,0.074753,0.045296,0.062197,-0.034508,0.084072,-0.149773,-0.039505,0.072903,-0.093208,-0.162591,-0.085728,-0.019302,-0.200653,0.0467,-0.017551,0.072535,0.115986,-0.036983,-0.11774,-0.116588,-0.010792,0.07897,-0.009544,0.078302,0.017224,-0.075955,-0.214244,-0.084002,-0.089095,-0.0132,-0.197745,-0.091373,-0.081717,-0.119722,-0.04304,-0.032337,0.185943,0.083893,0.08474,0.078036,-0.276582,0.04421,0.172705,-0.023784,0.0147,0.094377,-0.083766,-0.042611,0.031454,-0.009449,0.023984,-0.027142,0.033361,-0.154759,-0.028562,-0.032491,-0.07728,-0.131569,-0.046388,-0.071477,0.049869,-0.035751,0.041286,-0.146159,-0.140694,-0.031295,-0.151523,-0.058666,0.16934,0.053714,0.026121,0.070456,0.048572,-0.066678,-0.029983,-0.104342,-0.018561,-0.039708,-0.136027,0.000584,-0.038102,0.034922,0.011927,9.6e-05,-0.064693],[0.033193,-0.047803,0.000765,0.031376,-0.044726,0.174244,0.056955,0.10717,-0.177713,0.014992,-0.011477,-0.011006,0.116921,-0.090436,0.026525,-0.029403,0.124511,-0.039612,-0.051683,-0.003904,-0.004567,0.113771,0.0468,0.027676,-0.03229,0.062823,-0.21024,-0.021974,0.062425,-0.026377,-0.075392,0.033517,-0.070261,-0.048798,-0.092251,-0.076038,0.005755,-0.043139,-0.07377,0.063906,0.100453,0.099909,-0.064089,0.084655,0.049357,-0.000901,0.007821,-0.023356,-0.086447,-0.100951,0.063434,0.012798,-0.001725,-0.024947,-0.025355,-0.050504,0.032359,-0.1039,-0.000721,0.005312,0.006383,-0.061758,0.057956,-0.067102,-0.06702,-0.065199,-0.013055,-0.070623,0.07349,-0.112247,-0.056801,-0.004594,-0.06676,-0.09682,0.084311,-0.028339,0.051756,-0.021131,-0.114241,0.16426,-0.003271,0.051772,0.047485,-0.094158,-0.052602,-0.00539,0.062695,0.048764,-0.062204,0.042889,-0.056093,-0.039367,-0.124812,-0.031909,0.008337,-0.028692,-0.046582,-0.022812,-0.087087,0.033179,0.034416,0.028964,0.004173,0.03066,-0.016275,-0.012871,0.030473,0.037699,-0.198934,0.011712,-0.15315,0.092671,0.037721,-0.030257,-0.006988,-0.022698,0.008942,0.005907,0.091966,-0.061868,-0.064348,-0.096789,-0.07798,-0.046291,-0.016449,-0.065639,-0.073176,0.079393],[-0.001191,0.03489,0.058122,0.026653,0.026422,0.08198,-0.008234,0.017137,-0.176587,0.001798,0.052291,0.066576,0.039852,-0.005881,0.019447,0.040242,-0.026382,-0.126846,0.054757,-0.039788,0.093728,0.032558,0.022885,0.018247,0.092685,0.100361,0.125093,0.04179,0.015559,0.050207,0.140194,0.119915,0.048943,0.158492,0.038964,0.051617,0.127115,0.01294,-0.005859,0.066158,0.093862,0.049946,0.053118,0.055807,-0.059731,-0.026246,0.02465,0.026036,-0.030066,0.098623,0.027185,-0.050212,-0.017109,0.001148,-0.014689,0.01029,0.141765,-0.007613,0.083437,-0.065887,0.10251,-0.013785,-0.005415,-0.210798,-0.048164,0.073998,-0.021213,-0.023154,0.016889,0.018764,0.056654,0.007761,0.05729,0.076172,-0.031784,-0.016311,-0.001381,-0.010239,0.058321,0.10866,-0.092442,0.008624,0.143099,0.046495,0.068818,-0.241703,0.084752,-0.19954,0.004204,0.047561,0.046665,0.000306,-0.105275,0.048859,-0.039174,0.110715,-0.030049,-0.011007,0.068893,0.074379,0.033656,0.070026,0.042907,0.03025,0.001114,-0.047058,-0.014271,-0.009271,-0.032555,0.074437,-0.0205,-0.140812,0.045091,0.067346,-0.065871,0.083632,0.001569,0.042852,-0.014912,0.01709,0.142202,0.079758,0.041009,-0.058743,-0.054985,0.013071,-0.058212,0.021556],[0.242249,-0.235208,-0.208945,-0.275788,0.022556,0.038624,-0.11851,0.047143,0.271776,-0.250689,-0.090264,-0.312048,-0.112945,0.279549,0.078251,-0.08337,-0.14859,-0.249479,-0.265744,0.066611,0.156304,-0.115567,0.091287,-0.306615,-0.037311,-0.00369,-0.035391,0.070673,-0.201853,0.215059,-0.227553,-0.272183,-0.201532,-0.163679,-0.023908,-0.164535,-0.044022,-0.110193,0.049149,0.178392,-0.205422,-0.227182,-0.160708,-0.008142,-0.132315,0.208171,-0.099951,0.074007,0.110126,0.101429,0.073007,-0.254142,-0.06019,0.074621,0.12441,0.116859,-0.166489,-0.101457,-0.132423,-0.116241,-0.300773,0.229753,0.068285,0.262564,-0.162451,-0.12386,0.063699,0.135101,-0.322765,0.124034,-0.186496,-0.10619,-0.035841,0.000673,-0.149301,-0.133352,-0.106195,0.076705,0.059403,-0.10941,-0.199473,-0.197054,-0.086323,0.111501,0.037354,-0.369796,0.220588,-0.174994,-0.037161,-0.321472,0.045974,-0.122284,0.144873,-0.017348,-0.017952,-0.253305,0.25974,-0.153577,-0.036583,-0.162112,-0.253373,-0.099669,-0.158072,-0.048865,-0.095254,-0.130946,-0.062399,-0.087634,0.230156,-0.188074,0.142012,-0.140917,0.019079,-0.162974,0.145986,0.022749,0.086136,-0.192289,-0.07112,-0.067568,-0.128192,0.014756,-0.099081,-0.027839,0.049482,0.162339,0.123582,0.018142],[0.06957,-0.129973,0.034773,-0.005199,0.100569,-0.146294,0.098758,-0.034859,-0.055425,0.028449,-0.045204,-0.148682,0.053304,0.011191,-0.095868,0.025942,0.033757,0.104287,0.049762,-0.084116,0.06338,0.189884,-0.015199,-0.041677,0.02098,0.095317,-0.130074,0.04166,0.003881,0.004436,0.132297,-0.019762,0.01224,0.014077,-0.025914,0.061029,-0.095132,0.009522,-0.109496,0.094361,0.096454,-0.06505,-0.042235,-0.029923,0.068327,-0.054601,-0.023076,0.088376,0.044824,0.022393,-0.032088,0.066231,-0.105872,0.010157,-0.003778,0.029811,0.026677,-0.076652,-0.030482,0.092554,0.012821,0.024088,0.019672,0.012667,0.02656,0.064416,-0.001387,-0.083018,-0.137433,0.00405,0.055594,-0.124935,0.079042,0.002489,0.011517,-0.15578,-0.01964,-0.075155,-0.038789,0.016213,0.091392,0.101401,0.061524,-0.05752,0.025109,0.145376,0.091112,0.009025,-0.036137,-0.049862,-0.020487,0.064947,-0.120828,-0.089167,0.095729,0.064253,-0.069164,0.014985,-0.046195,-0.146591,-0.164563,-0.104189,-0.052086,0.067203,-0.05828,0.126064,-0.008194,-0.087011,-0.083097,-0.017343,0.005031,0.090815,-0.08312,0.0806,-0.156457,-0.028973,-0.063526,0.028681,0.091868,-0.071534,-0.07705,-0.147165,0.054362,-0.024858,0.013151,0.065305,-0.03846,0.016565],[0.047135,0.099537,-0.048604,-0.010914,0.036244,0.090544,0.137912,-0.077982,-0.117772,-0.088067,0.022396,-0.019364,-0.025655,-0.08273,0.047646,0.089811,-0.022667,-0.022611,-0.040833,-0.036391,-0.089002,0.099508,0.005433,-0.089653,-0.069255,0.026534,-0.080587,-0.06646,-0.01668,-0.019819,-0.096786,-0.010084,0.092986,0.119207,-0.00731,-0.03916,-0.057765,-0.063782,0.040883,-0.049789,0.002643,0.160909,0.069111,-0.030001,0.078718,-0.122659,0.102417,-0.015079,0.05529,0.035528,-0.049848,-0.027936,-0.066944,0.00325,0.028566,-0.053603,0.170725,0.004465,0.015508,-0.011717,0.046239,-0.010021,-0.080433,-0.132445,0.021241,-0.01177,-0.002338,-0.150215,0.092817,-0.138438,0.086883,-0.060914,-0.071001,0.208197,0.103083,0.071478,0.062562,-0.015832,-0.030262,0.086782,0.081303,-0.035139,0.012233,-0.083042,-0.01479,-0.052777,-0.020223,0.062448,-0.071954,0.080473,-0.036524,-0.055649,-0.165026,0.002023,-0.073604,0.107143,-0.142899,-0.044652,0.033759,-0.025647,0.110827,0.069093,-0.030226,0.020609,-0.027886,0.039994,-0.021752,0.02243,-0.180895,0.043532,-0.035203,0.04235,-0.069402,-0.077043,-0.053008,-0.03973,0.006776,0.009246,-0.066526,0.001697,-0.030051,0.00021,-0.0645,-0.024914,0.081094,-0.049812,0.047485,0.109261],[-0.070862,-0.039618,0.01559,-0.039427,-0.082525,0.039412,-0.028265,-0.000488,0.007006,-0.086191,0.058735,-0.013451,-0.029168,-0.08089,-0.023156,0.034681,0.074497,-0.029542,-0.073926,-0.060279,0.011137,0.06025,-0.069096,-0.026988,-0.005871,0.042038,-0.000608,0.060049,0.067991,-0.058849,-0.058074,0.066345,0.051267,-0.030455,0.012832,-0.08852,0.068228,0.01463,0.072677,0.005654,0.052051,0.023224,-0.072793,0.027682,-0.076462,-0.011923,0.039868,0.054407,0.025709,-0.09002,-0.063761,0.04192,-0.065103,-0.005814,-0.083645,0.013011,0.00899,-0.05169,0.03682,-0.08409,-0.042435,-0.045547,-0.093403,0.009518,0.051269,-0.006888,0.047053,-0.094966,-0.083434,-0.055981,-0.006389,0.067334,0.056959,0.070684,-0.055989,-0.055522,-0.020316,-0.037868,0.024567,-0.051171,0.048043,0.03561,0.036048,0.010032,-0.07324,-0.084429,0.00463,-0.031211,-0.038143,-0.038767,-0.036326,0.050526,-0.069174,0.023635,0.030609,0.026952,0.03777,-0.099369,-0.074998,-0.072125,-0.057072,-0.05145,-0.061107,-0.069581,-0.076784,0.054329,-0.0799,0.028934,0.05158,0.045554,-0.079522,-0.017845,-0.058264,-0.068574,0.074925,-0.040667,0.064045,-0.092212,-0.059891,0.031318,0.014199,0.013966,-0.009383,-0.046947,0.048098,-0.065744,-0.089977,0.069255],[-0.06261,0.058429,0.016763,-0.071525,-0.048701,-0.135707,0.0715,0.003115,-0.007496,-0.108743,0.03876,0.040506,0.062626,-0.105057,0.001371,0.10351,0.004422,-0.055876,0.090893,0.035617,-0.028292,-0.001608,4.7e-05,0.024689,0.001687,-0.035932,0.022707,-0.025542,-0.025756,-0.018028,-0.089093,0.03617,-0.002051,-0.013116,0.027183,-0.039563,-0.033309,-0.145163,0.041508,0.037069,-0.049486,0.070438,0.01272,-0.093386,-0.083495,-0.006506,-0.038287,-0.158976,-0.037493,0.025573,0.021801,-0.036681,0.062344,0.072269,-0.042438,0.02297,0.101742,-0.052697,0.018172,-0.026615,-0.023815,0.033153,-0.032111,-0.194553,-0.089909,-0.008296,-0.071692,-0.001273,0.08747,-0.041452,-0.013019,-0.043355,-0.032848,-0.100394,-0.066445,0.064489,0.008638,0.016465,-0.084928,0.011517,-0.027344,0.022919,0.022012,0.026732,0.034787,-0.08355,-0.050235,-0.206606,-0.057257,0.061731,-0.040315,0.030591,0.095576,0.02889,-0.051854,0.02681,-0.07197,-0.085574,-0.032484,0.012252,0.052536,0.032399,0.009824,-0.050014,-0.027948,0.1159,-0.020498,-0.022486,0.096879,0.008448,0.048042,-0.0625,0.079453,0.019237,0.071142,0.051129,0.028535,0.025884,-0.030911,0.044243,0.038184,0.034502,-0.084085,0.080933,-0.032238,0.087638,-0.013796,-0.064999],[0.025205,0.057053,-0.084203,0.000191,0.001969,0.097804,0.04286,0.03558,-0.0124,0.004161,0.019058,-0.009206,0.040116,-0.002541,0.047409,-0.048803,0.018217,-0.062608,-0.080916,-0.048294,0.102355,0.094234,0.054127,-0.045843,0.052071,0.050375,-0.07897,0.097851,-0.006289,0.019377,0.050956,-0.016894,0.084472,0.058595,0.056437,0.030991,-0.007336,-0.008247,0.040506,-0.012685,0.065839,-0.041483,0.120271,0.00208,0.077476,0.102496,0.105515,0.103245,0.047078,0.010971,0.040182,0.006183,0.010393,-0.051527,0.02577,-0.02834,-0.06334,-0.005393,0.023653,-0.013525,0.100284,-0.014316,0.031949,-0.027207,-0.068871,0.059379,0.053632,0.075461,0.018808,-0.110061,0.035427,-0.039144,0.099945,0.086593,0.025739,0.105842,0.121474,0.065176,0.042652,-0.070469,-0.050685,-0.054662,-0.03408,0.073043,0.024204,-0.134989,-0.012574,0.071603,0.021021,-0.039443,-0.02762,0.083019,-0.060725,0.119981,0.10155,0.072555,0.030424,-0.014931,0.096496,-0.059227,0.009041,0.094956,0.016664,0.018646,0.072362,-0.099755,-0.053152,0.01489,0.022394,-0.003333,-0.035596,-0.051696,0.080814,0.010896,-0.104623,0.012798,-0.047176,-0.034374,0.047794,-0.077737,0.060806,0.069955,0.025714,0.110733,0.087716,0.076858,0.073008,0.05245],[-0.07475,-0.066767,0.016728,-0.01669,-0.083193,-0.046097,0.032893,-0.087464,0.059991,0.072224,-0.041684,-0.036281,-0.022075,-0.038091,-0.036491,0.006636,-0.020734,0.03111,-0.038202,-0.103834,0.033943,0.036841,0.014914,-0.033625,-0.090623,-0.070785,-0.080917,0.052057,-0.040178,-0.035661,0.060248,0.010636,0.01256,0.05361,-0.061742,-0.060097,-0.092227,-0.07752,0.038654,0.062321,0.066399,-0.0601,-0.088199,-0.087408,0.035101,0.04926,0.010187,-0.041643,0.053607,-0.005378,0.005122,-0.007201,-0.066119,-0.049719,0.038644,-0.083868,-0.035888,-0.017017,0.003534,-0.080366,0.029277,-0.08762,-0.047822,-0.016609,-0.084382,-0.051643,0.037367,0.03722,-0.051617,-0.0407,0.065935,0.043498,0.054734,-0.015747,0.049957,0.016474,0.03176,0.041124,-0.024014,0.004606,-0.058816,0.010901,0.064685,-0.074007,-0.092944,0.032349,-0.035046,-0.008637,-0.002085,-0.085962,-0.003941,0.038255,0.006669,0.055796,0.045853,-0.023986,0.057228,0.018828,-0.076994,-0.000891,0.031006,0.018184,-0.013835,0.036096,-0.04828,-0.005482,-0.080882,0.050631,-0.026855,-0.071782,-0.040752,0.066719,0.025967,-0.03452,0.009233,0.05111,0.060088,-0.009318,0.042768,-0.087975,0.021168,0.06091,-0.060463,-0.0242,-0.099859,0.027582,-0.101813,-0.017209],[-0.014711,0.133985,-0.030982,0.106653,0.119337,0.239354,0.185278,0.120258,-0.171325,0.169811,0.05834,-0.06587,0.124889,-0.091822,-0.090885,-0.051401,0.108439,0.076892,-0.018487,-0.069956,-0.009308,0.041459,-0.100171,0.102659,0.156511,0.013267,-0.125117,-0.094089,0.042957,0.017381,0.212496,-0.058314,0.007157,-0.014542,-0.079947,-0.007172,0.116839,0.182098,-0.027943,-0.003377,0.126522,0.078422,-0.064694,0.043723,0.092924,-0.035976,0.075936,-0.040867,0.004243,-0.062137,-0.007095,0.078724,-0.132406,-0.062884,-0.043225,-0.12945,0.135637,-0.070898,0.033193,0.072817,-0.002136,-0.14763,-0.030059,-0.113281,0.022709,0.1263,-0.093542,-0.050535,0.12511,-0.11466,0.037127,-0.037713,0.088711,-0.103347,-0.031625,-0.006206,-0.04807,0.083317,-0.118918,0.142242,0.008615,0.199603,0.006074,-0.036297,0.046497,0.20344,-0.029865,0.111864,0.014347,0.096484,-0.045234,0.057723,-0.092344,0.08822,0.031637,0.090343,0.00125,-0.005004,0.053831,-0.08714,-0.04309,0.033899,-0.066623,0.096252,-0.024587,0.137363,0.049471,-0.076337,-0.217463,-0.009815,-0.153171,0.111342,-0.064574,0.120524,-0.046006,-0.013883,0.015752,-0.071453,0.089239,0.111331,0.030941,-0.083436,0.112861,0.084534,0.027683,-0.011692,0.052484,0.031277],[0.086378,0.088749,0.126714,-0.140994,0.028304,-0.024329,-0.034066,-0.038667,-0.032795,0.038659,0.094001,0.069218,-0.00678,-0.013951,-0.014745,0.095588,0.019967,-0.120948,0.082125,-0.036314,-0.025883,-0.069004,-0.066665,0.086966,0.07344,-0.006149,0.056109,-0.029452,-0.088856,0.02664,-0.026843,-0.004979,-0.058893,-0.023844,0.02439,-0.014454,0.030621,0.031482,0.067386,-0.012851,-0.116217,0.069138,0.036194,-0.053237,-0.002564,-0.009959,0.140043,0.085741,-0.043637,-0.073934,0.03725,-0.072606,-0.088605,-0.004853,0.033076,-0.080168,0.13874,-0.011023,0.0022,0.085257,0.078954,0.023792,0.00244,-0.234376,0.065326,0.079825,-0.079573,0.027813,0.141741,-0.081795,0.017627,0.03048,-0.06403,0.038318,-0.045108,0.008092,-0.004093,-0.079592,-0.043335,0.069816,-0.110482,-0.031438,0.095195,0.022713,-0.05805,-0.093346,-0.038392,-0.064755,0.03937,0.041148,-0.008421,0.03545,-0.023016,0.119382,0.032852,0.051705,-0.059572,-0.06578,0.041987,0.008792,0.081137,0.046015,0.029263,0.096775,-0.071342,0.006034,0.013719,-0.069857,-0.054045,0.126948,-0.007412,-0.034282,0.072693,-0.001003,-0.004488,0.001169,0.035896,-0.010963,0.021863,0.035874,-0.030294,0.131695,-0.099494,0.071286,0.062734,-0.056062,-0.073383,-0.050019],[0.032849,0.019579,0.028597,0.024697,-0.047777,-0.055089,0.022847,0.004179,0.003313,-0.064147,0.004519,-0.084042,-0.054075,0.0666,0.023119,-0.081943,-0.074612,-0.046365,-0.019436,-0.077776,-0.049626,0.018507,0.035098,-0.062428,-0.100066,0.002832,-0.0091,0.069507,0.001401,-0.056097,0.015834,0.061756,5.1e-05,0.039509,0.015682,-0.031656,0.035905,0.030451,0.040695,-0.081526,-0.012292,0.053506,-0.076906,-0.086277,-0.032805,-0.037104,-0.009868,-0.00913,-0.051575,-0.095799,-0.053392,-0.034565,0.036262,0.058546,-0.093973,-0.079574,0.041979,-0.02145,-0.076519,0.001043,-0.079904,0.014575,-0.09319,0.078844,0.046908,-0.048813,-0.087397,-0.087768,-0.084707,-0.088733,0.041737,0.060564,0.001083,-0.032415,0.026061,0.0672,0.051498,-0.037632,-0.030872,-0.066212,0.056842,-0.048252,0.036506,-0.055727,0.059158,-0.023774,-0.077127,-0.089346,-0.037813,0.038092,0.025495,-0.05358,0.079072,-0.077579,0.038373,-0.008667,0.024844,-0.018145,0.007529,-0.010918,-0.035155,-0.022753,-0.039882,-0.032246,-0.103616,0.034828,0.041567,-0.052161,-0.076208,-0.013711,-0.047668,0.047928,-0.025799,-0.078525,0.030831,-0.036344,0.06,-0.081725,-0.058551,-0.056807,-0.001695,0.015517,-0.003682,-0.034803,-0.002849,0.061188,-0.027861,-0.030577],[-0.045119,-0.003264,0.032099,0.042397,-0.021713,0.015423,-0.028519,-0.093391,0.033858,0.011672,0.039543,-0.015046,0.012714,-0.056408,-0.077121,-0.023702,0.07696,0.030337,-0.009644,-0.059763,0.020732,0.015742,-0.006995,0.011889,-0.071189,0.036692,0.017781,0.071499,-0.033155,-0.043914,-0.044621,-0.021758,-0.087274,-0.040049,-0.046319,-0.0686,0.082835,0.006254,-0.091797,-0.085088,-0.044258,-0.020457,-0.089004,0.048517,0.0231,-0.06159,-0.023172,0.060785,0.016814,-0.049938,-0.084461,-0.065553,0.010925,-0.061778,0.03295,-0.06337,0.002015,0.030324,0.003685,0.007991,-0.0184,0.05496,0.072741,-0.017457,0.040554,0.029021,-0.024479,-0.082981,-0.001647,0.080657,-0.037458,0.03143,-0.070515,0.025933,-0.035854,-0.08222,0.085036,-0.080879,0.05509,0.057383,0.011168,0.05266,-0.010437,-0.000603,-0.078981,0.072048,-0.016407,0.062307,0.013181,0.068245,-0.023294,-0.067733,0.050126,0.040185,-0.021915,-0.095784,-0.086084,0.02519,-0.046844,-0.05548,0.048044,-0.076846,0.076202,-0.057324,-0.068522,-0.032543,-0.017866,-0.006952,0.02464,0.010345,0.03122,-0.09038,-0.099389,-0.046894,0.08111,0.01489,-0.069624,-0.064577,-0.018225,0.046856,0.080431,-0.012287,-0.048676,-0.102151,-0.025228,-0.087301,0.06537,-0.054704],[0.023427,0.048377,-0.031732,-0.030416,-0.022283,-0.112566,0.038985,-0.002522,0.048126,0.102316,-0.031846,-0.039985,0.031766,0.024943,-0.000164,0.018899,0.073699,0.067049,-0.002362,0.034624,0.077449,0.149362,0.018959,-0.023056,-0.030991,0.086031,0.08133,0.071883,0.029209,0.115336,0.130532,0.126598,-0.0265,0.004315,0.038819,-0.075961,-0.055784,0.026802,-0.017641,0.101899,0.025028,-0.058876,-0.083673,0.025162,0.003125,-0.000946,-0.023125,0.074061,-0.015961,0.049444,-0.033186,-0.053561,0.061497,-0.056596,0.003009,0.09555,0.071552,-0.074462,-0.024127,0.004941,0.032138,0.016106,-0.034073,-0.012283,0.025114,0.038507,-0.043721,0.085574,-0.04008,-0.027217,-0.040344,-0.100957,0.054037,0.012513,0.009169,-0.093822,0.069049,0.027594,-0.038763,0.067673,-0.000485,0.055675,-0.028543,-0.035206,0.017442,0.066922,-0.010841,-0.034099,0.078817,-0.065807,0.064636,0.070633,-0.009025,0.070567,0.049457,-0.062499,0.105733,0.021839,-0.030601,-0.080822,0.054632,-0.043903,-0.029437,0.078734,-0.014495,0.072542,-0.005968,-0.02495,-0.007142,-0.201675,0.071608,0.017005,0.021782,0.063947,0.079154,0.051063,-0.030467,0.018752,0.029162,-0.058224,-0.060272,-0.029715,-0.071365,-0.003671,-0.062101,0.025178,-0.016034,0.050631],[-0.079842,-0.028717,0.047739,-0.060866,0.0327,-0.027773,0.007092,-0.080643,-0.014119,-0.013081,0.033737,0.023582,0.080636,0.017263,0.062314,0.035186,-0.094734,-0.034957,-0.069429,0.016514,0.063635,-0.10995,-0.117178,-0.022364,0.050623,-0.02053,0.108024,0.007556,0.060047,0.06994,0.024011,0.060631,-0.034559,-0.092001,-0.063399,-0.088048,0.060075,0.098894,0.04945,-0.063761,-0.074861,-0.059926,0.039213,0.028609,-0.021439,-0.096632,-0.111185,0.06861,-0.016342,0.032984,0.011206,-0.007562,-0.030847,0.025593,-0.105373,-0.018879,-0.053481,-0.06929,0.0073,-0.087672,-0.092592,0.04026,-0.069748,0.086163,0.060259,0.058742,0.078079,0.064162,0.020452,-0.124665,0.03429,-0.019076,-0.014754,-0.085037,-0.040968,-0.014622,0.013079,-0.062086,0.06085,0.026682,-0.087804,-0.063698,0.070884,0.001382,-0.084445,-0.037483,-0.053955,-0.018215,-0.068146,0.114521,0.01289,-0.028322,0.056675,-0.011561,-0.056824,-0.099648,-0.066914,-0.00251,-0.086762,-0.019478,-0.049391,-0.051524,-0.031366,-0.079479,0.060321,-0.047817,-0.001879,-0.0984,0.061055,0.063067,0.013001,-0.022182,-0.052354,-0.095088,0.024554,0.017352,-0.021957,0.07911,-0.032019,-0.090194,-0.096373,0.002519,-0.120078,-0.00252,0.043463,-0.048429,-0.006609,-0.041349],[0.046761,-0.013235,0.055953,-0.007698,-0.010687,-0.099227,-0.078656,-0.092121,0.003317,-0.0285,0.010099,-0.09812,-0.002349,0.062033,-0.072245,-0.011953,0.047691,0.01378,-0.09919,-0.088985,-0.075309,-0.089951,-0.110194,-0.073938,-0.080286,0.034146,0.03685,-0.02414,-0.061555,0.055203,0.0365,0.011346,-0.053073,0.043134,-0.041844,-0.043306,0.030606,-0.027934,-0.074765,-0.073183,-0.033256,0.025986,-0.061798,0.01309,-0.003966,0.001165,-0.017819,0.048048,0.015206,-0.042419,-0.056362,0.001073,-0.035687,-0.077386,-0.002998,0.026488,0.002845,-0.087724,0.002688,0.018153,-0.098467,-0.073751,0.01009,-0.021367,-0.043643,0.032201,-0.097295,0.037859,-0.007615,-0.080825,-0.070331,-0.043054,-0.094068,0.023688,0.04125,-0.074867,-0.012012,0.003818,0.046425,0.069028,0.046751,-0.04054,0.056948,0.011282,0.040083,0.001647,0.052815,0.059036,-0.048197,-0.063918,-0.041958,-0.089642,-0.114992,-0.011465,0.014025,0.035938,-0.067077,0.045759,-0.054347,-0.066818,0.063894,-0.050414,-0.085627,0.006506,-0.086129,-0.045586,-0.007354,0.059541,-0.046502,-0.064285,0.012497,-0.022874,-0.057671,0.001688,0.022371,-0.106576,-0.090078,-0.065681,-0.028894,-0.113898,-0.013123,-0.032708,-0.112755,0.048634,0.045964,0.058175,0.020568,-0.060036],[-0.030843,-0.064377,0.048346,-0.071819,0.007445,-0.005335,-0.060041,-0.078881,-0.00508,0.07396,-0.032496,-0.019335,-0.054848,0.021395,0.064787,0.038577,0.001135,-0.044436,0.083309,0.049342,0.035872,-0.059361,-0.066167,0.004248,0.05658,-0.080031,-0.014788,0.034221,0.067906,0.037226,0.021472,-0.058961,0.042111,-0.006161,0.028356,-0.084706,0.043829,0.002425,0.042447,-0.039363,0.002959,0.084495,-0.06218,-0.036766,0.033353,0.032175,5.2e-05,0.036996,-0.0665,-0.048079,0.075553,-0.062696,-0.079018,0.014972,0.075411,-0.065527,-0.041618,-0.062255,0.069531,-0.064778,0.021604,-0.068222,0.083619,0.080755,-0.054137,0.004006,0.000503,0.069518,-0.029378,0.067537,-0.076809,-0.053623,-0.016786,-0.022819,-0.013629,-0.039285,-0.03935,-0.042994,0.045522,-0.056823,-0.068808,0.038372,-0.013069,0.078474,0.058813,-0.00413,0.009358,-0.01469,0.051077,0.014875,-0.035907,0.077562,-0.040409,-0.078665,-0.05533,-0.061338,-0.030464,-0.014341,0.031047,-0.040197,0.063918,-0.028516,0.086769,0.06766,0.069785,-0.045043,0.003396,0.005168,0.016388,0.004937,0.005745,0.020839,0.01046,0.073098,-0.078814,-0.066053,0.019705,0.054407,-0.012444,0.02735,-0.035058,-0.081479,0.064244,-0.069446,-0.083192,-0.037904,-0.054358,-0.064059],[0.180496,-0.199032,-0.05374,-0.208284,-0.028728,-0.149413,-0.179244,-0.012251,0.189217,-0.168526,-0.147003,-0.151709,-0.049573,0.136743,0.0522,0.002061,-0.231497,-0.187164,-0.119531,-0.058785,-0.023057,-0.205618,-0.01376,-0.138269,-0.015938,-0.075929,-0.087946,-0.026295,-0.107347,0.10454,-0.175423,-0.047343,0.002716,-0.072985,-0.004593,-0.048049,-0.189646,-0.169326,-0.147185,0.026505,-0.156331,-0.220538,-0.045587,0.053119,-0.162202,0.031814,-0.006881,0.038511,-0.001525,0.093571,0.033607,-0.086556,0.028504,0.004194,-0.035394,0.081943,-0.245216,0.025578,0.029104,-0.03024,-0.032614,0.243318,-0.007947,0.195641,0.045241,-0.043622,0.076686,0.000281,-0.349209,0.067295,-0.075205,-0.118878,-0.072901,0.084351,0.02903,-0.127855,-0.081316,-0.023885,0.012584,-0.228349,-0.197006,-0.207513,-0.144712,0.092235,0.081912,-0.216028,0.08668,-0.207348,-0.003637,0.03113,0.075725,-0.109008,0.22912,-0.061128,0.020258,0.002865,0.169015,-0.047199,0.060556,-0.033923,-0.05586,-0.032317,-0.115964,-0.101838,-0.015552,-0.168099,-0.004576,-0.117849,0.222992,-0.046149,0.217365,-0.206027,0.016618,0.007409,0.069483,-0.103627,-0.046361,-0.040876,0.000595,-0.003982,-0.021644,-0.079996,-0.05438,0.016213,-0.038234,-0.058577,-0.075209,-0.039738],[0.009276,0.00902,-0.032859,0.023313,0.032292,-0.067173,0.064554,-0.038306,-0.123059,-0.008407,-0.077489,-0.033853,0.057,-0.146949,-0.082074,-0.06314,0.076679,0.052035,0.105538,-0.05373,-0.004833,0.152059,-0.040088,-0.167182,-0.02593,0.092627,-0.1402,-0.097492,-0.040971,-0.08947,-0.088894,-0.085473,0.064315,-0.074967,-0.124547,0.041366,-0.117727,0.004639,-0.090843,0.011948,0.080846,0.028059,0.06093,-0.046088,0.046336,-0.034708,-0.003063,0.043799,-0.029691,-0.079475,-0.023349,-0.016053,-0.005203,-0.004741,-0.013252,-0.076802,0.125136,-0.020025,0.049028,-0.038557,0.07866,0.004494,-0.047857,-0.166514,-0.089366,0.100858,0.036577,-0.111984,-0.005604,-0.180905,0.073205,-0.1238,-0.033585,-0.091282,-0.006968,-0.055509,-0.052398,-0.087868,-0.12674,0.136061,0.149885,-0.020365,-0.038283,-0.002249,-0.034301,0.029308,-0.057713,0.038202,-0.067027,-0.027379,0.032732,-0.055396,-0.124886,-0.088942,-0.068892,0.030276,-0.022619,0.075791,-0.004358,0.083348,0.009694,0.058741,0.023003,-0.042767,-0.010597,-0.034604,-0.070169,-0.05349,-0.170489,-0.00895,-0.052519,-0.008485,0.05574,-0.024677,-0.210029,0.02016,0.031941,-0.043265,0.086561,0.05435,0.063554,-0.035941,-0.003847,-0.000115,0.044481,-0.089386,0.041737,-0.082248],[-0.001426,-0.0196,0.005397,0.11855,0.17905,-0.372779,0.136671,0.076381,-0.205003,0.126085,-0.110188,0.086538,0.159268,-0.129066,-0.121915,0.068874,0.079267,0.150526,0.111095,-0.038068,-0.091816,0.08197,-0.084294,0.035286,0.040907,0.028696,-0.287663,-0.097404,0.000963,-0.110875,0.14274,0.10874,0.056336,0.020827,-0.196669,0.01777,-0.233559,0.044307,-0.142342,-0.081794,0.150181,0.135297,-0.024395,0.04495,0.118944,-0.147418,-0.013043,0.047466,-0.018248,-0.030928,0.065384,0.060683,-0.169741,-0.031236,-0.021604,-0.188505,0.135917,-0.034679,0.089932,0.074718,0.032665,-0.081555,-0.097383,-0.185013,0.107267,0.091849,0.068441,-0.09554,0.100056,-0.079848,-0.027806,-0.043081,0.0624,-0.133977,0.081334,-0.117404,-0.046543,-0.088177,-0.12768,0.037551,0.028403,0.007865,-0.121586,-0.181083,0.038907,0.219475,-0.055945,0.082016,0.054655,0.063677,0.124732,0.080011,-0.040692,-0.039524,-0.020482,0.034395,-0.077085,0.039506,0.098597,-0.000615,-0.033237,-0.004079,-0.083921,-0.080638,0.098269,0.058753,-0.069096,-0.021223,-0.252582,0.088695,-0.048635,0.119039,-0.111607,0.078859,-0.153107,-0.014034,-0.120176,-0.055463,0.032169,0.004424,0.119852,-0.153796,-0.003711,0.106252,0.064486,0.033593,0.017772,-0.007477],[-0.055301,0.127624,0.038172,-0.008335,0.036466,0.008279,0.052663,0.057984,-0.063135,0.129247,-0.057566,0.090728,-0.019812,-0.071743,0.077616,-0.092433,0.066731,-0.051159,-0.022099,0.051633,-0.001221,-0.057821,-0.020841,-0.074554,0.006655,0.056545,0.036115,0.069281,-0.068026,0.102493,-0.069277,-0.044389,0.002723,0.00599,-0.009194,0.036643,0.028012,0.051941,0.088499,0.049375,0.022403,-0.042913,0.075169,0.049465,0.085278,0.088077,0.099177,0.025478,0.054387,0.00451,0.024039,-0.015998,-0.007335,0.092101,0.047032,0.007733,-0.003673,0.054436,0.097249,-0.006333,-0.007038,0.066654,0.004072,-0.017301,-0.002568,0.003649,0.108659,0.092117,0.212319,0.027754,-0.025193,0.000234,0.026813,-0.002981,0.003191,0.063032,0.013265,0.000425,-0.077425,-0.126319,0.030665,0.091826,-0.030527,0.075795,0.018288,-0.061938,-0.052367,0.086482,0.014964,-0.081876,0.034049,-0.024623,-0.210471,-0.023783,0.028984,0.100125,-0.050069,-0.054135,0.082459,-0.048503,0.031444,0.123866,0.042447,-0.02479,-0.024213,0.021173,-0.020912,-0.073222,-0.100934,-0.016113,0.052031,0.090096,0.018216,0.045074,-0.165767,0.016071,-0.04115,0.113174,0.038809,0.018288,-0.042498,-0.039653,0.0112,0.070188,0.03911,0.104754,0.051977,0.031021],[0.014431,0.049246,-0.057989,-0.067545,0.051322,0.012882,0.020138,-0.085541,-0.056492,-0.061231,-0.082166,-0.0241,0.014313,0.033195,0.087639,-0.037262,0.024133,0.03934,-0.014139,0.046612,0.039036,0.055807,-0.051122,-0.057135,-0.000273,-0.003327,-0.053653,-0.083488,0.043142,-0.056885,0.075707,-0.010568,-0.061969,0.022794,-0.055273,0.002153,0.046247,0.03651,-0.051812,-0.09304,-0.012215,0.037501,-0.040908,-0.009643,-0.022317,-0.060319,-0.091834,0.009266,-0.096884,-0.059291,0.01496,0.033929,0.075741,-0.044208,-0.043995,0.009221,0.077105,-0.054708,-0.046868,0.055253,0.039558,-0.056131,-0.081071,0.07772,-0.020946,0.018435,-0.00791,0.065426,-0.06257,0.033176,-0.070179,-0.055076,0.05398,0.023047,-0.00065,-0.017514,-0.013261,0.070055,-0.015976,-0.061072,-0.001412,0.072102,-0.052093,0.069923,-0.097532,-0.074849,0.02519,-0.072011,0.063753,-0.022758,0.025864,0.008335,-0.042696,0.038188,0.029116,-0.091737,-0.065652,-0.091366,0.077284,-0.071961,0.024519,0.0708,0.015934,-0.069343,0.071005,0.024254,-0.040314,0.010732,0.00658,-0.017292,0.039528,-0.096845,0.024162,-0.022315,-0.006371,-0.090426,-0.010132,-0.047646,-0.053769,-0.035401,-0.006417,-0.047269,-0.080871,-0.032121,0.017343,-0.018496,0.039379,-0.090679],[0.069602,-0.11709,-0.023216,0.118501,0.025255,0.070696,-0.026424,-0.08978,0.099554,0.197,-0.02103,-0.045979,-0.014199,-0.036517,-0.137997,0.031935,-0.034855,-0.033682,-0.055476,-0.082963,-0.030306,0.023296,-0.028516,0.085763,0.051281,0.00861,-0.035446,0.030503,0.05426,0.055421,0.061021,-0.06128,-0.091171,-0.09104,-0.12652,0.003779,0.03979,-0.002789,0.019995,-0.068649,-0.066882,0.022052,-0.101973,-0.009994,-0.058351,0.057575,0.064678,0.095152,0.004781,-0.06021,-0.005164,0.041071,-0.010434,-0.062076,-0.067668,-0.074853,-0.056156,-0.042628,0.049049,-0.00762,-0.103413,0.030348,0.058133,-0.04996,0.045466,-0.042998,-0.030051,0.026243,-0.02172,-0.069246,-0.046514,-0.159115,-0.051283,-0.052709,-0.067922,-0.102402,-0.011273,-0.033387,0.035436,0.036748,-0.045358,0.123742,0.036896,-0.082033,0.090009,0.135826,0.066483,0.086928,0.07358,8.2e-05,-0.048633,-0.076757,-0.029329,-0.050928,0.049982,-0.050935,-0.008089,0.044718,-0.07334,-0.006226,-0.071567,-0.099587,-0.096884,-0.033129,0.055484,0.019781,0.037913,0.001958,0.014782,-0.028537,0.020742,-0.045387,-0.057738,-0.031529,-0.041887,0.001747,0.028308,0.010462,0.040096,-0.058826,-0.073883,-0.162209,0.068902,0.020621,0.014825,-0.026458,0.023864,0.077672],[0.055178,-0.06072,-0.102012,-0.041427,0.042678,-0.190282,0.07059,-0.013893,0.052565,0.116721,0.041216,0.003248,0.023025,-0.008805,-0.014382,-0.101327,0.072605,0.09518,0.104772,-0.089753,0.071797,0.158127,-0.030538,-0.056537,0.058193,0.064765,-0.119852,0.042934,0.04534,0.064023,0.07207,-0.03731,0.061714,-0.022134,-0.139375,-0.059106,-0.094185,-0.012889,-0.126666,-0.033548,0.093191,-8.5e-05,-0.019493,-0.027303,-0.0169,0.004804,0.069086,0.035925,-0.074979,-0.001129,-0.047427,0.027069,-0.084598,-0.087521,0.069609,-0.094776,-0.00384,0.030759,-0.053478,0.034295,-0.076473,-0.109078,0.074732,-0.139185,0.037894,0.018327,-0.027858,-0.051483,0.007333,-0.047098,0.057974,0.029362,0.004342,-0.053963,0.07337,-0.043057,0.008947,0.045602,-0.112036,0.053707,0.027743,-0.007815,-0.033592,-0.016629,0.088545,0.010048,-0.022653,0.032283,0.016289,-0.023278,-0.020105,-0.008904,-0.100653,0.046462,-0.011283,-0.010665,0.026369,0.071784,0.011797,-0.041429,-0.0847,-0.031166,-0.035395,0.002597,0.020456,0.099257,-0.005035,0.008675,-0.164216,-0.0647,-0.153014,0.127414,0.065575,-0.022718,-0.156889,0.03975,-0.048988,-0.071282,0.063639,0.023212,-0.070098,-0.097593,-0.005118,-0.075411,-0.015077,-0.023261,-0.034107,-0.028701],[0.036816,0.09021,0.02935,-0.067263,0.018492,-0.046239,-0.033329,0.041434,-0.048065,-0.0304,0.107354,0.011527,0.104727,0.076056,0.032491,0.036338,-0.018219,-0.030911,0.123825,-0.050581,0.026247,0.212235,0.038423,0.083616,-0.022341,0.092251,-0.008786,0.019267,-0.016229,-0.002141,0.084312,-0.008525,-0.026794,0.015354,0.096079,0.076955,0.079461,-0.028753,0.003159,-0.040786,0.03204,0.097748,0.015046,-0.027707,-0.046291,0.043409,-0.011483,0.062265,0.092826,-0.057503,-0.016857,0.011955,-0.020173,-0.030076,0.057324,-0.076568,0.234019,-0.030125,-0.054055,-0.0367,-0.069885,-0.047978,0.020429,-0.377457,-0.043228,-0.016756,-0.01882,-0.024529,0.131042,-0.012382,-0.034749,0.03876,0.064345,-0.04236,0.108331,0.049476,0.062566,0.000144,0.100759,0.141093,0.051071,0.117923,0.098137,0.040169,0.070533,-0.210765,0.115334,-0.203301,0.067985,0.082832,-0.07048,0.034877,-0.146765,0.098929,0.012089,0.047333,0.025198,0.025868,-0.023183,0.078118,-0.071583,0.003959,0.014583,-0.010636,0.08855,0.056332,0.035508,0.056061,-0.045924,0.052848,-0.086103,-0.058176,0.083112,0.042293,-0.018946,0.029251,-0.045968,-0.043007,-0.012662,0.010108,0.075504,-0.056422,-0.009597,-0.018559,0.066131,0.077182,-0.04453,-0.012634],[-0.092491,-0.046572,0.011219,-0.017856,0.029522,-0.03677,0.026286,0.076373,-0.211185,-0.156989,-0.001937,0.050014,-0.025427,0.029522,-0.043501,-0.015011,-0.042,-0.112897,0.102688,0.022262,-0.018324,0.107331,0.031579,0.097722,0.017148,0.055195,0.069303,0.030089,-0.049764,-0.121013,-0.136169,0.025023,0.070041,0.013744,-0.022964,0.008761,-0.034849,0.005709,-0.076078,-0.033508,0.033937,0.105781,0.080651,0.01025,-0.053671,-0.055179,0.015327,-0.003926,0.007189,-0.08582,-0.086828,0.042768,-0.042483,-0.106388,-0.033074,-0.076764,0.008994,0.043279,-0.011572,0.040473,0.082389,0.048278,-0.037159,-0.181642,-0.066677,-0.003248,-0.062716,0.014756,0.108995,-0.039618,-0.058476,-0.080914,0.008819,0.03134,0.00565,-0.082104,-0.067139,0.005292,0.040282,0.108474,0.031012,-0.039082,0.038642,7.4e-05,-0.034861,-0.002083,0.032416,-0.044802,-0.055137,0.101882,0.073914,0.040225,-0.08289,-0.072811,0.041629,0.060914,-0.002199,0.064902,0.029223,0.06004,0.01545,0.060667,-0.039524,-0.072612,0.061017,0.006059,0.017193,-0.018857,0.031306,-0.015419,-0.123123,0.021513,-0.036473,0.06074,-0.094437,-0.027706,0.021172,-0.043564,-0.043772,0.022832,0.09343,-0.078471,-0.047168,-0.054733,-0.083882,0.058522,-0.027251,-0.10153],[-0.049073,0.12545,-0.008853,0.069081,-0.120291,-0.17509,-0.140244,-0.239793,0.226037,0.179707,-0.174442,0.022033,-0.060162,0.154639,0.12299,-0.072458,0.172629,0.143795,-0.169681,-0.114957,-0.085673,-0.041832,0.075719,0.116362,-0.162914,-0.05524,0.241588,-0.057497,-0.086378,-0.086445,0.175191,0.107053,-0.037351,0.019812,0.097258,-0.070667,-0.08579,-0.071731,0.023114,-0.065003,-0.09803,-0.098193,-0.054529,-0.026462,0.068372,0.067474,-0.028913,-0.040392,0.11273,0.03078,-0.181069,-0.115396,0.10942,-0.071654,0.048544,0.156058,-0.087087,0.063897,-0.105237,-0.119003,-0.101109,0.074213,0.068701,-0.416071,0.081123,-0.124577,-0.228652,0.033854,0.035633,0.360744,-0.086916,0.106536,-0.047381,-0.297666,-0.156387,0.010926,0.09078,0.017069,0.051052,-0.268318,0.001711,0.140258,-0.036019,0.072965,0.144903,0.003146,0.091286,0.05419,-0.110296,-0.127756,0.029604,-0.137978,-0.030516,-0.106297,-0.098112,-0.249174,0.095166,-0.097174,-0.099079,-0.134972,0.05844,-0.045972,-0.043595,-0.050871,-0.049882,-0.129784,-0.109386,